{"learner":{"attributes":{},"feature_names":["day_of_week","hour_of_day"],"feature_types":[],"gradient_booster":{"model":{"cats":{"enc":[],"feature_segments":[],"sorted_idx":[]},"gbtree_model_param":{"num_parallel_tree":"1","num_trees":"50"},"iteration_indptr":[0,1,2,3,4,5,6,7,8,9,10,11,12,13,14,15,16,17,18,19,20,21,22,23,24,25,26,27,28,29,30,31,32,33,34,35,36,37,38,39,40,41,42,43,44,45,46,47,48,49,50],"tree_info":[0,0,0,0,0,0,0,0,0,0,0,0,0,0,0,0,0,0,0,0,0,0,0,0,0,0,0,0,0,0,0,0,0,0,0,0,0,0,0,0,0,0,0,0,0,0,0,0,0,0],"trees":[{"base_weights":[3.1789145E-7,-1.0478504E1,9.9271476E-1,-1.1540589E1,-8.601501E0,3.1841626E0,-4.882856E0,-1.1758534E1,-2.6597592E-1,-7.562218E0,-9.173027E-1,-4.4311714E-1,3.7590222E0,-2.3573186E0,-7.7053776E0,-1.1973077E0,-1.0877115E0,-8.6263525E-1,-7.1444273E-1,1.6111372E-1,-6.2825584E-1,4.484461E-1,6.132952E-2,-4.626514E-1,-9.5243804E-2,-9.6137524E-1,-5.2408534E-1],"categories":[],"categories_nodes":[],"categories_segments":[],"categories_sizes":[],"default_left":[0,0,0,0,0,0,0,0,0,0,0,0,0,0,0,0,0,0,0,0,0,0,0,0,0,0,0],"id":0,"left_children":[1,3,5,7,9,11,13,15,-1,17,-1,19,21,23,25,-1,-1,-1,-1,-1,-1,-1,-1,-1,-1,-1,-1],"loss_changes":[1.789796E5,2.8691094E3,2.0238773E5,1.8036094E3,2.5257031E2,2.3872773E4,3.0420031E4,4.46875E1,0E0,2.639746E1,0E0,1.880738E4,2.2548281E4,7.184418E3,9.431344E3,0E0,0E0,0E0,0E0,0E0,0E0,0E0,0E0,0E0,0E0,0E0,0E0],"parents":[2147483647,0,0,1,1,2,2,3,3,4,4,5,5,6,6,7,7,9,9,11,11,12,12,13,13,14,14],"right_children":[2,4,6,8,10,12,14,16,-1,18,-1,20,22,24,26,-1,-1,-1,-1,-1,-1,-1,-1,-1,-1,-1,-1],"split_conditions":[4E0,6E0,2E1,3E0,1E0,7E0,2.2E1,5E0,-2.6597592E-1,7E0,-9.173027E-1,6E0,1.8E1,4E0,5E0,-1.1973077E0,-1.0877115E0,-8.6263525E-1,-7.1444273E-1,1.6111372E-1,-6.2825584E-1,4.484461E-1,6.132952E-2,-4.626514E-1,-9.5243804E-2,-9.6137524E-1,-5.2408534E-1],"split_indices":[1,0,1,1,1,1,1,0,0,0,0,0,1,0,0,0,0,0,0,0,0,0,0,0,0,0,0],"split_type":[0,0,0,0,0,0,0,0,0,0,0,0,0,0,0,0,0,0,0,0,0,0,0,0,0,0,0],"sum_hessian":[1.7204E4,1.488E3,1.5716E4,9.47E2,5.41E2,1.1447E4,4.269E3,9.24E2,2.3E1,1.97E2,3.44E2,1.566E3,9.881E3,2.254E3,2.015E3,7.33E2,1.91E2,5E1,1.47E2,1.159E3,4.07E2,8.029E3,1.852E3,8.61E2,1.393E3,1.134E3,8.81E2],"tree_param":{"num_deleted":"0","num_feature":"2","num_nodes":"27","size_leaf_vector":"1"}},{"base_weights":[-4.0961435E-4,-9.434042E0,8.9331555E-1,-1.0389221E1,-7.745953E0,2.8657496E0,-4.395049E0,-1.0585152E1,-2.4048655E-1,-6.8139615E0,-8.2583827E-1,1.6836177E-1,3.5211878E0,-2.1218345E0,-6.935577E0,-1.0777401E0,-9.795068E-1,-7.780631E-1,-6.434812E-1,1.9218397E-1,-4.1964766E-1,4.268454E-1,5.519984E-2,-4.1643992E-1,-8.57263E-2,-8.653224E-1,-4.7173625E-1],"categories":[],"categories_nodes":[],"categories_segments":[],"categories_sizes":[],"default_left":[0,0,0,0,0,0,0,0,0,0,0,0,0,0,0,0,0,0,0,0,0,0,0,0,0,0,0],"id":1,"left_children":[1,3,5,7,9,11,13,15,-1,17,-1,19,21,23,25,-1,-1,-1,-1,-1,-1,-1,-1,-1,-1,-1,-1],"loss_changes":[1.4506506E5,2.3204375E3,1.6395584E5,1.4575781E3,2.0257617E2,2.0239148E4,2.4645234E4,3.4929688E1,0E0,2.250293E1,0E0,1.714458E4,2.0432562E4,5.8210254E3,7.6403594E3,0E0,0E0,0E0,0E0,0E0,0E0,0E0,0E0,0E0,0E0,0E0,0E0],"parents":[2147483647,0,0,1,1,2,2,3,3,4,4,5,5,6,6,7,7,9,9,11,11,12,12,13,13,14,14],"right_children":[2,4,6,8,10,12,14,16,-1,18,-1,20,22,24,26,-1,-1,-1,-1,-1,-1,-1,-1,-1,-1,-1,-1],"split_conditions":[4E0,6E0,2E1,3E0,1E0,8E0,2.2E1,5E0,-2.4048655E-1,7E0,-8.2583827E-1,6E0,1.8E1,4E0,5E0,-1.0777401E0,-9.795068E-1,-7.780631E-1,-6.434812E-1,1.9218397E-1,-4.1964766E-1,4.268454E-1,5.519984E-2,-4.1643992E-1,-8.57263E-2,-8.653224E-1,-4.7173625E-1],"split_indices":[1,0,1,1,1,1,1,0,0,0,0,0,1,0,0,0,0,0,0,0,0,0,0,0,0,0,0],"split_type":[0,0,0,0,0,0,0,0,0,0,0,0,0,0,0,0,0,0,0,0,0,0,0,0,0,0,0],"sum_hessian":[1.7204E4,1.488E3,1.5716E4,9.47E2,5.41E2,1.1447E4,4.269E3,9.24E2,2.3E1,1.97E2,3.44E2,2.238E3,9.209E3,2.254E3,2.015E3,7.33E2,1.91E2,5E1,1.47E2,1.597E3,6.41E2,7.357E3,1.852E3,8.61E2,1.393E3,1.134E3,8.81E2],"tree_param":{"num_deleted":"0","num_feature":"2","num_nodes":"27","size_leaf_vector":"1"}},{"base_weights":[-7.249653E-4,-8.4936905E0,8.038832E-1,-9.352723E0,-6.9755044E0,2.8648014E0,-3.33151E0,-9.528861E0,-2.1743996E-1,-6.139745E0,-7.434939E-1,1.5142417E-1,3.6006699E0,-1.503855E0,-6.242683E0,-9.701129E-1,-8.8206637E-1,-7.017824E-1,-5.795679E-1,1.7297764E-1,-3.7774828E-1,3.9636835E-1,2.0146565E-1,-3.0876586E-1,-4.817994E-2,-8.3872527E-1,-4.7983208E-1],"categories":[],"categories_nodes":[],"categories_segments":[],"categories_sizes":[],"default_left":[0,0,0,0,0,0,0,0,0,0,0,0,0,0,0,0,0,0,0,0,0,0,0,0,0,0,0],"id":2,"left_children":[1,3,5,7,9,11,13,15,-1,17,-1,19,21,23,25,-1,-1,-1,-1,-1,-1,-1,-1,-1,-1,-1,-1],"loss_changes":[1.1757735E5,1.8766719E3,1.3396094E5,1.1778984E3,1.6246875E2,2.0944719E4,2.7806805E4,2.7273438E1,0E0,1.9146484E1,0E0,1.389102E4,4.7430547E3,5.1995093E3,6.2043906E3,0E0,0E0,0E0,0E0,0E0,0E0,0E0,0E0,0E0,0E0,0E0,0E0],"parents":[2147483647,0,0,1,1,2,2,3,3,4,4,5,5,6,6,7,7,9,9,11,11,12,12,13,13,14,14],"right_children":[2,4,6,8,10,12,14,16,-1,18,-1,20,22,24,26,-1,-1,-1,-1,-1,-1,-1,-1,-1,-1,-1,-1],"split_conditions":[4E0,6E0,1.9E1,3E0,1E0,8E0,2.2E1,5E0,-2.1743996E-1,7E0,-7.434939E-1,6E0,7E0,4E0,4E0,-9.701129E-1,-8.8206637E-1,-7.017824E-1,-5.795679E-1,1.7297764E-1,-3.7774828E-1,3.9636835E-1,2.0146565E-1,-3.0876586E-1,-4.817994E-2,-8.3872527E-1,-4.7983208E-1],"split_indices":[1,0,1,1,1,1,1,0,0,0,0,0,0,0,0,0,0,0,0,0,0,0,0,0,0,0,0],"split_type":[0,0,0,0,0,0,0,0,0,0,0,0,0,0,0,0,0,0,0,0,0,0,0,0,0,0,0],"sum_hessian":[1.7204E4,1.488E3,1.5716E4,9.47E2,5.41E2,1.0489E4,5.227E3,9.24E2,2.3E1,1.97E2,3.44E2,2.238E3,8.251E3,3.212E3,2.015E3,7.33E2,1.91E2,5E1,1.47E2,1.597E3,6.41E2,6.713E3,1.538E3,1.259E3,1.953E3,8.09E2,1.206E3],"tree_param":{"num_deleted":"0","num_feature":"2","num_nodes":"27","size_leaf_vector":"1"}},{"base_weights":[-9.6480554E-4,-7.6470714E0,7.2341347E-1,-8.419634E0,-6.2816896E0,2.329816E0,-3.5835705E0,-8.577977E0,-1.96602E-1,-5.532242E0,-6.6936E-1,-1.6273888E0,2.663548E0,-1.7622187E0,-5.6190686E0,-8.732338E-1,-7.943191E-1,-6.329803E-1,-5.220027E-1,2.561512E-2,-4.9727908E-1,3.1448534E-1,4.0078048E-2,-3.4400353E-1,-7.2345264E-2,-7.0534456E-1,-3.7668738E-1],"categories":[],"categories_nodes":[],"categories_segments":[],"categories_sizes":[],"default_left":[0,0,0,0,0,0,0,0,0,0,0,0,0,0,0,0,0,0,0,0,0,0,0,0,0,0,0],"id":3,"left_children":[1,3,5,7,9,11,13,15,-1,17,-1,19,21,23,25,-1,-1,-1,-1,-1,-1,-1,-1,-1,-1,-1,-1],"loss_changes":[9.529841E4,1.5177734E3,1.0875035E5,9.518828E2,1.3028711E2,1.5123078E4,1.5820512E4,2.1273438E1,0E0,1.6262695E1,0E0,5.6156416E3,1.1497266E4,3.9276577E3,5.329426E3,0E0,0E0,0E0,0E0,0E0,0E0,0E0,0E0,0E0,0E0,0E0,0E0],"parents":[2147483647,0,0,1,1,2,2,3,3,4,4,5,5,6,6,7,7,9,9,11,11,12,12,13,13,14,14],"right_children":[2,4,6,8,10,12,14,16,-1,18,-1,20,22,24,26,-1,-1,-1,-1,-1,-1,-1,-1,-1,-1,-1,-1],"split_conditions":[4E0,6E0,2E1,3E0,1E0,5E0,2.2E1,5E0,-1.96602E-1,7E0,-6.6936E-1,5E0,1.8E1,4E0,5E0,-8.732338E-1,-7.943191E-1,-6.329803E-1,-5.220027E-1,2.561512E-2,-4.9727908E-1,3.1448534E-1,4.0078048E-2,-3.4400353E-1,-7.2345264E-2,-7.0534456E-1,-3.7668738E-1],"split_indices":[1,0,1,1,1,1,1,0,0,0,0,0,1,0,0,0,0,0,0,0,0,0,0,0,0,0,0],"split_type":[0,0,0,0,0,0,0,0,0,0,0,0,0,0,0,0,0,0,0,0,0,0,0,0,0,0,0],"sum_hessian":[1.7204E4,1.488E3,1.5716E4,9.47E2,5.41E2,1.1447E4,4.269E3,9.24E2,2.3E1,1.97E2,3.44E2,8.9E2,1.0557E4,2.254E3,2.015E3,7.33E2,1.91E2,5E1,1.47E2,5.7E2,3.2E2,8.705E3,1.852E3,8.61E2,1.393E3,1.134E3,8.81E2],"tree_param":{"num_deleted":"0","num_feature":"2","num_nodes":"27","size_leaf_vector":"1"}},{"base_weights":[-1.1767856E-3,-6.884841E0,6.5096915E-1,-7.579637E0,-5.6568866E0,2.3277493E0,-2.7136202E0,-7.721982E0,-1.77761E-1,-4.984851E0,-6.02618E-1,2.4671613E-1,3.0504394E0,-1.2419811E0,-5.057699E0,-7.860294E-1,-7.1530086E-1,-5.709233E-1,-4.701551E-1,1.0620483E-1,-4.6692133E-1,3.3820936E-1,1.6525678E-1,-2.556729E-1,-3.9355543E-2,-6.3487226E-1,-3.3906135E-1],"categories":[],"categories_nodes":[],"categories_segments":[],"categories_sizes":[],"default_left":[0,0,0,0,0,0,0,0,0,0,0,0,0,0,0,0,0,0,0,0,0,0,0,0,0,0,0],"id":4,"left_children":[1,3,5,7,9,11,13,15,-1,17,-1,19,21,23,25,-1,-1,-1,-1,-1,-1,-1,-1,-1,-1,-1,-1],"loss_changes":[7.724037E4,1.2275078E3,8.867655E4,7.6921484E2,1.0447266E2,1.5775602E4,1.802843E4,1.6566406E1,0E0,1.3791016E1,0E0,1.0846912E4,3.6040703E3,3.5829858E3,4.3173984E3,0E0,0E0,0E0,0E0,0E0,0E0,0E0,0E0,0E0,0E0,0E0,0E0],"parents":[2147483647,0,0,1,1,2,2,3,3,4,4,5,5,6,6,7,7,9,9,11,11,12,12,13,13,14,14],"right_children":[2,4,6,8,10,12,14,16,-1,18,-1,20,22,24,26,-1,-1,-1,-1,-1,-1,-1,-1,-1,-1,-1,-1],"split_conditions":[4E0,6E0,1.9E1,3E0,1E0,9E0,2.2E1,5E0,-1.77761E-1,7E0,-6.02618E-1,7E0,7E0,4E0,5E0,-7.860294E-1,-7.1530086E-1,-5.709233E-1,-4.701551E-1,1.0620483E-1,-4.6692133E-1,3.3820936E-1,1.6525678E-1,-2.556729E-1,-3.9355543E-2,-6.3487226E-1,-3.3906135E-1],"split_indices":[1,0,1,1,1,1,1,0,0,0,0,0,0,0,0,0,0,0,0,0,0,0,0,0,0,0,0],"split_type":[0,0,0,0,0,0,0,0,0,0,0,0,0,0,0,0,0,0,0,0,0,0,0,0,0,0,0],"sum_hessian":[1.7204E4,1.488E3,1.5716E4,9.47E2,5.41E2,1.0489E4,5.227E3,9.24E2,2.3E1,1.97E2,3.44E2,2.704E3,7.785E3,3.212E3,2.015E3,7.33E2,1.91E2,5E1,1.47E2,2.32E3,3.84E2,6.291E3,1.494E3,1.259E3,1.953E3,1.134E3,8.81E2],"tree_param":{"num_deleted":"0","num_feature":"2","num_nodes":"27","size_leaf_vector":"1"}},{"base_weights":[-1.3175164E-3,-6.1985884E0,5.858007E-1,-6.8234444E0,-5.09423E0,1.6764816E0,-3.6263044E0,-6.9514065E0,-1.6072556E-1,-4.491624E0,-5.425308E0,2.2064605E0,-8.384836E-2,-5.3204007E0,-2.5318284E0,-7.0753354E-1,-6.4414334E-1,-5.149505E-1,-4.234573E-1,-5.0721663E-1,-5.7102096E-1,7.14296E-2,3.3251816E-1,-1.3711831E-1,4.0786497E-2,-3.7371606E-1,-6.211001E-1,-1.6340499E-1,-5.167915E-1],"categories":[],"categories_nodes":[],"categories_segments":[],"categories_sizes":[],"default_left":[0,0,0,0,0,0,0,0,0,0,0,0,0,0,0,0,0,0,0,0,0,0,0,0,0,0,0,0,0],"id":5,"left_children":[1,3,5,7,9,11,13,15,-1,17,19,21,23,25,27,-1,-1,-1,-1,-1,-1,-1,-1,-1,-1,-1,-1,-1,-1],"loss_changes":[6.2604555E4,9.927461E2,7.221096E4,6.2159375E2,8.3765625E1,1.164791E4,5.9809883E3,1.2886719E1,0E0,1.167749E1,5.7470703E0,1.6016379E4,1.8299282E3,1.7647188E3,4.644334E3,0E0,0E0,0E0,0E0,0E0,0E0,0E0,0E0,0E0,0E0,0E0,0E0,0E0,0E0],"parents":[2147483647,0,0,1,1,2,2,3,3,4,4,5,5,6,6,7,7,9,9,10,10,11,11,12,12,13,13,14,14],"right_children":[2,4,6,8,10,12,14,16,-1,18,20,22,24,26,28,-1,-1,-1,-1,-1,-1,-1,-1,-1,-1,-1,-1,-1,-1],"split_conditions":[4E0,6E0,2.1E1,3E0,1E0,1.8E1,4E0,5E0,-1.6072556E-1,7E0,7E0,1.1E1,3E0,2.2E1,7E0,-7.0753354E-1,-6.4414334E-1,-5.149505E-1,-4.234573E-1,-5.0721663E-1,-5.7102096E-1,7.14296E-2,3.3251816E-1,-1.3711831E-1,4.0786497E-2,-3.7371606E-1,-6.211001E-1,-1.6340499E-1,-5.167915E-1],"split_indices":[1,0,1,1,1,1,0,0,0,0,0,1,0,1,0,0,0,0,0,0,0,0,0,0,0,0,0,0,0],"split_type":[0,0,0,0,0,0,0,0,0,0,0,0,0,0,0,0,0,0,0,0,0,0,0,0,0,0,0,0,0],"sum_hessian":[1.7204E4,1.488E3,1.5716E4,9.47E2,5.41E2,1.2484E4,3.232E3,9.24E2,2.3E1,1.97E2,3.44E2,9.595E3,2.889E3,1.267E3,1.965E3,7.33E2,1.91E2,5E1,1.47E2,1.62E2,1.82E2,4.112E3,5.483E3,7.98E2,2.091E3,4.58E2,8.09E2,1.467E3,4.98E2],"tree_param":{"num_deleted":"0","num_feature":"2","num_nodes":"29","size_leaf_vector":"1"}},{"base_weights":[-1.4704337E-3,-5.5810995E0,5.271336E-1,-6.142695E0,-4.588528E0,1.7108129E0,-2.64647E0,-6.2577267E0,-1.4532268E-1,-4.047201E0,-4.885903E0,-1.5396957E0,1.9849645E0,-1.2995293E0,-4.15178E0,-6.368765E-1,-5.8006454E-1,-4.6446514E-1,-3.813977E-1,-4.568061E-1,-5.142309E-1,6.478521E-2,-3.6753252E-1,2.3464446E-1,2.855418E-2,-2.6027393E-1,-4.9273845E-2,-5.224914E-1,-2.766113E-1],"categories":[],"categories_nodes":[],"categories_segments":[],"categories_sizes":[],"default_left":[0,0,0,0,0,0,0,0,0,0,0,0,0,0,0,0,0,0,0,0,0,0,0,0,0,0,0,0,0],"id":6,"left_children":[1,3,5,7,9,11,13,15,-1,17,19,21,23,25,27,-1,-1,-1,-1,-1,-1,-1,-1,-1,-1,-1,-1,-1,-1],"loss_changes":[5.0747617E4,8.018125E2,5.904589E4,5.0229688E2,6.7475586E1,1.0204738E4,8.652303E3,1.0003906E1,0E0,9.874512E0,4.6259766E0,4.1649473E3,6.4851875E3,2.3696648E3,2.9833555E3,0E0,0E0,0E0,0E0,0E0,0E0,0E0,0E0,0E0,0E0,0E0,0E0,0E0,0E0],"parents":[2147483647,0,0,1,1,2,2,3,3,4,4,5,5,6,6,7,7,9,9,10,10,11,11,12,12,13,13,14,14],"right_children":[2,4,6,8,10,12,14,16,-1,18,20,22,24,26,28,-1,-1,-1,-1,-1,-1,-1,-1,-1,-1,-1,-1,-1,-1],"split_conditions":[4E0,6E0,2E1,3E0,1E0,5E0,2.2E1,5E0,-1.4532268E-1,7E0,7E0,4E0,1.8E1,4E0,5E0,-6.368765E-1,-5.8006454E-1,-4.6446514E-1,-3.813977E-1,-4.568061E-1,-5.142309E-1,6.478521E-2,-3.6753252E-1,2.3464446E-1,2.855418E-2,-2.6027393E-1,-4.9273845E-2,-5.224914E-1,-2.766113E-1],"split_indices":[1,0,1,1,1,1,1,0,0,0,0,0,1,0,0,0,0,0,0,0,0,0,0,0,0,0,0,0,0],"split_type":[0,0,0,0,0,0,0,0,0,0,0,0,0,0,0,0,0,0,0,0,0,0,0,0,0,0,0,0,0],"sum_hessian":[1.7204E4,1.488E3,1.5716E4,9.47E2,5.41E2,1.1447E4,4.269E3,9.24E2,2.3E1,1.97E2,3.44E2,8.9E2,1.0557E4,2.254E3,2.015E3,7.33E2,1.91E2,5E1,1.47E2,1.62E2,1.82E2,4.4E2,4.5E2,8.705E3,1.852E3,8.61E2,1.393E3,1.134E3,8.81E2],"tree_param":{"num_deleted":"0","num_feature":"2","num_nodes":"29","size_leaf_vector":"1"}},{"base_weights":[-1.5748194E-3,-5.0251245E0,4.7434726E-1,-5.5298624E0,-4.1330276E0,1.7095083E0,-2.0040982E0,-5.63327E0,-1.3139592E-1,-3.6467533E0,-4.400127E0,4.3757245E-2,2.2880013E0,-9.161645E-1,-3.7369986E0,-5.732756E-1,-5.2236015E-1,-4.1892934E-1,-3.4351566E-1,-4.1140577E-1,-4.630888E-1,1.19179346E-1,-2.696354E-1,2.5900242E-1,1.015348E-1,-1.9423121E-1,-2.5400374E-2,-5.593042E-1,-3.0263457E-1],"categories":[],"categories_nodes":[],"categories_segments":[],"categories_sizes":[],"default_left":[0,0,0,0,0,0,0,0,0,0,0,0,0,0,0,0,0,0,0,0,0,0,0,0,0,0,0,0,0],"id":7,"left_children":[1,3,5,7,9,11,13,15,-1,17,19,21,23,25,27,-1,-1,-1,-1,-1,-1,-1,-1,-1,-1,-1,-1,-1,-1],"loss_changes":[4.1136414E4,6.4760156E2,4.811755E4,4.0588477E2,5.4351562E1,1.010833E4,9.852824E3,7.7539062E0,0E0,8.3396E0,3.7226562E0,8.512458E3,2.9900781E3,2.1826584E3,2.6421836E3,0E0,0E0,0E0,0E0,0E0,0E0,0E0,0E0,0E0,0E0,0E0,0E0,0E0,0E0],"parents":[2147483647,0,0,1,1,2,2,3,3,4,4,5,5,6,6,7,7,9,9,10,10,11,11,12,12,13,13,14,14],"right_children":[2,4,6,8,10,12,14,16,-1,18,20,22,24,26,28,-1,-1,-1,-1,-1,-1,-1,-1,-1,-1,-1,-1,-1,-1],"split_conditions":[4E0,6E0,1.9E1,3E0,1E0,9E0,2.2E1,5E0,-1.3139592E-1,7E0,7E0,6E0,7E0,4E0,3E0,-5.732756E-1,-5.2236015E-1,-4.1892934E-1,-3.4351566E-1,-4.1140577E-1,-4.630888E-1,1.19179346E-1,-2.696354E-1,2.5900242E-1,1.015348E-1,-1.9423121E-1,-2.5400374E-2,-5.593042E-1,-3.0263457E-1],"split_indices":[1,0,1,1,1,1,1,0,0,0,0,0,0,0,0,0,0,0,0,0,0,0,0,0,0,0,0,0,0],"split_type":[0,0,0,0,0,0,0,0,0,0,0,0,0,0,0,0,0,0,0,0,0,0,0,0,0,0,0,0,0],"sum_hessian":[1.7204E4,1.488E3,1.5716E4,9.47E2,5.41E2,1.0489E4,5.227E3,9.24E2,2.3E1,1.97E2,3.44E2,2.704E3,7.785E3,3.212E3,2.015E3,7.33E2,1.91E2,5E1,1.47E2,1.62E2,1.82E2,1.906E3,7.98E2,6.291E3,1.494E3,1.259E3,1.953E3,5.56E2,1.459E3],"tree_param":{"num_deleted":"0","num_feature":"2","num_nodes":"29","size_leaf_vector":"1"}},{"base_weights":[-1.6346556E-3,-4.5245357E0,4.2685685E-1,-4.9781704E0,-3.7227452E0,1.2341597E0,-2.6908677E0,-5.0711274E0,-1.1880376E-1,-3.285929E0,-3.962649E0,-1.4069262E0,1.4370035E0,-3.6968534E0,-1.5057034E0,-5.160262E-1,-4.703962E-1,-3.778579E-1,-3.0939624E-1,-3.7051758E-1,-4.1703296E-1,4.6430442E-2,-3.2335466E-1,1.932141E-1,-5.507424E-3,-3.1829014E-1,-5.3348374E-1,-1.0894167E-2,-4.2682186E-1],"categories":[],"categories_nodes":[],"categories_segments":[],"categories_sizes":[],"default_left":[0,0,0,0,0,0,0,0,0,0,0,0,0,0,0,0,0,0,0,0,0,0,0,0,0,0,0,0,0],"id":8,"left_children":[1,3,5,7,9,11,13,15,-1,17,19,21,23,25,27,-1,-1,-1,-1,-1,-1,-1,-1,-1,-1,-1,-1,-1,-1],"loss_changes":[3.3345645E4,5.230449E2,3.9562195E4,3.2797656E2,4.3776855E1,6.690582E3,3.8490059E3,5.998047E0,0E0,7.034668E0,2.9970703E0,3.0469644E3,8.566303E3,1.4545645E3,5.733377E3,0E0,0E0,0E0,0E0,0E0,0E0,0E0,0E0,0E0,0E0,0E0,0E0,0E0,0E0],"parents":[2147483647,0,0,1,1,2,2,3,3,4,4,5,5,6,6,7,7,9,9,10,10,11,11,12,12,13,13,14,14],"right_children":[2,4,6,8,10,12,14,16,-1,18,20,22,24,26,28,-1,-1,-1,-1,-1,-1,-1,-1,-1,-1,-1,-1,-1,-1],"split_conditions":[4E0,6E0,2.1E1,3E0,1E0,5E0,5E0,5E0,-1.1880376E-1,7E0,7E0,4E0,1.8E1,2.3E1,7E0,-5.160262E-1,-4.703962E-1,-3.778579E-1,-3.0939624E-1,-3.7051758E-1,-4.1703296E-1,4.6430442E-2,-3.2335466E-1,1.932141E-1,-5.507424E-3,-3.1829014E-1,-5.3348374E-1,-1.0894167E-2,-4.2682186E-1],"split_indices":[1,0,1,1,1,1,0,0,0,0,0,0,1,1,0,0,0,0,0,0,0,0,0,0,0,0,0,0,0],"split_type":[0,0,0,0,0,0,0,0,0,0,0,0,0,0,0,0,0,0,0,0,0,0,0,0,0,0,0,0,0],"sum_hessian":[1.7204E4,1.488E3,1.5716E4,9.47E2,5.41E2,1.2484E4,3.232E3,9.24E2,2.3E1,1.97E2,3.44E2,8.9E2,1.1594E4,1.747E3,1.485E3,7.33E2,1.91E2,5E1,1.47E2,1.62E2,1.82E2,4.4E2,4.5E2,8.705E3,2.889E3,1.332E3,4.15E2,9.87E2,4.98E2],"tree_param":{"num_deleted":"0","num_feature":"2","num_nodes":"29","size_leaf_vector":"1"}},{"base_weights":[-1.7014805E-3,-4.073815E0,3.8408324E-1,-4.481519E0,-3.3531916E0,1.1107365E0,-2.42218E0,-4.565081E0,-1.0741838E-1,-2.9608073E0,-3.5686667E0,1.4307162E0,-3.6460158E-1,-1.8394476E0,-4.154496E0,-4.27181E-1,-4.6757492E-1,-3.4081295E-1,-2.7866572E-1,-3.3369312E-1,-3.755575E-1,1.8469171E-1,7.2064693E-3,-3.3625552E-1,5.8354836E-2,-3.273411E-1,-8.400084E-2,-3.6806998E-1,-6.348643E-1],"categories":[],"categories_nodes":[],"categories_segments":[],"categories_sizes":[],"default_left":[0,0,0,0,0,0,0,0,0,0,0,0,0,0,0,0,0,0,0,0,0,0,0,0,0,0,0,0,0],"id":9,"left_children":[1,3,5,7,9,11,13,15,-1,17,19,21,23,25,27,-1,-1,-1,-1,-1,-1,-1,-1,-1,-1,-1,-1,-1,-1],"loss_changes":[2.7029916E4,4.2244336E2,3.2052484E4,2.6501172E2,3.5259277E1,5.894419E3,3.255998E3,1.0048828E1,0E0,5.927246E0,2.4111328E0,5.8016113E3,6.329388E3,3.4669292E3,8.218096E2,0E0,0E0,0E0,0E0,0E0,0E0,0E0,0E0,0E0,0E0,0E0,0E0,0E0,0E0],"parents":[2147483647,0,0,1,1,2,2,3,3,4,4,5,5,6,6,7,7,9,9,10,10,11,11,12,12,13,13,14,14],"right_children":[2,4,6,8,10,12,14,16,-1,18,20,22,24,26,28,-1,-1,-1,-1,-1,-1,-1,-1,-1,-1,-1,-1,-1,-1],"split_conditions":[4E0,6E0,2.1E1,3E0,1E0,7E0,2.3E1,1E0,-1.0741838E-1,7E0,7E0,1.8E1,1E1,4E0,7E0,-4.27181E-1,-4.6757492E-1,-3.4081295E-1,-2.7866572E-1,-3.3369312E-1,-3.755575E-1,1.8469171E-1,7.2064693E-3,-3.3625552E-1,5.8354836E-2,-3.273411E-1,-8.400084E-2,-3.6806998E-1,-6.348643E-1],"split_indices":[1,0,1,1,1,0,1,1,0,0,0,1,1,0,0,0,0,0,0,0,0,0,0,0,0,0,0,0,0],"split_type":[0,0,0,0,0,0,0,0,0,0,0,0,0,0,0,0,0,0,0,0,0,0,0,0,0,0,0,0,0],"sum_hessian":[1.7204E4,1.488E3,1.5716E4,9.47E2,5.41E2,1.2484E4,3.232E3,9.24E2,2.3E1,1.97E2,3.44E2,1.0259E4,2.225E3,2.42E3,8.12E2,2.64E2,6.6E2,5E1,1.47E2,1.62E2,1.82E2,7.853E3,2.406E3,5.34E2,1.691E3,9.93E2,1.427E3,6.7E2,1.42E2],"tree_param":{"num_deleted":"0","num_feature":"2","num_nodes":"29","size_leaf_vector":"1"}},{"base_weights":[-1.7543396E-3,-3.6679988E0,3.455791E-1,-4.0344243E0,-3.0203242E0,1.2614897E0,-1.492265E0,-4.10954E0,-9.712415E-2,-2.6678555E0,-3.213856E0,1.777342E-1,1.9601767E0,-6.77063E-1,-2.790753E0,-4.1897774E-1,-3.7813956E-1,-3.0739996E-1,-2.5098744E-1,-3.0052853E-1,-3.38207E-1,6.497457E-2,-2.2574893E-1,2.1769615E-1,6.296654E-2,-1.772628E-1,-2.3806462E-2,-4.2933226E-1,-2.2156008E-1],"categories":[],"categories_nodes":[],"categories_segments":[],"categories_sizes":[],"default_left":[0,0,0,0,0,0,0,0,0,0,0,0,0,0,0,0,0,0,0,0,0,0,0,0,0,0,0,0,0],"id":10,"left_children":[1,3,5,7,9,11,13,15,-1,17,19,21,23,25,27,-1,-1,-1,-1,-1,-1,-1,-1,-1,-1,-1,-1,-1,-1],"loss_changes":[2.1910275E4,3.4118945E2,2.6458324E4,2.141377E2,2.839795E1,7.94274E3,5.5321055E3,8.511719E0,0E0,4.9891357E0,1.9401855E0,4.7291694E3,1.8382656E3,1.5448743E3,1.7327275E3,0E0,0E0,0E0,0E0,0E0,0E0,0E0,0E0,0E0,0E0,0E0,0E0,0E0,0E0],"parents":[2147483647,0,0,1,1,2,2,3,3,4,4,5,5,6,6,7,7,9,9,10,10,11,11,12,12,13,13,14,14],"right_children":[2,4,6,8,10,12,14,16,-1,18,20,22,24,26,28,-1,-1,-1,-1,-1,-1,-1,-1,-1,-1,-1,-1,-1,-1],"split_conditions":[4E0,6E0,1.9E1,3E0,1E0,1.1E1,2.2E1,5E0,-9.712415E-2,7E0,7E0,7E0,1.8E1,3E0,3E0,-4.1897774E-1,-3.7813956E-1,-3.0739996E-1,-2.5098744E-1,-3.0052853E-1,-3.38207E-1,6.497457E-2,-2.2574893E-1,2.1769615E-1,6.296654E-2,-1.772628E-1,-2.3806462E-2,-4.2933226E-1,-2.2156008E-1],"split_indices":[1,0,1,1,1,1,1,0,0,0,0,0,1,0,0,0,0,0,0,0,0,0,0,0,0,0,0,0,0],"split_type":[0,0,0,0,0,0,0,0,0,0,0,0,0,0,0,0,0,0,0,0,0,0,0,0,0,0,0,0,0],"sum_hessian":[1.7204E4,1.488E3,1.5716E4,9.47E2,5.41E2,1.0489E4,5.227E3,9.24E2,2.3E1,1.97E2,3.44E2,4.112E3,6.377E3,3.212E3,2.015E3,7.33E2,1.91E2,5E1,1.47E2,1.62E2,1.82E2,3.445E3,6.67E2,5.483E3,8.94E2,9.18E2,2.294E3,5.56E2,1.459E3],"tree_param":{"num_deleted":"0","num_feature":"2","num_nodes":"29","size_leaf_vector":"1"}},{"base_weights":[-1.7426257E-3,-2.5802453E0,4.119796E-1,-3.3562076E0,-1.4196935E0,1.3677789E0,-1.3432013E0,-3.6994479E0,-2.715782E0,1.15085594E-1,-2.8642418E0,1.633343E0,1.4931232E-1,-6.094191E-1,-2.5120003E0,-3.4365496E-1,-3.7992492E-1,-2.4038903E-1,-2.9099885E-1,-7.137864E-2,5.6631453E-2,-2.1574219E-1,-4.0668032E-1,9.446041E-2,1.995058E-1,-2.2090347E-1,8.06733E-2,-1.5955576E-1,-2.1426849E-2,-3.252447E-1,-1.5563099E-1],"categories":[],"categories_nodes":[],"categories_segments":[],"categories_sizes":[],"default_left":[0,0,0,0,0,0,0,0,0,0,0,0,0,0,0,0,0,0,0,0,0,0,0,0,0,0,0,0,0,0,0],"id":11,"left_children":[1,3,5,7,9,11,13,15,17,19,21,23,25,27,29,-1,-1,-1,-1,-1,-1,-1,-1,-1,-1,-1,-1,-1,-1,-1,-1],"loss_changes":[1.8355078E4,2.1376309E3,2.4875621E4,3.031963E2,2.1176245E3,3.1061348E3,4.4822314E3,1.1213867E1,2.3351074E1,1.7394534E2,4.094231E2,1.9617363E3,2.6669644E3,1.2516779E3,1.4215361E3,0E0,0E0,0E0,0E0,0E0,0E0,0E0,0E0,0E0,0E0,0E0,0E0,0E0,0E0,0E0,0E0],"parents":[2147483647,0,0,1,1,2,2,3,3,4,4,5,5,6,6,7,7,8,8,9,9,10,10,11,11,12,12,13,13,14,14],"right_children":[2,4,6,8,10,12,14,16,18,20,22,24,26,28,30,-1,-1,-1,-1,-1,-1,-1,-1,-1,-1,-1,-1,-1,-1,-1,-1],"split_conditions":[5E0,3E0,1.9E1,6E0,4E0,7E0,2.2E1,1E0,1E0,2E0,7E0,1.1E1,1E1,3E0,5E0,-3.4365496E-1,-3.7992492E-1,-2.4038903E-1,-2.9099885E-1,-7.137864E-2,5.6631453E-2,-2.1574219E-1,-4.0668032E-1,9.446041E-2,1.995058E-1,-2.2090347E-1,8.06733E-2,-1.5955576E-1,-2.1426849E-2,-3.252447E-1,-1.5563099E-1],"split_indices":[1,1,1,0,0,0,1,1,1,0,0,1,1,0,0,0,0,0,0,0,0,0,0,0,0,0,0,0,0,0,0],"split_type":[0,0,0,0,0,0,0,0,0,0,0,0,0,0,0,0,0,0,0,0,0,0,0,0,0,0,0,0,0,0,0],"sum_hessian":[1.7204E4,2.378E3,1.4826E4,1.424E3,9.54E2,9.599E3,5.227E3,9.24E2,5E2,4.63E2,4.91E2,7.881E3,1.718E3,3.212E3,2.015E3,2.64E2,6.6E2,1.97E2,3.03E2,1.63E2,3E2,3.11E2,1.8E2,2.715E3,5.166E3,3.74E2,1.344E3,9.18E2,2.294E3,1.134E3,8.81E2],"tree_param":{"num_deleted":"0","num_feature":"2","num_nodes":"31","size_leaf_vector":"1"}},{"base_weights":[-1.7075032E-3,-2.323016E0,3.7074777E-1,-3.0214677E0,-1.2783911E0,1.2310176E0,-1.2090076E0,-3.3302853E0,-2.4452643E0,1.03545696E-1,-2.579083E0,1.4700466E0,1.3429956E-1,-8.379422E-1,-3.2230492E0,-3.3711794E-1,-2.7826336E-1,-2.1647155E-1,-2.619947E-1,-6.428427E-2,5.098718E-2,-1.644754E-1,-3.3602786E-1,8.50179E-2,1.7955916E-1,-1.9887203E-1,7.261198E-2,-1.7314659E-1,-2.2592356E-2,-2.7663115E-1,-5.343665E-1],"categories":[],"categories_nodes":[],"categories_segments":[],"categories_sizes":[],"default_left":[0,0,0,0,0,0,0,0,0,0,0,0,0,0,0,0,0,0,0,0,0,0,0,0,0,0,0,0,0,0,0],"id":12,"left_children":[1,3,5,7,9,11,13,15,17,19,21,23,25,27,29,-1,-1,-1,-1,-1,-1,-1,-1,-1,-1,-1,-1,-1,-1,-1,-1],"loss_changes":[1.4876022E4,1.7319043E3,2.0151615E4,2.4542285E2,1.7168545E3,2.516417E3,3.9043984E3,1.13359375E1,1.8881104E1,1.4104834E2,3.535808E2,1.5890215E3,2.1612747E3,2.414512E3,7.726621E2,0E0,0E0,0E0,0E0,0E0,0E0,0E0,0E0,0E0,0E0,0E0,0E0,0E0,0E0,0E0,0E0],"parents":[2147483647,0,0,1,1,2,2,3,3,4,4,5,5,6,6,7,7,8,8,9,9,10,10,11,11,12,12,13,13,14,14],"right_children":[2,4,6,8,10,12,14,16,18,20,22,24,26,28,30,-1,-1,-1,-1,-1,-1,-1,-1,-1,-1,-1,-1,-1,-1,-1,-1],"split_conditions":[5E0,3E0,1.9E1,6E0,4E0,7E0,2.3E1,2E0,1E0,2E0,6E0,1.1E1,1E1,4E0,7E0,-3.3711794E-1,-2.7826336E-1,-2.1647155E-1,-2.619947E-1,-6.428427E-2,5.098718E-2,-1.644754E-1,-3.3602786E-1,8.50179E-2,1.7955916E-1,-1.9887203E-1,7.261198E-2,-1.7314659E-1,-2.2592356E-2,-2.7663115E-1,-5.343665E-1],"split_indices":[1,1,1,0,0,0,1,1,1,0,0,1,1,0,0,0,0,0,0,0,0,0,0,0,0,0,0,0,0,0,0],"split_type":[0,0,0,0,0,0,0,0,0,0,0,0,0,0,0,0,0,0,0,0,0,0,0,0,0,0,0,0,0,0,0],"sum_hessian":[1.7204E4,2.378E3,1.4826E4,1.424E3,9.54E2,9.599E3,5.227E3,9.24E2,5E2,4.63E2,4.91E2,7.881E3,1.718E3,4.415E3,8.12E2,8.55E2,6.9E1,1.97E2,3.03E2,1.63E2,3E2,2.25E2,2.66E2,2.715E3,5.166E3,3.74E2,1.344E3,1.794E3,2.621E3,6.7E2,1.42E2],"tree_param":{"num_deleted":"0","num_feature":"2","num_nodes":"31","size_leaf_vector":"1"}},{"base_weights":[-1.6808464E-3,-2.09139E0,3.336142E-1,-2.7200882E0,-1.15109E0,1.0055858E0,-1.3279805E0,-2.997922E0,-2.2016928E0,-2.0331873E-1,-2.703093E0,1.2112823E0,8.24746E-2,-9.5759434E-1,-2.9017415E0,-3.0714116E-1,-2.701362E-1,-1.9493371E-1,-2.3588136E-1,9.316242E-3,-1.2518984E-1,-2.06657E-1,-3.3281982E-1,1.4407666E-1,1.285177E-2,-1.790379E-1,5.3523906E-2,-1.8722762E-1,-3.3743512E-2,-2.4900924E-1,-4.813035E-1],"categories":[],"categories_nodes":[],"categories_segments":[],"categories_sizes":[],"default_left":[0,0,0,0,0,0,0,0,0,0,0,0,0,0,0,0,0,0,0,0,0,0,0,0,0,0,0,0,0,0,0],"id":13,"left_children":[1,3,5,7,9,11,13,15,17,19,21,23,25,27,29,-1,-1,-1,-1,-1,-1,-1,-1,-1,-1,-1,-1,-1,-1,-1,-1],"loss_changes":[1.205571E4,1.403251E3,1.655634E4,1.9863867E2,1.4042019E3,2.0046602E3,2.4862012E3,1.1862305E1,1.5266846E1,1.8478177E2,1.3715967E2,2.14517E3,1.6332842E3,1.9609131E3,6.2766943E2,0E0,0E0,0E0,0E0,0E0,0E0,0E0,0E0,0E0,0E0,0E0,0E0,0E0,0E0,0E0,0E0],"parents":[2147483647,0,0,1,1,2,2,3,3,4,4,5,5,6,6,7,7,8,8,9,9,10,10,11,11,12,12,13,13,14,14],"right_children":[2,4,6,8,10,12,14,16,18,20,22,24,26,28,30,-1,-1,-1,-1,-1,-1,-1,-1,-1,-1,-1,-1,-1,-1,-1,-1],"split_conditions":[5E0,3E0,2E1,6E0,5E0,7E0,2.3E1,5E0,1E0,4E0,7E0,1.8E1,1E1,4E0,7E0,-3.0714116E-1,-2.701362E-1,-1.9493371E-1,-2.3588136E-1,9.316242E-3,-1.2518984E-1,-2.06657E-1,-3.3281982E-1,1.4407666E-1,1.285177E-2,-1.790379E-1,5.3523906E-2,-1.8722762E-1,-3.3743512E-2,-2.4900924E-1,-4.813035E-1],"split_indices":[1,1,1,0,0,0,1,0,1,0,0,1,1,0,0,0,0,0,0,0,0,0,0,0,0,0,0,0,0,0,0],"split_type":[0,0,0,0,0,0,0,0,0,0,0,0,0,0,0,0,0,0,0,0,0,0,0,0,0,0,0,0,0,0,0],"sum_hessian":[1.7204E4,2.378E3,1.4826E4,1.424E3,9.54E2,1.0557E4,4.269E3,9.24E2,5E2,5.93E2,3.61E2,8.633E3,1.924E3,3.457E3,8.12E2,7.33E2,1.91E2,1.97E2,3.03E2,4.63E2,1.3E2,1.81E2,1.8E2,7.123E3,1.51E3,3.74E2,1.55E3,1.396E3,2.061E3,6.7E2,1.42E2],"tree_param":{"num_deleted":"0","num_feature":"2","num_nodes":"31","size_leaf_vector":"1"}},{"base_weights":[-1.6631045E-3,-1.8829502E0,3.001905E-1,-2.4487867E0,-1.0366673E0,8.0556285E-1,-1.512396E0,-2.6987536E0,-1.9823834E0,-1.831822E-1,-2.4342737E0,1.0812184E0,-2.5116261E-2,-2.2025146E0,-6.995831E-1,-2.4593449E-1,-2.7906516E-1,-1.7553878E-1,-2.1237083E-1,8.386595E-3,-1.1276644E-1,-1.8610482E-1,-2.9972172E-1,6.4583376E-2,1.7771211E-1,-8.0409095E-2,2.7241046E-2,-1.8707822E-1,-3.260199E-1,4.749616E-2,-3.0237326E-1],"categories":[],"categories_nodes":[],"categories_segments":[],"categories_sizes":[],"default_left":[0,0,0,0,0,0,0,0,0,0,0,0,0,0,0,0,0,0,0,0,0,0,0,0,0,0,0,0,0,0,0],"id":14,"left_children":[1,3,5,7,9,11,13,15,17,19,21,23,25,27,29,-1,-1,-1,-1,-1,-1,-1,-1,-1,-1,-1,-1,-1,-1,-1,-1],"loss_changes":[9.770825E3,1.1366641E3,1.3583211E4,1.6078418E2,1.1387129E3,2.6550654E3,1.8119702E3,1.3487793E1,1.2344238E1,1.4991455E2,1.1123682E2,2.6366426E3,6.7002216E2,6.0721875E2,4.0579453E3,0E0,0E0,0E0,0E0,0E0,0E0,0E0,0E0,0E0,0E0,0E0,0E0,0E0,0E0,0E0,0E0],"parents":[2147483647,0,0,1,1,2,2,3,3,4,4,5,5,6,6,7,7,8,8,9,9,10,10,11,11,12,12,13,13,14,14],"right_children":[2,4,6,8,10,12,14,16,18,20,22,24,26,28,30,-1,-1,-1,-1,-1,-1,-1,-1,-1,-1,-1,-1,-1,-1,-1,-1],"split_conditions":[5E0,3E0,2.1E1,6E0,5E0,1.8E1,5E0,1E0,1E0,4E0,7E0,1.4E1,3E0,2.3E1,7E0,-2.4593449E-1,-2.7906516E-1,-1.7553878E-1,-2.1237083E-1,8.386595E-3,-1.1276644E-1,-1.8610482E-1,-2.9972172E-1,6.4583376E-2,1.7771211E-1,-8.0409095E-2,2.7241046E-2,-1.8707822E-1,-3.260199E-1,4.749616E-2,-3.0237326E-1],"split_indices":[1,1,1,0,0,1,0,1,1,0,0,1,0,1,0,0,0,0,0,0,0,0,0,0,0,0,0,0,0,0,0],"split_type":[0,0,0,0,0,0,0,0,0,0,0,0,0,0,0,0,0,0,0,0,0,0,0,0,0,0,0,0,0,0,0],"sum_hessian":[1.7204E4,2.378E3,1.4826E4,1.424E3,9.54E2,1.1594E4,3.232E3,9.24E2,5E2,5.93E2,3.61E2,8.705E3,2.889E3,1.747E3,1.485E3,2.64E2,6.6E2,1.97E2,3.03E2,4.63E2,1.3E2,1.81E2,1.8E2,5.356E3,3.349E3,7.98E2,2.091E3,1.332E3,4.15E2,9.87E2,4.98E2],"tree_param":{"num_deleted":"0","num_feature":"2","num_nodes":"31","size_leaf_vector":"1"}},{"base_weights":[-1.6175341E-3,-1.695287E0,2.7013275E-1,-2.2045488E0,-9.336186E-1,7.2502327E-1,-1.3613939E0,-2.429446E0,-1.7849193E0,-1.6503969E-1,-2.1921885E0,9.731248E-1,-2.262284E-2,-1.9825568E0,-6.297962E-1,-2.4674085E-1,-1.9305131E-1,-1.5807353E-1,-1.912036E-1,7.549748E-3,-1.0157589E-1,-1.6759662E-1,-2.6991513E-1,3.067008E-2,1.3646112E-1,-7.2378255E-2,2.4518272E-2,-2.8930947E-1,-1.6646561E-1,4.2751376E-2,-2.7219656E-1],"categories":[],"categories_nodes":[],"categories_segments":[],"categories_sizes":[],"default_left":[0,0,0,0,0,0,0,0,0,0,0,0,0,0,0,0,0,0,0,0,0,0,0,0,0,0,0,0,0,0,0],"id":15,"left_children":[1,3,5,7,9,11,13,15,17,19,21,23,25,27,29,-1,-1,-1,-1,-1,-1,-1,-1,-1,-1,-1,-1,-1,-1,-1,-1],"loss_changes":[7.9191475E3,9.20729E2,1.1005082E4,1.3014551E2,9.234196E2,2.1508037E3,1.4679609E3,1.2757324E1,9.981201E0,1.2162666E2,9.021362E1,2.2709424E3,5.428457E2,5.0116113E2,3.2883018E3,0E0,0E0,0E0,0E0,0E0,0E0,0E0,0E0,0E0,0E0,0E0,0E0,0E0,0E0,0E0,0E0],"parents":[2147483647,0,0,1,1,2,2,3,3,4,4,5,5,6,6,7,7,8,8,9,9,10,10,11,11,12,12,13,13,14,14],"right_children":[2,4,6,8,10,12,14,16,18,20,22,24,26,28,30,-1,-1,-1,-1,-1,-1,-1,-1,-1,-1,-1,-1,-1,-1,-1,-1],"split_conditions":[5E0,3E0,2.1E1,6E0,5E0,1.8E1,5E0,2E0,1E0,4E0,7E0,1.1E1,3E0,2E0,7E0,-2.4674085E-1,-1.9305131E-1,-1.5807353E-1,-1.912036E-1,7.549748E-3,-1.0157589E-1,-1.6759662E-1,-2.6991513E-1,3.067008E-2,1.3646112E-1,-7.2378255E-2,2.4518272E-2,-2.8930947E-1,-1.6646561E-1,4.2751376E-2,-2.7219656E-1],"split_indices":[1,1,1,0,0,1,0,1,1,0,0,1,0,0,0,0,0,0,0,0,0,0,0,0,0,0,0,0,0,0,0],"split_type":[0,0,0,0,0,0,0,0,0,0,0,0,0,0,0,0,0,0,0,0,0,0,0,0,0,0,0,0,0,0,0],"sum_hessian":[1.7204E4,2.378E3,1.4826E4,1.424E3,9.54E2,1.1594E4,3.232E3,9.24E2,5E2,5.93E2,3.61E2,8.705E3,2.889E3,1.747E3,1.485E3,8.55E2,6.9E1,1.97E2,3.03E2,4.63E2,1.3E2,1.81E2,1.8E2,3.222E3,5.483E3,7.98E2,2.091E3,4.5E2,1.297E3,9.87E2,4.98E2],"tree_param":{"num_deleted":"0","num_feature":"2","num_nodes":"31","size_leaf_vector":"1"}},{"base_weights":[-1.5654379E-3,-1.5263133E0,2.4308127E-1,-1.9846476E0,-8.40813E-1,7.365297E-1,-9.770761E-1,-2.2543058E0,-1.695755E0,-1.4869364E-1,-1.9741778E0,9.258261E-1,-1.1288395E-1,-6.718266E-1,-2.2742171E0,-1.9950722E-1,-2.3948224E-1,-1.215929E-1,-1.959353E-1,6.7964466E-3,-9.149583E-2,-1.5092902E-1,-2.430727E-1,1.09377064E-1,1.3339539E-2,-2.3487158E-1,1.8292736E-2,-1.3761298E-1,-1.9433707E-2,-1.9532171E-1,-3.7645453E-1],"categories":[],"categories_nodes":[],"categories_segments":[],"categories_sizes":[],"default_left":[0,0,0,0,0,0,0,0,0,0,0,0,0,0,0,0,0,0,0,0,0,0,0,0,0,0,0,0,0,0,0],"id":16,"left_children":[1,3,5,7,9,11,13,15,17,19,21,23,25,27,29,-1,-1,-1,-1,-1,-1,-1,-1,-1,-1,-1,-1,-1,-1,-1,-1],"loss_changes":[6.418258E3,7.4578516E2,8.92783E3,1.0718799E2,7.488312E2,1.6977349E3,1.689186E3,2.1959473E1,8.514258E1,9.867654E1,7.31637E1,1.1489053E3,1.2735944E3,1.1626489E3,3.8158203E2,0E0,0E0,0E0,0E0,0E0,0E0,0E0,0E0,0E0,0E0,0E0,0E0,0E0,0E0,0E0,0E0],"parents":[2147483647,0,0,1,1,2,2,3,3,4,4,5,5,6,6,7,7,8,8,9,9,10,10,11,11,12,12,13,13,14,14],"right_children":[2,4,6,8,10,12,14,16,18,20,22,24,26,28,30,-1,-1,-1,-1,-1,-1,-1,-1,-1,-1,-1,-1,-1,-1,-1,-1],"split_conditions":[5E0,3E0,2E1,5E0,5E0,7E0,2.3E1,2E0,1E0,4E0,7E0,1.8E1,9E0,4E0,7E0,-1.9950722E-1,-2.3948224E-1,-1.215929E-1,-1.959353E-1,6.7964466E-3,-9.149583E-2,-1.5092902E-1,-2.430727E-1,1.09377064E-1,1.3339539E-2,-2.3487158E-1,1.8292736E-2,-1.3761298E-1,-1.9433707E-2,-1.9532171E-1,-3.7645453E-1],"split_indices":[1,1,1,0,0,0,1,0,1,0,0,1,1,0,0,0,0,0,0,0,0,0,0,0,0,0,0,0,0,0,0],"split_type":[0,0,0,0,0,0,0,0,0,0,0,0,0,0,0,0,0,0,0,0,0,0,0,0,0,0,0,0,0,0,0],"sum_hessian":[1.7204E4,2.378E3,1.4826E4,1.424E3,9.54E2,1.0557E4,4.269E3,7.33E2,6.91E2,5.93E2,3.61E2,8.633E3,1.924E3,3.457E3,8.12E2,2.63E2,4.7E2,2.47E2,4.44E2,4.63E2,1.3E2,1.81E2,1.8E2,7.123E3,1.51E3,2.24E2,1.7E3,1.396E3,2.061E3,6.7E2,1.42E2],"tree_param":{"num_deleted":"0","num_feature":"2","num_nodes":"31","size_leaf_vector":"1"}},{"base_weights":[-1.5284865E-3,-1.2865269E0,2.3481654E-1,-1.7867137E0,-7.148273E-1,6.2169874E-1,-1.1176085E0,-1.9721297E0,-1.4408127E0,6.3684744E-1,-1.8614936E0,8.1831074E-1,-2.57551E-1,-1.6562458E0,-4.8325098E-1,-1.767731E-1,-2.0510912E-1,-1.3856457E-1,-1.674141E-1,6.118219E-3,3.0374944E-1,-1.2047328E-1,-2.6148143E-1,1.051624E-1,1.5593097E-2,-2.1148877E-1,-3.05378E-3,-1.3776095E-1,-2.545106E-1,4.4961628E-2,-2.3293221E-1],"categories":[],"categories_nodes":[],"categories_segments":[],"categories_sizes":[],"default_left":[0,0,0,0,0,0,0,0,0,0,0,0,0,0,0,0,0,0,0,0,0,0,0,0,0,0,0,0,0,0,0],"id":17,"left_children":[1,3,5,7,9,11,13,15,17,19,21,23,25,27,29,-1,-1,-1,-1,-1,-1,-1,-1,-1,-1,-1,-1,-1,-1,-1,-1],"loss_changes":[5.2255127E3,7.63084E2,7.604785E3,8.8552246E1,1.9370353E3,1.9538267E3,1.1038789E3,1.1303467E1,4.1290283E0,7.9306445E2,3.31302E2,1.427186E3,8.7104364E2,4.2941895E2,2.5601462E3,0E0,0E0,0E0,0E0,0E0,0E0,0E0,0E0,0E0,0E0,0E0,0E0,0E0,0E0,0E0,0E0],"parents":[2147483647,0,0,1,1,2,2,3,3,4,4,5,5,6,6,7,7,8,8,9,9,10,10,11,11,12,12,13,13,14,14],"right_children":[2,4,6,8,10,12,14,16,18,20,22,24,26,28,30,-1,-1,-1,-1,-1,-1,-1,-1,-1,-1,-1,-1,-1,-1,-1,-1],"split_conditions":[6E0,3E0,2.1E1,6E0,4E0,7E0,5E0,1E0,2E0,5E0,6E0,1.8E1,9E0,2.3E1,7E0,-1.767731E-1,-2.0510912E-1,-1.3856457E-1,-1.674141E-1,6.118219E-3,3.0374944E-1,-1.2047328E-1,-2.6148143E-1,1.051624E-1,1.5593097E-2,-2.1148877E-1,-3.05378E-3,-1.3776095E-1,-2.545106E-1,4.4961628E-2,-2.3293221E-1],"split_indices":[1,1,1,0,0,0,0,1,1,1,0,1,1,1,0,0,0,0,0,0,0,0,0,0,0,0,0,0,0,0,0],"split_type":[0,0,0,0,0,0,0,0,0,0,0,0,0,0,0,0,0,0,0,0,0,0,0,0,0,0,0,0,0,0,0],"sum_hessian":[1.7204E4,2.672E3,1.4532E4,1.424E3,1.248E3,1.13E4,3.232E3,9.24E2,5E2,5.73E2,6.75E2,9.235E3,2.065E3,1.747E3,1.485E3,2.64E2,6.6E2,4.1E2,9E1,4.63E2,1.1E2,3.62E2,3.13E2,6.829E3,2.406E3,2.24E2,1.841E3,1.332E3,4.15E2,9.87E2,4.98E2],"tree_param":{"num_deleted":"0","num_feature":"2","num_nodes":"31","size_leaf_vector":"1"}},{"base_weights":[-1.4587711E-3,-1.0724012E0,2.2974259E-1,-6.457573E-1,-2.0185194E0,7.5257236E-1,-6.6275215E-1,-1.7521238E0,2.5896788E-1,-1.4613549E0,-4.342709E0,9.1102093E-1,6.78111E-2,-2.3942988E-1,-1.3370932E0,-1.8087418E-1,-1.2121546E-1,-1.0451497E-1,6.202205E-2,-1.2709656E-1,-1.9114861E-1,-5.5899435E-1,-3.870577E-1,6.222194E-2,1.16681136E-1,-1.0750256E-1,3.5155803E-2,-2.6113063E-3,-1.2952998E-1,-2.3132549E-1,-9.637651E-2],"categories":[],"categories_nodes":[],"categories_segments":[],"categories_sizes":[],"default_left":[0,0,0,0,0,0,0,0,0,0,0,0,0,0,0,0,0,0,0,0,0,0,0,0,0,0,0,0,0,0,0],"id":18,"left_children":[1,3,5,7,9,11,13,15,17,19,21,23,25,27,29,-1,-1,-1,-1,-1,-1,-1,-1,-1,-1,-1,-1,-1,-1,-1,-1],"loss_changes":[4.2602617E3,1.2318643E3,6.603678E3,2.1094717E3,1.2225671E3,9.681865E2,1.4920835E3,2.6789795E1,5.4714264E2,6.3302734E1,8.6125E1,5.346294E2,5.4451373E2,7.2364557E2,7.3245874E2,0E0,0E0,0E0,0E0,0E0,0E0,0E0,0E0,0E0,0E0,0E0,0E0,0E0,0E0,0E0,0E0],"parents":[2147483647,0,0,1,1,2,2,3,3,4,4,5,5,6,6,7,7,8,8,9,9,10,10,11,11,12,12,13,13,14,14],"right_children":[2,4,6,8,10,12,14,16,18,20,22,24,26,28,30,-1,-1,-1,-1,-1,-1,-1,-1,-1,-1,-1,-1,-1,-1,-1,-1],"split_conditions":[7E0,6E0,1.9E1,4E0,5E0,7E0,2.2E1,2E0,2E0,4E0,6E0,1.3E1,1E1,7E0,3E0,-1.8087418E-1,-1.2121546E-1,-1.0451497E-1,6.202205E-2,-1.2709656E-1,-1.9114861E-1,-5.5899435E-1,-3.870577E-1,6.222194E-2,1.16681136E-1,-1.0750256E-1,3.5155803E-2,-2.6113063E-3,-1.2952998E-1,-2.3132549E-1,-9.637651E-2],"split_indices":[1,0,1,1,1,0,1,1,0,1,1,1,1,0,0,0,0,0,0,0,0,0,0,0,0,0,0,0,0,0,0],"split_type":[0,0,0,0,0,0,0,0,0,0,0,0,0,0,0,0,0,0,0,0,0,0,0,0,0,0,0,0,0,0,0],"sum_hessian":[1.7204E4,3.054E3,1.415E4,2.106E3,9.48E2,8.923E3,5.227E3,9.47E2,1.159E3,7.66E2,1.82E2,7.246E3,1.677E3,3.212E3,2.015E3,8.55E2,9.2E1,2.51E2,9.08E2,5.41E2,2.25E2,4.7E1,1.35E2,3.405E3,3.841E3,3.33E2,1.344E3,2.673E3,5.39E2,5.56E2,1.459E3],"tree_param":{"num_deleted":"0","num_feature":"2","num_nodes":"31","size_leaf_vector":"1"}},{"base_weights":[-1.427062E-3,-1.0555565E0,1.9245511E-1,-5.2704865E-1,-1.4276702E0,5.090399E-1,-9.142313E-1,-1.6617298E0,6.188856E-1,-1.2849233E0,-2.4878547E0,6.693807E-1,-2.0800598E-1,-1.3844821E0,-3.6045423E-1,-1.379079E-1,-1.9560225E-1,9.164401E-3,2.7080268E-1,-1.0471781E-1,-1.3613468E-1,-1.5812215E-1,-5.042595E-1,8.68043E-2,1.0538707E-2,-5.8245654E-3,-2.2367428E-1,-2.1557744E-1,-1.1154242E-1,4.618782E-2,-1.9879173E-1],"categories":[],"categories_nodes":[],"categories_segments":[],"categories_sizes":[],"default_left":[0,0,0,0,0,0,0,0,0,0,0,0,0,0,0,0,0,0,0,0,0,0,0,0,0,0,0,0,0,0,0],"id":19,"left_children":[1,3,5,7,9,11,13,15,17,19,21,23,25,27,29,-1,-1,-1,-1,-1,-1,-1,-1,-1,-1,-1,-1,-1,-1,-1,-1],"loss_changes":[3.516508E3,5.249331E2,5.092249E3,1.4391271E3,2.3410156E2,1.2994346E3,8.414197E2,4.3551758E1,6.0666846E2,2.3720947E1,4.2052576E2,1.03475E3,6.275707E2,3.6034448E2,1.9896552E3,0E0,0E0,0E0,0E0,0E0,0E0,0E0,0E0,0E0,0E0,0E0,0E0,0E0,0E0,0E0,0E0],"parents":[2147483647,0,0,1,1,2,2,3,3,4,4,5,5,6,6,7,7,8,8,9,9,10,10,11,11,12,12,13,13,14,14],"right_children":[2,4,6,8,10,12,14,16,18,20,22,24,26,28,30,-1,-1,-1,-1,-1,-1,-1,-1,-1,-1,-1,-1,-1,-1,-1,-1],"split_conditions":[6E0,4E0,2.1E1,4E0,5E0,7E0,5E0,2E0,5E0,1E0,6E0,1.8E1,2E1,2E0,7E0,-1.379079E-1,-1.9560225E-1,9.164401E-3,2.7080268E-1,-1.0471781E-1,-1.3613468E-1,-1.5812215E-1,-5.042595E-1,8.68043E-2,1.0538707E-2,-5.8245654E-3,-2.2367428E-1,-2.1557744E-1,-1.1154242E-1,4.618782E-2,-1.9879173E-1],"split_indices":[1,0,1,1,1,0,0,0,1,1,0,1,1,0,0,0,0,0,0,0,0,0,0,0,0,0,0,0,0,0,0],"split_type":[0,0,0,0,0,0,0,0,0,0,0,0,0,0,0,0,0,0,0,0,0,0,0,0,0,0,0,0,0,0,0],"sum_hessian":[1.7204E4,2.672E3,1.4532E4,1.105E3,1.567E3,1.13E4,3.232E3,5.55E2,5.5E2,1.383E3,1.84E2,9.235E3,2.065E3,1.747E3,1.485E3,2.86E2,2.69E2,4.4E2,1.1E2,3.4E2,1.043E3,1.37E2,4.7E1,6.829E3,2.406E3,1.924E3,1.41E2,4.5E2,1.297E3,9.87E2,4.98E2],"tree_param":{"num_deleted":"0","num_feature":"2","num_nodes":"31","size_leaf_vector":"1"}},{"base_weights":[-1.3752348E-3,-8.832549E-1,1.8901016E-1,-5.158668E-1,-1.6980108E0,6.7554873E-1,-4.4919527E-1,-1.4501725E0,2.1511264E-1,-1.1877463E0,-3.827382E0,3.9873508E-1,1.2437596E0,-2.6219544E-1,-1.6700069E0,-1.5034877E-1,-1.2388004E-1,-9.635795E-2,5.7146605E-2,-1.019639E-1,-1.5856507E-1,-4.548841E-1,-3.544607E-1,5.7105746E-2,-3.3398055E-2,1.7074607E-1,4.6636213E-2,-1.0073266E-1,2.9522702E-3,-1.4125668E-1,-2.8663164E-1],"categories":[],"categories_nodes":[],"categories_segments":[],"categories_sizes":[],"default_left":[0,0,0,0,0,0,0,0,0,0,0,0,0,0,0,0,0,0,0,0,0,0,0,0,0,0,0,0,0,0,0],"id":20,"left_children":[1,3,5,7,9,11,13,15,17,19,21,23,25,27,29,-1,-1,-1,-1,-1,-1,-1,-1,-1,-1,-1,-1,-1,-1,-1,-1],"loss_changes":[2.888835E3,9.1358203E2,4.3943525E3,1.439305E3,1.0265833E3,1.262531E3,1.397163E3,8.561768E0,4.9744724E2,4.9688354E1,2.120996E1,6.821386E2,9.472661E2,1.1542554E3,2.4633716E2,0E0,0E0,0E0,0E0,0E0,0E0,0E0,0E0,0E0,0E0,0E0,0E0,0E0,0E0,0E0,0E0],"parents":[2147483647,0,0,1,1,2,2,3,3,4,4,5,5,6,6,7,7,8,8,9,9,10,10,11,11,12,12,13,13,14,14],"right_children":[2,4,6,8,10,12,14,16,18,20,22,24,26,28,30,-1,-1,-1,-1,-1,-1,-1,-1,-1,-1,-1,-1,-1,-1,-1,-1],"split_conditions":[7E0,6E0,1.8E1,3E0,5E0,1.5E1,2.3E1,5E0,2E0,4E0,6E0,7E0,1.7E1,3E0,7E0,-1.5034877E-1,-1.2388004E-1,-9.635795E-2,5.7146605E-2,-1.019639E-1,-1.5856507E-1,-4.548841E-1,-3.544607E-1,5.7105746E-2,-3.3398055E-2,1.7074607E-1,4.6636213E-2,-1.0073266E-1,2.9522702E-3,-1.4125668E-1,-2.8663164E-1],"split_indices":[1,0,1,1,1,1,1,0,0,1,1,0,1,0,0,0,0,0,0,0,0,0,0,0,0,0,0,0,0,0,0],"split_type":[0,0,0,0,0,0,0,0,0,0,0,0,0,0,0,0,0,0,0,0,0,0,0,0,0,0,0,0,0,0,0],"sum_hessian":[1.7204E4,3.054E3,1.415E4,2.106E3,9.48E2,8.029E3,6.121E3,9.24E2,1.182E3,7.66E2,1.82E2,5.4E3,2.629E3,5.309E3,8.12E2,7.33E2,1.91E2,2.74E2,9.08E2,5.41E2,2.25E2,4.7E1,1.35E2,4.372E3,1.028E3,1.646E3,9.83E2,1.493E3,3.816E3,6.7E2,1.42E2],"tree_param":{"num_deleted":"0","num_feature":"2","num_nodes":"31","size_leaf_vector":"1"}},{"base_weights":[-1.3347999E-3,1.348057E-1,-1.027115E0,-7.953822E-1,3.6895114E-1,-1.8059767E0,-7.2927034E-1,-4.6442896E-1,-1.529337E0,6.0802364E-1,-9.857289E-2,-1.9935024E-1,-1.6314436E0,-3.8025224E-1,-2.038839E0,-1.3054518E-1,1.9356815E-2,-1.0693113E-1,-3.4490666E-1,3.5886567E-2,1.1194664E-1,-9.9190086E-2,5.693877E-3,-1.5077552E-1,-1.8135153E-1,-1.05561964E-1,2.9929286E-2,-1.5560125E-1,-2.581689E-1],"categories":[],"categories_nodes":[],"categories_segments":[],"categories_sizes":[],"default_left":[0,0,0,0,0,0,0,0,0,0,0,0,0,0,0,0,0,0,0,0,0,0,0,0,0,0,0,0,0],"id":21,"left_children":[1,3,5,7,9,11,13,15,17,19,21,-1,23,25,27,-1,-1,-1,-1,-1,-1,-1,-1,-1,-1,-1,-1,-1,-1],"loss_changes":[2.4028206E3,3.3086643E3,4.66354E2,7.4136365E2,1.356527E3,1.4978149E1,6.6653705E2,1.1662468E3,8.3439746E2,1.0228613E3,5.706129E2,0E0,3.8865356E0,5.299357E2,7.644824E1,0E0,0E0,0E0,0E0,0E0,0E0,0E0,0E0,0E0,0E0,0E0,0E0,0E0,0E0],"parents":[2147483647,0,0,1,1,2,2,3,3,4,4,5,5,6,6,7,7,8,8,9,9,10,10,12,12,13,13,14,14],"right_children":[2,4,6,8,10,12,14,16,18,20,22,-1,24,26,28,-1,-1,-1,-1,-1,-1,-1,-1,-1,-1,-1,-1,-1,-1],"split_conditions":[2.2E1,7E0,3E0,6E0,1.8E1,2E0,7E0,3E0,5E0,1.5E1,2E0,-1.9935024E-1,2.3E1,5E0,2.3E1,-1.3054518E-1,1.9356815E-2,-1.0693113E-1,-3.4490666E-1,3.5886567E-2,1.1194664E-1,-9.9190086E-2,5.693877E-3,-1.5077552E-1,-1.8135153E-1,-1.05561964E-1,2.9929286E-2,-1.5560125E-1,-2.581689E-1],"split_indices":[1,1,0,0,1,0,0,1,1,1,0,0,1,0,1,0,0,0,0,0,0,0,0,0,0,0,0,0,0],"split_type":[0,0,0,0,0,0,0,0,0,0,0,0,0,0,0,0,0,0,0,0,0,0,0,0,0,0,0,0,0],"sum_hessian":[1.7204E4,1.5189E4,2.015E3,3.054E3,1.2135E4,5.56E2,1.459E3,2.106E3,9.48E2,8.029E3,4.106E3,2.63E2,2.93E2,1.153E3,3.06E2,9.24E2,1.182E3,7.66E2,1.82E2,5.4E3,2.629E3,6.08E2,3.498E3,1.8E2,1.13E2,5.78E2,5.75E2,1.64E2,1.42E2],"tree_param":{"num_deleted":"0","num_feature":"2","num_nodes":"29","size_leaf_vector":"1"}},{"base_weights":[-1.2901609E-3,-7.9259735E-1,1.4425209E-1,-3.532376E-1,-1.1019974E0,3.8386375E-1,-6.933587E-1,-6.5908134E-1,2.3942723E0,-9.6831703E-1,-2.0961144E0,5.225507E-1,-2.3631854E-1,-1.0723369E0,-2.4709535E-1,-1.2561987E-1,2.825189E-3,3.4689367E-1,2.0896481E-1,-7.081731E-2,-1.05235994E-1,-1.5001956E-1,-3.7657124E-1,1.1115079E-2,6.996853E-2,-1.043821E-2,-2.0232292E-1,-1.6739815E-1,-8.624648E-2,4.3021537E-2,-1.5876482E-1],"categories":[],"categories_nodes":[],"categories_segments":[],"categories_sizes":[],"default_left":[0,0,0,0,0,0,0,0,0,0,0,0,0,0,0,0,0,0,0,0,0,0,0,0,0,0,0,0,0,0,0],"id":22,"left_children":[1,3,5,7,9,11,13,15,17,19,21,23,25,27,29,-1,-1,-1,-1,-1,-1,-1,-1,-1,-1,-1,-1,-1,-1,-1,-1],"loss_changes":[1.9815905E3,3.629729E2,2.9170583E3,9.309595E2,2.0634802E2,9.7213586E2,5.465134E2,4.0881247E2,2.908905E1,2.9513428E1,1.7841547E2,6.729785E2,4.868661E2,2.1927344E2,1.3499277E3,0E0,0E0,0E0,0E0,0E0,0E0,0E0,0E0,0E0,0E0,0E0,0E0,0E0,0E0,0E0,0E0],"parents":[2147483647,0,0,1,1,2,2,3,3,4,4,5,5,6,6,7,7,8,8,9,9,10,10,11,11,12,12,13,13,14,14],"right_children":[2,4,6,8,10,12,14,16,18,20,22,24,26,28,30,-1,-1,-1,-1,-1,-1,-1,-1,-1,-1,-1,-1,-1,-1,-1,-1],"split_conditions":[6E0,4E0,2.1E1,5E0,5E0,7E0,5E0,3E0,2E0,1E0,6E0,3E0,2E1,2E0,7E0,-1.2561987E-1,2.825189E-3,3.4689367E-1,2.0896481E-1,-7.081731E-2,-1.05235994E-1,-1.5001956E-1,-3.7657124E-1,1.1115079E-2,6.996853E-2,-1.043821E-2,-2.0232292E-1,-1.6739815E-1,-8.624648E-2,4.3021537E-2,-1.5876482E-1],"split_indices":[1,0,1,1,1,0,0,1,0,1,0,0,1,0,0,0,0,0,0,0,0,0,0,0,0,0,0,0,0,0,0],"split_type":[0,0,0,0,0,0,0,0,0,0,0,0,0,0,0,0,0,0,0,0,0,0,0,0,0,0,0,0,0,0,0],"sum_hessian":[1.7204E4,2.672E3,1.4532E4,1.105E3,1.567E3,1.13E4,3.232E3,9.95E2,1.1E2,1.383E3,1.84E2,9.235E3,2.065E3,1.747E3,1.485E3,5.32E2,4.63E2,2.2E1,8.8E1,3.4E2,1.043E3,1.37E2,4.7E1,2.78E3,6.455E3,1.924E3,1.41E2,4.5E2,1.297E3,9.87E2,4.98E2],"tree_param":{"num_deleted":"0","num_feature":"2","num_nodes":"31","size_leaf_vector":"1"}},{"base_weights":[-1.2061074E-3,1.119734E-1,-8.539817E-1,-6.5195227E-1,3.0426747E-1,-1.501924E0,-6.062023E-1,-3.6565533E-1,-1.2869109E0,5.062909E-1,-9.080254E-2,-1.628143E-1,-1.3834758E0,-3.2053068E-1,-1.6780553E0,-1.0495005E-1,1.9352643E-2,-8.662609E-2,-3.0429307E-1,2.8167134E-2,9.6737996E-2,-8.491563E-2,4.121467E-3,-1.2720428E-1,-1.5482645E-1,-6.593808E-2,5.6465786E-2,-1.2435514E-1,-2.1676712E-1],"categories":[],"categories_nodes":[],"categories_segments":[],"categories_sizes":[],"default_left":[0,0,0,0,0,0,0,0,0,0,0,0,0,0,0,0,0,0,0,0,0,0,0,0,0,0,0,0,0],"id":23,"left_children":[1,3,5,7,9,11,13,15,17,19,21,-1,23,25,27,-1,-1,-1,-1,-1,-1,-1,-1,-1,-1,-1,-1,-1,-1],"loss_changes":[1.6606658E3,2.2315847E3,3.227517E2,5.548878E2,9.686614E2,6.074951E0,4.4651123E2,8.059066E2,6.983617E2,8.313916E2,4.1121036E2,0E0,3.4291992E0,3.4651025E2,6.26156E1,0E0,0E0,0E0,0E0,0E0,0E0,0E0,0E0,0E0,0E0,0E0,0E0,0E0,0E0],"parents":[2147483647,0,0,1,1,2,2,3,3,4,4,5,5,6,6,7,7,8,8,9,9,10,10,12,12,13,13,14,14],"right_children":[2,4,6,8,10,12,14,16,18,20,22,-1,24,26,28,-1,-1,-1,-1,-1,-1,-1,-1,-1,-1,-1,-1,-1,-1],"split_conditions":[2.2E1,7E0,3E0,6E0,1.8E1,2E0,7E0,4E0,5E0,1.5E1,2E0,-1.628143E-1,2.3E1,6E0,2.3E1,-1.0495005E-1,1.9352643E-2,-8.662609E-2,-3.0429307E-1,2.8167134E-2,9.6737996E-2,-8.491563E-2,4.121467E-3,-1.2720428E-1,-1.5482645E-1,-6.593808E-2,5.6465786E-2,-1.2435514E-1,-2.1676712E-1],"split_indices":[1,1,0,0,1,0,0,1,1,1,0,0,1,0,1,0,0,0,0,0,0,0,0,0,0,0,0,0,0],"split_type":[0,0,0,0,0,0,0,0,0,0,0,0,0,0,0,0,0,0,0,0,0,0,0,0,0,0,0,0,0],"sum_hessian":[1.7204E4,1.5189E4,2.015E3,3.054E3,1.2135E4,5.56E2,1.459E3,2.106E3,9.48E2,8.029E3,4.106E3,2.63E2,2.93E2,1.153E3,3.06E2,9.47E2,1.159E3,7.66E2,1.82E2,5.4E3,2.629E3,6.08E2,3.498E3,1.8E2,1.13E2,8.34E2,3.19E2,1.64E2,1.42E2],"tree_param":{"num_deleted":"0","num_feature":"2","num_nodes":"29","size_leaf_vector":"1"}},{"base_weights":[-1.1572313E-3,1.0074718E-1,-7.689781E-1,-6.5268445E-1,2.616213E-1,-4.5330092E-1,-1.2355295E0,-2.744812E-1,-9.1903657E-1,3.880222E-1,-3.1289667E-1,-1.3216044E0,-1.03025846E-1,-1.0809084E0,-1.9524197E-1,-5.433646E-2,2.1406749E-1,-7.970883E-2,-1.826374E-1,7.73986E-5,5.5799644E-2,-1.2902262E-2,-1.3717131E-1,-1.5056156E-1,-1.1455411E-1,1.3855037E-2,-1.11994974E-1,-1.4513467E-1,-9.99115E-3],"categories":[],"categories_nodes":[],"categories_segments":[],"categories_sizes":[],"default_left":[0,0,0,0,0,0,0,0,0,0,0,0,0,0,0,0,0,0,0,0,0,0,0,0,0,0,0,0,0],"id":24,"left_children":[1,3,5,7,9,11,13,15,17,19,21,23,25,27,-1,-1,-1,-1,-1,-1,-1,-1,-1,-1,-1,-1,-1,-1,-1],"loss_changes":[1.3462714E3,1.8413147E3,2.963556E2,2.6901294E2,9.091737E2,3.6605444E2,8.800781E1,7.1939435E2,1.7204077E2,6.7540137E2,4.3943048E2,9.484802E0,2.1118108E2,2.4369562E2,0E0,0E0,0E0,0E0,0E0,0E0,0E0,0E0,0E0,0E0,0E0,0E0,0E0,0E0,0E0],"parents":[2147483647,0,0,1,1,2,2,3,3,4,4,5,5,6,6,7,7,8,8,9,9,10,10,11,11,12,12,13,13],"right_children":[2,4,6,8,10,12,14,16,18,20,22,24,26,28,-1,-1,-1,-1,-1,-1,-1,-1,-1,-1,-1,-1,-1,-1,-1],"split_conditions":[2.2E1,6E0,2.3E1,4E0,7E0,3E0,7E0,5E0,5E0,3E0,2E1,2E0,7E0,6E0,-1.9524197E-1,-5.433646E-2,2.1406749E-1,-7.970883E-2,-1.826374E-1,7.73986E-5,5.5799644E-2,-1.2902262E-2,-1.3717131E-1,-1.5056156E-1,-1.1455411E-1,1.3855037E-2,-1.11994974E-1,-1.4513467E-1,-9.99115E-3],"split_indices":[1,1,1,0,0,0,0,1,1,0,1,0,0,0,0,0,0,0,0,0,0,0,0,0,0,0,0,0,0],"split_type":[0,0,0,0,0,0,0,0,0,0,0,0,0,0,0,0,0,0,0,0,0,0,0,0,0,0,0,0,0],"sum_hessian":[1.7204E4,1.5189E4,2.015E3,2.672E3,1.2517E4,1.203E3,8.12E2,1.105E3,1.567E3,1.026E4,2.257E3,3.45E2,8.58E2,6.7E2,1.42E2,9.95E2,1.1E2,1.383E3,1.84E2,3.13E3,7.13E3,1.924E3,3.33E2,1.65E2,1.8E2,6.94E2,1.64E2,4.86E2,1.84E2],"tree_param":{"num_deleted":"0","num_feature":"2","num_nodes":"29","size_leaf_vector":"1"}},{"base_weights":[-1.0943708E-3,9.065958E-2,-6.924344E-1,-5.8745426E-1,2.354517E-1,-4.082726E-1,-1.1124077E0,-2.4688858E-1,-8.273001E-1,3.492254E-1,-2.816729E-1,-9.7151893E-1,4.360828E-2,-9.7304887E-1,-1.7585431E-1,-4.890826E-2,1.928536E-1,-7.174369E-2,-1.644724E-1,5.2065324E-2,7.9661916E-4,-1.5593824E-1,-1.40194865E-2,-1.19021036E-1,-5.7026893E-2,3.8732376E-2,-1.00863375E-1,-1.3065103E-1,-8.997481E-3],"categories":[],"categories_nodes":[],"categories_segments":[],"categories_sizes":[],"default_left":[0,0,0,0,0,0,0,0,0,0,0,0,0,0,0,0,0,0,0,0,0,0,0,0,0,0,0,0,0],"id":25,"left_children":[1,3,5,7,9,11,13,15,17,19,21,23,25,27,-1,-1,-1,-1,-1,-1,-1,-1,-1,-1,-1,-1,-1,-1,-1],"loss_changes":[1.0914305E3,1.4915768E3,2.4013605E2,2.1813501E2,7.365971E2,3.0648468E2,7.149512E1,5.8366675E2,1.3963403E2,6.0027795E2,4.0795508E2,4.6355255E1,2.4234917E2,1.9747253E2,0E0,0E0,0E0,0E0,0E0,0E0,0E0,0E0,0E0,0E0,0E0,0E0,0E0,0E0,0E0],"parents":[2147483647,0,0,1,1,2,2,3,3,4,4,5,5,6,6,7,7,8,8,9,9,10,10,11,11,12,12,13,13],"right_children":[2,4,6,8,10,12,14,16,18,20,22,24,26,28,-1,-1,-1,-1,-1,-1,-1,-1,-1,-1,-1,-1,-1,-1,-1],"split_conditions":[2.2E1,6E0,2.3E1,4E0,7E0,4E0,7E0,5E0,5E0,1.8E1,9E0,3E0,7E0,6E0,-1.7585431E-1,-4.890826E-2,1.928536E-1,-7.174369E-2,-1.644724E-1,5.2065324E-2,7.9661916E-4,-1.5593824E-1,-1.40194865E-2,-1.19021036E-1,-5.7026893E-2,3.8732376E-2,-1.00863375E-1,-1.3065103E-1,-8.997481E-3],"split_indices":[1,1,1,0,0,0,0,1,1,1,1,0,0,0,0,0,0,0,0,0,0,0,0,0,0,0,0,0,0],"split_type":[0,0,0,0,0,0,0,0,0,0,0,0,0,0,0,0,0,0,0,0,0,0,0,0,0,0,0,0,0],"sum_hessian":[1.7204E4,1.5189E4,2.015E3,2.672E3,1.2517E4,1.203E3,8.12E2,1.105E3,1.567E3,1.026E4,2.257E3,5.35E2,6.68E2,6.7E2,1.42E2,9.95E2,1.1E2,1.383E3,1.84E2,6.829E3,3.431E3,2.24E2,2.033E3,3.45E2,1.9E2,5.04E2,1.64E2,4.86E2,1.84E2],"tree_param":{"num_deleted":"0","num_feature":"2","num_nodes":"29","size_leaf_vector":"1"}},{"base_weights":[-1.029106E-3,1.09729774E-1,-4.7972777E-1,-4.8589078E-1,2.7636692E-1,-7.823196E-1,-1.2346249E-1,-2.4393205E-1,-1.0225832E0,4.29271E-1,-1.9164365E-3,-1.21860854E-1,-6.30125E-1,3.6709458E-1,-1.0944984E0,-8.351237E-2,2.1853307E-2,-6.284926E-2,-2.6687306E-1,1.8875549E-2,1.217732E-1,1.39711825E-2,-6.916003E-2,-4.3328267E-2,-1.2353835E-1,6.1057407E-2,-3.3148963E-2,-8.953903E-2,-1.5839188E-1],"categories":[],"categories_nodes":[],"categories_segments":[],"categories_sizes":[],"default_left":[0,0,0,0,0,0,0,0,0,0,0,0,0,0,0,0,0,0,0,0,0,0,0,0,0,0,0,0,0],"id":26,"left_children":[1,3,5,7,9,11,13,15,17,19,21,-1,23,25,27,-1,-1,-1,-1,-1,-1,-1,-1,-1,-1,-1,-1,-1,-1],"loss_changes":[9.12264E2,1.3869897E3,3.4843042E2,3.9646497E2,4.6461163E2,1.1530078E2,7.082557E2,5.762479E2,6.139687E2,1.3361426E3,3.784063E2,0E0,1.5410913E2,1.6825223E2,4.720813E1,0E0,0E0,0E0,0E0,0E0,0E0,0E0,0E0,0E0,0E0,0E0,0E0,0E0,0E0],"parents":[2147483647,0,0,1,1,2,2,3,3,4,4,5,5,6,6,7,7,8,8,9,9,10,10,12,12,13,13,14,14],"right_children":[2,4,6,8,10,12,14,16,18,20,22,-1,24,26,28,-1,-1,-1,-1,-1,-1,-1,-1,-1,-1,-1,-1,-1,-1],"split_conditions":[2.1E1,7E0,5E0,6E0,1.7E1,2E0,7E0,3E0,5E0,1.5E1,7E0,-1.21860854E-1,2.3E1,2.3E1,2.3E1,-8.351237E-2,2.1853307E-2,-6.284926E-2,-2.6687306E-1,1.8875549E-2,1.217732E-1,1.39711825E-2,-6.916003E-2,-4.3328267E-2,-1.2353835E-1,6.1057407E-2,-3.3148963E-2,-8.953903E-2,-1.5839188E-1],"split_indices":[1,1,0,0,1,0,0,1,1,1,0,0,1,1,1,0,0,0,0,0,0,0,0,0,0,0,0,0,0],"split_type":[0,0,0,0,0,0,0,0,0,0,0,0,0,0,0,0,0,0,0,0,0,0,0,0,0,0,0,0,0],"sum_hessian":[1.7204E4,1.3972E4,3.232E3,3.054E3,1.0918E4,1.747E3,1.485E3,2.106E3,9.48E2,7.046E3,3.872E3,4.5E2,1.297E3,9.87E2,4.98E2,9.24E2,1.182E3,7.66E2,1.82E2,5.4E3,1.646E3,3.213E3,6.59E2,9.8E2,3.17E2,7.32E2,2.55E2,3.56E2,1.42E2],"tree_param":{"num_deleted":"0","num_feature":"2","num_nodes":"29","size_leaf_vector":"1"}},{"base_weights":[-9.733789E-4,-4.8481598E-1,8.801804E-2,-1.9322093E-1,-6.901855E-1,3.0346614E-1,-2.9550302E-1,-4.0577525E-1,1.7157638E0,-5.9085906E-1,-1.4295236E0,5.697461E-1,6.308811E-2,-5.8689874E-1,4.337578E-2,-9.04517E-2,2.9162744E-3,2.7084836E-1,1.43994E-1,-3.211687E-2,-6.783816E-2,-3.0127096E-1,-8.684912E-2,6.197519E-3,1.07222594E-1,-9.623607E-2,1.7486911E-2,-4.9998917E-2,-1.08605385E-1,5.4130208E-2,-8.8248886E-2],"categories":[],"categories_nodes":[],"categories_segments":[],"categories_sizes":[],"default_left":[0,0,0,0,0,0,0,0,0,0,0,0,0,0,0,0,0,0,0,0,0,0,0,0,0,0,0,0,0,0,0],"id":27,"left_children":[1,3,5,7,9,11,13,15,17,19,21,23,25,27,29,-1,-1,-1,-1,-1,-1,-1,-1,-1,-1,-1,-1,-1,-1,-1,-1],"loss_changes":[7.4085284E2,1.5993854E2,1.2009352E3,4.4947003E2,1.1430261E2,5.956211E2,5.162792E2,2.1608041E2,2.64935E1,3.2450104E1,1.6170395E2,1.1263972E3,5.609171E2,1.2140198E2,1.1152058E3,0E0,0E0,0E0,0E0,0E0,0E0,0E0,0E0,0E0,0E0,0E0,0E0,0E0,0E0,0E0,0E0],"parents":[2147483647,0,0,1,1,2,2,3,3,4,4,5,5,6,6,7,7,8,8,9,9,10,10,11,11,12,12,13,13,14,14],"right_children":[2,4,6,8,10,12,14,16,18,20,22,24,26,28,30,-1,-1,-1,-1,-1,-1,-1,-1,-1,-1,-1,-1,-1,-1,-1,-1],"split_conditions":[6E0,4E0,1.9E1,5E0,5E0,5E0,5E0,2E0,2E0,1E0,5E0,1.3E1,8E0,2.3E1,7E0,-9.04517E-2,2.9162744E-3,2.7084836E-1,1.43994E-1,-3.211687E-2,-6.783816E-2,-3.0127096E-1,-8.684912E-2,6.197519E-3,1.07222594E-1,-9.623607E-2,1.7486911E-2,-4.9998917E-2,-1.08605385E-1,5.4130208E-2,-8.8248886E-2],"split_indices":[1,0,1,1,1,0,0,1,0,1,0,1,1,1,0,0,0,0,0,0,0,0,0,0,0,0,0,0,0,0,0],"split_type":[0,0,0,0,0,0,0,0,0,0,0,0,0,0,0,0,0,0,0,0,0,0,0,0,0,0,0,0,0,0,0],"sum_hessian":[1.7204E4,2.672E3,1.4532E4,1.105E3,1.567E3,9.305E3,5.227E3,9.95E2,1.1E2,1.383E3,1.84E2,4.414E3,4.891E3,2.81E3,2.417E3,4.63E2,5.32E2,2.2E1,8.8E1,3.4E2,1.043E3,4.7E1,1.37E2,2.196E3,2.218E3,4.8E2,4.411E3,2.395E3,4.15E2,1.572E3,8.45E2],"tree_param":{"num_deleted":"0","num_feature":"2","num_nodes":"31","size_leaf_vector":"1"}},{"base_weights":[-8.9452247E-4,9.1518745E-2,-4.0030363E-1,-2.2422716E-1,3.0272156E-1,-6.4036846E-1,-1.1764306E-1,-6.473961E-1,-7.23739E-2,5.7970995E-1,-1.9258143E-2,-1.034395E0,-5.029676E-1,2.7633774E-1,-8.974735E-1,-2.1707708E-2,-6.9141793E-1,-5.0922137E-2,2.9687768E-2,3.127897E-2,1.0420521E-1,9.680335E-3,-5.844133E-2,-1.07378855E-1,-8.834828E-2,-3.400505E-2,-1.0039697E-1,4.955435E-2,-3.5238948E-2,-7.181005E-2,-1.3390028E-1],"categories":[],"categories_nodes":[],"categories_segments":[],"categories_sizes":[],"default_left":[0,0,0,0,0,0,0,0,0,0,0,0,0,0,0,0,0,0,0,0,0,0,0,0,0,0,0,0,0,0,0],"id":28,"left_children":[1,3,5,7,9,11,13,15,17,19,21,23,25,27,29,-1,-1,-1,-1,-1,-1,-1,-1,-1,-1,-1,-1,-1,-1,-1,-1],"loss_changes":[6.350852E2,9.318774E2,2.1930591E2,3.5987103E2,7.4675415E2,9.411572E1,4.5680402E2,3.986942E3,6.652184E2,5.551356E2,2.5409732E2,1.7325134E0,1.056037E2,1.3634142E2,3.855847E1,0E0,0E0,0E0,0E0,0E0,0E0,0E0,0E0,0E0,0E0,0E0,0E0,0E0,0E0,0E0,0E0],"parents":[2147483647,0,0,1,1,2,2,3,3,4,4,5,5,6,6,7,7,8,8,9,9,10,10,11,11,12,12,13,13,14,14],"right_children":[2,4,6,8,10,12,14,16,18,20,22,24,26,28,30,-1,-1,-1,-1,-1,-1,-1,-1,-1,-1,-1,-1,-1,-1,-1,-1],"split_conditions":[2.1E1,1.1E1,5E0,3E0,1.7E1,2E0,7E0,1E1,6E0,1.5E1,7E0,2.3E1,2.3E1,2.3E1,2.3E1,-2.1707708E-2,-6.9141793E-1,-5.0922137E-2,2.9687768E-2,3.127897E-2,1.0420521E-1,9.680335E-3,-5.844133E-2,-1.07378855E-1,-8.834828E-2,-3.400505E-2,-1.0039697E-1,4.955435E-2,-3.5238948E-2,-7.181005E-2,-1.3390028E-1],"split_indices":[1,1,0,0,1,0,0,1,1,1,0,1,1,1,1,0,0,0,0,0,0,0,0,0,0,0,0,0,0,0,0],"split_type":[0,0,0,0,0,0,0,0,0,0,0,0,0,0,0,0,0,0,0,0,0,0,0,0,0,0,0,0,0,0,0],"sum_hessian":[1.7204E4,1.3972E4,3.232E3,5.6E3,8.372E3,1.747E3,1.485E3,1.478E3,4.122E3,4.5E3,3.872E3,4.5E2,1.297E3,9.87E2,4.98E2,1.384E3,9.4E1,1.888E3,2.234E3,2.854E3,1.646E3,3.213E3,6.59E2,3.52E2,9.8E1,9.8E2,3.17E2,7.32E2,2.55E2,3.56E2,1.42E2],"tree_param":{"num_deleted":"0","num_feature":"2","num_nodes":"31","size_leaf_vector":"1"}},{"base_weights":[-8.7311014E-4,8.232042E-2,-3.6043462E-1,-2.0193562E-1,2.7245966E-1,-5.765204E-1,-1.0600776E-1,-5.831387E-1,-6.514171E-2,5.21769E-1,-1.7345082E-2,-9.313894E-1,-4.5277426E-1,2.4871817E-1,-8.081385E-1,-1.953851E-2,-6.2300396E-1,2.928679E-2,-4.7808066E-2,8.7408505E-2,2.3353247E-2,8.712587E-3,-5.2606072E-2,-9.667138E-2,-7.960268E-2,-3.0607998E-2,-9.038884E-2,4.4605628E-2,-3.172879E-2,-6.4649165E-2,-1.2060391E-1],"categories":[],"categories_nodes":[],"categories_segments":[],"categories_sizes":[],"default_left":[0,0,0,0,0,0,0,0,0,0,0,0,0,0,0,0,0,0,0,0,0,0,0,0,0,0,0,0,0,0,0],"id":29,"left_children":[1,3,5,7,9,11,13,15,17,19,21,23,25,27,29,-1,-1,-1,-1,-1,-1,-1,-1,-1,-1,-1,-1,-1,-1,-1,-1],"loss_changes":[5.1468616E2,7.552708E2,1.7768283E2,2.920332E2,6.049668E2,7.6339355E1,3.703101E2,3.2372102E3,6.0966833E2,4.5687415E2,2.058803E2,1.3869934E0,8.561963E1,1.10495766E2,3.1315674E1,0E0,0E0,0E0,0E0,0E0,0E0,0E0,0E0,0E0,0E0,0E0,0E0,0E0,0E0,0E0,0E0],"parents":[2147483647,0,0,1,1,2,2,3,3,4,4,5,5,6,6,7,7,8,8,9,9,10,10,11,11,12,12,13,13,14,14],"right_children":[2,4,6,8,10,12,14,16,18,20,22,24,26,28,30,-1,-1,-1,-1,-1,-1,-1,-1,-1,-1,-1,-1,-1,-1,-1,-1],"split_conditions":[2.1E1,1.1E1,5E0,3E0,1.7E1,2E0,7E0,1E1,6E0,5E0,7E0,2.3E1,2.3E1,2.3E1,2.3E1,-1.953851E-2,-6.2300396E-1,2.928679E-2,-4.7808066E-2,8.7408505E-2,2.3353247E-2,8.712587E-3,-5.2606072E-2,-9.667138E-2,-7.960268E-2,-3.0607998E-2,-9.038884E-2,4.4605628E-2,-3.172879E-2,-6.4649165E-2,-1.2060391E-1],"split_indices":[1,1,0,0,1,0,0,1,0,0,0,1,1,1,1,0,0,0,0,0,0,0,0,0,0,0,0,0,0,0,0],"split_type":[0,0,0,0,0,0,0,0,0,0,0,0,0,0,0,0,0,0,0,0,0,0,0,0,0,0,0,0,0,0,0],"sum_hessian":[1.7204E4,1.3972E4,3.232E3,5.6E3,8.372E3,1.747E3,1.485E3,1.478E3,4.122E3,4.5E3,3.872E3,4.5E2,1.297E3,9.87E2,4.98E2,1.384E3,9.4E1,2.208E3,1.914E3,2.024E3,2.476E3,3.213E3,6.59E2,3.52E2,9.8E1,9.8E2,3.17E2,7.32E2,2.55E2,3.56E2,1.42E2],"tree_param":{"num_deleted":"0","num_feature":"2","num_nodes":"31","size_leaf_vector":"1"}},{"base_weights":[-8.476695E-4,-3.8556668E-1,6.991231E-2,-1.3808563E-1,-5.598833E-1,2.8614426E-1,-1.5619004E-1,-3.2916063E-1,1.5776691E0,-4.6755615E-1,-1.247564E0,1.1454014E-1,8.8851255E-1,-8.7632075E-2,-6.866686E-1,-7.253685E-2,1.2667546E-2,2.4888635E-1,1.3244653E-1,-2.2303557E-2,-5.469757E-2,-2.6965293E-1,-7.345356E-2,-3.9164E-2,2.6922485E-2,1.277234E-1,3.7115853E-2,-6.0850646E-2,-2.2803103E-4,-6.004825E-2,-1.0862783E-1],"categories":[],"categories_nodes":[],"categories_segments":[],"categories_sizes":[],"default_left":[0,0,0,0,0,0,0,0,0,0,0,0,0,0,0,0,0,0,0,0,0,0,0,0,0,0,0,0,0,0,0],"id":30,"left_children":[1,3,5,7,9,11,13,15,17,19,21,23,25,27,29,-1,-1,-1,-1,-1,-1,-1,-1,-1,-1,-1,-1,-1,-1,-1,-1],"loss_changes":[4.683937E2,1.15236115E2,7.105711E2,3.6310794E2,9.897153E1,7.6782574E2,2.583382E2,1.7997528E2,2.2313263E1,2.6754883E1,1.3554099E2,4.5290466E2,3.307483E2,2.7976996E2,2.7348083E1,0E0,0E0,0E0,0E0,0E0,0E0,0E0,0E0,0E0,0E0,0E0,0E0,0E0,0E0,0E0,0E0],"parents":[2147483647,0,0,1,1,2,2,3,3,4,4,5,5,6,6,7,7,8,8,9,9,10,10,11,11,12,12,13,13,14,14],"right_children":[2,4,6,8,10,12,14,16,18,20,22,24,26,28,30,-1,-1,-1,-1,-1,-1,-1,-1,-1,-1,-1,-1,-1,-1,-1,-1],"split_conditions":[6E0,4E0,1.7E1,5E0,5E0,1.5E1,2.3E1,3E0,2E0,1E0,5E0,3E0,6E0,2E0,7E0,-7.253685E-2,1.2667546E-2,2.4888635E-1,1.3244653E-1,-2.2303557E-2,-5.469757E-2,-2.6965293E-1,-7.345356E-2,-3.9164E-2,2.6922485E-2,1.277234E-1,3.7115853E-2,-6.0850646E-2,-2.2803103E-4,-6.004825E-2,-1.0862783E-1],"split_indices":[1,0,1,1,1,1,1,1,0,1,0,0,0,0,0,0,0,0,0,0,0,0,0,0,0,0,0,0,0,0,0],"split_type":[0,0,0,0,0,0,0,0,0,0,0,0,0,0,0,0,0,0,0,0,0,0,0,0,0,0,0,0,0,0,0],"sum_hessian":[1.7204E4,2.672E3,1.4532E4,1.105E3,1.567E3,7.428E3,7.104E3,9.95E2,1.1E2,1.383E3,1.84E2,5.782E3,1.646E3,6.292E3,8.12E2,5.32E2,4.63E2,2.2E1,8.8E1,3.4E2,1.043E3,4.7E1,1.37E2,1.353E3,4.429E3,9.39E2,7.07E2,8.85E2,5.407E3,6.7E2,1.42E2],"tree_param":{"num_deleted":"0","num_feature":"2","num_nodes":"31","size_leaf_vector":"1"}},{"base_weights":[-7.730419E-4,-3.4704688E-1,6.2915854E-2,-1.2398643E-1,-5.041628E-1,2.3396073E-1,-1.7212048E-1,-2.963047E-1,1.4233379E0,-4.2085612E-1,-1.1246617E0,5.448579E-1,-4.1515555E-2,-4.1984537E-1,1.1261919E-1,-6.372721E-2,1.3424893E-2,2.2507985E-1,1.19350724E-1,-2.0079736E-2,-4.9233045E-2,-2.432494E-1,-6.616139E-2,6.805517E-3,1.1410942E-1,-8.929001E-2,6.1362484E-3,-6.5920524E-2,-3.328118E-2,4.359106E-2,-5.024734E-2],"categories":[],"categories_nodes":[],"categories_segments":[],"categories_sizes":[],"default_left":[0,0,0,0,0,0,0,0,0,0,0,0,0,0,0,0,0,0,0,0,0,0,0,0,0,0,0,0,0,0,0],"id":31,"left_children":[1,3,5,7,9,11,13,15,17,19,21,23,25,27,29,-1,-1,-1,-1,-1,-1,-1,-1,-1,-1,-1,-1,-1,-1,-1,-1],"loss_changes":[3.7945743E2,9.361636E1,5.842925E2,2.9531702E2,8.0579285E1,7.204667E2,4.3187543E2,1.4630309E2,1.8423172E1,2.1669449E1,1.1042461E2,1.1234252E3,3.9078824E2,6.798566E1,5.667546E2,0E0,0E0,0E0,0E0,0E0,0E0,0E0,0E0,0E0,0E0,0E0,0E0,0E0,0E0,0E0,0E0],"parents":[2147483647,0,0,1,1,2,2,3,3,4,4,5,5,6,6,7,7,8,8,9,9,10,10,11,11,12,12,13,13,14,14],"right_children":[2,4,6,8,10,12,14,16,18,20,22,24,26,28,30,-1,-1,-1,-1,-1,-1,-1,-1,-1,-1,-1,-1,-1,-1,-1,-1],"split_conditions":[6E0,4E0,1.8E1,5E0,5E0,5E0,5E0,4E0,2E0,1E0,5E0,1.3E1,8E0,2E0,7E0,-6.372721E-2,1.3424893E-2,2.2507985E-1,1.19350724E-1,-2.0079736E-2,-4.9233045E-2,-2.432494E-1,-6.616139E-2,6.805517E-3,1.1410942E-1,-8.929001E-2,6.1362484E-3,-6.5920524E-2,-3.328118E-2,4.359106E-2,-5.024734E-2],"split_indices":[1,0,1,1,1,0,0,1,0,1,0,1,1,0,0,0,0,0,0,0,0,0,0,0,0,0,0,0,0,0,0],"split_type":[0,0,0,0,0,0,0,0,0,0,0,0,0,0,0,0,0,0,0,0,0,0,0,0,0,0,0,0,0,0,0],"sum_hessian":[1.7204E4,2.672E3,1.4532E4,1.105E3,1.567E3,8.411E3,6.121E3,9.95E2,1.1E2,1.383E3,1.84E2,3.951E3,4.46E3,3.273E3,2.848E3,5.55E2,4.4E2,2.2E1,8.8E1,3.4E2,1.043E3,4.7E1,1.37E2,2.196E3,1.755E3,4.8E2,3.98E3,8.71E2,2.402E3,1.867E3,9.81E2],"tree_param":{"num_deleted":"0","num_feature":"2","num_nodes":"31","size_leaf_vector":"1"}},{"base_weights":[-7.045091E-4,4.95157E-2,-3.790995E-1,-3.1237382E-1,1.2678692E-1,-6.8494356E-1,-2.6215822E-1,-1.1132181E-1,-4.5398808E-1,2.020537E-1,-2.1530303E-1,-7.3221736E-2,-6.045583E-2,-2.4846205E-2,-6.003457E-1,-2.6672473E-2,1.2841073E-1,-3.7882056E-2,-1.0138684E-1,-6.2143323E-3,3.1802606E-2,-1.0176847E-1,-5.547902E-3,9.888579E-3,-5.4586977E-2,-8.156895E-2,-4.1675173E-2],"categories":[],"categories_nodes":[],"categories_segments":[],"categories_sizes":[],"default_left":[0,0,0,0,0,0,0,0,0,0,0,0,0,0,0,0,0,0,0,0,0,0,0,0,0,0,0],"id":32,"left_children":[1,3,5,7,9,11,13,15,17,19,21,-1,-1,23,25,-1,-1,-1,-1,-1,-1,-1,-1,-1,-1,-1,-1],"loss_changes":[3.2696667E2,4.2480737E2,7.1924255E1,7.605466E1,3.2235706E2,1.6740112E0,1.1715877E2,2.4018272E2,6.560492E1,3.144121E2,2.8950916E2,0E0,0E0,5.5431377E1,2.3460617E1,0E0,0E0,0E0,0E0,0E0,0E0,0E0,0E0,0E0,0E0,0E0,0E0],"parents":[2147483647,0,0,1,1,2,2,3,3,4,4,5,5,6,6,7,7,8,8,9,9,10,10,13,13,14,14],"right_children":[2,4,6,8,10,12,14,16,18,20,22,-1,-1,24,26,-1,-1,-1,-1,-1,-1,-1,-1,-1,-1,-1,-1],"split_conditions":[2.2E1,6E0,3E0,4E0,7E0,2.3E1,2.3E1,5E0,5E0,3E0,1E1,-7.3221736E-2,-6.045583E-2,7E0,6E0,-2.6672473E-2,1.2841073E-1,-3.7882056E-2,-1.0138684E-1,-6.2143323E-3,3.1802606E-2,-1.0176847E-1,-5.547902E-3,9.888579E-3,-5.4586977E-2,-8.156895E-2,-4.1675173E-2],"split_indices":[1,1,0,0,0,1,1,1,1,0,1,0,0,0,0,0,0,0,0,0,0,0,0,0,0,0,0],"split_type":[0,0,0,0,0,0,0,0,0,0,0,0,0,0,0,0,0,0,0,0,0,0,0,0,0,0,0],"sum_hessian":[1.7204E4,1.5189E4,2.015E3,2.672E3,1.2517E4,5.56E2,1.459E3,1.105E3,1.567E3,1.026E4,2.257E3,3.45E2,2.11E2,8.58E2,6.01E2,9.95E2,1.1E2,1.383E3,1.84E2,3.13E3,7.13E3,3.74E2,1.883E3,6.94E2,1.64E2,2.75E2,3.26E2],"tree_param":{"num_deleted":"0","num_feature":"2","num_nodes":"27","size_leaf_vector":"1"}},{"base_weights":[-6.586413E-4,6.06612E-2,-2.6568228E-1,-2.8115058E-1,1.415038E-1,-4.2512342E-1,-7.795094E-2,-1.000977E-1,-4.086782E-1,2.0984198E-1,-1.640688E-1,-6.6982377E-1,-3.397729E-1,1.931381E-1,-6.1454016E-1,-5.4703515E-2,3.5107713E-2,-3.4096606E-2,-9.130294E-2,-3.237657E-3,3.1414803E-2,-9.161877E-2,2.721169E-4,-7.063869E-2,-5.326865E-2,-2.398562E-2,-6.46938E-2,-1.2707375E-2,4.2049784E-2,-5.036298E-2,-8.871307E-2],"categories":[],"categories_nodes":[],"categories_segments":[],"categories_sizes":[],"default_left":[0,0,0,0,0,0,0,0,0,0,0,0,0,0,0,0,0,0,0,0,0,0,0,0,0,0,0,0,0,0,0],"id":33,"left_children":[1,3,5,7,9,11,13,15,17,19,21,23,25,27,29,-1,-1,-1,-1,-1,-1,-1,-1,-1,-1,-1,-1,-1,-1,-1,-1],"loss_changes":[2.7961813E2,3.8615503E2,9.673738E1,6.1676666E1,2.3602502E2,3.6279907E1,2.1627736E2,2.2321355E2,5.3237E1,2.3335648E2,2.5917368E2,1.8851166E0,3.9681656E1,7.198308E1,1.4639557E1,0E0,0E0,0E0,0E0,0E0,0E0,0E0,0E0,0E0,0E0,0E0,0E0,0E0,0E0,0E0,0E0],"parents":[2147483647,0,0,1,1,2,2,3,3,4,4,5,5,6,6,7,7,8,8,9,9,10,10,11,11,12,12,13,13,14,14],"right_children":[2,4,6,8,10,12,14,16,18,20,22,24,26,28,30,-1,-1,-1,-1,-1,-1,-1,-1,-1,-1,-1,-1,-1,-1,-1,-1],"split_conditions":[2.1E1,6E0,5E0,4E0,7E0,2E0,7E0,4E0,5E0,3E0,1E1,2.3E1,2.3E1,6E0,2.3E1,-5.4703515E-2,3.5107713E-2,-3.4096606E-2,-9.130294E-2,-3.237657E-3,3.1414803E-2,-9.161877E-2,2.721169E-4,-7.063869E-2,-5.326865E-2,-2.398562E-2,-6.46938E-2,-1.2707375E-2,4.2049784E-2,-5.036298E-2,-8.871307E-2],"split_indices":[1,1,0,0,0,0,0,1,1,0,1,1,1,0,1,0,0,0,0,0,0,0,0,0,0,0,0,0,0,0,0],"split_type":[0,0,0,0,0,0,0,0,0,0,0,0,0,0,0,0,0,0,0,0,0,0,0,0,0,0,0,0,0,0,0],"sum_hessian":[1.7204E4,1.3972E4,3.232E3,2.672E3,1.13E4,1.747E3,1.485E3,1.105E3,1.567E3,9.235E3,2.065E3,4.5E2,1.297E3,9.87E2,4.98E2,5.55E2,5.5E2,1.383E3,1.84E2,2.78E3,6.455E3,3.74E2,1.691E3,3.52E2,9.8E1,9.8E2,3.17E2,4.1E2,5.77E2,3.56E2,1.42E2],"tree_param":{"num_deleted":"0","num_feature":"2","num_nodes":"31","size_leaf_vector":"1"}},{"base_weights":[-6.2351656E-4,6.598444E-2,-2.0241272E-1,-1.2500498E-1,2.1179493E-1,-1.0902016E-1,-7.319533E-1,-4.6957597E-1,-1.3703668E-3,3.600748E-1,-2.3613892E-2,-2.9097095E-1,5.718937E-1,-1.3543735E-1,-5.533649E-1,-1.1923584E-2,-5.5722237E-1,2.9236663E-2,-3.4020256E-2,1.5506339E-2,7.152342E-2,-5.243457E-2,5.0098193E-3,-3.6432784E-2,-1.0963512E-3,1.1602398E-1,3.785212E-2,-4.5340803E-2,-7.990379E-2],"categories":[],"categories_nodes":[],"categories_segments":[],"categories_sizes":[],"default_left":[0,0,0,0,0,0,0,0,0,0,0,0,0,0,0,0,0,0,0,0,0,0,0,0,0,0,0,0,0],"id":34,"left_children":[1,3,5,7,9,11,13,15,17,19,21,23,25,-1,27,-1,-1,-1,-1,-1,-1,-1,-1,-1,-1,-1,-1,-1,-1],"loss_changes":[2.3126175E2,3.6027158E2,2.110937E2,2.3860704E2,2.5608176E2,4.5002118E2,7.039102E1,2.643288E3,4.104515E2,3.276147E2,1.0470299E2,5.8865005E1,8.670862E1,0E0,1.1891525E1,0E0,0E0,0E0,0E0,0E0,0E0,0E0,0E0,0E0,0E0,0E0,0E0,0E0,0E0],"parents":[2147483647,0,0,1,1,2,2,3,3,4,4,5,5,6,6,7,7,8,8,9,9,10,10,11,11,12,12,14,14],"right_children":[2,4,6,8,10,12,14,16,18,20,22,24,26,-1,28,-1,-1,-1,-1,-1,-1,-1,-1,-1,-1,-1,-1,-1,-1],"split_conditions":[2E1,1.1E1,7E0,3E0,1.7E1,6E0,2.1E1,1E1,6E0,1.5E1,2E0,5E0,2.1E1,-1.3543735E-1,2.3E1,-1.1923584E-2,-5.5722237E-1,2.9236663E-2,-3.4020256E-2,1.5506339E-2,7.152342E-2,-5.243457E-2,5.0098193E-3,-3.6432784E-2,-1.0963512E-3,1.1602398E-1,3.785212E-2,-4.5340803E-2,-7.990379E-2],"split_indices":[1,1,0,0,1,0,1,1,0,1,0,0,1,0,1,0,0,0,0,0,0,0,0,0,0,0,0,0,0],"split_type":[0,0,0,0,0,0,0,0,0,0,0,0,0,0,0,0,0,0,0,0,0,0,0,0,0,0,0,0,0],"sum_hessian":[1.7204E4,1.2935E4,4.269E3,5.6E3,7.335E3,3.63E3,6.39E2,1.478E3,4.122E3,4.5E3,2.835E3,2.865E3,7.65E2,1.41E2,4.98E2,1.384E3,9.4E1,2.208E3,1.914E3,2.854E3,1.646E3,3.63E2,2.472E3,2.27E3,5.95E2,1.88E2,5.77E2,3.56E2,1.42E2],"tree_param":{"num_deleted":"0","num_feature":"2","num_nodes":"29","size_leaf_vector":"1"}},{"base_weights":[-6.007005E-4,-2.688868E-1,4.244599E-2,-3.6358908E-1,-1.6102153E-1,1.900405E-1,-1.17992416E-1,-5.0227386E-1,-7.3862106E-2,7.102651E-2,-3.732562E-1,6.704298E-2,6.437539E-1,-5.3880274E-2,-4.4719884E-1,-3.1755626E-2,-5.5592593E-2,-1.3130436E-2,-2.339496E-3,-2.564383E-2,3.242766E-2,-8.937321E-3,-4.5551628E-2,1.5949503E-2,-3.657299E-2,9.577027E-2,2.2601992E-2,-1.4884031E-2,3.1048581E-2,-1.8495254E-2,-6.5916546E-2],"categories":[],"categories_nodes":[],"categories_segments":[],"categories_sizes":[],"default_left":[0,0,0,0,0,0,0,0,0,0,0,0,0,0,0,0,0,0,0,0,0,0,0,0,0,0,0,0,0,0,0],"id":35,"left_children":[1,3,5,7,9,11,13,15,17,19,21,23,25,27,29,-1,-1,-1,-1,-1,-1,-1,-1,-1,-1,-1,-1,-1,-1,-1,-1],"loss_changes":[1.9870901E2,2.4243134E1,3.5112323E2,5.083171E1,5.4889496E1,4.3094366E2,1.4993497E2,8.306839E0,1.188395E0,4.4285107E1,1.3550293E1,2.4320358E2,2.1578284E2,2.058483E2,6.424837E1,0E0,0E0,0E0,0E0,0E0,0E0,0E0,0E0,0E0,0E0,0E0,0E0,0E0,0E0,0E0,0E0],"parents":[2147483647,0,0,1,1,2,2,3,3,4,4,5,5,6,6,7,7,8,8,9,9,10,10,11,11,12,12,13,13,14,14],"right_children":[2,4,6,8,10,12,14,16,18,20,22,24,26,28,30,-1,-1,-1,-1,-1,-1,-1,-1,-1,-1,-1,-1,-1,-1,-1,-1],"split_conditions":[5E0,2E0,1.7E1,6E0,4E0,1.5E1,7E0,2E0,7E0,2E0,4E0,7E0,6E0,6E0,2E1,-3.1755626E-2,-5.5592593E-2,-1.3130436E-2,-2.339496E-3,-2.564383E-2,3.242766E-2,-8.937321E-3,-4.5551628E-2,1.5949503E-2,-3.657299E-2,9.577027E-2,2.2601992E-2,-1.4884031E-2,3.1048581E-2,-1.8495254E-2,-6.5916546E-2],"split_indices":[1,1,1,0,0,1,0,0,0,0,1,0,0,0,1,0,0,0,0,0,0,0,0,0,0,0,0,0,0,0,0],"split_type":[0,0,0,0,0,0,0,0,0,0,0,0,0,0,0,0,0,0,0,0,0,0,0,0,0,0,0,0,0,0,0],"sum_hessian":[1.7204E4,2.378E3,1.4826E4,1.265E3,1.113E3,7.722E3,7.104E3,8.55E2,4.1E2,5.32E2,5.81E2,6.076E3,1.646E3,5.947E3,1.157E3,1.94E2,6.61E2,1.91E2,2.19E2,2.32E2,3E2,1.31E2,4.5E2,5.007E3,1.069E3,9.39E2,7.07E2,4.718E3,1.229E3,5.18E2,6.39E2],"tree_param":{"num_deleted":"0","num_feature":"2","num_nodes":"31","size_leaf_vector":"1"}},{"base_weights":[-5.474843E-4,2.2535888E-2,-4.659905E-1,-2.2888252E-1,7.151329E-2,-5.524589E-1,-3.357884E-1,-7.605068E-2,-3.3653757E-1,1.8265626E-1,-5.9704356E-2,-4.1041163E-1,-7.3325956E-1,-8.782077E-3,-6.542375E-2,-2.0645078E-2,1.094711E-1,-2.6751379E-2,-8.510911E-2,6.961754E-3,5.7945054E-2,-3.9812278E-2,-4.24977E-4,-4.3420583E-2,-3.2518066E-2,-6.9418564E-2,-8.001378E-2],"categories":[],"categories_nodes":[],"categories_segments":[],"categories_sizes":[],"default_left":[0,0,0,0,0,0,0,0,0,0,0,0,0,0,0,0,0,0,0,0,0,0,0,0,0,0,0],"id":36,"left_children":[1,3,5,7,9,11,13,15,17,19,21,23,25,-1,-1,-1,-1,-1,-1,-1,-1,-1,-1,-1,-1,-1,-1],"loss_changes":[1.8486093E2,2.018768E2,8.96756E0,4.3953598E1,2.0011684E2,1.2206299E1,2.5764126E1,1.6907619E2,5.5462082E1,3.3317346E2,1.1809812E2,4.165039E-1,1.1672974E-3,0E0,0E0,0E0,0E0,0E0,0E0,0E0,0E0,0E0,0E0,0E0,0E0,0E0,0E0],"parents":[2147483647,0,0,1,1,2,2,3,3,4,4,5,5,6,6,7,7,8,8,9,9,10,10,11,11,12,12],"right_children":[2,4,6,8,10,12,14,16,18,20,22,24,26,-1,-1,-1,-1,-1,-1,-1,-1,-1,-1,-1,-1,-1,-1],"split_conditions":[2.3E1,6E0,6E0,4E0,1.7E1,4E0,7E0,5E0,5E0,1.5E1,2E0,3E0,5E0,-8.782077E-3,-6.542375E-2,-2.0645078E-2,1.094711E-1,-2.6751379E-2,-8.510911E-2,6.961754E-3,5.7945054E-2,-3.9812278E-2,-4.24977E-4,-4.3420583E-2,-3.2518066E-2,-6.9418564E-2,-8.001378E-2],"split_indices":[1,1,0,0,1,0,0,1,1,1,0,0,0,0,0,0,0,0,0,0,0,0,0,0,0,0,0],"split_type":[0,0,0,0,0,0,0,0,0,0,0,0,0,0,0,0,0,0,0,0,0,0,0,0,0,0,0],"sum_hessian":[1.7204E4,1.6392E4,8.12E2,2.672E3,1.372E4,4.86E2,3.26E2,1.105E3,1.567E3,7.428E3,6.292E3,2.74E2,2.12E2,1.84E2,1.42E2,9.95E2,1.1E2,1.383E3,1.84E2,5.782E3,1.646E3,8.85E2,5.407E3,2.11E2,6.3E1,1.41E2,7.1E1],"tree_param":{"num_deleted":"0","num_feature":"2","num_nodes":"27","size_leaf_vector":"1"}},{"base_weights":[-5.099906E-4,2.0282459E-2,-4.197598E-1,-2.0600282E-1,6.4363815E-2,-4.9767575E-1,-3.024362E-1,-6.8365164E-2,-3.0295515E-1,1.6439927E-1,-5.3740066E-2,-3.6964658E-1,-6.606351E-1,-7.908582E-3,-5.8927108E-2,-4.960012E-2,2.4033077E-2,-2.4078166E-2,-7.6644234E-2,6.265691E-3,5.2154046E-2,6.438216E-4,-3.6630627E-2,-3.9099008E-2,-2.9317055E-2,-6.252561E-2,-7.212349E-2],"categories":[],"categories_nodes":[],"categories_segments":[],"categories_sizes":[],"default_left":[0,0,0,0,0,0,0,0,0,0,0,0,0,0,0,0,0,0,0,0,0,0,0,0,0,0,0],"id":37,"left_children":[1,3,5,7,9,11,13,15,17,19,21,23,25,-1,-1,-1,-1,-1,-1,-1,-1,-1,-1,-1,-1,-1,-1],"loss_changes":[1.4998845E2,1.635328E2,7.281433E0,3.5648582E1,1.6211661E2,9.916344E0,2.0902546E1,1.4612173E2,4.499991E1,2.6991034E2,1.18371765E2,3.3424377E-1,5.706787E-3,0E0,0E0,0E0,0E0,0E0,0E0,0E0,0E0,0E0,0E0,0E0,0E0,0E0,0E0],"parents":[2147483647,0,0,1,1,2,2,3,3,4,4,5,5,6,6,7,7,8,8,9,9,10,10,11,11,12,12],"right_children":[2,4,6,8,10,12,14,16,18,20,22,24,26,-1,-1,-1,-1,-1,-1,-1,-1,-1,-1,-1,-1,-1,-1],"split_conditions":[2.3E1,6E0,6E0,4E0,1.7E1,4E0,7E0,2E0,5E0,1.5E1,7E0,3E0,5E0,-7.908582E-3,-5.8927108E-2,-4.960012E-2,2.4033077E-2,-2.4078166E-2,-7.6644234E-2,6.265691E-3,5.2154046E-2,6.438216E-4,-3.6630627E-2,-3.9099008E-2,-2.9317055E-2,-6.252561E-2,-7.212349E-2],"split_indices":[1,1,0,0,1,0,0,1,1,1,0,0,0,0,0,0,0,0,0,0,0,0,0,0,0,0,0],"split_type":[0,0,0,0,0,0,0,0,0,0,0,0,0,0,0,0,0,0,0,0,0,0,0,0,0,0,0],"sum_hessian":[1.7204E4,1.6392E4,8.12E2,2.672E3,1.372E4,4.86E2,3.26E2,1.105E3,1.567E3,7.428E3,6.292E3,2.74E2,2.12E2,1.84E2,1.42E2,4.63E2,6.42E2,1.383E3,1.84E2,5.782E3,1.646E3,5.277E3,1.015E3,2.11E2,6.3E1,1.41E2,7.1E1],"tree_param":{"num_deleted":"0","num_feature":"2","num_nodes":"27","size_leaf_vector":"1"}},{"base_weights":[-4.8078343E-4,3.9371435E-2,-1.8522628E-1,-3.319813E-1,6.903245E-2,-9.1891184E-2,-5.3698516E-1,-4.3489623E-1,-1.5242413E-1,1.566124E-1,-6.670347E-2,-3.362076E-1,2.3561028E-1,-1.1176425E-1,-3.7067184E-1,-2.1607837E-2,-5.245663E-2,3.3338554E-2,-3.252664E-2,3.4072474E-2,-1.1819419E-2,-2.8902879E-2,3.2299668E-2,-2.2111164E-2,-2.6295453E-1,6.0382187E-2,-1.2950799E-2,-3.0551016E-2,-5.307561E-2],"categories":[],"categories_nodes":[],"categories_segments":[],"categories_sizes":[],"default_left":[0,0,0,0,0,0,0,0,0,0,0,0,0,0,0,0,0,0,0,0,0,0,0,0,0,0,0,0,0],"id":38,"left_children":[1,3,5,7,9,11,13,15,17,19,21,23,25,-1,27,-1,-1,-1,-1,-1,-1,-1,-1,-1,-1,-1,-1,-1,-1],"loss_changes":[1.26679405E2,1.5591397E2,1.0018506E2,1.9281334E1,1.5582309E2,1.9323297E2,6.139119E1,1.2934898E1,3.226834E1,4.0313293E2,4.4551068E2,3.644668E2,1.3882109E2,0E0,5.0430984E0,0E0,0E0,0E0,0E0,0E0,0E0,0E0,0E0,0E0,0E0,0E0,0E0,0E0,0E0],"parents":[2147483647,0,0,1,1,2,2,3,3,4,4,5,5,6,6,7,7,8,8,9,9,10,10,11,11,12,12,14,14],"right_children":[2,4,6,8,10,12,14,16,18,20,22,24,26,-1,28,-1,-1,-1,-1,-1,-1,-1,-1,-1,-1,-1,-1,-1,-1],"split_conditions":[7E0,2E0,2E1,5E0,1.8E1,1.4E1,2.1E1,2E0,1E0,5E0,5E0,1.3E1,1.7E1,-1.1176425E-1,2.3E1,-2.1607837E-2,-5.245663E-2,3.3338554E-2,-3.252664E-2,3.4072474E-2,-1.1819419E-2,-2.8902879E-2,3.2299668E-2,-2.2111164E-2,-2.6295453E-1,6.0382187E-2,-1.2950799E-2,-3.0551016E-2,-5.307561E-2],"split_indices":[0,1,1,0,1,1,1,0,1,0,0,1,1,0,1,0,0,0,0,0,0,0,0,0,0,0,0,0,0],"split_type":[0,0,0,0,0,0,0,0,0,0,0,0,0,0,0,0,0,0,0,0,0,0,0,0,0,0,0,0,0],"sum_hessian":[1.7204E4,1.4152E4,3.052E3,1.046E3,1.3106E4,2.413E3,6.39E2,6.64E2,3.82E2,7.966E3,5.14E3,1.382E3,1.031E3,1.41E2,4.98E2,1.94E2,4.7E2,1E2,2.82E2,4.77E3,3.196E3,3.273E3,1.867E3,1.317E3,6.5E1,5.13E2,5.18E2,3.56E2,1.42E2],"tree_param":{"num_deleted":"0","num_feature":"2","num_nodes":"29","size_leaf_vector":"1"}},{"base_weights":[-4.6067862E-4,1.7579893E-2,-3.6422282E-1,-1.3378032E-1,6.959496E-2,-4.284044E-1,-2.675236E-1,2.5756264E-2,-4.734696E-1,1.8673655E-1,-4.0409695E-2,-3.0413306E-1,-5.868373E-1,-1.0334514E-2,-4.7805145E-2,-2.189788E-2,3.4357585E-2,-1.2588285E-2,-9.3710296E-2,8.583637E-3,4.4778742E-2,-3.3808917E-2,8.3670125E-4,-3.233091E-2,-2.3586033E-2,-5.3447124E-2,-6.8196446E-2],"categories":[],"categories_nodes":[],"categories_segments":[],"categories_sizes":[],"default_left":[0,0,0,0,0,0,0,0,0,0,0,0,0,0,0,0,0,0,0,0,0,0,0,0,0,0,0],"id":39,"left_children":[1,3,5,7,9,11,13,15,17,19,21,23,25,-1,-1,-1,-1,-1,-1,-1,-1,-1,-1,-1,-1,-1,-1],"loss_changes":[1.1291381E2,1.2907158E2,4.931122E0,2.2724292E2,1.5723108E2,9.409912E0,1.1253071E1,2.2206392E2,2.1582678E2,1.5560509E2,9.137609E1,2.8377342E-1,6.9654846E-1,0E0,0E0,0E0,0E0,0E0,0E0,0E0,0E0,0E0,0E0,0E0,0E0,0E0,0E0],"parents":[2147483647,0,0,1,1,2,2,3,3,4,4,5,5,6,6,7,7,8,8,9,9,10,10,11,11,12,12],"right_children":[2,4,6,8,10,12,14,16,18,20,22,24,26,-1,-1,-1,-1,-1,-1,-1,-1,-1,-1,-1,-1,-1,-1],"split_conditions":[2.3E1,9E0,6E0,6E0,1.7E1,4E0,7E0,5E0,5E0,1.5E1,2E0,3E0,5E0,-1.0334514E-2,-4.7805145E-2,-2.189788E-2,3.4357585E-2,-1.2588285E-2,-9.3710296E-2,8.583637E-3,4.4778742E-2,-3.3808917E-2,8.3670125E-4,-3.233091E-2,-2.3586033E-2,-5.3447124E-2,-6.8196446E-2],"split_indices":[1,1,0,0,1,0,0,1,1,1,0,0,0,0,0,0,0,0,0,0,0,0,0,0,0,0,0],"split_type":[0,0,0,0,0,0,0,0,0,0,0,0,0,0,0,0,0,0,0,0,0,0,0,0,0,0,0],"sum_hessian":[1.7204E4,1.6392E4,8.12E2,4.192E3,1.22E4,4.86E2,3.26E2,2.853E3,1.339E3,5.908E3,6.292E3,2.74E2,2.12E2,1.84E2,1.42E2,1.612E3,1.241E3,7.66E2,5.73E2,4.262E3,1.646E3,8.85E2,5.407E3,2.11E2,6.3E1,1.41E2,7.1E1],"tree_param":{"num_deleted":"0","num_feature":"2","num_nodes":"27","size_leaf_vector":"1"}},{"base_weights":[-4.324017E-4,3.4706227E-2,-1.633268E-1,-1.1085949E-1,1.0191573E-1,-8.0990255E-2,-4.7363478E-1,-4.5574692E-1,1.7952797E-1,2.417751E-1,-1.0271791E-2,-2.6345512E-1,2.5142065E-1,-1.0074961E-1,-3.2076517E-1,-1.18658235E-2,-1.1624318E-1,2.2415526E-1,-8.705611E-3,-1.9929126E-2,4.5381602E-2,-2.8522098E-2,4.875917E-3,-1.8235367E-2,-7.040679E-2,1.4820991E-1,-3.7359374E-4,-2.7587904E-2,-4.3058045E-2],"categories":[],"categories_nodes":[],"categories_segments":[],"categories_sizes":[],"default_left":[0,0,0,0,0,0,0,0,0,0,0,0,0,0,0,0,0,0,0,0,0,0,0,0,0,0,0,0,0],"id":40,"left_children":[1,3,5,7,9,11,13,15,17,19,21,23,25,-1,27,-1,-1,-1,-1,-1,-1,-1,-1,-1,-1,-1,-1,-1,-1],"loss_changes":[9.848513E1,1.3847575E2,7.7964836E1,4.4785687E2,1.5193335E2,1.4648332E2,5.190799E1,4.8677457E2,1.3348738E3,4.0317938E2,8.7236694E1,5.558145E1,2.6880304E2,0E0,2.3408775E0,0E0,0E0,0E0,0E0,0E0,0E0,0E0,0E0,0E0,0E0,0E0,0E0,0E0,0E0],"parents":[2147483647,0,0,1,1,2,2,3,3,4,4,5,5,6,6,7,7,8,8,9,9,10,10,11,11,12,12,14,14],"right_children":[2,4,6,8,10,12,14,16,18,20,22,24,26,-1,28,-1,-1,-1,-1,-1,-1,-1,-1,-1,-1,-1,-1,-1,-1],"split_conditions":[7E0,3E0,2E1,1.4E1,1.4E1,1.5E1,2.1E1,1E1,1.6E1,6E0,1.6E1,1.3E1,1.6E1,-1.0074961E-1,2.3E1,-1.18658235E-2,-1.1624318E-1,2.2415526E-1,-8.705611E-3,-1.9929126E-2,4.5381602E-2,-2.8522098E-2,4.875917E-3,-1.8235367E-2,-7.040679E-2,1.4820991E-1,-3.7359374E-4,-2.7587904E-2,-4.3058045E-2],"split_indices":[0,0,1,1,1,1,1,1,1,1,1,1,1,0,1,0,0,0,0,0,0,0,0,0,0,0,0,0,0],"split_type":[0,0,0,0,0,0,0,0,0,0,0,0,0,0,0,0,0,0,0,0,0,0,0,0,0,0,0,0,0],"sum_hessian":[1.7204E4,1.4152E4,3.052E3,4.47E3,9.682E3,2.413E3,6.39E2,2.043E3,2.427E3,4.309E3,5.373E3,1.558E3,8.55E2,1.41E2,4.98E2,1.384E3,6.59E2,2.77E2,2.15E3,1.399E3,2.91E3,9.49E2,4.424E3,1.317E3,2.41E2,1.46E2,7.09E2,3.56E2,1.42E2],"tree_param":{"num_deleted":"0","num_feature":"2","num_nodes":"29","size_leaf_vector":"1"}},{"base_weights":[-3.9049954E-4,1.5513077E-2,-3.2106325E-1,-1.16912104E-1,6.102109E-2,-3.849101E-1,-2.249945E-1,2.6329637E-2,-4.2190838E-1,1.608787E-1,-3.2752894E-2,-2.6836047E-1,-5.3357786E-1,-9.791582E-3,-3.878236E-2,-1.808619E-2,2.9539052E-2,-9.448765E-3,-8.58685E-2,7.886632E-3,3.7305716E-2,-2.9562298E-2,1.0319523E-3,-2.8246606E-2,-2.1744251E-2,-4.8624214E-2,-6.195238E-2],"categories":[],"categories_nodes":[],"categories_segments":[],"categories_sizes":[],"default_left":[0,0,0,0,0,0,0,0,0,0,0,0,0,0,0,0,0,0,0,0,0,0,0,0,0,0,0],"id":41,"left_children":[1,3,5,7,9,11,13,15,17,19,21,23,25,-1,-1,-1,-1,-1,-1,-1,-1,-1,-1,-1,-1,-1,-1],"loss_changes":[8.7747795E1,9.879802E1,4.900078E0,1.8319571E2,1.1425598E2,8.295143E0,6.728346E0,1.5915575E2,1.915519E2,1.0279465E2,7.1255226E1,1.3609123E-1,5.6531525E-1,0E0,0E0,0E0,0E0,0E0,0E0,0E0,0E0,0E0,0E0,0E0,0E0,0E0,0E0],"parents":[2147483647,0,0,1,1,2,2,3,3,4,4,5,5,6,6,7,7,8,8,9,9,10,10,11,11,12,12],"right_children":[2,4,6,8,10,12,14,16,18,20,22,24,26,-1,-1,-1,-1,-1,-1,-1,-1,-1,-1,-1,-1,-1,-1],"split_conditions":[2.3E1,9E0,6E0,6E0,1.7E1,4E0,7E0,5E0,5E0,1.5E1,2E0,3E0,5E0,-9.791582E-3,-3.878236E-2,-1.808619E-2,2.9539052E-2,-9.448765E-3,-8.58685E-2,7.886632E-3,3.7305716E-2,-2.9562298E-2,1.0319523E-3,-2.8246606E-2,-2.1744251E-2,-4.8624214E-2,-6.195238E-2],"split_indices":[1,1,0,0,1,0,0,1,1,1,0,0,0,0,0,0,0,0,0,0,0,0,0,0,0,0,0],"split_type":[0,0,0,0,0,0,0,0,0,0,0,0,0,0,0,0,0,0,0,0,0,0,0,0,0,0,0],"sum_hessian":[1.7204E4,1.6392E4,8.12E2,4.192E3,1.22E4,4.86E2,3.26E2,2.853E3,1.339E3,5.908E3,6.292E3,2.74E2,2.12E2,1.84E2,1.42E2,1.612E3,1.241E3,7.66E2,5.73E2,4.262E3,1.646E3,8.85E2,5.407E3,2.11E2,6.3E1,1.41E2,7.1E1],"tree_param":{"num_deleted":"0","num_feature":"2","num_nodes":"27","size_leaf_vector":"1"}},{"base_weights":[-3.6755178E-4,3.062836E-2,-1.4405729E-1,-9.724845E-2,8.967066E-2,-7.117488E-2,-4.1873553E-1,-4.400644E-1,1.5280885E-1,2.1974875E-1,-1.466991E-2,-2.5320804E-1,1.7283967E-1,-9.0848036E-2,-2.7853012E-1,-1.0797438E-2,-1.3554123E-1,9.793302E-2,-2.7484193E-2,-1.6754014E-2,4.0593382E-2,-2.8005976E-2,4.2309756E-3,-1.4964691E-2,-2.3174559E-1,4.6624694E-2,-1.1807395E-2,-2.4939744E-2,-3.4931224E-2],"categories":[],"categories_nodes":[],"categories_segments":[],"categories_sizes":[],"default_left":[0,0,0,0,0,0,0,0,0,0,0,0,0,0,0,0,0,0,0,0,0,0,0,0,0,0,0,0,0],"id":42,"left_children":[1,3,5,7,9,11,13,15,17,19,21,23,25,-1,27,-1,-1,-1,-1,-1,-1,-1,-1,-1,-1,-1,-1,-1,-1],"loss_changes":[7.663195E1,1.0686587E2,6.108885E1,3.833376E2,1.3142499E2,1.072706E2,4.3692482E1,5.73156E2,9.1432306E2,3.108509E2,8.127655E1,2.9530518E2,8.8142624E1,0E0,9.418564E-1,0E0,0E0,0E0,0E0,0E0,0E0,0E0,0E0,0E0,0E0,0E0,0E0,0E0,0E0],"parents":[2147483647,0,0,1,1,2,2,3,3,4,4,5,5,6,6,7,7,8,8,9,9,10,10,11,11,12,12,14,14],"right_children":[2,4,6,8,10,12,14,16,18,20,22,24,26,-1,28,-1,-1,-1,-1,-1,-1,-1,-1,-1,-1,-1,-1,-1,-1],"split_conditions":[7E0,3E0,2E1,1.3E1,1.4E1,1.4E1,2.1E1,1E1,1.8E1,6E0,1.6E1,1.3E1,1.7E1,-9.0848036E-2,2.3E1,-1.0797438E-2,-1.3554123E-1,9.793302E-2,-2.7484193E-2,-1.6754014E-2,4.0593382E-2,-2.8005976E-2,4.2309756E-3,-1.4964691E-2,-2.3174559E-1,4.6624694E-2,-1.1807395E-2,-2.4939744E-2,-3.4931224E-2],"split_indices":[0,0,1,1,1,1,1,1,1,1,1,1,1,0,1,0,0,0,0,0,0,0,0,0,0,0,0,0,0],"split_type":[0,0,0,0,0,0,0,0,0,0,0,0,0,0,0,0,0,0,0,0,0,0,0,0,0,0,0,0,0],"sum_hessian":[1.7204E4,1.4152E4,3.052E3,4.47E3,9.682E3,2.413E3,6.39E2,1.885E3,2.585E3,4.309E3,5.373E3,1.382E3,1.031E3,1.41E2,4.98E2,1.384E3,5.01E2,8.81E2,1.704E3,1.399E3,2.91E3,9.49E2,4.424E3,1.317E3,6.5E1,5.13E2,5.18E2,3.56E2,1.42E2],"tree_param":{"num_deleted":"0","num_feature":"2","num_nodes":"29","size_leaf_vector":"1"}},{"base_weights":[-3.5629727E-4,2.2234822E-2,-1.7057393E-1,-7.954706E-2,8.1677794E-2,-2.6192716E-1,3.2689482E-2,-4.025755E-1,3.634879E-2,5.172587E-1,3.622955E-2,-3.6540753E-1,-1.9258521E-1,3.1459385E-1,-2.612587E-1,-9.71847E-3,-4.850614E-1,-6.0357144E-3,5.966098E-2,1.7463379E-2,1.0844389E-1,1.5039436E-2,-7.0615606E-3,-4.491572E-2,-2.2699812E-2,-7.98237E-3,-4.2067897E-2,8.6589165E-2,-9.238504E-3,-2.1342423E-2,-3.146253E-2],"categories":[],"categories_nodes":[],"categories_segments":[],"categories_sizes":[],"default_left":[0,0,0,0,0,0,0,0,0,0,0,0,0,0,0,0,0,0,0,0,0,0,0,0,0,0,0,0,0,0,0],"id":43,"left_children":[1,3,5,7,9,11,13,15,17,19,21,23,25,27,29,-1,-1,-1,-1,-1,-1,-1,-1,-1,-1,-1,-1,-1,-1,-1,-1],"loss_changes":[6.6164024E1,9.190931E1,3.7443188E1,2.0970293E2,1.8982861E2,9.9107895E0,5.195585E1,2.0085873E3,2.2342245E2,1.7587369E2,1.05949875E2,6.354645E0,2.1442781E1,7.18773E1,7.165489E-1,0E0,0E0,0E0,0E0,0E0,0E0,0E0,0E0,0E0,0E0,0E0,0E0,0E0,0E0,0E0,0E0],"parents":[2147483647,0,0,1,1,2,2,3,3,4,4,5,5,6,6,7,7,8,8,9,9,10,10,11,11,12,12,13,13,14,14],"right_children":[2,4,6,8,10,12,14,16,18,20,22,24,26,28,30,-1,-1,-1,-1,-1,-1,-1,-1,-1,-1,-1,-1,-1,-1,-1,-1],"split_conditions":[2.2E1,1.1E1,6E0,3E0,1.2E1,3E0,7E0,1E1,1E1,6E0,5E0,2.3E1,2.3E1,2.3E1,2.3E1,-9.71847E-3,-4.850614E-1,-6.0357144E-3,5.966098E-2,1.7463379E-2,1.0844389E-1,1.5039436E-2,-7.0615606E-3,-4.491572E-2,-2.2699812E-2,-7.98237E-3,-4.2067897E-2,8.6589165E-2,-9.238504E-3,-2.1342423E-2,-3.146253E-2],"split_indices":[1,1,0,0,1,0,0,1,1,0,0,1,1,1,1,0,0,0,0,0,0,0,0,0,0,0,0,0,0,0,0],"split_type":[0,0,0,0,0,0,0,0,0,0,0,0,0,0,0,0,0,0,0,0,0,0,0,0,0,0,0,0,0,0,0],"sum_hessian":[1.7204E4,1.5189E4,2.015E3,5.6E3,9.589E3,1.39E3,6.25E2,1.478E3,4.122E3,9.05E2,8.684E3,5.56E2,8.34E2,3.19E2,3.06E2,1.384E3,9.4E1,3.516E3,6.06E2,5.65E2,3.4E2,4.198E3,4.486E3,3.45E2,2.11E2,5.59E2,2.75E2,1.35E2,1.84E2,1.64E2,1.42E2],"tree_param":{"num_deleted":"0","num_feature":"2","num_nodes":"31","size_leaf_vector":"1"}},{"base_weights":[-3.4411153E-4,2.7629115E-2,-1.300214E-1,-7.8123935E-2,7.645637E-2,-3.3125952E-1,-5.0569445E-2,-3.5616985E-1,1.5597984E-1,1.8871059E-1,-1.3586828E-2,5.643548E-2,-5.6977934E-1,1.6629456E-1,-2.4398045E-1,-8.747338E-3,-9.194856E-2,1.8784134E-1,-6.6703795E-3,-1.4476662E-2,3.4902643E-2,-2.5282342E-2,3.777777E-3,1.9650308E-2,-5.715161E-3,-7.823027E-2,-4.395413E-2,-8.175398E-3,6.765771E-2,-8.6150676E-2,-1.3242634E-2],"categories":[],"categories_nodes":[],"categories_segments":[],"categories_sizes":[],"default_left":[0,0,0,0,0,0,0,0,0,0,0,0,0,0,0,0,0,0,0,0,0,0,0,0,0,0,0,0,0,0,0],"id":44,"left_children":[1,3,5,7,9,11,13,15,17,19,21,23,25,27,29,-1,-1,-1,-1,-1,-1,-1,-1,-1,-1,-1,-1,-1,-1,-1,-1],"loss_changes":[6.2414593E1,7.308684E1,4.8796932E1,2.9108008E2,9.78757E1,7.992878E1,9.189768E1,3.0930136E2,9.314035E2,2.3047034E2,6.604683E1,5.261487E0,1.4464218E1,1.3080713E2,7.9657745E1,0E0,0E0,0E0,0E0,0E0,0E0,0E0,0E0,0E0,0E0,0E0,0E0,0E0,0E0,0E0,0E0],"parents":[2147483647,0,0,1,1,2,2,3,3,4,4,5,5,6,6,7,7,8,8,9,9,10,10,11,11,12,12,13,13,14,14],"right_children":[2,4,6,8,10,12,14,16,18,20,22,24,26,28,30,-1,-1,-1,-1,-1,-1,-1,-1,-1,-1,-1,-1,-1,-1,-1,-1],"split_conditions":[7E0,3E0,1E1,1.4E1,1.4E1,4E0,1.7E1,1E1,1.6E1,6E0,1.6E1,1E0,7E0,1.5E1,1.8E1,-8.747338E-3,-9.194856E-2,1.8784134E-1,-6.6703795E-3,-1.4476662E-2,3.4902643E-2,-2.5282342E-2,3.777777E-3,1.9650308E-2,-5.715161E-3,-7.823027E-2,-4.395413E-2,-8.175398E-3,6.765771E-2,-8.6150676E-2,-1.3242634E-2],"split_indices":[0,0,1,1,1,1,1,1,1,1,1,1,1,1,1,0,0,0,0,0,0,0,0,0,0,0,0,0,0,0,0],"split_type":[0,0,0,0,0,0,0,0,0,0,0,0,0,0,0,0,0,0,0,0,0,0,0,0,0,0,0,0,0,0,0],"sum_hessian":[1.7204E4,1.4152E4,3.052E3,4.47E3,9.682E3,8.63E2,2.189E3,2.043E3,2.427E3,4.309E3,5.373E3,3.29E2,5.34E2,1.032E3,1.157E3,1.384E3,6.59E2,2.77E2,2.15E3,1.399E3,2.91E3,9.49E2,4.424E3,1.47E2,1.82E2,2.01E2,3.33E2,6.95E2,3.37E2,1.76E2,9.81E2],"tree_param":{"num_deleted":"0","num_feature":"2","num_nodes":"31","size_leaf_vector":"1"}},{"base_weights":[-3.1373362E-4,1.2007322E-2,-2.4875009E-1,-9.039978E-2,4.71996E-2,-3.0288312E-1,-1.6736925E-1,3.56974E-2,-3.589005E-1,1.2220112E-1,-2.3232818E-2,-1.902806E-1,-4.4684E-1,-8.695382E-3,-2.7023276E-2,-2.4326762E-2,1.7435662E-2,-4.429454E-3,-7.786634E-2,4.6463653E-2,7.780254E-3,-2.5168953E-2,1.4199851E-3,-1.9776635E-2,-1.6251093E-2,-4.0414132E-2,-5.2484512E-2],"categories":[],"categories_nodes":[],"categories_segments":[],"categories_sizes":[],"default_left":[0,0,0,0,0,0,0,0,0,0,0,0,0,0,0,0,0,0,0,0,0,0,0,0,0,0,0],"id":45,"left_children":[1,3,5,7,9,11,13,15,17,19,21,23,25,-1,-1,-1,-1,-1,-1,-1,-1,-1,-1,-1,-1,-1,-1],"loss_changes":[5.2667465E1,5.908364E1,3.5308876E0,1.4197598E2,6.44551E1,7.8092003E0,2.681385E0,1.1043821E2,1.7692577E2,8.9802185E1,5.3819702E1,2.5027275E-2,4.9733353E-1,0E0,0E0,0E0,0E0,0E0,0E0,0E0,0E0,0E0,0E0,0E0,0E0,0E0,0E0],"parents":[2147483647,0,0,1,1,2,2,3,3,4,4,5,5,6,6,7,7,8,8,9,9,10,10,11,11,12,12],"right_children":[2,4,6,8,10,12,14,16,18,20,22,24,26,-1,-1,-1,-1,-1,-1,-1,-1,-1,-1,-1,-1,-1,-1],"split_conditions":[2.3E1,9E0,6E0,6E0,1.7E1,4E0,7E0,4E0,5E0,2E0,2E0,3E0,5E0,-8.695382E-3,-2.7023276E-2,-2.4326762E-2,1.7435662E-2,-4.429454E-3,-7.786634E-2,4.6463653E-2,7.780254E-3,-2.5168953E-2,1.4199851E-3,-1.9776635E-2,-1.6251093E-2,-4.0414132E-2,-5.2484512E-2],"split_indices":[1,1,0,0,1,0,0,1,1,0,0,0,0,0,0,0,0,0,0,0,0,0,0,0,0,0,0],"split_type":[0,0,0,0,0,0,0,0,0,0,0,0,0,0,0,0,0,0,0,0,0,0,0,0,0,0,0],"sum_hessian":[1.7204E4,1.6392E4,8.12E2,4.192E3,1.22E4,4.86E2,3.26E2,2.853E3,1.339E3,5.908E3,6.292E3,2.74E2,2.12E2,1.84E2,1.42E2,9.47E2,1.906E3,7.66E2,5.73E2,6.77E2,5.231E3,8.85E2,5.407E3,2.11E2,6.3E1,1.41E2,7.1E1],"tree_param":{"num_deleted":"0","num_feature":"2","num_nodes":"27","size_leaf_vector":"1"}},{"base_weights":[-2.9516747E-4,2.3989374E-2,-1.1287257E-1,-7.3499925E-2,6.900132E-2,-5.1851943E-2,-3.428584E-1,-3.336647E-1,1.4554879E-1,1.7120041E-1,-1.2976179E-2,-1.89789E-1,1.9942811E-1,-7.995205E-2,-2.1221937E-1,-8.562255E-3,-8.536719E-2,1.0195754E-1,-2.2567747E-2,-1.2438783E-2,3.1330016E-2,-1.5139855E-2,6.507897E-3,-1.13215465E-2,-6.060458E-2,1.18362546E-1,-4.6232156E-4,-1.9913584E-2,-2.4339844E-2],"categories":[],"categories_nodes":[],"categories_segments":[],"categories_sizes":[],"default_left":[0,0,0,0,0,0,0,0,0,0,0,0,0,0,0,0,0,0,0,0,0,0,0,0,0,0,0,0,0],"id":46,"left_children":[1,3,5,7,9,11,13,15,17,19,21,23,25,-1,27,-1,-1,-1,-1,-1,-1,-1,-1,-1,-1,-1,-1,-1,-1],"loss_changes":[4.7039295E1,6.2111023E1,4.2827656E1,2.548453E2,8.112665E1,8.370909E1,3.8011375E1,2.6356958E2,7.880229E2,1.8107196E2,5.8073654E1,4.962335E1,1.7191321E2,0E0,1.5509033E-1,0E0,0E0,0E0,0E0,0E0,0E0,0E0,0E0,0E0,0E0,0E0,0E0,0E0,0E0],"parents":[2147483647,0,0,1,1,2,2,3,3,4,4,5,5,6,6,7,7,8,8,9,9,10,10,11,11,12,12,14,14],"right_children":[2,4,6,8,10,12,14,16,18,20,22,24,26,-1,28,-1,-1,-1,-1,-1,-1,-1,-1,-1,-1,-1,-1,-1,-1],"split_conditions":[7E0,3E0,2E1,1.4E1,1.4E1,1.5E1,2.1E1,1E1,1.8E1,6E0,1.8E1,1.3E1,1.6E1,-7.995205E-2,2.3E1,-8.562255E-3,-8.536719E-2,1.0195754E-1,-2.2567747E-2,-1.2438783E-2,3.1330016E-2,-1.5139855E-2,6.507897E-3,-1.13215465E-2,-6.060458E-2,1.18362546E-1,-4.6232156E-4,-1.9913584E-2,-2.4339844E-2],"split_indices":[0,0,1,1,1,1,1,1,1,1,1,1,1,0,1,0,0,0,0,0,0,0,0,0,0,0,0,0,0],"split_type":[0,0,0,0,0,0,0,0,0,0,0,0,0,0,0,0,0,0,0,0,0,0,0,0,0,0,0,0,0],"sum_hessian":[1.7204E4,1.4152E4,3.052E3,4.47E3,9.682E3,2.413E3,6.39E2,2.043E3,2.427E3,4.309E3,5.373E3,1.558E3,8.55E2,1.41E2,4.98E2,1.384E3,6.59E2,7.23E2,1.704E3,1.399E3,2.91E3,1.937E3,3.436E3,1.317E3,2.41E2,1.46E2,7.09E2,3.56E2,1.42E2],"tree_param":{"num_deleted":"0","num_feature":"2","num_nodes":"29","size_leaf_vector":"1"}},{"base_weights":[-2.7036687E-4,1.7578783E-2,-1.3475862E-1,-6.699754E-2,6.69734E-2,-2.1755657E-1,4.943742E-2,-3.426552E-1,3.190245E-2,4.6713832E-1,2.5221374E-2,-2.658419E-1,-1.4998154E-1,2.7752385E-1,-1.8846844E-1,-7.7066566E-3,-4.2110515E-1,2.1747528E-2,-1.8217707E-2,1.7992584E-2,9.424906E-2,-3.307462E-2,5.8466936E-3,-3.2192767E-2,-1.555589E-2,-4.25679E-5,-4.0906932E-2,7.683202E-2,-8.477791E-3,-1.6066726E-2,-2.1922877E-2],"categories":[],"categories_nodes":[],"categories_segments":[],"categories_sizes":[],"default_left":[0,0,0,0,0,0,0,0,0,0,0,0,0,0,0,0,0,0,0,0,0,0,0,0,0,0,0,0,0,0,0],"id":47,"left_children":[1,3,5,7,9,11,13,15,17,19,21,23,25,27,29,-1,-1,-1,-1,-1,-1,-1,-1,-1,-1,-1,-1,-1,-1,-1,-1],"loss_changes":[4.1302986E1,6.346247E1,3.0756882E1,1.5270844E2,1.6021506E2,4.498802E0,3.4021004E1,1.5192032E3,1.6383545E2,1.2352399E2,1.0280059E2,4.960022E0,2.2551216E1,5.696638E1,2.2731495E-1,0E0,0E0,0E0,0E0,0E0,0E0,0E0,0E0,0E0,0E0,0E0,0E0,0E0,0E0,0E0,0E0],"parents":[2147483647,0,0,1,1,2,2,3,3,4,4,5,5,6,6,7,7,8,8,9,9,10,10,11,11,12,12,13,13,14,14],"right_children":[2,4,6,8,10,12,14,16,18,20,22,24,26,28,30,-1,-1,-1,-1,-1,-1,-1,-1,-1,-1,-1,-1,-1,-1,-1,-1],"split_conditions":[2.2E1,1.1E1,6E0,3E0,1.2E1,4E0,7E0,1E1,6E0,6E0,1.3E1,2.3E1,2.3E1,2.3E1,2.3E1,-7.7066566E-3,-4.2110515E-1,2.1747528E-2,-1.8217707E-2,1.7992584E-2,9.424906E-2,-3.307462E-2,5.8466936E-3,-3.2192767E-2,-1.555589E-2,-4.25679E-5,-4.0906932E-2,7.683202E-2,-8.477791E-3,-1.6066726E-2,-2.1922877E-2],"split_indices":[1,1,0,0,1,0,0,1,0,0,1,1,1,1,1,0,0,0,0,0,0,0,0,0,0,0,0,0,0,0,0],"split_type":[0,0,0,0,0,0,0,0,0,0,0,0,0,0,0,0,0,0,0,0,0,0,0,0,0,0,0,0,0,0,0],"sum_hessian":[1.7204E4,1.5189E4,2.015E3,5.6E3,9.589E3,1.39E3,6.25E2,1.478E3,4.122E3,9.05E2,8.684E3,8.09E2,5.81E2,3.19E2,3.06E2,1.384E3,9.4E1,2.208E3,1.914E3,5.65E2,3.4E2,7.41E2,7.943E3,5.35E2,2.74E2,3.69E2,2.12E2,1.35E2,1.84E2,1.64E2,1.42E2],"tree_param":{"num_deleted":"0","num_feature":"2","num_nodes":"31","size_leaf_vector":"1"}},{"base_weights":[-2.6632115E-4,2.1177514E-2,-9.967488E-2,-1.8342343E-1,3.7519623E-2,-4.577371E-2,-3.028276E-1,-2.7484074E-1,-2.4217322E-2,6.775434E-2,-7.716494E-2,-1.8773286E-1,1.445124E-1,-7.259371E-2,-1.8181682E-1,-7.3496588E-3,-3.5761625E-2,4.1251373E-2,-1.799969E-2,1.383126E-2,-4.1240775E-3,-1.6161121E-2,2.3825413E-2,-9.543989E-3,-2.027951E-1,4.8370555E-2,-1.0000131E-3,-2.000764E-2,-1.6974544E-2],"categories":[],"categories_nodes":[],"categories_segments":[],"categories_sizes":[],"default_left":[0,0,0,0,0,0,0,0,0,0,0,0,0,0,0,0,0,0,0,0,0,0,0,0,0,0,0,0,0],"id":48,"left_children":[1,3,5,7,9,11,13,15,17,19,21,23,25,-1,27,-1,-1,-1,-1,-1,-1,-1,-1,-1,-1,-1,-1,-1,-1],"loss_changes":[3.667802E1,4.7329002E1,3.3417007E1,1.5231583E1,4.545317E1,6.523616E1,3.2636528E1,1.105685E1,2.6131187E1,7.977932E1,7.2887856E1,2.3469408E2,5.409154E1,0E0,7.602501E-2,0E0,0E0,0E0,0E0,0E0,0E0,0E0,0E0,0E0,0E0,0E0,0E0,0E0,0E0],"parents":[2147483647,0,0,1,1,2,2,3,3,4,4,5,5,6,6,7,7,8,8,9,9,10,10,11,11,12,12,14,14],"right_children":[2,4,6,8,10,12,14,16,18,20,22,24,26,-1,28,-1,-1,-1,-1,-1,-1,-1,-1,-1,-1,-1,-1,-1,-1],"split_conditions":[7E0,2E0,2E1,5E0,2.1E1,1.4E1,2.1E1,2E0,1E0,5E0,6E0,1.3E1,1.6E1,-7.259371E-2,2.2E1,-7.3496588E-3,-3.5761625E-2,4.1251373E-2,-1.799969E-2,1.383126E-2,-4.1240775E-3,-1.6161121E-2,2.3825413E-2,-9.543989E-3,-2.027951E-1,4.8370555E-2,-1.0000131E-3,-2.000764E-2,-1.6974544E-2],"split_indices":[0,1,1,0,1,1,1,0,1,0,0,1,1,0,1,0,0,0,0,0,0,0,0,0,0,0,0,0,0],"split_type":[0,0,0,0,0,0,0,0,0,0,0,0,0,0,0,0,0,0,0,0,0,0,0,0,0,0,0,0,0],"sum_hessian":[1.7204E4,1.4152E4,3.052E3,1.046E3,1.3106E4,2.413E3,6.39E2,6.64E2,3.82E2,1.0372E4,2.734E3,1.382E3,1.031E3,1.41E2,4.98E2,1.94E2,4.7E2,1E2,2.82E2,6.296E3,4.076E3,2.157E3,5.77E2,1.317E3,6.5E1,3.22E2,7.09E2,1.92E2,3.06E2],"tree_param":{"num_deleted":"0","num_feature":"2","num_nodes":"29","size_leaf_vector":"1"}},{"base_weights":[-2.560774E-4,-7.849337E-2,2.495327E-2,2.371589E-2,-2.9612526E-1,1.0286049E-1,-3.984317E-2,-2.1623284E-1,1.2645346E-1,-2.7999198E-3,-6.875615E-1,4.1915688E-1,6.185288E-2,-2.1059498E-1,-1.2391421E-2,-6.6184546E-3,-2.6010472E-2,-3.1526405E-2,2.57569E-2,1.0590556E-2,-2.6348827E-2,-1.802368E-1,-1.6537495E-2,-3.5585016E-2,5.8815457E-2,-5.4161526E-2,1.4028648E-2,-5.457433E-2,-8.244501E-3,2.688805E-3,-1.80794E-2],"categories":[],"categories_nodes":[],"categories_segments":[],"categories_sizes":[],"default_left":[0,0,0,0,0,0,0,0,0,0,0,0,0,0,0,0,0,0,0,0,0,0,0,0,0,0,0,0,0,0,0],"id":49,"left_children":[1,3,5,7,9,11,13,15,17,19,21,23,25,27,29,-1,-1,-1,-1,-1,-1,-1,-1,-1,-1,-1,-1,-1,-1,-1,-1],"loss_changes":[3.393557E1,9.32761E1,6.569517E1,7.038343E1,1.5385442E2,7.661711E1,3.330163E1,5.6177444E0,1.15855354E2,2.1763342E1,3.3384854E2,8.900992E1,2.477179E2,4.221706E1,4.0500446E1,0E0,0E0,0E0,0E0,0E0,0E0,0E0,0E0,0E0,0E0,0E0,0E0,0E0,0E0,0E0,0E0],"parents":[2147483647,0,0,1,1,2,2,3,3,4,4,5,5,6,6,7,7,8,8,9,9,10,10,11,11,12,12,13,13,14,14],"right_children":[2,4,6,8,10,12,14,16,18,20,22,24,26,28,30,-1,-1,-1,-1,-1,-1,-1,-1,-1,-1,-1,-1,-1,-1,-1,-1],"split_conditions":[9E0,6E0,1.7E1,2E0,5E0,2E0,2E0,2E0,2E0,4E0,7E0,1E1,3E0,1.9E1,7E0,-6.6184546E-3,-2.6010472E-2,-3.1526405E-2,2.57569E-2,1.0590556E-2,-2.6348827E-2,-1.802368E-1,-1.6537495E-2,-3.5585016E-2,5.8815457E-2,-5.4161526E-2,1.4028648E-2,-5.457433E-2,-8.244501E-3,2.688805E-3,-1.80794E-2],"split_indices":[1,0,1,1,1,0,0,0,0,1,1,1,0,1,0,0,0,0,0,0,0,0,0,0,0,0,0,0,0,0,0],"split_type":[0,0,0,0,0,0,0,0,0,0,0,0,0,0,0,0,0,0,0,0,0,0,0,0,0,0,0,0,0,0,0],"sum_hessian":[1.7204E4,4.192E3,1.3012E4,2.853E3,1.339E3,5.908E3,7.104E3,8.55E2,1.998E3,7.66E2,5.73E2,6.77E2,5.231E3,9.83E2,6.121E3,1.94E2,6.61E2,4.57E2,1.541E3,5.41E2,2.25E2,1.82E2,3.91E2,1.21E2,5.56E2,6.01E2,4.63E3,2.71E2,7.12E2,4.964E3,1.157E3],"tree_param":{"num_deleted":"0","num_feature":"2","num_nodes":"31","size_leaf_vector":"1"}}]},"name":"gbtree"},"learner_model_param":{"base_score":"[1.3818879E1]","boost_from_average":"1","num_class":"0","num_feature":"2","num_target":"1"},"objective":{"name":"reg:squarederror","reg_loss_param":{"scale_pos_weight":"1"}}},"version":[3,2,1]}