{"learner":{"attributes":{},"feature_names":["day_of_week","hour_of_day"],"feature_types":[],"gradient_booster":{"model":{"cats":{"enc":[],"feature_segments":[],"sorted_idx":[]},"gbtree_model_param":{"num_parallel_tree":"1","num_trees":"50"},"iteration_indptr":[0,1,2,3,4,5,6,7,8,9,10,11,12,13,14,15,16,17,18,19,20,21,22,23,24,25,26,27,28,29,30,31,32,33,34,35,36,37,38,39,40,41,42,43,44,45,46,47,48,49,50],"tree_info":[0,0,0,0,0,0,0,0,0,0,0,0,0,0,0,0,0,0,0,0,0,0,0,0,0,0,0,0,0,0,0,0,0,0,0,0,0,0,0,0,0,0,0,0,0,0,0,0,0,0],"trees":[{"base_weights":[-0E0,-1.0368017E1,1.1262344E0,-1.1448321E1,-8.581178E0,3.1460888E0,-4.8294973E0,-1.180193E1,-2.5869566E-1,-7.380319E-1,-8.9901966E-1,-1.9752791E0,3.7137675E0,-2.4388185E0,-7.822222E0,-1.2024457E0,-1.0458823E0,9.27356E-2,-6.474594E-1,4.3849012E-1,6.1058648E-2,-5.1886064E-1,-7.421663E-2,-1.0564001E0,-6.0078806E-1],"categories":[],"categories_nodes":[],"categories_segments":[],"categories_sizes":[],"default_left":[0,0,0,0,0,0,0,0,0,0,0,0,0,0,0,0,0,0,0,0,0,0,0,0,0],"id":0,"left_children":[1,3,5,7,9,11,13,15,-1,-1,-1,17,19,21,23,-1,-1,-1,-1,-1,-1,-1,-1,-1,-1],"loss_changes":[1.08804586E5,1.6641484E3,1.01124914E5,1.7430078E3,1.0457617E2,1.8256406E4,1.5213164E4,3.6828125E1,0E0,0E0,0E0,8.194541E3,1.1766367E4,5.5246875E3,4.637453E3,0E0,0E0,0E0,0E0,0E0,0E0,0E0,0E0,0E0,0E0],"parents":[2147483647,0,0,1,1,2,2,3,3,4,4,5,5,6,6,7,7,11,11,12,12,13,13,14,14],"right_children":[2,4,6,8,10,12,14,16,-1,-1,-1,18,20,22,24,-1,-1,-1,-1,-1,-1,-1,-1,-1,-1],"split_conditions":[4E0,6E0,2E1,3E0,1E0,6E0,2.2E1,5E0,-2.5869566E-1,-7.380319E-1,-8.9901966E-1,5E0,1.8E1,4E0,4E0,-1.2024457E0,-1.0458823E0,9.27356E-2,-6.474594E-1,4.3849012E-1,6.1058648E-2,-5.1886064E-1,-7.421663E-2,-1.0564001E0,-6.0078806E-1],"split_indices":[1,0,1,1,1,1,1,0,0,0,0,0,1,0,0,0,0,0,0,0,0,0,0,0,0],"split_type":[0,0,0,0,0,0,0,0,0,0,0,0,0,0,0,0,0,0,0,0,0,0,0,0,0],"sum_hessian":[9.316E3,9.12E2,8.404E3,5.65E2,3.47E2,6.276E3,2.128E3,5.43E2,2.2E1,9.3E1,2.54E2,6.26E2,5.65E3,1.184E3,9.44E2,4.59E2,8.4E1,3.81E2,2.45E2,4.645E3,1.005E3,4.51E2,7.33E2,3.74E2,5.7E2],"tree_param":{"num_deleted":"0","num_feature":"2","num_nodes":"25","size_leaf_vector":"1"}},{"base_weights":[-6.921263E-4,-9.335754E0,1.0133368E0,-1.0307919E1,-7.7277646E0,3.1069283E0,-3.651806E0,-1.062587E1,-2.3395085E-1,-6.6501385E-1,-8.094703E-1,-1.7786359E0,3.6981459E0,-1.7197866E0,-7.0417533E0,-1.0824625E0,-9.425246E-1,8.348635E-2,-5.8297664E-1,4.699483E-1,2.8096396E-1,-4.1717526E-1,-3.8861863E-2,-9.510417E-1,-5.408145E-1],"categories":[],"categories_nodes":[],"categories_segments":[],"categories_sizes":[],"default_left":[0,0,0,0,0,0,0,0,0,0,0,0,0,0,0,0,0,0,0,0,0,0,0,0,0],"id":1,"left_children":[1,3,5,7,9,11,13,15,-1,-1,-1,17,19,21,23,-1,-1,-1,-1,-1,-1,-1,-1,-1,-1],"loss_changes":[8.820439E4,1.3475703E3,8.210217E4,1.4091406E3,8.377539E1,1.6765254E4,1.7042645E4,2.7789062E1,0E0,0E0,0E0,6.6433096E3,4.5918594E3,5.416584E3,3.7595938E3,0E0,0E0,0E0,0E0,0E0,0E0,0E0,0E0,0E0,0E0],"parents":[2147483647,0,0,1,1,2,2,3,3,4,4,5,5,6,6,7,7,11,11,12,12,13,13,14,14],"right_children":[2,4,6,8,10,12,14,16,-1,-1,-1,18,20,22,24,-1,-1,-1,-1,-1,-1,-1,-1,-1,-1],"split_conditions":[4E0,6E0,1.9E1,3E0,1E0,6E0,2.2E1,5E0,-2.3395085E-1,-6.6501385E-1,-8.094703E-1,5E0,5E0,4E0,4E0,-1.0824625E0,-9.425246E-1,8.348635E-2,-5.8297664E-1,4.699483E-1,2.8096396E-1,-4.1717526E-1,-3.8861863E-2,-9.510417E-1,-5.408145E-1],"split_indices":[1,0,1,1,1,1,1,0,0,0,0,0,0,0,0,0,0,0,0,0,0,0,0,0,0],"split_type":[0,0,0,0,0,0,0,0,0,0,0,0,0,0,0,0,0,0,0,0,0,0,0,0,0],"sum_hessian":[9.316E3,9.12E2,8.404E3,5.65E2,3.47E2,5.801E3,2.603E3,5.43E2,2.2E1,9.3E1,2.54E2,6.26E2,5.175E3,1.659E3,9.44E2,4.59E2,8.4E1,3.81E2,2.45E2,2.431E3,2.744E3,5.83E2,1.076E3,3.74E2,5.7E2],"tree_param":{"num_deleted":"0","num_feature":"2","num_nodes":"25","size_leaf_vector":"1"}},{"base_weights":[-1.2055583E-3,-8.406268E0,9.118014E-1,-9.281117E0,-6.959225E0,2.555226E0,-3.9339895E0,-9.567005E0,-2.1157299E-1,-5.9921985E0,-7.288407E-1,-1.6015692E0,3.0159862E0,-2.0126252E0,-6.3391566E0,-9.7445154E-1,-8.4938097E-1,-7.187575E-1,-5.571995E-1,7.515954E-2,-5.24916E-1,3.579042E-1,4.1263353E-2,-4.2546412E-1,-6.2924124E-2,-8.561911E-1,-4.8682776E-1],"categories":[],"categories_nodes":[],"categories_segments":[],"categories_sizes":[],"default_left":[0,0,0,0,0,0,0,0,0,0,0,0,0,0,0,0,0,0,0,0,0,0,0,0,0,0,0],"id":2,"left_children":[1,3,5,7,9,11,13,15,-1,17,-1,19,21,23,25,-1,-1,-1,-1,-1,-1,-1,-1,-1,-1,-1,-1],"loss_changes":[7.150521E4,1.0912148E3,6.694489E4,1.1392109E3,6.7103516E1,1.2027078E4,9.825781E3,2.0863281E1,0E0,7.166992E0,0E0,5.385725E3,8.281945E3,3.6726816E3,3.0479023E3,0E0,0E0,0E0,0E0,0E0,0E0,0E0,0E0,0E0,0E0,0E0,0E0],"parents":[2147483647,0,0,1,1,2,2,3,3,4,4,5,5,6,6,7,7,9,9,11,11,12,12,13,13,14,14],"right_children":[2,4,6,8,10,12,14,16,-1,18,-1,20,22,24,26,-1,-1,-1,-1,-1,-1,-1,-1,-1,-1,-1,-1],"split_conditions":[4E0,6E0,2E1,3E0,1E0,6E0,2.2E1,5E0,-2.1157299E-1,7E0,-7.288407E-1,5E0,1.8E1,4E0,4E0,-9.7445154E-1,-8.4938097E-1,-7.187575E-1,-5.571995E-1,7.515954E-2,-5.24916E-1,3.579042E-1,4.1263353E-2,-4.2546412E-1,-6.2924124E-2,-8.561911E-1,-4.8682776E-1],"split_indices":[1,0,1,1,1,1,1,0,0,0,0,0,1,0,0,0,0,0,0,0,0,0,0,0,0,0,0],"split_type":[0,0,0,0,0,0,0,0,0,0,0,0,0,0,0,0,0,0,0,0,0,0,0,0,0,0,0],"sum_hessian":[9.316E3,9.12E2,8.404E3,5.65E2,3.47E2,6.276E3,2.128E3,5.43E2,2.2E1,9.3E1,2.54E2,6.26E2,5.65E3,1.184E3,9.44E2,4.59E2,8.4E1,2E1,7.3E1,3.81E2,2.45E2,4.645E3,1.005E3,4.51E2,7.33E2,3.74E2,5.7E2],"tree_param":{"num_deleted":"0","num_feature":"2","num_nodes":"27","size_leaf_vector":"1"}},{"base_weights":[-1.7208001E-3,-7.570067E0,8.203972E-1,-8.356603E0,-6.2690635E0,2.5232065E0,-2.9739652E0,-8.613658E0,-1.9133559E-1,-5.406553E0,-6.5624243E-1,1.2592208E-1,3.3478165E0,-1.4165118E0,-5.706662E0,-8.7721825E-1,-7.654422E-1,-6.503044E-1,-5.022325E-1,1.2938854E-1,-6.3240415E-1,3.663699E-1,1.0886927E-1,-3.4360498E-1,-3.2010812E-2,-7.2476304E-1,-3.9140034E-1],"categories":[],"categories_nodes":[],"categories_segments":[],"categories_sizes":[],"default_left":[0,0,0,0,0,0,0,0,0,0,0,0,0,0,0,0,0,0,0,0,0,0,0,0,0,0,0],"id":3,"left_children":[1,3,5,7,9,11,13,15,-1,17,-1,19,21,23,25,-1,-1,-1,-1,-1,-1,-1,-1,-1,-1,-1,-1],"loss_changes":[5.797727E4,8.818711E2,5.431284E4,9.2097266E2,5.257422E1,1.1469117E4,1.1074668E4,1.5574219E1,0E0,6.9421387E0,0E0,1.1202697E4,3.0766953E3,3.6745203E3,2.582127E3,0E0,0E0,0E0,0E0,0E0,0E0,0E0,0E0,0E0,0E0,0E0,0E0],"parents":[2147483647,0,0,1,1,2,2,3,3,4,4,5,5,6,6,7,7,9,9,11,11,12,12,13,13,14,14],"right_children":[2,4,6,8,10,12,14,16,-1,18,-1,20,22,24,26,-1,-1,-1,-1,-1,-1,-1,-1,-1,-1,-1,-1],"split_conditions":[4E0,6E0,1.9E1,3E0,1E0,9E0,2.2E1,5E0,-1.9133559E-1,7E0,-6.5624243E-1,7E0,1.8E1,4E0,5E0,-8.7721825E-1,-7.654422E-1,-6.503044E-1,-5.022325E-1,1.2938854E-1,-6.3240415E-1,3.663699E-1,1.0886927E-1,-3.4360498E-1,-3.2010812E-2,-7.2476304E-1,-3.9140034E-1],"split_indices":[1,0,1,1,1,1,1,0,0,0,0,0,1,0,0,0,0,0,0,0,0,0,0,0,0,0,0],"split_type":[0,0,0,0,0,0,0,0,0,0,0,0,0,0,0,0,0,0,0,0,0,0,0,0,0,0,0],"sum_hessian":[9.316E3,9.12E2,8.404E3,5.65E2,3.47E2,5.801E3,2.603E3,5.43E2,2.2E1,9.3E1,2.54E2,1.485E3,4.316E3,1.659E3,9.44E2,4.59E2,8.4E1,2E1,7.3E1,1.258E3,2.27E2,3.786E3,5.3E2,5.83E2,1.076E3,5.06E2,4.38E2],"tree_param":{"num_deleted":"0","num_feature":"2","num_nodes":"27","size_leaf_vector":"1"}},{"base_weights":[-2.1029995E-3,-6.81705E0,7.3817647E-1,-7.524183E0,-5.6473546E0,2.0754387E0,-3.204864E0,-7.755312E0,-1.7303392E-1,-4.878158E0,-5.9087557E-1,-1.432804E0,2.4643242E0,-1.6612009E0,-5.1371775E0,-7.8968716E-1,-6.8979853E-1,-5.8837056E-1,-4.5268795E-1,5.475831E-2,-4.502215E-1,2.917267E-1,3.700539E-2,-3.4872738E-1,-5.3443503E-2,-6.9851726E-1,-3.914523E-1],"categories":[],"categories_nodes":[],"categories_segments":[],"categories_sizes":[],"default_left":[0,0,0,0,0,0,0,0,0,0,0,0,0,0,0,0,0,0,0,0,0,0,0,0,0,0,0],"id":4,"left_children":[1,3,5,7,9,11,13,15,-1,17,-1,19,21,23,25,-1,-1,-1,-1,-1,-1,-1,-1,-1,-1,-1,-1],"loss_changes":[4.7008973E4,7.126758E2,4.4325203E4,7.4452734E2,4.1148438E1,8.567271E3,6.3419336E3,1.1548828E1,0E0,6.5686035E0,0E0,3.8137603E3,5.359371E3,2.4363408E3,2.1078457E3,0E0,0E0,0E0,0E0,0E0,0E0,0E0,0E0,0E0,0E0,0E0,0E0],"parents":[2147483647,0,0,1,1,2,2,3,3,4,4,5,5,6,6,7,7,9,9,11,11,12,12,13,13,14,14],"right_children":[2,4,6,8,10,12,14,16,-1,18,-1,20,22,24,26,-1,-1,-1,-1,-1,-1,-1,-1,-1,-1,-1,-1],"split_conditions":[4E0,6E0,2E1,3E0,1E0,6E0,2.2E1,5E0,-1.7303392E-1,7E0,-5.9087557E-1,5E0,1.8E1,4E0,4E0,-7.8968716E-1,-6.8979853E-1,-5.8837056E-1,-4.5268795E-1,5.475831E-2,-4.502215E-1,2.917267E-1,3.700539E-2,-3.4872738E-1,-5.3443503E-2,-6.9851726E-1,-3.914523E-1],"split_indices":[1,0,1,1,1,1,1,0,0,0,0,0,1,0,0,0,0,0,0,0,0,0,0,0,0,0,0],"split_type":[0,0,0,0,0,0,0,0,0,0,0,0,0,0,0,0,0,0,0,0,0,0,0,0,0,0,0],"sum_hessian":[9.316E3,9.12E2,8.404E3,5.65E2,3.47E2,6.276E3,2.128E3,5.43E2,2.2E1,9.3E1,2.54E2,6.26E2,5.65E3,1.184E3,9.44E2,4.59E2,8.4E1,2E1,7.3E1,3.81E2,2.45E2,4.645E3,1.005E3,4.51E2,7.33E2,3.74E2,5.7E2],"tree_param":{"num_deleted":"0","num_feature":"2","num_nodes":"27","size_leaf_vector":"1"}},{"base_weights":[-2.4125567E-3,-6.1389427E0,6.641733E-1,-6.774684E0,-5.0873084E0,2.0493634E0,-2.4224386E0,-6.9825E0,-1.5648286E-1,-4.4014173E0,-5.320197E-1,4.5441813E-3,2.7527575E0,-1.1673319E0,-4.624613E0,-7.108901E-1,-6.216302E-1,-5.323353E-1,-4.0803084E-1,1.6859327E-1,-3.577708E-1,3.0057758E-1,9.430923E-2,-2.8320894E-1,-2.6353845E-2,-5.9071034E-1,-3.1329337E-1],"categories":[],"categories_nodes":[],"categories_segments":[],"categories_sizes":[],"default_left":[0,0,0,0,0,0,0,0,0,0,0,0,0,0,0,0,0,0,0,0,0,0,0,0,0,0,0],"id":5,"left_children":[1,3,5,7,9,11,13,15,-1,17,-1,19,21,23,25,-1,-1,-1,-1,-1,-1,-1,-1,-1,-1,-1,-1],"loss_changes":[3.811549E4,5.759375E2,3.5940918E4,6.018789E2,3.2171875E1,8.345082E3,7.191962E3,8.494141E0,0E0,6.1071777E0,0E0,8.956445E3,1.9738281E3,2.496884E3,1.7893398E3,0E0,0E0,0E0,0E0,0E0,0E0,0E0,0E0,0E0,0E0,0E0,0E0],"parents":[2147483647,0,0,1,1,2,2,3,3,4,4,5,5,6,6,7,7,9,9,11,11,12,12,13,13,14,14],"right_children":[2,4,6,8,10,12,14,16,-1,18,-1,20,22,24,26,-1,-1,-1,-1,-1,-1,-1,-1,-1,-1,-1,-1],"split_conditions":[4E0,6E0,1.9E1,3E0,1E0,9E0,2.2E1,5E0,-1.5648286E-1,7E0,-5.320197E-1,6E0,1.8E1,4E0,5E0,-7.108901E-1,-6.216302E-1,-5.323353E-1,-4.0803084E-1,1.6859327E-1,-3.577708E-1,3.0057758E-1,9.430923E-2,-2.8320894E-1,-2.6353845E-2,-5.9071034E-1,-3.1329337E-1],"split_indices":[1,0,1,1,1,1,1,0,0,0,0,0,1,0,0,0,0,0,0,0,0,0,0,0,0,0,0],"split_type":[0,0,0,0,0,0,0,0,0,0,0,0,0,0,0,0,0,0,0,0,0,0,0,0,0,0,0],"sum_hessian":[9.316E3,9.12E2,8.404E3,5.65E2,3.47E2,5.801E3,2.603E3,5.43E2,2.2E1,9.3E1,2.54E2,1.485E3,4.316E3,1.659E3,9.44E2,4.59E2,8.4E1,2E1,7.3E1,1.011E3,4.74E2,3.786E3,5.3E2,5.83E2,1.076E3,5.06E2,4.38E2],"tree_param":{"num_deleted":"0","num_feature":"2","num_nodes":"27","size_leaf_vector":"1"}},{"base_weights":[-2.5973062E-3,-5.528292E0,5.976361E-1,-6.099847E0,-4.582809E0,1.6858845E0,-2.6111627E0,-6.2867002E0,-1.4151496E-1,-3.9712799E0,-4.790263E0,-1.3073696E0,2.017699E0,-1.3713318E0,-4.163108E0,-6.399557E-1,-5.6019855E-1,-4.8163673E-1,-3.677792E-1,-4.336526E-1,-5.0033915E-1,3.248162E-2,-3.8365874E-1,2.4127221E-1,2.7426494E-2,-2.856736E-1,-4.5474615E-2,-5.6993836E-1,-3.1468794E-1],"categories":[],"categories_nodes":[],"categories_segments":[],"categories_sizes":[],"default_left":[0,0,0,0,0,0,0,0,0,0,0,0,0,0,0,0,0,0,0,0,0,0,0,0,0,0,0,0,0],"id":6,"left_children":[1,3,5,7,9,11,13,15,-1,17,19,21,23,25,27,-1,-1,-1,-1,-1,-1,-1,-1,-1,-1,-1,-1,-1,-1],"loss_changes":[3.0905062E4,4.6542773E2,2.935441E4,4.8655078E2,2.5125E1,6.23699E3,4.0908047E3,6.185547E0,0E0,5.600708E0,2.9628906E0,2.5895981E3,3.8911602E3,1.6120784E3,1.4574033E3,0E0,0E0,0E0,0E0,0E0,0E0,0E0,0E0,0E0,0E0,0E0,0E0,0E0,0E0],"parents":[2147483647,0,0,1,1,2,2,3,3,4,4,5,5,6,6,7,7,9,9,10,10,11,11,12,12,13,13,14,14],"right_children":[2,4,6,8,10,12,14,16,-1,18,20,22,24,26,28,-1,-1,-1,-1,-1,-1,-1,-1,-1,-1,-1,-1,-1,-1],"split_conditions":[4E0,6E0,2E1,3E0,1E0,6E0,2.2E1,5E0,-1.4151496E-1,7E0,7E0,5E0,7E0,4E0,4E0,-6.399557E-1,-5.6019855E-1,-4.8163673E-1,-3.677792E-1,-4.336526E-1,-5.0033915E-1,3.248162E-2,-3.8365874E-1,2.4127221E-1,2.7426494E-2,-2.856736E-1,-4.5474615E-2,-5.6993836E-1,-3.1468794E-1],"split_indices":[1,0,1,1,1,1,1,0,0,0,0,0,0,0,0,0,0,0,0,0,0,0,0,0,0,0,0,0,0],"split_type":[0,0,0,0,0,0,0,0,0,0,0,0,0,0,0,0,0,0,0,0,0,0,0,0,0,0,0,0,0],"sum_hessian":[9.316E3,9.12E2,8.404E3,5.65E2,3.47E2,6.276E3,2.128E3,5.43E2,2.2E1,9.3E1,2.54E2,6.26E2,5.65E3,1.184E3,9.44E2,4.59E2,8.4E1,2E1,7.3E1,8.8E1,1.66E2,3.81E2,2.45E2,4.606E3,1.044E3,4.51E2,7.33E2,3.74E2,5.7E2],"tree_param":{"num_deleted":"0","num_feature":"2","num_nodes":"29","size_leaf_vector":"1"}},{"base_weights":[-2.812467E-3,-4.9788857E0,5.377179E-1,-5.492233E0,-4.1296525E0,1.6773505E0,-2.0017161E0,-5.6602364E0,-1.2797877E-1,-3.5831883E0,-4.3148994E0,-2.391259E-1,2.230258E0,-1.0065426E0,-3.7477334E0,-5.760993E-1,-5.048377E-1,-4.3576652E-1,-3.314983E-1,-3.9077458E-1,-4.5060477E-1,1.3814688E-1,-4.474516E-1,2.4426202E-1,6.3713945E-2,-2.3832853E-1,-2.5907347E-2,-4.815199E-1,-2.506383E-1],"categories":[],"categories_nodes":[],"categories_segments":[],"categories_sizes":[],"default_left":[0,0,0,0,0,0,0,0,0,0,0,0,0,0,0,0,0,0,0,0,0,0,0,0,0,0,0,0,0],"id":7,"left_children":[1,3,5,7,9,11,13,15,-1,17,19,21,23,25,27,-1,-1,-1,-1,-1,-1,-1,-1,-1,-1,-1,-1,-1,-1],"loss_changes":[2.5062785E4,3.753457E2,2.432761E4,3.933164E2,1.976709E1,6.1485303E3,4.520912E3,4.453125E0,0E0,5.080078E0,2.2373047E0,8.9291875E3,1.5218906E3,1.7076431E3,1.2401504E3,0E0,0E0,0E0,0E0,0E0,0E0,0E0,0E0,0E0,0E0,0E0,0E0,0E0,0E0],"parents":[2147483647,0,0,1,1,2,2,3,3,4,4,5,5,6,6,7,7,9,9,10,10,11,11,12,12,13,13,14,14],"right_children":[2,4,6,8,10,12,14,16,-1,18,20,22,24,26,28,-1,-1,-1,-1,-1,-1,-1,-1,-1,-1,-1,-1,-1,-1],"split_conditions":[4E0,6E0,1.9E1,3E0,1E0,8E0,2.2E1,5E0,-1.2797877E-1,7E0,7E0,6E0,1.8E1,4E0,5E0,-5.760993E-1,-5.048377E-1,-4.3576652E-1,-3.314983E-1,-3.9077458E-1,-4.5060477E-1,1.3814688E-1,-4.474516E-1,2.4426202E-1,6.3713945E-2,-2.3832853E-1,-2.5907347E-2,-4.815199E-1,-2.506383E-1],"split_indices":[1,0,1,1,1,1,1,0,0,0,0,0,1,0,0,0,0,0,0,0,0,0,0,0,0,0,0,0,0],"split_type":[0,0,0,0,0,0,0,0,0,0,0,0,0,0,0,0,0,0,0,0,0,0,0,0,0,0,0,0,0],"sum_hessian":[9.316E3,9.12E2,8.404E3,5.65E2,3.47E2,5.801E3,2.603E3,5.43E2,2.2E1,9.3E1,2.54E2,1.299E3,4.502E3,1.659E3,9.44E2,4.59E2,8.4E1,2E1,7.3E1,8.8E1,1.66E2,9.4E2,3.59E2,3.972E3,5.3E2,5.83E2,1.076E3,5.06E2,4.38E2],"tree_param":{"num_deleted":"0","num_feature":"2","num_nodes":"29","size_leaf_vector":"1"}},{"base_weights":[-2.9409472E-3,-4.484083E0,4.8382714E-1,-4.945145E0,-3.72131E0,1.2207617E0,-2.702706E0,-5.0961995E0,-1.15737356E-1,-3.2330322E0,-3.8867092E0,1.6062385E0,-5.328813E-1,-4.37197E0,-1.7344679E0,-4.7369146E-1,-5.269636E-1,-3.9426497E-1,-2.9879647E-1,-3.521362E-1,-4.0581417E-1,2.054003E-1,1.1117407E-2,-4.7007018E-1,4.141266E-2,-5.069594E-1,-3.884105E-1,-6.604515E-2,-5.3318864E-1],"categories":[],"categories_nodes":[],"categories_segments":[],"categories_sizes":[],"default_left":[0,0,0,0,0,0,0,0,0,0,0,0,0,0,0,0,0,0,0,0,0,0,0,0,0,0,0,0,0],"id":8,"left_children":[1,3,5,7,9,11,13,15,-1,17,19,21,23,25,27,-1,-1,-1,-1,-1,-1,-1,-1,-1,-1,-1,-1,-1,-1],"loss_changes":[2.0325129E4,3.026875E2,1.974048E4,3.1794434E2,1.5538574E1,4.615831E3,2.5444678E3,8.936523E0,0E0,4.5665283E0,1.6811523E0,3.7466094E3,4.8606533E3,1.7736914E2,3.8640286E3,0E0,0E0,0E0,0E0,0E0,0E0,0E0,0E0,0E0,0E0,0E0,0E0,0E0,0E0],"parents":[2147483647,0,0,1,1,2,2,3,3,4,4,5,5,6,6,7,7,9,9,10,10,11,11,12,12,13,13,14,14],"right_children":[2,4,6,8,10,12,14,16,-1,18,20,22,24,26,28,-1,-1,-1,-1,-1,-1,-1,-1,-1,-1,-1,-1,-1,-1],"split_conditions":[4E0,6E0,2.1E1,3E0,1E0,7E0,4E0,2E0,-1.15737356E-1,7E0,7E0,1.8E1,9E0,2E0,7E0,-4.7369146E-1,-5.269636E-1,-3.9426497E-1,-2.9879647E-1,-3.521362E-1,-4.0581417E-1,2.054003E-1,1.1117407E-2,-4.7007018E-1,4.141266E-2,-5.069594E-1,-3.884105E-1,-6.604515E-2,-5.3318864E-1],"split_indices":[1,0,1,1,1,0,0,0,0,0,0,1,1,0,0,0,0,0,0,0,0,0,0,0,0,0,0,0,0],"split_type":[0,0,0,0,0,0,0,0,0,0,0,0,0,0,0,0,0,0,0,0,0,0,0,0,0,0,0,0,0],"sum_hessian":[9.316E3,9.12E2,8.404E3,5.65E2,3.47E2,6.826E3,1.578E3,5.43E2,2.2E1,9.3E1,2.54E2,5.596E3,1.23E3,5.78E2,1E3,1.86E2,3.57E2,2E1,7.3E1,8.8E1,1.66E2,4.306E3,1.29E3,2.27E2,1.003E3,2.34E2,3.44E2,7.71E2,2.29E2],"tree_param":{"num_deleted":"0","num_feature":"2","num_nodes":"29","size_leaf_vector":"1"}},{"base_weights":[-3.1056073E-3,-4.038487E0,4.3524134E-1,-4.452603E0,-3.3533483E0,1.3689075E0,-1.6452371E0,-4.588419E0,-1.0466685E-1,-2.9171016E0,-3.5010104E0,-8.0086523E-1,1.7523333E0,-8.2054055E-1,-3.0921693E0,-4.6818677E-1,-4.0287146E-1,-3.567159E-1,-2.6932058E-1,-3.1731817E-1,-3.6547574E-1,6.342637E-2,-3.985909E-1,2.0576428E-1,3.86314E-2,-1.9982259E-1,-1.8118232E-2,-2.6332244E-1,-5.647699E-1],"categories":[],"categories_nodes":[],"categories_segments":[],"categories_sizes":[],"default_left":[0,0,0,0,0,0,0,0,0,0,0,0,0,0,0,0,0,0,0,0,0,0,0,0,0,0,0,0,0],"id":9,"left_children":[1,3,5,7,9,11,13,15,-1,17,19,21,23,25,27,-1,-1,-1,-1,-1,-1,-1,-1,-1,-1,-1,-1,-1,-1],"loss_changes":[1.6482572E4,2.441123E2,1.632873E4,2.5701758E2,1.2204346E1,4.8283604E3,3.1047651E3,9.59082E0,0E0,4.0741577E0,1.2556152E0,3.9883948E3,2.0557197E3,1.2495564E3,1.0934688E3,0E0,0E0,0E0,0E0,0E0,0E0,0E0,0E0,0E0,0E0,0E0,0E0,0E0,0E0],"parents":[2147483647,0,0,1,1,2,2,3,3,4,4,5,5,6,6,7,7,9,9,10,10,11,11,12,12,13,13,14,14],"right_children":[2,4,6,8,10,12,14,16,-1,18,20,22,24,26,28,-1,-1,-1,-1,-1,-1,-1,-1,-1,-1,-1,-1,-1,-1],"split_conditions":[4E0,6E0,1.9E1,3E0,1E0,7E0,2.2E1,5E0,-1.0466685E-1,7E0,7E0,6E0,7E0,4E0,7E0,-4.6818677E-1,-4.0287146E-1,-3.567159E-1,-2.6932058E-1,-3.1731817E-1,-3.6547574E-1,6.342637E-2,-3.985909E-1,2.0576428E-1,3.86314E-2,-1.9982259E-1,-1.8118232E-2,-2.6332244E-1,-5.647699E-1],"split_indices":[1,0,1,1,1,1,1,0,0,0,0,0,0,0,0,0,0,0,0,0,0,0,0,0,0,0,0,0,0],"split_type":[0,0,0,0,0,0,0,0,0,0,0,0,0,0,0,0,0,0,0,0,0,0,0,0,0,0,0,0,0],"sum_hessian":[9.316E3,9.12E2,8.404E3,5.65E2,3.47E2,5.801E3,2.603E3,5.43E2,2.2E1,9.3E1,2.54E2,8.71E2,4.93E3,1.659E3,9.44E2,4.59E2,8.4E1,2E1,7.3E1,8.8E1,1.66E2,6.01E2,2.7E2,4.029E3,9.01E2,5.83E2,1.076E3,8.02E2,1.42E2],"tree_param":{"num_deleted":"0","num_feature":"2","num_nodes":"29","size_leaf_vector":"1"}},{"base_weights":[-3.1624371E-3,-3.6371405E0,3.9158177E-1,-4.0090666E0,-3.0217745E0,9.951104E-1,-2.2180963E0,-4.1311784E0,-9.465527E-2,-2.6320515E0,-3.153587E0,-1.1599534E0,1.2128543E0,-3.398257E0,-1.0140015E0,-3.8000733E-1,-4.2925903E-1,-3.2274294E-1,-2.4275246E-1,-2.859429E-1,-3.2914704E-1,2.5779044E-2,-2.3574542E-1,1.6521527E-1,-9.960921E-3,-4.327449E-1,-3.00437E-1,4.1244924E-2,-4.4454786E-1],"categories":[],"categories_nodes":[],"categories_segments":[],"categories_sizes":[],"default_left":[0,0,0,0,0,0,0,0,0,0,0,0,0,0,0,0,0,0,0,0,0,0,0,0,0,0,0,0,0],"id":10,"left_children":[1,3,5,7,9,11,13,15,-1,17,19,21,23,25,27,-1,-1,-1,-1,-1,-1,-1,-1,-1,-1,-1,-1,-1,-1],"loss_changes":[1.3366584E4,1.9684473E2,1.3240213E4,2.0775586E2,9.57666E0,3.2049897E3,2.240353E3,1.2761719E1,0E0,3.6118164E0,9.309082E-1,1.0650966E3,3.5754326E3,2.7869824E2,3.8344875E3,0E0,0E0,0E0,0E0,0E0,0E0,0E0,0E0,0E0,0E0,0E0,0E0,0E0,0E0],"parents":[2147483647,0,0,1,1,2,2,3,3,4,4,5,5,6,6,7,7,9,9,10,10,11,11,12,12,13,13,14,14],"right_children":[2,4,6,8,10,12,14,16,-1,18,20,22,24,26,28,-1,-1,-1,-1,-1,-1,-1,-1,-1,-1,-1,-1,-1,-1],"split_conditions":[4E0,6E0,2.1E1,3E0,1E0,6E0,5E0,2E0,-9.465527E-2,7E0,7E0,4E0,1.8E1,2E0,7E0,-3.8000733E-1,-4.2925903E-1,-3.2274294E-1,-2.4275246E-1,-2.859429E-1,-3.2914704E-1,2.5779044E-2,-2.3574542E-1,1.6521527E-1,-9.960921E-3,-4.327449E-1,-3.00437E-1,4.1244924E-2,-4.4454786E-1],"split_indices":[1,0,1,1,1,1,0,0,0,0,0,0,1,0,0,0,0,0,0,0,0,0,0,0,0,0,0,0,0],"split_type":[0,0,0,0,0,0,0,0,0,0,0,0,0,0,0,0,0,0,0,0,0,0,0,0,0,0,0,0,0],"sum_hessian":[9.316E3,9.12E2,8.404E3,5.65E2,3.47E2,6.826E3,1.578E3,5.43E2,2.2E1,9.3E1,2.54E2,6.26E2,6.2E3,7.96E2,7.82E2,1.86E2,3.57E2,2E1,7.3E1,8.8E1,1.66E2,2.87E2,3.39E2,4.645E3,1.555E3,2.34E2,5.62E2,5.53E2,2.29E2],"tree_param":{"num_deleted":"0","num_feature":"2","num_nodes":"29","size_leaf_vector":"1"}},{"base_weights":[-3.1973985E-3,-3.2757096E0,3.5228232E-1,-3.609757E0,-2.7229898E0,1.1131413E0,-1.3431308E0,-3.7195482E0,-8.560129E-2,-2.3748627E0,-2.8406405E0,-2.2748455E-2,1.7025015E0,-6.5573555E-1,-2.5491977E0,-3.806288E-1,-3.2063743E-1,-2.920055E-1,-2.1880531E-1,-2.576699E-1,-2.9642943E-1,6.132847E-2,-3.4182394E-1,2.3307867E-1,1.1943721E-1,-1.666491E-1,-1.0704759E-2,-3.398007E-1,-1.5631032E-1],"categories":[],"categories_nodes":[],"categories_segments":[],"categories_sizes":[],"default_left":[0,0,0,0,0,0,0,0,0,0,0,0,0,0,0,0,0,0,0,0,0,0,0,0,0,0,0,0,0],"id":11,"left_children":[1,3,5,7,9,11,13,15,-1,17,19,21,23,25,27,-1,-1,-1,-1,-1,-1,-1,-1,-1,-1,-1,-1,-1,-1],"loss_changes":[1.0839729E4,1.5874219E2,1.0843695E4,1.6793848E2,7.506836E0,3.8841772E3,2.1571606E3,1.2010254E1,0E0,3.1844482E0,6.845703E-1,4.2846714E3,1.216751E3,9.2043994E2,7.856592E2,0E0,0E0,0E0,0E0,0E0,0E0,0E0,0E0,0E0,0E0,0E0,0E0,0E0,0E0],"parents":[2147483647,0,0,1,1,2,2,3,3,4,4,5,5,6,6,7,7,9,9,10,10,11,11,12,12,13,13,14,14],"right_children":[2,4,6,8,10,12,14,16,-1,18,20,22,24,26,28,-1,-1,-1,-1,-1,-1,-1,-1,-1,-1,-1,-1,-1,-1],"split_conditions":[4E0,6E0,1.9E1,3E0,1E0,1E1,2.2E1,5E0,-8.560129E-2,7E0,7E0,7E0,5E0,4E0,5E0,-3.806288E-1,-3.2063743E-1,-2.920055E-1,-2.1880531E-1,-2.576699E-1,-2.9642943E-1,6.132847E-2,-3.4182394E-1,2.3307867E-1,1.1943721E-1,-1.666491E-1,-1.0704759E-2,-3.398007E-1,-1.5631032E-1],"split_indices":[1,0,1,1,1,1,1,0,0,0,0,0,0,0,0,0,0,0,0,0,0,0,0,0,0,0,0,0,0],"split_type":[0,0,0,0,0,0,0,0,0,0,0,0,0,0,0,0,0,0,0,0,0,0,0,0,0,0,0,0,0],"sum_hessian":[9.316E3,9.12E2,8.404E3,5.65E2,3.47E2,5.801E3,2.603E3,5.43E2,2.2E1,9.3E1,2.54E2,1.982E3,3.819E3,1.659E3,9.44E2,4.59E2,8.4E1,2E1,7.3E1,8.8E1,1.66E2,1.67E3,3.12E2,1.706E3,2.113E3,5.83E2,1.076E3,5.06E2,4.38E2],"tree_param":{"num_deleted":"0","num_feature":"2","num_nodes":"29","size_leaf_vector":"1"}},{"base_weights":[-3.1407564E-3,-2.950167E0,3.1698275E-1,-3.2501717E0,-2.4537508E0,8.112656E-1,-1.8203105E0,-3.3488827E0,-7.7413395E-2,-2.1428103E0,-2.5587494E0,1.1069107E0,-5.336058E-1,-2.7998075E0,-8.2097524E-1,-3.0435047E-1,-3.4990412E-1,-2.6419547E-1,-1.9722046E-1,-2.3219243E-1,-2.66964E-1,1.4127631E-1,8.56766E-3,-3.077508E-1,3.333963E-2,-3.625978E-1,-2.4499857E-1,4.5976117E-2,-3.9023098E-1],"categories":[],"categories_nodes":[],"categories_segments":[],"categories_sizes":[],"default_left":[0,0,0,0,0,0,0,0,0,0,0,0,0,0,0,0,0,0,0,0,0,0,0,0,0,0,0,0,0],"id":12,"left_children":[1,3,5,7,9,11,13,15,-1,17,19,21,23,25,27,-1,-1,-1,-1,-1,-1,-1,-1,-1,-1,-1,-1,-1,-1],"loss_changes":[8.790709E3,1.2799512E2,8.880749E3,1.3574463E2,5.878662E0,2.715037E3,1.5432993E3,1.4295898E1,0E0,2.7942505E0,4.979248E-1,1.748084E3,2.7160808E3,2.2145947E2,3.0918079E3,0E0,0E0,0E0,0E0,0E0,0E0,0E0,0E0,0E0,0E0,0E0,0E0,0E0,0E0],"parents":[2147483647,0,0,1,1,2,2,3,3,4,4,5,5,6,6,7,7,9,9,10,10,11,11,12,12,13,13,14,14],"right_children":[2,4,6,8,10,12,14,16,-1,18,20,22,24,26,28,-1,-1,-1,-1,-1,-1,-1,-1,-1,-1,-1,-1,-1,-1],"split_conditions":[4E0,6E0,2.1E1,3E0,1E0,7E0,5E0,2E0,-7.7413395E-2,7E0,7E0,1.8E1,1E1,2E0,7E0,-3.0435047E-1,-3.4990412E-1,-2.6419547E-1,-1.9722046E-1,-2.3219243E-1,-2.66964E-1,1.4127631E-1,8.56766E-3,-3.077508E-1,3.333963E-2,-3.625978E-1,-2.4499857E-1,4.5976117E-2,-3.9023098E-1],"split_indices":[1,0,1,1,1,0,0,0,0,0,0,1,1,0,0,0,0,0,0,0,0,0,0,0,0,0,0,0,0],"split_type":[0,0,0,0,0,0,0,0,0,0,0,0,0,0,0,0,0,0,0,0,0,0,0,0,0,0,0,0,0],"sum_hessian":[9.316E3,9.12E2,8.404E3,5.65E2,3.47E2,6.826E3,1.578E3,5.43E2,2.2E1,9.3E1,2.54E2,5.596E3,1.23E3,7.96E2,7.82E2,1.86E2,3.57E2,2E1,7.3E1,8.8E1,1.66E2,4.306E3,1.29E3,3.12E2,9.18E2,2.34E2,5.62E2,5.53E2,2.29E2],"tree_param":{"num_deleted":"0","num_feature":"2","num_nodes":"29","size_leaf_vector":"1"}},{"base_weights":[-3.1235248E-3,-2.0209868E0,3.960916E-1,-2.7422874E0,-1.1411017E0,1.1508344E0,-1.1042712E0,-3.0957627E0,-2.313943E0,-2.388582E-2,-2.0353916E0,1.8335282E0,5.455659E-1,-7.944794E-1,-3.2440333E0,-2.7407822E-1,-3.3267322E-1,-1.7584868E-1,-2.5519478E-1,-3.962829E-2,9.6653335E-2,-1.4826223E-1,-2.996096E-1,2.1225415E-1,-1.9654708E-2,-2.8706262E-1,9.394135E-2,-1.8311933E-1,-1.670694E-2,-2.5540408E-1,-5.671452E-1],"categories":[],"categories_nodes":[],"categories_segments":[],"categories_sizes":[],"default_left":[0,0,0,0,0,0,0,0,0,0,0,0,0,0,0,0,0,0,0,0,0,0,0,0,0,0,0,0,0,0,0],"id":13,"left_children":[1,3,5,7,9,11,13,15,17,19,21,23,25,27,29,-1,-1,-1,-1,-1,-1,-1,-1,-1,-1,-1,-1,-1,-1,-1,-1],"loss_changes":[7.5062173E3,9.7361523E2,8.810117E3,1.20776855E2,6.943361E2,2.13779E3,1.723564E3,2.8597168E1,4.6542236E1,1.1472006E2,2.0054248E2,1.4273179E3,3.695982E3,1.480106E3,5.365576E2,0E0,0E0,0E0,0E0,0E0,0E0,0E0,0E0,0E0,0E0,0E0,0E0,0E0,0E0,0E0,0E0],"parents":[2147483647,0,0,1,1,2,2,3,3,4,4,5,5,6,6,7,7,8,8,9,9,10,10,11,11,12,12,13,13,14,14],"right_children":[2,4,6,8,10,12,14,16,18,20,22,24,26,28,30,-1,-1,-1,-1,-1,-1,-1,-1,-1,-1,-1,-1,-1,-1,-1,-1],"split_conditions":[6E0,3E0,1.9E1,5E0,4E0,5E0,2.3E1,2E0,1E0,3E0,7E0,1.8E1,8E0,4E0,7E0,-2.7407822E-1,-3.3267322E-1,-1.7584868E-1,-2.5519478E-1,-3.962829E-2,9.6653335E-2,-1.4826223E-1,-2.996096E-1,2.1225415E-1,-1.9654708E-2,-2.8706262E-1,9.394135E-2,-1.8311933E-1,-1.670694E-2,-2.5540408E-1,-5.671452E-1],"split_indices":[1,1,1,0,0,0,1,0,1,0,0,1,1,0,0,0,0,0,0,0,0,0,0,0,0,0,0,0,0,0,0],"split_type":[0,0,0,0,0,0,0,0,0,0,0,0,0,0,0,0,0,0,0,0,0,0,0,0,0,0,0,0,0,0,0],"sum_hessian":[9.316E3,1.538E3,7.778E3,8.44E2,6.94E2,5.175E3,2.603E3,4.59E2,3.85E2,3.09E2,3.85E2,2.431E3,2.744E3,2.275E3,3.28E2,1.86E2,2.73E2,1.18E2,2.67E2,2.25E2,8.4E1,2.46E2,1.39E2,2.128E3,3.03E2,2.83E2,2.461E3,8.57E2,1.418E3,2.57E2,7.1E1],"tree_param":{"num_deleted":"0","num_feature":"2","num_nodes":"31","size_leaf_vector":"1"}},{"base_weights":[-3.0741065E-3,-1.8198164E0,3.563512E-1,-2.4692867E0,-1.027554E0,1.0357513E0,-9.942368E-1,-2.7875056E0,-2.0836654E0,-2.1313308E-2,-1.8330127E0,1.650255E0,4.9093935E-1,-7.151195E-1,-2.92213E0,-2.4681692E-1,-2.9952735E-1,-1.5841158E-1,-2.2977054E-1,-3.568301E-2,8.710174E-2,-1.3349606E-1,-2.6986262E-1,1.23323955E-1,2.9618204E-1,-2.5845745E-1,8.455109E-2,-1.648287E-1,-1.5037474E-2,-2.2996262E-1,-5.1121837E-1],"categories":[],"categories_nodes":[],"categories_segments":[],"categories_sizes":[],"default_left":[0,0,0,0,0,0,0,0,0,0,0,0,0,0,0,0,0,0,0,0,0,0,0,0,0,0,0,0,0,0,0],"id":14,"left_children":[1,3,5,7,9,11,13,15,17,19,21,23,25,27,29,-1,-1,-1,-1,-1,-1,-1,-1,-1,-1,-1,-1,-1,-1,-1,-1],"loss_changes":[6.084492E3,7.8935693E2,7.13896E3,9.788281E1,5.632483E2,1.7320571E3,1.3991445E3,2.3126953E1,3.7632812E1,9.31223E1,1.6281006E2,1.3265127E3,2.9955786E3,1.1992075E3,4.3677515E2,0E0,0E0,0E0,0E0,0E0,0E0,0E0,0E0,0E0,0E0,0E0,0E0,0E0,0E0,0E0,0E0],"parents":[2147483647,0,0,1,1,2,2,3,3,4,4,5,5,6,6,7,7,8,8,9,9,10,10,11,11,12,12,13,13,14,14],"right_children":[2,4,6,8,10,12,14,16,18,20,22,24,26,28,30,-1,-1,-1,-1,-1,-1,-1,-1,-1,-1,-1,-1,-1,-1,-1,-1],"split_conditions":[6E0,3E0,1.9E1,5E0,4E0,5E0,2.3E1,2E0,1E0,3E0,7E0,4E0,8E0,4E0,7E0,-2.4681692E-1,-2.9952735E-1,-1.5841158E-1,-2.2977054E-1,-3.568301E-2,8.710174E-2,-1.3349606E-1,-2.6986262E-1,1.23323955E-1,2.9618204E-1,-2.5845745E-1,8.455109E-2,-1.648287E-1,-1.5037474E-2,-2.2996262E-1,-5.1121837E-1],"split_indices":[1,1,1,0,0,0,1,0,1,0,0,0,1,0,0,0,0,0,0,0,0,0,0,0,0,0,0,0,0,0,0],"split_type":[0,0,0,0,0,0,0,0,0,0,0,0,0,0,0,0,0,0,0,0,0,0,0,0,0,0,0,0,0,0,0],"sum_hessian":[9.316E3,1.538E3,7.778E3,8.44E2,6.94E2,5.175E3,2.603E3,4.59E2,3.85E2,3.09E2,3.85E2,2.431E3,2.744E3,2.275E3,3.28E2,1.86E2,2.73E2,1.18E2,2.67E2,2.25E2,8.4E1,2.46E2,1.39E2,1.846E3,5.85E2,2.83E2,2.461E3,8.57E2,1.418E3,2.57E2,7.1E1],"tree_param":{"num_deleted":"0","num_feature":"2","num_nodes":"31","size_leaf_vector":"1"}},{"base_weights":[-2.9771812E-3,-1.6386706E0,3.2062936E-1,-2.223464E0,-9.25305E-1,1.0348738E0,-7.383051E-1,-2.5099428E0,-1.8763043E0,-2.3240294E-1,-1.880809E0,5.8583146E-1,2.1015763E0,-2.90059E-1,-1.7763164E0,-2.222672E-1,-2.6968393E-1,-1.4270352E-1,-2.0687921E-1,-1.9016374E-3,-9.262706E-2,-1.6844842E-1,-4.3341208E-1,8.519043E-2,-5.9763998E-2,3.3870235E-1,1.0366758E-1,-1.9575787E-1,-5.256007E-3,-1.457967E-1,-3.5515484E-1],"categories":[],"categories_nodes":[],"categories_segments":[],"categories_sizes":[],"default_left":[0,0,0,0,0,0,0,0,0,0,0,0,0,0,0,0,0,0,0,0,0,0,0,0,0,0,0,0,0,0,0],"id":15,"left_children":[1,3,5,7,9,11,13,15,17,19,21,23,25,27,29,-1,-1,-1,-1,-1,-1,-1,-1,-1,-1,-1,-1,-1,-1,-1,-1],"loss_changes":[4.93221E3,6.399697E2,5.884318E3,7.93291E1,4.597019E2,2.2241777E3,1.4576864E3,1.8703125E1,3.042871E1,5.9799446E1,1.3333997E2,1.0305131E3,1.8800576E3,8.672119E2,5.288828E2,0E0,0E0,0E0,0E0,0E0,0E0,0E0,0E0,0E0,0E0,0E0,0E0,0E0,0E0,0E0,0E0],"parents":[2147483647,0,0,1,1,2,2,3,3,4,4,5,5,6,6,7,7,8,8,9,9,10,10,11,11,12,12,13,13,14,14],"right_children":[2,4,6,8,10,12,14,16,18,20,22,24,26,28,30,-1,-1,-1,-1,-1,-1,-1,-1,-1,-1,-1,-1,-1,-1,-1,-1],"split_conditions":[6E0,3E0,1.8E1,5E0,5E0,1.5E1,2.2E1,2E0,1E0,4E0,5E0,7E0,5E0,2E0,7E0,-2.222672E-1,-2.6968393E-1,-1.4270352E-1,-2.0687921E-1,-1.9016374E-3,-9.262706E-2,-1.6844842E-1,-4.3341208E-1,8.519043E-2,-5.9763998E-2,3.3870235E-1,1.0366758E-1,-1.9575787E-1,-5.256007E-3,-1.457967E-1,-3.5515484E-1],"split_indices":[1,1,1,0,0,1,1,0,1,0,1,0,0,0,0,0,0,0,0,0,0,0,0,0,0,0,0,0,0,0,0],"split_type":[0,0,0,0,0,0,0,0,0,0,0,0,0,0,0,0,0,0,0,0,0,0,0,0,0,0,0,0,0,0,0],"sum_hessian":[9.316E3,1.538E3,7.778E3,8.44E2,6.94E2,4.645E3,3.133E3,4.59E2,3.85E2,4.03E2,2.91E2,3.27E3,1.375E3,2.189E3,9.44E2,1.86E2,2.73E2,1.18E2,2.67E2,3.09E2,9.4E1,2.71E2,2E1,2.67E3,6E2,6.22E2,7.53E2,2.72E2,1.917E3,8.02E2,1.42E2],"tree_param":{"num_deleted":"0","num_feature":"2","num_nodes":"31","size_leaf_vector":"1"}},{"base_weights":[-2.8696202E-3,-1.4758029E0,2.8853637E-1,-2.0021136E0,-8.337765E-1,6.856912E-1,-1.2713406E0,-2.2115471E0,-1.6182262E0,-2.0939654E-1,-1.6947892E0,9.003833E-1,-2.9228097E-1,-2.1025238E0,-4.2367223E-1,-2.2738571E-1,-1.7644146E-1,-1.8293396E-1,-1.5242904E-1,-1.7120887E-3,-8.346182E-2,-1.516655E-1,-3.9213473E-1,1.14946775E-1,1.6748166E-2,-2.4039216E-1,1.6529115E-2,-2.7233124E-1,-1.8396679E-1,6.2087428E-2,-2.937825E-1],"categories":[],"categories_nodes":[],"categories_segments":[],"categories_sizes":[],"default_left":[0,0,0,0,0,0,0,0,0,0,0,0,0,0,0,0,0,0,0,0,0,0,0,0,0,0,0,0,0,0,0],"id":16,"left_children":[1,3,5,7,9,11,13,15,17,19,21,23,25,27,29,-1,-1,-1,-1,-1,-1,-1,-1,-1,-1,-1,-1,-1,-1,-1,-1],"loss_changes":[3.9994834E3,5.1836694E2,4.8200605E3,6.4358154E1,3.732765E2,1.3022432E3,1.1116218E3,1.1144287E1,3.2005615E0,4.8552532E1,1.0986755E2,9.2809717E2,1.079674E3,1.2504297E2,2.058099E3,0E0,0E0,0E0,0E0,0E0,0E0,0E0,0E0,0E0,0E0,0E0,0E0,0E0,0E0,0E0,0E0],"parents":[2147483647,0,0,1,1,2,2,3,3,4,4,5,5,6,6,7,7,8,8,9,9,10,10,11,11,12,12,13,13,14,14],"right_children":[2,4,6,8,10,12,14,16,18,20,22,24,26,28,30,-1,-1,-1,-1,-1,-1,-1,-1,-1,-1,-1,-1,-1,-1,-1,-1],"split_conditions":[6E0,3E0,2.1E1,6E0,5E0,7E0,5E0,2E0,7E0,4E0,5E0,1.8E1,1E1,2E0,7E0,-2.2738571E-1,-1.7644146E-1,-1.8293396E-1,-1.5242904E-1,-1.7120887E-3,-8.346182E-2,-1.516655E-1,-3.9213473E-1,1.14946775E-1,1.6748166E-2,-2.4039216E-1,1.6529115E-2,-2.7233124E-1,-1.8396679E-1,6.2087428E-2,-2.937825E-1],"split_indices":[1,1,1,0,0,0,0,1,0,0,1,1,1,0,0,0,0,0,0,0,0,0,0,0,0,0,0,0,0,0,0],"split_type":[0,0,0,0,0,0,0,0,0,0,0,0,0,0,0,0,0,0,0,0,0,0,0,0,0,0,0,0,0,0,0],"sum_hessian":[9.316E3,1.538E3,7.778E3,8.44E2,6.94E2,6.2E3,1.578E3,5.43E2,3.01E2,4.03E2,2.91E2,5.084E3,1.116E3,7.96E2,7.82E2,4.73E2,7E1,8.7E1,2.14E2,3.09E2,9.4E1,2.71E2,2E1,3.794E3,1.29E3,1.98E2,9.18E2,2.34E2,5.62E2,5.53E2,2.29E2],"tree_param":{"num_deleted":"0","num_feature":"2","num_nodes":"31","size_leaf_vector":"1"}},{"base_weights":[-2.8131155E-3,-1.3291116E0,2.5958258E-1,-1.802777E0,-7.5130385E-1,8.455419E-1,-6.091559E-1,-2.040879E0,-1.5143583E0,-4.071138E-1,-2.1128635E-1,4.4595E-1,1.7948294E0,-1.3621072E0,-1.4566652E-1,-1.7944938E-1,-2.2015838E-1,-1.1135089E-1,-1.6866969E-1,-2.8330162E-2,-3.5478857E-1,6.5184295E-2,-4.698337E-2,2.934102E-1,8.511134E-2,-7.08259E-2,-2.0553859E-1,4.2985678E-2,-1.8277606E-1],"categories":[],"categories_nodes":[],"categories_segments":[],"categories_sizes":[],"default_left":[0,0,0,0,0,0,0,0,0,0,0,0,0,0,0,0,0,0,0,0,0,0,0,0,0,0,0,0,0],"id":17,"left_children":[1,3,5,7,9,11,13,15,17,19,-1,21,23,25,27,-1,-1,-1,-1,-1,-1,-1,-1,-1,-1,-1,-1,-1,-1],"loss_changes":[3.242801E3,4.198506E2,3.9603794E3,5.4938232E1,3.2484134E2,1.7615552E3,1.0935203E3,1.4263184E1,2.4787415E1,2.1520425E2,0E0,6.170646E2,1.4769092E3,5.397832E2,1.8798374E3,0E0,0E0,0E0,0E0,0E0,0E0,0E0,0E0,0E0,0E0,0E0,0E0,0E0,0E0],"parents":[2147483647,0,0,1,1,2,2,3,3,4,4,5,5,6,6,7,7,8,8,9,9,11,11,12,12,13,13,14,14],"right_children":[2,4,6,8,10,12,14,16,18,20,-1,22,24,26,28,-1,-1,-1,-1,-1,-1,-1,-1,-1,-1,-1,-1,-1,-1],"split_conditions":[6E0,3E0,1.8E1,5E0,7E0,1.5E1,4E0,2E0,1E0,5E0,-2.1128635E-1,7E0,5E0,2.1E1,7E0,-1.7944938E-1,-2.2015838E-1,-1.1135089E-1,-1.6866969E-1,-2.8330162E-2,-3.5478857E-1,6.5184295E-2,-4.698337E-2,2.934102E-1,8.511134E-2,-7.08259E-2,-2.0553859E-1,4.2985678E-2,-1.8277606E-1],"split_indices":[1,1,1,0,0,1,0,0,1,1,0,0,0,1,0,0,0,0,0,0,0,0,0,0,0,0,0,0,0],"split_type":[0,0,0,0,0,0,0,0,0,0,0,0,0,0,0,0,0,0,0,0,0,0,0,0,0,0,0,0,0],"sum_hessian":[9.316E3,1.538E3,7.778E3,8.44E2,6.94E2,4.645E3,3.133E3,4.59E2,3.85E2,5.55E2,1.39E2,3.27E3,1.375E3,1.193E3,1.94E3,1.86E2,2.73E2,1.18E2,2.67E2,5.35E2,2E1,2.67E3,6E2,6.22E2,7.53E2,6.15E2,5.78E2,1.446E3,4.94E2],"tree_param":{"num_deleted":"0","num_feature":"2","num_nodes":"29","size_leaf_vector":"1"}},{"base_weights":[-2.670441E-3,-1.1970284E0,2.3362207E-1,-1.6233037E0,-6.770289E-1,5.6397694E-1,-1.0638853E0,-1.8376597E0,-1.3636478E0,1.28238555E-2,-1.2293018E0,7.347123E-1,-2.137789E-1,-1.755541E0,-3.5850424E-1,-1.6160041E-1,-1.982229E-1,-1.00309364E-1,-1.5186565E-1,-2.8950347E-2,8.165079E-2,-8.424228E-2,-1.9030862E-1,9.29343E-2,1.6201051E-2,-3.220871E-1,5.607125E-3,-1.5803258E-1,-2.552623E-1,5.1599093E-2,-2.4633382E-1],"categories":[],"categories_nodes":[],"categories_segments":[],"categories_sizes":[],"default_left":[0,0,0,0,0,0,0,0,0,0,0,0,0,0,0,0,0,0,0,0,0,0,0,0,0,0,0,0,0,0,0],"id":18,"left_children":[1,3,5,7,9,11,13,15,17,19,21,23,25,27,29,-1,-1,-1,-1,-1,-1,-1,-1,-1,-1,-1,-1,-1,-1,-1,-1],"loss_changes":[2.6297034E3,3.4004028E2,3.3349744E3,4.452588E1,2.648017E2,8.235907E2,7.697345E2,1.1537231E1,2.0049805E1,7.555882E1,9.90166E1,5.666504E2,9.065861E2,1.07275635E2,1.4425134E3,0E0,0E0,0E0,0E0,0E0,0E0,0E0,0E0,0E0,0E0,0E0,0E0,0E0,0E0,0E0,0E0],"parents":[2147483647,0,0,1,1,2,2,3,3,4,4,5,5,6,6,7,7,8,8,9,9,10,10,11,11,12,12,13,13,14,14],"right_children":[2,4,6,8,10,12,14,16,18,20,22,24,26,28,30,-1,-1,-1,-1,-1,-1,-1,-1,-1,-1,-1,-1,-1,-1,-1,-1],"split_conditions":[6E0,3E0,2.1E1,5E0,4E0,7E0,5E0,2E0,1E0,3E0,7E0,1.8E1,8E0,2.3E1,7E0,-1.6160041E-1,-1.982229E-1,-1.00309364E-1,-1.5186565E-1,-2.8950347E-2,8.165079E-2,-8.424228E-2,-1.9030862E-1,9.29343E-2,1.6201051E-2,-3.220871E-1,5.607125E-3,-1.5803258E-1,-2.552623E-1,5.1599093E-2,-2.4633382E-1],"split_indices":[1,1,1,0,0,0,0,0,1,0,0,1,1,1,0,0,0,0,0,0,0,0,0,0,0,0,0,0,0,0,0],"split_type":[0,0,0,0,0,0,0,0,0,0,0,0,0,0,0,0,0,0,0,0,0,0,0,0,0,0,0,0,0,0,0],"sum_hessian":[9.316E3,1.538E3,7.778E3,8.44E2,6.94E2,6.2E3,1.578E3,4.59E2,3.85E2,3.09E2,3.85E2,5.084E3,1.116E3,7.96E2,7.82E2,1.86E2,2.73E2,1.18E2,2.67E2,2.25E2,8.4E1,2.46E2,1.39E2,3.794E3,1.29E3,9.1E1,1.025E3,6.55E2,1.41E2,5.53E2,2.29E2],"tree_param":{"num_deleted":"0","num_feature":"2","num_nodes":"31","size_leaf_vector":"1"}},{"base_weights":[-2.580207E-3,-1.0778674E0,2.1015531E-1,-1.4616976E0,-6.0964525E-1,5.075462E-1,-9.578821E-1,-1.5858613E0,-1.0904927E0,1.17117455E-2,-1.1070832E0,6.6126305E-1,-1.9268443E-1,-1.5805056E0,-3.229028E-1,-1.625008E-1,-1.2542121E-1,-9.0951584E-2,-1.2972762E-1,-2.606808E-2,7.358177E-2,-9.880031E-2,-3.1297612E-1,8.364338E-2,1.4582204E-2,-1.9737189E-1,1.9318992E-2,-1.4225343E-1,-2.2991581E-1,4.6448458E-2,-2.2180755E-1],"categories":[],"categories_nodes":[],"categories_segments":[],"categories_sizes":[],"default_left":[0,0,0,0,0,0,0,0,0,0,0,0,0,0,0,0,0,0,0,0,0,0,0,0,0,0,0,0,0,0,0],"id":19,"left_children":[1,3,5,7,9,11,13,15,17,19,21,23,25,27,29,-1,-1,-1,-1,-1,-1,-1,-1,-1,-1,-1,-1,-1,-1,-1,-1],"loss_changes":[2.1315068E3,2.7569458E2,2.7026282E3,3.7216797E1,2.148281E2,6.6758594E2,6.2375195E2,6.1540527E0,6.866028E0,6.1336536E1,8.9879974E1,4.5900366E2,7.6804565E2,8.720996E1,1.1694502E3,0E0,0E0,0E0,0E0,0E0,0E0,0E0,0E0,0E0,0E0,0E0,0E0,0E0,0E0,0E0,0E0],"parents":[2147483647,0,0,1,1,2,2,3,3,4,4,5,5,6,6,7,7,8,8,9,9,10,10,11,11,12,12,13,13,14,14],"right_children":[2,4,6,8,10,12,14,16,18,20,22,24,26,28,30,-1,-1,-1,-1,-1,-1,-1,-1,-1,-1,-1,-1,-1,-1,-1,-1],"split_conditions":[6E0,3E0,2.1E1,7E0,4E0,7E0,5E0,2E0,2E0,3E0,5E0,1.8E1,1E1,2.3E1,7E0,-1.625008E-1,-1.2542121E-1,-9.0951584E-2,-1.2972762E-1,-2.606808E-2,7.358177E-2,-9.880031E-2,-3.1297612E-1,8.364338E-2,1.4582204E-2,-1.9737189E-1,1.9318992E-2,-1.4225343E-1,-2.2991581E-1,4.6448458E-2,-2.2180755E-1],"split_indices":[1,1,1,0,0,0,0,1,1,0,1,1,1,1,0,0,0,0,0,0,0,0,0,0,0,0,0,0,0,0,0],"split_type":[0,0,0,0,0,0,0,0,0,0,0,0,0,0,0,0,0,0,0,0,0,0,0,0,0,0,0,0,0,0,0],"sum_hessian":[9.316E3,1.538E3,7.778E3,8.44E2,6.94E2,6.2E3,1.578E3,6.3E2,2.14E2,3.09E2,3.85E2,5.084E3,1.116E3,7.96E2,7.82E2,5.6E2,7E1,1.17E2,9.7E1,2.25E2,8.4E1,3.65E2,2E1,3.794E3,1.29E3,1.98E2,9.18E2,6.55E2,1.41E2,5.53E2,2.29E2],"tree_param":{"num_deleted":"0","num_feature":"2","num_nodes":"31","size_leaf_vector":"1"}},{"base_weights":[-2.4831414E-3,-9.706478E-1,1.890592E-1,-1.3161297E0,-5.492049E-1,5.6927806E-1,-5.667787E-1,-1.498171E0,-1.0957795E0,-2.795889E-1,-1.6160426E-1,1.6787383E-1,9.672199E-1,-3.663625E-1,-1.9515218E0,-1.5612541E-1,-1.1305573E-1,-7.863835E-2,-1.22907184E-1,-1.790783E-2,-2.8316888E-1,4.263334E-2,-2.8675228E-2,1.5346591E-1,4.7788814E-2,-1.1819141E-1,-6.3685733E-3,-1.5603088E-1,-3.3262643E-1],"categories":[],"categories_nodes":[],"categories_segments":[],"categories_sizes":[],"default_left":[0,0,0,0,0,0,0,0,0,0,0,0,0,0,0,0,0,0,0,0,0,0,0,0,0,0,0,0,0],"id":20,"left_children":[1,3,5,7,9,11,13,15,17,19,-1,21,23,25,27,-1,-1,-1,-1,-1,-1,-1,-1,-1,-1,-1,-1,-1,-1],"loss_changes":[1.7279701E3,2.2335681E2,2.2358813E3,3.2253784E1,1.994555E2,8.26629E2,7.2195984E2,8.902466E0,1.4952148E1,1.4211421E2,0E0,3.0304364E2,7.209204E2,5.6175195E2,1.7175195E2,0E0,0E0,0E0,0E0,0E0,0E0,0E0,0E0,0E0,0E0,0E0,0E0,0E0,0E0],"parents":[2147483647,0,0,1,1,2,2,3,3,4,4,5,5,6,6,7,7,8,8,9,9,11,11,12,12,13,13,14,14],"right_children":[2,4,6,8,10,12,14,16,18,20,-1,22,24,26,28,-1,-1,-1,-1,-1,-1,-1,-1,-1,-1,-1,-1,-1,-1],"split_conditions":[6E0,3E0,1.9E1,5E0,7E0,1.3E1,2.3E1,2E0,1E0,5E0,-1.6160426E-1,6E0,5E0,3E0,7E0,-1.5612541E-1,-1.1305573E-1,-7.863835E-2,-1.22907184E-1,-1.790783E-2,-2.8316888E-1,4.263334E-2,-2.8675228E-2,1.5346591E-1,4.7788814E-2,-1.1819141E-1,-6.3685733E-3,-1.5603088E-1,-3.3262643E-1],"split_indices":[1,1,1,0,0,1,1,1,1,1,0,0,0,0,0,0,0,0,0,0,0,0,0,0,0,0,0,0,0],"split_type":[0,0,0,0,0,0,0,0,0,0,0,0,0,0,0,0,0,0,0,0,0,0,0,0,0,0,0,0,0],"sum_hessian":[9.316E3,1.538E3,7.778E3,8.44E2,6.94E2,5.175E3,2.603E3,4.59E2,3.85E2,5.55E2,1.39E2,2.577E3,2.598E3,2.275E3,3.28E2,3.89E2,7E1,1.18E2,2.67E2,5.35E2,2E1,1.643E3,9.34E2,1.202E3,1.396E3,6.15E2,1.66E3,2.57E2,7.1E1],"tree_param":{"num_deleted":"0","num_feature":"2","num_nodes":"29","size_leaf_vector":"1"}},{"base_weights":[-2.3775913E-3,-8.7418944E-1,1.7010227E-1,-1.1850737E0,-4.9494988E-1,5.769338E-1,-4.3305963E-1,-1.3195118E0,-9.3898326E-1,-2.5217128E-1,-1.4555924E-1,2.425888E-1,1.3713129E0,-1.0362313E0,-6.179737E-2,-1.3617274E-1,-1.0190939E-1,-1.08423226E-1,-8.751651E-2,-1.6120363E-2,-2.5620043E-1,5.605337E-2,-2.9017762E-3,2.3116516E-1,5.9252985E-2,-1.6323094E-1,-7.1775876E-2,3.9494894E-2,-1.3968481E-1],"categories":[],"categories_nodes":[],"categories_segments":[],"categories_sizes":[],"default_left":[0,0,0,0,0,0,0,0,0,0,0,0,0,0,0,0,0,0,0,0,0,0,0,0,0,0,0,0,0],"id":21,"left_children":[1,3,5,7,9,11,13,15,17,19,-1,21,23,25,27,-1,-1,-1,-1,-1,-1,-1,-1,-1,-1,-1,-1,-1,-1],"loss_changes":[1.4011459E3,1.8086096E2,1.9091019E3,2.6716919E1,1.6172324E2,1.2336293E3,7.01748E2,5.5114746E0,1.8505249E0,1.16413765E2,0E0,2.8248648E2,1.0063025E3,2.2549072E2,1.1841337E3,0E0,0E0,0E0,0E0,0E0,0E0,0E0,0E0,0E0,0E0,0E0,0E0,0E0,0E0],"parents":[2147483647,0,0,1,1,2,2,3,3,4,4,5,5,6,6,7,7,8,8,9,9,11,11,12,12,13,13,14,14],"right_children":[2,4,6,8,10,12,14,16,18,20,-1,22,24,26,28,-1,-1,-1,-1,-1,-1,-1,-1,-1,-1,-1,-1,-1,-1],"split_conditions":[6E0,3E0,1.8E1,6E0,7E0,1.5E1,4E0,2E0,7E0,5E0,-1.4555924E-1,5E0,5E0,2E0,7E0,-1.3617274E-1,-1.0190939E-1,-1.08423226E-1,-8.751651E-2,-1.6120363E-2,-2.5620043E-1,5.605337E-2,-2.9017762E-3,2.3116516E-1,5.9252985E-2,-1.6323094E-1,-7.1775876E-2,3.9494894E-2,-1.3968481E-1],"split_indices":[1,1,1,0,0,1,0,1,0,1,0,0,0,0,0,0,0,0,0,0,0,0,0,0,0,0,0,0,0],"split_type":[0,0,0,0,0,0,0,0,0,0,0,0,0,0,0,0,0,0,0,0,0,0,0,0,0,0,0,0,0],"sum_hessian":[9.316E3,1.538E3,7.778E3,8.44E2,6.94E2,4.645E3,3.133E3,5.43E2,3.01E2,5.55E2,1.39E2,3.27E3,1.375E3,1.193E3,1.94E3,4.73E2,7E1,8.7E1,2.14E2,5.35E2,2E1,1.506E3,1.764E3,6.22E2,7.53E2,4.14E2,7.79E2,1.446E3,4.94E2],"tree_param":{"num_deleted":"0","num_feature":"2","num_nodes":"29","size_leaf_vector":"1"}},{"base_weights":[-2.2304817E-3,-7.873242E-1,1.5309301E-1,-1.06708E0,-4.4605646E-1,3.835445E-1,-7.5202596E-1,-1.2182764E0,-8.8413346E-1,4.4611886E-2,-8.3896095E-1,5.0271285E-1,-1.5929748E-1,-1.2739983E0,-2.1976045E-1,-1.0457293E-1,-1.3315904E-1,-6.078892E-2,-1.0034951E-1,-4.1539118E-2,4.0654182E-2,-5.6797054E-2,-1.3110729E-1,2.4241228E-2,6.887482E-2,-2.6758248E-1,6.651128E-3,-1.148824E-1,-1.8432961E-1,4.163908E-2,-1.7510997E-1],"categories":[],"categories_nodes":[],"categories_segments":[],"categories_sizes":[],"default_left":[0,0,0,0,0,0,0,0,0,0,0,0,0,0,0,0,0,0,0,0,0,0,0,0,0,0,0,0,0,0,0],"id":22,"left_children":[1,3,5,7,9,11,13,15,17,19,21,23,25,27,29,-1,-1,-1,-1,-1,-1,-1,-1,-1,-1,-1,-1,-1,-1,-1,-1],"loss_changes":[1.1362681E3,1.464549E2,1.6228792E3,2.2296326E1,1.3402356E2,4.0122003E2,4.3841022E2,7.6014404E0,1.2117523E1,5.1780426E1,4.8639343E1,2.4607483E2,6.3491754E2,5.4677734E1,7.634991E2,0E0,0E0,0E0,0E0,0E0,0E0,0E0,0E0,0E0,0E0,0E0,0E0,0E0,0E0,0E0,0E0],"parents":[2147483647,0,0,1,1,2,2,3,3,4,4,5,5,6,6,7,7,8,8,9,9,10,10,11,11,12,12,13,13,14,14],"right_children":[2,4,6,8,10,12,14,16,18,20,22,24,26,28,30,-1,-1,-1,-1,-1,-1,-1,-1,-1,-1,-1,-1,-1,-1,-1,-1],"split_conditions":[6E0,3E0,2.1E1,5E0,4E0,7E0,5E0,2E0,1E0,2E0,7E0,1.3E1,8E0,2.3E1,7E0,-1.0457293E-1,-1.3315904E-1,-6.078892E-2,-1.0034951E-1,-4.1539118E-2,4.0654182E-2,-5.6797054E-2,-1.3110729E-1,2.4241228E-2,6.887482E-2,-2.6758248E-1,6.651128E-3,-1.148824E-1,-1.8432961E-1,4.163908E-2,-1.7510997E-1],"split_indices":[1,1,1,0,0,0,0,0,1,0,0,1,1,1,0,0,0,0,0,0,0,0,0,0,0,0,0,0,0,0,0],"split_type":[0,0,0,0,0,0,0,0,0,0,0,0,0,0,0,0,0,0,0,0,0,0,0,0,0,0,0,0,0,0,0],"sum_hessian":[9.316E3,1.538E3,7.778E3,8.44E2,6.94E2,6.2E3,1.578E3,4.59E2,3.85E2,3.09E2,3.85E2,5.084E3,1.116E3,7.96E2,7.82E2,1.86E2,2.73E2,1.18E2,2.67E2,1.36E2,1.73E2,2.46E2,1.39E2,2.12E3,2.964E3,9.1E1,1.025E3,6.55E2,1.41E2,5.53E2,2.29E2],"tree_param":{"num_deleted":"0","num_feature":"2","num_nodes":"31","size_leaf_vector":"1"}},{"base_weights":[-2.1346346E-3,-7.089735E-1,1.3770689E-1,-9.6084404E-1,-4.017224E-1,4.8759001E-1,-3.810215E-1,-1.0476515E0,-7.0160526E-1,4.0147908E-2,-7.5555164E-1,1.9746365E-1,1.1769184E0,-2.3700297E-1,-1.6081793E0,-1.09696545E-1,-9.0967424E-2,-5.630563E-2,-8.6127035E-2,-1.9186368E-2,6.565534E-2,-6.669421E-2,-2.263911E-1,4.7208928E-2,-3.7130264E-3,2.0120938E-1,4.8528537E-2,-8.406711E-2,1.486654E-2,-1.3006468E-1,-2.6878354E-1],"categories":[],"categories_nodes":[],"categories_segments":[],"categories_sizes":[],"default_left":[0,0,0,0,0,0,0,0,0,0,0,0,0,0,0,0,0,0,0,0,0,0,0,0,0,0,0,0,0,0,0],"id":23,"left_children":[1,3,5,7,9,11,13,15,17,19,21,23,25,27,29,-1,-1,-1,-1,-1,-1,-1,-1,-1,-1,-1,-1,-1,-1,-1,-1],"loss_changes":[9.210405E2,1.1871332E2,1.4120299E3,1.82807E1,1.0869126E2,9.28932E2,5.5350146E2,3.2955933E0,4.271164E0,4.4460068E1,5.0080948E1,2.1075333E2,7.9384937E2,6.5340576E2,1.057417E2,0E0,0E0,0E0,0E0,0E0,0E0,0E0,0E0,0E0,0E0,0E0,0E0,0E0,0E0,0E0,0E0],"parents":[2147483647,0,0,1,1,2,2,3,3,4,4,5,5,6,6,7,7,8,8,9,9,10,10,11,11,12,12,13,13,14,14],"right_children":[2,4,6,8,10,12,14,16,18,20,22,24,26,28,30,-1,-1,-1,-1,-1,-1,-1,-1,-1,-1,-1,-1,-1,-1,-1,-1],"split_conditions":[6E0,3E0,1.8E1,7E0,4E0,1.5E1,2.3E1,5E0,2E0,3E0,5E0,5E0,5E0,4E0,7E0,-1.09696545E-1,-9.0967424E-2,-5.630563E-2,-8.6127035E-2,-1.9186368E-2,6.565534E-2,-6.669421E-2,-2.263911E-1,4.7208928E-2,-3.7130264E-3,2.0120938E-1,4.8528537E-2,-8.406711E-2,1.486654E-2,-1.3006468E-1,-2.6878354E-1],"split_indices":[1,1,1,0,0,1,1,0,1,0,1,0,0,0,0,0,0,0,0,0,0,0,0,0,0,0,0,0,0,0,0],"split_type":[0,0,0,0,0,0,0,0,0,0,0,0,0,0,0,0,0,0,0,0,0,0,0,0,0,0,0,0,0,0,0],"sum_hessian":[9.316E3,1.538E3,7.778E3,8.44E2,6.94E2,4.645E3,3.133E3,6.3E2,2.14E2,3.09E2,3.85E2,3.27E3,1.375E3,2.805E3,3.28E2,4.59E2,1.71E2,1.17E2,9.7E1,2.25E2,8.4E1,3.65E2,2E1,1.506E3,1.764E3,6.22E2,7.53E2,1.093E3,1.712E3,2.57E2,7.1E1],"tree_param":{"num_deleted":"0","num_feature":"2","num_nodes":"31","size_leaf_vector":"1"}},{"base_weights":[-2.0032017E-3,9.3401074E-2,-8.473133E-1,-3.9254206E-1,3.501472E-1,-5.2533275E-1,-1.4485736E0,-8.4070936E-2,-1.0249981E0,7.317749E-1,-5.8130722E-2,-1.1208824E0,3.417168E-1,-1.1710861E0,-2.4227849E-1,-6.149721E-2,4.9002744E-2,-1.3498262E-1,-7.570427E-3,3.839049E-2,1.4566545E-1,-9.432971E-2,8.6054895E-3,-1.743844E-1,-9.1142446E-2,8.186E-2,-8.618605E-2,-1.5311162E-1,-7.241174E-2],"categories":[],"categories_nodes":[],"categories_segments":[],"categories_sizes":[],"default_left":[0,0,0,0,0,0,0,0,0,0,0,0,0,0,0,0,0,0,0,0,0,0,0,0,0,0,0,0,0],"id":24,"left_children":[1,3,5,7,9,11,13,15,17,19,21,23,25,27,-1,-1,-1,-1,-1,-1,-1,-1,-1,-1,-1,-1,-1,-1,-1],"loss_changes":[7.514597E2,1.0447865E3,1.8218542E2,5.6471216E2,8.537266E2,3.1898395E2,8.6101746E1,5.9372656E2,2.9252887E2,7.135687E2,3.3804077E2,4.6167877E1,1.4534488E2,4.040924E1,0E0,0E0,0E0,0E0,0E0,0E0,0E0,0E0,0E0,0E0,0E0,0E0,0E0,0E0,0E0],"parents":[2147483647,0,0,1,1,2,2,3,3,4,4,5,5,6,6,7,7,8,8,9,9,10,10,11,11,12,12,13,13],"right_children":[2,4,6,8,10,12,14,16,18,20,22,24,26,28,-1,-1,-1,-1,-1,-1,-1,-1,-1,-1,-1,-1,-1,-1,-1],"split_conditions":[2.2E1,1E1,2.3E1,6E0,1.7E1,5E0,7E0,6E0,8E0,1.5E1,2E0,2E0,7E0,5E0,-2.4227849E-1,-6.149721E-2,4.9002744E-2,-1.3498262E-1,-7.570427E-3,3.839049E-2,1.4566545E-1,-9.432971E-2,8.6054895E-3,-1.743844E-1,-9.1142446E-2,8.186E-2,-8.618605E-2,-1.5311162E-1,-7.241174E-2],"split_indices":[1,1,1,0,1,0,0,1,1,1,0,0,0,0,0,0,0,0,0,0,0,0,0,0,0,0,0,0,0],"split_type":[0,0,0,0,0,0,0,0,0,0,0,0,0,0,0,0,0,0,0,0,0,0,0,0,0,0,0,0,0],"sum_hessian":[9.316E3,8.372E3,9.44E2,2.894E3,5.478E3,6.16E2,3.28E2,1.946E3,9.48E2,2.831E3,2.647E3,3.65E2,2.51E2,2.57E2,7.1E1,1.011E3,9.35E2,7.06E2,2.42E2,1.914E3,9.17E2,3.7E2,2.277E3,9E1,2.75E2,1.8E2,7.1E1,1.41E2,1.16E2],"tree_param":{"num_deleted":"0","num_feature":"2","num_nodes":"29","size_leaf_vector":"1"}},{"base_weights":[-1.888524E-3,1.1461129E-1,-5.7287663E-1,-3.533417E-1,3.942004E-1,-9.898673E-1,-1.4769845E-1,-7.567069E-2,-9.2264843E-1,6.586618E-1,2.2130484E-2,-9.041075E-1,-1.3790829E0,3.74906E-1,-1.4058514E0,-8.846946E-2,2.5572091E-2,-1.2150343E-1,-6.8165213E-3,3.4553386E-2,1.311147E-1,1.7591124E-2,-6.8970434E-2,-1.282887E-1,-7.559624E-2,-1.14706986E-1,-1.5003897E-1,6.484473E-2,-6.523248E-2,-1.0446986E-1,-2.1838713E-1],"categories":[],"categories_nodes":[],"categories_segments":[],"categories_sizes":[],"default_left":[0,0,0,0,0,0,0,0,0,0,0,0,0,0,0,0,0,0,0,0,0,0,0,0,0,0,0,0,0,0,0],"id":25,"left_children":[1,3,5,7,9,11,13,15,17,19,21,23,25,27,29,-1,-1,-1,-1,-1,-1,-1,-1,-1,-1,-1,-1,-1,-1,-1,-1],"loss_changes":[6.198326E2,1.0126679E3,2.798031E2,4.575717E2,4.767243E2,2.5356262E1,5.153623E2,5.222241E2,2.3701422E2,5.781566E2,2.2058685E2,3.5841187E1,2.2755432E0,1.5609149E2,6.234485E1,0E0,0E0,0E0,0E0,0E0,0E0,0E0,0E0,0E0,0E0,0E0,0E0,0E0,0E0,0E0,0E0],"parents":[2147483647,0,0,1,1,2,2,3,3,4,4,5,5,6,6,7,7,8,8,9,9,10,10,11,11,12,12,13,13,14,14],"right_children":[2,4,6,8,10,12,14,16,18,20,22,24,26,28,30,-1,-1,-1,-1,-1,-1,-1,-1,-1,-1,-1,-1,-1,-1,-1,-1],"split_conditions":[2.1E1,1E1,5E0,6E0,1.7E1,2.3E1,7E0,4E0,8E0,1.5E1,7E0,2E0,2E0,2.3E1,2.3E1,-8.846946E-2,2.5572091E-2,-1.2150343E-1,-6.8165213E-3,3.4553386E-2,1.311147E-1,1.7591124E-2,-6.8970434E-2,-1.282887E-1,-7.559624E-2,-1.14706986E-1,-1.5003897E-1,6.484473E-2,-6.523248E-2,-1.0446986E-1,-2.1838713E-1],"split_indices":[1,1,0,0,1,1,0,1,1,1,0,0,0,1,1,0,0,0,0,0,0,0,0,0,0,0,0,0,0,0,0],"split_type":[0,0,0,0,0,0,0,0,0,0,0,0,0,0,0,0,0,0,0,0,0,0,0,0,0,0,0,0,0,0,0],"sum_hessian":[9.316E3,7.738E3,1.578E3,2.894E3,4.844E3,7.96E2,7.82E2,1.946E3,9.48E2,2.831E3,2.013E3,6.55E2,1.41E2,5.53E2,2.29E2,5.65E2,1.381E3,7.06E2,2.42E2,1.914E3,9.17E2,1.656E3,3.57E2,1.82E2,4.73E2,5.2E1,8.9E1,4.37E2,1.16E2,1.58E2,7.1E1],"tree_param":{"num_deleted":"0","num_feature":"2","num_nodes":"31","size_leaf_vector":"1"}},{"base_weights":[-1.7929998E-3,1.03140146E-1,-5.160906E-1,-3.180734E-1,3.548037E-1,-8.9146864E-1,-1.3334157E-1,-6.813572E-2,-8.305186E-1,5.928539E-1,1.989163E-2,-8.1400764E-1,-1.2430389E0,3.3741444E-1,-1.2666698E0,-7.963814E-2,2.3016758E-2,-4.262673E-2,-1.3343437E-1,3.1099835E-2,1.1801749E-1,-8.17844E-2,1.5451625E-2,-1.1552993E-1,-6.805258E-2,-1.03452705E-1,-1.3520177E-1,5.837503E-2,-5.8765E-2,-9.408856E-2,-1.9685172E-1],"categories":[],"categories_nodes":[],"categories_segments":[],"categories_sizes":[],"default_left":[0,0,0,0,0,0,0,0,0,0,0,0,0,0,0,0,0,0,0,0,0,0,0,0,0,0,0,0,0,0,0],"id":26,"left_children":[1,3,5,7,9,11,13,15,17,19,21,23,25,27,29,-1,-1,-1,-1,-1,-1,-1,-1,-1,-1,-1,-1,-1,-1,-1,-1],"loss_changes":[5.028625E2,8.2047864E2,2.2674487E2,3.7073315E2,3.8626013E2,2.069281E1,4.1817435E2,4.2314584E2,1.9271594E2,4.6844116E2,2.2726497E2,2.9098663E1,1.8280182E0,1.2658667E2,5.073752E1,0E0,0E0,0E0,0E0,0E0,0E0,0E0,0E0,0E0,0E0,0E0,0E0,0E0,0E0,0E0,0E0],"parents":[2147483647,0,0,1,1,2,2,3,3,4,4,5,5,6,6,7,7,8,8,9,9,10,10,11,11,12,12,13,13,14,14],"right_children":[2,4,6,8,10,12,14,16,18,20,22,24,26,28,30,-1,-1,-1,-1,-1,-1,-1,-1,-1,-1,-1,-1,-1,-1,-1,-1],"split_conditions":[2.1E1,1E1,5E0,6E0,1.7E1,2.3E1,7E0,4E0,5E0,1.5E1,2E0,2E0,2E0,2.3E1,2.3E1,-7.963814E-2,2.3016758E-2,-4.262673E-2,-1.3343437E-1,3.1099835E-2,1.1801749E-1,-8.17844E-2,1.5451625E-2,-1.1552993E-1,-6.805258E-2,-1.03452705E-1,-1.3520177E-1,5.837503E-2,-5.8765E-2,-9.408856E-2,-1.9685172E-1],"split_indices":[1,1,0,0,1,1,0,1,1,1,0,0,0,1,1,0,0,0,0,0,0,0,0,0,0,0,0,0,0,0,0],"split_type":[0,0,0,0,0,0,0,0,0,0,0,0,0,0,0,0,0,0,0,0,0,0,0,0,0,0,0,0,0,0,0],"sum_hessian":[9.316E3,7.738E3,1.578E3,2.894E3,4.844E3,7.96E2,7.82E2,1.946E3,9.48E2,2.831E3,2.013E3,6.55E2,1.41E2,5.53E2,2.29E2,5.65E2,1.381E3,5.27E2,4.21E2,1.914E3,9.17E2,2.78E2,1.735E3,1.82E2,4.73E2,5.2E1,8.9E1,4.37E2,1.16E2,1.58E2,7.1E1],"tree_param":{"num_deleted":"0","num_feature":"2","num_nodes":"31","size_leaf_vector":"1"}},{"base_weights":[-1.706124E-3,9.280707E-2,-4.6493343E-1,-2.8634617E-1,3.1934077E-1,-8.0285156E-1,-1.20379545E-1,-6.135086E-2,-7.476523E-1,4.9855867E-1,-5.9802026E-2,-5.93597E-1,-9.213727E-1,3.036722E-1,-1.1412678E0,-4.810947E-2,3.9254032E-2,-1.0281452E-1,7.1508787E-3,8.3408915E-2,2.4864703E-2,-5.4313958E-2,2.5666526E-2,-7.456106E-2,-5.195726E-2,-1.1923211E-1,-8.126961E-2,5.2550834E-2,-5.293869E-2,-8.473888E-2,-1.7743996E-1],"categories":[],"categories_nodes":[],"categories_segments":[],"categories_sizes":[],"default_left":[0,0,0,0,0,0,0,0,0,0,0,0,0,0,0,0,0,0,0,0,0,0,0,0,0,0,0,0,0,0,0],"id":27,"left_children":[1,3,5,7,9,11,13,15,17,19,21,23,25,27,29,-1,-1,-1,-1,-1,-1,-1,-1,-1,-1,-1,-1,-1,-1,-1,-1],"loss_changes":[4.079516E2,6.648018E2,1.8374786E2,3.0043115E2,3.2924356E2,1.9219604E1,3.393146E2,3.7112744E2,2.181242E2,2.756687E2,2.3814597E2,2.887146E0,1.3959991E1,1.0265886E2,4.129117E1,0E0,0E0,0E0,0E0,0E0,0E0,0E0,0E0,0E0,0E0,0E0,0E0,0E0,0E0,0E0,0E0],"parents":[2147483647,0,0,1,1,2,2,3,3,4,4,5,5,6,6,7,7,8,8,9,9,10,10,11,11,12,12,13,13,14,14],"right_children":[2,4,6,8,10,12,14,16,18,20,22,24,26,28,30,-1,-1,-1,-1,-1,-1,-1,-1,-1,-1,-1,-1,-1,-1,-1,-1],"split_conditions":[2.1E1,1E1,5E0,6E0,1.8E1,2.2E1,7E0,6E0,8E0,5E0,4E0,2E0,2E0,2.3E1,2.3E1,-4.810947E-2,3.9254032E-2,-1.0281452E-1,7.1508787E-3,8.3408915E-2,2.4864703E-2,-5.4313958E-2,2.5666526E-2,-7.456106E-2,-5.195726E-2,-1.1923211E-1,-8.126961E-2,5.2550834E-2,-5.293869E-2,-8.473888E-2,-1.7743996E-1],"split_indices":[1,1,0,0,1,1,0,1,1,0,0,0,0,1,1,0,0,0,0,0,0,0,0,0,0,0,0,0,0,0,0],"split_type":[0,0,0,0,0,0,0,0,0,0,0,0,0,0,0,0,0,0,0,0,0,0,0,0,0,0,0,0,0,0,0],"sum_hessian":[9.316E3,7.738E3,1.578E3,2.894E3,4.844E3,7.96E2,7.82E2,1.946E3,9.48E2,3.289E3,1.555E3,2.9E2,5.06E2,5.53E2,2.29E2,1.011E3,9.35E2,7.06E2,2.42E2,1.403E3,1.886E3,6.15E2,9.4E2,9.2E1,1.98E2,1.42E2,3.64E2,4.37E2,1.16E2,1.58E2,7.1E1],"tree_param":{"num_deleted":"0","num_feature":"2","num_nodes":"31","size_leaf_vector":"1"}},{"base_weights":[-1.6012142E-3,8.3523475E-2,-4.1881362E-1,-2.5774738E-1,2.874235E-1,-7.229767E-1,-1.0867721E-1,-5.522003E-2,-6.7298764E-1,4.4873622E-1,-5.3840186E-2,-5.3467214E-1,-8.296308E-1,2.733039E-1,-1.028281E0,-6.8793505E-2,1.8997384E-2,-2.811013E-2,-1.1617153E-1,7.507401E-2,2.2379601E-2,-1.04049936E-1,7.598478E-3,-6.7185126E-2,-4.6787657E-2,-1.0739227E-1,-7.31649E-2,4.7307707E-2,-4.7690082E-2,-7.63183E-2,-1.5994237E-1],"categories":[],"categories_nodes":[],"categories_segments":[],"categories_sizes":[],"default_left":[0,0,0,0,0,0,0,0,0,0,0,0,0,0,0,0,0,0,0,0,0,0,0,0,0,0,0,0,0,0,0],"id":28,"left_children":[1,3,5,7,9,11,13,15,17,19,21,23,25,27,29,-1,-1,-1,-1,-1,-1,-1,-1,-1,-1,-1,-1,-1,-1,-1,-1],"loss_changes":[3.3092892E2,5.3859344E2,1.488717E2,2.4342516E2,2.6674228E2,1.5562958E1,2.7532642E2,3.0218408E2,1.8143124E2,2.23331E2,1.9939175E2,2.3520813E0,1.1349915E1,8.325402E1,3.3603363E1,0E0,0E0,0E0,0E0,0E0,0E0,0E0,0E0,0E0,0E0,0E0,0E0,0E0,0E0,0E0,0E0],"parents":[2147483647,0,0,1,1,2,2,3,3,4,4,5,5,6,6,7,7,8,8,9,9,10,10,11,11,12,12,13,13,14,14],"right_children":[2,4,6,8,10,12,14,16,18,20,22,24,26,28,30,-1,-1,-1,-1,-1,-1,-1,-1,-1,-1,-1,-1,-1,-1,-1,-1],"split_conditions":[2.1E1,1E1,5E0,6E0,1.8E1,2.2E1,7E0,3E0,5E0,5E0,2E0,2E0,2E0,2.3E1,2.3E1,-6.8793505E-2,1.8997384E-2,-2.811013E-2,-1.1617153E-1,7.507401E-2,2.2379601E-2,-1.04049936E-1,7.598478E-3,-6.7185126E-2,-4.6787657E-2,-1.0739227E-1,-7.31649E-2,4.7307707E-2,-4.7690082E-2,-7.63183E-2,-1.5994237E-1],"split_indices":[1,1,0,0,1,1,0,1,1,0,0,0,0,1,1,0,0,0,0,0,0,0,0,0,0,0,0,0,0,0,0],"split_type":[0,0,0,0,0,0,0,0,0,0,0,0,0,0,0,0,0,0,0,0,0,0,0,0,0,0,0,0,0,0,0],"sum_hessian":[9.316E3,7.738E3,1.578E3,2.894E3,4.844E3,7.96E2,7.82E2,1.946E3,9.48E2,3.289E3,1.555E3,2.9E2,5.06E2,5.53E2,2.29E2,5.43E2,1.403E3,5.27E2,4.21E2,1.403E3,1.886E3,1.8E2,1.375E3,9.2E1,1.98E2,1.42E2,3.64E2,4.37E2,1.16E2,1.58E2,7.1E1],"tree_param":{"num_deleted":"0","num_feature":"2","num_nodes":"31","size_leaf_vector":"1"}},{"base_weights":[-1.518629E-3,7.514644E-2,-3.7726876E-1,-2.320396E-1,2.586817E-1,-6.510486E-1,-9.81119E-2,-4.9723458E-2,-6.05841E-1,4.3941733E-1,4.4106306E-3,-5.873717E-1,-9.4063294E-1,2.4597253E-1,-9.2648E-1,-4.0490627E-2,3.343521E-2,-8.7510996E-2,1.8008081E-2,1.8733012E-2,9.648069E-2,1.5078607E-2,-6.730992E-2,-8.576856E-2,-4.817709E-2,-7.106778E-2,-1.0655995E-1,4.2587694E-2,-4.2961806E-2,-6.873445E-2,-1.4417031E-1],"categories":[],"categories_nodes":[],"categories_segments":[],"categories_sizes":[],"default_left":[0,0,0,0,0,0,0,0,0,0,0,0,0,0,0,0,0,0,0,0,0,0,0,0,0,0,0,0,0,0,0],"id":29,"left_children":[1,3,5,7,9,11,13,15,17,19,21,23,25,27,29,-1,-1,-1,-1,-1,-1,-1,-1,-1,-1,-1,-1,-1,-1,-1,-1],"loss_changes":[2.684223E2,4.363808E2,1.2061517E2,1.9726419E2,2.2265414E2,1.4144043E1,2.2340524E2,2.6573938E2,2.009891E2,3.749007E2,1.9983148E2,1.8312546E1,3.3233185E0,6.7517075E1,2.7346909E1,0E0,0E0,0E0,0E0,0E0,0E0,0E0,0E0,0E0,0E0,0E0,0E0,0E0,0E0,0E0,0E0],"parents":[2147483647,0,0,1,1,2,2,3,3,4,4,5,5,6,6,7,7,8,8,9,9,10,10,11,11,12,12,13,13,14,14],"right_children":[2,4,6,8,10,12,14,16,18,20,22,24,26,28,30,-1,-1,-1,-1,-1,-1,-1,-1,-1,-1,-1,-1,-1,-1,-1,-1],"split_conditions":[2.1E1,1E1,5E0,6E0,1.7E1,2.3E1,7E0,6E0,8E0,1.5E1,7E0,2E0,2E0,2.3E1,2.3E1,-4.0490627E-2,3.343521E-2,-8.7510996E-2,1.8008081E-2,1.8733012E-2,9.648069E-2,1.5078607E-2,-6.730992E-2,-8.576856E-2,-4.817709E-2,-7.106778E-2,-1.0655995E-1,4.2587694E-2,-4.2961806E-2,-6.873445E-2,-1.4417031E-1],"split_indices":[1,1,0,0,1,1,0,1,1,1,0,0,0,1,1,0,0,0,0,0,0,0,0,0,0,0,0,0,0,0,0],"split_type":[0,0,0,0,0,0,0,0,0,0,0,0,0,0,0,0,0,0,0,0,0,0,0,0,0,0,0,0,0,0,0],"sum_hessian":[9.316E3,7.738E3,1.578E3,2.894E3,4.844E3,7.96E2,7.82E2,1.946E3,9.48E2,2.831E3,2.013E3,6.55E2,1.41E2,5.53E2,2.29E2,1.011E3,9.35E2,7.06E2,2.42E2,1.914E3,9.17E2,1.656E3,3.57E2,1.82E2,4.73E2,5.2E1,8.9E1,4.37E2,1.16E2,1.58E2,7.1E1],"tree_param":{"num_deleted":"0","num_feature":"2","num_nodes":"31","size_leaf_vector":"1"}},{"base_weights":[-1.4244883E-3,6.763009E-2,-3.3987412E-1,-2.088623E-1,2.3282677E-1,-5.8633465E-1,-8.857284E-2,-4.4755135E-2,-5.453299E-1,3.6630842E-1,-4.955592E-2,-4.2170072E-1,-6.796722E-1,2.2137499E-1,-8.347577E-1,-5.788518E-2,1.6222019E-2,-1.6569912E-2,-1.01902604E-1,1.6860783E-2,6.411851E-2,-4.789301E-2,2.3157483E-2,-5.2054226E-2,-3.7338935E-2,-8.2180016E-2,-5.5483807E-2,3.8338687E-2,-3.8702317E-2,-6.190424E-2,-1.2995352E-1],"categories":[],"categories_nodes":[],"categories_segments":[],"categories_sizes":[],"default_left":[0,0,0,0,0,0,0,0,0,0,0,0,0,0,0,0,0,0,0,0,0,0,0,0,0,0,0,0,0,0,0],"id":30,"left_children":[1,3,5,7,9,11,13,15,17,19,21,23,25,27,29,-1,-1,-1,-1,-1,-1,-1,-1,-1,-1,-1,-1,-1,-1,-1,-1],"loss_changes":[2.1777522E2,3.535323E2,9.77448E1,1.5982805E2,1.8264026E2,1.196048E1,1.8127576E2,2.1532468E2,1.7048953E2,1.786813E2,1.8793611E2,1.1952133E0,8.539444E0,5.4754906E1,2.2255234E1,0E0,0E0,0E0,0E0,0E0,0E0,0E0,0E0,0E0,0E0,0E0,0E0,0E0,0E0,0E0,0E0],"parents":[2147483647,0,0,1,1,2,2,3,3,4,4,5,5,6,6,7,7,8,8,9,9,10,10,11,11,12,12,13,13,14,14],"right_children":[2,4,6,8,10,12,14,16,18,20,22,24,26,28,30,-1,-1,-1,-1,-1,-1,-1,-1,-1,-1,-1,-1,-1,-1,-1,-1],"split_conditions":[2.1E1,1E1,5E0,6E0,1.8E1,2.2E1,7E0,3E0,5E0,1.5E1,4E0,2E0,3E0,2.3E1,2.3E1,-5.788518E-2,1.6222019E-2,-1.6569912E-2,-1.01902604E-1,1.6860783E-2,6.411851E-2,-4.789301E-2,2.3157483E-2,-5.2054226E-2,-3.7338935E-2,-8.2180016E-2,-5.5483807E-2,3.8338687E-2,-3.8702317E-2,-6.190424E-2,-1.2995352E-1],"split_indices":[1,1,0,0,1,1,0,1,1,1,0,0,0,1,1,0,0,0,0,0,0,0,0,0,0,0,0,0,0,0,0],"split_type":[0,0,0,0,0,0,0,0,0,0,0,0,0,0,0,0,0,0,0,0,0,0,0,0,0,0,0,0,0,0,0],"sum_hessian":[9.316E3,7.738E3,1.578E3,2.894E3,4.844E3,7.96E2,7.82E2,1.946E3,9.48E2,3.289E3,1.555E3,2.9E2,5.06E2,5.53E2,2.29E2,5.43E2,1.403E3,5.27E2,4.21E2,1.914E3,1.375E3,6.15E2,9.4E2,9.2E1,1.98E2,2.34E2,2.72E2,4.37E2,1.16E2,1.58E2,7.1E1],"tree_param":{"num_deleted":"0","num_feature":"2","num_nodes":"31","size_leaf_vector":"1"}},{"base_weights":[-1.3383138E-3,6.368299E-2,-2.9291922E-1,-1.225289E-1,2.2044207E-1,-9.068585E-2,-1.2281157E0,6.0050614E-2,-4.7259974E-1,-3.868927E-1,3.6480662E-1,-5.7495207E-1,2.2502327E-1,-2.7110168E-1,-7.521161E-1,-2.0294728E-2,7.0030324E-2,-9.405145E-2,-3.5634883E-2,5.1030803E-2,-8.729961E-2,4.787166E-2,-1.5169139E-3,-1.4101674E-2,-9.058451E-2,5.692891E-2,-2.036274E-2,-5.5752754E-2,-1.1713864E-1],"categories":[],"categories_nodes":[],"categories_segments":[],"categories_sizes":[],"default_left":[0,0,0,0,0,0,0,0,0,0,0,0,0,0,0,0,0,0,0,0,0,0,0,0,0,0,0,0,0],"id":31,"left_children":[1,3,5,7,9,11,13,15,17,19,21,23,25,-1,27,-1,-1,-1,-1,-1,-1,-1,-1,-1,-1,-1,-1,-1,-1],"loss_changes":[1.7665936E2,2.2242871E2,3.2121698E2,2.2264697E2,3.628634E2,2.1386577E2,2.1113086E2,3.85744E2,6.461313E1,3.4717062E2,1.4470242E2,7.913182E1,1.2510751E2,0E0,1.8111511E1,0E0,0E0,0E0,0E0,0E0,0E0,0E0,0E0,0E0,0E0,0E0,0E0,0E0,0E0],"parents":[2147483647,0,0,1,1,2,2,3,3,4,4,5,5,6,6,7,7,8,8,9,9,10,10,11,11,12,12,14,14],"right_children":[2,4,6,8,10,12,14,16,18,20,22,24,26,-1,28,-1,-1,-1,-1,-1,-1,-1,-1,-1,-1,-1,-1,-1,-1],"split_conditions":[7E0,4E0,2E1,1.8E1,8E0,1E1,2.1E1,1.3E1,1.9E1,5E0,2.1E1,4E0,1.6E1,-2.7110168E-1,2.3E1,-2.0294728E-2,7.0030324E-2,-9.405145E-2,-3.5634883E-2,5.1030803E-2,-8.729961E-2,4.787166E-2,-1.5169139E-3,-1.4101674E-2,-9.058451E-2,5.692891E-2,-2.036274E-2,-5.5752754E-2,-1.1713864E-1],"split_indices":[0,0,1,1,1,1,1,1,1,0,1,1,1,0,1,0,0,0,0,0,0,0,0,0,0,0,0,0,0],"split_type":[0,0,0,0,0,0,0,0,0,0,0,0,0,0,0,0,0,0,0,0,0,0,0,0,0,0,0,0,0],"sum_hessian":[9.316E3,7.618E3,1.698E3,3.482E3,4.136E3,1.397E3,3.01E2,2.289E3,1.193E3,7.94E2,3.342E3,5.51E2,8.46E2,7.2E1,2.29E2,1.623E3,6.66E2,2.36E2,9.57E2,2.79E2,5.15E2,2.571E3,7.71E2,2.39E2,3.12E2,4.69E2,3.77E2,1.58E2,7.1E1],"tree_param":{"num_deleted":"0","num_feature":"2","num_nodes":"29","size_leaf_vector":"1"}},{"base_weights":[-1.2671223E-3,2.362742E-2,-6.8143666E-1,-1.629098E-1,1.122249E-1,-5.743011E-1,-1.05587475E-1,-2.7622763E-2,-4.402975E-1,3.2166848E-1,-6.953259E-2,-7.574184E-1,-3.471476E-1,-3.236565E-2,2.9247744E-2,-6.861871E-2,2.7692154E-2,1.13569265E-2,7.554248E-2,-6.796096E-2,3.0793743E-3,-5.253588E-2,-8.8566E-2,-4.6963092E-2,-3.0875945E-2],"categories":[],"categories_nodes":[],"categories_segments":[],"categories_sizes":[],"default_left":[0,0,0,0,0,0,0,0,0,0,0,0,0,0,0,0,0,0,0,0,0,0,0,0,0],"id":32,"left_children":[1,3,5,7,9,11,-1,13,15,17,19,21,23,-1,-1,-1,-1,-1,-1,-1,-1,-1,-1,-1,-1],"loss_changes":[1.5777629E2,1.4857703E2,1.259166E1,1.086284E2,2.3204645E2,1.0468758E1,0E0,1.8459326E2,1.6755254E2,2.5554285E2,1.9979987E2,3.760582E0,4.0512085E-1,0E0,0E0,0E0,0E0,0E0,0E0,0E0,0E0,0E0,0E0,0E0,0E0],"parents":[2147483647,0,0,1,1,2,2,3,3,4,4,5,5,7,7,8,8,9,9,10,10,11,11,12,12],"right_children":[2,4,6,8,10,12,-1,14,16,18,20,22,24,-1,-1,-1,-1,-1,-1,-1,-1,-1,-1,-1,-1],"split_conditions":[2.3E1,1E1,7E0,6E0,1.7E1,5E0,-1.05587475E-1,6E0,8E0,1.5E1,2E0,2E0,6E0,-3.236565E-2,2.9247744E-2,-6.861871E-2,2.7692154E-2,1.13569265E-2,7.554248E-2,-6.796096E-2,3.0793743E-3,-5.253588E-2,-8.8566E-2,-4.6963092E-2,-3.0875945E-2],"split_indices":[1,1,0,0,1,0,0,1,1,1,0,0,0,0,0,0,0,0,0,0,0,0,0,0,0],"split_type":[0,0,0,0,0,0,0,0,0,0,0,0,0,0,0,0,0,0,0,0,0,0,0,0,0],"sum_hessian":[9.316E3,8.988E3,3.28E2,2.894E3,6.094E3,2.57E2,7.1E1,1.946E3,9.48E2,2.831E3,3.263E3,1.41E2,1.16E2,1.011E3,9.35E2,7.06E2,2.42E2,1.914E3,9.17E2,4.6E2,2.803E3,5.2E1,8.9E1,2.5E1,9.1E1],"tree_param":{"num_deleted":"0","num_feature":"2","num_nodes":"25","size_leaf_vector":"1"}},{"base_weights":[-1.1774172E-3,5.5204965E-2,-2.5401804E-1,-1.0684623E-1,1.9162486E-1,-7.447731E-2,-1.0842959E0,4.6509195E-2,-4.0088063E-1,-3.1947678E-1,3.131128E-1,-4.6782097E-1,1.819574E-1,-2.4466658E-1,-6.471772E-1,-1.8191462E-2,6.0260184E-2,-8.2864426E-2,-2.9463757E-2,4.705849E-2,-7.475733E-2,4.088463E-2,-6.2390656E-4,-1.8501613E-2,-9.685501E-2,4.9199946E-2,-2.0402601E-2,-5.051855E-2,-9.517538E-2],"categories":[],"categories_nodes":[],"categories_segments":[],"categories_sizes":[],"default_left":[0,0,0,0,0,0,0,0,0,0,0,0,0,0,0,0,0,0,0,0,0,0,0,0,0,0,0,0,0],"id":33,"left_children":[1,3,5,7,9,11,13,15,17,19,21,23,25,-1,27,-1,-1,-1,-1,-1,-1,-1,-1,-1,-1,-1,-1,-1,-1],"loss_changes":[1.3283492E2,1.6845377E2,2.5318694E2,1.5707327E2,2.5697748E2,1.4109714E2,1.7826282E2,2.9099643E2,5.401947E1,2.6923877E2,1.0220697E2,7.798877E1,1.0146179E2,0E0,9.466072E0,0E0,0E0,0E0,0E0,0E0,0E0,0E0,0E0,0E0,0E0,0E0,0E0,0E0,0E0],"parents":[2147483647,0,0,1,1,2,2,3,3,4,4,5,5,6,6,7,7,8,8,9,9,10,10,11,11,12,12,14,14],"right_children":[2,4,6,8,10,12,14,16,18,20,22,24,26,-1,28,-1,-1,-1,-1,-1,-1,-1,-1,-1,-1,-1,-1,-1,-1],"split_conditions":[7E0,4E0,2E1,1.8E1,8E0,1E1,2.1E1,1.3E1,1.9E1,5E0,2.1E1,5E0,1.6E1,-2.4466658E-1,2.3E1,-1.8191462E-2,6.0260184E-2,-8.2864426E-2,-2.9463757E-2,4.705849E-2,-7.475733E-2,4.088463E-2,-6.2390656E-4,-1.8501613E-2,-9.685501E-2,4.9199946E-2,-2.0402601E-2,-5.051855E-2,-9.517538E-2],"split_indices":[0,0,1,1,1,1,1,1,1,0,1,1,1,0,1,0,0,0,0,0,0,0,0,0,0,0,0,0,0],"split_type":[0,0,0,0,0,0,0,0,0,0,0,0,0,0,0,0,0,0,0,0,0,0,0,0,0,0,0,0,0],"sum_hessian":[9.316E3,7.618E3,1.698E3,3.482E3,4.136E3,1.397E3,3.01E2,2.289E3,1.193E3,7.94E2,3.342E3,5.51E2,8.46E2,7.2E1,2.29E2,1.623E3,6.66E2,2.36E2,9.57E2,2.79E2,5.15E2,2.571E3,7.71E2,3.53E2,1.98E2,4.69E2,3.77E2,1.58E2,7.1E1],"tree_param":{"num_deleted":"0","num_feature":"2","num_nodes":"29","size_leaf_vector":"1"}},{"base_weights":[-1.1169016E-3,2.0234732E-2,-5.8448684E-1,-2.442748E-1,6.530995E-2,-5.0592E-1,-8.579004E-2,-3.060425E-2,-6.120266E-1,1.368967E-1,-2.0093791E-1,-6.61741E-1,-3.1247967E-1,-2.9918542E-2,1.03586234E-1,-1.05167806E-1,-2.0158185E-2,-4.2828143E-2,1.8170372E-2,-6.7091384E-3,-1.0101004E-1,-4.4490643E-2,-7.820799E-2,-4.238747E-2,-2.7760196E-2],"categories":[],"categories_nodes":[],"categories_segments":[],"categories_sizes":[],"default_left":[0,0,0,0,0,0,0,0,0,0,0,0,0,0,0,0,0,0,0,0,0,0,0,0,0],"id":34,"left_children":[1,3,5,7,9,11,-1,13,15,17,19,21,23,-1,-1,-1,-1,-1,-1,-1,-1,-1,-1,-1,-1],"loss_changes":[1.1606347E2,1.07190216E2,6.633301E0,1.0283951E2,1.46426E2,7.5698776E0,0E0,2.3776276E2,8.658574E1,1.53389E2,1.7625046E2,3.3573418E0,3.369007E-1,0E0,0E0,0E0,0E0,0E0,0E0,0E0,0E0,0E0,0E0,0E0,0E0],"parents":[2147483647,0,0,1,1,2,2,3,3,4,4,5,5,7,7,8,8,9,9,10,10,11,11,12,12],"right_children":[2,4,6,8,10,12,-1,14,16,18,20,22,24,-1,-1,-1,-1,-1,-1,-1,-1,-1,-1,-1,-1],"split_conditions":[2.3E1,2E0,7E0,1.6E1,7E0,5E0,-8.579004E-2,1.3E1,2E1,2E0,2E1,2E0,6E0,-2.9918542E-2,1.03586234E-1,-1.05167806E-1,-2.0158185E-2,-4.2828143E-2,1.8170372E-2,-6.7091384E-3,-1.0101004E-1,-4.4490643E-2,-7.820799E-2,-4.238747E-2,-2.7760196E-2],"split_indices":[1,0,0,1,0,0,0,1,1,1,1,0,0,0,0,0,0,0,0,0,0,0,0,0,0],"split_type":[0,0,0,0,0,0,0,0,0,0,0,0,0,0,0,0,0,0,0,0,0,0,0,0,0],"sum_hessian":[9.316E3,8.988E3,3.28E2,1.308E3,7.68E3,2.57E2,7.1E1,8.28E2,4.8E2,6.053E3,1.627E3,1.41E2,1.16E2,6.62E2,1.66E2,2.31E2,2.49E2,4.44E2,5.609E3,1.397E3,2.3E2,5.2E1,8.9E1,2.5E1,9.1E1],"tree_param":{"num_deleted":"0","num_feature":"2","num_nodes":"25","size_leaf_vector":"1"}},{"base_weights":[-1.0551178E-3,4.512491E-2,-2.2739217E-1,-1.14352144E-1,1.559144E-1,-4.4772437E-1,-2.8300078E-3,-2.9274464E-1,-6.584875E-2,3.1903392E-1,9.658283E-3,-3.2016847E-1,-5.2005386E-1,1.9827574E-1,-4.8722026E-1,-5.1385053E-2,6.646526E-4,6.822565E-3,-3.0701866E-2,-9.657003E-4,1.304516E-1,2.9026365E-2,-6.4919437E-3,-2.6988296E-2,-4.3497723E-2,-6.2824965E-2,-4.2501334E-2,3.260708E-2,-2.8183112E-2,-3.5460968E-2,-7.733017E-2],"categories":[],"categories_nodes":[],"categories_segments":[],"categories_sizes":[],"default_left":[0,0,0,0,0,0,0,0,0,0,0,0,0,0,0,0,0,0,0,0,0,0,0,0,0,0,0,0,0,0,0],"id":35,"left_children":[1,3,5,7,9,11,13,15,17,19,21,23,25,27,29,-1,-1,-1,-1,-1,-1,-1,-1,-1,-1,-1,-1,-1,-1,-1,-1],"loss_changes":[9.739388E1,1.3675342E2,7.812494E1,2.7435555E1,1.0895288E2,7.186661E0,7.6371506E1,4.4885082E1,8.0728386E1,6.993537E2,5.0431767E1,1.5626125E0,4.946457E0,3.4082718E1,8.451393E0,0E0,0E0,0E0,0E0,0E0,0E0,0E0,0E0,0E0,0E0,0E0,0E0,0E0,0E0,0E0,0E0],"parents":[2147483647,0,0,1,1,2,2,3,3,4,4,5,5,6,6,7,7,8,8,9,9,10,10,11,11,12,12,13,13,14,14],"right_children":[2,4,6,8,10,12,14,16,18,20,22,24,26,28,30,-1,-1,-1,-1,-1,-1,-1,-1,-1,-1,-1,-1,-1,-1,-1,-1],"split_conditions":[2.1E1,1.1E1,5E0,2E0,5E0,2.2E1,7E0,5E0,6E0,4E0,1.3E1,4E0,3E0,2.3E1,2.3E1,-5.1385053E-2,6.646526E-4,6.822565E-3,-3.0701866E-2,-9.657003E-4,1.304516E-1,2.9026365E-2,-6.4919437E-3,-2.6988296E-2,-4.3497723E-2,-6.2824965E-2,-4.2501334E-2,3.260708E-2,-2.8183112E-2,-3.5460968E-2,-7.733017E-2],"split_indices":[1,1,0,1,0,1,0,0,0,0,1,0,0,1,1,0,0,0,0,0,0,0,0,0,0,0,0,0,0,0,0],"split_type":[0,0,0,0,0,0,0,0,0,0,0,0,0,0,0,0,0,0,0,0,0,0,0,0,0,0,0,0,0,0,0],"sum_hessian":[9.316E3,7.738E3,1.578E3,3.172E3,4.566E3,7.96E2,7.82E2,6.77E2,2.495E3,2.158E3,2.408E3,2.9E2,5.06E2,5.53E2,2.29E2,3.89E2,2.88E2,1.604E3,8.91E2,1.619E3,5.39E2,5.05E2,1.903E3,2.04E2,8.6E1,2.34E2,2.72E2,4.37E2,1.16E2,1.58E2,7.1E1],"tree_param":{"num_deleted":"0","num_feature":"2","num_nodes":"31","size_leaf_vector":"1"}},{"base_weights":[-9.7173103E-4,4.06225E-2,-2.0483288E-1,-7.695574E-2,1.7415214E-1,-4.0317243E-1,-2.6854337E-3,-5.0411705E-2,-3.697241E-1,4.31365E-1,-5.84306E-2,-2.883936E-1,-4.682562E-1,4.8067373E-1,-1.7722714E-1,-1.0294045E-2,2.260794E-2,-1.4618257E-1,2.2718588E-2,9.317575E-2,-1.1703467E-2,-1.06637314E-1,1.9092638E-3,-2.430261E-2,-3.919791E-2,-5.6569215E-2,-3.826676E-2,1.2884617E-1,-2.0984238E-2,-4.4477634E-2,2.7863157E-3],"categories":[],"categories_nodes":[],"categories_segments":[],"categories_sizes":[],"default_left":[0,0,0,0,0,0,0,0,0,0,0,0,0,0,0,0,0,0,0,0,0,0,0,0,0,0,0,0,0,0,0],"id":36,"left_children":[1,3,5,7,9,11,13,15,17,19,21,23,25,27,29,-1,-1,-1,-1,-1,-1,-1,-1,-1,-1,-1,-1,-1,-1,-1,-1],"loss_changes":[7.901133E1,1.2151709E2,6.3307083E1,3.1967842E1,2.1682477E2,5.8187256E0,6.614403E1,5.4850357E1,2.2327722E2,4.7237735E2,1.4879695E2,1.2722683E0,4.0116196E0,1.1629081E2,3.1618517E1,0E0,0E0,0E0,0E0,0E0,0E0,0E0,0E0,0E0,0E0,0E0,0E0,0E0,0E0,0E0,0E0],"parents":[2147483647,0,0,1,1,2,2,3,3,4,4,5,5,6,6,7,7,8,8,9,9,10,10,11,11,12,12,13,13,14,14],"right_children":[2,4,6,8,10,12,14,16,18,20,22,24,26,28,30,-1,-1,-1,-1,-1,-1,-1,-1,-1,-1,-1,-1,-1,-1,-1,-1],"split_conditions":[2.1E1,1.3E1,5E0,1.2E1,5E0,2.2E1,6E0,1.1E1,5E0,1.8E1,1.4E1,4E0,3E0,2.2E1,2.2E1,-1.0294045E-2,2.260794E-2,-1.4618257E-1,2.2718588E-2,9.317575E-2,-1.1703467E-2,-1.06637314E-1,1.9092638E-3,-2.430261E-2,-3.919791E-2,-5.6569215E-2,-3.826676E-2,1.2884617E-1,-2.0984238E-2,-4.4477634E-2,2.7863157E-3],"split_indices":[1,1,0,1,0,1,0,1,0,1,1,0,0,1,1,0,0,0,0,0,0,0,0,0,0,0,0,0,0,0,0],"split_type":[0,0,0,0,0,0,0,0,0,0,0,0,0,0,0,0,0,0,0,0,0,0,0,0,0,0,0,0,0,0,0],"sum_hessian":[9.316E3,7.738E3,1.578E3,4.115E3,3.623E3,7.96E2,7.82E2,3.774E3,3.41E2,1.72E3,1.903E3,2.9E2,5.06E2,2.07E2,5.75E2,3.172E3,6.02E2,1.2E2,2.21E2,8.99E2,8.21E2,1.35E2,1.768E3,2.04E2,8.6E1,2.34E2,2.72E2,9.5E1,1.12E2,2.49E2,3.26E2],"tree_param":{"num_deleted":"0","num_feature":"2","num_nodes":"31","size_leaf_vector":"1"}},{"base_weights":[-8.988919E-4,-2.215104E-1,3.6835577E-2,1.3492694E-1,-3.9308846E-1,9.7370006E-2,-1.8619081E-1,-2.0897289E-1,1.0518254E0,-1.9130231E0,-1.8191795E-1,-3.4401026E-1,1.3113043E-1,-4.682173E-2,-8.307332E-1,-3.6319572E-2,-1.4597853E-2,1.3503511E-1,8.637023E-2,-7.9656534E-2,-2.2412947E-1,4.575224E-2,-5.1269393E-2,-5.1600404E-2,-6.8020187E-3,1.5119354E-2,-4.15885E-2,-2.8290162E-2,3.2654963E-2,-2.1012051E-1,-4.238846E-2],"categories":[],"categories_nodes":[],"categories_segments":[],"categories_sizes":[],"default_left":[0,0,0,0,0,0,0,0,0,0,0,0,0,0,0,0,0,0,0,0,0,0,0,0,0,0,0,0,0,0,0],"id":37,"left_children":[1,3,5,7,9,11,13,15,17,19,21,23,25,27,29,-1,-1,-1,-1,-1,-1,-1,-1,-1,-1,-1,-1,-1,-1,-1,-1],"loss_changes":[7.756899E1,8.328748E1,1.0744381E2,1.399071E2,2.9461914E2,9.331163E1,1.5258105E2,3.08498E0,5.629013E0,3.9262787E1,1.7113588E2,2.108841E1,6.3881523E1,1.2331974E2,1.5521002E2,0E0,0E0,0E0,0E0,0E0,0E0,0E0,0E0,0E0,0E0,0E0,0E0,0E0,0E0,0E0,0E0],"parents":[2147483647,0,0,1,1,2,2,3,3,4,4,5,5,6,6,7,7,8,8,9,9,10,10,11,11,12,12,13,13,14,14],"right_children":[2,4,6,8,10,12,14,16,18,20,22,24,26,28,30,-1,-1,-1,-1,-1,-1,-1,-1,-1,-1,-1,-1,-1,-1,-1,-1],"split_conditions":[2E0,8E0,7E0,5E0,1E1,2E0,2E1,1E0,7E0,9E0,1.6E1,5E0,2.3E1,1.4E1,2.1E1,-3.6319572E-2,-1.4597853E-2,1.3503511E-1,8.637023E-2,-7.9656534E-2,-2.2412947E-1,4.575224E-2,-5.1269393E-2,-5.1600404E-2,-6.8020187E-3,1.5119354E-2,-4.15885E-2,-2.8290162E-2,3.2654963E-2,-2.1012051E-1,-4.238846E-2],"split_indices":[0,1,0,1,1,1,1,1,1,1,1,0,1,1,1,0,0,0,0,0,0,0,0,0,0,0,0,0,0,0,0],"split_type":[0,0,0,0,0,0,0,0,0,0,0,0,0,0,0,0,0,0,0,0,0,0,0,0,0,0,0,0,0,0,0],"sum_hessian":[9.316E3,1.36E3,7.956E3,4.42E2,9.18E2,6.258E3,1.698E3,3.22E2,1.2E2,1.11E2,8.07E2,4.44E2,5.814E3,1.397E3,3.01E2,9.2E1,2.3E2,4.4E1,7.6E1,2.6E1,8.5E1,2.75E2,5.32E2,2.73E2,1.71E2,5.609E3,2.05E2,8.56E2,5.41E2,7.2E1,2.29E2],"tree_param":{"num_deleted":"0","num_feature":"2","num_nodes":"31","size_leaf_vector":"1"}},{"base_weights":[-8.597819E-4,-1.9946125E-1,3.310999E-2,1.2181907E-1,-3.54116E-1,8.761927E-2,-1.6771798E-1,-1.8823327E-1,9.4847274E-1,-1.7244338E0,-1.6373271E-1,-3.0974042E-1,1.1801264E-1,-4.2136677E-2,-7.4849594E-1,-3.272668E-2,-1.3144388E-2,1.2183173E-1,7.784535E-2,-7.198589E-2,-2.0197718E-1,4.119366E-2,-4.615207E-2,-4.6459187E-2,-6.125764E-3,1.6687106E-2,-8.785884E-3,-2.546446E-2,2.9395452E-2,-1.8939632E-1,-3.8168028E-2],"categories":[],"categories_nodes":[],"categories_segments":[],"categories_sizes":[],"default_left":[0,0,0,0,0,0,0,0,0,0,0,0,0,0,0,0,0,0,0,0,0,0,0,0,0,0,0,0,0,0,0],"id":38,"left_children":[1,3,5,7,9,11,13,15,17,19,21,23,25,27,29,-1,-1,-1,-1,-1,-1,-1,-1,-1,-1,-1,-1,-1,-1,-1,-1],"loss_changes":[6.2863243E1,6.766788E1,8.711988E1,1.13722046E2,2.3947153E2,7.562714E1,1.23884766E2,2.5072708E0,4.602928E0,3.1775238E1,1.3870346E2,1.7094215E1,5.8505142E1,9.9922874E1,1.26170074E2,0E0,0E0,0E0,0E0,0E0,0E0,0E0,0E0,0E0,0E0,0E0,0E0,0E0,0E0,0E0,0E0],"parents":[2147483647,0,0,1,1,2,2,3,3,4,4,5,5,6,6,7,7,8,8,9,9,10,10,11,11,12,12,13,13,14,14],"right_children":[2,4,6,8,10,12,14,16,18,20,22,24,26,28,30,-1,-1,-1,-1,-1,-1,-1,-1,-1,-1,-1,-1,-1,-1,-1,-1],"split_conditions":[2E0,8E0,7E0,5E0,1E1,2E0,2E1,1E0,7E0,9E0,1.6E1,5E0,2.1E1,1.4E1,2.1E1,-3.272668E-2,-1.3144388E-2,1.2183173E-1,7.784535E-2,-7.198589E-2,-2.0197718E-1,4.119366E-2,-4.615207E-2,-4.6459187E-2,-6.125764E-3,1.6687106E-2,-8.785884E-3,-2.546446E-2,2.9395452E-2,-1.8939632E-1,-3.8168028E-2],"split_indices":[0,1,0,1,1,1,1,1,1,1,1,0,1,1,1,0,0,0,0,0,0,0,0,0,0,0,0,0,0,0,0],"split_type":[0,0,0,0,0,0,0,0,0,0,0,0,0,0,0,0,0,0,0,0,0,0,0,0,0,0,0,0,0,0,0],"sum_hessian":[9.316E3,1.36E3,7.956E3,4.42E2,9.18E2,6.258E3,1.698E3,3.22E2,1.2E2,1.11E2,8.07E2,4.44E2,5.814E3,1.397E3,3.01E2,9.2E1,2.3E2,4.4E1,7.6E1,2.6E1,8.5E1,2.75E2,5.32E2,2.73E2,1.71E2,4.699E3,1.115E3,8.56E2,5.41E2,7.2E1,2.29E2],"tree_param":{"num_deleted":"0","num_feature":"2","num_nodes":"31","size_leaf_vector":"1"}},{"base_weights":[-8.1614096E-4,1.3616559E-2,-3.951466E-1,-1.7910835E-1,4.6459064E-2,-3.3076596E-1,-6.203558E-2,1.0998456E-1,-3.266159E-1,1.671003E-1,-3.7810694E-2,-4.3483898E-1,-2.0162806E-1,-1.6955184E-2,8.552761E-2,-1.554437E-1,-1.4428446E-2,3.1228935E-2,-2.0748928E-2,-5.0898355E-2,8.9115165E-3,-1.8853068E-2,-5.7505567E-2,-2.8740391E-2,-1.7519547E-2],"categories":[],"categories_nodes":[],"categories_segments":[],"categories_sizes":[],"default_left":[0,0,0,0,0,0,0,0,0,0,0,0,0,0,0,0,0,0,0,0,0,0,0,0,0],"id":39,"left_children":[1,3,5,7,9,11,-1,13,15,17,19,21,23,-1,-1,-1,-1,-1,-1,-1,-1,-1,-1,-1,-1],"loss_changes":[5.303079E1,5.6904816E1,4.565014E0,5.585612E1,7.80945E1,3.3797855E0,0E0,9.2437904E1,1.9387134E2,1.7187115E2,2.7053894E2,4.7957726E0,2.1492004E-1,0E0,0E0,0E0,0E0,0E0,0E0,0E0,0E0,0E0,0E0,0E0,0E0],"parents":[2147483647,0,0,1,1,2,2,3,3,4,4,5,5,7,7,8,8,9,9,10,10,11,11,12,12],"right_children":[2,4,6,8,10,12,-1,14,16,18,20,22,24,-1,-1,-1,-1,-1,-1,-1,-1,-1,-1,-1,-1],"split_conditions":[2.3E1,2E0,7E0,8E0,5E0,5E0,-6.203558E-2,5E0,1E1,1.9E1,8E0,2E0,6E0,-1.6955184E-2,8.552761E-2,-1.554437E-1,-1.4428446E-2,3.1228935E-2,-2.0748928E-2,-5.0898355E-2,8.9115165E-3,-1.8853068E-2,-5.7505567E-2,-2.8740391E-2,-1.7519547E-2],"split_indices":[1,0,0,1,0,0,0,1,1,1,1,0,0,0,0,0,0,0,0,0,0,0,0,0,0],"split_type":[0,0,0,0,0,0,0,0,0,0,0,0,0,0,0,0,0,0,0,0,0,0,0,0,0],"sum_hessian":[9.316E3,8.988E3,3.28E2,1.308E3,7.68E3,2.57E2,7.1E1,4.42E2,8.66E2,3.158E3,4.522E3,1.41E2,1.16E2,3.22E2,1.2E2,1.11E2,7.55E2,2.276E3,8.82E2,9.59E2,3.563E3,5.2E1,8.9E1,2.5E1,9.1E1],"tree_param":{"num_deleted":"0","num_feature":"2","num_nodes":"25","size_leaf_vector":"1"}},{"base_weights":[-7.684304E-4,1.2240302E-2,-3.5619313E-1,-1.6127475E-1,4.180923E-2,-2.9816452E-1,-5.5918183E-2,-7.947952E-3,-4.2519706E-1,1.5039358E-1,-3.4038596E-2,-3.9189276E-1,-1.8186045E-1,-2.0367723E-2,7.691566E-2,-8.763253E-2,-4.849333E-4,-1.7547915E-3,4.7143336E-2,-4.5813814E-2,8.020652E-3,-1.7003322E-2,-5.1818904E-2,-2.597694E-2,-1.5786596E-2],"categories":[],"categories_nodes":[],"categories_segments":[],"categories_sizes":[],"default_left":[0,0,0,0,0,0,0,0,0,0,0,0,0,0,0,0,0,0,0,0,0,0,0,0,0],"id":40,"left_children":[1,3,5,7,9,11,-1,13,15,17,19,21,23,-1,-1,-1,-1,-1,-1,-1,-1,-1,-1,-1,-1],"loss_changes":[4.308267E1,4.6126198E1,3.7086105E0,5.2967087E1,6.3264957E1,2.7411823E0,0E0,1.26249306E2,9.1208115E1,1.703286E2,2.1918199E2,3.8907356E0,1.777091E-1,0E0,0E0,0E0,0E0,0E0,0E0,0E0,0E0,0E0,0E0,0E0,0E0],"parents":[2147483647,0,0,1,1,2,2,3,3,4,4,5,5,7,7,8,8,9,9,10,10,11,11,12,12],"right_children":[2,4,6,8,10,12,-1,14,16,18,20,22,24,-1,-1,-1,-1,-1,-1,-1,-1,-1,-1,-1,-1],"split_conditions":[2.3E1,2E0,7E0,1.6E1,5E0,5E0,-5.5918183E-2,1.3E1,2E1,4E0,8E0,2E0,6E0,-2.0367723E-2,7.691566E-2,-8.763253E-2,-4.849333E-4,-1.7547915E-3,4.7143336E-2,-4.5813814E-2,8.020652E-3,-1.7003322E-2,-5.1818904E-2,-2.597694E-2,-1.5786596E-2],"split_indices":[1,0,0,1,0,0,0,1,1,0,1,0,0,0,0,0,0,0,0,0,0,0,0,0,0],"split_type":[0,0,0,0,0,0,0,0,0,0,0,0,0,0,0,0,0,0,0,0,0,0,0,0,0],"sum_hessian":[9.316E3,8.988E3,3.28E2,1.308E3,7.68E3,2.57E2,7.1E1,8.28E2,4.8E2,3.158E3,4.522E3,1.41E2,1.16E2,6.62E2,1.66E2,2.31E2,2.49E2,2.074E3,1.084E3,9.59E2,3.563E3,5.2E1,8.9E1,2.5E1,9.1E1],"tree_param":{"num_deleted":"0","num_feature":"2","num_nodes":"25","size_leaf_vector":"1"}},{"base_weights":[-7.119343E-4,2.8394185E-2,-1.433665E-1,-4.3734845E-2,1.4672926E-1,-3.1213534E-1,2.8603032E-2,-1.6171366E-1,-2.4365682E-2,6.688624E-1,3.9063513E-2,-2.5691772E-1,-4.5669645E-1,4.253996E-1,-1.1473428E-1,-3.863823E-2,1.4203197E-2,9.922493E-4,-1.5935907E-2,3.8473185E-2,2.4724476E-1,1.5931096E-2,-4.9064647E-2,-3.1397413E-2,-1.337058E-2,-3.8558286E-2,-4.9978055E-2,1.13793515E-1,-1.8370492E-2,-3.9341073E-2,9.867198E-3],"categories":[],"categories_nodes":[],"categories_segments":[],"categories_sizes":[],"default_left":[0,0,0,0,0,0,0,0,0,0,0,0,0,0,0,0,0,0,0,0,0,0,0,0,0,0,0,0,0,0,0],"id":41,"left_children":[1,3,5,7,9,11,13,15,17,19,21,23,25,27,29,-1,-1,-1,-1,-1,-1,-1,-1,-1,-1,-1,-1,-1,-1,-1,-1],"loss_changes":[3.8689384E1,6.606184E1,4.58364E1,1.0985351E1,1.6474255E2,6.244583E0,4.4582523E1,4.632303E1,1.9127275E1,2.5578806E2,1.549238E2,4.028404E0,4.782753E-1,9.0482834E1,3.4294285E1,0E0,0E0,0E0,0E0,0E0,0E0,0E0,0E0,0E0,0E0,0E0,0E0,0E0,0E0,0E0,0E0],"parents":[2147483647,0,0,1,1,2,2,3,3,4,4,5,5,6,6,7,7,8,8,9,9,10,10,11,11,12,12,13,13,14,14],"right_children":[2,4,6,8,10,12,14,16,18,20,22,24,26,28,30,-1,-1,-1,-1,-1,-1,-1,-1,-1,-1,-1,-1,-1,-1,-1,-1],"split_conditions":[2.1E1,1.5E1,5E0,2E0,1.6E1,4E0,6E0,5E0,7E0,7E0,7E0,3E0,2.2E1,2.2E1,2.2E1,-3.863823E-2,1.4203197E-2,9.922493E-4,-1.5935907E-2,3.8473185E-2,2.4724476E-1,1.5931096E-2,-4.9064647E-2,-3.1397413E-2,-1.337058E-2,-3.8558286E-2,-4.9978055E-2,1.13793515E-1,-1.8370492E-2,-3.9341073E-2,9.867198E-3],"split_indices":[1,1,0,1,1,0,0,0,0,0,0,0,1,1,1,0,0,0,0,0,0,0,0,0,0,0,0,0,0,0,0],"split_type":[0,0,0,0,0,0,0,0,0,0,0,0,0,0,0,0,0,0,0,0,0,0,0,0,0,0,0,0,0,0,0],"sum_hessian":[9.316E3,7.738E3,1.578E3,4.808E3,2.93E3,7.96E2,7.82E2,6.77E2,4.131E3,5E2,2.43E3,5.78E2,2.18E2,2.07E2,5.75E2,3.89E2,2.88E2,3.295E3,8.36E2,4.33E2,6.7E1,1.981E3,4.49E2,3.94E2,1.84E2,8.6E1,1.32E2,9.5E1,1.12E2,2.49E2,3.26E2],"tree_param":{"num_deleted":"0","num_feature":"2","num_nodes":"31","size_leaf_vector":"1"}},{"base_weights":[-6.24872E-4,1.0749705E-2,-3.114013E-1,-1.442682E-1,3.7166536E-2,-2.537192E-1,-5.137704E-2,1.2885037E-1,-2.8365374E-1,1.3654117E-1,-3.2247927E-2,-3.227406E-1,-1.6778114E-1,-1.1910096E-2,7.8967206E-2,-1.3811779E-1,-1.2068236E-2,-1.6131839E-3,4.2839367E-2,-4.1156016E-2,6.993276E-3,-1.2254577E-2,-4.370471E-2,-2.171273E-2,-1.5201178E-2],"categories":[],"categories_nodes":[],"categories_segments":[],"categories_sizes":[],"default_left":[0,0,0,0,0,0,0,0,0,0,0,0,0,0,0,0,0,0,0,0,0,0,0,0,0],"id":42,"left_children":[1,3,5,7,9,11,-1,13,15,17,19,21,23,-1,-1,-1,-1,-1,-1,-1,-1,-1,-1,-1,-1],"loss_changes":[3.2938477E1,3.6816055E1,3.7100887E0,4.9868584E1,5.2988228E1,1.4761944E0,0E0,7.268031E1,1.549093E2,1.4076562E2,1.7533295E2,3.1959085E0,5.803871E-2,0E0,0E0,0E0,0E0,0E0,0E0,0E0,0E0,0E0,0E0,0E0,0E0],"parents":[2147483647,0,0,1,1,2,2,3,3,4,4,5,5,7,7,8,8,9,9,10,10,11,11,12,12],"right_children":[2,4,6,8,10,12,-1,14,16,18,20,22,24,-1,-1,-1,-1,-1,-1,-1,-1,-1,-1,-1,-1],"split_conditions":[2.3E1,2E0,7E0,8E0,5E0,5E0,-5.137704E-2,5E0,1E1,4E0,8E0,2E0,6E0,-1.1910096E-2,7.8967206E-2,-1.3811779E-1,-1.2068236E-2,-1.6131839E-3,4.2839367E-2,-4.1156016E-2,6.993276E-3,-1.2254577E-2,-4.370471E-2,-2.171273E-2,-1.5201178E-2],"split_indices":[1,0,0,1,0,0,0,1,1,0,1,0,0,0,0,0,0,0,0,0,0,0,0,0,0],"split_type":[0,0,0,0,0,0,0,0,0,0,0,0,0,0,0,0,0,0,0,0,0,0,0,0,0],"sum_hessian":[9.316E3,8.988E3,3.28E2,1.308E3,7.68E3,2.57E2,7.1E1,4.42E2,8.66E2,3.158E3,4.522E3,1.41E2,1.16E2,3.22E2,1.2E2,1.11E2,7.55E2,2.074E3,1.084E3,9.59E2,3.563E3,5.2E1,8.9E1,2.5E1,9.1E1],"tree_param":{"num_deleted":"0","num_feature":"2","num_nodes":"25","size_leaf_vector":"1"}},{"base_weights":[-5.857689E-4,3.5401035E-2,-9.33718E-2,-3.553211E-2,2.1435282E-1,-9.634746E-3,-5.2509964E-1,-6.7462444E-2,1.9921193E-2,5.4940224E-1,-1.0213048E-1,-2.0070247E-1,2.7983955E-1,-7.903865E-1,-2.9905292E-1,1.1907874E-2,-2.4901612E-2,-3.6320828E-2,2.7738566E-2,-1.5883291E-3,2.562788E-1,-3.0808035E-2,3.16441E-2,-1.3064995E-2,-3.8760077E-2,3.4654915E-2,-1.5131831E-2,-2.5018224E-2,-1.6823664E-1,-2.228835E-2,-4.631069E-2],"categories":[],"categories_nodes":[],"categories_segments":[],"categories_sizes":[],"default_left":[0,0,0,0,0,0,0,0,0,0,0,0,0,0,0,0,0,0,0,0,0,0,0,0,0,0,0,0,0,0,0],"id":43,"left_children":[1,3,5,7,9,11,13,15,17,19,21,23,25,27,29,-1,-1,-1,-1,-1,-1,-1,-1,-1,-1,-1,-1,-1,-1,-1,-1],"loss_changes":[3.1113447E1,8.523254E1,9.413376E1,8.516361E0,2.0216367E2,1.2074082E2,2.512976E1,1.03392456E2,1.7351376E2,1.0539563E3,8.466434E1,1.7166252E1,2.5018188E1,9.305826E1,2.7708397E0,0E0,0E0,0E0,0E0,0E0,0E0,0E0,0E0,0E0,0E0,0E0,0E0,0E0,0E0,0E0,0E0],"parents":[2147483647,0,0,1,1,2,2,3,3,4,4,5,5,6,6,7,7,8,8,9,9,10,10,11,11,12,12,13,13,14,14],"right_children":[2,4,6,8,10,12,14,16,18,20,22,24,26,28,30,-1,-1,-1,-1,-1,-1,-1,-1,-1,-1,-1,-1,-1,-1,-1,-1],"split_conditions":[1.9E1,1.5E1,7E0,6E0,5E0,5E0,2.1E1,8E0,8E0,4E0,7E0,4E0,2.3E1,2E1,2.3E1,1.1907874E-2,-2.4901612E-2,-3.6320828E-2,2.7738566E-2,-1.5883291E-3,2.562788E-1,-3.0808035E-2,3.16441E-2,-1.3064995E-2,-3.8760077E-2,3.4654915E-2,-1.5131831E-2,-2.5018224E-2,-1.6823664E-1,-2.228835E-2,-4.631069E-2],"split_indices":[1,1,0,0,0,0,1,1,1,0,0,0,1,1,1,0,0,0,0,0,0,0,0,0,0,0,0,0,0,0,0],"split_type":[0,0,0,0,0,0,0,0,0,0,0,0,0,0,0,0,0,0,0,0,0,0,0,0,0,0,0,0,0,0,0],"sum_hessian":[9.316E3,6.713E3,2.603E3,4.808E3,1.905E3,2.181E3,4.22E2,3.051E3,1.757E3,9.25E2,9.8E2,1.314E3,8.67E2,1.93E2,2.29E2,1.505E3,1.546E3,7.06E2,1.051E3,7.23E2,2.02E2,6.57E2,3.23E2,9.57E2,3.57E2,7.51E2,1.16E2,1.21E2,7.2E1,1.58E2,7.1E1],"tree_param":{"num_deleted":"0","num_feature":"2","num_nodes":"31","size_leaf_vector":"1"}},{"base_weights":[-5.3348247E-4,2.4341885E-2,-1.2245238E-1,9.808664E-2,-4.723127E-2,-2.6149115E-1,1.9228792E-2,-2.8239693E-2,5.021394E-1,-3.468744E-1,4.9671605E-2,-2.0891899E-1,-3.992893E-1,3.5130504E-1,-1.0072101E-1,1.7384842E-2,-1.3010593E-2,4.399348E-3,1.2602289E-1,1.8225087E-2,-1.4892705E-1,3.1728107E-2,-1.0018205E-2,-2.617971E-2,-9.488777E-3,-3.5150003E-2,-4.275478E-2,9.841131E-2,-1.8941069E-2,-3.7589237E-2,1.0996266E-2],"categories":[],"categories_nodes":[],"categories_segments":[],"categories_sizes":[],"default_left":[0,0,0,0,0,0,0,0,0,0,0,0,0,0,0,0,0,0,0,0,0,0,0,0,0,0,0,0,0,0,0],"id":44,"left_children":[1,3,5,7,9,11,13,15,17,19,21,23,25,27,29,-1,-1,-1,-1,-1,-1,-1,-1,-1,-1,-1,-1,-1,-1,-1,-1],"loss_changes":[2.8259367E1,4.0852196E1,3.1110031E1,1.9458821E2,1.1407175E2,5.6903267E0,3.1224218E1,5.982482E1,3.1530716E2,5.8056323E2,1.1909538E2,3.466385E0,1.4546967E-1,7.1357605E1,3.343442E1,0E0,0E0,0E0,0E0,0E0,0E0,0E0,0E0,0E0,0E0,0E0,0E0,0E0,0E0,0E0,0E0],"parents":[2147483647,0,0,1,1,2,2,3,3,4,4,5,5,6,6,7,7,8,8,9,9,10,10,11,11,12,12,13,13,14,14],"right_children":[2,4,6,8,10,12,14,16,18,20,22,24,26,28,30,-1,-1,-1,-1,-1,-1,-1,-1,-1,-1,-1,-1,-1,-1,-1,-1],"split_conditions":[2.1E1,5E0,5E0,4E0,8E0,4E0,6E0,8E0,1.5E1,5E0,1.3E1,3E0,2.2E1,2.2E1,2.2E1,1.7384842E-2,-1.3010593E-2,4.399348E-3,1.2602289E-1,1.8225087E-2,-1.4892705E-1,3.1728107E-2,-1.0018205E-2,-2.617971E-2,-9.488777E-3,-3.5150003E-2,-4.275478E-2,9.841131E-2,-1.8941069E-2,-3.7589237E-2,1.0996266E-2],"split_indices":[1,0,0,0,1,0,0,1,1,1,1,0,1,1,1,0,0,0,0,0,0,0,0,0,0,0,0,0,0,0,0],"split_type":[0,0,0,0,0,0,0,0,0,0,0,0,0,0,0,0,0,0,0,0,0,0,0,0,0,0,0,0,0,0,0],"sum_hessian":[9.316E3,7.738E3,1.578E3,3.811E3,3.927E3,7.96E2,7.82E2,2.904E3,9.07E2,9.59E2,2.968E3,5.78E2,2.18E2,2.07E2,5.75E2,9.73E2,1.931E3,5.66E2,3.41E2,6.56E2,3.03E2,1.065E3,1.903E3,3.94E2,1.84E2,8.6E1,1.32E2,9.5E1,1.12E2,2.49E2,3.26E2],"tree_param":{"num_deleted":"0","num_feature":"2","num_nodes":"31","size_leaf_vector":"1"}},{"base_weights":[-4.841392E-4,3.697767E-2,-7.4403524E-2,-3.3038437E-2,2.81651E-1,-1.9514716E-1,5.442811E-2,-1.4463472E-1,-1.4719142E-2,8.481265E-1,-1.8677853E-1,-3.3198687E-1,-1.2874338E-1,2.5463474E-1,-3.5944217E-1,-3.7956994E-2,1.7290635E-2,1.5932607E-3,-1.3540426E-2,3.3518203E-2,2.6824555E-1,3.5593253E-2,-4.583022E-2,-1.3052809E-1,-6.3824193E-3,1.6007518E-2,-2.354846E-2,3.0536642E-2,-1.4082084E-2,-3.9596395E-3,-5.637158E-2],"categories":[],"categories_nodes":[],"categories_segments":[],"categories_sizes":[],"default_left":[0,0,0,0,0,0,0,0,0,0,0,0,0,0,0,0,0,0,0,0,0,0,0,0,0,0,0,0,0,0,0],"id":45,"left_children":[1,3,5,7,9,11,13,15,17,19,21,23,25,27,29,-1,-1,-1,-1,-1,-1,-1,-1,-1,-1,-1,-1,-1,-1,-1,-1],"loss_changes":[2.5802961E1,1.0594787E2,4.876187E1,9.829225E0,3.6528522E2,1.46594925E1,1.2578949E2,5.0645508E1,1.5287293E1,5.852871E2,1.1127172E2,1.3772531E2,3.367196E1,2.0566574E1,3.2319035E1,0E0,0E0,0E0,0E0,0E0,0E0,0E0,0E0,0E0,0E0,0E0,0E0,0E0,0E0,0E0,0E0],"parents":[2147483647,0,0,1,1,2,2,3,3,4,4,5,5,6,6,7,7,8,8,9,9,10,10,11,11,12,12,13,13,14,14],"right_children":[2,4,6,8,10,12,14,16,18,20,22,24,26,28,30,-1,-1,-1,-1,-1,-1,-1,-1,-1,-1,-1,-1,-1,-1,-1,-1],"split_conditions":[1.8E1,1.5E1,5E0,2E0,5E0,2E1,7E0,5E0,7E0,4E0,1.6E1,2E0,2.1E1,2.3E1,2E1,-3.7956994E-2,1.7290635E-2,1.5932607E-3,-1.3540426E-2,3.3518203E-2,2.6824555E-1,3.5593253E-2,-4.583022E-2,-1.3052809E-1,-6.3824193E-3,1.6007518E-2,-2.354846E-2,3.0536642E-2,-1.4082084E-2,-3.9596395E-3,-5.637158E-2],"split_indices":[1,1,0,1,0,1,0,0,0,0,1,0,1,1,1,0,0,0,0,0,0,0,0,0,0,0,0,0,0,0,0],"split_type":[0,0,0,0,0,0,0,0,0,0,0,0,0,0,0,0,0,0,0,0,0,0,0,0,0,0,0,0,0,0,0],"sum_hessian":[9.316E3,6.183E3,3.133E3,4.808E3,1.375E3,1.617E3,1.516E3,6.77E2,4.131E3,6.22E2,7.53E2,5.27E2,1.09E3,1.022E3,4.94E2,3.89E2,2.88E2,3.295E3,8.36E2,4.87E2,1.35E2,2.51E2,5.02E2,1.13E2,4.14E2,2.94E2,7.96E2,9.06E2,1.16E2,1.93E2,3.01E2],"tree_param":{"num_deleted":"0","num_feature":"2","num_nodes":"31","size_leaf_vector":"1"}},{"base_weights":[-4.280236E-4,3.3321977E-2,-6.702329E-2,-2.9741108E-2,2.5369775E-1,-1.7572178E-1,4.895639E-2,-7.7484692E-3,-1.0992707E-1,7.637984E-1,-1.6811448E-1,-2.9904774E-1,-1.1587593E-1,2.2918731E-1,-3.2361975E-1,-3.8800414E-3,1.5566044E-2,5.860431E-2,-1.7844807E-2,3.0173287E-2,2.4161823E-1,-4.1699123E-2,3.2931846E-2,-1.1758975E-1,-5.745759E-3,1.4412202E-2,-2.1196567E-2,2.7486345E-2,-1.2685924E-2,2.587142E-2,-4.233521E-2],"categories":[],"categories_nodes":[],"categories_segments":[],"categories_sizes":[],"default_left":[0,0,0,0,0,0,0,0,0,0,0,0,0,0,0,0,0,0,0,0,0,0,0,0,0,0,0,0,0,0,0],"id":46,"left_children":[1,3,5,7,9,11,13,15,17,19,21,23,25,27,29,-1,-1,-1,-1,-1,-1,-1,-1,-1,-1,-1,-1,-1,-1,-1,-1],"loss_changes":[2.0943035E1,8.595016E1,3.9518368E1,8.479824E0,2.9619778E2,1.1907074E1,1.0194034E2,1.9161009E1,4.9462254E1,4.7493744E2,9.348214E1,1.1178305E2,2.7287151E1,1.667175E1,2.8857887E1,0E0,0E0,0E0,0E0,0E0,0E0,0E0,0E0,0E0,0E0,0E0,0E0,0E0,0E0,0E0,0E0],"parents":[2147483647,0,0,1,1,2,2,3,3,4,4,5,5,6,6,7,7,8,8,9,9,10,10,11,11,12,12,13,13,14,14],"right_children":[2,4,6,8,10,12,14,16,18,20,22,24,26,28,30,-1,-1,-1,-1,-1,-1,-1,-1,-1,-1,-1,-1,-1,-1,-1,-1],"split_conditions":[1.8E1,1.5E1,5E0,1.2E1,5E0,2E1,7E0,1.1E1,2E0,4E0,7E0,2E0,2.1E1,2.3E1,1.9E1,-3.8800414E-3,1.5566044E-2,5.860431E-2,-1.7844807E-2,3.0173287E-2,2.4161823E-1,-4.1699123E-2,3.2931846E-2,-1.1758975E-1,-5.745759E-3,1.4412202E-2,-2.1196567E-2,2.7486345E-2,-1.2685924E-2,2.587142E-2,-4.233521E-2],"split_indices":[1,1,0,1,0,1,0,1,0,0,0,0,1,1,1,0,0,0,0,0,0,0,0,0,0,0,0,0,0,0,0],"split_type":[0,0,0,0,0,0,0,0,0,0,0,0,0,0,0,0,0,0,0,0,0,0,0,0,0,0,0,0,0,0,0],"sum_hessian":[9.316E3,6.183E3,3.133E3,4.808E3,1.375E3,1.617E3,1.516E3,3.774E3,1.034E3,6.22E2,7.53E2,5.27E2,1.09E3,1.022E3,4.94E2,3.172E3,6.02E2,9.2E1,9.42E2,4.87E2,1.35E2,5.02E2,2.51E2,1.13E2,4.14E2,2.94E2,7.96E2,9.06E2,1.16E2,7.2E1,4.22E2],"tree_param":{"num_deleted":"0","num_feature":"2","num_nodes":"31","size_leaf_vector":"1"}},{"base_weights":[-3.6554827E-4,3.349149E-2,-5.4336883E-2,-2.6756085E-2,3.4906566E-1,-1.0950929E-2,-2.764218E-1,-1.2632744E-1,-1.04114255E-2,7.650882E-1,4.3053483E-3,-2.3743919E-1,3.564066E-2,-7.597287E-2,-4.653356E-1,-2.882188E-2,2.4861319E-2,1.671054E-3,-1.1720186E-2,2.5110215E-2,2.1410766E-1,-2.634514E-2,5.7995547E-2,-6.692052E-2,6.644107E-3,1.0563904E-2,-5.0885687E-3,-1.9430771E-2,-1.8853724E-3,-1.409198E-1,-1.6373867E-2],"categories":[],"categories_nodes":[],"categories_segments":[],"categories_sizes":[],"default_left":[0,0,0,0,0,0,0,0,0,0,0,0,0,0,0,0,0,0,0,0,0,0,0,0,0,0,0,0,0,0,0],"id":47,"left_children":[1,3,5,7,9,11,13,15,17,19,21,23,25,27,29,-1,-1,-1,-1,-1,-1,-1,-1,-1,-1,-1,-1,-1,-1,-1,-1],"loss_changes":[1.7026863E1,1.0887537E2,3.460721E1,7.825139E0,1.3166367E2,3.1729122E1,2.219291E1,4.1226013E1,1.1969745E1,2.936737E2,7.768229E1,6.735271E1,1.5110796E1,1.9294633E0,8.57384E1,0E0,0E0,0E0,0E0,0E0,0E0,0E0,0E0,0E0,0E0,0E0,0E0,0E0,0E0,0E0,0E0],"parents":[2147483647,0,0,1,1,2,2,3,3,4,4,5,5,6,6,7,7,8,8,9,9,10,10,11,11,12,12,13,13,14,14],"right_children":[2,4,6,8,10,12,14,16,18,20,22,24,26,28,30,-1,-1,-1,-1,-1,-1,-1,-1,-1,-1,-1,-1,-1,-1,-1,-1],"split_conditions":[1.7E1,1.5E1,7E0,2E0,5E0,2E0,2E1,6E0,7E0,4E0,7E0,2E1,2.1E1,1.8E1,2.1E1,-2.882188E-2,2.4861319E-2,1.671054E-3,-1.1720186E-2,2.5110215E-2,2.1410766E-1,-2.634514E-2,5.7995547E-2,-6.692052E-2,6.644107E-3,1.0563904E-2,-5.0885687E-3,-1.9430771E-2,-1.8853724E-3,-1.409198E-1,-1.6373867E-2],"split_indices":[1,1,0,1,0,0,1,0,0,0,0,1,1,1,1,0,0,0,0,0,0,0,0,0,0,0,0,0,0,0,0],"split_type":[0,0,0,0,0,0,0,0,0,0,0,0,0,0,0,0,0,0,0,0,0,0,0,0,0,0,0,0,0,0,0],"sum_hessian":[9.316E3,5.725E3,3.591E3,4.808E3,9.17E2,3.005E3,5.86E2,6.77E2,4.131E3,4.15E2,5.02E2,5.12E2,2.493E3,2.85E2,3.01E2,4.73E2,2.04E2,3.295E3,8.36E2,3.03E2,1.12E2,3.43E2,1.59E2,2.11E2,3.01E2,1.378E3,1.115E3,9.2E1,1.93E2,7.2E1,2.29E2],"tree_param":{"num_deleted":"0","num_feature":"2","num_nodes":"31","size_leaf_vector":"1"}},{"base_weights":[-3.2640403E-4,2.787308E-2,-5.5969443E-2,-2.4083188E-2,2.0943545E-1,-1.5720995E-1,5.2048426E-2,-3.8812412E-3,-9.774335E-2,6.4583015E-1,-1.5141779E-1,-2.6333773E-1,-1.05704285E-1,2.0419039E-1,-2.6248345E-1,-3.144412E-3,1.4116171E-2,5.2641522E-2,-1.591951E-2,2.6760865E-2,1.9982292E-1,3.4598764E-2,-4.0031392E-2,-9.9300586E-2,-6.226424E-3,1.2012117E-2,-1.8915825E-2,3.286312E-2,9.824928E-3,2.3505704E-2,-3.4772687E-2],"categories":[],"categories_nodes":[],"categories_segments":[],"categories_sizes":[],"default_left":[0,0,0,0,0,0,0,0,0,0,0,0,0,0,0,0,0,0,0,0,0,0,0,0,0,0,0,0,0,0,0],"id":48,"left_children":[1,3,5,7,9,11,13,15,17,19,21,23,25,27,29,-1,-1,-1,-1,-1,-1,-1,-1,-1,-1,-1,-1,-1,-1,-1,-1],"loss_changes":[1.4620912E1,5.8340588E1,3.4280926E1,7.1557903E0,2.1678262E2,8.816444E0,7.264735E1,1.5096139E1,3.978189E1,3.1813376E2,9.348542E1,7.740469E1,2.058374E1,1.345433E1,2.1075703E1,0E0,0E0,0E0,0E0,0E0,0E0,0E0,0E0,0E0,0E0,0E0,0E0,0E0,0E0,0E0,0E0],"parents":[2147483647,0,0,1,1,2,2,3,3,4,4,5,5,6,6,7,7,8,8,9,9,10,10,11,11,12,12,13,13,14,14],"right_children":[2,4,6,8,10,12,14,16,18,20,22,24,26,28,30,-1,-1,-1,-1,-1,-1,-1,-1,-1,-1,-1,-1,-1,-1,-1,-1],"split_conditions":[1.8E1,1.5E1,5E0,1.2E1,5E0,2E1,7E0,1.1E1,2E0,4E0,1.6E1,2E0,2.1E1,2.1E1,1.9E1,-3.144412E-3,1.4116171E-2,5.2641522E-2,-1.591951E-2,2.6760865E-2,1.9982292E-1,3.4598764E-2,-4.0031392E-2,-9.9300586E-2,-6.226424E-3,1.2012117E-2,-1.8915825E-2,3.286312E-2,9.824928E-3,2.3505704E-2,-3.4772687E-2],"split_indices":[1,1,0,1,0,1,0,1,0,0,1,0,1,1,1,0,0,0,0,0,0,0,0,0,0,0,0,0,0,0,0],"split_type":[0,0,0,0,0,0,0,0,0,0,0,0,0,0,0,0,0,0,0,0,0,0,0,0,0,0,0,0,0,0,0],"sum_hessian":[9.316E3,6.183E3,3.133E3,4.808E3,1.375E3,1.617E3,1.516E3,3.774E3,1.034E3,6.22E2,7.53E2,5.27E2,1.09E3,1.022E3,4.94E2,3.172E3,6.02E2,9.2E1,9.42E2,4.87E2,1.35E2,2.51E2,5.02E2,1.13E2,4.14E2,2.94E2,7.96E2,4.69E2,5.53E2,7.2E1,4.22E2],"tree_param":{"num_deleted":"0","num_feature":"2","num_nodes":"31","size_leaf_vector":"1"}},{"base_weights":[-2.7354114E-4,-9.081359E-2,1.5212858E-2,1.08983085E-1,-1.870259E-1,4.5600712E-2,-6.136159E-2,-1.0752582E-1,6.8603593E-1,-1.2029922E0,-4.596742E-2,-1.79014E-2,2.0515004E-1,-3.4389521E-3,-3.130362E-1,-1.6393349E-2,-8.435076E-3,9.323346E-2,5.3318556E-2,-3.0906126E-2,-1.4696567E-1,2.864874E-2,-2.1803414E-2,1.98339E-3,-1.4329326E-2,6.135395E-2,-6.232313E-3,-1.7305912E-2,1.8650834E-2,-5.4879874E-2,-1.12814605E-2],"categories":[],"categories_nodes":[],"categories_segments":[],"categories_sizes":[],"default_left":[0,0,0,0,0,0,0,0,0,0,0,0,0,0,0,0,0,0,0,0,0,0,0,0,0,0,0,0,0,0,0],"id":49,"left_children":[1,3,5,7,9,11,13,15,17,19,21,23,25,27,29,-1,-1,-1,-1,-1,-1,-1,-1,-1,-1,-1,-1,-1,-1,-1,-1],"loss_changes":[1.3065114E1,2.6182747E1,1.8518206E1,5.542089E1,1.316472E2,5.772408E1,3.2959003E1,4.0841413E-1,4.058159E0,2.6244293E1,4.628363E1,1.928925E1,1.7721454E2,5.9282814E1,1.99057E1,0E0,0E0,0E0,0E0,0E0,0E0,0E0,0E0,0E0,0E0,0E0,0E0,0E0,0E0,0E0,0E0],"parents":[2147483647,0,0,1,1,2,2,3,3,4,4,5,5,6,6,7,7,8,8,9,9,10,10,11,11,12,12,13,13,14,14],"right_children":[2,4,6,8,10,12,14,16,18,20,22,24,26,28,30,-1,-1,-1,-1,-1,-1,-1,-1,-1,-1,-1,-1,-1,-1,-1,-1],"split_conditions":[2E0,8E0,1.9E1,5E0,1E1,1.5E1,7E0,1E0,7E0,9E0,1.6E1,1.2E1,5E0,5E0,2.1E1,-1.6393349E-2,-8.435076E-3,9.323346E-2,5.3318556E-2,-3.0906126E-2,-1.4696567E-1,2.864874E-2,-2.1803414E-2,1.98339E-3,-1.4329326E-2,6.135395E-2,-6.232313E-3,-1.7305912E-2,1.8650834E-2,-5.4879874E-2,-1.12814605E-2],"split_indices":[0,1,1,1,1,1,0,1,1,1,1,1,0,0,1,0,0,0,0,0,0,0,0,0,0,0,0,0,0,0,0],"split_type":[0,0,0,0,0,0,0,0,0,0,0,0,0,0,0,0,0,0,0,0,0,0,0,0,0,0,0,0,0,0,0],"sum_hessian":[9.316E3,1.36E3,7.956E3,4.42E2,9.18E2,5.696E3,2.26E3,3.22E2,1.2E2,1.11E2,8.07E2,4.075E3,1.621E3,1.838E3,4.22E2,9.2E1,2.3E2,4.4E1,7.6E1,2.6E1,8.5E1,2.75E2,5.32E2,3.133E3,9.42E2,6.41E2,9.8E2,9.71E2,8.67E2,1.93E2,2.29E2],"tree_param":{"num_deleted":"0","num_feature":"2","num_nodes":"31","size_leaf_vector":"1"}}]},"name":"gbtree"},"learner_model_param":{"base_score":"[1.375E1]","boost_from_average":"1","num_class":"0","num_feature":"2","num_target":"1"},"objective":{"name":"reg:squarederror","reg_loss_param":{"scale_pos_weight":"1"}}},"version":[3,2,1]}