{"learner":{"attributes":{},"feature_names":["day_of_week","hour_of_day"],"feature_types":[],"gradient_booster":{"model":{"cats":{"enc":[],"feature_segments":[],"sorted_idx":[]},"gbtree_model_param":{"num_parallel_tree":"1","num_trees":"50"},"iteration_indptr":[0,1,2,3,4,5,6,7,8,9,10,11,12,13,14,15,16,17,18,19,20,21,22,23,24,25,26,27,28,29,30,31,32,33,34,35,36,37,38,39,40,41,42,43,44,45,46,47,48,49,50],"tree_info":[0,0,0,0,0,0,0,0,0,0,0,0,0,0,0,0,0,0,0,0,0,0,0,0,0,0,0,0,0,0,0,0,0,0,0,0,0,0,0,0,0,0,0,0,0,0,0,0,0,0],"trees":[{"base_weights":[-4.2580453E-7,-1.0483253E1,9.9867094E-1,-1.1543603E1,-8.6263485E0,3.0931756E0,-4.814082E0,-1.1750572E1,-2.2617774E-1,-7.5045304E0,-9.2543983E-1,-4.8168918E-1,3.6586673E0,-2.2973676E0,-7.695301E0,-1.1970624E0,-1.0858066E0,-8.6618483E-1,-7.072641E-1,1.7233592E-1,-6.1499256E-1,4.3676168E-1,5.104621E-2,-4.7667867E-1,-8.34E-2,-1.0392026E0,-6.068751E-1],"categories":[],"categories_nodes":[],"categories_segments":[],"categories_sizes":[],"default_left":[0,0,0,0,0,0,0,0,0,0,0,0,0,0,0,0,0,0,0,0,0,0,0,0,0,0,0],"id":0,"left_children":[1,3,5,7,9,11,13,15,-1,17,-1,19,21,23,25,-1,-1,-1,-1,-1,-1,-1,-1,-1,-1,-1,-1],"loss_changes":[1.7188536E5,2.7121094E3,1.8251572E5,1.7138984E3,2.9903516E2,2.2279305E4,2.877686E4,4.403125E1,0E0,3.520508E1,0E0,1.8833695E4,2.123446E4,7.6606133E3,8.056078E3,0E0,0E0,0E0,0E0,0E0,0E0,0E0,0E0,0E0,0E0,0E0,0E0],"parents":[2147483647,0,0,1,1,2,2,3,3,4,4,5,5,6,6,7,7,9,9,11,11,12,12,13,13,14,14],"right_children":[2,4,6,8,10,12,14,16,-1,18,-1,20,22,24,26,-1,-1,-1,-1,-1,-1,-1,-1,-1,-1,-1,-1],"split_conditions":[4E0,6E0,2E1,3E0,1E0,7E0,2.2E1,5E0,-2.2617774E-1,7E0,-9.2543983E-1,6E0,1.8E1,4E0,4E0,-1.1970624E0,-1.0858066E0,-8.6618483E-1,-7.072641E-1,1.7233592E-1,-6.1499256E-1,4.3676168E-1,5.104621E-2,-4.7667867E-1,-8.34E-2,-1.0392026E0,-6.068751E-1],"split_indices":[1,0,1,1,1,1,1,0,0,0,0,0,1,0,0,0,0,0,0,0,0,0,0,0,0,0,0],"split_type":[0,0,0,0,0,0,0,0,0,0,0,0,0,0,0,0,0,0,0,0,0,0,0,0,0,0,0],"sum_hessian":[1.6416E4,1.427E3,1.4989E4,9.05E2,5.22E2,1.1019E4,3.97E3,8.85E2,2E1,1.92E2,3.3E2,1.505E3,9.514E3,2.12E3,1.85E3,7E2,1.85E2,4.7E1,1.45E2,1.084E3,4.21E2,7.765E3,1.749E3,7.88E2,1.332E3,6.94E2,1.156E3],"tree_param":{"num_deleted":"0","num_feature":"2","num_nodes":"27","size_leaf_vector":"1"}},{"base_weights":[-4.3691418E-4,-9.438434E0,8.986598E-1,-1.0392012E1,-7.7684917E0,2.7838624E0,-4.333229E0,-1.0578091E1,-2.0463696E-1,-6.76223E0,-8.331755E-1,-4.33814E-1,3.2928522E0,-2.067895E0,-6.92666E0,-1.0775268E0,-9.778097E-1,-7.813709E-1,-6.370222E-1,1.5511827E-1,-5.536391E-1,3.9309117E-1,4.594451E-2,-4.290712E-1,-7.5066276E-2,-8.770308E-1,-4.891213E-1],"categories":[],"categories_nodes":[],"categories_segments":[],"categories_sizes":[],"default_left":[0,0,0,0,0,0,0,0,0,0,0,0,0,0,0,0,0,0,0,0,0,0,0,0,0,0,0],"id":1,"left_children":[1,3,5,7,9,11,13,15,-1,17,-1,19,21,23,25,-1,-1,-1,-1,-1,-1,-1,-1,-1,-1,-1,-1],"loss_changes":[1.3931777E5,2.1932344E3,1.47861E5,1.3853359E3,2.4008984E2,1.8049594E4,2.331525E4,3.4398438E1,0E0,2.9777344E1,0E0,1.5262256E4,1.7200188E4,6.206996E3,6.903242E3,0E0,0E0,0E0,0E0,0E0,0E0,0E0,0E0,0E0,0E0,0E0,0E0],"parents":[2147483647,0,0,1,1,2,2,3,3,4,4,5,5,6,6,7,7,9,9,11,11,12,12,13,13,14,14],"right_children":[2,4,6,8,10,12,14,16,-1,18,-1,20,22,24,26,-1,-1,-1,-1,-1,-1,-1,-1,-1,-1,-1,-1],"split_conditions":[4E0,6E0,2E1,3E0,1E0,7E0,2.2E1,5E0,-2.0463696E-1,7E0,-8.331755E-1,6E0,1.8E1,4E0,5E0,-1.0775268E0,-9.778097E-1,-7.813709E-1,-6.370222E-1,1.5511827E-1,-5.536391E-1,3.9309117E-1,4.594451E-2,-4.290712E-1,-7.5066276E-2,-8.770308E-1,-4.891213E-1],"split_indices":[1,0,1,1,1,1,1,0,0,0,0,0,1,0,0,0,0,0,0,0,0,0,0,0,0,0,0],"split_type":[0,0,0,0,0,0,0,0,0,0,0,0,0,0,0,0,0,0,0,0,0,0,0,0,0,0,0],"sum_hessian":[1.6416E4,1.427E3,1.4989E4,9.05E2,5.22E2,1.1019E4,3.97E3,8.85E2,2E1,1.92E2,3.3E2,1.505E3,9.514E3,2.12E3,1.85E3,7E2,1.85E2,4.7E1,1.45E2,1.084E3,4.21E2,7.765E3,1.749E3,7.88E2,1.332E3,9.69E2,8.81E2],"tree_param":{"num_deleted":"0","num_feature":"2","num_nodes":"27","size_leaf_vector":"1"}},{"base_weights":[-7.795971E-4,-8.497749E0,8.0867165E-1,-9.355305E0,-6.9959474E0,2.7689726E0,-3.284103E0,-9.522601E0,-1.8514776E-1,-6.093356E0,-7.501096E-1,1.7345254E-1,3.47682E0,-1.4655007E0,-6.234732E0,-9.699278E-1,-8.805544E-1,-7.048616E-1,-5.737563E-1,1.900271E-1,-3.7880275E-1,3.861475E-1,1.9015688E-1,-3.150969E-1,-4.6807688E-2,-7.8941816E-1,-4.402646E-1],"categories":[],"categories_nodes":[],"categories_segments":[],"categories_sizes":[],"default_left":[0,0,0,0,0,0,0,0,0,0,0,0,0,0,0,0,0,0,0,0,0,0,0,0,0,0,0],"id":2,"left_children":[1,3,5,7,9,11,13,15,-1,17,-1,19,21,23,25,-1,-1,-1,-1,-1,-1,-1,-1,-1,-1,-1,-1],"loss_changes":[1.1292108E5,1.7736484E3,1.2027491E5,1.1197266E3,1.9275195E2,1.8621586E4,2.6042898E4,2.6835938E1,0E0,2.5154297E1,0E0,1.4872164E4,4.8182656E3,5.0503096E3,5.59275E3,0E0,0E0,0E0,0E0,0E0,0E0,0E0,0E0,0E0,0E0,0E0,0E0],"parents":[2147483647,0,0,1,1,2,2,3,3,4,4,5,5,6,6,7,7,9,9,11,11,12,12,13,13,14,14],"right_children":[2,4,6,8,10,12,14,16,-1,18,-1,20,22,24,26,-1,-1,-1,-1,-1,-1,-1,-1,-1,-1,-1,-1],"split_conditions":[4E0,6E0,1.9E1,3E0,1E0,8E0,2.2E1,5E0,-1.8514776E-1,7E0,-7.501096E-1,6E0,7E0,4E0,5E0,-9.699278E-1,-8.805544E-1,-7.048616E-1,-5.737563E-1,1.900271E-1,-3.7880275E-1,3.861475E-1,1.9015688E-1,-3.150969E-1,-4.6807688E-2,-7.8941816E-1,-4.402646E-1],"split_indices":[1,0,1,1,1,1,1,0,0,0,0,0,0,0,0,0,0,0,0,0,0,0,0,0,0,0,0],"split_type":[0,0,0,0,0,0,0,0,0,0,0,0,0,0,0,0,0,0,0,0,0,0,0,0,0,0,0],"sum_hessian":[1.6416E4,1.427E3,1.4989E4,9.05E2,5.22E2,1.0135E4,4.854E3,8.85E2,2E1,1.92E2,3.3E2,2.172E3,7.963E3,3.004E3,1.85E3,7E2,1.85E2,4.7E1,1.45E2,1.513E3,6.59E2,6.399E3,1.564E3,1.116E3,1.888E3,9.69E2,8.81E2],"tree_param":{"num_deleted":"0","num_feature":"2","num_nodes":"27","size_leaf_vector":"1"}},{"base_weights":[-1.0225141E-3,-7.6508207E0,7.277242E-1,-8.422021E0,-6.3002315E0,2.0124965E0,-4.3800516E0,-8.57243E0,-1.675147E-1,-5.4906454E0,-6.753253E-1,2.6305716E0,-1.0426465E-1,-6.5035186E0,-3.1309493E0,-8.730734E-1,-7.929724E-1,-6.3584393E-1,-5.1677364E-1,1.5602039E-2,3.38766E-1,-1.6500434E-1,4.2508986E-2,-4.5289502E-1,-7.690267E-1,-2.1556619E-1,-6.042038E-1],"categories":[],"categories_nodes":[],"categories_segments":[],"categories_sizes":[],"default_left":[0,0,0,0,0,0,0,0,0,0,0,0,0,0,0,0,0,0,0,0,0,0,0,0,0,0,0],"id":3,"left_children":[1,3,5,7,9,11,13,15,-1,17,-1,19,21,23,25,-1,-1,-1,-1,-1,-1,-1,-1,-1,-1,-1,-1],"loss_changes":[9.15265E4,1.4343047E3,9.8378125E4,9.0504297E2,1.5473633E2,1.5671301E4,7.9714023E3,2.0914062E1,0E0,2.1223145E1,0E0,1.7368266E4,2.216563E3,2.5779688E3,5.3785176E3,0E0,0E0,0E0,0E0,0E0,0E0,0E0,0E0,0E0,0E0,0E0,0E0],"parents":[2147483647,0,0,1,1,2,2,3,3,4,4,5,5,6,6,7,7,9,9,11,11,12,12,13,13,14,14],"right_children":[2,4,6,8,10,12,14,16,-1,18,-1,20,22,24,26,-1,-1,-1,-1,-1,-1,-1,-1,-1,-1,-1,-1],"split_conditions":[4E0,6E0,2.1E1,3E0,1E0,1.8E1,4E0,5E0,-1.675147E-1,7E0,-6.753253E-1,8E0,3E0,2.2E1,7E0,-8.730734E-1,-7.929724E-1,-6.3584393E-1,-5.1677364E-1,1.5602039E-2,3.38766E-1,-1.6500434E-1,4.2508986E-2,-4.5289502E-1,-7.690267E-1,-2.1556619E-1,-6.042038E-1],"split_indices":[1,0,1,1,1,1,0,0,0,0,0,1,0,1,0,0,0,0,0,0,0,0,0,0,0,0,0],"split_type":[0,0,0,0,0,0,0,0,0,0,0,0,0,0,0,0,0,0,0,0,0,0,0,0,0,0,0],"sum_hessian":[1.6416E4,1.427E3,1.4989E4,9.05E2,5.22E2,1.1977E4,3.012E3,8.85E2,2E1,1.92E2,3.3E2,9.27E3,2.707E3,1.114E3,1.898E3,7E2,1.85E2,4.7E1,1.45E2,2.172E3,7.098E3,6.9E2,2.017E3,4.2E2,6.94E2,1.423E3,4.75E2],"tree_param":{"num_deleted":"0","num_feature":"2","num_nodes":"27","size_leaf_vector":"1"}},{"base_weights":[-1.25353E-3,-6.888303E0,6.5483105E-1,-7.5818424E0,-5.6737037E0,2.042589E0,-3.1965282E0,-7.7170672E0,-1.515609E-1,-4.947553E0,-6.0799676E-1,-1.495543E0,2.3331795E0,-1.51119E0,-5.1259747E0,-7.858905E-1,-7.141015E-1,-5.735842E-1,-4.6545026E-1,4.511815E-2,-5.073766E-1,2.7506047E-1,3.1985722E-2,-3.2570574E-1,-4.76681E-2,-6.494252E-1,-3.615369E-1],"categories":[],"categories_nodes":[],"categories_segments":[],"categories_sizes":[],"default_left":[0,0,0,0,0,0,0,0,0,0,0,0,0,0,0,0,0,0,0,0,0,0,0,0,0,0,0],"id":4,"left_children":[1,3,5,7,9,11,13,15,-1,17,-1,19,21,23,25,-1,-1,-1,-1,-1,-1,-1,-1,-1,-1,-1,-1],"loss_changes":[7.418451E4,1.1598906E3,8.012439E4,7.314961E2,1.2420703E2,1.133368E4,1.2905035E4,1.6277344E1,0E0,1.7887207E1,0E0,5.832677E3,8.557867E3,3.8292183E3,3.8024062E3,0E0,0E0,0E0,0E0,0E0,0E0,0E0,0E0,0E0,0E0,0E0,0E0],"parents":[2147483647,0,0,1,1,2,2,3,3,4,4,5,5,6,6,7,7,9,9,11,11,12,12,13,13,14,14],"right_children":[2,4,6,8,10,12,14,16,-1,18,-1,20,22,24,26,-1,-1,-1,-1,-1,-1,-1,-1,-1,-1,-1,-1],"split_conditions":[4E0,6E0,2E1,3E0,1E0,5E0,2.2E1,5E0,-1.515609E-1,7E0,-6.0799676E-1,5E0,1.8E1,4E0,5E0,-7.858905E-1,-7.141015E-1,-5.735842E-1,-4.6545026E-1,4.511815E-2,-5.073766E-1,2.7506047E-1,3.1985722E-2,-3.2570574E-1,-4.76681E-2,-6.494252E-1,-3.615369E-1],"split_indices":[1,0,1,1,1,1,1,0,0,0,0,0,1,0,0,0,0,0,0,0,0,0,0,0,0,0,0],"split_type":[0,0,0,0,0,0,0,0,0,0,0,0,0,0,0,0,0,0,0,0,0,0,0,0,0,0,0],"sum_hessian":[1.6416E4,1.427E3,1.4989E4,9.05E2,5.22E2,1.1019E4,3.97E3,8.85E2,2E1,1.92E2,3.3E2,8.36E2,1.0183E4,2.12E3,1.85E3,7E2,1.85E2,4.7E1,1.45E2,5.42E2,2.94E2,8.434E3,1.749E3,7.88E2,1.332E3,9.69E2,8.81E2],"tree_param":{"num_deleted":"0","num_feature":"2","num_nodes":"27","size_leaf_vector":"1"}},{"base_weights":[-1.4228949E-3,-6.201782E0,5.892452E-1,-6.825481E0,-5.1094823E0,1.6356853E0,-3.57101E0,-6.9470534E0,-1.3712655E-1,-4.4581814E0,-5.4738075E-1,2.0325038E0,-5.475959E-1,-5.3273587E0,-2.5378876E0,-7.074136E-1,-6.430752E-1,-5.174207E-1,-4.1922402E-1,-4.7655087E-2,2.4700665E-1,-1.5462802E-1,5.9754113E-3,-3.752199E-1,-6.2738556E-1,-1.5856247E-1,-5.0938994E-1],"categories":[],"categories_nodes":[],"categories_segments":[],"categories_sizes":[],"default_left":[0,0,0,0,0,0,0,0,0,0,0,0,0,0,0,0,0,0,0,0,0,0,0,0,0,0,0],"id":5,"left_children":[1,3,5,7,9,11,13,15,-1,17,-1,19,21,23,25,-1,-1,-1,-1,-1,-1,-1,-1,-1,-1,-1,-1],"loss_changes":[6.0128523E4,9.3797656E2,6.5264176E4,5.9122656E2,9.969629E1,1.0378447E4,5.4536406E3,1.2640625E1,0E0,1.5059814E1,0E0,1.112918E4,1.1179657E3,1.638793E3,4.614079E3,0E0,0E0,0E0,0E0,0E0,0E0,0E0,0E0,0E0,0E0,0E0,0E0],"parents":[2147483647,0,0,1,1,2,2,3,3,4,4,5,5,6,6,7,7,9,9,11,11,12,12,13,13,14,14],"right_children":[2,4,6,8,10,12,14,16,-1,18,-1,20,22,24,26,-1,-1,-1,-1,-1,-1,-1,-1,-1,-1,-1,-1],"split_conditions":[4E0,6E0,2.1E1,3E0,1E0,1.9E1,4E0,5E0,-1.3712655E-1,7E0,-5.4738075E-1,7E0,4E0,2.2E1,2.3E1,-7.074136E-1,-6.430752E-1,-5.174207E-1,-4.1922402E-1,-4.7655087E-2,2.4700665E-1,-1.5462802E-1,5.9754113E-3,-3.752199E-1,-6.2738556E-1,-1.5856247E-1,-5.0938994E-1],"split_indices":[1,0,1,1,1,1,0,0,0,0,0,1,0,1,1,0,0,0,0,0,0,0,0,0,0,0,0],"split_type":[0,0,0,0,0,0,0,0,0,0,0,0,0,0,0,0,0,0,0,0,0,0,0,0,0,0,0],"sum_hessian":[1.6416E4,1.427E3,1.4989E4,9.05E2,5.22E2,1.1977E4,3.012E3,8.85E2,2E1,1.92E2,3.3E2,1.0135E4,1.842E3,1.114E3,1.898E3,7E2,1.85E2,4.7E1,1.45E2,1.505E3,8.63E3,6.96E2,1.146E3,4.2E2,6.94E2,1.384E3,5.14E2],"tree_param":{"num_deleted":"0","num_feature":"2","num_nodes":"27","size_leaf_vector":"1"}},{"base_weights":[-1.5601323E-3,-5.583685E0,5.3021276E-1,-6.1445746E0,-4.601372E0,1.4721212E0,-3.2144635E0,-6.2538724E0,-1.2406683E-1,-4.0172167E0,-4.9280807E-1,1.8867948E0,-3.108374E-1,-1.6713977E0,-4.182249E0,-5.882321E-1,-6.40548E-1,-4.6675655E-1,-3.775888E-1,2.429144E-1,5.6066173E-3,-3.8436237E-1,8.57243E-2,-3.37787E-1,-7.0222385E-2,-5.308993E-1,-2.9383448E-1],"categories":[],"categories_nodes":[],"categories_segments":[],"categories_sizes":[],"default_left":[0,0,0,0,0,0,0,0,0,0,0,0,0,0,0,0,0,0,0,0,0,0,0,0,0,0,0],"id":6,"left_children":[1,3,5,7,9,11,13,15,-1,17,-1,19,21,23,25,-1,-1,-1,-1,-1,-1,-1,-1,-1,-1,-1,-1],"loss_changes":[4.8735562E4,7.585078E2,5.287659E4,4.7784375E2,8.001758E1,8.856471E3,4.492496E3,1.22265625E1,0E0,1.2666504E1,0E0,9.648809E3,9.333488E3,1.9210769E3,2.5786934E3,0E0,0E0,0E0,0E0,0E0,0E0,0E0,0E0,0E0,0E0,0E0,0E0],"parents":[2147483647,0,0,1,1,2,2,3,3,4,4,5,5,6,6,7,7,9,9,11,11,12,12,13,13,14,14],"right_children":[2,4,6,8,10,12,14,16,-1,18,-1,20,22,24,26,-1,-1,-1,-1,-1,-1,-1,-1,-1,-1,-1,-1],"split_conditions":[4E0,6E0,2.1E1,3E0,1E0,7E0,2.2E1,2E0,-1.2406683E-1,7E0,-4.9280807E-1,1.8E1,1E1,4E0,5E0,-5.882321E-1,-6.40548E-1,-4.6675655E-1,-3.775888E-1,2.429144E-1,5.6066173E-3,-3.8436237E-1,8.57243E-2,-3.37787E-1,-7.0222385E-2,-5.308993E-1,-2.9383448E-1],"split_indices":[1,0,1,1,1,0,1,0,0,0,0,1,1,0,0,0,0,0,0,0,0,0,0,0,0,0,0],"split_type":[0,0,0,0,0,0,0,0,0,0,0,0,0,0,0,0,0,0,0,0,0,0,0,0,0,0,0],"sum_hessian":[1.6416E4,1.427E3,1.4989E4,9.05E2,5.22E2,1.1977E4,3.012E3,8.85E2,2E1,1.92E2,3.3E2,9.717E3,2.26E3,1.162E3,1.85E3,2.68E2,6.17E2,4.7E1,1.45E2,7.496E3,2.221E3,5.61E2,1.699E3,4.2E2,7.42E2,9.69E2,8.81E2],"tree_param":{"num_deleted":"0","num_feature":"2","num_nodes":"27","size_leaf_vector":"1"}},{"base_weights":[-1.6463685E-3,-5.0272E0,4.7710565E-1,-5.531611E0,-4.143791E0,1.6590965E0,-1.9906876E0,-5.629872E0,-1.12251E-1,-3.6198692E0,-4.4367608E-1,4.8419473E-1,2.4325454E0,-8.9742255E-1,-3.7644696E0,-5.7480985E-1,-5.1540303E-1,-4.2105326E-1,-3.400885E-1,1.1111218E-1,-2.4952959E-1,2.7158412E-1,7.1327806E-2,-2.0181301E-1,-2.3425275E-2,-5.5982965E-1,-3.1309444E-1],"categories":[],"categories_nodes":[],"categories_segments":[],"categories_sizes":[],"default_left":[0,0,0,0,0,0,0,0,0,0,0,0,0,0,0,0,0,0,0,0,0,0,0,0,0,0,0],"id":7,"left_children":[1,3,5,7,9,11,13,15,-1,17,-1,19,21,23,25,-1,-1,-1,-1,-1,-1,-1,-1,-1,-1,-1,-1],"loss_changes":[3.9501605E4,6.1339844E2,4.3727766E4,3.8619727E2,6.42168E1,9.209676E3,9.411506E3,2.021875E1,0E0,1.0644287E1,0E0,7.5211636E3,2.9749805E3,2.232902E3,2.1329219E3,0E0,0E0,0E0,0E0,0E0,0E0,0E0,0E0,0E0,0E0,0E0,0E0],"parents":[2147483647,0,0,1,1,2,2,3,3,4,4,5,5,6,6,7,7,9,9,11,11,12,12,13,13,14,14],"right_children":[2,4,6,8,10,12,14,16,-1,18,-1,20,22,24,26,-1,-1,-1,-1,-1,-1,-1,-1,-1,-1,-1,-1],"split_conditions":[4E0,6E0,1.9E1,3E0,1E0,1.1E1,2.2E1,5E0,-1.12251E-1,7E0,-4.4367608E-1,7E0,1.8E1,4E0,3E0,-5.7480985E-1,-5.1540303E-1,-4.2105326E-1,-3.400885E-1,1.1111218E-1,-2.4952959E-1,2.7158412E-1,7.1327806E-2,-2.0181301E-1,-2.3425275E-2,-5.5982965E-1,-3.1309444E-1],"split_indices":[1,0,1,1,1,1,1,0,0,0,0,0,1,0,0,0,0,0,0,0,0,0,0,0,0,0,0],"split_type":[0,0,0,0,0,0,0,0,0,0,0,0,0,0,0,0,0,0,0,0,0,0,0,0,0,0,0],"sum_hessian":[1.6416E4,1.427E3,1.4989E4,9.05E2,5.22E2,1.0135E4,4.854E3,8.85E2,2E1,1.92E2,3.3E2,4.024E3,6.111E3,3.004E3,1.85E3,7E2,1.85E2,4.7E1,1.45E2,3.325E3,6.99E2,5.246E3,8.65E2,1.116E3,1.888E3,4.73E2,1.377E3],"tree_param":{"num_deleted":"0","num_feature":"2","num_nodes":"27","size_leaf_vector":"1"}},{"base_weights":[-1.6827605E-3,-4.526166E0,4.293355E-1,-4.979777E0,-3.7317154E0,1.4932072E0,-1.7918452E0,-5.068115E0,-1.0156039E-1,-3.2618258E0,-3.9944255E-1,-6.495533E-1,1.8669187E0,-8.0775553E-1,-3.3884945E0,-4.7236022E-1,-5.209872E-1,-3.7982517E-1,-3.0631253E-1,7.759376E-2,-4.3130794E-1,2.2106364E-1,4.7142267E-2,-2.937045E-1,-5.0395798E-2,-4.3455544E-1,-2.332104E-1],"categories":[],"categories_nodes":[],"categories_segments":[],"categories_sizes":[],"default_left":[0,0,0,0,0,0,0,0,0,0,0,0,0,0,0,0,0,0,0,0,0,0,0,0,0,0,0],"id":8,"left_children":[1,3,5,7,9,11,13,15,-1,17,-1,19,21,23,25,-1,-1,-1,-1,-1,-1,-1,-1,-1,-1,-1,-1],"loss_changes":[3.2017309E4,4.960254E2,3.5424816E4,3.1212305E2,5.1532227E1,8.1178594E3,7.625664E3,1.8660156E1,0E0,8.937256E0,0E0,7.8681646E3,4.138873E3,1.942373E3,1.8612812E3,0E0,0E0,0E0,0E0,0E0,0E0,0E0,0E0,0E0,0E0,0E0,0E0],"parents":[2147483647,0,0,1,1,2,2,3,3,4,4,5,5,6,6,7,7,9,9,11,11,12,12,13,13,14,14],"right_children":[2,4,6,8,10,12,14,16,-1,18,-1,20,22,24,26,-1,-1,-1,-1,-1,-1,-1,-1,-1,-1,-1,-1],"split_conditions":[4E0,6E0,1.9E1,3E0,1E0,7E0,2.2E1,2E0,-1.0156039E-1,7E0,-3.9944255E-1,6E0,7E0,2E0,5E0,-4.7236022E-1,-5.209872E-1,-3.7982517E-1,-3.0631253E-1,7.759376E-2,-4.3130794E-1,2.2106364E-1,4.7142267E-2,-2.937045E-1,-5.0395798E-2,-4.3455544E-1,-2.332104E-1],"split_indices":[1,0,1,1,1,1,1,0,0,0,0,0,0,0,0,0,0,0,0,0,0,0,0,0,0,0,0],"split_type":[0,0,0,0,0,0,0,0,0,0,0,0,0,0,0,0,0,0,0,0,0,0,0,0,0,0,0],"sum_hessian":[1.6416E4,1.427E3,1.4989E4,9.05E2,5.22E2,1.0135E4,4.854E3,8.85E2,2E1,1.92E2,3.3E2,1.505E3,8.63E3,3.004E3,1.85E3,2.68E2,6.17E2,4.7E1,1.45E2,1.084E3,4.21E2,6.924E3,1.706E3,3.74E2,2.63E3,9.69E2,8.81E2],"tree_param":{"num_deleted":"0","num_feature":"2","num_nodes":"27","size_leaf_vector":"1"}},{"base_weights":[-1.7140915E-3,-4.0750766E0,3.8632882E-1,-4.483008E0,-3.3606195E0,1.0841852E0,-2.3880854E0,-4.562425E0,-9.188796E-2,-2.9391983E0,-3.5961896E-1,-1.4126948E0,1.2716564E0,-1.8372929E0,-4.0744057E0,-4.6724555E-1,-4.123213E-1,-3.4263393E-1,-2.758911E-1,2.288779E-3,-4.050351E-1,1.7090355E-1,-9.118109E-3,-3.278524E-1,-9.1087304E-2,-3.512259E-1,-6.4416087E-1],"categories":[],"categories_nodes":[],"categories_segments":[],"categories_sizes":[],"default_left":[0,0,0,0,0,0,0,0,0,0,0,0,0,0,0,0,0,0,0,0,0,0,0,0,0,0,0],"id":9,"left_children":[1,3,5,7,9,11,13,15,-1,17,-1,19,21,23,25,-1,-1,-1,-1,-1,-1,-1,-1,-1,-1,-1,-1],"loss_changes":[2.595093E4,4.0112305E2,2.902537E4,2.522539E2,4.1350586E1,5.608618E3,2.7910254E3,2.3552734E1,0E0,7.4973145E0,0E0,3.1694553E3,6.6416387E3,3.0318882E3,9.6343555E2,0E0,0E0,0E0,0E0,0E0,0E0,0E0,0E0,0E0,0E0,0E0,0E0],"parents":[2147483647,0,0,1,1,2,2,3,3,4,4,5,5,6,6,7,7,9,9,11,11,12,12,13,13,14,14],"right_children":[2,4,6,8,10,12,14,16,-1,18,-1,20,22,24,26,-1,-1,-1,-1,-1,-1,-1,-1,-1,-1,-1,-1],"split_conditions":[4E0,6E0,2.1E1,3E0,1E0,5E0,2.3E1,5E0,-9.188796E-2,7E0,-3.5961896E-1,5E0,1.8E1,4E0,7E0,-4.6724555E-1,-4.123213E-1,-3.4263393E-1,-2.758911E-1,2.288779E-3,-4.050351E-1,1.7090355E-1,-9.118109E-3,-3.278524E-1,-9.1087304E-2,-3.512259E-1,-6.4416087E-1],"split_indices":[1,0,1,1,1,1,1,0,0,0,0,0,1,0,0,0,0,0,0,0,0,0,0,0,0,0,0],"split_type":[0,0,0,0,0,0,0,0,0,0,0,0,0,0,0,0,0,0,0,0,0,0,0,0,0,0,0],"sum_hessian":[1.6416E4,1.427E3,1.4989E4,9.05E2,5.22E2,1.1977E4,3.012E3,8.85E2,2E1,1.92E2,3.3E2,8.36E2,1.1141E4,2.272E3,7.4E2,7E2,1.85E2,4.7E1,1.45E2,5.42E2,2.94E2,8.434E3,2.707E3,8.88E2,1.384E3,6E2,1.4E2],"tree_param":{"num_deleted":"0","num_feature":"2","num_nodes":"27","size_leaf_vector":"1"}},{"base_weights":[-1.7625035E-3,-3.6689339E0,3.4758523E-1,-4.0357795E0,-3.0264277E0,1.1013728E0,-1.744353E0,-4.1071754E0,-8.313668E-2,-2.648483E0,-3.237657E-1,1.4384063E0,-3.1421039E-1,-8.4587294E-1,-2.7729495E0,-3.7874895E-1,-4.2396808E-1,-3.0908433E-1,-2.4849093E-1,-2.8724847E-2,1.6487662E-1,-3.0978766E-1,6.89468E-2,-1.9583017E-1,-1.8679408E-2,-3.6139652E-1,-1.8448792E-1],"categories":[],"categories_nodes":[],"categories_segments":[],"categories_sizes":[],"default_left":[0,0,0,0,0,0,0,0,0,0,0,0,0,0,0,0,0,0,0,0,0,0,0,0,0,0,0],"id":10,"left_children":[1,3,5,7,9,11,13,15,-1,17,-1,19,21,23,25,-1,-1,-1,-1,-1,-1,-1,-1,-1,-1,-1,-1],"loss_changes":[2.103339E4,3.2436523E2,2.363931E4,2.0386133E2,3.3177246E1,5.258082E3,3.6675488E3,2.1473633E1,0E0,6.284668E0,0E0,3.2316133E3,5.9252153E3,1.5547053E3,1.4380781E3,0E0,0E0,0E0,0E0,0E0,0E0,0E0,0E0,0E0,0E0,0E0,0E0],"parents":[2147483647,0,0,1,1,2,2,3,3,4,4,5,5,6,6,7,7,9,9,11,11,12,12,13,13,14,14],"right_children":[2,4,6,8,10,12,14,16,-1,18,-1,20,22,24,26,-1,-1,-1,-1,-1,-1,-1,-1,-1,-1,-1,-1],"split_conditions":[4E0,6E0,2E1,3E0,1E0,7E0,2.2E1,2E0,-8.313668E-2,7E0,-3.237657E-1,6E0,1E1,4E0,5E0,-3.7874895E-1,-4.2396808E-1,-3.0908433E-1,-2.4849093E-1,-2.8724847E-2,1.6487662E-1,-3.0978766E-1,6.89468E-2,-1.9583017E-1,-1.8679408E-2,-3.6139652E-1,-1.8448792E-1],"split_indices":[1,0,1,1,1,0,1,0,0,0,0,1,1,0,0,0,0,0,0,0,0,0,0,0,0,0,0],"split_type":[0,0,0,0,0,0,0,0,0,0,0,0,0,0,0,0,0,0,0,0,0,0,0,0,0,0,0],"sum_hessian":[1.6416E4,1.427E3,1.4989E4,9.05E2,5.22E2,1.1019E4,3.97E3,8.85E2,2E1,1.92E2,3.3E2,8.9E3,2.119E3,2.12E3,1.85E3,2.68E2,6.17E2,4.7E1,1.45E2,9.67E2,7.933E3,5.61E2,1.558E3,7.88E2,1.332E3,9.69E2,8.81E2],"tree_param":{"num_deleted":"0","num_feature":"2","num_nodes":"27","size_leaf_vector":"1"}},{"base_weights":[-1.746729E-3,-3.303278E0,3.1276885E-1,-3.633179E0,-2.7254698E0,1.1067142E0,-1.3448509E0,-3.6973636E0,-7.5218916E-2,-2.3865235E0,-2.9148693E0,1.8807511E-1,1.7114943E0,-6.3535726E-1,-2.4959493E0,-3.7998006E-1,-3.29142E-1,-2.788198E-1,-2.2381201E-1,-2.717982E-1,-3.0668744E-1,6.408917E-2,-1.963719E-1,1.942858E-1,3.0771185E-2,-2.3693609E-1,-3.8796593E-2,-2.1005626E-1,-4.5250154E-1],"categories":[],"categories_nodes":[],"categories_segments":[],"categories_sizes":[],"default_left":[0,0,0,0,0,0,0,0,0,0,0,0,0,0,0,0,0,0,0,0,0,0,0,0,0,0,0,0,0],"id":11,"left_children":[1,3,5,7,9,11,13,15,-1,17,19,21,23,25,27,-1,-1,-1,-1,-1,-1,-1,-1,-1,-1,-1,-1,-1,-1],"loss_changes":[1.7048166E4,2.623037E2,1.972922E4,1.6475098E2,2.6618164E1,5.6309834E3,3.9634785E3,2.4336914E1,0E0,5.264282E0,1.5705566E0,3.9230896E3,1.9844824E3,1.2881582E3,1.4754883E3,0E0,0E0,0E0,0E0,0E0,0E0,0E0,0E0,0E0,0E0,0E0,0E0,0E0,0E0],"parents":[2147483647,0,0,1,1,2,2,3,3,4,4,5,5,6,6,7,7,9,9,10,10,11,11,12,12,13,13,14,14],"right_children":[2,4,6,8,10,12,14,16,-1,18,20,22,24,26,28,-1,-1,-1,-1,-1,-1,-1,-1,-1,-1,-1,-1,-1,-1],"split_conditions":[4E0,6E0,1.9E1,3E0,1E0,1.1E1,2.2E1,5E0,-7.5218916E-2,7E0,7E0,7E0,1.8E1,2E0,7E0,-3.7998006E-1,-3.29142E-1,-2.788198E-1,-2.2381201E-1,-2.717982E-1,-3.0668744E-1,6.408917E-2,-1.963719E-1,1.942858E-1,3.0771185E-2,-2.3693609E-1,-3.8796593E-2,-2.1005626E-1,-4.5250154E-1],"split_indices":[1,0,1,1,1,1,1,0,0,0,0,0,1,0,0,0,0,0,0,0,0,0,0,0,0,0,0,0,0],"split_type":[0,0,0,0,0,0,0,0,0,0,0,0,0,0,0,0,0,0,0,0,0,0,0,0,0,0,0,0,0],"sum_hessian":[1.6416E4,1.427E3,1.4989E4,9.05E2,5.22E2,1.0135E4,4.854E3,8.85E2,2E1,1.92E2,3.3E2,4.024E3,6.111E3,3.004E3,1.85E3,7E2,1.85E2,4.7E1,1.45E2,1.52E2,1.78E2,3.325E3,6.99E2,5.246E3,8.65E2,3.74E2,2.63E3,1.55E3,3E2],"tree_param":{"num_deleted":"0","num_feature":"2","num_nodes":"29","size_leaf_vector":"1"}},{"base_weights":[-1.7372982E-3,-2.3224354E0,3.6946958E-1,-3.0291336E0,-1.2559106E0,1.1942728E0,-1.2105591E0,-3.3284276E0,-2.4656801E0,4.774845E-1,-2.8017347E0,1.6641037E0,4.711202E-1,-8.616792E-1,-3.1463625E0,-3.031581E-1,-3.452252E-1,-2.334106E-1,-3.0115804E-1,-6.805518E-2,5.360626E-2,-2.040383E-1,-4.0620905E-1,1.1821864E-1,2.2146526E-1,-2.0712279E-1,9.666706E-2,-1.816387E-1,-2.6346762E-2,-2.666471E-1,-5.1695436E-1],"categories":[],"categories_nodes":[],"categories_segments":[],"categories_sizes":[],"default_left":[0,0,0,0,0,0,0,0,0,0,0,0,0,0,0,0,0,0,0,0,0,0,0,0,0,0,0,0,0,0,0],"id":12,"left_children":[1,3,5,7,9,11,13,15,17,19,21,23,25,27,29,-1,-1,-1,-1,-1,-1,-1,-1,-1,-1,-1,-1,-1,-1,-1,-1],"loss_changes":[1.4143433E4,1.7025967E3,1.844712E4,2.2131055E2,2.4236272E3,3.1589795E3,3.2761763E3,2.209961E1,2.7160156E1,2.933059E1,4.5038818E2,1.4929844E3,4.618135E3,2.3496687E3,7.056582E2,0E0,0E0,0E0,0E0,0E0,0E0,0E0,0E0,0E0,0E0,0E0,0E0,0E0,0E0,0E0,0E0],"parents":[2147483647,0,0,1,1,2,2,3,3,4,4,5,5,6,6,7,7,8,8,9,9,10,10,11,11,12,12,13,13,14,14],"right_children":[2,4,6,8,10,12,14,16,18,20,22,24,26,28,30,-1,-1,-1,-1,-1,-1,-1,-1,-1,-1,-1,-1,-1,-1,-1,-1],"split_conditions":[5E0,3E0,1.9E1,6E0,4E0,6E0,2.3E1,2E0,2E0,4E0,7E0,1.3E1,9E0,4E0,7E0,-3.031581E-1,-3.452252E-1,-2.334106E-1,-3.0115804E-1,-6.805518E-2,5.360626E-2,-2.040383E-1,-4.0620905E-1,1.1821864E-1,2.2146526E-1,-2.0712279E-1,9.666706E-2,-1.816387E-1,-2.6346762E-2,-2.666471E-1,-5.1695436E-1],"split_indices":[1,1,1,0,0,0,1,0,1,1,0,1,1,0,0,0,0,0,0,0,0,0,0,0,0,0,0,0,0,0,0],"split_type":[0,0,0,0,0,0,0,0,0,0,0,0,0,0,0,0,0,0,0,0,0,0,0,0,0,0,0,0,0,0,0],"sum_hessian":[1.6416E4,2.263E3,1.4153E4,1.36E3,9.03E2,9.299E3,4.854E3,8.85E2,4.75E2,4.26E2,4.77E2,5.636E3,3.663E3,4.114E3,7.4E2,2.68E2,6.17E2,3.87E2,8.8E1,2E1,4.06E2,2.99E2,1.78E2,3.007E3,2.629E3,5.97E2,3.066E3,1.584E3,2.53E3,6E2,1.4E2],"tree_param":{"num_deleted":"0","num_feature":"2","num_nodes":"31","size_leaf_vector":"1"}},{"base_weights":[-1.7201322E-3,-2.09099E0,3.3246872E-1,-2.7270892E0,-1.1310104E0,1.07487E0,-1.0897073E0,-3.0917122E0,-2.3362753E0,4.297024E-1,-2.5228376E0,1.497753E0,4.239785E-1,-4.8790273E-1,-2.066116E0,-2.7295497E-1,-3.3095646E-1,-1.7726445E-1,-2.6450852E-1,-6.1573733E-2,4.8258822E-2,-1.8370247E-1,-3.6581507E-1,1.06400646E-1,1.993271E-1,-1.8644513E-1,8.700356E-2,-2.1350075E-2,-1.7777598E-1,-3.4898463E-1,-1.5748866E-1],"categories":[],"categories_nodes":[],"categories_segments":[],"categories_sizes":[],"default_left":[0,0,0,0,0,0,0,0,0,0,0,0,0,0,0,0,0,0,0,0,0,0,0,0,0,0,0,0,0,0,0],"id":13,"left_children":[1,3,5,7,9,11,13,15,17,19,21,23,25,27,29,-1,-1,-1,-1,-1,-1,-1,-1,-1,-1,-1,-1,-1,-1,-1,-1],"loss_changes":[1.1463221E4,1.3794092E3,1.4945321E4,1.8671973E2,1.9647914E3,2.5591992E3,2.8518252E3,4.6273926E1,1.10361084E2,2.3905533E1,3.6545654E2,1.2094346E3,3.7417246E3,1.0632083E3,1.2890532E3,0E0,0E0,0E0,0E0,0E0,0E0,0E0,0E0,0E0,0E0,0E0,0E0,0E0,0E0,0E0,0E0],"parents":[2147483647,0,0,1,1,2,2,3,3,4,4,5,5,6,6,7,7,8,8,9,9,10,10,11,11,12,12,13,13,14,14],"right_children":[2,4,6,8,10,12,14,16,18,20,22,24,26,28,30,-1,-1,-1,-1,-1,-1,-1,-1,-1,-1,-1,-1,-1,-1,-1,-1],"split_conditions":[5E0,3E0,1.9E1,5E0,4E0,6E0,2.2E1,2E0,1E0,4E0,7E0,1.3E1,9E0,7E0,3E0,-2.7295497E-1,-3.3095646E-1,-1.7726445E-1,-2.6450852E-1,-6.1573733E-2,4.8258822E-2,-1.8370247E-1,-3.6581507E-1,1.06400646E-1,1.993271E-1,-1.8644513E-1,8.700356E-2,-2.1350075E-2,-1.7777598E-1,-3.4898463E-1,-1.5748866E-1],"split_indices":[1,1,1,0,0,0,1,0,1,1,0,1,1,0,0,0,0,0,0,0,0,0,0,0,0,0,0,0,0,0,0],"split_type":[0,0,0,0,0,0,0,0,0,0,0,0,0,0,0,0,0,0,0,0,0,0,0,0,0,0,0,0,0,0,0],"sum_hessian":[1.6416E4,2.263E3,1.4153E4,1.36E3,9.03E2,9.299E3,4.854E3,7E2,6.6E2,4.26E2,4.77E2,5.636E3,3.663E3,3.004E3,1.85E3,2.68E2,4.32E2,2.36E2,4.24E2,2E1,4.06E2,2.99E2,1.78E2,3.007E3,2.629E3,5.97E2,3.066E3,2.478E3,5.26E2,4.73E2,1.377E3],"tree_param":{"num_deleted":"0","num_feature":"2","num_nodes":"31","size_leaf_vector":"1"}},{"base_weights":[-1.6767133E-3,-1.8826016E0,2.9918635E-1,-2.4551485E0,-1.018532E0,1.0733709E0,-8.425175E-1,-2.7834024E0,-2.103316E0,3.8670093E-1,-2.2717035E0,1.5063688E0,4.256697E-1,-3.5574964E-1,-1.8597779E0,-2.4576095E-1,-2.9793724E-1,-1.5961282E-1,-2.3811989E-1,-5.570955E-2,4.3444794E-2,-1.6539346E-1,-3.2943794E-1,9.5764056E-2,2.3115778E-1,-1.6783178E-1,8.774509E-2,-1.3964523E-1,4.4224408E-4,-1.5087077E-1,-3.6626026E-1],"categories":[],"categories_nodes":[],"categories_segments":[],"categories_sizes":[],"default_left":[0,0,0,0,0,0,0,0,0,0,0,0,0,0,0,0,0,0,0,0,0,0,0,0,0,0,0,0,0,0,0],"id":14,"left_children":[1,3,5,7,9,11,13,15,17,19,21,23,25,27,29,-1,-1,-1,-1,-1,-1,-1,-1,-1,-1,-1,-1,-1,-1,-1,-1],"loss_changes":[9.290957E3,1.1175464E3,1.2511477E4,1.5132812E2,1.5928203E3,2.3649824E3,2.8317095E3,3.7433594E1,8.935986E1,1.948412E1,2.9654102E2,2.231292E3,3.2152554E3,1.4506061E3,1.1660054E3,0E0,0E0,0E0,0E0,0E0,0E0,0E0,0E0,0E0,0E0,0E0,0E0,0E0,0E0,0E0,0E0],"parents":[2147483647,0,0,1,1,2,2,3,3,4,4,5,5,6,6,7,7,8,8,9,9,10,10,11,11,12,12,13,13,14,14],"right_children":[2,4,6,8,10,12,14,16,18,20,22,24,26,28,30,-1,-1,-1,-1,-1,-1,-1,-1,-1,-1,-1,-1,-1,-1,-1,-1],"split_conditions":[5E0,3E0,1.8E1,5E0,4E0,6E0,2.2E1,2E0,1E0,4E0,7E0,1.3E1,9E0,3E0,7E0,-2.4576095E-1,-2.9793724E-1,-1.5961282E-1,-2.3811989E-1,-5.570955E-2,4.3444794E-2,-1.6539346E-1,-3.2943794E-1,9.5764056E-2,2.3115778E-1,-1.6783178E-1,8.774509E-2,-1.3964523E-1,4.4224408E-4,-1.5087077E-1,-3.6626026E-1],"split_indices":[1,1,1,0,0,0,1,0,1,1,0,1,1,0,0,0,0,0,0,0,0,0,0,0,0,0,0,0,0,0,0],"split_type":[0,0,0,0,0,0,0,0,0,0,0,0,0,0,0,0,0,0,0,0,0,0,0,0,0,0,0,0,0,0,0],"sum_hessian":[1.6416E4,2.263E3,1.4153E4,1.36E3,9.03E2,8.434E3,5.719E3,7E2,6.6E2,4.26E2,4.77E2,5.054E3,3.38E3,3.869E3,1.85E3,2.68E2,4.32E2,2.36E2,4.24E2,2E1,4.06E2,2.99E2,1.78E2,3.007E3,2.047E3,5.97E2,2.783E3,9.94E2,2.875E3,1.55E3,3E2],"tree_param":{"num_deleted":"0","num_feature":"2","num_nodes":"31","size_leaf_vector":"1"}},{"base_weights":[-1.6222922E-3,-1.6949811E0,2.6923865E-1,-2.2103252E0,-9.172395E-1,9.6606296E-1,-7.583806E-1,-2.4360554E0,-1.78552E0,3.480024E-1,-2.045568E0,1.2051691E0,-3.9781798E-2,-5.07749E-1,-2.4417636E0,-2.2127621E-1,-2.5293076E-1,-1.6819848E-1,-2.2168247E-1,-5.0403852E-2,3.9111014E-2,-1.4890921E-1,-2.9667816E-1,6.5996334E-2,1.5504037E-1,-1.7177753E-1,5.2418947E-2,-1.6070217E-1,-1.1776826E-2,-2.040166E-1,-4.1362214E-1],"categories":[],"categories_nodes":[],"categories_segments":[],"categories_sizes":[],"default_left":[0,0,0,0,0,0,0,0,0,0,0,0,0,0,0,0,0,0,0,0,0,0,0,0,0,0,0,0,0,0,0],"id":15,"left_children":[1,3,5,7,9,11,13,15,17,19,21,23,25,27,29,-1,-1,-1,-1,-1,-1,-1,-1,-1,-1,-1,-1,-1,-1,-1,-1],"loss_changes":[7.530356E3,9.0539404E2,1.0135988E4,1.2615869E2,1.29127E3,2.0286968E3,2.4120789E3,1.28515625E1,1.75271E1,1.5880657E1,2.4062085E2,1.2817217E3,1.5349177E3,2.1347126E3,4.9580518E2,0E0,0E0,0E0,0E0,0E0,0E0,0E0,0E0,0E0,0E0,0E0,0E0,0E0,0E0,0E0,0E0],"parents":[2147483647,0,0,1,1,2,2,3,3,4,4,5,5,6,6,7,7,8,8,9,9,10,10,11,11,12,12,13,13,14,14],"right_children":[2,4,6,8,10,12,14,16,18,20,22,24,26,28,30,-1,-1,-1,-1,-1,-1,-1,-1,-1,-1,-1,-1,-1,-1,-1,-1],"split_conditions":[5E0,3E0,1.8E1,6E0,4E0,7E0,2.3E1,2E0,2E0,4E0,7E0,1.1E1,1E1,3E0,7E0,-2.2127621E-1,-2.5293076E-1,-1.6819848E-1,-2.2168247E-1,-5.0403852E-2,3.9111014E-2,-1.4890921E-1,-2.9667816E-1,6.5996334E-2,1.5504037E-1,-1.7177753E-1,5.2418947E-2,-1.6070217E-1,-1.1776826E-2,-2.040166E-1,-4.1362214E-1],"split_indices":[1,1,1,0,0,0,1,0,1,1,0,1,1,0,0,0,0,0,0,0,0,0,0,0,0,0,0,0,0,0,0],"split_type":[0,0,0,0,0,0,0,0,0,0,0,0,0,0,0,0,0,0,0,0,0,0,0,0,0,0,0,0,0,0,0],"sum_hessian":[1.6416E4,2.263E3,1.4153E4,1.36E3,9.03E2,8.434E3,5.719E3,8.85E2,4.75E2,4.26E2,4.77E2,6.814E3,1.62E3,4.979E3,7.4E2,2.68E2,6.17E2,3.87E2,8.8E1,2E1,4.06E2,2.99E2,1.78E2,2.643E3,4.171E3,4.07E2,1.213E3,1.303E3,3.676E3,6E2,1.4E2],"tree_param":{"num_deleted":"0","num_feature":"2","num_nodes":"31","size_leaf_vector":"1"}},{"base_weights":[-1.5825506E-3,-1.5260664E0,2.4226604E-1,-1.9899276E0,-8.260208E-1,6.4714265E-1,-1.255038E0,-2.26537E0,-1.6948068E0,3.1317568E-1,-1.8419431E0,8.471585E-1,-2.1094486E-1,-1.9885961E0,-4.7959262E-1,-1.9923085E-1,-2.4297765E-1,-1.2539694E-1,-1.9366507E-1,-4.560351E-2,3.5209518E-2,-1.340679E-1,-2.6717606E-1,1.0846845E-1,1.1827148E-2,-1.5464185E-1,1.0969292E-2,-1.66772E-1,-3.1026435E-1,7.2087005E-2,-2.9778677E-1],"categories":[],"categories_nodes":[],"categories_segments":[],"categories_sizes":[],"default_left":[0,0,0,0,0,0,0,0,0,0,0,0,0,0,0,0,0,0,0,0,0,0,0,0,0,0,0,0,0,0,0],"id":16,"left_children":[1,3,5,7,9,11,13,15,17,19,21,23,25,27,29,-1,-1,-1,-1,-1,-1,-1,-1,-1,-1,-1,-1,-1,-1,-1,-1],"loss_changes":[6.1032783E3,7.3353174E2,8.581297E3,1.0679443E2,1.0468079E3,1.9124927E3,1.7129434E3,2.662915E1,6.8043335E1,1.2943806E1,1.9524573E2,1.564271E3,9.023941E2,5.481914E2,4.398806E3,0E0,0E0,0E0,0E0,0E0,0E0,0E0,0E0,0E0,0E0,0E0,0E0,0E0,0E0,0E0,0E0],"parents":[2147483647,0,0,1,1,2,2,3,3,4,4,5,5,6,6,7,7,8,8,9,9,10,10,11,11,12,12,13,13,14,14],"right_children":[2,4,6,8,10,12,14,16,18,20,22,24,26,28,30,-1,-1,-1,-1,-1,-1,-1,-1,-1,-1,-1,-1,-1,-1,-1,-1],"split_conditions":[5E0,3E0,2.1E1,5E0,4E0,7E0,5E0,2E0,1E0,4E0,7E0,1.8E1,1E1,2.3E1,7E0,-1.9923085E-1,-2.4297765E-1,-1.2539694E-1,-1.9366507E-1,-4.560351E-2,3.5209518E-2,-1.340679E-1,-2.6717606E-1,1.0846845E-1,1.1827148E-2,-1.5464185E-1,1.0969292E-2,-1.66772E-1,-3.1026435E-1,7.2087005E-2,-2.9778677E-1],"split_indices":[1,1,1,0,0,0,0,0,1,1,0,1,1,1,0,0,0,0,0,0,0,0,0,0,0,0,0,0,0,0,0],"split_type":[0,0,0,0,0,0,0,0,0,0,0,0,0,0,0,0,0,0,0,0,0,0,0,0,0,0,0,0,0,0,0],"sum_hessian":[1.6416E4,2.263E3,1.4153E4,1.36E3,9.03E2,1.1141E4,3.012E3,7E2,6.6E2,4.26E2,4.77E2,9.035E3,2.106E3,1.547E3,1.465E3,2.68E2,4.32E2,2.36E2,4.24E2,2E1,4.06E2,2.99E2,1.78E2,6.814E3,2.221E3,4.07E2,1.699E3,1.203E3,3.44E2,9.9E2,4.75E2],"tree_param":{"num_deleted":"0","num_feature":"2","num_nodes":"31","size_leaf_vector":"1"}},{"base_weights":[-1.5402384E-3,-1.373978E0,2.1798785E-1,-1.7914944E0,-7.438743E-1,5.8242595E-1,-1.1297675E0,-2.0394638E0,-1.5258089E0,1.4026431E-2,-1.9893545E0,7.6245546E-1,-1.8991838E-1,-1.7900447E0,-4.317875E-1,-1.7938185E-1,-2.1873601E-1,-1.1291017E-1,-1.7434415E-1,2.8183365E-2,-8.2077436E-2,-1.5223865E-1,-2.4060774E-1,9.762315E-2,1.06449295E-2,-1.3921556E-1,9.873024E-3,-1.5010865E-1,-2.7932787E-1,6.488556E-2,-2.6807067E-1],"categories":[],"categories_nodes":[],"categories_segments":[],"categories_sizes":[],"default_left":[0,0,0,0,0,0,0,0,0,0,0,0,0,0,0,0,0,0,0,0,0,0,0,0,0,0,0,0,0,0,0],"id":17,"left_children":[1,3,5,7,9,11,13,15,17,19,21,23,25,27,29,-1,-1,-1,-1,-1,-1,-1,-1,-1,-1,-1,-1,-1,-1,-1,-1],"loss_changes":[4.9465547E3,5.9427734E2,6.9527266E3,8.655322E1,8.5335913E2,1.5493823E3,1.3877993E3,2.1543457E1,5.509973E1,1.2609879E2,6.2888916E1,1.2670898E3,7.3131726E2,4.4456104E2,3.5645278E3,0E0,0E0,0E0,0E0,0E0,0E0,0E0,0E0,0E0,0E0,0E0,0E0,0E0,0E0,0E0,0E0],"parents":[2147483647,0,0,1,1,2,2,3,3,4,4,5,5,6,6,7,7,8,8,9,9,10,10,11,11,12,12,13,13,14,14],"right_children":[2,4,6,8,10,12,14,16,18,20,22,24,26,28,30,-1,-1,-1,-1,-1,-1,-1,-1,-1,-1,-1,-1,-1,-1,-1,-1],"split_conditions":[5E0,3E0,2.1E1,5E0,5E0,7E0,5E0,2E0,1E0,4E0,7E0,1.8E1,1E1,2.3E1,7E0,-1.7938185E-1,-2.1873601E-1,-1.1291017E-1,-1.7434415E-1,2.8183365E-2,-8.2077436E-2,-1.5223865E-1,-2.4060774E-1,9.762315E-2,1.06449295E-2,-1.3921556E-1,9.873024E-3,-1.5010865E-1,-2.7932787E-1,6.488556E-2,-2.6807067E-1],"split_indices":[1,1,1,0,0,0,0,0,1,0,0,1,1,1,0,0,0,0,0,0,0,0,0,0,0,0,0,0,0,0,0],"split_type":[0,0,0,0,0,0,0,0,0,0,0,0,0,0,0,0,0,0,0,0,0,0,0,0,0,0,0,0,0,0,0],"sum_hessian":[1.6416E4,2.263E3,1.4153E4,1.36E3,9.03E2,1.1141E4,3.012E3,7E2,6.6E2,5.62E2,3.41E2,9.035E3,2.106E3,1.547E3,1.465E3,2.68E2,4.32E2,2.36E2,4.24E2,4.26E2,1.36E2,1.63E2,1.78E2,6.814E3,2.221E3,4.07E2,1.699E3,1.203E3,3.44E2,9.9E2,4.75E2],"tree_param":{"num_deleted":"0","num_feature":"2","num_nodes":"31","size_leaf_vector":"1"}},{"base_weights":[-1.495191E-3,-1.2370802E0,1.9614264E-1,-1.6128485E0,-6.699809E-1,5.241811E-1,-1.0170007E0,-1.7829365E0,-1.2928678E0,1.2528252E-2,-1.7915677E0,6.862215E-1,-1.7098774E-1,-2.057427E0,-6.545371E-1,-1.9264951E-1,-1.6563708E-1,-1.2113416E-1,-1.633759E-1,2.5371665E-2,-7.392964E-2,-1.371076E-1,-2.1668139E-1,8.786221E-2,9.58092E-3,-1.2532812E-1,8.886329E-3,-2.5566337E-1,-1.6213721E-1,-1.7879726E-2,-2.4131994E-1],"categories":[],"categories_nodes":[],"categories_segments":[],"categories_sizes":[],"default_left":[0,0,0,0,0,0,0,0,0,0,0,0,0,0,0,0,0,0,0,0,0,0,0,0,0,0,0,0,0,0,0],"id":18,"left_children":[1,3,5,7,9,11,13,15,17,19,21,23,25,27,29,-1,-1,-1,-1,-1,-1,-1,-1,-1,-1,-1,-1,-1,-1,-1,-1],"loss_changes":[4.0092468E3,4.8137305E2,5.633226E3,7.1767334E1,6.920283E2,1.2552129E3,1.1349058E3,1.2907227E1,1.1249817E1,1.02277145E2,5.0992554E1,1.0263662E3,5.926737E2,1.6521094E2,1.8703528E3,0E0,0E0,0E0,0E0,0E0,0E0,0E0,0E0,0E0,0E0,0E0,0E0,0E0,0E0,0E0,0E0],"parents":[2147483647,0,0,1,1,2,2,3,3,4,4,5,5,6,6,7,7,8,8,9,9,10,10,11,11,12,12,13,13,14,14],"right_children":[2,4,6,8,10,12,14,16,18,20,22,24,26,28,30,-1,-1,-1,-1,-1,-1,-1,-1,-1,-1,-1,-1,-1,-1,-1,-1],"split_conditions":[5E0,3E0,2.1E1,6E0,5E0,7E0,3E0,3E0,2E0,4E0,7E0,1.8E1,1E1,2E0,7E0,-1.9264951E-1,-1.6563708E-1,-1.2113416E-1,-1.633759E-1,2.5371665E-2,-7.392964E-2,-1.371076E-1,-2.1668139E-1,8.786221E-2,9.58092E-3,-1.2532812E-1,8.886329E-3,-2.5566337E-1,-1.6213721E-1,-1.7879726E-2,-2.4131994E-1],"split_indices":[1,1,1,0,0,0,0,0,1,0,0,1,1,0,0,0,0,0,0,0,0,0,0,0,0,0,0,0,0,0,0],"split_type":[0,0,0,0,0,0,0,0,0,0,0,0,0,0,0,0,0,0,0,0,0,0,0,0,0,0,0,0,0,0,0],"sum_hessian":[1.6416E4,2.263E3,1.4153E4,1.36E3,9.03E2,1.1141E4,3.012E3,8.85E2,4.75E2,5.62E2,3.41E2,9.035E3,2.106E3,7.77E2,2.235E3,4.08E2,4.77E2,3.87E2,8.8E1,4.26E2,1.36E2,1.63E2,1.78E2,6.814E3,2.221E3,4.07E2,1.699E3,3.6E2,4.17E2,1.76E3,4.75E2],"tree_param":{"num_deleted":"0","num_feature":"2","num_nodes":"31","size_leaf_vector":"1"}},{"base_weights":[-1.451639E-3,-1.1138337E0,1.764793E-1,-1.4520359E0,-6.034277E-1,6.479559E-1,-5.188147E-1,-1.6050472E0,-1.1641786E0,1.1189327E-2,-1.6134452E0,1.5810078E-1,9.4555455E-1,-1.3604158E0,-2.2819886E-1,-1.706438E-1,-1.4549582E-1,-1.0905196E-1,-1.4722188E-1,2.2840453E-2,-6.6590615E-2,-6.972509E-2,-1.7570516E-1,4.5204632E-2,-3.3079535E-2,1.3671951E-1,6.1036933E-2,-9.570541E-2,-2.2042647E-1,1.4103207E-2,-1.4914837E-1],"categories":[],"categories_nodes":[],"categories_segments":[],"categories_sizes":[],"default_left":[0,0,0,0,0,0,0,0,0,0,0,0,0,0,0,0,0,0,0,0,0,0,0,0,0,0,0,0,0,0,0],"id":19,"left_children":[1,3,5,7,9,11,13,15,17,19,21,23,25,27,29,-1,-1,-1,-1,-1,-1,-1,-1,-1,-1,-1,-1,-1,-1,-1,-1],"loss_changes":[3.2495671E3,3.8993628E2,4.6402275E3,5.807715E1,5.6119775E2,1.2295068E3,1.3987023E3,1.1000244E1,9.195007E0,8.295556E1,4.377234E1,4.58437E2,7.407119E2,4.9756274E2,1.983996E3,0E0,0E0,0E0,0E0,0E0,0E0,0E0,0E0,0E0,0E0,0E0,0E0,0E0,0E0,0E0,0E0],"parents":[2147483647,0,0,1,1,2,2,3,3,4,4,5,5,6,6,7,7,8,8,9,9,10,10,11,11,12,12,13,13,14,14],"right_children":[2,4,6,8,10,12,14,16,18,20,22,24,26,28,30,-1,-1,-1,-1,-1,-1,-1,-1,-1,-1,-1,-1,-1,-1,-1,-1],"split_conditions":[5E0,3E0,1.8E1,6E0,5E0,1.1E1,3E0,4E0,2E0,4E0,4E0,6E0,5E0,2.2E1,7E0,-1.706438E-1,-1.4549582E-1,-1.0905196E-1,-1.4722188E-1,2.2840453E-2,-6.6590615E-2,-6.972509E-2,-1.7570516E-1,4.5204632E-2,-3.3079535E-2,1.3671951E-1,6.1036933E-2,-9.570541E-2,-2.2042647E-1,1.4103207E-2,-1.4914837E-1],"split_indices":[1,1,1,0,0,1,0,0,1,0,1,0,0,1,0,0,0,0,0,0,0,0,0,0,0,0,0,0,0,0,0],"split_type":[0,0,0,0,0,0,0,0,0,0,0,0,0,0,0,0,0,0,0,0,0,0,0,0,0,0,0,0,0,0,0],"sum_hessian":[1.6416E4,2.263E3,1.4153E4,1.36E3,9.03E2,8.434E3,5.719E3,8.85E2,4.75E2,5.62E2,3.41E2,3.188E3,5.246E3,1.467E3,4.252E3,5.22E2,3.63E2,3.87E2,8.8E1,4.26E2,1.36E2,4.7E1,2.94E2,1.991E3,1.197E3,2.322E3,2.924E3,9.94E2,4.73E2,3.291E3,9.61E2],"tree_param":{"num_deleted":"0","num_feature":"2","num_nodes":"31","size_leaf_vector":"1"}},{"base_weights":[-1.3735442E-3,1.9071606E-1,-8.559901E-1,-9.4078046E-1,4.5635056E-1,-1.4201589E0,-2.5968096E-1,-2.9169092E-1,-1.4056556E0,6.003953E-1,-1.421269E-1,-1.1632837E0,-2.3124996E-1,5.8780867E-1,-2.0235517E0,-7.540489E-2,3.4610394E-1,-1.1814717E-1,-3.132834E-1,7.684541E-2,1.0623504E-2,-1.0952623E-1,8.670921E-3,-2.1252246E-1,-8.5296355E-2,8.842642E-2,-2.6231823E-2,-1.7017744E-1,-2.7759892E-1],"categories":[],"categories_nodes":[],"categories_segments":[],"categories_sizes":[],"default_left":[0,0,0,0,0,0,0,0,0,0,0,0,0,0,0,0,0,0,0,0,0,0,0,0,0,0,0,0,0],"id":20,"left_children":[1,3,5,7,9,11,13,15,17,19,21,23,-1,25,27,-1,-1,-1,-1,-1,-1,-1,-1,-1,-1,-1,-1,-1,-1],"loss_changes":[2.6952263E3,4.0294968E3,1.01326196E3,7.687395E2,9.360405E2,3.5214282E2,2.1926572E3,1.8504965E3,5.712988E2,7.2667114E2,4.5965652E2,3.5759277E2,0E0,2.4998856E2,1.105238E2,0E0,0E0,0E0,0E0,0E0,0E0,0E0,0E0,0E0,0E0,0E0,0E0,0E0,0E0],"parents":[2147483647,0,0,1,1,2,2,3,3,4,4,5,5,6,6,7,7,8,8,9,9,10,10,11,11,13,13,14,14],"right_children":[2,4,6,8,10,12,14,16,18,20,22,24,-1,26,28,-1,-1,-1,-1,-1,-1,-1,-1,-1,-1,-1,-1,-1,-1],"split_conditions":[2.1E1,6E0,5E0,4E0,7E0,2.3E1,7E0,5E0,5E0,1.8E1,1E1,2E0,-2.3124996E-1,2.3E1,2.3E1,-7.540489E-2,3.4610394E-1,-1.1814717E-1,-3.132834E-1,7.684541E-2,1.0623504E-2,-1.0952623E-1,8.670921E-3,-2.1252246E-1,-8.5296355E-2,8.842642E-2,-2.6231823E-2,-1.7017744E-1,-2.7759892E-1],"split_indices":[1,1,0,0,0,1,0,1,1,1,1,0,0,1,1,0,0,0,0,0,0,0,0,0,0,0,0,0,0],"split_type":[0,0,0,0,0,0,0,0,0,0,0,0,0,0,0,0,0,0,0,0,0,0,0,0,0,0,0,0,0],"sum_hessian":[1.6416E4,1.3404E4,3.012E3,2.548E3,1.0856E4,1.547E3,1.465E3,1.064E3,1.484E3,8.75E3,2.106E3,1.203E3,3.44E2,9.9E2,4.75E2,9.48E2,1.16E2,1.315E3,1.69E2,6.529E3,2.221E3,4.07E2,1.699E3,2.92E2,9.11E2,7.34E2,2.56E2,3.35E2,1.4E2],"tree_param":{"num_deleted":"0","num_feature":"2","num_nodes":"29","size_leaf_vector":"1"}},{"base_weights":[-1.302467E-3,1.7163153E-1,-7.7069473E-1,-8.467655E-1,4.1071436E-1,-1.2784847E0,-2.33976E-1,-2.6226762E-1,-1.2653806E0,5.403659E-1,-1.279619E-1,-1.0472026E0,-2.0819202E-1,5.2909034E-1,-1.8221372E0,-6.787234E-2,3.117893E-1,-1.0634144E-1,-2.821394E-1,6.916207E-2,9.56159E-3,-9.860041E-2,7.80435E-3,-1.9134274E-1,-7.677607E-2,7.9595774E-2,-2.3618845E-2,-1.5321034E-1,-2.500359E-1],"categories":[],"categories_nodes":[],"categories_segments":[],"categories_sizes":[],"default_left":[0,0,0,0,0,0,0,0,0,0,0,0,0,0,0,0,0,0,0,0,0,0,0,0,0,0,0,0,0],"id":21,"left_children":[1,3,5,7,9,11,13,15,17,19,21,23,-1,25,27,-1,-1,-1,-1,-1,-1,-1,-1,-1,-1,-1,-1,-1,-1],"loss_changes":[2.1844812E3,3.2642139E3,8.20865E2,6.233568E2,7.5832385E2,2.8546948E2,1.7775691E3,1.5013032E3,4.6367896E2,5.8861865E2,3.7251306E2,2.899707E2,0E0,2.0257788E2,8.980188E1,0E0,0E0,0E0,0E0,0E0,0E0,0E0,0E0,0E0,0E0,0E0,0E0,0E0,0E0],"parents":[2147483647,0,0,1,1,2,2,3,3,4,4,5,5,6,6,7,7,8,8,9,9,10,10,11,11,13,13,14,14],"right_children":[2,4,6,8,10,12,14,16,18,20,22,24,-1,26,28,-1,-1,-1,-1,-1,-1,-1,-1,-1,-1,-1,-1,-1,-1],"split_conditions":[2.1E1,6E0,5E0,4E0,7E0,2.3E1,7E0,5E0,5E0,1.8E1,1E1,2E0,-2.0819202E-1,2.3E1,2.3E1,-6.787234E-2,3.117893E-1,-1.0634144E-1,-2.821394E-1,6.916207E-2,9.56159E-3,-9.860041E-2,7.80435E-3,-1.9134274E-1,-7.677607E-2,7.9595774E-2,-2.3618845E-2,-1.5321034E-1,-2.500359E-1],"split_indices":[1,1,0,0,0,1,0,1,1,1,1,0,0,1,1,0,0,0,0,0,0,0,0,0,0,0,0,0,0],"split_type":[0,0,0,0,0,0,0,0,0,0,0,0,0,0,0,0,0,0,0,0,0,0,0,0,0,0,0,0,0],"sum_hessian":[1.6416E4,1.3404E4,3.012E3,2.548E3,1.0856E4,1.547E3,1.465E3,1.064E3,1.484E3,8.75E3,2.106E3,1.203E3,3.44E2,9.9E2,4.75E2,9.48E2,1.16E2,1.315E3,1.69E2,6.529E3,2.221E3,4.07E2,1.699E3,2.92E2,9.11E2,7.34E2,2.56E2,3.35E2,1.4E2],"tree_param":{"num_deleted":"0","num_feature":"2","num_nodes":"29","size_leaf_vector":"1"}},{"base_weights":[-1.232034E-3,-1.1140771E0,9.935795E-2,-1.3931173E0,-9.388064E-1,2.9777905E-1,-6.938985E-1,-1.110416E0,-1.6858761E0,-7.1944153E-1,-1.0789076E0,4.21073E-1,-2.2903486E-1,-1.1509439E0,-2.1081516E-1,-1.3573757E-1,-9.310266E-2,-2.0039275E-1,-1.2812579E-1,-1.141813E-1,-5.4888308E-2,-1.3131475E-1,-8.878815E-2,1.07647125E-2,5.861771E-2,-1.4051656E-1,-1.7919704E-4,-9.42705E-2,-1.8743317E-1,4.7623795E-2,-1.6407707E-1],"categories":[],"categories_nodes":[],"categories_segments":[],"categories_sizes":[],"default_left":[0,0,0,0,0,0,0,0,0,0,0,0,0,0,0,0,0,0,0,0,0,0,0,0,0,0,0,0,0,0,0],"id":22,"left_children":[1,3,5,7,9,11,13,15,17,19,21,23,25,27,29,-1,-1,-1,-1,-1,-1,-1,-1,-1,-1,-1,-1,-1,-1,-1,-1],"loss_changes":[1.837847E3,6.525537E1,2.370161E3,4.141327E1,2.5009033E1,7.824547E2,6.6500085E2,1.0653473E1,3.024823E1,2.3146149E1,2.165448E1,5.0504822E2,6.1070337E2,2.3141992E2,1.441061E3,0E0,0E0,0E0,0E0,0E0,0E0,0E0,0E0,0E0,0E0,0E0,0E0,0E0,0E0,0E0,0E0],"parents":[2147483647,0,0,1,1,2,2,3,3,4,4,5,5,6,6,7,7,8,8,9,9,10,10,11,11,12,12,13,13,14,14],"right_children":[2,4,6,8,10,12,14,16,18,20,22,24,26,28,30,-1,-1,-1,-1,-1,-1,-1,-1,-1,-1,-1,-1,-1,-1,-1,-1],"split_conditions":[3E0,4E0,2.1E1,2E0,1E0,7E0,5E0,1E0,3E0,5E0,6E0,1.1E1,8E0,2.3E1,7E0,-1.3573757E-1,-9.310266E-2,-2.0039275E-1,-1.2812579E-1,-1.141813E-1,-5.4888308E-2,-1.3131475E-1,-8.878815E-2,1.07647125E-2,5.861771E-2,-1.4051656E-1,-1.7919704E-4,-9.42705E-2,-1.8743317E-1,4.7623795E-2,-1.6407707E-1],"split_indices":[1,0,1,0,1,0,0,1,0,0,0,1,1,1,0,0,0,0,0,0,0,0,0,0,0,0,0,0,0,0,0],"split_type":[0,0,0,0,0,0,0,0,0,0,0,0,0,0,0,0,0,0,0,0,0,0,0,0,0,0,0,0,0,0,0],"sum_hessian":[1.6416E4,1.36E3,1.5056E4,5.22E2,8.38E2,1.2044E4,3.012E3,2.68E2,2.54E2,3.29E2,5.09E2,9.76E3,2.284E3,1.547E3,1.465E3,1.1E2,1.58E2,1.4E2,1.14E2,9.3E1,2.36E2,2.26E2,2.83E2,3.368E3,6.392E3,3.69E2,1.915E3,1.203E3,3.44E2,9.9E2,4.75E2],"tree_param":{"num_deleted":"0","num_feature":"2","num_nodes":"31","size_leaf_vector":"1"}},{"base_weights":[-1.1953211E-3,-1.0033648E0,8.939071E-2,-1.2548711E0,-8.4538966E-1,3.7515E-1,-3.771319E-1,-1.0002251E0,-1.5185769E0,-6.480098E-1,-9.714485E-1,-2.2293955E-2,6.8503475E-1,-1.0364596E0,-1.4946438E-1,-1.2228608E-1,-8.3850935E-2,-1.804956E-1,-1.1542461E-1,-1.0288465E-1,-4.942264E-2,-1.1824113E-1,-7.994062E-2,2.1066774E-2,-4.3884855E-2,1.0259973E-1,4.1401222E-2,-7.984054E-2,-1.5339856E-1,1.2259514E-2,-1.0803069E-1],"categories":[],"categories_nodes":[],"categories_segments":[],"categories_sizes":[],"default_left":[0,0,0,0,0,0,0,0,0,0,0,0,0,0,0,0,0,0,0,0,0,0,0,0,0,0,0,0,0,0,0],"id":23,"left_children":[1,3,5,7,9,11,13,15,17,19,21,23,25,27,29,-1,-1,-1,-1,-1,-1,-1,-1,-1,-1,-1,-1,-1,-1,-1,-1],"loss_changes":[1.490467E3,5.3014038E1,2.007438E3,3.360138E1,2.0246033E1,1.1501002E3,8.5846E2,8.659607E0,2.4522522E1,1.8818405E1,1.7565002E1,3.9718524E2,4.8444287E2,1.7264233E2,1.0771814E3,0E0,0E0,0E0,0E0,0E0,0E0,0E0,0E0,0E0,0E0,0E0,0E0,0E0,0E0,0E0,0E0],"parents":[2147483647,0,0,1,1,2,2,3,3,4,4,5,5,6,6,7,7,8,8,9,9,10,10,11,11,12,12,13,13,14,14],"right_children":[2,4,6,8,10,12,14,16,18,20,22,24,26,28,30,-1,-1,-1,-1,-1,-1,-1,-1,-1,-1,-1,-1,-1,-1,-1,-1],"split_conditions":[3E0,4E0,1.8E1,2E0,1E0,1.1E1,3E0,1E0,3E0,5E0,6E0,6E0,5E0,2.2E1,7E0,-1.2228608E-1,-8.3850935E-2,-1.804956E-1,-1.1542461E-1,-1.0288465E-1,-4.942264E-2,-1.1824113E-1,-7.994062E-2,2.1066774E-2,-4.3884855E-2,1.0259973E-1,4.1401222E-2,-7.984054E-2,-1.5339856E-1,1.2259514E-2,-1.0803069E-1],"split_indices":[1,0,1,0,1,1,0,1,0,0,0,0,0,1,0,0,0,0,0,0,0,0,0,0,0,0,0,0,0,0,0],"split_type":[0,0,0,0,0,0,0,0,0,0,0,0,0,0,0,0,0,0,0,0,0,0,0,0,0,0,0,0,0,0,0],"sum_hessian":[1.6416E4,1.36E3,1.5056E4,5.22E2,8.38E2,9.337E3,5.719E3,2.68E2,2.54E2,3.29E2,5.09E2,4.091E3,5.246E3,1.467E3,4.252E3,1.1E2,1.58E2,1.4E2,1.14E2,9.3E1,2.36E2,2.26E2,2.83E2,2.624E3,1.467E3,2.322E3,2.924E3,9.94E2,4.73E2,3.291E3,9.61E2],"tree_param":{"num_deleted":"0","num_feature":"2","num_nodes":"31","size_leaf_vector":"1"}},{"base_weights":[-1.140352E-3,9.778906E-2,-7.796944E-1,-6.458604E-1,2.5549474E-1,-1.2185742E0,-2.9614207E-1,-1.2296903E-1,-1.0204283E0,4.7513407E-1,-7.631129E-2,-9.948886E-1,-1.620918E0,3.0487236E-1,-1.4572526E0,-4.8039574E-2,2.77721E-1,-8.2171634E-2,-2.5526908E-1,2.3483356E-2,1.0203754E-1,-9.728445E-2,5.432627E-3,-1.3190548E-1,-6.747421E-2,-1.4887556E-1,-1.7324424E-1,7.589566E-2,-2.7231185E-2,-9.887115E-2,-1.9819182E-1],"categories":[],"categories_nodes":[],"categories_segments":[],"categories_sizes":[],"default_left":[0,0,0,0,0,0,0,0,0,0,0,0,0,0,0,0,0,0,0,0,0,0,0,0,0,0,0,0,0,0,0],"id":24,"left_children":[1,3,5,7,9,11,13,15,17,19,21,23,25,27,29,-1,-1,-1,-1,-1,-1,-1,-1,-1,-1,-1,-1,-1,-1,-1,-1],"loss_changes":[1.2645446E3,1.7085498E3,3.9246082E2,4.9911743E2,8.759528E2,8.568616E1,6.159428E2,1.1053146E3,4.500537E2,9.4731006E2,5.6082776E2,6.407666E1,2.5057983E0,1.5274321E2,7.2034546E1,0E0,0E0,0E0,0E0,0E0,0E0,0E0,0E0,0E0,0E0,0E0,0E0,0E0,0E0,0E0,0E0],"parents":[2147483647,0,0,1,1,2,2,3,3,4,4,5,5,6,6,7,7,8,8,9,9,10,10,11,11,12,12,13,13,14,14],"right_children":[2,4,6,8,10,12,14,16,18,20,22,24,26,28,30,-1,-1,-1,-1,-1,-1,-1,-1,-1,-1,-1,-1,-1,-1,-1,-1],"split_conditions":[2.2E1,6E0,5E0,4E0,1.7E1,2.3E1,7E0,5E0,5E0,1.4E1,2E0,3E0,3E0,2.3E1,2.3E1,-4.8039574E-2,2.77721E-1,-8.2171634E-2,-2.5526908E-1,2.3483356E-2,1.0203754E-1,-9.728445E-2,5.432627E-3,-1.3190548E-1,-6.747421E-2,-1.4887556E-1,-1.7324424E-1,7.589566E-2,-2.7231185E-2,-9.887115E-2,-1.9819182E-1],"split_indices":[1,1,0,0,1,1,0,1,1,1,0,0,0,1,1,0,0,0,0,0,0,0,0,0,0,0,0,0,0,0,0],"split_type":[0,0,0,0,0,0,0,0,0,0,0,0,0,0,0,0,0,0,0,0,0,0,0,0,0,0,0,0,0,0,0],"sum_hessian":[1.6416E4,1.4566E4,1.85E3,2.548E3,1.2018E4,9.69E2,8.81E2,1.064E3,1.484E3,7.231E3,4.787E3,6.25E2,3.44E2,5.81E2,3E2,9.48E2,1.16E2,1.315E3,1.69E2,5.02E3,2.211E3,6.08E2,4.179E3,3.09E2,3.16E2,1.64E2,1.8E2,3.25E2,2.56E2,1.6E2,1.4E2],"tree_param":{"num_deleted":"0","num_feature":"2","num_nodes":"31","size_leaf_vector":"1"}},{"base_weights":[-1.0777744E-3,1.18157625E-1,-5.3156215E-1,-5.813167E-1,2.823689E-1,-8.9483666E-1,-1.476055E-1,-1.1045657E-1,-9.1861284E-1,4.276381E-1,-7.446116E-3,-7.322175E-1,-1.4597601E0,3.9631745E-1,-1.2797064E0,-1.0554256E-1,8.7086014E-2,-7.396072E-2,-2.2989233E-1,2.5195628E-2,1.0488691E-1,1.3905741E-2,-6.55204E-2,-1.404271E-1,-5.1550277E-2,-1.3407825E-1,-1.5601556E-1,6.2008645E-2,-2.4518652E-2,-1.0637994E-1,-1.7851323E-1],"categories":[],"categories_nodes":[],"categories_segments":[],"categories_sizes":[],"default_left":[0,0,0,0,0,0,0,0,0,0,0,0,0,0,0,0,0,0,0,0,0,0,0,0,0,0,0,0,0,0,0],"id":25,"left_children":[1,3,5,7,9,11,13,15,17,19,21,23,25,27,29,-1,-1,-1,-1,-1,-1,-1,-1,-1,-1,-1,-1,-1,-1,-1,-1],"loss_changes":[1.0384795E3,1.5398835E3,4.201261E2,4.0472888E2,4.5709607E2,1.4114185E2,9.032343E2,9.885085E2,3.6521838E2,7.890287E2,3.441942E2,1.7463135E2,2.0290527E0,1.4240877E2,5.0044495E1,0E0,0E0,0E0,0E0,0E0,0E0,0E0,0E0,0E0,0E0,0E0,0E0,0E0,0E0,0E0,0E0],"parents":[2147483647,0,0,1,1,2,2,3,3,4,4,5,5,6,6,7,7,8,8,9,9,10,10,11,11,12,12,13,13,14,14],"right_children":[2,4,6,8,10,12,14,16,18,20,22,24,26,28,30,-1,-1,-1,-1,-1,-1,-1,-1,-1,-1,-1,-1,-1,-1,-1,-1],"split_conditions":[2.1E1,6E0,5E0,4E0,1.7E1,2.3E1,7E0,4E0,5E0,1.5E1,7E0,2E0,3E0,2.3E1,2.3E1,-1.0554256E-1,8.7086014E-2,-7.396072E-2,-2.2989233E-1,2.5195628E-2,1.0488691E-1,1.3905741E-2,-6.55204E-2,-1.404271E-1,-5.1550277E-2,-1.3407825E-1,-1.5601556E-1,6.2008645E-2,-2.4518652E-2,-1.0637994E-1,-1.7851323E-1],"split_indices":[1,1,0,0,1,1,0,1,1,1,0,0,0,1,1,0,0,0,0,0,0,0,0,0,0,0,0,0,0,0,0],"split_type":[0,0,0,0,0,0,0,0,0,0,0,0,0,0,0,0,0,0,0,0,0,0,0,0,0,0,0,0,0,0,0],"sum_hessian":[1.6416E4,1.3404E4,3.012E3,2.548E3,1.0856E4,1.547E3,1.465E3,1.064E3,1.484E3,7.231E3,3.625E3,1.203E3,3.44E2,9.9E2,4.75E2,5.42E2,5.22E2,1.315E3,1.69E2,5.638E3,1.593E3,2.957E3,6.68E2,2.92E2,9.11E2,1.64E2,1.8E2,7.34E2,2.56E2,3.35E2,1.4E2],"tree_param":{"num_deleted":"0","num_feature":"2","num_nodes":"31","size_leaf_vector":"1"}},{"base_weights":[-1.0294535E-3,1.0632349E-1,-4.7864816E-1,-4.713124E-1,2.6808226E-1,-8.056645E-1,-1.3301384E-1,-1.6604863E-1,-1.1143247E0,4.1354802E-1,-6.7157354E-3,-6.591553E-1,-1.314625E0,3.5672343E-1,-1.1523345E0,-8.535761E-2,4.0820565E-2,-7.0994675E-2,-2.6246345E-1,1.7766826E-2,7.7875756E-2,1.2515634E-2,-5.8978137E-2,-1.264323E-1,-4.6400916E-2,-1.11256614E-1,-1.3602115E-1,5.5816192E-2,-2.2076301E-2,-9.577363E-2,-1.6078852E-1],"categories":[],"categories_nodes":[],"categories_segments":[],"categories_sizes":[],"default_left":[0,0,0,0,0,0,0,0,0,0,0,0,0,0,0,0,0,0,0,0,0,0,0,0,0,0,0,0,0,0,0],"id":26,"left_children":[1,3,5,7,9,11,13,15,17,19,21,23,25,27,29,-1,-1,-1,-1,-1,-1,-1,-1,-1,-1,-1,-1,-1,-1,-1,-1],"loss_changes":[8.4181244E2,1.2526584E3,3.404464E2,5.755287E2,4.1864734E2,1.1456384E2,7.322372E2,7.860313E2,5.746715E2,5.8978625E2,2.7887723E2,1.4160114E2,1.6645508E0,1.1540425E2,4.0657166E1,0E0,0E0,0E0,0E0,0E0,0E0,0E0,0E0,0E0,0E0,0E0,0E0,0E0,0E0,0E0,0E0],"parents":[2147483647,0,0,1,1,2,2,3,3,4,4,5,5,6,6,7,7,8,8,9,9,10,10,11,11,12,12,13,13,14,14],"right_children":[2,4,6,8,10,12,14,16,18,20,22,24,26,28,30,-1,-1,-1,-1,-1,-1,-1,-1,-1,-1,-1,-1,-1,-1,-1,-1],"split_conditions":[2.1E1,7E0,5E0,6E0,1.7E1,2.3E1,7E0,4E0,5E0,1.3E1,7E0,2E0,2E0,2.3E1,2.3E1,-8.535761E-2,4.0820565E-2,-7.0994675E-2,-2.6246345E-1,1.7766826E-2,7.7875756E-2,1.2515634E-2,-5.8978137E-2,-1.264323E-1,-4.6400916E-2,-1.11256614E-1,-1.3602115E-1,5.5816192E-2,-2.2076301E-2,-9.577363E-2,-1.6078852E-1],"split_indices":[1,1,0,0,1,1,0,1,1,1,0,0,0,1,1,0,0,0,0,0,0,0,0,0,0,0,0,0,0,0,0],"split_type":[0,0,0,0,0,0,0,0,0,0,0,0,0,0,0,0,0,0,0,0,0,0,0,0,0,0,0,0,0,0,0],"sum_hessian":[1.6416E4,1.3404E4,3.012E3,2.932E3,1.0472E4,1.547E3,1.465E3,1.989E3,9.43E2,6.847E3,3.625E3,1.203E3,3.44E2,9.9E2,4.75E2,9.05E2,1.084E3,7.45E2,1.98E2,4.161E3,2.686E3,2.957E3,6.68E2,2.92E2,9.11E2,6.8E1,2.76E2,7.34E2,2.56E2,3.35E2,1.4E2],"tree_param":{"num_deleted":"0","num_feature":"2","num_nodes":"31","size_leaf_vector":"1"}},{"base_weights":[-9.856687E-4,-4.8044986E-1,8.7135695E-2,-7.599549E-2,-7.701896E-1,3.2788846E-1,-2.5591013E-1,-3.780989E-1,2.3750484E0,-6.08388E-1,-2.0181937E0,5.103412E-1,6.351019E-2,-6.598379E-1,-1.9104134E-2,-8.9186095E-2,2.5205482E-2,2.8263924E-1,2.0537029E-1,-3.5126865E-2,-6.937385E-2,-8.096968E-1,-9.14288E-2,1.13826515E-2,1.0473617E-1,-1.09548464E-1,2.9079024E-2,-1.0022303E-1,-4.9286995E-2,2.4596544E-2,-7.481634E-2],"categories":[],"categories_nodes":[],"categories_segments":[],"categories_sizes":[],"default_left":[0,0,0,0,0,0,0,0,0,0,0,0,0,0,0,0,0,0,0,0,0,0,0,0,0,0,0,0,0,0,0],"id":27,"left_children":[1,3,5,7,9,11,13,15,17,19,21,23,25,27,29,-1,-1,-1,-1,-1,-1,-1,-1,-1,-1,-1,-1,-1,-1,-1,-1],"loss_changes":[6.936772E2,2.9864984E2,1.1455139E3,7.8949725E2,2.9863678E2,3.9309552E2,5.471199E2,3.0746268E2,1.1164734E1,2.8636292E1,1.133364E3,1.0266608E3,8.7723175E2,1.2036035E2,6.972419E2,0E0,0E0,0E0,0E0,0E0,0E0,0E0,0E0,0E0,0E0,0E0,0E0,0E0,0E0,0E0,0E0],"parents":[2147483647,0,0,1,1,2,2,3,3,4,4,5,5,6,6,7,7,8,8,9,9,10,10,11,11,12,12,13,13,14,14],"right_children":[2,4,6,8,10,12,14,16,18,20,22,24,26,28,30,-1,-1,-1,-1,-1,-1,-1,-1,-1,-1,-1,-1,-1,-1,-1,-1],"split_conditions":[6E0,4E0,1.8E1,5E0,5E0,6E0,4E0,3E0,3E0,1E0,5E0,1.3E1,9E0,2E0,7E0,-8.9186095E-2,2.5205482E-2,2.8263924E-1,2.0537029E-1,-3.5126865E-2,-6.937385E-2,-8.096968E-1,-9.14288E-2,1.13826515E-2,1.0473617E-1,-1.09548464E-1,2.9079024E-2,-1.0022303E-1,-4.9286995E-2,2.4596544E-2,-7.481634E-2],"split_indices":[1,0,1,1,1,0,0,1,0,1,0,1,1,0,0,0,0,0,0,0,0,0,0,0,0,0,0,0,0,0,0],"split_type":[0,0,0,0,0,0,0,0,0,0,0,0,0,0,0,0,0,0,0,0,0,0,0,0,0,0,0,0,0,0,0],"sum_hessian":[1.6416E4,2.548E3,1.3868E4,1.064E3,1.484E3,8.149E3,5.719E3,9.48E2,1.16E2,1.315E3,1.69E2,4.821E3,3.328E3,2.113E3,3.606E3,5.22E2,4.26E2,4.5E1,7.1E1,3.29E2,9.86E2,2.5E1,1.44E2,2.774E3,2.047E3,5.45E2,2.783E3,6.91E2,1.422E3,2.645E3,9.61E2],"tree_param":{"num_deleted":"0","num_feature":"2","num_nodes":"31","size_leaf_vector":"1"}},{"base_weights":[-9.3262276E-4,6.9117345E-2,-5.5221134E-1,-4.3263298E-1,1.7552324E-1,-8.7469465E-1,-1.9692674E-1,-6.7997746E-2,-6.938477E-1,3.2217932E-1,-4.602904E-2,-7.215904E-1,-1.1499659E0,2.0461465E-1,-9.7267485E-1,-3.4035645E-2,2.1417151E-1,-5.4762848E-2,-1.8216752E-1,1.8875951E-2,7.939686E-2,-7.627277E-2,5.840051E-3,-9.486187E-2,-4.97299E-2,-1.0125458E-1,-1.268885E-1,5.413093E-2,-2.2327274E-2,-6.1520476E-2,-1.3739514E-1],"categories":[],"categories_nodes":[],"categories_segments":[],"categories_sizes":[],"default_left":[0,0,0,0,0,0,0,0,0,0,0,0,0,0,0,0,0,0,0,0,0,0,0,0,0,0,0,0,0,0,0],"id":28,"left_children":[1,3,5,7,9,11,13,15,17,19,21,23,25,27,29,-1,-1,-1,-1,-1,-1,-1,-1,-1,-1,-1,-1,-1,-1,-1,-1],"loss_changes":[6.340144E2,7.7779626E2,2.1190302E2,2.4274023E2,3.9053607E2,4.0051086E1,2.749376E2,6.416827E2,2.438938E2,4.550758E2,3.584001E2,3.140451E1,4.3531494E0,8.396808E1,4.2331512E1,0E0,0E0,0E0,0E0,0E0,0E0,0E0,0E0,0E0,0E0,0E0,0E0,0E0,0E0,0E0,0E0],"parents":[2147483647,0,0,1,1,2,2,3,3,4,4,5,5,6,6,7,7,8,8,9,9,10,10,11,11,12,12,13,13,14,14],"right_children":[2,4,6,8,10,12,14,16,18,20,22,24,26,28,30,-1,-1,-1,-1,-1,-1,-1,-1,-1,-1,-1,-1,-1,-1,-1,-1],"split_conditions":[2.2E1,6E0,5E0,4E0,1.7E1,2.3E1,7E0,5E0,5E0,1.5E1,2E0,3E0,3E0,2.3E1,2.3E1,-3.4035645E-2,2.1417151E-1,-5.4762848E-2,-1.8216752E-1,1.8875951E-2,7.939686E-2,-7.627277E-2,5.840051E-3,-9.486187E-2,-4.97299E-2,-1.0125458E-1,-1.268885E-1,5.413093E-2,-2.2327274E-2,-6.1520476E-2,-1.3739514E-1],"split_indices":[1,1,0,0,1,1,0,1,1,1,0,0,0,1,1,0,0,0,0,0,0,0,0,0,0,0,0,0,0,0,0],"split_type":[0,0,0,0,0,0,0,0,0,0,0,0,0,0,0,0,0,0,0,0,0,0,0,0,0,0,0,0,0,0,0],"sum_hessian":[1.6416E4,1.4566E4,1.85E3,2.548E3,1.2018E4,9.69E2,8.81E2,1.064E3,1.484E3,7.231E3,4.787E3,6.25E2,3.44E2,5.81E2,3E2,9.48E2,1.16E2,1.315E3,1.69E2,5.638E3,1.593E3,6.08E2,4.179E3,3.09E2,3.16E2,1.64E2,1.8E2,3.25E2,2.56E2,1.6E2,1.4E2],"tree_param":{"num_deleted":"0","num_feature":"2","num_nodes":"31","size_leaf_vector":"1"}},{"base_weights":[-8.738429E-4,6.2203795E-2,-4.9728176E-1,-3.8939205E-1,1.5797345E-1,-7.8760946E-1,-1.7742328E-1,-6.102892E-2,-6.246226E-1,2.4438627E-1,-2.10846E-1,-6.496623E-1,-1.0356307E0,1.8420811E-1,-8.7606794E-1,-3.0635664E-2,1.9293731E-1,-4.9290728E-2,-1.6405796E-1,-8.08037E-3,3.7868276E-2,-7.040934E-3,-1.081154E-1,-8.540627E-2,-4.4772603E-2,-9.1190495E-2,-1.14269786E-1,4.873448E-2,-2.010322E-2,-5.540662E-2,-1.2375305E-1],"categories":[],"categories_nodes":[],"categories_segments":[],"categories_sizes":[],"default_left":[0,0,0,0,0,0,0,0,0,0,0,0,0,0,0,0,0,0,0,0,0,0,0,0,0,0,0,0,0,0,0],"id":29,"left_children":[1,3,5,7,9,11,13,15,17,19,21,23,25,27,29,-1,-1,-1,-1,-1,-1,-1,-1,-1,-1,-1,-1,-1,-1,-1,-1],"loss_changes":[5.14084E2,6.300723E2,1.7175113E2,1.9684921E2,3.831058E2,3.2514587E1,2.2300032E2,5.206315E2,1.9790973E2,4.253073E2,2.788371E2,2.5456299E1,3.5281677E0,6.80642E1,3.4348206E1,0E0,0E0,0E0,0E0,0E0,0E0,0E0,0E0,0E0,0E0,0E0,0E0,0E0,0E0,0E0,0E0],"parents":[2147483647,0,0,1,1,2,2,3,3,4,4,5,5,6,6,7,7,8,8,9,9,10,10,11,11,12,12,13,13,14,14],"right_children":[2,4,6,8,10,12,14,16,18,20,22,24,26,28,30,-1,-1,-1,-1,-1,-1,-1,-1,-1,-1,-1,-1,-1,-1,-1,-1],"split_conditions":[2.2E1,6E0,5E0,4E0,7E0,2.3E1,7E0,5E0,5E0,3E0,2E1,3E0,3E0,2.3E1,2.3E1,-3.0635664E-2,1.9293731E-1,-4.9290728E-2,-1.6405796E-1,-8.08037E-3,3.7868276E-2,-7.040934E-3,-1.081154E-1,-8.540627E-2,-4.4772603E-2,-9.1190495E-2,-1.14269786E-1,4.873448E-2,-2.010322E-2,-5.540662E-2,-1.2375305E-1],"split_indices":[1,1,0,0,0,1,0,1,1,0,1,0,0,1,1,0,0,0,0,0,0,0,0,0,0,0,0,0,0,0,0],"split_type":[0,0,0,0,0,0,0,0,0,0,0,0,0,0,0,0,0,0,0,0,0,0,0,0,0,0,0,0,0,0,0],"sum_hessian":[1.6416E4,1.4566E4,1.85E3,2.548E3,1.2018E4,9.69E2,8.81E2,1.064E3,1.484E3,9.737E3,2.281E3,6.25E2,3.44E2,5.81E2,3E2,9.48E2,1.16E2,1.315E3,1.69E2,2.846E3,6.891E3,1.965E3,3.16E2,3.09E2,3.16E2,1.64E2,1.8E2,3.25E2,2.56E2,1.6E2,1.4E2],"tree_param":{"num_deleted":"0","num_feature":"2","num_nodes":"31","size_leaf_vector":"1"}},{"base_weights":[-8.2464126E-4,7.5793475E-2,-3.417025E-1,-3.504729E-1,1.7586505E-1,-5.799335E-1,-8.9913025E-2,-5.4773647E-2,-5.62304E-1,2.508071E-1,-1.3547517E-1,-4.78379E-1,-9.3266314E-1,2.557004E-1,-8.0926806E-1,-7.1551606E-2,6.313409E-2,-4.4365402E-2,-1.477487E-1,-3.5649918E-3,3.6809E-2,-7.709079E-2,1.710837E-3,-9.1181956E-2,-3.3860225E-2,-7.144954E-2,-9.836412E-2,4.0805157E-2,-1.8100698E-2,-6.78706E-2,-1.1146551E-1],"categories":[],"categories_nodes":[],"categories_segments":[],"categories_sizes":[],"default_left":[0,0,0,0,0,0,0,0,0,0,0,0,0,0,0,0,0,0,0,0,0,0,0,0,0,0,0,0,0,0,0],"id":30,"left_children":[1,3,5,7,9,11,13,15,17,19,21,23,25,27,29,-1,-1,-1,-1,-1,-1,-1,-1,-1,-1,-1,-1,-1,-1,-1,-1],"loss_changes":[4.287956E2,5.718808E2,1.806799E2,1.5963425E2,2.533547E2,5.5005127E1,3.6468204E2,4.8326413E2,1.6059534E2,2.9401617E2,2.043007E2,7.26355E1,3.1342163E0,6.6007935E1,1.8222534E1,0E0,0E0,0E0,0E0,0E0,0E0,0E0,0E0,0E0,0E0,0E0,0E0,0E0,0E0,0E0,0E0],"parents":[2147483647,0,0,1,1,2,2,3,3,4,4,5,5,6,6,7,7,8,8,9,9,10,10,11,11,12,12,13,13,14,14],"right_children":[2,4,6,8,10,12,14,16,18,20,22,24,26,28,30,-1,-1,-1,-1,-1,-1,-1,-1,-1,-1,-1,-1,-1,-1,-1,-1],"split_conditions":[2.1E1,6E0,5E0,4E0,7E0,2.3E1,7E0,4E0,5E0,3E0,1E1,2E0,2E0,2.3E1,2.3E1,-7.1551606E-2,6.313409E-2,-4.4365402E-2,-1.477487E-1,-3.5649918E-3,3.6809E-2,-7.709079E-2,1.710837E-3,-9.1181956E-2,-3.3860225E-2,-7.144954E-2,-9.836412E-2,4.0805157E-2,-1.8100698E-2,-6.78706E-2,-1.1146551E-1],"split_indices":[1,1,0,0,0,1,0,1,1,0,1,0,0,1,1,0,0,0,0,0,0,0,0,0,0,0,0,0,0,0,0],"split_type":[0,0,0,0,0,0,0,0,0,0,0,0,0,0,0,0,0,0,0,0,0,0,0,0,0,0,0,0,0,0,0],"sum_hessian":[1.6416E4,1.3404E4,3.012E3,2.548E3,1.0856E4,1.547E3,1.465E3,1.064E3,1.484E3,8.75E3,2.106E3,1.203E3,3.44E2,9.9E2,4.75E2,5.42E2,5.22E2,1.315E3,1.69E2,2.542E3,6.208E3,4.07E2,1.699E3,2.92E2,9.11E2,6.8E1,2.76E2,7.34E2,2.56E2,3.35E2,1.4E2],"tree_param":{"num_deleted":"0","num_feature":"2","num_nodes":"31","size_leaf_vector":"1"}},{"base_weights":[-7.847178E-4,8.193919E-2,-2.6008055E-1,-2.8181675E-1,1.9405839E-1,-5.157994E-1,1.4996766E-3,-3.8061824E-2,-7.95366E-1,2.7207032E-1,-6.248858E-3,-4.4829535E-1,-8.3988893E-1,3.7901503E-1,-8.232851E-1,-5.6532264E-2,3.847356E-2,-4.3036044E-2,-2.1596813E-1,1.5058584E-2,6.7240216E-2,-8.454087E-2,1.0202101E-2,-5.492347E-2,-1.3621432E-2,-7.345911E-2,-9.3123846E-2,5.062246E-2,-1.6297666E-2,-1.1344862E-1,-7.287183E-2],"categories":[],"categories_nodes":[],"categories_segments":[],"categories_sizes":[],"default_left":[0,0,0,0,0,0,0,0,0,0,0,0,0,0,0,0,0,0,0,0,0,0,0,0,0,0,0,0,0,0,0],"id":31,"left_children":[1,3,5,7,9,11,13,15,17,19,21,23,25,27,29,-1,-1,-1,-1,-1,-1,-1,-1,-1,-1,-1,-1,-1,-1,-1,-1],"loss_changes":[3.5216537E2,5.0769345E2,2.6562485E2,3.6712317E2,1.4868646E2,4.3553223E1,6.118406E2,4.4383734E2,4.6916632E2,3.3294513E2,2.424893E2,5.234326E1,2.6344452E0,9.3022415E1,1.7331146E1,0E0,0E0,0E0,0E0,0E0,0E0,0E0,0E0,0E0,0E0,0E0,0E0,0E0,0E0,0E0,0E0],"parents":[2147483647,0,0,1,1,2,2,3,3,4,4,5,5,6,6,7,7,8,8,9,9,10,10,11,11,12,12,13,13,14,14],"right_children":[2,4,6,8,10,12,14,16,18,20,22,24,26,28,30,-1,-1,-1,-1,-1,-1,-1,-1,-1,-1,-1,-1,-1,-1,-1,-1],"split_conditions":[2E1,7E0,5E0,6E0,1.7E1,2.3E1,7E0,3E0,5E0,1.5E1,2E0,4E0,3E0,2.3E1,2.1E1,-5.6532264E-2,3.847356E-2,-4.3036044E-2,-2.1596813E-1,1.5058584E-2,6.7240216E-2,-8.454087E-2,1.0202101E-2,-5.492347E-2,-1.3621432E-2,-7.345911E-2,-9.3123846E-2,5.062246E-2,-1.6297666E-2,-1.1344862E-1,-7.287183E-2],"split_indices":[1,1,0,0,1,1,0,1,1,1,0,0,0,1,1,0,0,0,0,0,0,0,0,0,0,0,0,0,0,0,0],"split_type":[0,0,0,0,0,0,0,0,0,0,0,0,0,0,0,0,0,0,0,0,0,0,0,0,0,0,0,0,0,0,0],"sum_hessian":[1.6416E4,1.2446E4,3.97E3,2.932E3,9.514E3,2.007E3,1.963E3,1.989E3,9.43E2,6.847E3,2.667E3,1.663E3,3.44E2,1.347E3,6.16E2,8.85E2,1.104E3,7.45E2,1.98E2,5.254E3,1.593E3,3.04E2,2.363E3,1.256E3,4.07E2,1.64E2,1.8E2,1.091E3,2.56E2,1.41E2,4.75E2],"tree_param":{"num_deleted":"0","num_feature":"2","num_nodes":"31","size_leaf_vector":"1"}},{"base_weights":[-7.461436E-4,6.201377E-2,-2.7996814E-1,-2.919635E-1,1.4511463E-1,-4.692416E-1,-7.991681E-2,-4.1175116E-2,-4.716252E-1,2.1128452E-1,-1.2977752E-1,-2.689831E-1,-5.8829355E-1,1.968695E-1,-6.559994E-1,-2.4807274E-2,1.6373466E-1,-3.6541738E-2,-1.2910248E-1,-3.4737543E-3,3.1201294E-2,-6.8128146E-2,2.6597516E-4,-8.265406E-2,-5.0395923E-3,-4.9471676E-2,-7.563829E-2,-5.91265E-3,3.7612423E-2,-5.3838264E-2,-9.316253E-2],"categories":[],"categories_nodes":[],"categories_segments":[],"categories_sizes":[],"default_left":[0,0,0,0,0,0,0,0,0,0,0,0,0,0,0,0,0,0,0,0,0,0,0,0,0,0,0,0,0,0,0],"id":32,"left_children":[1,3,5,7,9,11,13,15,17,19,21,23,25,27,29,-1,-1,-1,-1,-1,-1,-1,-1,-1,-1,-1,-1,-1,-1,-1,-1],"loss_changes":[2.8770804E2,3.943614E2,1.1404796E2,1.148311E2,1.9751169E2,3.6747894E1,2.3388547E2,3.7026166E2,1.2876285E2,2.1687299E2,1.538964E2,7.052392E1,1.4883179E1,4.549774E1,1.4929489E1,0E0,0E0,0E0,0E0,0E0,0E0,0E0,0E0,0E0,0E0,0E0,0E0,0E0,0E0,0E0,0E0],"parents":[2147483647,0,0,1,1,2,2,3,3,4,4,5,5,6,6,7,7,8,8,9,9,10,10,11,11,12,12,13,13,14,14],"right_children":[2,4,6,8,10,12,14,16,18,20,22,24,26,28,30,-1,-1,-1,-1,-1,-1,-1,-1,-1,-1,-1,-1,-1,-1,-1,-1],"split_conditions":[2.1E1,6E0,5E0,4E0,7E0,2.2E1,7E0,5E0,5E0,3E0,1E1,2E0,2.3E1,6E0,2.3E1,-2.4807274E-2,1.6373466E-1,-3.6541738E-2,-1.2910248E-1,-3.4737543E-3,3.1201294E-2,-6.8128146E-2,2.6597516E-4,-8.265406E-2,-5.0395923E-3,-4.9471676E-2,-7.563829E-2,-5.91265E-3,3.7612423E-2,-5.3838264E-2,-9.316253E-2],"split_indices":[1,1,0,0,0,1,0,1,1,0,1,0,1,0,1,0,0,0,0,0,0,0,0,0,0,0,0,0,0,0,0],"split_type":[0,0,0,0,0,0,0,0,0,0,0,0,0,0,0,0,0,0,0,0,0,0,0,0,0,0,0,0,0,0,0],"sum_hessian":[1.6416E4,1.3404E4,3.012E3,2.548E3,1.0856E4,1.547E3,1.465E3,1.064E3,1.484E3,8.75E3,2.106E3,5.78E2,9.69E2,9.9E2,4.75E2,9.48E2,1.16E2,1.315E3,1.69E2,2.542E3,6.208E3,4.07E2,1.699E3,1.62E2,4.16E2,6.25E2,3.44E2,4.08E2,5.82E2,3.35E2,1.4E2],"tree_param":{"num_deleted":"0","num_feature":"2","num_nodes":"31","size_leaf_vector":"1"}},{"base_weights":[-6.953261E-4,6.835836E-2,-2.171422E-1,-2.627776E-1,1.5361921E-1,-4.3087426E-1,1.4887109E-3,-3.692727E-2,-4.2457408E-1,2.6670548E-1,-1.6263338E-2,-3.7876382E-1,-6.809638E-1,3.1842664E-1,-6.909486E-1,-5.664059E-2,5.1286973E-2,-3.2890324E-2,-1.1626815E-1,8.6398673E-4,4.9260177E-2,-9.518679E-2,1.3346009E-2,-4.6612903E-2,-1.0867353E-2,-4.9714472E-2,-7.242943E-2,4.33679E-2,-1.7252278E-2,-1.0221001E-1,-5.9070814E-2],"categories":[],"categories_nodes":[],"categories_segments":[],"categories_sizes":[],"default_left":[0,0,0,0,0,0,0,0,0,0,0,0,0,0,0,0,0,0,0,0,0,0,0,0,0,0,0,0,0,0,0],"id":33,"left_children":[1,3,5,7,9,11,13,15,17,19,21,23,25,27,29,-1,-1,-1,-1,-1,-1,-1,-1,-1,-1,-1,-1,-1,-1,-1,-1],"loss_changes":[2.453908E2,3.514557E2,1.8555927E2,9.312938E1,1.901778E2,2.5910889E1,4.3123874E2,3.1031808E2,1.04481384E2,3.4644928E2,5.544312E2,3.9213913E1,2.387848E0,7.63488E1,1.987738E1,0E0,0E0,0E0,0E0,0E0,0E0,0E0,0E0,0E0,0E0,0E0,0E0,0E0,0E0,0E0,0E0],"parents":[2147483647,0,0,1,1,2,2,3,3,4,4,5,5,6,6,7,7,8,8,9,9,10,10,11,11,12,12,13,13,14,14],"right_children":[2,4,6,8,10,12,14,16,18,20,22,24,26,28,30,-1,-1,-1,-1,-1,-1,-1,-1,-1,-1,-1,-1,-1,-1,-1,-1],"split_conditions":[2E1,6E0,5E0,4E0,6E0,2.3E1,7E0,4E0,5E0,1.3E1,9E0,4E0,2E0,2.3E1,2.1E1,-5.664059E-2,5.1286973E-2,-3.2890324E-2,-1.1626815E-1,8.6398673E-4,4.9260177E-2,-9.518679E-2,1.3346009E-2,-4.6612903E-2,-1.0867353E-2,-4.9714472E-2,-7.242943E-2,4.33679E-2,-1.7252278E-2,-1.0221001E-1,-5.9070814E-2],"split_indices":[1,1,0,0,0,1,0,1,1,1,1,0,0,1,1,0,0,0,0,0,0,0,0,0,0,0,0,0,0,0,0],"split_type":[0,0,0,0,0,0,0,0,0,0,0,0,0,0,0,0,0,0,0,0,0,0,0,0,0,0,0,0,0,0,0],"sum_hessian":[1.6416E4,1.2446E4,3.97E3,2.548E3,9.898E3,2.007E3,1.963E3,1.064E3,1.484E3,5.942E3,3.956E3,1.663E3,3.44E2,1.347E3,6.16E2,5.42E2,5.22E2,1.315E3,1.69E2,2.774E3,3.168E3,5.45E2,3.411E3,1.256E3,4.07E2,6.8E1,2.76E2,1.091E3,2.56E2,1.41E2,4.75E2],"tree_param":{"num_deleted":"0","num_feature":"2","num_nodes":"31","size_leaf_vector":"1"}},{"base_weights":[-6.5641373E-4,8.631304E-2,-1.6331351E-1,-9.829583E-2,2.7811813E-1,-4.1042525E-1,-1.8440334E-2,-3.8003546E-1,3.7828072E-3,5.869876E-1,3.272257E-2,-6.189211E-1,-3.08746E-1,1.2845874E-1,-4.2246997E-1,9.986408E-3,-7.1496594E-1,-2.5764612E-2,6.79469E-2,-1.0458722E-2,9.454997E-2,7.6714836E-2,-9.3469415E-3,-1.1886027E-1,-4.0250283E-2,3.3786104E-3,-4.6311196E-2,-3.096784E-3,3.7663963E-2,-6.523398E-3,-6.2211532E-2],"categories":[],"categories_nodes":[],"categories_segments":[],"categories_sizes":[],"default_left":[0,0,0,0,0,0,0,0,0,0,0,0,0,0,0,0,0,0,0,0,0,0,0,0,0,0,0,0,0,0,0],"id":34,"left_children":[1,3,5,7,9,11,13,15,17,19,21,23,25,27,29,-1,-1,-1,-1,-1,-1,-1,-1,-1,-1,-1,-1,-1,-1,-1,-1],"loss_changes":[2.3225223E2,3.7883197E2,2.0476761E2,1.5679877E2,3.9767828E2,4.462509E1,2.1413542E2,4.711386E3,7.072807E2,5.7605865E2,2.7115674E2,8.483795E1,7.525719E1,1.04704956E2,6.856975E1,0E0,0E0,0E0,0E0,0E0,0E0,0E0,0E0,0E0,0E0,0E0,0E0,0E0,0E0,0E0,0E0],"parents":[2147483647,0,0,1,1,2,2,3,3,4,4,5,5,6,6,7,7,8,8,9,9,10,10,11,11,12,12,13,13,14,14],"right_children":[2,4,6,8,10,12,14,16,18,20,22,24,26,28,30,-1,-1,-1,-1,-1,-1,-1,-1,-1,-1,-1,-1,-1,-1,-1,-1],"split_conditions":[1.8E1,1.1E1,4E0,3E0,5E0,2E0,7E0,1E1,9E0,1.3E1,1.2E1,2E1,2E1,6E0,2E1,9.986408E-3,-7.1496594E-1,-2.5764612E-2,6.79469E-2,-1.0458722E-2,9.454997E-2,7.6714836E-2,-9.3469415E-3,-1.1886027E-1,-4.0250283E-2,3.3786104E-3,-4.6311196E-2,-3.096784E-3,3.7663963E-2,-6.523398E-3,-6.2211532E-2],"split_indices":[1,1,0,0,0,0,0,1,1,1,1,1,1,0,1,0,0,0,0,0,0,0,0,0,0,0,0,0,0,0,0],"split_type":[0,0,0,0,0,0,0,0,0,0,0,0,0,0,0,0,0,0,0,0,0,0,0,0,0,0,0,0,0,0,0],"sum_hessian":[1.6416E4,1.0697E4,5.719E3,5.451E3,5.246E3,2.113E3,3.606E3,1.449E3,4.002E3,2.322E3,2.924E3,6.91E2,1.422E3,2.645E3,9.61E2,1.354E3,9.5E1,2.886E3,1.116E3,7.93E2,1.529E3,4.28E2,2.496E3,1.89E2,5.02E2,4.42E2,9.8E2,1.611E3,1.034E3,3.45E2,6.16E2],"tree_param":{"num_deleted":"0","num_feature":"2","num_nodes":"31","size_leaf_vector":"1"}},{"base_weights":[-6.365435E-4,8.815784E-2,-1.3146035E-1,-8.858803E-2,3.1073356E-1,-5.163944E-1,-7.817276E-2,-3.4251842E-1,3.414891E-3,9.593759E-1,2.3411588E-1,-7.687769E-1,-3.623326E-1,1.0089115E-2,-4.398701E-1,8.988472E-3,-6.442141E-1,-2.3189053E-2,6.115826E-2,1.7951967E-2,2.1050051E-1,5.884949E-2,1.4598816E-2,-2.6816389E-2,-1.0703682E-1,1.7655319E-2,-5.747934E-2,-2.0184375E-2,1.2717149E-2,-7.50646E-2,-3.8029436E-2],"categories":[],"categories_nodes":[],"categories_segments":[],"categories_sizes":[],"default_left":[0,0,0,0,0,0,0,0,0,0,0,0,0,0,0,0,0,0,0,0,0,0,0,0,0,0,0,0,0,0,0],"id":35,"left_children":[1,3,5,7,9,11,13,15,17,19,21,23,25,27,29,-1,-1,-1,-1,-1,-1,-1,-1,-1,-1,-1,-1,-1,-1,-1,-1],"loss_changes":[1.9071834E2,3.8476624E2,1.3611966E2,1.2737263E2,2.149158E2,3.1099625E1,1.861857E2,3.8249482E3,5.7299176E2,4.0791772E2,1.20870255E2,4.5762024E1,5.7691E1,1.1637665E2,2.089537E1,0E0,0E0,0E0,0E0,0E0,0E0,0E0,0E0,0E0,0E0,0E0,0E0,0E0,0E0,0E0,0E0],"parents":[2147483647,0,0,1,1,2,2,3,3,4,4,5,5,6,6,7,7,8,8,9,9,10,10,11,11,12,12,13,13,14,14],"right_children":[2,4,6,8,10,12,14,16,18,20,22,24,26,28,30,-1,-1,-1,-1,-1,-1,-1,-1,-1,-1,-1,-1,-1,-1,-1,-1],"split_conditions":[1.7E1,1.1E1,2E0,3E0,2E0,2E1,7E0,1E1,9E0,1.4E1,1.2E1,1.8E1,2.1E1,4E0,1.8E1,8.988472E-3,-6.442141E-1,-2.3189053E-2,6.115826E-2,1.7951967E-2,2.1050051E-1,5.884949E-2,1.4598816E-2,-2.6816389E-2,-1.0703682E-1,1.7655319E-2,-5.747934E-2,-2.0184375E-2,1.2717149E-2,-7.50646E-2,-3.8029436E-2],"split_indices":[1,1,0,0,0,1,0,1,1,1,1,1,1,0,1,0,0,0,0,0,0,0,0,0,0,0,0,0,0,0,0],"split_type":[0,0,0,0,0,0,0,0,0,0,0,0,0,0,0,0,0,0,0,0,0,0,0,0,0,0,0,0,0,0,0],"sum_hessian":[1.6416E4,9.779E3,6.637E3,5.451E3,4.328E3,8.06E2,5.831E3,1.449E3,4.002E3,4.56E2,3.872E3,3.04E2,5.02E2,4.688E3,1.143E3,1.354E3,9.5E1,2.886E3,1.116E3,2.72E2,1.84E2,7.7E2,3.102E3,1.15E2,1.89E2,1.42E2,3.6E2,1.668E3,3.02E3,1.82E2,9.61E2],"tree_param":{"num_deleted":"0","num_feature":"2","num_nodes":"31","size_leaf_vector":"1"}},{"base_weights":[-6.088752E-4,2.1150004E-2,-4.6095076E-1,-2.3392396E-1,6.419953E-2,-6.48696E-1,-2.2257435E-1,-3.017335E-1,-1.3157582E-1,1.7364274E-1,-7.529671E-2,-5.667963E-1,-1.0430773E-1,1.22385E-2,-6.8094164E-2,-5.332985E-2,-1.5702523E-2,1.3272107E-2,-5.662763E-2,8.951368E-3,4.8619416E-2,-4.74904E-2,-1.8051537E-3,-4.4480335E-2,-6.748738E-2],"categories":[],"categories_nodes":[],"categories_segments":[],"categories_sizes":[],"default_left":[0,0,0,0,0,0,0,0,0,0,0,0,0,0,0,0,0,0,0,0,0,0,0,0,0],"id":36,"left_children":[1,3,5,7,9,11,13,15,17,19,21,23,-1,-1,-1,-1,-1,-1,-1,-1,-1,-1,-1,-1,-1],"loss_changes":[1.6445102E2,1.7216121E2,3.3018356E1,1.5672867E1,2.048035E2,1.2780869E1,5.194607E1,4.5522522E1,1.0393571E2,1.976134E2,1.3491165E2,4.2485275E0,0E0,0E0,0E0,0E0,0E0,0E0,0E0,0E0,0E0,0E0,0E0,0E0,0E0],"parents":[2147483647,0,0,1,1,2,2,3,3,4,4,5,5,6,6,7,7,8,8,9,9,10,10,11,11],"right_children":[2,4,6,8,10,12,14,16,18,20,22,24,-1,-1,-1,-1,-1,-1,-1,-1,-1,-1,-1,-1,-1],"split_conditions":[2.3E1,5E0,6E0,3E0,1.7E1,5E0,7E0,4E0,5E0,1.5E1,2E0,3E0,-1.0430773E-1,1.22385E-2,-6.8094164E-2,-5.332985E-2,-1.5702523E-2,1.3272107E-2,-5.662763E-2,8.951368E-3,4.8619416E-2,-4.74904E-2,-1.8051537E-3,-4.4480335E-2,-6.748738E-2],"split_indices":[1,1,0,1,1,0,0,0,0,1,0,0,0,0,0,0,0,0,0,0,0,0,0,0,0],"split_type":[0,0,0,0,0,0,0,0,0,0,0,0,0,0,0,0,0,0,0,0,0,0,0,0,0],"sum_hessian":[1.6416E4,1.5676E4,7.4E2,2.263E3,1.3413E4,4.13E2,3.27E2,1.36E3,9.03E2,7.516E3,5.897E3,3.44E2,6.9E1,1.87E2,1.4E2,5.22E2,8.38E2,5.62E2,3.41E2,5.923E3,1.593E3,7.38E2,5.159E3,1.64E2,1.8E2],"tree_param":{"num_deleted":"0","num_feature":"2","num_nodes":"25","size_leaf_vector":"1"}},{"base_weights":[-5.709217E-4,4.4798855E-2,-1.9870569E-1,-3.3162355E-1,7.730136E-2,-3.779494E-2,-4.092577E-1,-5.1790434E-1,-2.1461979E-1,1.766557E-1,-8.012856E-2,-3.1578872E-1,1.1556594E0,-6.153438E-1,-3.308538E-1,-2.666515E-2,-9.935718E-2,-4.8729884E-3,-2.7946025E-2,2.6232753E-2,-8.641939E-3,-2.6834691E-2,2.1311438E-2,-1.8581854E-2,-2.760638E-1,7.689007E-2,1.6631415E-1,-5.527852E-2,-6.7419805E-2,-1.9009936E-3,-5.051927E-2],"categories":[],"categories_nodes":[],"categories_segments":[],"categories_sizes":[],"default_left":[0,0,0,0,0,0,0,0,0,0,0,0,0,0,0,0,0,0,0,0,0,0,0,0,0,0,0,0,0,0,0],"id":37,"left_children":[1,3,5,7,9,11,13,15,17,19,21,23,25,27,29,-1,-1,-1,-1,-1,-1,-1,-1,-1,-1,-1,-1,-1,-1,-1,-1],"loss_changes":[1.4758672E2,1.634686E2,1.0362372E2,2.3035728E1,1.923714E2,5.7599084E2,2.1205704E1,4.861579E1,7.0210514E0,1.6996016E2,2.62724E2,4.4688953E2,6.3098785E1,9.674988E-1,5.2290985E1,0E0,0E0,0E0,0E0,0E0,0E0,0E0,0E0,0E0,0E0,0E0,0E0,0E0,0E0,0E0,0E0],"parents":[2147483647,0,0,1,1,2,2,3,3,4,4,5,5,6,6,7,7,8,8,9,9,10,10,11,11,12,12,13,13,14,14],"right_children":[2,4,6,8,10,12,14,16,18,20,22,24,26,28,30,-1,-1,-1,-1,-1,-1,-1,-1,-1,-1,-1,-1,-1,-1,-1,-1],"split_conditions":[7E0,3E0,1.6E1,3E0,1.8E1,1.4E1,1.8E1,2E0,1E0,6E0,5E0,1.3E1,1.5E1,1.7E1,2E1,-2.666515E-2,-9.935718E-2,-4.8729884E-3,-2.7946025E-2,2.6232753E-2,-8.641939E-3,-2.6834691E-2,2.1311438E-2,-1.8581854E-2,-2.760638E-1,7.689007E-2,1.6631415E-1,-5.527852E-2,-6.7419805E-2,-1.9009936E-3,-5.051927E-2],"split_indices":[0,1,1,0,1,1,1,0,1,0,0,1,1,1,1,0,0,0,0,0,0,0,0,0,0,0,0,0,0,0,0],"split_type":[0,0,0,0,0,0,0,0,0,0,0,0,0,0,0,0,0,0,0,0,0,0,0,0,0,0,0,0,0,0,0],"sum_hessian":[1.6416E4,1.3358E4,3.058E3,1.061E3,1.2297E4,1.734E3,1.324E3,4.08E2,6.53E2,7.539E3,4.758E3,1.407E3,3.27E2,3.63E2,9.61E2,2.68E2,1.4E2,1.84E2,4.69E2,5.687E3,1.852E3,2.898E3,1.86E3,1.337E3,7E1,1.87E2,1.4E2,1.81E2,1.82E2,3.45E2,6.16E2],"tree_param":{"num_deleted":"0","num_feature":"2","num_nodes":"31","size_leaf_vector":"1"}},{"base_weights":[-5.3693814E-4,1.837196E-2,-4.0058318E-1,-1.9816387E-1,5.4917265E-2,-5.656033E-1,-1.9107428E-1,-2.4176836E-1,-1.3229674E-1,1.433852E-1,-5.7844408E-2,-4.8368436E-1,-9.612667E-2,8.9013195E-3,-5.6316912E-2,-4.3371852E-2,-1.21825915E-2,9.328623E-3,-5.0326433E-2,6.9937184E-3,4.1626014E-2,-4.089379E-2,-7.550626E-4,-3.7392054E-2,-5.8107305E-2],"categories":[],"categories_nodes":[],"categories_segments":[],"categories_sizes":[],"default_left":[0,0,0,0,0,0,0,0,0,0,0,0,0,0,0,0,0,0,0,0,0,0,0,0,0],"id":38,"left_children":[1,3,5,7,9,11,13,15,17,19,21,23,-1,-1,-1,-1,-1,-1,-1,-1,-1,-1,-1,-1,-1],"loss_changes":[1.2419268E2,1.24068756E2,2.5510658E1,6.4704514E0,1.3382356E2,1.2953751E1,3.4233994E1,3.1281433E1,7.569725E1,1.506275E2,1.0414272E2,3.4706955E0,0E0,0E0,0E0,0E0,0E0,0E0,0E0,0E0,0E0,0E0,0E0,0E0,0E0],"parents":[2147483647,0,0,1,1,2,2,3,3,4,4,5,5,6,6,7,7,8,8,9,9,10,10,11,11],"right_children":[2,4,6,8,10,12,14,16,18,20,22,24,-1,-1,-1,-1,-1,-1,-1,-1,-1,-1,-1,-1,-1],"split_conditions":[2.3E1,5E0,6E0,3E0,1.7E1,5E0,7E0,4E0,5E0,1.5E1,2E0,3E0,-9.612667E-2,8.9013195E-3,-5.6316912E-2,-4.3371852E-2,-1.21825915E-2,9.328623E-3,-5.0326433E-2,6.9937184E-3,4.1626014E-2,-4.089379E-2,-7.550626E-4,-3.7392054E-2,-5.8107305E-2],"split_indices":[1,1,0,1,1,0,0,0,0,1,0,0,0,0,0,0,0,0,0,0,0,0,0,0,0],"split_type":[0,0,0,0,0,0,0,0,0,0,0,0,0,0,0,0,0,0,0,0,0,0,0,0,0],"sum_hessian":[1.6416E4,1.5676E4,7.4E2,2.263E3,1.3413E4,4.13E2,3.27E2,1.36E3,9.03E2,7.516E3,5.897E3,3.44E2,6.9E1,1.87E2,1.4E2,5.22E2,8.38E2,5.62E2,3.41E2,5.923E3,1.593E3,7.38E2,5.159E3,1.64E2,1.8E2],"tree_param":{"num_deleted":"0","num_feature":"2","num_nodes":"25","size_leaf_vector":"1"}},{"base_weights":[-5.0336675E-4,4.034373E-2,-1.7888711E-1,-2.7110934E-1,6.723614E-2,-3.4644395E-2,-3.676284E-1,-4.2315617E-1,-1.7560743E-1,1.4859004E-1,-6.16724E-2,-2.800895E-1,1.0190793E0,-5.744677E-1,-2.8898272E-1,-1.9687472E-2,-8.518551E-2,-3.1766568E-3,-2.31852E-2,2.2560798E-2,-8.790567E-3,-2.2650724E-2,1.9513464E-2,-1.6232856E-2,-2.4953583E-1,6.8546176E-2,1.4566752E-1,-5.3920742E-2,-6.063962E-2,-1.6361639E-3,-4.4139426E-2],"categories":[],"categories_nodes":[],"categories_segments":[],"categories_sizes":[],"default_left":[0,0,0,0,0,0,0,0,0,0,0,0,0,0,0,0,0,0,0,0,0,0,0,0,0,0,0,0,0,0,0],"id":39,"left_children":[1,3,5,7,9,11,13,15,17,19,21,23,25,27,29,-1,-1,-1,-1,-1,-1,-1,-1,-1,-1,-1,-1,-1,-1,-1,-1],"loss_changes":[1.1962899E2,1.119095E2,8.326719E1,1.5346748E1,1.2898093E2,4.490108E2,2.1387787E1,3.9507988E1,5.2836704E0,1.3735648E2,2.0149623E2,3.6690292E2,4.688614E1,8.281708E-2,3.9964455E1,0E0,0E0,0E0,0E0,0E0,0E0,0E0,0E0,0E0,0E0,0E0,0E0,0E0,0E0,0E0,0E0],"parents":[2147483647,0,0,1,1,2,2,3,3,4,4,5,5,6,6,7,7,8,8,9,9,10,10,11,11,12,12,13,13,14,14],"right_children":[2,4,6,8,10,12,14,16,18,20,22,24,26,28,30,-1,-1,-1,-1,-1,-1,-1,-1,-1,-1,-1,-1,-1,-1,-1,-1],"split_conditions":[7E0,3E0,1.6E1,3E0,1.8E1,1.4E1,1.8E1,2E0,1E0,6E0,5E0,1.3E1,1.5E1,1.7E1,2E1,-1.9687472E-2,-8.518551E-2,-3.1766568E-3,-2.31852E-2,2.2560798E-2,-8.790567E-3,-2.2650724E-2,1.9513464E-2,-1.6232856E-2,-2.4953583E-1,6.8546176E-2,1.4566752E-1,-5.3920742E-2,-6.063962E-2,-1.6361639E-3,-4.4139426E-2],"split_indices":[0,1,1,0,1,1,1,0,1,0,0,1,1,1,1,0,0,0,0,0,0,0,0,0,0,0,0,0,0,0,0],"split_type":[0,0,0,0,0,0,0,0,0,0,0,0,0,0,0,0,0,0,0,0,0,0,0,0,0,0,0,0,0,0,0],"sum_hessian":[1.6416E4,1.3358E4,3.058E3,1.061E3,1.2297E4,1.734E3,1.324E3,4.08E2,6.53E2,7.539E3,4.758E3,1.407E3,3.27E2,3.63E2,9.61E2,2.68E2,1.4E2,1.84E2,4.69E2,5.687E3,1.852E3,2.898E3,1.86E3,1.337E3,7E1,1.87E2,1.4E2,1.81E2,1.82E2,3.45E2,6.16E2],"tree_param":{"num_deleted":"0","num_feature":"2","num_nodes":"31","size_leaf_vector":"1"}},{"base_weights":[-4.729713E-4,3.6300674E-2,-1.610675E-1,6.62451E-2,-1.9171356E-1,-3.962124E-1,-6.531379E-2,-2.3838787E-1,9.768398E-2,-3.1158572E-1,2.527577E-1,5.9048206E-2,-6.579708E-1,3.484128E-1,-3.309863E-1,-3.147098E-2,-9.483846E-3,-6.2160986E-4,1.4161172E-2,-2.1788355E-2,-4.939371E-2,5.034203E-2,6.074964E-3,-1.1419317E-3,9.022965E-2,-1.03323154E-1,-4.4289794E-2,-8.6775015E-4,9.178241E-2,-5.173353E-2,-2.6013179E-2],"categories":[],"categories_nodes":[],"categories_segments":[],"categories_sizes":[],"default_left":[0,0,0,0,0,0,0,0,0,0,0,0,0,0,0,0,0,0,0,0,0,0,0,0,0,0,0,0,0,0,0],"id":40,"left_children":[1,3,5,7,9,11,13,15,17,19,21,23,25,27,29,-1,-1,-1,-1,-1,-1,-1,-1,-1,-1,-1,-1,-1,-1,-1,-1],"loss_changes":[9.695884E1,9.1224686E1,6.885055E1,1.1312183E2,8.271562E1,1.0550278E2,2.3918213E2,1.20765E1,4.8859543E1,2.0772362E1,1.5852064E1,1.9262907E1,4.4900497E1,1.7304288E2,1.736029E1,0E0,0E0,0E0,0E0,0E0,0E0,0E0,0E0,0E0,0E0,0E0,0E0,0E0,0E0,0E0,0E0],"parents":[2147483647,0,0,1,1,2,2,3,3,4,4,5,5,6,6,7,7,8,8,9,9,10,10,11,11,12,12,13,13,14,14],"right_children":[2,4,6,8,10,12,14,16,18,20,22,24,26,28,30,-1,-1,-1,-1,-1,-1,-1,-1,-1,-1,-1,-1,-1,-1,-1,-1],"split_conditions":[7E0,2.2E1,1E1,4E0,6E0,4E0,1.6E1,5E0,3E0,2.3E1,2.3E1,3E0,7E0,1.4E1,1.8E1,-3.147098E-2,-9.483846E-3,-6.2160986E-4,1.4161172E-2,-2.1788355E-2,-4.939371E-2,5.034203E-2,6.074964E-3,-1.1419317E-3,9.022965E-2,-1.03323154E-1,-4.4289794E-2,-8.6775015E-4,9.178241E-2,-5.173353E-2,-2.6013179E-2],"split_indices":[0,1,1,1,0,1,1,0,0,1,1,1,1,1,1,0,0,0,0,0,0,0,0,0,0,0,0,0,0,0,0],"split_type":[0,0,0,0,0,0,0,0,0,0,0,0,0,0,0,0,0,0,0,0,0,0,0,0,0,0,0,0,0,0,0],"sum_hessian":[1.6416E4,1.3358E4,3.058E3,1.1808E4,1.55E3,8.84E2,2.174E3,1.104E3,1.0704E4,1.221E3,3.29E2,3.23E2,5.61E2,8.5E2,1.324E3,7.2E2,3.84E2,3.181E3,7.523E3,8.08E2,4.13E2,1.42E2,1.87E2,2.99E2,2.4E1,2.03E2,3.58E2,5.23E2,3.27E2,3.63E2,9.61E2],"tree_param":{"num_deleted":"0","num_feature":"2","num_nodes":"31","size_leaf_vector":"1"}},{"base_weights":[-4.311891E-4,3.266721E-2,-1.449755E-1,5.9617996E-2,-1.725517E-1,-3.5665736E-1,-5.8776226E-2,-2.1458611E-1,8.791654E-2,-2.8048545E-1,2.2765304E-1,5.3418417E-2,-5.9243655E-1,3.1367874E-1,-2.9794633E-1,-3.3639047E-2,-1.37084415E-2,-5.5944984E-4,1.2745193E-2,-1.9612215E-2,-4.4466276E-2,4.5343067E-2,5.4706982E-3,-1.0281116E-3,8.156761E-2,-9.3041494E-2,-3.987317E-2,-7.811321E-4,8.2632236E-2,-4.6574444E-2,-2.3414545E-2],"categories":[],"categories_nodes":[],"categories_segments":[],"categories_sizes":[],"default_left":[0,0,0,0,0,0,0,0,0,0,0,0,0,0,0,0,0,0,0,0,0,0,0,0,0,0,0,0,0,0,0],"id":41,"left_children":[1,3,5,7,9,11,13,15,17,19,21,23,25,27,29,-1,-1,-1,-1,-1,-1,-1,-1,-1,-1,-1,-1,-1,-1,-1,-1],"loss_changes":[7.854671E1,7.38964E1,5.579606E1,9.165172E1,6.706021E1,8.559994E1,1.9384267E2,1.0385136E1,3.957704E1,1.683815E1,1.2860819E1,1.5740354E1,3.642206E1,1.4025961E2,1.4075958E1,0E0,0E0,0E0,0E0,0E0,0E0,0E0,0E0,0E0,0E0,0E0,0E0,0E0,0E0,0E0,0E0],"parents":[2147483647,0,0,1,1,2,2,3,3,4,4,5,5,6,6,7,7,8,8,9,9,10,10,11,11,12,12,13,13,14,14],"right_children":[2,4,6,8,10,12,14,16,18,20,22,24,26,28,30,-1,-1,-1,-1,-1,-1,-1,-1,-1,-1,-1,-1,-1,-1,-1,-1],"split_conditions":[7E0,2.2E1,1E1,4E0,6E0,4E0,1.6E1,3E0,3E0,2.3E1,2.3E1,3E0,7E0,1.4E1,1.8E1,-3.3639047E-2,-1.37084415E-2,-5.5944984E-4,1.2745193E-2,-1.9612215E-2,-4.4466276E-2,4.5343067E-2,5.4706982E-3,-1.0281116E-3,8.156761E-2,-9.3041494E-2,-3.987317E-2,-7.811321E-4,8.2632236E-2,-4.6574444E-2,-2.3414545E-2],"split_indices":[0,1,1,1,0,1,1,0,0,1,1,1,1,1,1,0,0,0,0,0,0,0,0,0,0,0,0,0,0,0,0],"split_type":[0,0,0,0,0,0,0,0,0,0,0,0,0,0,0,0,0,0,0,0,0,0,0,0,0,0,0,0,0,0,0],"sum_hessian":[1.6416E4,1.3358E4,3.058E3,1.1808E4,1.55E3,8.84E2,2.174E3,1.104E3,1.0704E4,1.221E3,3.29E2,3.23E2,5.61E2,8.5E2,1.324E3,4.28E2,6.76E2,3.181E3,7.523E3,8.08E2,4.13E2,1.42E2,1.87E2,2.99E2,2.4E1,2.03E2,3.58E2,5.23E2,3.27E2,3.63E2,9.61E2],"tree_param":{"num_deleted":"0","num_feature":"2","num_nodes":"31","size_leaf_vector":"1"}},{"base_weights":[-3.9338024E-4,1.3295197E-2,-2.8999585E-1,-1.3193922E-1,4.1491497E-2,-4.003039E-1,-1.4988144E-1,4.6836384E-2,-2.6006317E-1,1.1001917E-1,-4.2542696E-2,-3.1941968E-1,-7.93229E-2,4.9265805E-3,-4.143481E-2,-1.1591268E-2,1.3665119E-1,-1.5533148E-2,-1.0692798E-1,4.589948E-3,3.3678263E-2,-3.4426026E-2,6.766483E-5,-1.2988359E-2,-3.654795E-2],"categories":[],"categories_nodes":[],"categories_segments":[],"categories_sizes":[],"default_left":[0,0,0,0,0,0,0,0,0,0,0,0,0,0,0,0,0,0,0,0,0,0,0,0,0],"id":42,"left_children":[1,3,5,7,9,11,13,15,17,19,21,23,-1,-1,-1,-1,-1,-1,-1,-1,-1,-1,-1,-1,-1],"loss_changes":[6.508488E1,6.420393E1,1.1392712E1,5.8398132E1,7.561023E1,1.2904137E1,1.7295454E1,2.2889476E2,1.2568856E2,1.0513785E2,7.6910355E1,2.9643784E0,0E0,0E0,0E0,0E0,0E0,0E0,0E0,0E0,0E0,0E0,0E0,0E0,0E0],"parents":[2147483647,0,0,1,1,2,2,3,3,4,4,5,5,6,6,7,7,8,8,9,9,10,10,11,11],"right_children":[2,4,6,8,10,12,14,16,18,20,22,24,-1,-1,-1,-1,-1,-1,-1,-1,-1,-1,-1,-1,-1],"split_conditions":[2.3E1,6E0,6E0,4E0,1.7E1,5E0,7E0,5E0,5E0,1.5E1,2E0,2E0,-7.93229E-2,4.9265805E-3,-4.143481E-2,-1.1591268E-2,1.3665119E-1,-1.5533148E-2,-1.0692798E-1,4.589948E-3,3.3678263E-2,-3.4426026E-2,6.766483E-5,-1.2988359E-2,-3.654795E-2],"split_indices":[1,1,0,0,1,0,0,1,1,1,0,0,0,0,0,0,0,0,0,0,0,0,0,0,0],"split_type":[0,0,0,0,0,0,0,0,0,0,0,0,0,0,0,0,0,0,0,0,0,0,0,0,0],"sum_hessian":[1.6416E4,1.5676E4,7.4E2,2.548E3,1.3128E4,4.13E2,3.27E2,1.064E3,1.484E3,7.231E3,5.897E3,3.44E2,6.9E1,1.87E2,1.4E2,9.48E2,1.16E2,1.315E3,1.69E2,5.638E3,1.593E3,7.38E2,5.159E3,6.8E1,2.76E2],"tree_param":{"num_deleted":"0","num_feature":"2","num_nodes":"25","size_leaf_vector":"1"}},{"base_weights":[-3.6343615E-4,2.9642977E-2,-1.3140473E-1,-6.75111E-2,7.23993E-2,-2.6647378E-2,-2.6847836E-1,-3.0412447E-1,1.3118929E-1,-1.4154892E-1,1.3782324E-1,-2.0218265E-1,7.269511E-1,-4.360786E-2,-2.0478298E-1,1.1250973E-2,-1.410468E-1,1.3091493E-1,-1.9624794E-2,6.9645545E-3,-6.600767E-2,6.4860426E-2,2.2677768E-3,-9.324705E-3,-2.252234E-1,4.3922946E-2,1.1054243E-1,3.4487848E-3,-3.386289E-2],"categories":[],"categories_nodes":[],"categories_segments":[],"categories_sizes":[],"default_left":[0,0,0,0,0,0,0,0,0,0,0,0,0,0,0,0,0,0,0,0,0,0,0,0,0,0,0,0,0],"id":43,"left_children":[1,3,5,7,9,11,13,15,17,19,21,23,25,-1,27,-1,-1,-1,-1,-1,-1,-1,-1,-1,-1,-1,-1,-1,-1],"loss_changes":[6.455683E1,5.5497528E1,4.3918472E1,1.9200284E2,1.298728E2,2.2965817E2,1.4055557E1,8.593519E2,8.565286E2,2.3801161E2,4.1785962E2,3.1422958E2,3.523201E1,0E0,3.0820137E1,0E0,0E0,0E0,0E0,0E0,0E0,0E0,0E0,0E0,0E0,0E0,0E0,0E0,0E0],"parents":[2147483647,0,0,1,1,2,2,3,3,4,4,5,5,6,6,7,7,8,8,9,9,10,10,11,11,12,12,14,14],"right_children":[2,4,6,8,10,12,14,16,18,20,22,24,26,-1,28,-1,-1,-1,-1,-1,-1,-1,-1,-1,-1,-1,-1,-1,-1],"split_conditions":[7E0,3E0,1.6E1,1.3E1,9E0,1.4E1,1.8E1,1E1,1.7E1,6E0,1.2E1,1.3E1,1.5E1,-4.360786E-2,2E1,1.1250973E-2,-1.410468E-1,1.3091493E-1,-1.9624794E-2,6.9645545E-3,-6.600767E-2,6.4860426E-2,2.2677768E-3,-9.324705E-3,-2.252234E-1,4.3922946E-2,1.1054243E-1,3.4487848E-3,-3.386289E-2],"split_indices":[0,0,1,1,1,1,1,1,1,0,1,1,1,0,1,0,0,0,0,0,0,0,0,0,0,0,0,0,0],"split_type":[0,0,0,0,0,0,0,0,0,0,0,0,0,0,0,0,0,0,0,0,0,0,0,0,0,0,0,0,0],"sum_hessian":[1.6416E4,1.3358E4,3.058E3,4.082E3,9.276E3,1.734E3,1.324E3,1.863E3,2.219E3,2.172E3,7.104E3,1.407E3,3.27E2,3.63E2,9.61E2,1.354E3,5.09E2,4.82E2,1.737E3,1.544E3,6.28E2,1.306E3,5.798E3,1.337E3,7E1,1.87E2,1.4E2,3.45E2,6.16E2],"tree_param":{"num_deleted":"0","num_feature":"2","num_nodes":"29","size_leaf_vector":"1"}},{"base_weights":[-3.3716488E-4,2.6677798E-2,-1.1831447E-1,-1.8173255E-1,4.467301E-2,-3.054755E-1,-4.2104892E-2,-2.6111922E-1,-2.7501138E-2,1.0045221E-1,-4.3711063E-2,7.310598E-2,-5.231889E-1,1.0500195E-1,-1.1660817E-1,-1.1205361E-2,-3.5312273E-2,3.1557903E-2,-1.4386969E-2,1.698065E-2,-1.124931E-2,-1.7212523E-2,1.5635146E-2,1.5518216E-3,7.61235E-2,-8.1792735E-2,-3.5424788E-2,1.1599369E-2,-2.4168631E-2],"categories":[],"categories_nodes":[],"categories_segments":[],"categories_sizes":[],"default_left":[0,0,0,0,0,0,0,0,0,0,0,0,0,0,0,0,0,0,0,0,0,0,0,0,0,0,0,0,0],"id":44,"left_children":[1,3,5,7,9,11,13,15,17,19,21,23,25,-1,27,-1,-1,-1,-1,-1,-1,-1,-1,-1,-1,-1,-1,-1,-1],"loss_changes":[5.2326645E1,5.0109554E1,4.361907E1,1.2995861E1,6.0633446E1,7.298194E1,1.7709535E2,9.574337E0,1.4497796E1,1.11374886E2,1.2228972E2,1.2827598E1,2.7694153E1,0E0,5.929131E1,0E0,0E0,0E0,0E0,0E0,0E0,0E0,0E0,0E0,0E0,0E0,0E0,0E0,0E0],"parents":[2147483647,0,0,1,1,2,2,3,3,4,4,5,5,6,6,7,7,8,8,9,9,10,10,11,11,12,12,14,14],"right_children":[2,4,6,8,10,12,14,16,18,20,22,24,26,-1,28,-1,-1,-1,-1,-1,-1,-1,-1,-1,-1,-1,-1,-1,-1],"split_conditions":[7E0,3E0,1E1,5E0,1.8E1,4E0,1.1E1,2E0,1E0,6E0,5E0,3E0,7E0,1.0500195E-1,1.6E1,-1.1205361E-2,-3.5312273E-2,3.1557903E-2,-1.4386969E-2,1.698065E-2,-1.124931E-2,-1.7212523E-2,1.5635146E-2,1.5518216E-3,7.61235E-2,-8.1792735E-2,-3.5424788E-2,1.1599369E-2,-2.4168631E-2],"split_indices":[0,1,1,0,1,1,1,0,1,0,0,1,1,0,1,0,0,0,0,0,0,0,0,0,0,0,0,0,0],"split_type":[0,0,0,0,0,0,0,0,0,0,0,0,0,0,0,0,0,0,0,0,0,0,0,0,0,0,0,0,0],"sum_hessian":[1.6416E4,1.3358E4,3.058E3,1.061E3,1.2297E4,8.84E2,2.174E3,7E2,3.61E2,7.539E3,4.758E3,3.23E2,5.61E2,1.38E2,2.036E3,2.68E2,4.32E2,9.1E1,2.7E2,5.687E3,1.852E3,2.898E3,1.86E3,2.99E2,2.4E1,2.03E2,3.58E2,7.12E2,1.324E3],"tree_param":{"num_deleted":"0","num_feature":"2","num_nodes":"29","size_leaf_vector":"1"}},{"base_weights":[-3.018451E-4,1.1248051E-2,-2.4465734E-1,-6.354641E-2,5.1123675E-2,-3.424784E-1,-1.20442174E-1,-9.850937E-3,-4.4353667E-1,4.82685E-1,8.916345E-3,-2.6231298E-1,-7.326868E-2,2.6557264E-3,-3.1558722E-2,1.297576E-2,-2.8056178E-2,-5.7493013E-1,4.3542363E-2,5.649037E-2,9.027402E-3,-4.277161E-2,4.619998E-3,-1.5771942E-2,-3.5621144E-2],"categories":[],"categories_nodes":[],"categories_segments":[],"categories_sizes":[],"default_left":[0,0,0,0,0,0,0,0,0,0,0,0,0,0,0,0,0,0,0,0,0,0,0,0,0],"id":45,"left_children":[1,3,5,7,9,11,13,15,17,19,21,23,-1,-1,-1,-1,-1,-1,-1,-1,-1,-1,-1,-1,-1],"loss_changes":[4.6336132E1,4.6759525E1,8.962536E0,1.1123692E2,1.8626282E2,1.2758232E1,9.417459E0,1.8061394E2,3.1504038E3,2.9341064E1,1.5167719E2,3.3321228E0,0E0,0E0,0E0,0E0,0E0,0E0,0E0,0E0,0E0,0E0,0E0,0E0,0E0],"parents":[2147483647,0,0,1,1,2,2,3,3,4,4,5,5,6,6,7,7,8,8,9,9,10,10,11,11],"right_children":[2,4,6,8,10,12,14,16,18,20,22,24,-1,-1,-1,-1,-1,-1,-1,-1,-1,-1,-1,-1,-1],"split_conditions":[2.3E1,1.1E1,6E0,1E1,1.2E1,5E0,7E0,6E0,3E0,7E0,1.3E1,3E0,-7.326868E-2,2.6557264E-3,-3.1558722E-2,1.297576E-2,-2.8056178E-2,-5.7493013E-1,4.3542363E-2,5.649037E-2,9.027402E-3,-4.277161E-2,4.619998E-3,-1.5771942E-2,-3.5621144E-2],"split_indices":[1,1,0,1,1,0,0,0,0,0,1,0,0,0,0,0,0,0,0,0,0,0,0,0,0],"split_type":[0,0,0,0,0,0,0,0,0,0,0,0,0,0,0,0,0,0,0,0,0,0,0,0,0],"sum_hessian":[1.6416E4,1.5676E4,7.4E2,5.451E3,1.0225E4,4.13E2,3.27E2,4.777E3,6.74E2,9.1E2,9.315E3,3.44E2,6.9E1,1.87E2,1.4E2,3.152E3,1.625E3,9.5E1,5.79E2,7.52E2,1.58E2,7.32E2,8.583E3,1.64E2,1.8E2],"tree_param":{"num_deleted":"0","num_feature":"2","num_nodes":"25","size_leaf_vector":"1"}},{"base_weights":[-3.1240287E-4,1.0090379E-2,-2.203989E-1,-1.0845198E-1,3.310465E-2,-3.0853164E-1,-1.0848625E-1,2.1877216E-2,-2.0184734E-1,6.0189545E-2,-8.545245E-2,-2.3623064E-1,-6.604646E-2,2.3915377E-3,-2.8425235E-2,-1.2250292E-2,1.1927736E-1,-1.0425004E-2,-9.56178E-2,-5.3421827E-3,1.0777979E-2,-1.1674621E-1,-6.280894E-3,-1.4204315E-2,-3.2078706E-2],"categories":[],"categories_nodes":[],"categories_segments":[],"categories_sizes":[],"default_left":[0,0,0,0,0,0,0,0,0,0,0,0,0,0,0,0,0,0,0,0,0,0,0,0,0],"id":46,"left_children":[1,3,5,7,9,11,13,15,17,19,21,23,-1,-1,-1,-1,-1,-1,-1,-1,-1,-1,-1,-1,-1],"loss_changes":[3.7589138E1,4.2773045E1,7.275139E0,3.1031214E1,4.2163757E1,1.037825E1,7.639921E0,1.8018881E2,1.09226974E2,5.7793556E1,5.9756905E1,2.7020683E0,0E0,0E0,0E0,0E0,0E0,0E0,0E0,0E0,0E0,0E0,0E0,0E0,0E0],"parents":[2147483647,0,0,1,1,2,2,3,3,4,4,5,5,6,6,7,7,8,8,9,9,10,10,11,11],"right_children":[2,4,6,8,10,12,14,16,18,20,22,24,-1,-1,-1,-1,-1,-1,-1,-1,-1,-1,-1,-1,-1],"split_conditions":[2.3E1,6E0,6E0,4E0,7E0,5E0,7E0,5E0,5E0,3E0,7E0,3E0,-6.604646E-2,2.3915377E-3,-2.8425235E-2,-1.2250292E-2,1.1927736E-1,-1.0425004E-2,-9.56178E-2,-5.3421827E-3,1.0777979E-2,-1.1674621E-1,-6.280894E-3,-1.4204315E-2,-3.2078706E-2],"split_indices":[1,1,0,0,0,0,0,1,1,0,1,0,0,0,0,0,0,0,0,0,0,0,0,0,0],"split_type":[0,0,0,0,0,0,0,0,0,0,0,0,0,0,0,0,0,0,0,0,0,0,0,0,0],"sum_hessian":[1.6416E4,1.5676E4,7.4E2,2.548E3,1.3128E4,4.13E2,3.27E2,1.064E3,1.484E3,1.0687E4,2.441E3,3.44E2,6.9E1,1.87E2,1.4E2,9.48E2,1.16E2,1.315E3,1.69E2,3.155E3,7.532E3,4.9E1,2.392E3,1.64E2,1.8E2],"tree_param":{"num_deleted":"0","num_feature":"2","num_nodes":"25","size_leaf_vector":"1"}},{"base_weights":[-2.9687118E-4,3.2149862E-2,-6.0981285E-2,-5.323395E-2,1.2086349E-1,-1.9242159E-1,1.6070494E-2,-3.5312523E-3,-4.0497658E-1,3.6084977E-1,-6.977208E-2,-2.7422303E-1,-1.525066E-1,7.645871E-2,-1.5004519E-1,1.1974611E-2,-2.42578E-2,-5.175073E-1,3.8525492E-2,-1.9248879E-2,6.4777136E-2,5.2025594E-2,-1.7111458E-2,-7.5396895E-2,-9.24617E-3,1.1062995E-2,-2.7117833E-2,-1.4409764E-3,2.179114E-2,2.5244087E-2,-2.1605251E-2],"categories":[],"categories_nodes":[],"categories_segments":[],"categories_sizes":[],"default_left":[0,0,0,0,0,0,0,0,0,0,0,0,0,0,0,0,0,0,0,0,0,0,0,0,0,0,0,0,0,0,0],"id":47,"left_children":[1,3,5,7,9,11,13,15,17,19,21,23,25,27,29,-1,-1,-1,-1,-1,-1,-1,-1,-1,-1,-1,-1,-1,-1,-1,-1],"loss_changes":[3.2327213E1,8.1040665E1,5.7933582E1,9.531347E1,2.40075E2,6.8606186E0,3.6194843E1,1.4083217E2,2.546393E3,3.689353E2,1.7498917E2,6.027217E1,4.446584E1,3.4013737E1,2.561202E1,0E0,0E0,0E0,0E0,0E0,0E0,0E0,0E0,0E0,0E0,0E0,0E0,0E0,0E0,0E0,0E0],"parents":[2147483647,0,0,1,1,2,2,3,3,4,4,5,5,6,6,7,7,8,8,9,9,10,10,11,11,12,12,13,13,14,14],"right_children":[2,4,6,8,10,12,14,16,18,20,22,24,26,28,30,-1,-1,-1,-1,-1,-1,-1,-1,-1,-1,-1,-1,-1,-1,-1,-1],"split_conditions":[1.8E1,1.1E1,4E0,1E1,5E0,2E0,7E0,6E0,3E0,1.3E1,1.2E1,2E1,2E1,6E0,1.9E1,1.1974611E-2,-2.42578E-2,-5.175073E-1,3.8525492E-2,-1.9248879E-2,6.4777136E-2,5.2025594E-2,-1.7111458E-2,-7.5396895E-2,-9.24617E-3,1.1062995E-2,-2.7117833E-2,-1.4409764E-3,2.179114E-2,2.5244087E-2,-2.1605251E-2],"split_indices":[1,1,0,1,0,0,0,0,0,1,1,1,1,0,1,0,0,0,0,0,0,0,0,0,0,0,0,0,0,0,0],"split_type":[0,0,0,0,0,0,0,0,0,0,0,0,0,0,0,0,0,0,0,0,0,0,0,0,0,0,0,0,0,0,0],"sum_hessian":[1.6416E4,1.0697E4,5.719E3,5.451E3,5.246E3,2.113E3,3.606E3,4.777E3,6.74E2,2.322E3,2.924E3,6.91E2,1.422E3,2.645E3,9.61E2,3.152E3,1.625E3,9.5E1,5.79E2,7.93E2,1.529E3,4.28E2,2.496E3,1.89E2,5.02E2,4.42E2,9.8E2,1.611E3,1.034E3,1.35E2,8.26E2],"tree_param":{"num_deleted":"0","num_feature":"2","num_nodes":"31","size_leaf_vector":"1"}},{"base_weights":[-2.969178E-4,-9.8247476E-2,1.7705552E-2,7.826533E-3,-1.742546E-1,7.873854E-2,-4.8791625E-2,-1.222276E-1,1.0626432E0,-6.283811E-1,-3.937042E-2,3.258628E-2,2.4195927E-1,-1.4598773E-1,8.991554E-3,-2.8035333E-2,7.17349E-3,3.3553045E-2,1.2466773E-1,-1.38624115E-2,-6.5378064E-1,2.6026485E-2,-1.1736403E-2,-1.4607756E-2,8.513664E-3,6.081326E-2,-2.460902E-2,-2.4449615E-2,-9.826916E-3,7.7341544E-3,-1.7151047E-2],"categories":[],"categories_nodes":[],"categories_segments":[],"categories_sizes":[],"default_left":[0,0,0,0,0,0,0,0,0,0,0,0,0,0,0,0,0,0,0,0,0,0,0,0,0,0,0,0,0,0,0],"id":48,"left_children":[1,3,5,7,9,11,13,15,17,19,21,23,25,27,29,-1,-1,-1,-1,-1,-1,-1,-1,-1,-1,-1,-1,-1,-1,-1,-1],"loss_changes":[2.895069E1,2.055237E1,5.6291477E1,1.4623007E2,9.0938156E1,5.447081E1,3.728231E1,2.9126379E1,1.52378845E1,9.8311554E2,2.681215E1,5.2956154E1,2.8501453E2,1.1610157E1,5.1385822E1,0E0,0E0,0E0,0E0,0E0,0E0,0E0,0E0,0E0,0E0,0E0,0E0,0E0,0E0,0E0,0E0],"parents":[2147483647,0,0,1,1,2,2,3,3,4,4,5,5,6,6,7,7,8,8,9,9,10,10,11,11,12,12,13,13,14,14],"right_children":[2,4,6,8,10,12,14,16,18,20,22,24,26,28,30,-1,-1,-1,-1,-1,-1,-1,-1,-1,-1,-1,-1,-1,-1,-1,-1],"split_conditions":[6E0,4E0,1.7E1,5E0,5E0,1.5E1,4E0,3E0,2E0,5E0,1E0,3E0,6E0,2E0,7E0,-2.8035333E-2,7.17349E-3,3.3553045E-2,1.2466773E-1,-1.38624115E-2,-6.5378064E-1,2.6026485E-2,-1.1736403E-2,-1.4607756E-2,8.513664E-3,6.081326E-2,-2.460902E-2,-2.4449615E-2,-9.826916E-3,7.7341544E-3,-1.7151047E-2],"split_indices":[1,0,1,1,0,1,0,1,0,1,1,0,0,0,0,0,0,0,0,0,0,0,0,0,0,0,0,0,0,0,0],"split_type":[0,0,0,0,0,0,0,0,0,0,0,0,0,0,0,0,0,0,0,0,0,0,0,0,0,0,0,0,0,0,0],"sum_hessian":[1.6416E4,2.548E3,1.3868E4,1.064E3,1.484E3,7.231E3,6.637E3,9.48E2,1.16E2,3.39E2,1.145E3,5.638E3,1.593E3,2.474E3,4.163E3,5.22E2,4.26E2,2.4E1,9.2E1,3.14E2,2.5E1,2.36E2,9.09E2,1.281E3,4.357E3,9.1E2,6.83E2,8.06E2,1.668E3,3.02E3,1.143E3],"tree_param":{"num_deleted":"0","num_feature":"2","num_nodes":"31","size_leaf_vector":"1"}},{"base_weights":[-2.99701E-4,8.633409E-3,-1.8929303E-1,-8.862508E-2,2.7515521E-2,-2.6115817E-1,-9.800807E-2,7.1728677E-3,-1.5726899E-1,7.086846E-2,-2.5647584E-2,-1.9133319E-1,-6.0156483E-2,-7.832421E-4,-2.1754717E-2,-1.1002678E-2,9.577309E-2,-5.6750655E-2,-3.5420784E-3,2.9326228E-3,2.1778552E-2,-1.3226265E-2,4.005185E-3,-1.2230625E-2,-3.213986E-2],"categories":[],"categories_nodes":[],"categories_segments":[],"categories_sizes":[],"default_left":[0,0,0,0,0,0,0,0,0,0,0,0,0,0,0,0,0,0,0,0,0,0,0,0,0],"id":49,"left_children":[1,3,5,7,9,11,13,15,17,19,21,23,-1,-1,-1,-1,-1,-1,-1,-1,-1,-1,-1,-1,-1],"loss_changes":[2.7718424E1,2.8792398E1,4.835518E0,1.676321E1,3.0261234E1,9.725222E0,3.5339773E0,1.18751785E2,7.421015E1,4.413241E1,4.131813E1,3.0581064E0,0E0,0E0,0E0,0E0,0E0,0E0,0E0,0E0,0E0,0E0,0E0,0E0,0E0],"parents":[2147483647,0,0,1,1,2,2,3,3,4,4,5,5,6,6,7,7,8,8,9,9,10,10,11,11],"right_children":[2,4,6,8,10,12,14,16,18,20,22,24,-1,-1,-1,-1,-1,-1,-1,-1,-1,-1,-1,-1,-1],"split_conditions":[2.3E1,6E0,6E0,4E0,1.7E1,5E0,7E0,5E0,5E0,1.5E1,4E0,4E0,-6.0156483E-2,-7.832421E-4,-2.1754717E-2,-1.1002678E-2,9.577309E-2,-5.6750655E-2,-3.5420784E-3,2.9326228E-3,2.1778552E-2,-1.3226265E-2,4.005185E-3,-1.2230625E-2,-3.213986E-2],"split_indices":[1,1,0,0,1,0,0,1,0,1,0,0,0,0,0,0,0,0,0,0,0,0,0,0,0],"split_type":[0,0,0,0,0,0,0,0,0,0,0,0,0,0,0,0,0,0,0,0,0,0,0,0,0],"sum_hessian":[1.6416E4,1.5676E4,7.4E2,2.548E3,1.3128E4,4.13E2,3.27E2,1.064E3,1.484E3,7.231E3,5.897E3,3.44E2,6.9E1,1.87E2,1.4E2,9.48E2,1.16E2,3.39E2,1.145E3,5.638E3,1.593E3,2.248E3,3.649E3,2.26E2,1.18E2],"tree_param":{"num_deleted":"0","num_feature":"2","num_nodes":"25","size_leaf_vector":"1"}}]},"name":"gbtree"},"learner_model_param":{"base_score":"[1.3824866E1]","boost_from_average":"1","num_class":"0","num_feature":"2","num_target":"1"},"objective":{"name":"reg:squarederror","reg_loss_param":{"scale_pos_weight":"1"}}},"version":[3,2,1]}