{"learner":{"attributes":{},"feature_names":["day_of_week","hour_of_day"],"feature_types":[],"gradient_booster":{"model":{"cats":{"enc":[],"feature_segments":[],"sorted_idx":[]},"gbtree_model_param":{"num_parallel_tree":"1","num_trees":"50"},"iteration_indptr":[0,1,2,3,4,5,6,7,8,9,10,11,12,13,14,15,16,17,18,19,20,21,22,23,24,25,26,27,28,29,30,31,32,33,34,35,36,37,38,39,40,41,42,43,44,45,46,47,48,49,50],"tree_info":[0,0,0,0,0,0,0,0,0,0,0,0,0,0,0,0,0,0,0,0,0,0,0,0,0,0,0,0,0,0,0,0,0,0,0,0,0,0,0,0,0,0,0,0,0,0,0,0,0,0],"trees":[{"base_weights":[-2.1532056E-8,-9.771288E0,1.2892199E0,-1.027367E1,-5.8613296E0,3.0528579E0,-4.3574E0,-1.1660525E0,-8.528396E0,-1.4503141E-1,-8.289564E-1,-2.002276E0,3.988297E0,-2.2839682E0,-7.130963E0,-7.6846987E-1,-9.020398E-1,2.4816635E-1,-6.656204E-1,4.7092852E-1,1.20468654E-1,-3.8796926E-1,-1.2625659E-1,-9.9267703E-1,-5.6990635E-1],"categories":[],"categories_nodes":[],"categories_segments":[],"categories_sizes":[],"default_left":[0,0,0,0,0,0,0,0,0,0,0,0,0,0,0,0,0,0,0,0,0,0,0,0,0],"id":0,"left_children":[1,3,5,7,9,11,13,-1,15,-1,-1,17,19,21,23,-1,-1,-1,-1,-1,-1,-1,-1,-1,-1],"loss_changes":[6.1386836E4,1.0555E3,4.2885047E4,1.1156172E3,7.0561304E2,1.5523078E4,5.8782773E3,0E0,2.4492188E1,0E0,0E0,1.0721767E4,5.5515703E3,9.53469E2,1.6968789E3,0E0,0E0,0E0,0E0,0E0,0E0,0E0,0E0,0E0,0E0],"parents":[2147483647,0,0,1,1,2,2,3,3,4,4,5,5,6,6,8,8,11,11,12,12,13,13,14,14],"right_children":[2,4,6,8,10,12,14,-1,16,-1,-1,18,20,22,24,-1,-1,-1,-1,-1,-1,-1,-1,-1,-1],"split_conditions":[4E0,3E0,2E1,5E0,2E0,7E0,2.2E1,-1.1660525E0,1E0,-1.4503141E-1,-8.289564E-1,5E0,1.8E1,4E0,4E0,-7.6846987E-1,-9.020398E-1,2.4816635E-1,-6.656204E-1,4.7092852E-1,1.20468654E-1,-3.8796926E-1,-1.2625659E-1,-9.9267703E-1,-5.6990635E-1],"split_indices":[1,1,1,0,0,1,1,0,1,0,0,0,1,0,0,0,0,0,0,0,0,0,0,0,0],"split_type":[0,0,0,0,0,0,0,0,0,0,0,0,0,0,0,0,0,0,0,0,0,0,0,0,0],"sum_hessian":[4.871E3,5.67E2,4.304E3,5.01E2,6.6E1,3.28E3,1.024E3,2.76E2,2.25E2,2.4E1,4.2E1,5.12E2,2.768E3,5.87E2,4.37E2,8.9E1,1.36E2,2.61E2,2.51E2,2.198E3,5.7E2,2.28E2,3.59E2,1.46E2,2.91E2],"tree_param":{"num_deleted":"0","num_feature":"2","num_nodes":"25","size_leaf_vector":"1"}},{"base_weights":[-1.172548E-3,-8.800868E0,1.1598561E0,-9.251954E0,-5.289734E0,2.7476254E0,-3.923686E0,-1.0498681E0,-7.6829476E0,-1.3110843E-1,-7.479885E-1,-1.8028616E0,3.589681E0,-2.0564456E0,-6.4214344E0,-6.924767E-1,-8.124943E-1,2.2344449E-1,-5.9932244E-1,4.2385712E-1,1.0844284E-1,-1.4791082E-1,-4.44398E-1,-8.9408463E-1,-5.131109E-1],"categories":[],"categories_nodes":[],"categories_segments":[],"categories_sizes":[],"default_left":[0,0,0,0,0,0,0,0,0,0,0,0,0,0,0,0,0,0,0,0,0,0,0,0,0],"id":1,"left_children":[1,3,5,7,9,11,13,-1,15,-1,-1,17,19,21,23,-1,-1,-1,-1,-1,-1,-1,-1,-1,-1],"loss_changes":[4.978596E4,8.506719E2,3.475855E4,9.013125E2,5.7402075E2,1.2578486E4,4.767289E3,0E0,1.947168E1,0E0,0E0,8.692211E3,4.496785E3,8.039336E2,1.378002E3,0E0,0E0,0E0,0E0,0E0,0E0,0E0,0E0,0E0,0E0],"parents":[2147483647,0,0,1,1,2,2,3,3,4,4,5,5,6,6,8,8,11,11,12,12,13,13,14,14],"right_children":[2,4,6,8,10,12,14,-1,16,-1,-1,18,20,22,24,-1,-1,-1,-1,-1,-1,-1,-1,-1,-1],"split_conditions":[4E0,3E0,2E1,5E0,2E0,7E0,2.2E1,-1.0498681E0,1E0,-1.3110843E-1,-7.479885E-1,5E0,1.8E1,7E0,4E0,-6.924767E-1,-8.124943E-1,2.2344449E-1,-5.9932244E-1,4.2385712E-1,1.0844284E-1,-1.4791082E-1,-4.44398E-1,-8.9408463E-1,-5.131109E-1],"split_indices":[1,1,1,0,0,1,1,0,1,0,0,0,1,0,0,0,0,0,0,0,0,0,0,0,0],"split_type":[0,0,0,0,0,0,0,0,0,0,0,0,0,0,0,0,0,0,0,0,0,0,0,0,0],"sum_hessian":[4.871E3,5.67E2,4.304E3,5.01E2,6.6E1,3.28E3,1.024E3,2.76E2,2.25E2,2.4E1,4.2E1,5.12E2,2.768E3,5.87E2,4.37E2,8.9E1,1.36E2,2.61E2,2.51E2,2.198E3,5.7E2,4.74E2,1.13E2,1.46E2,2.91E2],"tree_param":{"num_deleted":"0","num_feature":"2","num_nodes":"25","size_leaf_vector":"1"}},{"base_weights":[-2.1381888E-3,-7.926827E0,1.0434426E0,-8.331848E0,-4.7738814E0,2.472911E0,-3.533268E0,-9.4526035E-1,-6.9213123E0,-1.1852204E-1,-6.7492914E-1,-1.6233085E0,3.2309055E0,-1.8518083E0,-5.782503E0,-6.239985E-1,-7.318379E-1,2.0118526E-1,-5.39628E-1,3.8149077E-1,9.761751E-2,-3.3461526E-1,-8.960954E-2,-4.8954216E-1,-9.1581595E-1],"categories":[],"categories_nodes":[],"categories_segments":[],"categories_sizes":[],"default_left":[0,0,0,0,0,0,0,0,0,0,0,0,0,0,0,0,0,0,0,0,0,0,0,0,0],"id":2,"left_children":[1,3,5,7,9,11,13,-1,15,-1,-1,17,19,21,23,-1,-1,-1,-1,-1,-1,-1,-1,-1,-1],"loss_changes":[4.0377188E4,6.855625E2,2.8173174E4,7.281758E2,4.6696887E2,1.0192467E4,3.8658398E3,0E0,1.5473633E1,0E0,0E0,7.046836E3,3.6424043E3,8.367621E2,1.26675E3,0E0,0E0,0E0,0E0,0E0,0E0,0E0,0E0,0E0,0E0],"parents":[2147483647,0,0,1,1,2,2,3,3,4,4,5,5,6,6,8,8,11,11,12,12,13,13,14,14],"right_children":[2,4,6,8,10,12,14,-1,16,-1,-1,18,20,22,24,-1,-1,-1,-1,-1,-1,-1,-1,-1,-1],"split_conditions":[4E0,3E0,2E1,5E0,2E0,7E0,2.2E1,-9.4526035E-1,1E0,-1.1852204E-1,-6.7492914E-1,5E0,1.8E1,4E0,7E0,-6.239985E-1,-7.318379E-1,2.0118526E-1,-5.39628E-1,3.8149077E-1,9.761751E-2,-3.3461526E-1,-8.960954E-2,-4.8954216E-1,-9.1581595E-1],"split_indices":[1,1,1,0,0,1,1,0,1,0,0,0,1,0,0,0,0,0,0,0,0,0,0,0,0],"split_type":[0,0,0,0,0,0,0,0,0,0,0,0,0,0,0,0,0,0,0,0,0,0,0,0,0],"sum_hessian":[4.871E3,5.67E2,4.304E3,5.01E2,6.6E1,3.28E3,1.024E3,2.76E2,2.25E2,2.4E1,4.2E1,5.12E2,2.768E3,5.87E2,4.37E2,8.9E1,1.36E2,2.61E2,2.51E2,2.198E3,5.7E2,2.28E2,3.59E2,3.48E2,8.9E1],"tree_param":{"num_deleted":"0","num_feature":"2","num_nodes":"25","size_leaf_vector":"1"}},{"base_weights":[-2.9062897E-3,-7.1395926E0,9.38706E-1,-7.5032473E0,-4.3083363E0,2.2256625E0,-3.1817262E0,-8.5107565E-1,-6.23518E0,-1.0714395E-1,-6.0900587E-1,-1.4616373E0,2.9079878E0,-1.667349E0,-5.207462E0,-5.6229204E-1,-6.591882E-1,1.8114355E-1,-4.858794E-1,3.2593402E-1,-1.3008368E-2,-1.1244849E-1,-3.914657E-1,-7.5666326E-1,-4.001963E-1],"categories":[],"categories_nodes":[],"categories_segments":[],"categories_sizes":[],"default_left":[0,0,0,0,0,0,0,0,0,0,0,0,0,0,0,0,0,0,0,0,0,0,0,0,0],"id":3,"left_children":[1,3,5,7,9,11,13,-1,15,-1,-1,17,19,21,23,-1,-1,-1,-1,-1,-1,-1,-1,-1,-1],"loss_changes":[3.27465E4,5.524883E2,2.2835709E4,5.882832E2,3.7988086E2,8.259045E3,3.1357373E3,0E0,1.2291992E1,0E0,0E0,5.71292E3,2.9561465E3,7.129479E2,1.2153809E3,0E0,0E0,0E0,0E0,0E0,0E0,0E0,0E0,0E0,0E0],"parents":[2147483647,0,0,1,1,2,2,3,3,4,4,5,5,6,6,8,8,11,11,12,12,13,13,14,14],"right_children":[2,4,6,8,10,12,14,-1,16,-1,-1,18,20,22,24,-1,-1,-1,-1,-1,-1,-1,-1,-1,-1],"split_conditions":[4E0,3E0,2E1,5E0,2E0,7E0,2.2E1,-8.5107565E-1,1E0,-1.0714395E-1,-6.0900587E-1,5E0,1.9E1,7E0,4E0,-5.6229204E-1,-6.591882E-1,1.8114355E-1,-4.858794E-1,3.2593402E-1,-1.3008368E-2,-1.1244849E-1,-3.914657E-1,-7.5666326E-1,-4.001963E-1],"split_indices":[1,1,1,0,0,1,1,0,1,0,0,0,1,0,0,0,0,0,0,0,0,0,0,0,0],"split_type":[0,0,0,0,0,0,0,0,0,0,0,0,0,0,0,0,0,0,0,0,0,0,0,0,0],"sum_hessian":[4.871E3,5.67E2,4.304E3,5.01E2,6.6E1,3.28E3,1.024E3,2.76E2,2.25E2,2.4E1,4.2E1,5.12E2,2.768E3,5.87E2,4.37E2,8.9E1,1.36E2,2.61E2,2.51E2,2.481E3,2.87E2,4.74E2,1.13E2,1.46E2,2.91E2],"tree_param":{"num_deleted":"0","num_feature":"2","num_nodes":"25","size_leaf_vector":"1"}},{"base_weights":[-3.5274336E-3,-6.4305434E0,8.444513E-1,-6.7570515E0,-3.8881912E0,2.0030985E0,-2.8651738E0,-7.6627535E-1,-5.617067E0,-9.68581E-2,-5.495216E-1,-1.3160679E0,2.617302E0,-1.5014708E0,-4.689357E0,-5.066876E-1,-5.937506E-1,1.630983E-1,-4.3748426E-1,3.1078038E-1,7.2372705E-2,-2.9010403E-1,-6.0701836E-2,-3.8591093E-1,-7.856769E-1],"categories":[],"categories_nodes":[],"categories_segments":[],"categories_sizes":[],"default_left":[0,0,0,0,0,0,0,0,0,0,0,0,0,0,0,0,0,0,0,0,0,0,0,0,0],"id":4,"left_children":[1,3,5,7,9,11,13,-1,15,-1,-1,17,19,21,23,-1,-1,-1,-1,-1,-1,-1,-1,-1,-1],"loss_changes":[2.6557697E4,4.452246E2,1.8509262E4,4.7526562E2,3.0903387E2,6.6922334E3,2.542793E3,0E0,9.760254E0,0E0,0E0,4.631505E3,2.5696035E3,7.3432605E2,1.1215049E3,0E0,0E0,0E0,0E0,0E0,0E0,0E0,0E0,0E0,0E0],"parents":[2147483647,0,0,1,1,2,2,3,3,4,4,5,5,6,6,8,8,11,11,12,12,13,13,14,14],"right_children":[2,4,6,8,10,12,14,-1,16,-1,-1,18,20,22,24,-1,-1,-1,-1,-1,-1,-1,-1,-1,-1],"split_conditions":[4E0,3E0,2E1,5E0,2E0,7E0,2.2E1,-7.6627535E-1,1E0,-9.68581E-2,-5.495216E-1,5E0,1.8E1,4E0,7E0,-5.066876E-1,-5.937506E-1,1.630983E-1,-4.3748426E-1,3.1078038E-1,7.2372705E-2,-2.9010403E-1,-6.0701836E-2,-3.8591093E-1,-7.856769E-1],"split_indices":[1,1,1,0,0,1,1,0,1,0,0,0,1,0,0,0,0,0,0,0,0,0,0,0,0],"split_type":[0,0,0,0,0,0,0,0,0,0,0,0,0,0,0,0,0,0,0,0,0,0,0,0,0],"sum_hessian":[4.871E3,5.67E2,4.304E3,5.01E2,6.6E1,3.28E3,1.024E3,2.76E2,2.25E2,2.4E1,4.2E1,5.12E2,2.768E3,5.87E2,4.37E2,8.9E1,1.36E2,2.61E2,2.51E2,2.198E3,5.7E2,2.28E2,3.59E2,3.48E2,8.9E1],"tree_param":{"num_deleted":"0","num_feature":"2","num_nodes":"25","size_leaf_vector":"1"}},{"base_weights":[-3.9807484E-3,-5.7919135E0,7.596777E-1,-6.085065E0,-3.5090196E0,1.6223694E0,-3.2923262E0,-6.899244E-1,-5.0602293E0,-8.755972E-2,-4.9584743E-1,-1.1849958E0,2.09589E0,-2.541319E0,-6.6973505E0,-4.5658183E-1,-5.348089E-1,1.4685073E-1,-3.9390942E-1,2.6500654E-1,-3.7728615E-2,-5.46581E-1,-4.198965E-2,-5.8459496E-1,-8.2891625E-1],"categories":[],"categories_nodes":[],"categories_segments":[],"categories_sizes":[],"default_left":[0,0,0,0,0,0,0,0,0,0,0,0,0,0,0,0,0,0,0,0,0,0,0,0,0],"id":5,"left_children":[1,3,5,7,9,11,13,-1,15,-1,-1,17,19,21,23,-1,-1,-1,-1,-1,-1,-1,-1,-1,-1],"loss_changes":[2.1538658E4,3.5877148E2,1.5054028E4,3.8395703E2,2.5139899E2,4.72166E3,1.9162217E3,0E0,7.7460938E0,0E0,0E0,3.754793E3,4.1648E3,3.850439E3,1.3585889E2,0E0,0E0,0E0,0E0,0E0,0E0,0E0,0E0,0E0,0E0],"parents":[2147483647,0,0,1,1,2,2,3,3,4,4,5,5,6,6,8,8,11,11,12,12,13,13,14,14],"right_children":[2,4,6,8,10,12,14,-1,16,-1,-1,18,20,22,24,-1,-1,-1,-1,-1,-1,-1,-1,-1,-1],"split_conditions":[4E0,3E0,2.1E1,5E0,2E0,7E0,7E0,-6.899244E-1,1E0,-8.755972E-2,-4.9584743E-1,5E0,1.9E1,4E0,2.3E1,-4.5658183E-1,-5.348089E-1,1.4685073E-1,-3.9390942E-1,2.6500654E-1,-3.7728615E-2,-5.46581E-1,-4.198965E-2,-5.8459496E-1,-8.2891625E-1],"split_indices":[1,1,1,0,0,1,0,0,1,0,0,0,1,0,1,0,0,0,0,0,0,0,0,0,0],"split_type":[0,0,0,0,0,0,0,0,0,0,0,0,0,0,0,0,0,0,0,0,0,0,0,0,0],"sum_hessian":[4.871E3,5.67E2,4.304E3,5.01E2,6.6E1,3.549E3,7.55E2,2.76E2,2.25E2,2.4E1,4.2E1,5.12E2,3.037E3,6.2E2,1.35E2,8.9E1,1.36E2,2.61E2,2.51E2,2.481E3,5.56E2,2.6E2,3.6E2,9.1E1,4.4E1],"tree_param":{"num_deleted":"0","num_feature":"2","num_nodes":"25","size_leaf_vector":"1"}},{"base_weights":[-4.4622207E-3,-5.216709E0,6.8324065E-1,-5.4799075E0,-3.166825E0,1.4601272E0,-2.9657419E0,-6.2118113E-1,-4.558593E0,-7.915399E-2,-4.474158E-1,-1.0669776E0,1.8863764E0,-2.2881348E0,-6.038009E0,-4.1143093E-1,-4.8171836E-1,1.3222171E-1,-3.546748E-1,2.3851664E-1,-3.396255E-2,-4.9213228E-1,-3.7802346E-2,-5.2677095E-1,-7.478666E-1],"categories":[],"categories_nodes":[],"categories_segments":[],"categories_sizes":[],"default_left":[0,0,0,0,0,0,0,0,0,0,0,0,0,0,0,0,0,0,0,0,0,0,0,0,0],"id":6,"left_children":[1,3,5,7,9,11,13,-1,15,-1,-1,17,19,21,23,-1,-1,-1,-1,-1,-1,-1,-1,-1,-1],"loss_changes":[1.7467137E4,2.8909766E2,1.2208342E4,3.101875E2,2.0451282E2,3.8259883E3,1.5600171E3,0E0,6.1450195E0,0E0,0E0,3.044037E3,3.3739238E3,3.1215718E3,1.1152881E2,0E0,0E0,0E0,0E0,0E0,0E0,0E0,0E0,0E0,0E0],"parents":[2147483647,0,0,1,1,2,2,3,3,4,4,5,5,6,6,8,8,11,11,12,12,13,13,14,14],"right_children":[2,4,6,8,10,12,14,-1,16,-1,-1,18,20,22,24,-1,-1,-1,-1,-1,-1,-1,-1,-1,-1],"split_conditions":[4E0,3E0,2.1E1,5E0,2E0,7E0,7E0,-6.2118113E-1,1E0,-7.915399E-2,-4.474158E-1,5E0,1.9E1,4E0,2.3E1,-4.1143093E-1,-4.8171836E-1,1.3222171E-1,-3.546748E-1,2.3851664E-1,-3.396255E-2,-4.9213228E-1,-3.7802346E-2,-5.2677095E-1,-7.478666E-1],"split_indices":[1,1,1,0,0,1,0,0,1,0,0,0,1,0,1,0,0,0,0,0,0,0,0,0,0],"split_type":[0,0,0,0,0,0,0,0,0,0,0,0,0,0,0,0,0,0,0,0,0,0,0,0,0],"sum_hessian":[4.871E3,5.67E2,4.304E3,5.01E2,6.6E1,3.549E3,7.55E2,2.76E2,2.25E2,2.4E1,4.2E1,5.12E2,3.037E3,6.2E2,1.35E2,8.9E1,1.36E2,2.61E2,2.51E2,2.481E3,5.56E2,2.6E2,3.6E2,9.1E1,4.4E1],"tree_param":{"num_deleted":"0","num_feature":"2","num_nodes":"25","size_leaf_vector":"1"}},{"base_weights":[-4.8091006E-3,-4.6986313E0,6.144931E-1,-4.934933E0,-2.858002E0,1.4634105E0,-2.1034706E0,-5.5928725E-1,-4.106685E0,-7.155521E-2,-4.0371475E-1,-4.6693558E-1,2.0829568E0,-1.009356E0,-3.5674794E0,-3.707449E-1,-4.3389818E-1,1.7702748E-1,-2.8355607E-1,2.5726178E-1,4.3795805E-2,-5.352662E-2,-2.975876E-1,-5.892274E-1,-2.8167418E-1],"categories":[],"categories_nodes":[],"categories_segments":[],"categories_sizes":[],"default_left":[0,0,0,0,0,0,0,0,0,0,0,0,0,0,0,0,0,0,0,0,0,0,0,0,0],"id":7,"left_children":[1,3,5,7,9,11,13,-1,15,-1,-1,17,19,21,23,-1,-1,-1,-1,-1,-1,-1,-1,-1,-1],"loss_changes":[1.4165277E4,2.3294434E2,9.93612E3,2.5058984E2,1.663706E2,3.9248472E3,1.6382368E3,0E0,4.873291E0,0E0,0E0,4.2337114E3,1.9997148E3,5.4660376E2,7.478491E2,0E0,0E0,0E0,0E0,0E0,0E0,0E0,0E0,0E0,0E0],"parents":[2147483647,0,0,1,1,2,2,3,3,4,4,5,5,6,6,8,8,11,11,12,12,13,13,14,14],"right_children":[2,4,6,8,10,12,14,-1,16,-1,-1,18,20,22,24,-1,-1,-1,-1,-1,-1,-1,-1,-1,-1],"split_conditions":[4E0,3E0,2E1,5E0,2E0,9E0,2.2E1,-5.5928725E-1,1E0,-7.155521E-2,-4.0371475E-1,5E0,1.8E1,7E0,3E0,-3.707449E-1,-4.3389818E-1,1.7702748E-1,-2.8355607E-1,2.5726178E-1,4.3795805E-2,-5.352662E-2,-2.975876E-1,-5.892274E-1,-2.8167418E-1],"split_indices":[1,1,1,0,0,1,1,0,1,0,0,0,1,0,0,0,0,0,0,0,0,0,0,0,0],"split_type":[0,0,0,0,0,0,0,0,0,0,0,0,0,0,0,0,0,0,0,0,0,0,0,0,0],"sum_hessian":[4.871E3,5.67E2,4.304E3,5.01E2,6.6E1,3.28E3,1.024E3,2.76E2,2.25E2,2.4E1,4.2E1,7.97E2,2.483E3,5.87E2,4.37E2,8.9E1,1.36E2,4.1E2,3.87E2,1.913E3,5.7E2,4.74E2,1.13E2,1.05E2,3.32E2],"tree_param":{"num_deleted":"0","num_feature":"2","num_nodes":"25","size_leaf_vector":"1"}},{"base_weights":[-4.916803E-3,-3.2055197E0,7.359872E-1,-4.444157E0,-1.6994916E0,1.8520297E0,-1.5153729E0,-5.0356045E0,-3.6995773E0,7.437741E-2,-3.6628308E0,3.0081048E0,7.795874E-1,-6.6399777E-1,-3.2127194E0,-4.704891E-1,-5.308382E-1,-3.340824E-1,-3.9082506E-1,-5.9175726E-2,3.3670333E-1,-2.466924E-1,-5.028756E-1,2.6174164E-1,4.3059108E-1,-1.8184827E-1,1.3117248E-1,-2.0052715E-1,1.1678591E-2,-4.900744E-1,-2.351924E-1],"categories":[],"categories_nodes":[],"categories_segments":[],"categories_sizes":[],"default_left":[0,0,0,0,0,0,0,0,0,0,0,0,0,0,0,0,0,0,0,0,0,0,0,0,0,0,0,0,0,0,0],"id":8,"left_children":[1,3,5,7,9,11,13,15,17,19,21,23,25,27,29,-1,-1,-1,-1,-1,-1,-1,-1,-1,-1,-1,-1,-1,-1,-1,-1],"loss_changes":[1.1555524E4,1.7011748E3,9.945217E3,2.024414E2,1.4455957E3,3.2782295E3,1.8938098E3,1.3183594E-2,3.8620605E0,4.823366E2,3.093977E2,6.341885E2,1.9019819E3,9.1657324E2,6.2490674E2,0E0,0E0,0E0,0E0,0E0,0E0,0E0,0E0,0E0,0E0,0E0,0E0,0E0,0E0,0E0,0E0],"parents":[2147483647,0,0,1,1,2,2,3,3,4,4,5,5,6,6,7,7,8,8,9,9,10,10,11,11,12,12,13,13,14,14],"right_children":[2,4,6,8,10,12,14,16,18,20,22,24,26,28,30,-1,-1,-1,-1,-1,-1,-1,-1,-1,-1,-1,-1,-1,-1,-1,-1],"split_conditions":[6E0,3E0,1.9E1,5E0,5E0,5E0,2.2E1,2E0,1E0,4E0,7E0,4E0,9E0,4E0,4E0,-4.704891E-1,-5.308382E-1,-3.340824E-1,-3.9082506E-1,-5.9175726E-2,3.3670333E-1,-2.466924E-1,-5.028756E-1,2.6174164E-1,4.3059108E-1,-1.8184827E-1,1.3117248E-1,-2.0052715E-1,1.1678591E-2,-4.900744E-1,-2.351924E-1],"split_indices":[1,1,1,0,0,0,1,0,1,0,0,0,1,0,0,0,0,0,0,0,0,0,0,0,0,0,0,0,0,0,0],"split_type":[0,0,0,0,0,0,0,0,0,0,0,0,0,0,0,0,0,0,0,0,0,0,0,0,0,0,0,0,0,0,0],"sum_hessian":[4.871E3,9.15E2,3.956E3,5.01E2,4.14E2,2.645E3,1.311E3,2.76E2,2.25E2,2.18E2,1.96E2,1.272E3,1.373E3,8.74E2,4.37E2,1.33E2,1.43E2,8.9E1,1.36E2,1.82E2,3.6E1,1.06E2,9E1,9.8E2,2.92E2,2.33E2,1.14E3,3.21E2,5.53E2,1.46E2,2.91E2],"tree_param":{"num_deleted":"0","num_feature":"2","num_nodes":"31","size_leaf_vector":"1"}},{"base_weights":[-4.9322136E-3,-2.8873675E0,6.6231966E-1,-4.00318E0,-1.5306801E0,1.6670693E0,-1.3645324E0,-4.535659E-1,-3.332827E0,6.820657E-2,-3.3003528E0,2.707838E0,7.01592E-1,-5.9781384E-1,-2.8931036E0,-3.0104536E-1,-3.5202783E-1,-5.3290527E-2,3.03943E-1,-2.2225368E-1,-4.531407E-1,2.3559418E-1,3.876789E-1,-1.6374113E-1,1.1806675E-1,-3.075311E-1,-2.1888291E-2,-2.2790442E-1,-5.242144E-1],"categories":[],"categories_nodes":[],"categories_segments":[],"categories_sizes":[],"default_left":[0,0,0,0,0,0,0,0,0,0,0,0,0,0,0,0,0,0,0,0,0,0,0,0,0,0,0,0,0],"id":9,"left_children":[1,3,5,7,9,11,13,-1,15,17,19,21,23,25,27,-1,-1,-1,-1,-1,-1,-1,-1,-1,-1,-1,-1,-1,-1],"loss_changes":[9.372281E3,1.3805215E3,8.060621E3,1.6407178E2,1.17447E3,2.6569033E3,1.5359133E3,0E0,3.0593262E0,3.9276196E2,2.5131836E2,5.1451465E2,1.5415815E3,8.2077716E2,6.198462E2,0E0,0E0,0E0,0E0,0E0,0E0,0E0,0E0,0E0,0E0,0E0,0E0,0E0,0E0],"parents":[2147483647,0,0,1,1,2,2,3,3,4,4,5,5,6,6,8,8,9,9,10,10,11,11,12,12,13,13,14,14],"right_children":[2,4,6,8,10,12,14,-1,16,18,20,22,24,26,28,-1,-1,-1,-1,-1,-1,-1,-1,-1,-1,-1,-1,-1,-1],"split_conditions":[6E0,3E0,1.9E1,5E0,5E0,5E0,2.2E1,-4.535659E-1,1E0,4E0,7E0,4E0,9E0,2E0,7E0,-3.0104536E-1,-3.5202783E-1,-5.3290527E-2,3.03943E-1,-2.2225368E-1,-4.531407E-1,2.3559418E-1,3.876789E-1,-1.6374113E-1,1.1806675E-1,-3.075311E-1,-2.1888291E-2,-2.2790442E-1,-5.242144E-1],"split_indices":[1,1,1,0,0,0,1,0,1,0,0,0,1,0,0,0,0,0,0,0,0,0,0,0,0,0,0,0,0],"split_type":[0,0,0,0,0,0,0,0,0,0,0,0,0,0,0,0,0,0,0,0,0,0,0,0,0,0,0,0,0],"sum_hessian":[4.871E3,9.15E2,3.956E3,5.01E2,4.14E2,2.645E3,1.311E3,2.76E2,2.25E2,2.18E2,1.96E2,1.272E3,1.373E3,8.74E2,4.37E2,8.9E1,1.36E2,1.82E2,3.6E1,1.06E2,9E1,9.8E2,2.92E2,2.33E2,1.14E3,1.15E2,7.59E2,3.48E2,8.9E1],"tree_param":{"num_deleted":"0","num_feature":"2","num_nodes":"29","size_leaf_vector":"1"}},{"base_weights":[-4.8565753E-3,-2.6003027E0,5.9596056E-1,-3.6050665E0,-1.3786356E0,1.5005809E0,-1.2289032E0,-4.08373E0,-3.002434E0,6.25304E-2,-2.9737458E0,2.4375443E0,6.313996E-1,-5.384085E-1,-2.6055105E0,-3.787732E-1,-4.330814E-1,-3.2764742E-1,-2.8073406E-1,-4.7990605E-2,2.7437016E-1,-2.0023601E-1,-4.0832463E-1,2.1205881E-1,3.4904337E-1,-1.4743699E-1,1.0627043E-1,-2.7704307E-1,-1.9702299E-2,-4.5973998E-1,-1.9636314E-1],"categories":[],"categories_nodes":[],"categories_segments":[],"categories_sizes":[],"default_left":[0,0,0,0,0,0,0,0,0,0,0,0,0,0,0,0,0,0,0,0,0,0,0,0,0,0,0,0,0,0,0],"id":10,"left_children":[1,3,5,7,9,11,13,15,17,19,21,23,25,27,29,-1,-1,-1,-1,-1,-1,-1,-1,-1,-1,-1,-1,-1,-1,-1,-1],"loss_changes":[7.5988906E3,1.1194077E3,6.534094E3,1.3254541E2,9.5419574E2,2.1533398E3,1.2457056E3,3.8544922E0,2.8845215E0,3.198227E2,2.0414124E2,4.1742383E2,1.2494724E3,6.661867E2,5.50978E2,0E0,0E0,0E0,0E0,0E0,0E0,0E0,0E0,0E0,0E0,0E0,0E0,0E0,0E0,0E0,0E0],"parents":[2147483647,0,0,1,1,2,2,3,3,4,4,5,5,6,6,7,7,8,8,9,9,10,10,11,11,12,12,13,13,14,14],"right_children":[2,4,6,8,10,12,14,16,18,20,22,24,26,28,30,-1,-1,-1,-1,-1,-1,-1,-1,-1,-1,-1,-1,-1,-1,-1,-1],"split_conditions":[6E0,3E0,1.9E1,5E0,5E0,5E0,2.2E1,2E0,7E0,4E0,7E0,4E0,9E0,2E0,3E0,-3.787732E-1,-4.330814E-1,-3.2764742E-1,-2.8073406E-1,-4.7990605E-2,2.7437016E-1,-2.0023601E-1,-4.0832463E-1,2.1205881E-1,3.4904337E-1,-1.4743699E-1,1.0627043E-1,-2.7704307E-1,-1.9702299E-2,-4.5973998E-1,-1.9636314E-1],"split_indices":[1,1,1,0,0,0,1,0,0,0,0,0,1,0,0,0,0,0,0,0,0,0,0,0,0,0,0,0,0,0,0],"split_type":[0,0,0,0,0,0,0,0,0,0,0,0,0,0,0,0,0,0,0,0,0,0,0,0,0,0,0,0,0,0,0],"sum_hessian":[4.871E3,9.15E2,3.956E3,5.01E2,4.14E2,2.645E3,1.311E3,2.76E2,2.25E2,2.18E2,1.96E2,1.272E3,1.373E3,8.74E2,4.37E2,1.33E2,1.43E2,8.7E1,1.38E2,1.82E2,3.6E1,1.06E2,9E1,9.8E2,2.92E2,2.33E2,1.14E3,1.15E2,7.59E2,1.05E2,3.32E2],"tree_param":{"num_deleted":"0","num_feature":"2","num_nodes":"31","size_leaf_vector":"1"}},{"base_weights":[-4.8296573E-3,-2.3422399E0,5.362552E-1,-3.247389E0,-1.2416929E0,1.0994576E0,-1.8498697E0,-3.678288E0,-2.7048826E0,5.7311267E-2,-2.6794605E0,1.4703455E0,5.4805733E-2,-1.2614688E0,-4.5230107E0,-3.4117857E-1,-3.9007398E-1,-2.4122028E-1,-2.8774104E-1,-4.3217752E-2,2.4767473E-1,-1.8039952E-1,-3.679409E-1,2.3804691E-1,6.3290216E-2,-1.443296E-1,4.7136776E-2,-3.3096057E-1,2.2281159E-2,-3.977643E-1,-5.5374736E-1],"categories":[],"categories_nodes":[],"categories_segments":[],"categories_sizes":[],"default_left":[0,0,0,0,0,0,0,0,0,0,0,0,0,0,0,0,0,0,0,0,0,0,0,0,0,0,0,0,0,0,0],"id":11,"left_children":[1,3,5,7,9,11,13,15,17,19,21,23,25,27,29,-1,-1,-1,-1,-1,-1,-1,-1,-1,-1,-1,-1,-1,-1,-1,-1],"loss_changes":[6.1630557E3,9.084497E2,5.3197324E3,1.0740137E2,7.75235E2,1.2405305E3,1.1833909E3,3.113037E0,4.4709473E0,2.6042917E2,1.6582007E2,1.7995171E3,5.248843E2,1.888583E3,5.3216553E1,0E0,0E0,0E0,0E0,0E0,0E0,0E0,0E0,0E0,0E0,0E0,0E0,0E0,0E0,0E0,0E0],"parents":[2147483647,0,0,1,1,2,2,3,3,4,4,5,5,6,6,7,7,8,8,9,9,10,10,11,11,12,12,13,13,14,14],"right_children":[2,4,6,8,10,12,14,16,18,20,22,24,26,28,30,-1,-1,-1,-1,-1,-1,-1,-1,-1,-1,-1,-1,-1,-1,-1,-1],"split_conditions":[6E0,3E0,2.1E1,5E0,5E0,1.8E1,7E0,2E0,1E0,4E0,7E0,5E0,3E0,4E0,2.3E1,-3.4117857E-1,-3.9007398E-1,-2.4122028E-1,-2.8774104E-1,-4.3217752E-2,2.4767473E-1,-1.8039952E-1,-3.679409E-1,2.3804691E-1,6.3290216E-2,-1.443296E-1,4.7136776E-2,-3.3096057E-1,2.2281159E-2,-3.977643E-1,-5.5374736E-1],"split_indices":[1,1,1,0,0,1,0,0,1,0,0,0,0,0,1,0,0,0,0,0,0,0,0,0,0,0,0,0,0,0,0],"split_type":[0,0,0,0,0,0,0,0,0,0,0,0,0,0,0,0,0,0,0,0,0,0,0,0,0,0,0,0,0,0,0],"sum_hessian":[4.871E3,9.15E2,3.956E3,5.01E2,4.14E2,3.201E3,7.55E2,2.76E2,2.25E2,2.18E2,1.96E2,2.362E3,8.39E2,6.2E2,1.35E2,1.33E2,1.43E2,8.9E1,1.36E2,1.82E2,3.6E1,1.06E2,9E1,1.131E3,1.231E3,1.82E2,6.57E2,2.6E2,3.6E2,9.1E1,4.4E1],"tree_param":{"num_deleted":"0","num_feature":"2","num_nodes":"31","size_leaf_vector":"1"}},{"base_weights":[-4.892426E-3,-2.1097672E0,4.823631E-1,-2.9251604E0,-1.1183522E0,1.1010427E0,-1.2884367E0,-3.3130994E0,-2.4367347E0,5.251364E-2,-2.4142978E0,1.7257648E0,5.191626E-1,-8.118431E-1,-3.2142892E0,-3.6867997E-1,-3.1738725E-1,-2.691339E-1,-2.2580159E-1,-7.528412E-2,1.3557963E-1,-1.6252814E-1,-3.3155116E-1,2.1426328E-1,5.219433E-3,-1.390583E-1,8.659857E-2,-2.2214268E-1,3.672342E-2,-1.4401862E-1,-4.0777063E-1],"categories":[],"categories_nodes":[],"categories_segments":[],"categories_sizes":[],"default_left":[0,0,0,0,0,0,0,0,0,0,0,0,0,0,0,0,0,0,0,0,0,0,0,0,0,0,0,0,0,0,0],"id":12,"left_children":[1,3,5,7,9,11,13,15,17,19,21,23,25,27,29,-1,-1,-1,-1,-1,-1,-1,-1,-1,-1,-1,-1,-1,-1,-1,-1],"loss_changes":[4.997799E3,7.3721655E2,4.3365405E3,8.704541E1,6.298388E2,1.0652878E3,9.3818567E2,2.7106934E0,4.206543E0,2.308842E2,1.3469263E2,9.8637695E2,1.0079669E3,1.3686486E3,3.050808E2,0E0,0E0,0E0,0E0,0E0,0E0,0E0,0E0,0E0,0E0,0E0,0E0,0E0,0E0,0E0,0E0],"parents":[2147483647,0,0,1,1,2,2,3,3,4,4,5,5,6,6,7,7,8,8,9,9,10,10,11,11,12,12,13,13,14,14],"right_children":[2,4,6,8,10,12,14,16,18,20,22,24,26,28,30,-1,-1,-1,-1,-1,-1,-1,-1,-1,-1,-1,-1,-1,-1,-1,-1],"split_conditions":[6E0,3E0,2E1,5E0,5E0,5E0,7E0,1E0,7E0,3E0,7E0,1.8E1,9E0,4E0,2.1E1,-3.6867997E-1,-3.1738725E-1,-2.691339E-1,-2.2580159E-1,-7.528412E-2,1.3557963E-1,-1.6252814E-1,-3.3155116E-1,2.1426328E-1,5.219433E-3,-1.390583E-1,8.659857E-2,-2.2214268E-1,3.672342E-2,-1.4401862E-1,-4.0777063E-1],"split_indices":[1,1,1,0,0,0,0,1,0,0,0,1,1,0,1,0,0,0,0,0,0,0,0,0,0,0,0,0,0,0,0],"split_type":[0,0,0,0,0,0,0,0,0,0,0,0,0,0,0,0,0,0,0,0,0,0,0,0,0,0,0,0,0,0,0],"sum_hessian":[4.871E3,9.15E2,3.956E3,5.01E2,4.14E2,2.932E3,1.024E3,2.76E2,2.25E2,2.18E2,1.96E2,1.413E3,1.519E3,8.22E2,2.02E2,6.8E1,2.08E2,8.7E1,1.38E2,1.35E2,8.3E1,1.06E2,9E1,1.131E3,2.82E2,2.33E2,1.286E3,3.74E2,4.48E2,6.7E1,1.35E2],"tree_param":{"num_deleted":"0","num_feature":"2","num_nodes":"31","size_leaf_vector":"1"}},{"base_weights":[-4.8519657E-3,-1.9005535E0,4.3398234E-1,-2.6349971E0,-1.0075624E0,8.9868635E-1,-1.5348222E0,-2.9842663E0,-2.1952512E0,4.753745E-2,-2.1753762E0,1.1980228E0,5.555464E-2,-1.0641009E0,-3.6729336E0,-2.741675E-1,-3.189287E-1,-1.9291852E-1,-2.3540154E-1,-3.6847975E-2,2.1038513E-1,-1.4642724E-1,-2.9876038E-1,5.284769E-2,2.0580791E-1,-1.8948607E-1,3.0091405E-2,-2.758622E-1,1.6397124E-2,-3.1808636E-1,-4.597323E-1],"categories":[],"categories_nodes":[],"categories_segments":[],"categories_sizes":[],"default_left":[0,0,0,0,0,0,0,0,0,0,0,0,0,0,0,0,0,0,0,0,0,0,0,0,0,0,0,0,0,0,0],"id":13,"left_children":[1,3,5,7,9,11,13,15,17,19,21,23,25,27,29,-1,-1,-1,-1,-1,-1,-1,-1,-1,-1,-1,-1,-1,-1,-1,-1],"loss_changes":[4.0538362E3,5.98105E2,3.621684E3,7.055078E1,5.1144977E2,8.080542E2,7.5697156E2,5.032959E0,5.005249E0,1.881214E2,1.094082E2,1.3596387E3,4.0255453E2,1.2927495E3,4.7237915E1,0E0,0E0,0E0,0E0,0E0,0E0,0E0,0E0,0E0,0E0,0E0,0E0,0E0,0E0,0E0,0E0],"parents":[2147483647,0,0,1,1,2,2,3,3,4,4,5,5,6,6,7,7,8,8,9,9,10,10,11,11,12,12,13,13,14,14],"right_children":[2,4,6,8,10,12,14,16,18,20,22,24,26,28,30,-1,-1,-1,-1,-1,-1,-1,-1,-1,-1,-1,-1,-1,-1,-1,-1],"split_conditions":[6E0,3E0,2.1E1,5E0,5E0,1.8E1,7E0,2E0,1E0,4E0,7E0,1.3E1,2E0,4E0,2.3E1,-2.741675E-1,-3.189287E-1,-1.9291852E-1,-2.3540154E-1,-3.6847975E-2,2.1038513E-1,-1.4642724E-1,-2.9876038E-1,5.284769E-2,2.0580791E-1,-1.8948607E-1,3.0091405E-2,-2.758622E-1,1.6397124E-2,-3.1808636E-1,-4.597323E-1],"split_indices":[1,1,1,0,0,1,0,0,1,0,0,1,0,0,1,0,0,0,0,0,0,0,0,0,0,0,0,0,0,0,0],"split_type":[0,0,0,0,0,0,0,0,0,0,0,0,0,0,0,0,0,0,0,0,0,0,0,0,0,0,0,0,0,0,0],"sum_hessian":[4.871E3,9.15E2,3.956E3,5.01E2,4.14E2,3.201E3,7.55E2,2.76E2,2.25E2,2.18E2,1.96E2,2.362E3,8.39E2,6.2E2,1.35E2,1.33E2,1.43E2,8.9E1,1.36E2,1.82E2,3.6E1,1.06E2,9E1,1.329E3,1.033E3,9.3E1,7.46E2,2.6E2,3.6E2,9.1E1,4.4E1],"tree_param":{"num_deleted":"0","num_feature":"2","num_nodes":"31","size_leaf_vector":"1"}},{"base_weights":[-4.824701E-3,-1.7119097E0,3.9034706E-1,-2.373532E0,-9.074606E-1,8.088488E-1,-1.3827124E0,-2.687981E0,-1.9776213E0,4.3576367E-2,-1.9600983E0,1.3290143E0,3.2182458E-1,-9.581089E-1,-3.3113594E0,-3.037051E-1,-2.5598764E-1,-2.2137785E-1,-1.8138844E-1,-6.415337E-2,1.1522835E-1,-1.3192138E-1,-2.6921266E-1,1.8107627E-1,1.8059396E-3,-1.8513332E-1,5.254353E-2,-2.4838166E-1,1.47619145E-2,-2.8662348E-1,-4.1478068E-1],"categories":[],"categories_nodes":[],"categories_segments":[],"categories_sizes":[],"default_left":[0,0,0,0,0,0,0,0,0,0,0,0,0,0,0,0,0,0,0,0,0,0,0,0,0,0,0,0,0,0,0],"id":14,"left_children":[1,3,5,7,9,11,13,15,17,19,21,23,25,27,29,-1,-1,-1,-1,-1,-1,-1,-1,-1,-1,-1,-1,-1,-1,-1,-1],"loss_changes":[3.287279E3,4.8537964E2,2.9373247E3,5.717993E1,4.1554077E2,8.1074536E2,6.159236E2,4.6121826E0,4.7233887E0,1.6708865E2,8.887024E1,9.776074E2,7.332741E2,1.0480048E3,3.8747437E1,0E0,0E0,0E0,0E0,0E0,0E0,0E0,0E0,0E0,0E0,0E0,0E0,0E0,0E0,0E0,0E0],"parents":[2147483647,0,0,1,1,2,2,3,3,4,4,5,5,6,6,7,7,8,8,9,9,10,10,11,11,12,12,13,13,14,14],"right_children":[2,4,6,8,10,12,14,16,18,20,22,24,26,28,30,-1,-1,-1,-1,-1,-1,-1,-1,-1,-1,-1,-1,-1,-1,-1,-1],"split_conditions":[6E0,3E0,2.1E1,5E0,5E0,5E0,7E0,1E0,7E0,3E0,7E0,1.8E1,8E0,4E0,2.3E1,-3.037051E-1,-2.5598764E-1,-2.2137785E-1,-1.8138844E-1,-6.415337E-2,1.1522835E-1,-1.3192138E-1,-2.6921266E-1,1.8107627E-1,1.8059396E-3,-1.8513332E-1,5.254353E-2,-2.4838166E-1,1.47619145E-2,-2.8662348E-1,-4.1478068E-1],"split_indices":[1,1,1,0,0,0,0,1,0,0,0,1,1,0,1,0,0,0,0,0,0,0,0,0,0,0,0,0,0,0,0],"split_type":[0,0,0,0,0,0,0,0,0,0,0,0,0,0,0,0,0,0,0,0,0,0,0,0,0,0,0,0,0,0,0],"sum_hessian":[4.871E3,9.15E2,3.956E3,5.01E2,4.14E2,3.201E3,7.55E2,2.76E2,2.25E2,2.18E2,1.96E2,1.547E3,1.654E3,6.2E2,1.35E2,6.8E1,2.08E2,8.7E1,1.38E2,1.35E2,8.3E1,1.06E2,9E1,1.131E3,4.16E2,1.41E2,1.513E3,2.6E2,3.6E2,9.1E1,4.4E1],"tree_param":{"num_deleted":"0","num_feature":"2","num_nodes":"31","size_leaf_vector":"1"}},{"base_weights":[-4.7932384E-3,-1.5421516E0,3.5108873E-1,-2.138096E0,-8.1755793E-1,9.004444E-1,-7.571019E-1,-2.4212031E0,-1.7816414E0,3.9451964E-2,-1.7661245E0,1.5280015E0,3.183623E-1,-2.8445202E-1,-1.6995939E0,-2.200164E-1,-2.6100788E-1,-1.5394871E-1,-1.9277163E-1,-3.1410083E-2,1.7870387E-1,-1.18852496E-1,-2.4258721E-1,9.680338E-2,2.1106839E-1,-1.21384494E-1,6.3231334E-2,1.4108376E-3,-1.5886797E-1,-3.074813E-1,-1.2567328E-1],"categories":[],"categories_nodes":[],"categories_segments":[],"categories_sizes":[],"default_left":[0,0,0,0,0,0,0,0,0,0,0,0,0,0,0,0,0,0,0,0,0,0,0,0,0,0,0,0,0,0,0],"id":15,"left_children":[1,3,5,7,9,11,13,15,17,19,21,23,25,27,29,-1,-1,-1,-1,-1,-1,-1,-1,-1,-1,-1,-1,-1,-1,-1,-1],"loss_changes":[2.666101E3,3.9379712E2,2.4096667E3,4.6345215E1,3.3743604E2,9.6607056E2,5.839715E2,5.8218994E0,5.0264893E0,1.3587355E2,7.21875E1,4.133152E2,6.617138E2,3.4073926E2,2.628916E2,0E0,0E0,0E0,0E0,0E0,0E0,0E0,0E0,0E0,0E0,0E0,0E0,0E0,0E0,0E0,0E0],"parents":[2147483647,0,0,1,1,2,2,3,3,4,4,5,5,6,6,7,7,8,8,9,9,10,10,11,11,12,12,13,13,14,14],"right_children":[2,4,6,8,10,12,14,16,18,20,22,24,26,28,30,-1,-1,-1,-1,-1,-1,-1,-1,-1,-1,-1,-1,-1,-1,-1,-1],"split_conditions":[6E0,3E0,1.9E1,5E0,5E0,5E0,2.2E1,2E0,1E0,4E0,7E0,1.3E1,9E0,7E0,3E0,-2.200164E-1,-2.6100788E-1,-1.5394871E-1,-1.9277163E-1,-3.1410083E-2,1.7870387E-1,-1.18852496E-1,-2.4258721E-1,9.680338E-2,2.1106839E-1,-1.21384494E-1,6.3231334E-2,1.4108376E-3,-1.5886797E-1,-3.074813E-1,-1.2567328E-1],"split_indices":[1,1,1,0,0,0,1,0,1,0,0,1,1,0,0,0,0,0,0,0,0,0,0,0,0,0,0,0,0,0,0],"split_type":[0,0,0,0,0,0,0,0,0,0,0,0,0,0,0,0,0,0,0,0,0,0,0,0,0,0,0,0,0,0,0],"sum_hessian":[4.871E3,9.15E2,3.956E3,5.01E2,4.14E2,2.645E3,1.311E3,2.76E2,2.25E2,2.18E2,1.96E2,1.272E3,1.373E3,8.74E2,4.37E2,1.33E2,1.43E2,8.9E1,1.36E2,1.82E2,3.6E1,1.06E2,9E1,6.5E2,6.22E2,2.33E2,1.14E3,7.12E2,1.62E2,1.05E2,3.32E2],"tree_param":{"num_deleted":"0","num_feature":"2","num_nodes":"31","size_leaf_vector":"1"}},{"base_weights":[-4.597629E-3,-1.3890737E0,3.1589383E-1,-1.9259354E0,-7.3631805E-1,6.592102E-1,-1.1386232E0,-2.1004853E0,-1.4549848E0,-1.7050412E-1,-1.9215659E0,8.493439E-1,-1.7874615E-1,-7.621259E-1,-2.8494043E0,-2.1808195E-1,-1.8237467E-1,-1.1045978E-1,-1.6109723E-1,3.6179547E-3,-8.7508574E-2,-1.331098E-1,-2.1859507E-1,1.0624613E-1,2.380549E-2,-7.855158E-2,3.520234E-2,-2.0935617E-1,2.0260215E-2,-2.4418226E-1,-3.6193627E-1],"categories":[],"categories_nodes":[],"categories_segments":[],"categories_sizes":[],"default_left":[0,0,0,0,0,0,0,0,0,0,0,0,0,0,0,0,0,0,0,0,0,0,0,0,0,0,0,0,0,0,0],"id":16,"left_children":[1,3,5,7,9,11,13,15,17,19,21,23,25,27,29,-1,-1,-1,-1,-1,-1,-1,-1,-1,-1,-1,-1,-1,-1,-1,-1],"loss_changes":[2.1622075E3,3.1958447E2,1.9767163E3,3.821045E1,2.7798367E2,5.1030627E2,4.8477136E2,4.11499E0,5.817688E0,4.1098057E1,1.8009155E1,3.397683E2,1.9125505E2,7.9808215E2,3.3841797E1,0E0,0E0,0E0,0E0,0E0,0E0,0E0,0E0,0E0,0E0,0E0,0E0,0E0,0E0,0E0,0E0],"parents":[2147483647,0,0,1,1,2,2,3,3,4,4,5,5,6,6,7,7,8,8,9,9,10,10,11,11,12,12,13,13,14,14],"right_children":[2,4,6,8,10,12,14,16,18,20,22,24,26,28,30,-1,-1,-1,-1,-1,-1,-1,-1,-1,-1,-1,-1,-1,-1,-1,-1],"split_conditions":[6E0,3E0,2.1E1,7E0,6E0,7E0,7E0,5E0,1E0,5E0,7E0,1.8E1,1.4E1,4E0,2.3E1,-2.1808195E-1,-1.8237467E-1,-1.1045978E-1,-1.6109723E-1,3.6179547E-3,-8.7508574E-2,-1.331098E-1,-2.1859507E-1,1.0624613E-1,2.380549E-2,-7.855158E-2,3.520234E-2,-2.0935617E-1,2.0260215E-2,-2.4418226E-1,-3.6193627E-1],"split_indices":[1,1,1,0,0,0,0,0,1,0,0,1,1,0,1,0,0,0,0,0,0,0,0,0,0,0,0,0,0,0,0],"split_type":[0,0,0,0,0,0,0,0,0,0,0,0,0,0,0,0,0,0,0,0,0,0,0,0,0,0,0,0,0,0,0],"sum_hessian":[4.871E3,9.15E2,3.956E3,5.01E2,4.14E2,3.201E3,7.55E2,3.63E2,1.38E2,2.81E2,1.33E2,2.609E3,5.92E2,6.2E2,1.35E2,2.76E2,8.7E1,4.5E1,9.3E1,2.18E2,6.3E1,4.3E1,9E1,1.934E3,6.75E2,2.76E2,3.16E2,2.6E2,3.6E2,9.1E1,4.4E1],"tree_param":{"num_deleted":"0","num_feature":"2","num_nodes":"31","size_leaf_vector":"1"}},{"base_weights":[-4.5108967E-3,-1.2513757E0,2.8412512E-1,-1.7346807E0,-6.6373605E-1,8.140957E-1,-5.0120693E-1,-1.8915371E0,-1.3114401E0,-1.5375145E-1,-1.732034E0,3.4506986E-1,1.7078779E0,-1.5972714E0,-1.6181599E-1,-1.9635248E-1,-1.6434447E-1,-9.965394E-2,-1.451589E-1,-5.5026412E-2,2.1413613E-2,-1.2010133E-1,-1.969758E-1,9.327183E-2,-2.5372569E-2,2.3715888E-1,1.2035531E-1,-1.2151071E-1,-2.5628513E-1,3.4878977E-2,-1.7271341E-1],"categories":[],"categories_nodes":[],"categories_segments":[],"categories_sizes":[],"default_left":[0,0,0,0,0,0,0,0,0,0,0,0,0,0,0,0,0,0,0,0,0,0,0,0,0,0,0,0,0,0,0],"id":17,"left_children":[1,3,5,7,9,11,13,15,17,19,21,23,25,27,29,-1,-1,-1,-1,-1,-1,-1,-1,-1,-1,-1,-1,-1,-1,-1,-1],"loss_changes":[1.7537399E3,2.590011E2,1.6473228E3,3.084607E1,2.2583215E2,9.899967E2,5.930725E2,3.2739258E0,4.687912E0,4.1253757E1,1.4549957E1,5.460044E2,2.6927783E2,1.3600269E2,9.749008E2,0E0,0E0,0E0,0E0,0E0,0E0,0E0,0E0,0E0,0E0,0E0,0E0,0E0,0E0,0E0,0E0],"parents":[2147483647,0,0,1,1,2,2,3,3,4,4,5,5,6,6,7,7,8,8,9,9,10,10,11,11,12,12,13,13,14,14],"right_children":[2,4,6,8,10,12,14,16,18,20,22,24,26,28,30,-1,-1,-1,-1,-1,-1,-1,-1,-1,-1,-1,-1,-1,-1,-1,-1],"split_conditions":[6E0,3E0,1.8E1,7E0,6E0,1.4E1,3E0,5E0,1E0,3E0,7E0,5E0,5E0,2.2E1,7E0,-1.9635248E-1,-1.6434447E-1,-9.965394E-2,-1.451589E-1,-5.5026412E-2,2.1413613E-2,-1.2010133E-1,-1.969758E-1,9.327183E-2,-2.5372569E-2,2.3715888E-1,1.2035531E-1,-1.2151071E-1,-2.5628513E-1,3.4878977E-2,-1.7271341E-1],"split_indices":[1,1,1,0,0,1,0,0,1,0,0,0,0,1,0,0,0,0,0,0,0,0,0,0,0,0,0,0,0,0,0],"split_type":[0,0,0,0,0,0,0,0,0,0,0,0,0,0,0,0,0,0,0,0,0,0,0,0,0,0,0,0,0,0,0],"sum_hessian":[4.871E3,9.15E2,3.956E3,5.01E2,4.14E2,2.362E3,1.594E3,3.63E2,1.38E2,2.81E2,1.33E2,1.55E3,8.12E2,3.76E2,1.218E3,2.76E2,8.7E1,4.5E1,9.3E1,1.35E2,1.46E2,4.3E1,9E1,7.82E2,7.68E2,3.49E2,4.63E2,2.71E2,1.05E2,9.19E2,2.99E2],"tree_param":{"num_deleted":"0","num_feature":"2","num_nodes":"31","size_leaf_vector":"1"}},{"base_weights":[-4.2744973E-3,-1.1272821E0,2.5568995E-1,-1.5624188E0,-5.982077E-1,5.4375297E-1,-9.6472484E-1,-1.7033743E0,-1.1820575E0,5.838223E-2,-1.3250859E0,8.94928E-1,2.149538E-1,-6.4939624E-1,-2.3974774E0,-1.7678812E-1,-1.4809678E-1,-8.99052E-2,-1.3079745E-1,-4.9564272E-2,9.546801E-2,-9.301099E-2,-1.7749467E-1,1.2408725E-1,-4.6328693E-3,-1.5622088E-1,3.8149416E-2,-1.7492895E-1,1.4761637E-2,-2.0294583E-1,-3.0965945E-1],"categories":[],"categories_nodes":[],"categories_segments":[],"categories_sizes":[],"default_left":[0,0,0,0,0,0,0,0,0,0,0,0,0,0,0,0,0,0,0,0,0,0,0,0,0,0,0,0,0,0,0],"id":18,"left_children":[1,3,5,7,9,11,13,15,17,19,21,23,25,27,29,-1,-1,-1,-1,-1,-1,-1,-1,-1,-1,-1,-1,-1,-1,-1,-1],"loss_changes":[1.4226299E3,2.0994653E2,1.3916333E3,2.4900757E1,1.9814062E2,3.6952997E2,3.399947E2,2.604126E0,3.777359E0,1.09222305E2,3.3352905E1,5.041211E2,4.9042517E2,5.446447E2,2.8706726E1,0E0,0E0,0E0,0E0,0E0,0E0,0E0,0E0,0E0,0E0,0E0,0E0,0E0,0E0,0E0,0E0],"parents":[2147483647,0,0,1,1,2,2,3,3,4,4,5,5,6,6,7,7,8,8,9,9,10,10,11,11,12,12,13,13,14,14],"right_children":[2,4,6,8,10,12,14,16,18,20,22,24,26,28,30,-1,-1,-1,-1,-1,-1,-1,-1,-1,-1,-1,-1,-1,-1,-1,-1],"split_conditions":[6E0,3E0,2.1E1,7E0,5E0,5E0,7E0,5E0,1E0,3E0,7E0,1.8E1,8E0,4E0,2.3E1,-1.7678812E-1,-1.4809678E-1,-8.99052E-2,-1.3079745E-1,-4.9564272E-2,9.546801E-2,-9.301099E-2,-1.7749467E-1,1.2408725E-1,-4.6328693E-3,-1.5622088E-1,3.8149416E-2,-1.7492895E-1,1.4761637E-2,-2.0294583E-1,-3.0965945E-1],"split_indices":[1,1,1,0,0,0,0,0,1,0,0,1,1,0,1,0,0,0,0,0,0,0,0,0,0,0,0,0,0,0,0],"split_type":[0,0,0,0,0,0,0,0,0,0,0,0,0,0,0,0,0,0,0,0,0,0,0,0,0,0,0,0,0,0,0],"sum_hessian":[4.871E3,9.15E2,3.956E3,5.01E2,4.14E2,3.201E3,7.55E2,3.63E2,1.38E2,2.18E2,1.96E2,1.547E3,1.654E3,6.2E2,1.35E2,2.76E2,8.7E1,4.5E1,9.3E1,1.35E2,8.3E1,1.06E2,9E1,1.131E3,4.16E2,1.41E2,1.513E3,2.6E2,3.6E2,9.1E1,4.4E1],"tree_param":{"num_deleted":"0","num_feature":"2","num_nodes":"31","size_leaf_vector":"1"}},{"base_weights":[-4.142715E-3,-1.0153948E0,2.2995156E-1,-1.4072639E0,-5.3892815E-1,4.893785E-1,-8.691425E-1,-1.5339295E0,-1.0654396E0,5.27537E-2,-1.1939505E0,6.353494E-1,-1.539156E-1,-5.847148E-1,-2.1614988E0,-1.5917313E-1,-1.3345543E-1,-8.111011E-2,-1.1785685E-1,-2.3932258E-2,1.4959215E-1,-1.3858908E-1,-4.29839E-2,2.9735208E-2,8.802178E-2,-6.848926E-2,3.105467E-2,-1.5750308E-1,1.3289526E-2,-1.8287186E-1,-2.793816E-1],"categories":[],"categories_nodes":[],"categories_segments":[],"categories_sizes":[],"default_left":[0,0,0,0,0,0,0,0,0,0,0,0,0,0,0,0,0,0,0,0,0,0,0,0,0,0,0,0,0,0,0],"id":19,"left_children":[1,3,5,7,9,11,13,15,17,19,21,23,25,27,29,-1,-1,-1,-1,-1,-1,-1,-1,-1,-1,-1,-1,-1,-1,-1,-1],"loss_changes":[1.1535739E3,1.702702E2,1.128703E3,2.0100952E1,1.609024E2,3.0077277E2,2.766281E2,2.0706177E0,3.043518E0,9.266979E1,2.8297028E1,2.1575452E2,1.4645764E2,4.4152963E2,2.3508423E1,0E0,0E0,0E0,0E0,0E0,0E0,0E0,0E0,0E0,0E0,0E0,0E0,0E0,0E0,0E0,0E0],"parents":[2147483647,0,0,1,1,2,2,3,3,4,4,5,5,6,6,7,7,8,8,9,9,10,10,11,11,12,12,13,13,14,14],"right_children":[2,4,6,8,10,12,14,16,18,20,22,24,26,28,30,-1,-1,-1,-1,-1,-1,-1,-1,-1,-1,-1,-1,-1,-1,-1,-1],"split_conditions":[6E0,3E0,2.1E1,7E0,5E0,7E0,7E0,5E0,1E0,4E0,5E0,1.3E1,1.4E1,4E0,2.3E1,-1.5917313E-1,-1.3345543E-1,-8.111011E-2,-1.1785685E-1,-2.3932258E-2,1.4959215E-1,-1.3858908E-1,-4.29839E-2,2.9735208E-2,8.802178E-2,-6.848926E-2,3.105467E-2,-1.5750308E-1,1.3289526E-2,-1.8287186E-1,-2.793816E-1],"split_indices":[1,1,1,0,0,0,0,0,1,0,1,1,1,0,1,0,0,0,0,0,0,0,0,0,0,0,0,0,0,0,0],"split_type":[0,0,0,0,0,0,0,0,0,0,0,0,0,0,0,0,0,0,0,0,0,0,0,0,0,0,0,0,0,0,0],"sum_hessian":[4.871E3,9.15E2,3.956E3,5.01E2,4.14E2,3.201E3,7.55E2,3.63E2,1.38E2,2.18E2,1.96E2,2.609E3,5.92E2,6.2E2,1.35E2,2.76E2,8.7E1,4.5E1,9.3E1,1.82E2,3.6E1,1.56E2,4E1,1.097E3,1.512E3,2.76E2,3.16E2,2.6E2,3.6E2,9.1E1,4.4E1],"tree_param":{"num_deleted":"0","num_feature":"2","num_nodes":"31","size_leaf_vector":"1"}},{"base_weights":[-3.9490536E-3,-9.144529E-1,2.0682313E-1,-1.2675166E0,-4.8516995E-1,6.2621844E-1,-4.146427E-1,-1.3813404E0,-9.6032697E-1,4.805246E-2,-1.0754772E0,2.2793491E-1,1.3852732E0,-1.3077376E0,-1.3809517E-1,-1.3351509E-1,-1.6791034E-1,-7.317544E-2,-1.0619654E-1,-4.226863E-2,8.096289E-2,-7.364147E-2,-1.4623368E-1,6.761145E-2,-2.2870041E-2,1.9236042E-1,9.7621925E-2,-1.0410669E-1,-1.9796877E-1,2.7009053E-2,-1.3894044E-1],"categories":[],"categories_nodes":[],"categories_segments":[],"categories_sizes":[],"default_left":[0,0,0,0,0,0,0,0,0,0,0,0,0,0,0,0,0,0,0,0,0,0,0,0,0,0,0,0,0,0,0],"id":20,"left_children":[1,3,5,7,9,11,13,15,17,19,21,23,25,27,29,-1,-1,-1,-1,-1,-1,-1,-1,-1,-1,-1,-1,-1,-1,-1,-1],"loss_changes":[9.351692E2,1.3821796E2,1.0316116E3,1.6226074E1,1.3067917E2,7.140641E2,3.937576E2,2.7644653E0,2.452118E0,7.8854485E1,2.476352E1,3.17574E2,1.771499E2,6.549341E1,6.2299963E2,0E0,0E0,0E0,0E0,0E0,0E0,0E0,0E0,0E0,0E0,0E0,0E0,0E0,0E0,0E0,0E0],"parents":[2147483647,0,0,1,1,2,2,3,3,4,4,5,5,6,6,7,7,8,8,9,9,10,10,11,11,12,12,13,13,14,14],"right_children":[2,4,6,8,10,12,14,16,18,20,22,24,26,28,30,-1,-1,-1,-1,-1,-1,-1,-1,-1,-1,-1,-1,-1,-1,-1,-1],"split_conditions":[6E0,3E0,1.8E1,7E0,5E0,1.4E1,3E0,6E0,1E0,3E0,7E0,5E0,5E0,2.2E1,7E0,-1.3351509E-1,-1.6791034E-1,-7.317544E-2,-1.0619654E-1,-4.226863E-2,8.096289E-2,-7.364147E-2,-1.4623368E-1,6.761145E-2,-2.2870041E-2,1.9236042E-1,9.7621925E-2,-1.0410669E-1,-1.9796877E-1,2.7009053E-2,-1.3894044E-1],"split_indices":[1,1,1,0,0,1,0,0,1,0,0,0,0,1,0,0,0,0,0,0,0,0,0,0,0,0,0,0,0,0,0],"split_type":[0,0,0,0,0,0,0,0,0,0,0,0,0,0,0,0,0,0,0,0,0,0,0,0,0,0,0,0,0,0,0],"sum_hessian":[4.871E3,9.15E2,3.956E3,5.01E2,4.14E2,2.362E3,1.594E3,3.63E2,1.38E2,2.18E2,1.96E2,1.55E3,8.12E2,3.76E2,1.218E3,3.19E2,4.4E1,4.5E1,9.3E1,1.35E2,8.3E1,1.06E2,9E1,7.82E2,7.68E2,3.49E2,4.63E2,2.71E2,1.05E2,9.19E2,2.99E2],"tree_param":{"num_deleted":"0","num_feature":"2","num_nodes":"31","size_leaf_vector":"1"}},{"base_weights":[-3.7063719E-3,-8.4655094E-1,1.8101606E-1,-1.1417228E0,-4.4915682E-1,5.489615E-1,-3.7343788E-1,-1.3000996E0,-9.425542E-1,4.3423902E-2,-1.133399E0,1.9186676E-1,1.2471029E0,-9.9525523E-1,-3.5106353E-2,-1.6349669E-1,-1.1833247E-1,-5.5748563E-2,-1.02998845E-1,-2.0513274E-2,1.271598E-1,-8.661495E-2,-1.3177101E-1,6.0858916E-2,-2.1170001E-2,1.7317937E-1,8.7880775E-2,-1.5288316E-1,-6.8928085E-2,4.6119463E-2,-1.2509267E-1],"categories":[],"categories_nodes":[],"categories_segments":[],"categories_sizes":[],"default_left":[0,0,0,0,0,0,0,0,0,0,0,0,0,0,0,0,0,0,0,0,0,0,0,0,0,0,0,0,0,0,0],"id":21,"left_children":[1,3,5,7,9,11,13,15,17,19,21,23,25,27,29,-1,-1,-1,-1,-1,-1,-1,-1,-1,-1,-1,-1,-1,-1,-1,-1],"loss_changes":[7.586861E2,1.0224158E2,8.156283E2,1.4609558E1,1.26440895E2,5.9883484E2,3.3552185E2,8.897156E0,7.03479E0,6.711515E1,6.5920258E0,2.6769577E2,1.436062E2,9.069873E1,6.245058E2,0E0,0E0,0E0,0E0,0E0,0E0,0E0,0E0,0E0,0E0,0E0,0E0,0E0,0E0,0E0,0E0],"parents":[2147483647,0,0,1,1,2,2,3,3,4,4,5,5,6,6,7,7,8,8,9,9,10,10,11,11,12,12,13,13,14,14],"right_children":[2,4,6,8,10,12,14,16,18,20,22,24,26,28,30,-1,-1,-1,-1,-1,-1,-1,-1,-1,-1,-1,-1,-1,-1,-1,-1],"split_conditions":[5E0,3E0,1.8E1,5E0,5E0,1.4E1,4E0,1E0,6E0,4E0,7E0,5E0,5E0,2E0,7E0,-1.6349669E-1,-1.1833247E-1,-5.5748563E-2,-1.02998845E-1,-2.0513274E-2,1.271598E-1,-8.661495E-2,-1.3177101E-1,6.0858916E-2,-2.1170001E-2,1.7317937E-1,8.7880775E-2,-1.5288316E-1,-6.8928085E-2,4.6119463E-2,-1.2509267E-1],"split_indices":[1,1,1,0,0,1,0,1,0,0,0,0,0,0,0,0,0,0,0,0,0,0,0,0,0,0,0,0,0,0,0],"split_type":[0,0,0,0,0,0,0,0,0,0,0,0,0,0,0,0,0,0,0,0,0,0,0,0,0,0,0,0,0,0,0],"sum_hessian":[4.871E3,8.75E2,3.996E3,5.01E2,3.74E2,2.402E3,1.594E3,2.76E2,2.25E2,2.18E2,1.56E2,1.59E3,8.12E2,5.61E2,1.033E3,6.8E1,2.08E2,4.3E1,1.82E2,1.82E2,3.6E1,6.6E1,9E1,7.82E2,8.08E2,3.49E2,4.63E2,2.03E2,3.58E2,7.34E2,2.99E2],"tree_param":{"num_deleted":"0","num_feature":"2","num_nodes":"31","size_leaf_vector":"1"}},{"base_weights":[-3.4493718E-3,-7.424505E-1,1.6762176E-1,-1.0284282E0,-3.9473173E-1,3.17166E-1,-1.0345777E0,-1.1268365E0,-7.6332706E-1,3.956874E-2,-8.7552905E-1,5.076811E-1,-7.18705E-2,-7.459945E-1,-1.5463351E0,-9.7253256E-2,-1.2114681E-1,-5.594101E-2,-8.549958E-2,-3.6036562E-2,6.866105E-2,-1.02144994E-1,-2.9540433E-2,1.849674E-2,1.1227133E-1,-1.3328797E-1,1.0004337E-2,-1.4408539E-1,-1.835852E-2,-9.518319E-2,-1.9452208E-1],"categories":[],"categories_nodes":[],"categories_segments":[],"categories_sizes":[],"default_left":[0,0,0,0,0,0,0,0,0,0,0,0,0,0,0,0,0,0,0,0,0,0,0,0,0,0,0,0,0,0,0],"id":22,"left_children":[1,3,5,7,9,11,13,15,17,19,21,23,25,27,29,-1,-1,-1,-1,-1,-1,-1,-1,-1,-1,-1,-1,-1,-1,-1,-1],"loss_changes":[6.160512E2,9.068091E1,7.117256E2,1.2236145E1,8.6691E1,2.6092944E2,6.3532257E1,3.5753174E0,2.1200104E0,5.6918987E1,1.6374756E1,4.6879895E2,2.5117033E2,1.0993976E2,3.5379272E1,0E0,0E0,0E0,0E0,0E0,0E0,0E0,0E0,0E0,0E0,0E0,0E0,0E0,0E0,0E0,0E0],"parents":[2147483647,0,0,1,1,2,2,3,3,4,4,5,5,6,6,7,7,8,8,9,9,10,10,11,11,12,12,13,13,14,14],"right_children":[2,4,6,8,10,12,14,16,18,20,22,24,26,28,30,-1,-1,-1,-1,-1,-1,-1,-1,-1,-1,-1,-1,-1,-1,-1,-1],"split_conditions":[6E0,3E0,2.2E1,7E0,5E0,1.8E1,2.3E1,2E0,1E0,3E0,5E0,1.4E1,2E0,4E0,6E0,-9.7253256E-2,-1.2114681E-1,-5.594101E-2,-8.549958E-2,-3.6036562E-2,6.866105E-2,-1.02144994E-1,-2.9540433E-2,1.849674E-2,1.1227133E-1,-1.3328797E-1,1.0004337E-2,-1.4408539E-1,-1.835852E-2,-9.518319E-2,-1.9452208E-1],"split_indices":[1,1,1,0,0,1,1,0,1,0,1,1,0,0,0,0,0,0,0,0,0,0,0,0,0,0,0,0,0,0,0],"split_type":[0,0,0,0,0,0,0,0,0,0,0,0,0,0,0,0,0,0,0,0,0,0,0,0,0,0,0,0,0,0,0],"sum_hessian":[4.871E3,9.15E2,3.956E3,5.01E2,4.14E2,3.519E3,4.37E2,3.63E2,1.38E2,2.18E2,1.96E2,2.362E3,1.157E3,2.81E2,1.56E2,1.33E2,2.3E2,4.5E1,9.3E1,1.35E2,8.3E1,1.56E2,4E1,1.55E3,8.12E2,1.38E2,1.019E3,1.25E2,1.56E2,6.4E1,9.2E1],"tree_param":{"num_deleted":"0","num_feature":"2","num_nodes":"31","size_leaf_vector":"1"}},{"base_weights":[-3.2901415E-3,-6.687063E-1,1.5074688E-1,-9.2630213E-1,-3.5549712E-1,2.8545117E-1,-9.3215233E-1,-1.06187E0,-7.560429E-1,3.5760958E-2,-7.8864443E-1,4.0603763E-1,-2.5886127E-1,-6.719712E-1,-1.3935468E0,-1.3693388E-1,-9.552804E-2,-3.8461085E-2,-8.412176E-2,-1.7578121E-2,1.0810705E-1,-5.2807283E-2,-1.0863644E-1,-1.1150029E-2,5.1419426E-2,1.7570768E-2,-9.0548016E-2,-1.297912E-1,-1.6534379E-2,-8.581129E-2,-1.7527904E-1],"categories":[],"categories_nodes":[],"categories_segments":[],"categories_sizes":[],"default_left":[0,0,0,0,0,0,0,0,0,0,0,0,0,0,0,0,0,0,0,0,0,0,0,0,0,0,0,0,0,0,0],"id":23,"left_children":[1,3,5,7,9,11,13,15,17,19,21,23,25,27,29,-1,-1,-1,-1,-1,-1,-1,-1,-1,-1,-1,-1,-1,-1,-1,-1],"loss_changes":[4.9947458E2,7.357486E1,5.7747833E2,1.078418E1,7.035924E1,2.3114633E2,5.164377E1,7.7700195E0,6.8263397E0,4.8616856E1,1.4709061E1,1.6137772E2,1.7971841E2,8.9212906E1,2.8695038E1,0E0,0E0,0E0,0E0,0E0,0E0,0E0,0E0,0E0,0E0,0E0,0E0,0E0,0E0,0E0,0E0],"parents":[2147483647,0,0,1,1,2,2,3,3,4,4,5,5,6,6,7,7,8,8,9,9,10,10,11,11,12,12,13,13,14,14],"right_children":[2,4,6,8,10,12,14,16,18,20,22,24,26,28,30,-1,-1,-1,-1,-1,-1,-1,-1,-1,-1,-1,-1,-1,-1,-1,-1],"split_conditions":[6E0,3E0,2.2E1,5E0,5E0,7E0,2.3E1,1E0,6E0,4E0,7E0,2E0,1.7E1,4E0,6E0,-1.3693388E-1,-9.552804E-2,-3.8461085E-2,-8.412176E-2,-1.7578121E-2,1.0810705E-1,-5.2807283E-2,-1.0863644E-1,-1.1150029E-2,5.1419426E-2,1.7570768E-2,-9.0548016E-2,-1.297912E-1,-1.6534379E-2,-8.581129E-2,-1.7527904E-1],"split_indices":[1,1,1,0,0,0,1,1,0,0,0,0,1,0,0,0,0,0,0,0,0,0,0,0,0,0,0,0,0,0,0],"split_type":[0,0,0,0,0,0,0,0,0,0,0,0,0,0,0,0,0,0,0,0,0,0,0,0,0,0,0,0,0,0,0],"sum_hessian":[4.871E3,9.15E2,3.956E3,5.01E2,4.14E2,3.519E3,4.37E2,2.76E2,2.25E2,2.18E2,1.96E2,2.881E3,6.38E2,2.81E2,1.56E2,6.8E1,2.08E2,4.3E1,1.82E2,1.82E2,3.6E1,1.06E2,9E1,4.98E2,2.383E3,3.82E2,2.56E2,1.25E2,1.56E2,6.4E1,9.2E1],"tree_param":{"num_deleted":"0","num_feature":"2","num_nodes":"31","size_leaf_vector":"1"}},{"base_weights":[-3.1390628E-3,-6.1973715E-1,1.3199806E-1,-8.3437914E-1,-3.307504E-1,3.0020916E-1,-5.8952636E-1,-9.198722E-1,-6.044952E-1,3.2598313E-2,-8.3548045E-1,5.560756E-1,6.635583E-2,-3.830002E-1,-1.5282264E0,-7.679029E-2,-1.0040455E-1,-4.223922E-2,-6.8717875E-2,-3.0714516E-2,5.822711E-2,-6.2818736E-2,-9.789218E-2,2.743998E-2,1.4814906E-1,-9.019052E-2,2.5287986E-2,-1.0513764E-1,1.0129113E-2,-1.3293323E-1,-1.9008939E-1],"categories":[],"categories_nodes":[],"categories_segments":[],"categories_sizes":[],"default_left":[0,0,0,0,0,0,0,0,0,0,0,0,0,0,0,0,0,0,0,0,0,0,0,0,0,0,0,0,0,0,0],"id":24,"left_children":[1,3,5,7,9,11,13,15,17,19,21,23,25,27,29,-1,-1,-1,-1,-1,-1,-1,-1,-1,-1,-1,-1,-1,-1,-1,-1],"loss_changes":[4.0604263E2,5.4061157E1,4.8528656E2,9.309967E0,6.879962E1,1.9394888E2,1.4597748E2,3.8851929E0,1.8026505E0,4.10766E1,4.0533524E0,4.03106E2,3.0635175E2,2.0111719E2,7.5535583E0,0E0,0E0,0E0,0E0,0E0,0E0,0E0,0E0,0E0,0E0,0E0,0E0,0E0,0E0,0E0,0E0],"parents":[2147483647,0,0,1,1,2,2,3,3,4,4,5,5,6,6,7,7,8,8,9,9,10,10,11,11,12,12,13,13,14,14],"right_children":[2,4,6,8,10,12,14,16,18,20,22,24,26,28,30,-1,-1,-1,-1,-1,-1,-1,-1,-1,-1,-1,-1,-1,-1,-1,-1],"split_conditions":[5E0,3E0,2.1E1,7E0,5E0,5E0,7E0,2E0,1E0,3E0,7E0,4E0,9E0,4E0,2.3E1,-7.679029E-2,-1.0040455E-1,-4.223922E-2,-6.8717875E-2,-3.0714516E-2,5.822711E-2,-6.2818736E-2,-9.789218E-2,2.743998E-2,1.4814906E-1,-9.019052E-2,2.5287986E-2,-1.0513764E-1,1.0129113E-2,-1.3293323E-1,-1.9008939E-1],"split_indices":[1,1,1,0,0,0,0,0,1,0,0,0,1,0,1,0,0,0,0,0,0,0,0,0,0,0,0,0,0,0,0],"split_type":[0,0,0,0,0,0,0,0,0,0,0,0,0,0,0,0,0,0,0,0,0,0,0,0,0,0,0,0,0,0,0],"sum_hessian":[4.871E3,8.75E2,3.996E3,5.01E2,3.74E2,3.241E3,7.55E2,3.63E2,1.38E2,2.18E2,1.56E2,1.547E3,1.694E3,6.2E2,1.35E2,1.33E2,2.3E2,4.5E1,9.3E1,1.35E2,8.3E1,6.6E1,9E1,1.187E3,3.6E2,2.73E2,1.421E3,2.6E2,3.6E2,9.1E1,4.4E1],"tree_param":{"num_deleted":"0","num_feature":"2","num_nodes":"31","size_leaf_vector":"1"}},{"base_weights":[-2.9744506E-3,-5.5824435E-1,1.1872168E-1,-7.515152E-1,-2.9803053E-1,3.8714367E-1,-2.857528E-1,-8.6781824E-1,-6.056415E-1,2.9464211E-2,-7.529561E-1,1.0272611E-1,9.4325835E-1,-7.8930926E-1,-1.1783267E-2,-6.916856E-2,-1.025693E-1,-2.4890093E-2,-6.881057E-2,-1.5059519E-2,9.19232E-2,-4.8555654E-2,-8.463928E-2,4.438879E-2,-2.2759825E-2,1.363344E-1,6.243505E-2,-1.1571032E-1,-5.781135E-2,7.058861E-2,-5.2796107E-2],"categories":[],"categories_nodes":[],"categories_segments":[],"categories_sizes":[],"default_left":[0,0,0,0,0,0,0,0,0,0,0,0,0,0,0,0,0,0,0,0,0,0,0,0,0,0,0,0,0,0,0],"id":25,"left_children":[1,3,5,7,9,11,13,15,17,19,21,23,25,27,29,-1,-1,-1,-1,-1,-1,-1,-1,-1,-1,-1,-1,-1,-1,-1,-1],"loss_changes":[3.292878E2,4.3831573E1,4.340643E2,7.9911194E0,5.5891838E1,3.7998257E2,2.2003548E2,6.9930725E0,6.477272E0,3.5224648E1,3.5116653E0,1.7939726E2,1.0806531E2,4.298529E1,3.834128E2,0E0,0E0,0E0,0E0,0E0,0E0,0E0,0E0,0E0,0E0,0E0,0E0,0E0,0E0,0E0,0E0],"parents":[2147483647,0,0,1,1,2,2,3,3,4,4,5,5,6,6,7,7,8,8,9,9,10,10,11,11,12,12,13,13,14,14],"right_children":[2,4,6,8,10,12,14,16,18,20,22,24,26,28,30,-1,-1,-1,-1,-1,-1,-1,-1,-1,-1,-1,-1,-1,-1,-1,-1],"split_conditions":[5E0,3E0,1.8E1,5E0,5E0,1.4E1,4E0,2E0,6E0,4E0,4E0,5E0,5E0,2E0,6E0,-6.916856E-2,-1.025693E-1,-2.4890093E-2,-6.881057E-2,-1.5059519E-2,9.19232E-2,-4.8555654E-2,-8.463928E-2,4.438879E-2,-2.2759825E-2,1.363344E-1,6.243505E-2,-1.1571032E-1,-5.781135E-2,7.058861E-2,-5.2796107E-2],"split_indices":[1,1,1,0,0,1,0,0,0,0,1,0,0,0,0,0,0,0,0,0,0,0,0,0,0,0,0,0,0,0,0],"split_type":[0,0,0,0,0,0,0,0,0,0,0,0,0,0,0,0,0,0,0,0,0,0,0,0,0,0,0,0,0,0,0],"sum_hessian":[4.871E3,8.75E2,3.996E3,5.01E2,3.74E2,2.402E3,1.594E3,2.76E2,2.25E2,2.18E2,1.56E2,1.59E3,8.12E2,5.61E2,1.033E3,1.33E2,1.43E2,4.3E1,1.82E2,1.82E2,3.6E1,4.2E1,1.14E2,7.82E2,8.08E2,3.49E2,4.63E2,2.03E2,3.58E2,4.32E2,6.01E2],"tree_param":{"num_deleted":"0","num_feature":"2","num_nodes":"31","size_leaf_vector":"1"}},{"base_weights":[-2.7298422E-3,-5.027873E-1,1.0686562E-1,-6.768925E-1,-2.6837772E-1,2.1165222E-1,-7.450685E-1,-7.515455E-1,-4.7652856E-1,2.6868768E-2,-6.78509E-1,3.053392E-1,-2.1708795E-1,-5.0734997E-1,-1.1673077E0,-7.0750065E-2,-1.0480525E-1,-3.1375665E-2,-5.5111345E-2,-2.617074E-2,4.937675E-2,-4.942403E-2,-8.0672316E-2,-1.3572502E-2,3.9600987E-2,1.6132977E-2,-7.8018874E-2,-8.9202456E-2,9.329311E-3,-7.556688E-2,-1.4424609E-1],"categories":[],"categories_nodes":[],"categories_segments":[],"categories_sizes":[],"default_left":[0,0,0,0,0,0,0,0,0,0,0,0,0,0,0,0,0,0,0,0,0,0,0,0,0,0,0,0,0,0,0],"id":26,"left_children":[1,3,5,7,9,11,13,15,17,19,21,23,25,27,29,-1,-1,-1,-1,-1,-1,-1,-1,-1,-1,-1,-1,-1,-1,-1,-1],"loss_changes":[2.6705896E2,3.556958E1,3.56975E2,7.1506653E0,4.542691E1,1.4306209E2,4.3371628E1,4.0122223E0,1.5145893E0,2.9636374E1,3.3105392E0,1.1690918E2,1.3628867E2,6.523992E1,1.6692398E1,0E0,0E0,0E0,0E0,0E0,0E0,0E0,0E0,0E0,0E0,0E0,0E0,0E0,0E0,0E0,0E0],"parents":[2147483647,0,0,1,1,2,2,3,3,4,4,5,5,6,6,7,7,8,8,9,9,10,10,11,11,12,12,13,13,14,14],"right_children":[2,4,6,8,10,12,14,16,18,20,22,24,26,28,30,-1,-1,-1,-1,-1,-1,-1,-1,-1,-1,-1,-1,-1,-1,-1,-1],"split_conditions":[5E0,3E0,2.2E1,7E0,5E0,7E0,2.3E1,6E0,1E0,3E0,7E0,2E0,1.7E1,5E0,6E0,-7.0750065E-2,-1.0480525E-1,-3.1375665E-2,-5.5111345E-2,-2.617074E-2,4.937675E-2,-4.942403E-2,-8.0672316E-2,-1.3572502E-2,3.9600987E-2,1.6132977E-2,-7.8018874E-2,-8.9202456E-2,9.329311E-3,-7.556688E-2,-1.4424609E-1],"split_indices":[1,1,1,0,0,0,1,0,1,0,0,0,1,0,0,0,0,0,0,0,0,0,0,0,0,0,0,0,0,0,0],"split_type":[0,0,0,0,0,0,0,0,0,0,0,0,0,0,0,0,0,0,0,0,0,0,0,0,0,0,0,0,0,0,0],"sum_hessian":[4.871E3,8.75E2,3.996E3,5.01E2,3.74E2,3.559E3,4.37E2,3.63E2,1.38E2,2.18E2,1.56E2,2.921E3,6.38E2,2.81E2,1.56E2,3.19E2,4.4E1,4.5E1,9.3E1,1.35E2,8.3E1,6.6E1,9E1,4.98E2,2.423E3,3.82E2,2.56E2,1.71E2,1.1E2,6.4E1,9.2E1],"tree_param":{"num_deleted":"0","num_feature":"2","num_nodes":"31","size_leaf_vector":"1"}},{"base_weights":[-2.6012622E-3,-3.4845865E-1,1.3197626E-1,-6.431939E-2,-6.563587E-1,4.4658968E-1,-2.4564259E-1,-7.111618E-1,3.4772584E-1,-5.2755386E-1,-1.1395221E0,1.905722E-1,8.708873E-1,-7.042089E-1,3.8350823E-3,-1.0001637E-1,-6.12347E-2,4.3192934E-3,8.506846E-2,-2.4407124E-2,-5.9972115E-2,-2.8156754E-1,-3.1622723E-2,-3.950575E-3,5.999888E-2,1.1302141E-1,2.8406302E-2,-1.00576E-1,-5.308924E-2,3.437748E-2,-8.2903005E-2],"categories":[],"categories_nodes":[],"categories_segments":[],"categories_sizes":[],"default_left":[0,0,0,0,0,0,0,0,0,0,0,0,0,0,0,0,0,0,0,0,0,0,0,0,0,0,0,0,0,0,0],"id":27,"left_children":[1,3,5,7,9,11,13,15,17,19,21,23,25,27,29,-1,-1,-1,-1,-1,-1,-1,-1,-1,-1,-1,-1,-1,-1,-1,-1],"loss_changes":[2.2681142E2,1.1937686E2,4.1687396E2,1.8974895E2,4.0161987E1,2.0774722E2,1.8247397E2,7.2980194E0,6.65911E1,1.0471405E1,1.8816527E2,1.1258998E2,1.09247986E2,2.8838318E1,2.930352E2,0E0,0E0,0E0,0E0,0E0,0E0,0E0,0E0,0E0,0E0,0E0,0E0,0E0,0E0,0E0,0E0],"parents":[2147483647,0,0,1,1,2,2,3,3,4,4,5,5,6,6,7,7,8,8,9,9,10,10,11,11,12,12,13,13,14,14],"right_children":[2,4,6,8,10,12,14,16,18,20,22,24,26,28,30,-1,-1,-1,-1,-1,-1,-1,-1,-1,-1,-1,-1,-1,-1,-1,-1],"split_conditions":[9E0,5E0,1.8E1,3E0,7E0,1.5E1,4E0,1E0,3E0,6E0,6E0,6E0,1.7E1,2E0,7E0,-1.0001637E-1,-6.12347E-2,4.3192934E-3,8.506846E-2,-2.4407124E-2,-5.9972115E-2,-2.8156754E-1,-3.1622723E-2,-3.950575E-3,5.999888E-2,1.1302141E-1,2.8406302E-2,-1.00576E-1,-5.308924E-2,3.437748E-2,-8.2903005E-2],"split_indices":[1,0,1,1,1,1,0,1,0,0,0,0,1,0,0,0,0,0,0,0,0,0,0,0,0,0,0,0,0,0,0],"split_type":[0,0,0,0,0,0,0,0,0,0,0,0,0,0,0,0,0,0,0,0,0,0,0,0,0,0,0,0,0,0,0],"sum_hessian":[4.871E3,1.364E3,3.507E3,7.1E2,6.54E2,1.913E3,1.594E3,2.76E2,4.34E2,5.18E2,1.36E2,1.194E3,7.19E2,5.61E2,1.033E3,6.8E1,2.08E2,2.71E2,1.63E2,1.06E2,4.12E2,4.4E1,9.2E1,7.65E2,4.29E2,4.98E2,2.21E2,2.03E2,3.58E2,7.34E2,2.99E2],"tree_param":{"num_deleted":"0","num_feature":"2","num_nodes":"31","size_leaf_vector":"1"}},{"base_weights":[-2.4385774E-3,6.1071713E-2,-6.45511E-1,-3.139567E-1,2.2774468E-1,-4.2625856E-1,-1.0352157E0,-5.7988577E-2,-5.913298E-1,4.0203348E-1,-6.0525145E-2,-7.618045E-1,9.752668E-2,-5.223883E-1,-1.2119704E0,-6.406278E-2,3.1315867E-2,-4.7496103E-2,-1.0278558E-1,1.7156139E-2,7.839947E-2,-5.306678E-2,2.0278556E-2,-9.397801E-2,-5.8123946E-2,5.900308E-2,-6.112298E-2,-1.4119907E-1,4.344518E-2,-1.0518038E-1,-1.4413045E-1],"categories":[],"categories_nodes":[],"categories_segments":[],"categories_sizes":[],"default_left":[0,0,0,0,0,0,0,0,0,0,0,0,0,0,0,0,0,0,0,0,0,0,0,0,0,0,0,0,0,0,0],"id":28,"left_children":[1,3,5,7,9,11,13,15,17,19,21,23,25,27,29,-1,-1,-1,-1,-1,-1,-1,-1,-1,-1,-1,-1,-1,-1,-1,-1],"loss_changes":[1.9902023E2,2.772905E2,3.6983078E1,9.687889E1,1.543181E2,4.963692E1,1.3598099E1,1.5395074E2,3.27845E1,1.6835764E2,1.4346059E2,4.9811935E0,3.910691E1,3.6364143E1,2.7449036E0,0E0,0E0,0E0,0E0,0E0,0E0,0E0,0E0,0E0,0E0,0E0,0E0,0E0,0E0,0E0,0E0],"parents":[2147483647,0,0,1,1,2,2,3,3,4,4,5,5,6,6,7,7,8,8,9,9,10,10,11,11,12,12,13,13,14,14],"right_children":[2,4,6,8,10,12,14,16,18,20,22,24,26,28,30,-1,-1,-1,-1,-1,-1,-1,-1,-1,-1,-1,-1,-1,-1,-1,-1],"split_conditions":[2.2E1,9E0,2.3E1,5E0,1.8E1,5E0,5E0,3E0,7E0,1.5E1,4E0,3E0,7E0,2E0,7E0,-6.406278E-2,3.1315867E-2,-4.7496103E-2,-1.0278558E-1,1.7156139E-2,7.839947E-2,-5.306678E-2,2.0278556E-2,-9.397801E-2,-5.8123946E-2,5.900308E-2,-6.112298E-2,-1.4119907E-1,4.344518E-2,-1.0518038E-1,-1.4413045E-1],"split_indices":[1,1,1,0,1,0,0,1,1,1,0,0,0,0,0,0,0,0,0,0,0,0,0,0,0,0,0,0,0,0,0],"split_type":[0,0,0,0,0,0,0,0,0,0,0,0,0,0,0,0,0,0,0,0,0,0,0,0,0,0,0,0,0,0,0],"sum_hessian":[4.871E3,4.434E3,4.37E2,1.364E3,3.07E3,2.81E2,1.56E2,7.1E2,6.54E2,1.913E3,1.157E3,1.71E2,1.1E2,4.1E1,1.15E2,2.76E2,4.34E2,5.18E2,1.36E2,1.194E3,7.19E2,4.15E2,7.42E2,8.4E1,8.7E1,6.5E1,4.5E1,2.1E1,2E1,7.1E1,4.4E1],"tree_param":{"num_deleted":"0","num_feature":"2","num_nodes":"31","size_leaf_vector":"1"}},{"base_weights":[-2.3224973E-3,5.4937202E-2,-5.821043E-1,-2.8269526E-1,2.049904E-1,-3.8417965E-1,-9.339047E-1,-5.2236054E-2,-5.3242624E-1,3.6187968E-1,-5.450103E-2,-6.8650854E-1,8.775497E-2,-4.7247708E-1,-1.0929224E0,-3.412609E-2,6.07301E-2,-4.275563E-2,-9.25821E-2,6.6097314E-3,6.1354544E-2,-4.777282E-2,1.8253395E-2,-4.0269725E-2,-7.809226E-2,5.3192187E-2,-5.5143565E-2,-1.2772097E-1,3.9307505E-2,-9.480839E-2,-1.300377E-1],"categories":[],"categories_nodes":[],"categories_segments":[],"categories_sizes":[],"default_left":[0,0,0,0,0,0,0,0,0,0,0,0,0,0,0,0,0,0,0,0,0,0,0,0,0,0,0,0,0,0,0],"id":29,"left_children":[1,3,5,7,9,11,13,15,17,19,21,23,25,27,29,-1,-1,-1,-1,-1,-1,-1,-1,-1,-1,-1,-1,-1,-1,-1,-1],"loss_changes":[1.6177328E2,2.2474762E2,3.0139145E1,7.853178E1,1.2504451E2,4.029585E1,1.10035095E1,1.3573993E2,2.6626358E1,1.4243436E2,1.1625735E2,4.294403E0,3.1807035E1,2.9756636E1,2.2526398E0,0E0,0E0,0E0,0E0,0E0,0E0,0E0,0E0,0E0,0E0,0E0,0E0,0E0,0E0,0E0,0E0],"parents":[2147483647,0,0,1,1,2,2,3,3,4,4,5,5,6,6,7,7,8,8,9,9,10,10,11,11,12,12,13,13,14,14],"right_children":[2,4,6,8,10,12,14,16,18,20,22,24,26,28,30,-1,-1,-1,-1,-1,-1,-1,-1,-1,-1,-1,-1,-1,-1,-1,-1],"split_conditions":[2.2E1,9E0,2.3E1,5E0,1.8E1,5E0,5E0,5E0,7E0,1.3E1,4E0,2E0,7E0,2E0,7E0,-3.412609E-2,6.07301E-2,-4.275563E-2,-9.25821E-2,6.6097314E-3,6.1354544E-2,-4.777282E-2,1.8253395E-2,-4.0269725E-2,-7.809226E-2,5.3192187E-2,-5.5143565E-2,-1.2772097E-1,3.9307505E-2,-9.480839E-2,-1.300377E-1],"split_indices":[1,1,1,0,1,0,0,1,1,1,0,0,0,0,0,0,0,0,0,0,0,0,0,0,0,0,0,0,0,0,0],"split_type":[0,0,0,0,0,0,0,0,0,0,0,0,0,0,0,0,0,0,0,0,0,0,0,0,0,0,0,0,0,0,0],"sum_hessian":[4.871E3,4.434E3,4.37E2,1.364E3,3.07E3,2.81E2,1.56E2,7.1E2,6.54E2,1.913E3,1.157E3,1.71E2,1.1E2,4.1E1,1.15E2,4.94E2,2.16E2,5.18E2,1.36E2,8.8E2,1.033E3,4.15E2,7.42E2,4.4E1,1.27E2,6.5E1,4.5E1,2.1E1,2E1,7.1E1,4.4E1],"tree_param":{"num_deleted":"0","num_feature":"2","num_nodes":"31","size_leaf_vector":"1"}},{"base_weights":[-2.1933494E-3,4.9427975E-2,-5.2488375E-1,-2.5450537E-1,1.8450436E-1,-3.461883E-1,-8.425094E-1,-4.697496E-2,-4.7939026E-1,3.5295025E-1,-2.2430634E-2,-6.185457E-1,7.896184E-2,-5.3932744E-1,-1.0453515E0,-5.4279335E-2,2.6886106E-2,-3.84883E-2,-8.33915E-2,1.3343091E-2,8.779455E-2,-1.0388636E-1,1.3789807E-2,-7.8931294E-2,-4.465712E-2,4.795357E-2,-4.974911E-2,-1.1552942E-1,-2.1908669E-2,-9.065795E-2,-1.1732288E-1],"categories":[],"categories_nodes":[],"categories_segments":[],"categories_sizes":[],"default_left":[0,0,0,0,0,0,0,0,0,0,0,0,0,0,0,0,0,0,0,0,0,0,0,0,0,0,0,0,0,0,0],"id":30,"left_children":[1,3,5,7,9,11,13,15,17,19,21,23,25,27,29,-1,-1,-1,-1,-1,-1,-1,-1,-1,-1,-1,-1,-1,-1,-1,-1],"loss_changes":[1.314821E2,1.821224E2,2.4568459E1,6.3682655E1,1.0705481E2,3.2702408E1,9.091408E0,1.11486626E2,2.1624924E1,1.9499538E2,2.2486978E2,4.6987457E0,2.5869793E1,1.256864E1,5.8673096E-1,0E0,0E0,0E0,0E0,0E0,0E0,0E0,0E0,0E0,0E0,0E0,0E0,0E0,0E0,0E0,0E0],"parents":[2147483647,0,0,1,1,2,2,3,3,4,4,5,5,6,6,7,7,8,8,9,9,10,10,11,11,12,12,13,13,14,14],"right_children":[2,4,6,8,10,12,14,16,18,20,22,24,26,28,30,-1,-1,-1,-1,-1,-1,-1,-1,-1,-1,-1,-1,-1,-1,-1,-1],"split_conditions":[2.2E1,9E0,2.3E1,5E0,1.7E1,5E0,6E0,3E0,7E0,1.5E1,2E0,3E0,7E0,2E0,7E0,-5.4279335E-2,2.6886106E-2,-3.84883E-2,-8.33915E-2,1.3343091E-2,8.779455E-2,-1.0388636E-1,1.3789807E-2,-7.8931294E-2,-4.465712E-2,4.795357E-2,-4.974911E-2,-1.1552942E-1,-2.1908669E-2,-9.065795E-2,-1.1732288E-1],"split_indices":[1,1,1,0,1,0,0,1,1,1,0,0,0,0,0,0,0,0,0,0,0,0,0,0,0,0,0,0,0,0,0],"split_type":[0,0,0,0,0,0,0,0,0,0,0,0,0,0,0,0,0,0,0,0,0,0,0,0,0,0,0,0,0,0,0],"sum_hessian":[4.871E3,4.434E3,4.37E2,1.364E3,3.07E3,2.81E2,1.56E2,7.1E2,6.54E2,1.692E3,1.378E3,1.71E2,1.1E2,6.4E1,9.2E1,2.76E2,4.34E2,5.18E2,1.36E2,1.194E3,4.98E2,1.87E2,1.191E3,8.4E1,8.7E1,6.5E1,4.5E1,2.1E1,4.3E1,4.8E1,4.4E1],"tree_param":{"num_deleted":"0","num_feature":"2","num_nodes":"31","size_leaf_vector":"1"}},{"base_weights":[-2.099342E-3,7.5571954E-2,-3.2033822E-1,-4.5946488E-1,1.3791293E-1,-9.080354E-2,-7.247467E-1,-3.926994E-1,-8.0049306E-1,1.9710138E-1,-3.985702E-1,-4.7753212E-1,1.7352593E0,-5.379581E-1,-1.0092148E0,-4.4795617E-2,-5.7678117E-4,-5.4532405E-2,-9.156839E-2,-1.7288772E-2,2.7769336E-2,-7.872804E-2,-2.2807082E-2,-3.139629E-2,-2.1425962E-1,1.2385561E-1,2.4457347E-1,-8.3434515E-2,-2.9270401E-2,-1.4675371E-1,-7.586553E-2],"categories":[],"categories_nodes":[],"categories_segments":[],"categories_sizes":[],"default_left":[0,0,0,0,0,0,0,0,0,0,0,0,0,0,0,0,0,0,0,0,0,0,0,0,0,0,0,0,0,0,0],"id":31,"left_children":[1,3,5,7,9,11,13,15,17,19,21,23,25,27,29,-1,-1,-1,-1,-1,-1,-1,-1,-1,-1,-1,-1,-1,-1,-1,-1],"loss_changes":[1.20450424E2,1.307138E2,8.8675644E1,8.998123E0,1.1150196E2,4.3231116E2,1.7841919E1,7.3523407E0,1.4406052E0,9.430319E1,2.2950375E1,1.3686572E2,3.473062E1,1.5093403E1,1.4504486E1,0E0,0E0,0E0,0E0,0E0,0E0,0E0,0E0,0E0,0E0,0E0,0E0,0E0,0E0,0E0,0E0],"parents":[2147483647,0,0,1,1,2,2,3,3,4,4,5,5,6,6,7,7,8,8,9,9,10,10,11,11,12,12,13,13,14,14],"right_children":[2,4,6,8,10,12,14,16,18,20,22,24,26,28,30,-1,-1,-1,-1,-1,-1,-1,-1,-1,-1,-1,-1,-1,-1,-1,-1],"split_conditions":[7E0,4E0,1.7E1,6E0,2.2E1,1.4E1,2.1E1,5E0,1E0,2E0,3E0,1.3E1,1.6E1,1.9E1,2.2E1,-4.4795617E-2,-5.7678117E-4,-5.4532405E-2,-9.156839E-2,-1.7288772E-2,2.7769336E-2,-7.872804E-2,-2.2807082E-2,-3.139629E-2,-2.1425962E-1,1.2385561E-1,2.4457347E-1,-8.3434515E-2,-2.9270401E-2,-1.4675371E-1,-7.586553E-2],"split_indices":[0,1,1,0,1,1,1,0,1,0,0,1,1,1,1,0,0,0,0,0,0,0,0,0,0,0,0,0,0,0,0],"split_type":[0,0,0,0,0,0,0,0,0,0,0,0,0,0,0,0,0,0,0,0,0,0,0,0,0,0,0,0,0,0,0],"sum_hessian":[4.871E3,3.916E3,9.55E2,4.08E2,3.508E3,6.1E2,3.45E2,3.43E2,6.5E1,3.16E3,3.48E2,5.04E2,1.06E2,2.1E2,1.35E2,3E2,4.3E1,2.2E1,4.3E1,5.65E2,2.595E3,1.05E2,2.43E2,4.6E2,4.4E1,6.4E1,4.2E1,9.4E1,1.16E2,4.6E1,8.9E1],"tree_param":{"num_deleted":"0","num_feature":"2","num_nodes":"31","size_leaf_vector":"1"}},{"base_weights":[-1.9909097E-3,6.7942746E-2,-2.8852662E-1,-4.139865E-1,1.2409582E-1,-1.4277016E-1,-8.284865E-1,-2.3047999E-1,-5.273994E-1,1.773947E-1,-3.590041E-1,-4.3026516E-1,4.3854082E-1,-9.3557745E-1,-6.836326E-1,-6.096987E-2,-8.338343E-3,-8.874715E-2,-4.4051718E-2,-1.5562976E-2,2.4993494E-2,-7.092952E-2,-2.0535715E-2,-2.8263453E-2,-1.9330975E-1,1.5651767E-1,-4.0165763E-2,-6.534156E-2,-1.3239057E-1,-3.746072E-2,-9.843334E-2],"categories":[],"categories_nodes":[],"categories_segments":[],"categories_sizes":[],"default_left":[0,0,0,0,0,0,0,0,0,0,0,0,0,0,0,0,0,0,0,0,0,0,0,0,0,0,0,0,0,0,0],"id":32,"left_children":[1,3,5,7,9,11,13,15,17,19,21,23,25,27,29,-1,-1,-1,-1,-1,-1,-1,-1,-1,-1,-1,-1,-1,-1,-1,-1],"loss_changes":[9.7647125E1,1.0605248E2,7.5121445E1,8.390549E0,9.041583E1,1.26200195E2,2.5094604E0,8.76268E0,7.4925995E0,7.640129E1,1.8637928E1,1.11495E2,2.3727809E2,1.1626076E1,7.994438E0,0E0,0E0,0E0,0E0,0E0,0E0,0E0,0E0,0E0,0E0,0E0,0E0,0E0,0E0,0E0,0E0],"parents":[2147483647,0,0,1,1,2,2,3,3,4,4,5,5,6,6,7,7,8,8,9,9,10,10,11,11,12,12,13,13,14,14],"right_children":[2,4,6,8,10,12,14,16,18,20,22,24,26,28,30,-1,-1,-1,-1,-1,-1,-1,-1,-1,-1,-1,-1,-1,-1,-1,-1],"split_conditions":[7E0,4E0,2E1,2E0,2.2E1,1.4E1,2.2E1,1E0,3E0,2E0,3E0,1.3E1,1.7E1,2.1E1,2.3E1,-6.096987E-2,-8.338343E-3,-8.874715E-2,-4.4051718E-2,-1.5562976E-2,2.4993494E-2,-7.092952E-2,-2.0535715E-2,-2.8263453E-2,-1.9330975E-1,1.5651767E-1,-4.0165763E-2,-6.534156E-2,-1.3239057E-1,-3.746072E-2,-9.843334E-2],"split_indices":[0,1,1,0,1,1,1,1,0,0,0,1,1,1,1,0,0,0,0,0,0,0,0,0,0,0,0,0,0,0,0],"split_type":[0,0,0,0,0,0,0,0,0,0,0,0,0,0,0,0,0,0,0,0,0,0,0,0,0,0,0,0,0,0,0],"sum_hessian":[4.871E3,3.916E3,9.55E2,4.08E2,3.508E3,7.53E2,2.02E2,1.57E2,2.51E2,3.16E3,3.48E2,5.04E2,2.49E2,1.13E2,8.9E1,4.3E1,1.14E2,4.7E1,2.04E2,5.65E2,2.595E3,1.05E2,2.43E2,4.6E2,4.4E1,1.06E2,1.43E2,6.7E1,4.6E1,4.5E1,4.4E1],"tree_param":{"num_deleted":"0","num_feature":"2","num_nodes":"31","size_leaf_vector":"1"}},{"base_weights":[-1.9404975E-3,-2.180021E-1,7.4461825E-2,-1.8097043E-2,-4.7007048E-1,2.5055367E-1,-1.4705208E-1,-2.4653465E-1,5.0307673E-1,-3.0881897E-1,-2.319392E-1,2.1562567E-2,4.6579328E-1,-4.6558562E-1,2.6219584E-2,-4.01577E-2,-4.930509E-3,1.2660304E-1,1.5385063E-2,-1.9529989E-2,-4.057698E-2,2.6719732E-2,-1.4418727E-1,9.306124E-2,5.9810258E-3,-6.7619406E-2,-3.5875905E-2,5.4157283E-2,-3.4450162E-2],"categories":[],"categories_nodes":[],"categories_segments":[],"categories_sizes":[],"default_left":[0,0,0,0,0,0,0,0,0,0,0,0,0,0,0,0,0,0,0,0,0,0,0,0,0,0,0,0,0],"id":33,"left_children":[1,3,5,7,9,11,13,15,17,19,-1,21,23,25,27,-1,-1,-1,-1,-1,-1,-1,-1,-1,-1,-1,-1,-1,-1],"loss_changes":[8.04413E1,6.4137634E1,1.4046127E2,8.477262E1,1.6717365E2,9.8861595E1,8.8044785E1,1.51167755E1,5.762341E1,5.6327477E0,0E0,3.5015012E2,1.9506914E2,1.2401596E1,1.977347E2,0E0,0E0,0E0,0E0,0E0,0E0,0E0,0E0,0E0,0E0,0E0,0E0,0E0,0E0],"parents":[2147483647,0,0,1,1,2,2,3,3,4,4,5,5,6,6,7,7,8,8,9,9,11,11,12,12,13,13,14,14],"right_children":[2,4,6,8,10,12,14,16,18,20,-1,22,24,26,28,-1,-1,-1,-1,-1,-1,-1,-1,-1,-1,-1,-1,-1,-1],"split_conditions":[8E0,5E0,1.8E1,5E0,7E0,1.3E1,4E0,3E0,7E0,7E0,-2.319392E-1,1.2E1,5E0,2E1,6E0,-4.01577E-2,-4.930509E-3,1.2660304E-1,1.5385063E-2,-1.9529989E-2,-4.057698E-2,2.6719732E-2,-1.4418727E-1,9.306124E-2,5.9810258E-3,-6.7619406E-2,-3.5875905E-2,5.4157283E-2,-3.4450162E-2],"split_indices":[1,0,1,1,1,1,0,1,1,0,0,1,0,1,0,0,0,0,0,0,0,0,0,0,0,0,0,0,0],"split_type":[0,0,0,0,0,0,0,0,0,0,0,0,0,0,0,0,0,0,0,0,0,0,0,0,0,0,0,0,0],"sum_hessian":[4.871E3,1.272E3,3.599E3,7.1E2,5.62E2,2.005E3,1.594E3,4.94E2,2.16E2,5.18E2,4.4E1,9.72E2,1.033E3,5.61E2,1.033E3,2.76E2,2.18E2,6.7E1,1.49E2,2.4E2,2.78E2,8.33E2,1.39E2,4.81E2,5.52E2,1.87E2,3.74E2,4.32E2,6.01E2],"tree_param":{"num_deleted":"0","num_feature":"2","num_nodes":"29","size_leaf_vector":"1"}},{"base_weights":[-1.8075205E-3,1.9982094E-2,-6.563172E-1,-1.963551E-1,9.994065E-2,-2.715203E-1,-7.899823E-2,-1.6150873E-2,-4.235822E-1,2.4316755E-1,-5.41316E-2,-8.679163E-2,3.6620498E-2,-2.2197226E-2,4.5342397E-2,-2.7805293E-2,-2.0926069E-1,8.5067665E-3,6.5044485E-2,-7.406748E-2,5.7367454E-3],"categories":[],"categories_nodes":[],"categories_segments":[],"categories_sizes":[],"default_left":[0,0,0,0,0,0,0,0,0,0,0,0,0,0,0,0,0,0,0,0,0],"id":34,"left_children":[1,3,5,7,9,11,-1,13,15,17,19,-1,-1,-1,-1,-1,-1,-1,-1,-1,-1],"loss_changes":[6.949521E1,8.1597046E1,7.860626E0,5.211905E1,7.601291E1,1.629198E1,0E0,6.881776E1,1.3616632E2,1.148817E2,1.2711369E2,0E0,0E0,0E0,0E0,0E0,0E0,0E0,0E0,0E0,0E0],"parents":[2147483647,0,0,1,1,2,2,3,3,4,4,5,5,7,7,8,8,9,9,10,10],"right_children":[2,4,6,8,10,12,-1,14,16,18,20,-1,-1,-1,-1,-1,-1,-1,-1,-1,-1],"split_conditions":[2.3E1,8E0,5E0,5E0,1.7E1,2E0,-7.899823E-2,5E0,7E0,1.5E1,2E0,-8.679163E-2,3.6620498E-2,-2.2197226E-2,4.5342397E-2,-2.7805293E-2,-2.0926069E-1,8.5067665E-3,6.5044485E-2,-7.406748E-2,5.7367454E-3],"split_indices":[1,1,0,0,1,0,0,1,1,1,0,0,0,0,0,0,0,0,0,0,0],"split_type":[0,0,0,0,0,0,0,0,0,0,0,0,0,0,0,0,0,0,0,0,0],"sum_hessian":[4.871E3,4.715E3,1.56E2,1.272E3,3.443E3,4.1E1,1.15E2,7.1E2,5.62E2,1.784E3,1.659E3,2.1E1,2E1,4.94E2,2.16E2,5.18E2,4.4E1,1.286E3,4.98E2,2.31E2,1.428E3],"tree_param":{"num_deleted":"0","num_feature":"2","num_nodes":"21","size_leaf_vector":"1"}},{"base_weights":[-1.6960221E-3,5.609505E-2,-2.3848046E-1,-3.1691277E-1,9.9555895E-2,-1.1381661E-1,-7.003429E-1,-2.5541303E-1,-6.326552E-1,2.2098929E-2,3.736829E-1,-3.5722274E-1,3.7831905E-1,-8.1529206E-1,-5.46959E-1,-3.0419517E-2,8.410587E-3,-4.0574905E-2,-7.368867E-2,1.6073972E-2,-4.4471577E-2,6.345414E-2,-3.6683563E-2,-2.1968817E-2,-1.7582498E-1,1.3497998E-1,-3.461723E-2,-5.607427E-2,-1.1662298E-1,-3.0987164E-2,-7.771603E-2],"categories":[],"categories_nodes":[],"categories_segments":[],"categories_sizes":[],"default_left":[0,0,0,0,0,0,0,0,0,0,0,0,0,0,0,0,0,0,0,0,0,0,0,0,0,0,0,0,0,0,0],"id":35,"left_children":[1,3,5,7,9,11,13,15,17,19,21,23,25,27,29,-1,-1,-1,-1,-1,-1,-1,-1,-1,-1,-1,-1,-1,-1,-1,-1],"loss_changes":[6.668195E1,6.3530952E1,5.4964436E1,7.780403E0,7.449849E1,9.045592E1,3.1332245E0,5.723068E0,1.261961E0,1.7720891E2,1.4955362E2,9.6922005E1,1.764246E2,9.529778E0,4.6711826E0,0E0,0E0,0E0,0E0,0E0,0E0,0E0,0E0,0E0,0E0,0E0,0E0,0E0,0E0,0E0,0E0],"parents":[2147483647,0,0,1,1,2,2,3,3,4,4,5,5,6,6,7,7,8,8,9,9,10,10,11,11,12,12,13,13,14,14],"right_children":[2,4,6,8,10,12,14,16,18,20,22,24,26,28,30,-1,-1,-1,-1,-1,-1,-1,-1,-1,-1,-1,-1,-1,-1,-1,-1],"split_conditions":[7E0,4E0,2E1,6E0,6E0,1.4E1,2.2E1,5E0,1E0,5E0,2E1,1.3E1,1.7E1,2.1E1,2.3E1,-3.0419517E-2,8.410587E-3,-4.0574905E-2,-7.368867E-2,1.6073972E-2,-4.4471577E-2,6.345414E-2,-3.6683563E-2,-2.1968817E-2,-1.7582498E-1,1.3497998E-1,-3.461723E-2,-5.607427E-2,-1.1662298E-1,-3.0987164E-2,-7.771603E-2],"split_indices":[0,1,1,0,0,1,1,0,1,0,1,1,1,1,1,0,0,0,0,0,0,0,0,0,0,0,0,0,0,0,0],"split_type":[0,0,0,0,0,0,0,0,0,0,0,0,0,0,0,0,0,0,0,0,0,0,0,0,0,0,0,0,0,0,0],"sum_hessian":[4.871E3,3.916E3,9.55E2,4.08E2,3.508E3,7.53E2,2.02E2,3.43E2,6.5E1,2.736E3,7.72E2,5.04E2,2.49E2,1.13E2,8.9E1,3E2,4.3E1,2.2E1,4.3E1,2.11E3,6.26E2,5.71E2,2.01E2,4.6E2,4.4E1,1.06E2,1.43E2,6.7E1,4.6E1,4.5E1,4.4E1],"tree_param":{"num_deleted":"0","num_feature":"2","num_nodes":"31","size_leaf_vector":"1"}},{"base_weights":[-1.6322128E-3,5.0450653E-2,-2.150286E-1,-7.5103715E-2,1.6366889E-1,-1.0256406E-1,-6.316948E-1,7.079592E-2,-4.116815E-1,6.543539E-1,-1.682426E-2,-3.218921E-1,3.4088886E-1,-7.3527783E-1,-4.9347082E-1,-1.2707501E-2,5.687669E-2,-6.0091477E-2,-3.1571474E-2,9.251417E-2,7.715532E-3,-3.696395E-2,2.6527962E-2,-1.97767E-2,-1.5863319E-1,1.216082E-1,-3.1179553E-2,-5.054931E-2,-1.05208814E-1,-2.7955806E-2,-7.0117116E-2],"categories":[],"categories_nodes":[],"categories_segments":[],"categories_sizes":[],"default_left":[0,0,0,0,0,0,0,0,0,0,0,0,0,0,0,0,0,0,0,0,0,0,0,0,0,0,0,0,0,0,0],"id":36,"left_children":[1,3,5,7,9,11,13,15,17,19,21,23,25,27,29,-1,-1,-1,-1,-1,-1,-1,-1,-1,-1,-1,-1,-1,-1,-1,-1],"loss_changes":[5.4159695E1,5.569261E1,4.4733543E1,9.126918E1,1.824555E2,7.344502E1,2.5436478E0,1.2787084E2,1.0016258E1,8.65179E1,1.5009059E2,7.894539E1,1.4318541E2,7.767166E0,3.80266E0,0E0,0E0,0E0,0E0,0E0,0E0,0E0,0E0,0E0,0E0,0E0,0E0,0E0,0E0,0E0,0E0],"parents":[2147483647,0,0,1,1,2,2,3,3,4,4,5,5,6,6,7,7,8,8,9,9,10,10,11,11,12,12,13,13,14,14],"right_children":[2,4,6,8,10,12,14,16,18,20,22,24,26,28,30,-1,-1,-1,-1,-1,-1,-1,-1,-1,-1,-1,-1,-1,-1,-1,-1],"split_conditions":[7E0,4E0,2E1,1.8E1,5E0,1.4E1,2.2E1,1.3E1,2E1,1.9E1,6E0,1.3E1,1.7E1,2.1E1,2.3E1,-1.2707501E-2,5.687669E-2,-6.0091477E-2,-3.1571474E-2,9.251417E-2,7.715532E-3,-3.696395E-2,2.6527962E-2,-1.97767E-2,-1.5863319E-1,1.216082E-1,-3.1179553E-2,-5.054931E-2,-1.05208814E-1,-2.7955806E-2,-7.0117116E-2],"split_indices":[0,0,1,1,0,1,1,1,1,1,0,1,1,1,1,0,0,0,0,0,0,0,0,0,0,0,0,0,0,0,0],"split_type":[0,0,0,0,0,0,0,0,0,0,0,0,0,0,0,0,0,0,0,0,0,0,0,0,0,0,0,0,0,0,0],"sum_hessian":[4.871E3,3.916E3,9.55E2,1.857E3,2.059E3,7.53E2,2.02E2,1.296E3,5.61E2,5.53E2,1.506E3,5.04E2,2.49E2,1.13E2,8.9E1,9.28E2,3.68E2,1.87E2,3.74E2,3.76E2,1.77E2,6.69E2,8.37E2,4.6E2,4.4E1,1.06E2,1.43E2,6.7E1,4.6E1,4.5E1,4.4E1],"tree_param":{"num_deleted":"0","num_feature":"2","num_nodes":"31","size_leaf_vector":"1"}},{"base_weights":[-1.5305155E-3,1.6262775E-2,-5.359995E-1,-1.5709105E-1,8.685099E-2,-2.4914224E-1,-6.352409E-2,-1.6154118E-2,-3.0983773E-1,2.0103157E-1,-2.9651752E-2,-7.702767E-2,3.086721E-2,-1.9285755E-2,3.869996E-2,-1.7843993E-2,-5.4547887E-2,3.2565368E-3,5.0786655E-2,-6.615718E-2,7.296203E-3],"categories":[],"categories_nodes":[],"categories_segments":[],"categories_sizes":[],"default_left":[0,0,0,0,0,0,0,0,0,0,0,0,0,0,0,0,0,0,0,0,0],"id":37,"left_children":[1,3,5,7,9,11,-1,13,15,17,19,-1,-1,-1,-1,-1,-1,-1,-1,-1,-1],"loss_changes":[4.634125E1,5.77221E1,4.3112297E0,2.9380234E1,4.4595436E1,1.2447006E1,0E0,5.0725307E1,2.0183243E1,8.749688E1,1.0768881E2,0E0,0E0,0E0,0E0,0E0,0E0,0E0,0E0,0E0,0E0],"parents":[2147483647,0,0,1,1,2,2,3,3,4,4,5,5,7,7,8,8,9,9,10,10],"right_children":[2,4,6,8,10,12,-1,14,16,18,20,-1,-1,-1,-1,-1,-1,-1,-1,-1,-1],"split_conditions":[2.3E1,9E0,5E0,5E0,1.7E1,2E0,-6.352409E-2,5E0,6E0,6E0,2E0,-7.702767E-2,3.086721E-2,-1.9285755E-2,3.869996E-2,-1.7843993E-2,-5.4547887E-2,3.2565368E-3,5.0786655E-2,-6.615718E-2,7.296203E-3],"split_indices":[1,1,0,0,1,0,0,1,1,0,0,0,0,0,0,0,0,0,0,0,0],"split_type":[0,0,0,0,0,0,0,0,0,0,0,0,0,0,0,0,0,0,0,0,0],"sum_hessian":[4.871E3,4.715E3,1.56E2,1.364E3,3.351E3,4.1E1,1.15E2,7.1E2,6.54E2,1.692E3,1.659E3,2.1E1,2E1,4.94E2,2.16E2,4.21E2,2.33E2,1.093E3,5.99E2,2.31E2,1.428E3],"tree_param":{"num_deleted":"0","num_feature":"2","num_nodes":"21","size_leaf_vector":"1"}},{"base_weights":[-1.4117358E-3,4.6716925E-2,-1.9860688E-1,-2.700543E-1,8.362565E-2,-5.624012E-2,-4.4943774E-1,-8.924355E-2,-3.8234815E-1,2.3226282E-2,2.9737654E-1,-2.8952384E-1,1.0452975E0,-2.8807822E-1,-5.616857E-1,-4.2818256E-2,4.121348E-3,-6.7840494E-2,-3.1116242E-2,1.3685176E-2,-3.59368E-2,5.2447345E-2,-3.4716196E-2,-1.726026E-2,-1.4808832E-1,6.0644414E-2,1.6843712E-1,-6.453278E-2,3.9645743E-2,-6.703486E-2,-4.1780513E-2],"categories":[],"categories_nodes":[],"categories_segments":[],"categories_sizes":[],"default_left":[0,0,0,0,0,0,0,0,0,0,0,0,0,0,0,0,0,0,0,0,0,0,0,0,0,0,0,0,0,0,0],"id":38,"left_children":[1,3,5,7,9,11,13,15,17,19,21,23,25,27,29,-1,-1,-1,-1,-1,-1,-1,-1,-1,-1,-1,-1,-1,-1,-1,-1],"loss_changes":[4.624815E1,4.5818672E1,3.4113464E1,8.270185E0,4.5295753E1,1.5731181E2,6.1050415E0,7.003928E0,5.0998116E0,1.1903328E2,1.1332814E2,7.008847E1,2.8987694E1,3.5471046E1,2.8937225E0,0E0,0E0,0E0,0E0,0E0,0E0,0E0,0E0,0E0,0E0,0E0,0E0,0E0,0E0,0E0,0E0],"parents":[2147483647,0,0,1,1,2,2,3,3,4,4,5,5,6,6,7,7,8,8,9,9,10,10,11,11,12,12,13,13,14,14],"right_children":[2,4,6,8,10,12,14,16,18,20,22,24,26,28,30,-1,-1,-1,-1,-1,-1,-1,-1,-1,-1,-1,-1,-1,-1,-1,-1],"split_conditions":[7E0,4E0,1.7E1,2E0,6E0,1.4E1,2E1,1E0,3E0,5E0,2E1,1.3E1,1.6E1,1.9E1,2.2E1,-4.2818256E-2,4.121348E-3,-6.7840494E-2,-3.1116242E-2,1.3685176E-2,-3.59368E-2,5.2447345E-2,-3.4716196E-2,-1.726026E-2,-1.4808832E-1,6.0644414E-2,1.6843712E-1,-6.453278E-2,3.9645743E-2,-6.703486E-2,-4.1780513E-2],"split_indices":[0,1,1,0,0,1,1,1,0,0,1,1,1,1,1,0,0,0,0,0,0,0,0,0,0,0,0,0,0,0,0],"split_type":[0,0,0,0,0,0,0,0,0,0,0,0,0,0,0,0,0,0,0,0,0,0,0,0,0,0,0,0,0,0,0],"sum_hessian":[4.871E3,3.916E3,9.55E2,4.08E2,3.508E3,6.1E2,3.45E2,1.57E2,2.51E2,2.736E3,7.72E2,5.04E2,1.06E2,1.43E2,2.02E2,4.3E1,1.14E2,4.7E1,2.04E2,2.11E3,6.26E2,5.71E2,2.01E2,4.6E2,4.4E1,6.4E1,4.2E1,9.4E1,4.9E1,1.13E2,8.9E1],"tree_param":{"num_deleted":"0","num_feature":"2","num_nodes":"31","size_leaf_vector":"1"}},{"base_weights":[-1.3142611E-3,4.2008776E-2,-1.7881952E-1,-6.925356E-2,1.4234053E-1,-5.0512023E-2,-4.0488037E-1,5.8811504E-2,-3.646826E-1,5.746368E-1,-1.6673733E-2,-2.6089913E-1,9.4290847E-1,-3.0494815E-1,-5.5694526E-1,-1.1795704E-2,5.0368726E-2,-5.3466376E-2,-2.7849292E-2,8.2272135E-2,4.597114E-3,-2.9222954E-2,2.0365927E-2,-1.5538006E-2,-1.3360856E-1,5.4673295E-2,1.5198503E-1,-5.814738E-2,-7.7812383E-3,-8.9065015E-2,-3.7648886E-2],"categories":[],"categories_nodes":[],"categories_segments":[],"categories_sizes":[],"default_left":[0,0,0,0,0,0,0,0,0,0,0,0,0,0,0,0,0,0,0,0,0,0,0,0,0,0,0,0,0,0,0],"id":39,"left_children":[1,3,5,7,9,11,13,15,17,19,21,23,25,27,29,-1,-1,-1,-1,-1,-1,-1,-1,-1,-1,-1,-1,-1,-1,-1,-1],"loss_changes":[3.747352E1,4.3735893E1,2.7708616E1,7.0317276E1,1.4161661E2,1.2794675E2,5.088043E0,1.0205555E2,8.084747E0,7.262135E1,9.1555565E1,5.7085995E1,2.3626068E1,1.3207424E1,7.8544846E0,0E0,0E0,0E0,0E0,0E0,0E0,0E0,0E0,0E0,0E0,0E0,0E0,0E0,0E0,0E0,0E0],"parents":[2147483647,0,0,1,1,2,2,3,3,4,4,5,5,6,6,7,7,8,8,9,9,10,10,11,11,12,12,13,13,14,14],"right_children":[2,4,6,8,10,12,14,16,18,20,22,24,26,28,30,-1,-1,-1,-1,-1,-1,-1,-1,-1,-1,-1,-1,-1,-1,-1,-1],"split_conditions":[7E0,4E0,1.7E1,1.8E1,5E0,1.4E1,2.1E1,1.3E1,2E1,1.9E1,6E0,1.3E1,1.6E1,1.9E1,2.2E1,-1.1795704E-2,5.0368726E-2,-5.3466376E-2,-2.7849292E-2,8.2272135E-2,4.597114E-3,-2.9222954E-2,2.0365927E-2,-1.5538006E-2,-1.3360856E-1,5.4673295E-2,1.5198503E-1,-5.814738E-2,-7.7812383E-3,-8.9065015E-2,-3.7648886E-2],"split_indices":[0,0,1,1,0,1,1,1,1,1,0,1,1,1,1,0,0,0,0,0,0,0,0,0,0,0,0,0,0,0,0],"split_type":[0,0,0,0,0,0,0,0,0,0,0,0,0,0,0,0,0,0,0,0,0,0,0,0,0,0,0,0,0,0,0],"sum_hessian":[4.871E3,3.916E3,9.55E2,1.857E3,2.059E3,6.1E2,3.45E2,1.296E3,5.61E2,5.53E2,1.506E3,5.04E2,1.06E2,2.1E2,1.35E2,9.28E2,3.68E2,1.87E2,3.74E2,3.76E2,1.77E2,6.69E2,8.37E2,4.6E2,4.4E1,6.4E1,4.2E1,9.4E1,1.16E2,4.6E1,8.9E1],"tree_param":{"num_deleted":"0","num_feature":"2","num_nodes":"31","size_leaf_vector":"1"}},{"base_weights":[-1.2034815E-3,-1.4062616E-1,4.8098262E-2,-1.6017985E-2,-2.9774123E-1,9.102827E-2,-2.6202896E-1,-1.6791864E-1,3.3055732E-1,-1.763368E-1,-1.6913228E-1,-1.6740452E-1,1.2936148E-1,-1.5793073E-1,-4.47339E-1,-3.1928305E-2,-5.7106507E-3,1.0533049E-1,7.0803326E-5,8.112005E-3,-2.4261173E-2,3.2100644E-2,-7.4325465E-2,3.0656183E-2,1.4923902E-3,-4.1425634E-2,2.4068126E-2,-2.2695104E-2,-5.232783E-2],"categories":[],"categories_nodes":[],"categories_segments":[],"categories_sizes":[],"default_left":[0,0,0,0,0,0,0,0,0,0,0,0,0,0,0,0,0,0,0,0,0,0,0,0,0,0,0,0,0],"id":40,"left_children":[1,3,5,7,9,11,13,15,17,19,-1,21,23,25,27,-1,-1,-1,-1,-1,-1,-1,-1,-1,-1,-1,-1,-1,-1],"loss_changes":[3.3495827E1,2.4917803E1,4.795341E1,3.748611E1,9.495404E1,3.1356096E1,8.378563E0,8.2844095E0,5.1731575E1,8.875341E0,0E0,1.1527045E2,5.586237E1,2.8912899E1,2.508812E0,0E0,0E0,0E0,0E0,0E0,0E0,0E0,0E0,0E0,0E0,0E0,0E0,0E0,0E0],"parents":[2147483647,0,0,1,1,2,2,3,3,4,4,5,5,6,6,7,7,8,8,9,9,11,11,12,12,13,13,14,14],"right_children":[2,4,6,8,10,12,14,16,18,20,-1,22,24,26,28,-1,-1,-1,-1,-1,-1,-1,-1,-1,-1,-1,-1,-1,-1],"split_conditions":[8E0,5E0,2.2E1,5E0,7E0,2E0,2.3E1,2E0,7E0,6E0,-1.6913228E-1,1.7E1,5E0,5E0,5E0,-3.1928305E-2,-5.7106507E-3,1.0533049E-1,7.0803326E-5,8.112005E-3,-2.4261173E-2,3.2100644E-2,-7.4325465E-2,3.0656183E-2,1.4923902E-3,-4.1425634E-2,2.4068126E-2,-2.2695104E-2,-5.232783E-2],"split_indices":[1,0,1,1,1,0,1,1,1,0,0,1,0,0,0,0,0,0,0,0,0,0,0,0,0,0,0,0,0],"split_type":[0,0,0,0,0,0,0,0,0,0,0,0,0,0,0,0,0,0,0,0,0,0,0,0,0,0,0,0,0],"sum_hessian":[4.871E3,1.272E3,3.599E3,7.1E2,5.62E2,3.162E3,4.37E2,4.94E2,2.16E2,5.18E2,4.4E1,4.08E2,2.754E3,2.81E2,1.56E2,2.08E2,2.86E2,6.7E1,1.49E2,1.06E2,4.12E2,2.21E2,1.87E2,1.08E3,1.674E3,1.71E2,1.1E2,4.1E1,1.15E2],"tree_param":{"num_deleted":"0","num_feature":"2","num_nodes":"29","size_leaf_vector":"1"}},{"base_weights":[-1.1282038E-3,-8.705666E-2,7.227762E-2,-4.969425E-3,-1.3212614E0,3.278805E-1,-4.2192325E-2,-9.959291E-2,5.394348E-1,-2.243684E0,8.84479E-1,7.82308E-1,-5.342982E-2,-5.3677E-1,3.7839863E-2,1.9671416E-3,-2.2224851E-2,-5.9946544E-2,1.4001769E-1,-1.15928255E-1,-3.0901274E-1,1.23200335E-1,4.7828786E-2,1.5077466E-1,5.7448637E-2,-9.9864796E-2,3.7301965E-2,-1.1579796E-1,2.354288E-3,2.312772E-2,-2.0751594E-2],"categories":[],"categories_nodes":[],"categories_segments":[],"categories_sizes":[],"default_left":[0,0,0,0,0,0,0,0,0,0,0,0,0,0,0,0,0,0,0,0,0,0,0,0,0,0,0,0,0,0,0],"id":41,"left_children":[1,3,5,7,9,11,13,15,17,19,21,23,25,27,29,-1,-1,-1,-1,-1,-1,-1,-1,-1,-1,-1,-1,-1,-1,-1,-1],"loss_changes":[3.0737162E1,2.2743988E2,7.690609E1,1.08541E2,2.8683197E2,1.4091672E2,7.190147E1,2.6262419E1,3.0669275E2,8.728818E1,5.3395233E0,5.5066467E1,1.7894038E2,8.808939E1,7.4276955E1,0E0,0E0,0E0,0E0,0E0,0E0,0E0,0E0,0E0,0E0,0E0,0E0,0E0,0E0,0E0,0E0],"parents":[2147483647,0,0,1,1,2,2,3,3,4,4,5,5,6,6,7,7,8,8,9,9,10,10,11,11,12,12,13,13,14,14],"right_children":[2,4,6,8,10,12,14,16,18,20,22,24,26,28,30,-1,-1,-1,-1,-1,-1,-1,-1,-1,-1,-1,-1,-1,-1,-1,-1],"split_conditions":[1.3E1,1.2E1,1.7E1,1.1E1,6E0,5E0,2E0,5E0,4E0,4E0,7E0,2E0,6E0,2E1,6E0,1.9671416E-3,-2.2224851E-2,-5.9946544E-2,1.4001769E-1,-1.15928255E-1,-3.0901274E-1,1.23200335E-1,4.7828786E-2,1.5077466E-1,5.7448637E-2,-9.9864796E-2,3.7301965E-2,-1.1579796E-1,2.354288E-3,2.312772E-2,-2.0751594E-2],"split_indices":[1,1,1,1,0,0,0,0,0,0,0,0,0,1,0,0,0,0,0,0,0,0,0,0,0,0,0,0,0,0,0],"split_type":[0,0,0,0,0,0,0,0,0,0,0,0,0,0,0,0,0,0,0,0,0,0,0,0,0,0,0,0,0,0,0],"sum_hessian":[4.871E3,2.244E3,2.627E3,2.105E3,1.39E2,8.12E2,1.815E3,1.794E3,3.11E2,9.8E1,4.1E1,3.7E2,4.42E2,2.52E2,1.563E3,9.1E2,8.84E2,1.34E2,1.77E2,4.4E1,5.4E1,2.1E1,2E1,8.1E1,2.89E2,1.37E2,3.05E2,1.19E2,1.33E2,8.74E2,6.89E2],"tree_param":{"num_deleted":"0","num_feature":"2","num_nodes":"31","size_leaf_vector":"1"}},{"base_weights":[-1.0481345E-3,2.2353072E-2,-2.3799631E-1,-7.843747E-2,1.2561753E-1,-4.1791278E-1,-1.4660688E-1,-4.444138E-3,-1.1909484E0,2.6205483E-1,-1.0904428E-3,-1.5337656E-1,-6.2573564E-1,3.1883076E-2,-3.515798E-1,-8.9644855E-3,4.857473E-2,-2.0236073E-1,8.001037E-2,3.4202884E-3,9.178411E-2,-2.509513E-2,1.0447714E-2,9.957907E-3,-6.638142E-2,-9.4552316E-2,-2.9866368E-2,-4.3361347E-2,2.2869797E-2,2.6145149E-2,-4.5952875E-2],"categories":[],"categories_nodes":[],"categories_segments":[],"categories_sizes":[],"default_left":[0,0,0,0,0,0,0,0,0,0,0,0,0,0,0,0,0,0,0,0,0,0,0,0,0,0,0,0,0,0,0],"id":42,"left_children":[1,3,5,7,9,11,13,15,17,19,21,23,25,27,29,-1,-1,-1,-1,-1,-1,-1,-1,-1,-1,-1,-1,-1,-1,-1,-1],"loss_changes":[2.7019943E1,4.616969E1,7.1405296E0,1.847995E2,3.7877613E1,7.9855976E0,1.0694206E1,8.799992E1,2.3372052E2,1.57609E2,3.0017097E1,8.587894E0,8.294277E0,1.4482981E1,9.120092E0,0E0,0E0,0E0,0E0,0E0,0E0,0E0,0E0,0E0,0E0,0E0,0E0,0E0,0E0,0E0,0E0],"parents":[2147483647,0,0,1,1,2,2,3,3,4,4,5,5,6,6,7,7,8,8,9,9,10,10,11,11,12,12,13,13,14,14],"right_children":[2,4,6,8,10,12,14,16,18,20,22,24,26,28,30,-1,-1,-1,-1,-1,-1,-1,-1,-1,-1,-1,-1,-1,-1,-1,-1],"split_conditions":[2.2E1,1.3E1,4E0,1.2E1,5E0,2E0,2.3E1,1.1E1,6E0,4E0,1.6E1,2.3E1,3E0,5E0,5E0,-8.9644855E-3,4.857473E-2,-2.0236073E-1,8.001037E-2,3.4202884E-3,9.178411E-2,-2.509513E-2,1.0447714E-2,9.957907E-3,-6.638142E-2,-9.4552316E-2,-2.9866368E-2,-4.3361347E-2,2.2869797E-2,2.6145149E-2,-4.5952875E-2],"split_indices":[1,1,0,1,0,0,1,1,0,0,1,1,0,0,0,0,0,0,0,0,0,0,0,0,0,0,0,0,0,0,0],"split_type":[0,0,0,0,0,0,0,0,0,0,0,0,0,0,0,0,0,0,0,0,0,0,0,0,0,0,0,0,0,0,0],"sum_hessian":[4.871E3,4.434E3,4.37E2,2.244E3,2.19E3,1.46E2,2.91E2,2.105E3,1.39E2,1.054E3,1.136E3,6.5E1,8.1E1,1.56E2,1.35E2,1.794E3,3.11E2,9.8E1,4.1E1,7.83E2,2.71E2,3.37E2,7.99E2,4.4E1,2.1E1,4E1,4.1E1,4.6E1,1.1E2,2E1,1.15E2],"tree_param":{"num_deleted":"0","num_feature":"2","num_nodes":"31","size_leaf_vector":"1"}},{"base_weights":[-9.890681E-4,3.523025E-2,-1.4938873E-1,-6.4755864E-2,1.2539479E-1,-7.04385E-2,-4.4189656E-1,4.0666953E-2,-3.079385E-1,4.3675053E-1,1.0851679E-2,-2.1964727E-1,2.31245E-1,-5.5465585E-1,-2.9415816E-1,-9.57836E-3,3.8408674E-2,-4.4756398E-2,-2.3711842E-2,6.590021E-2,-3.6426836E-3,-2.0135226E-2,1.8050058E-2,-1.21635655E-2,-1.21884085E-1,8.230263E-2,-2.1008726E-2,-3.8047843E-2,-7.94856E-2,-2.0726208E-2,-3.7644845E-2],"categories":[],"categories_nodes":[],"categories_segments":[],"categories_sizes":[],"default_left":[0,0,0,0,0,0,0,0,0,0,0,0,0,0,0,0,0,0,0,0,0,0,0,0,0,0,0,0,0,0,0],"id":43,"left_children":[1,3,5,7,9,11,13,15,17,19,21,23,25,27,29,-1,-1,-1,-1,-1,-1,-1,-1,-1,-1,-1,-1,-1,-1,-1,-1],"loss_changes":[2.6191942E1,3.5320667E1,2.2046314E1,4.7646065E1,7.346239E1,3.399122E1,3.2185974E0,6.0813972E1,5.451088E0,5.828508E1,5.4288593E1,4.9307697E1,6.546594E1,4.467041E0,5.6553984E-1,0E0,0E0,0E0,0E0,0E0,0E0,0E0,0E0,0E0,0E0,0E0,0E0,0E0,0E0,0E0,0E0],"parents":[2147483647,0,0,1,1,2,2,3,3,4,4,5,5,6,6,7,7,8,8,9,9,10,10,11,11,12,12,13,13,14,14],"right_children":[2,4,6,8,10,12,14,16,18,20,22,24,26,28,30,-1,-1,-1,-1,-1,-1,-1,-1,-1,-1,-1,-1,-1,-1,-1,-1],"split_conditions":[7E0,4E0,2E1,1.8E1,5E0,1.4E1,2.2E1,1.3E1,2E1,1.9E1,6E0,1.3E1,1.7E1,2.1E1,2.3E1,-9.57836E-3,3.8408674E-2,-4.4756398E-2,-2.3711842E-2,6.590021E-2,-3.6426836E-3,-2.0135226E-2,1.8050058E-2,-1.21635655E-2,-1.21884085E-1,8.230263E-2,-2.1008726E-2,-3.8047843E-2,-7.94856E-2,-2.0726208E-2,-3.7644845E-2],"split_indices":[0,0,1,1,0,1,1,1,1,1,0,1,1,1,1,0,0,0,0,0,0,0,0,0,0,0,0,0,0,0,0],"split_type":[0,0,0,0,0,0,0,0,0,0,0,0,0,0,0,0,0,0,0,0,0,0,0,0,0,0,0,0,0,0,0],"sum_hessian":[4.871E3,3.916E3,9.55E2,1.857E3,2.059E3,7.53E2,2.02E2,1.296E3,5.61E2,5.53E2,1.506E3,5.04E2,2.49E2,1.13E2,8.9E1,9.28E2,3.68E2,1.87E2,3.74E2,3.76E2,1.77E2,6.69E2,8.37E2,4.6E2,4.4E1,1.06E2,1.43E2,6.7E1,4.6E1,4.5E1,4.4E1],"tree_param":{"num_deleted":"0","num_feature":"2","num_nodes":"31","size_leaf_vector":"1"}},{"base_weights":[-9.368618E-4,3.171262E-2,-1.3470995E-1,-5.8301415E-2,1.1288464E-1,-6.349113E-2,-3.9857346E-1,3.6622785E-2,-2.772665E-1,-1.437803E-1,2.3024626E-1,-1.979481E-1,2.0836593E-1,-5.002214E-1,-2.6539087E-1,-8.621528E-3,3.457825E-2,-4.030461E-2,-2.1346966E-2,-3.0093968E-2,1.0699254E-2,1.3597144E-1,1.09966425E-2,-1.0949861E-2,-1.0996652E-1,7.414933E-2,-1.8922437E-2,-3.4299016E-2,-7.170618E-2,-1.8698636E-2,-3.396402E-2],"categories":[],"categories_nodes":[],"categories_segments":[],"categories_sizes":[],"default_left":[0,0,0,0,0,0,0,0,0,0,0,0,0,0,0,0,0,0,0,0,0,0,0,0,0,0,0,0,0,0,0],"id":44,"left_children":[1,3,5,7,9,11,13,15,17,19,21,23,25,27,29,-1,-1,-1,-1,-1,-1,-1,-1,-1,-1,-1,-1,-1,-1,-1,-1],"loss_changes":[2.1283329E1,2.8626617E1,1.7939896E1,3.8628845E1,6.2085697E1,2.7602266E1,2.615406E0,4.9285435E1,4.423641E0,2.5531311E1,1.9194556E2,4.0156578E1,5.313188E1,3.6407795E0,4.604249E-1,0E0,0E0,0E0,0E0,0E0,0E0,0E0,0E0,0E0,0E0,0E0,0E0,0E0,0E0,0E0,0E0],"parents":[2147483647,0,0,1,1,2,2,3,3,4,4,5,5,6,6,7,7,8,8,9,9,10,10,11,11,12,12,13,13,14,14],"right_children":[2,4,6,8,10,12,14,16,18,20,22,24,26,28,30,-1,-1,-1,-1,-1,-1,-1,-1,-1,-1,-1,-1,-1,-1,-1,-1],"split_conditions":[7E0,4E0,2E1,1.8E1,1.1E1,1.4E1,2.2E1,1.3E1,2E1,6E0,1.2E1,1.3E1,1.7E1,2.1E1,2.3E1,-8.621528E-3,3.457825E-2,-4.030461E-2,-2.1346966E-2,-3.0093968E-2,1.0699254E-2,1.3597144E-1,1.09966425E-2,-1.0949861E-2,-1.0996652E-1,7.414933E-2,-1.8922437E-2,-3.4299016E-2,-7.170618E-2,-1.8698636E-2,-3.396402E-2],"split_indices":[0,0,1,1,1,1,1,1,1,0,1,1,1,1,1,0,0,0,0,0,0,0,0,0,0,0,0,0,0,0,0],"split_type":[0,0,0,0,0,0,0,0,0,0,0,0,0,0,0,0,0,0,0,0,0,0,0,0,0,0,0,0,0,0,0],"sum_hessian":[4.871E3,3.916E3,9.55E2,1.857E3,2.059E3,7.53E2,2.02E2,1.296E3,5.61E2,6.46E2,1.413E3,5.04E2,2.49E2,1.13E2,8.9E1,9.28E2,3.68E2,1.87E2,3.74E2,3.97E2,2.49E2,1.35E2,1.278E3,4.6E2,4.4E1,1.06E2,1.43E2,6.7E1,4.6E1,4.5E1,4.4E1],"tree_param":{"num_deleted":"0","num_feature":"2","num_nodes":"31","size_leaf_vector":"1"}},{"base_weights":[-8.703076E-4,-6.9129445E-2,5.7441197E-2,-2.5166413E-3,-1.0706825E0,2.4487817E-1,-2.6503574E-2,-6.850366E-2,3.771283E-1,-1.8189075E0,7.18483E-1,1.2833366E0,1.282136E-1,-4.4920552E-1,4.1891627E-2,5.623705E-3,-1.5808431E-2,-5.7011295E-2,1.0934229E-1,-8.302715E-2,-2.5947207E-1,1.01030625E-1,3.7854984E-2,-1.1592566E-2,1.7983316E-1,4.0513717E-2,-5.3357612E-3,-1.0267228E-1,7.132645E-3,2.1150187E-2,-1.7325452E-2],"categories":[],"categories_nodes":[],"categories_segments":[],"categories_sizes":[],"default_left":[0,0,0,0,0,0,0,0,0,0,0,0,0,0,0,0,0,0,0,0,0,0,0,0,0,0,0,0,0,0,0],"id":45,"left_children":[1,3,5,7,9,11,13,15,17,19,21,23,25,27,29,-1,-1,-1,-1,-1,-1,-1,-1,-1,-1,-1,-1,-1,-1,-1,-1],"loss_changes":[1.9395958E1,1.497753E2,4.1356377E1,5.2784588E1,1.8872462E2,9.833146E1,5.25208E1,2.0066853E1,2.1231654E2,7.377838E1,3.783966E0,5.929875E1,3.6827564E1,7.6129135E1,5.710855E1,0E0,0E0,0E0,0E0,0E0,0E0,0E0,0E0,0E0,0E0,0E0,0E0,0E0,0E0,0E0,0E0],"parents":[2147483647,0,0,1,1,2,2,3,3,4,4,5,5,6,6,7,7,8,8,9,9,10,10,11,11,12,12,13,13,14,14],"right_children":[2,4,6,8,10,12,14,16,18,20,22,24,26,28,30,-1,-1,-1,-1,-1,-1,-1,-1,-1,-1,-1,-1,-1,-1,-1,-1],"split_conditions":[1.3E1,1.2E1,1.7E1,1.1E1,6E0,2E0,2E0,4E0,4E0,4E0,7E0,1.4E1,5E0,2E1,6E0,5.623705E-3,-1.5808431E-2,-5.7011295E-2,1.0934229E-1,-8.302715E-2,-2.5947207E-1,1.01030625E-1,3.7854984E-2,-1.1592566E-2,1.7983316E-1,4.0513717E-2,-5.3357612E-3,-1.0267228E-1,7.132645E-3,2.1150187E-2,-1.7325452E-2],"split_indices":[1,1,1,1,0,0,0,0,0,0,0,1,0,1,0,0,0,0,0,0,0,0,0,0,0,0,0,0,0,0,0],"split_type":[0,0,0,0,0,0,0,0,0,0,0,0,0,0,0,0,0,0,0,0,0,0,0,0,0,0,0,0,0,0,0],"sum_hessian":[4.871E3,2.244E3,2.627E3,2.105E3,1.39E2,8.12E2,1.815E3,1.794E3,3.11E2,9.8E1,4.1E1,8.1E1,7.31E2,2.52E2,1.563E3,7.5E2,1.044E3,1.34E2,1.77E2,4.4E1,5.4E1,2.1E1,2E1,2.2E1,5.9E1,2.89E2,4.42E2,1.19E2,1.33E2,8.74E2,6.89E2],"tree_param":{"num_deleted":"0","num_feature":"2","num_nodes":"31","size_leaf_vector":"1"}},{"base_weights":[-7.936097E-4,1.8668013E-2,-1.9785184E-1,-6.2288426E-2,1.0161121E-1,-3.115858E-1,-8.978464E-2,-2.2449617E-3,-9.650688E-1,1.4931773E-1,-1.0786726E-1,-1.0154194E-1,-4.031487E-1,2.2211936E-1,-3.8747048E-1,-6.1658896E-3,3.395828E-2,-1.6404766E-1,6.499416E-2,5.203892E-2,1.0814855E-2,-9.869253E-2,1.4040187E-4,1.2692617E-2,-5.642475E-2,-8.299513E-2,-2.3738896E-2,4.7932632E-2,-1.517454E-2,-4.4332646E-2,-2.8949052E-2],"categories":[],"categories_nodes":[],"categories_segments":[],"categories_sizes":[],"default_left":[0,0,0,0,0,0,0,0,0,0,0,0,0,0,0,0,0,0,0,0,0,0,0,0,0,0,0,0,0,0,0],"id":46,"left_children":[1,3,5,7,9,11,13,15,17,19,21,23,25,27,29,-1,-1,-1,-1,-1,-1,-1,-1,-1,-1,-1,-1,-1,-1,-1,-1],"loss_changes":[1.868817E1,2.9786404E1,5.355444E0,1.2169044E2,2.1911842E1,4.0555267E0,2.107003E1,4.2792385E1,1.5377692E2,2.7212639E1,3.9096096E1,7.0487065E0,1.0273491E1,1.0746563E1,5.0650215E-1,0E0,0E0,0E0,0E0,0E0,0E0,0E0,0E0,0E0,0E0,0E0,0E0,0E0,0E0,0E0,0E0],"parents":[2147483647,0,0,1,1,2,2,3,3,4,4,5,5,6,6,7,7,8,8,9,9,10,10,11,11,12,12,13,13,14,14],"right_children":[2,4,6,8,10,12,14,16,18,20,22,24,26,28,30,-1,-1,-1,-1,-1,-1,-1,-1,-1,-1,-1,-1,-1,-1,-1,-1],"split_conditions":[2.2E1,1.3E1,5E0,1.2E1,7E0,2E0,2.3E1,1.1E1,6E0,1.4E1,1.4E1,2.3E1,3E0,7E0,7E0,-6.1658896E-3,3.395828E-2,-1.6404766E-1,6.499416E-2,5.203892E-2,1.0814855E-2,-9.869253E-2,1.4040187E-4,1.2692617E-2,-5.642475E-2,-8.299513E-2,-2.3738896E-2,4.7932632E-2,-1.517454E-2,-4.4332646E-2,-2.8949052E-2],"split_indices":[1,1,0,1,0,0,1,1,0,1,1,1,0,0,0,0,0,0,0,0,0,0,0,0,0,0,0,0,0,0,0],"split_type":[0,0,0,0,0,0,0,0,0,0,0,0,0,0,0,0,0,0,0,0,0,0,0,0,0,0,0,0,0,0,0],"sum_hessian":[4.871E3,4.434E3,4.37E2,2.244E3,2.19E3,2.12E2,2.25E2,2.105E3,1.39E2,1.784E3,4.06E2,6.5E1,1.47E2,1.1E2,1.15E2,1.794E3,3.11E2,9.8E1,4.1E1,1.77E2,1.607E3,4.4E1,3.62E2,4.4E1,2.1E1,4E1,1.07E2,6.5E1,4.5E1,7.1E1,4.4E1],"tree_param":{"num_deleted":"0","num_feature":"2","num_nodes":"31","size_leaf_vector":"1"}},{"base_weights":[-7.7529956E-4,1.6777214E-2,-1.7850274E-1,-5.6091253E-2,9.143396E-2,-2.8113365E-1,-8.0985546E-2,-2.0071573E-3,-8.692699E-1,1.871421E-1,2.5478378E-3,-9.205035E-2,-3.6355504E-1,2.002025E-1,-3.4935525E-1,-5.549628E-3,3.0573318E-2,-1.4780864E-1,5.864943E-2,-2.0952139E-4,7.319028E-2,-2.2922019E-2,1.0046665E-2,1.1451556E-2,-5.1038742E-2,-4.5842513E-2,2.3201292E-2,4.3212E-2,-1.3690094E-2,-3.996097E-2,-2.6118476E-2],"categories":[],"categories_nodes":[],"categories_segments":[],"categories_sizes":[],"default_left":[0,0,0,0,0,0,0,0,0,0,0,0,0,0,0,0,0,0,0,0,0,0,0,0,0,0,0,0,0,0,0],"id":47,"left_children":[1,3,5,7,9,11,13,15,17,19,21,23,25,27,29,-1,-1,-1,-1,-1,-1,-1,-1,-1,-1,-1,-1,-1,-1,-1,-1],"loss_changes":[1.5201508E1,2.4132072E1,4.360857E0,9.873342E1,1.8638634E1,3.2860355E0,1.7124434E1,3.468333E1,1.2494794E2,1.087605E2,2.5826616E1,5.761783E0,8.468597E0,8.73716E0,4.0961933E-1,0E0,0E0,0E0,0E0,0E0,0E0,0E0,0E0,0E0,0E0,0E0,0E0,0E0,0E0,0E0,0E0],"parents":[2147483647,0,0,1,1,2,2,3,3,4,4,5,5,6,6,7,7,8,8,9,9,10,10,11,11,12,12,13,13,14,14],"right_children":[2,4,6,8,10,12,14,16,18,20,22,24,26,28,30,-1,-1,-1,-1,-1,-1,-1,-1,-1,-1,-1,-1,-1,-1,-1,-1],"split_conditions":[2.2E1,1.3E1,5E0,1.2E1,5E0,2E0,2.3E1,1.1E1,6E0,4E0,1.6E1,2.3E1,2.3E1,7E0,7E0,-5.549628E-3,3.0573318E-2,-1.4780864E-1,5.864943E-2,-2.0952139E-4,7.319028E-2,-2.2922019E-2,1.0046665E-2,1.1451556E-2,-5.1038742E-2,-4.5842513E-2,2.3201292E-2,4.3212E-2,-1.3690094E-2,-3.996097E-2,-2.6118476E-2],"split_indices":[1,1,0,1,0,0,1,1,0,0,1,1,1,0,0,0,0,0,0,0,0,0,0,0,0,0,0,0,0,0,0],"split_type":[0,0,0,0,0,0,0,0,0,0,0,0,0,0,0,0,0,0,0,0,0,0,0,0,0,0,0,0,0,0,0],"sum_hessian":[4.871E3,4.434E3,4.37E2,2.244E3,2.19E3,2.12E2,2.25E2,2.105E3,1.39E2,1.054E3,1.136E3,6.5E1,1.47E2,1.1E2,1.15E2,1.794E3,3.11E2,9.8E1,4.1E1,7.83E2,2.71E2,3.37E2,7.99E2,4.4E1,2.1E1,1.27E2,2E1,6.5E1,4.5E1,7.1E1,4.4E1],"tree_param":{"num_deleted":"0","num_feature":"2","num_nodes":"31","size_leaf_vector":"1"}},{"base_weights":[-7.187258E-4,2.5001906E-2,-1.0610261E-1,-1.9006948E-1,5.0062947E-2,1.7913705E-1,-1.6323215E-1,-1.2704472E-1,-5.156823E-1,-3.3185996E-2,1.2025609E-1,8.202667E-2,7.845556E-2,-5.327592E-2,-6.51747E-2,-1.8714104E-2,2.8695611E-2,-3.1309403E-2,-6.0986068E-2,1.1350928E-2,-2.1568922E-2,3.9369795E-2,2.126978E-3,2.2096759E-2,1.316168E-3,1.7239112E-2,-2.6135577E-2],"categories":[],"categories_nodes":[],"categories_segments":[],"categories_sizes":[],"default_left":[0,0,0,0,0,0,0,0,0,0,0,0,0,0,0,0,0,0,0,0,0,0,0,0,0,0,0],"id":48,"left_children":[1,3,5,7,9,11,13,15,17,19,21,23,-1,-1,25,-1,-1,-1,-1,-1,-1,-1,-1,-1,-1,-1,-1],"loss_changes":[1.3208404E1,2.1121803E1,1.5607847E1,8.327847E0,2.050885E1,9.342432E0,2.8844479E1,8.612394E0,1.0683002E0,4.302089E1,5.15272E1,1.3270664E0,0E0,0E0,2.9453388E1,0E0,0E0,0E0,0E0,0E0,0E0,0E0,0E0,0E0,0E0,0E0,0E0],"parents":[2147483647,0,0,1,1,2,2,3,3,4,4,5,5,6,6,7,7,8,8,9,9,10,10,11,11,14,14],"right_children":[2,4,6,8,10,12,14,16,18,20,22,24,-1,-1,26,-1,-1,-1,-1,-1,-1,-1,-1,-1,-1,-1,-1],"split_conditions":[7E0,4E0,4E0,6E0,4E0,3E0,9E0,5E0,1E0,1.6E1,5E0,1E0,7.845556E-2,-5.327592E-2,1.7E1,-1.8714104E-2,2.8695611E-2,-3.1309403E-2,-6.0986068E-2,1.1350928E-2,-2.1568922E-2,3.9369795E-2,2.126978E-3,2.2096759E-2,1.316168E-3,1.7239112E-2,-2.6135577E-2],"split_indices":[0,1,1,0,0,1,1,0,1,1,0,1,0,0,1,0,0,0,0,0,0,0,0,0,0,0,0],"split_type":[0,0,0,0,0,0,0,0,0,0,0,0,0,0,0,0,0,0,0,0,0,0,0,0,0,0,0],"sum_hessian":[4.871E3,3.916E3,9.55E2,4.08E2,3.508E3,1.59E2,7.96E2,3.43E2,6.5E1,1.605E3,1.903E3,1.38E2,2.1E1,1.66E2,6.3E2,3E2,4.3E1,2.2E1,4.3E1,8.9E2,7.15E2,5.05E2,1.398E3,4.5E1,9.3E1,2.85E2,3.45E2],"tree_param":{"num_deleted":"0","num_feature":"2","num_nodes":"27","size_leaf_vector":"1"}},{"base_weights":[-6.4899947E-4,1.4591916E-2,-1.5497048E-1,-5.228095E-2,8.3106294E-2,-2.5072715E-1,-6.403624E-2,-3.028222E-3,-7.928093E-1,1.950163E-1,1.706863E-2,-6.220287E-2,-3.331047E-1,1.8979833E-1,-3.0637762E-1,-4.9032164E-3,2.6165158E-2,-1.895094E-1,-7.864104E-3,1.1319351E-1,8.979449E-3,-4.9801897E-2,9.829296E-3,1.2440828E-2,-4.410801E-2,-6.832132E-2,-1.9710883E-2,3.8746838E-2,-9.794127E-3,-3.62301E-2,-2.1009188E-2],"categories":[],"categories_nodes":[],"categories_segments":[],"categories_sizes":[],"default_left":[0,0,0,0,0,0,0,0,0,0,0,0,0,0,0,0,0,0,0,0,0,0,0,0,0,0,0,0,0,0,0],"id":49,"left_children":[1,3,5,7,9,11,13,15,17,19,21,23,25,27,29,-1,-1,-1,-1,-1,-1,-1,-1,-1,-1,-1,-1,-1,-1,-1,-1],"loss_changes":[1.1461209E1,2.0324417E1,3.7978544E0,8.187958E1,1.618876E1,3.2872076E0,1.3960455E1,2.5656147E1,1.1006131E2,8.004738E1,5.7743057E1,4.721253E0,6.9121017E0,6.3513517E0,5.484991E-1,0E0,0E0,0E0,0E0,0E0,0E0,0E0,0E0,0E0,0E0,0E0,0E0,0E0,0E0,0E0,0E0],"parents":[2147483647,0,0,1,1,2,2,3,3,4,4,5,5,6,6,7,7,8,8,9,9,10,10,11,11,12,12,13,13,14,14],"right_children":[2,4,6,8,10,12,14,16,18,20,22,24,26,28,30,-1,-1,-1,-1,-1,-1,-1,-1,-1,-1,-1,-1,-1,-1,-1,-1],"split_conditions":[2.2E1,1.3E1,5E0,1.2E1,1.7E1,2E0,2.3E1,1.1E1,5E0,2E0,2E0,2.3E1,3E0,7E0,7E0,-4.9032164E-3,2.6165158E-2,-1.895094E-1,-7.864104E-3,1.1319351E-1,8.979449E-3,-4.9801897E-2,9.829296E-3,1.2440828E-2,-4.410801E-2,-6.832132E-2,-1.9710883E-2,3.8746838E-2,-9.794127E-3,-3.62301E-2,-2.1009188E-2],"split_indices":[1,1,0,1,1,0,1,1,0,0,0,1,0,0,0,0,0,0,0,0,0,0,0,0,0,0,0,0,0,0,0],"split_type":[0,0,0,0,0,0,0,0,0,0,0,0,0,0,0,0,0,0,0,0,0,0,0,0,0,0,0,0,0,0,0],"sum_hessian":[4.871E3,4.434E3,4.37E2,2.244E3,2.19E3,2.12E2,2.25E2,2.105E3,1.39E2,8.12E2,1.378E3,6.5E1,1.47E2,1.1E2,1.15E2,1.794E3,3.11E2,5.4E1,8.5E1,8.1E1,7.31E2,1.87E2,1.191E3,4.4E1,2.1E1,4E1,1.07E2,6.5E1,4.5E1,7.1E1,4.4E1],"tree_param":{"num_deleted":"0","num_feature":"2","num_nodes":"31","size_leaf_vector":"1"}}]},"name":"gbtree"},"learner_model_param":{"base_score":"[1.3344077E1]","boost_from_average":"1","num_class":"0","num_feature":"2","num_target":"1"},"objective":{"name":"reg:squarederror","reg_loss_param":{"scale_pos_weight":"1"}}},"version":[3,2,0]}