{"learner":{"attributes":{},"feature_names":["day_of_week","hour_of_day"],"feature_types":[],"gradient_booster":{"model":{"cats":{"enc":[],"feature_segments":[],"sorted_idx":[]},"gbtree_model_param":{"num_parallel_tree":"1","num_trees":"50"},"iteration_indptr":[0,1,2,3,4,5,6,7,8,9,10,11,12,13,14,15,16,17,18,19,20,21,22,23,24,25,26,27,28,29,30,31,32,33,34,35,36,37,38,39,40,41,42,43,44,45,46,47,48,49,50],"tree_info":[0,0,0,0,0,0,0,0,0,0,0,0,0,0,0,0,0,0,0,0,0,0,0,0,0,0,0,0,0,0,0,0,0,0,0,0,0,0,0,0,0,0,0,0,0,0,0,0,0,0],"trees":[{"base_weights":[3.9626954E-7,-1.03989525E1,1.0004094E0,-1.1490475E1,-8.39404E0,3.1403E0,-4.757858E0,-1.1674844E0,-3.3516067E-1,-7.06075E0,-9.1117144E-1,-1.6534747E0,3.5412617E0,-2.3499665E0,-7.4184866E0,-8.328547E-1,-6.580314E-1,8.8886596E-2,-6.1152405E-1,4.1840473E-1,4.620525E-2,-4.753262E-1,-9.312739E-2,-9.501037E-1,-4.800644E-1],"categories":[],"categories_nodes":[],"categories_segments":[],"categories_sizes":[],"default_left":[0,0,0,0,0,0,0,0,0,0,0,0,0,0,0,0,0,0,0,0,0,0,0,0,0],"id":0,"left_children":[1,3,5,7,9,11,13,-1,-1,15,-1,17,19,21,23,-1,-1,-1,-1,-1,-1,-1,-1,-1,-1],"loss_changes":[1.7899756E5,3.2080469E3,1.9342202E5,1.4239141E3,4.4854688E2,2.2002594E4,2.722943E4,0E0,0E0,6.2140625E1,0E0,1.0032937E4,2.0901156E4,7.6124805E3,1.0967008E4,0E0,0E0,0E0,0E0,0E0,0E0,0E0,0E0,0E0,0E0],"parents":[2147483647,0,0,1,1,2,2,3,3,4,4,5,5,6,6,9,9,11,11,12,12,13,13,14,14],"right_children":[2,4,6,8,10,12,14,-1,-1,16,-1,18,20,22,24,-1,-1,-1,-1,-1,-1,-1,-1,-1,-1],"split_conditions":[4E0,6E0,2E1,3E0,1E0,5E0,2.2E1,-1.1674844E0,-3.3516067E-1,7E0,-9.1117144E-1,5E0,1.8E1,4E0,5E0,-8.328547E-1,-6.580314E-1,8.8886596E-2,-6.1152405E-1,4.1840473E-1,4.620525E-2,-4.753262E-1,-9.312739E-2,-9.501037E-1,-4.800644E-1],"split_indices":[1,0,1,1,1,1,1,0,0,0,0,0,1,0,0,0,0,0,0,0,0,0,0,0,0],"split_type":[0,0,0,0,0,0,0,0,0,0,0,0,0,0,0,0,0,0,0,0,0,0,0,0,0],"sum_hessian":[1.7204E4,1.509E3,1.5695E4,9.74E2,5.35E2,1.1443E4,4.252E3,9.52E2,2.2E1,1.91E2,3.44E2,8.83E2,1.056E4,2.233E3,2.019E3,4.8E1,1.43E2,5.63E2,3.2E2,8.736E3,1.824E3,8.28E2,1.405E3,1.123E3,8.96E2],"tree_param":{"num_deleted":"0","num_feature":"2","num_nodes":"25","size_leaf_vector":"1"}},{"base_weights":[-3.4618194E-4,-9.361643E0,9.002373E-1,-1.0342969E1,-7.559117E0,3.1270435E0,-3.6028519E0,-1.0508585E1,-3.0310187E-1,-6.36244E0,-8.2031834E-1,2.7810195E-1,3.9072292E0,-1.645661E0,-6.677346E0,-1.0676877E0,-9.776563E-1,-7.51269E-1,-5.9268516E-1,2.0421074E-1,-4.1777524E-1,4.2049143E-1,1.4236751E-1,-3.3190447E-1,-5.9691854E-2,-8.551779E-1,-4.3211147E-1],"categories":[],"categories_nodes":[],"categories_segments":[],"categories_sizes":[],"default_left":[0,0,0,0,0,0,0,0,0,0,0,0,0,0,0,0,0,0,0,0,0,0,0,0,0,0,0],"id":1,"left_children":[1,3,5,7,9,11,13,15,-1,17,-1,19,21,23,25,-1,-1,-1,-1,-1,-1,-1,-1,-1,-1,-1,-1],"loss_changes":[1.4505742E5,2.5927969E3,1.57403E5,1.1488516E3,3.6092383E2,2.3343969E4,3.1243242E4,1.3015625E1,0E0,5.1671875E1,0E0,1.7764611E4,6.0896875E3,5.5699795E3,8.88457E3,0E0,0E0,0E0,0E0,0E0,0E0,0E0,0E0,0E0,0E0,0E0,0E0],"parents":[2147483647,0,0,1,1,2,2,3,3,4,4,5,5,6,6,7,7,9,9,11,11,12,12,13,13,14,14],"right_children":[2,4,6,8,10,12,14,16,-1,18,-1,20,22,24,26,-1,-1,-1,-1,-1,-1,-1,-1,-1,-1,-1,-1],"split_conditions":[4E0,6E0,1.9E1,3E0,1E0,8E0,2.2E1,5E0,-3.0310187E-1,7E0,-8.2031834E-1,6E0,1.8E1,4E0,5E0,-1.0676877E0,-9.776563E-1,-7.51269E-1,-5.9268516E-1,2.0421074E-1,-4.1777524E-1,4.2049143E-1,1.4236751E-1,-3.3190447E-1,-5.9691854E-2,-8.551779E-1,-4.3211147E-1],"split_indices":[1,0,1,1,1,1,1,0,0,0,0,0,1,0,0,0,0,0,0,0,0,0,0,0,0,0,0],"split_type":[0,0,0,0,0,0,0,0,0,0,0,0,0,0,0,0,0,0,0,0,0,0,0,0,0,0,0],"sum_hessian":[1.7204E4,1.509E3,1.5695E4,9.74E2,5.35E2,1.0502E4,5.193E3,9.52E2,2.2E1,1.91E2,3.44E2,2.258E3,8.244E3,3.174E3,2.019E3,7.63E2,1.89E2,4.8E1,1.43E2,1.618E3,6.4E2,7.361E3,8.83E2,1.222E3,1.952E3,1.123E3,8.96E2],"tree_param":{"num_deleted":"0","num_feature":"2","num_nodes":"27","size_leaf_vector":"1"}},{"base_weights":[-6.511356E-4,-8.428468E0,8.1012887E-1,-9.31108E0,-6.8072433E0,2.5535839E0,-3.8813615E0,-9.459872E0,-2.7410954E-1,-5.733196E0,-7.385243E-1,-3.896518E-1,3.0292253E0,-1.9546679E0,-6.0102487E0,-9.6105874E-1,-8.8040525E-1,-6.7767525E-1,-5.338283E-1,1.3846046E-1,-5.4293114E-1,3.6182424E-1,4.365358E-2,-3.947005E-1,-7.785641E-2,-8.396625E-1,-4.4450077E-1],"categories":[],"categories_nodes":[],"categories_segments":[],"categories_sizes":[],"default_left":[0,0,0,0,0,0,0,0,0,0,0,0,0,0,0,0,0,0,0,0,0,0,0,0,0,0,0],"id":2,"left_children":[1,3,5,7,9,11,13,15,-1,17,-1,19,21,23,25,-1,-1,-1,-1,-1,-1,-1,-1,-1,-1,-1,-1],"loss_changes":[1.1757039E5,2.0973047E3,1.2839381E5,9.271875E2,2.9040625E2,1.6021922E4,1.7432836E4,9.5859375E0,0E0,4.2949707E1,0E0,1.4251562E4,1.5043789E4,5.231626E3,7.507883E3,0E0,0E0,0E0,0E0,0E0,0E0,0E0,0E0,0E0,0E0,0E0,0E0],"parents":[2147483647,0,0,1,1,2,2,3,3,4,4,5,5,6,6,7,7,9,9,11,11,12,12,13,13,14,14],"right_children":[2,4,6,8,10,12,14,16,-1,18,-1,20,22,24,26,-1,-1,-1,-1,-1,-1,-1,-1,-1,-1,-1,-1],"split_conditions":[4E0,6E0,2E1,3E0,1E0,7E0,2.2E1,5E0,-2.7410954E-1,7E0,-7.385243E-1,6E0,1.8E1,4E0,4E0,-9.6105874E-1,-8.8040525E-1,-6.7767525E-1,-5.338283E-1,1.3846046E-1,-5.4293114E-1,3.6182424E-1,4.365358E-2,-3.947005E-1,-7.785641E-2,-8.396625E-1,-4.4450077E-1],"split_indices":[1,0,1,1,1,1,1,0,0,0,0,0,1,0,0,0,0,0,0,0,0,0,0,0,0,0,0],"split_type":[0,0,0,0,0,0,0,0,0,0,0,0,0,0,0,0,0,0,0,0,0,0,0,0,0,0,0],"sum_hessian":[1.7204E4,1.509E3,1.5695E4,9.74E2,5.35E2,1.1443E4,4.252E3,9.52E2,2.2E1,1.91E2,3.44E2,1.592E3,9.851E3,2.233E3,2.019E3,7.63E2,1.89E2,4.8E1,1.43E2,1.178E3,4.14E2,8.027E3,1.824E3,8.28E2,1.405E3,7.98E2,1.221E3],"tree_param":{"num_deleted":"0","num_feature":"2","num_nodes":"27","size_leaf_vector":"1"}},{"base_weights":[-9.2423847E-4,-7.588313E0,7.2900426E-1,-8.382142E0,-6.130157E0,2.540047E0,-2.9333198E0,-8.515818E0,-2.4789034E-1,-5.166186E0,-6.648859E0,1.7082289E-1,3.188869E0,-1.3567708E0,-5.409859E0,-8.0403054E-1,-8.700725E-1,-6.1129075E-1,-4.8081613E-1,-6.7702794E-1,-5.6643647E-1,1.6389443E-1,-3.5375378E-1,3.554364E-1,1.6228262E-1,-2.7342537E-1,-4.9347404E-2,-6.972706E-1,-3.4454796E-1],"categories":[],"categories_nodes":[],"categories_segments":[],"categories_sizes":[],"default_left":[0,0,0,0,0,0,0,0,0,0,0,0,0,0,0,0,0,0,0,0,0,0,0,0,0,0,0,0,0],"id":3,"left_children":[1,3,5,7,9,11,13,15,-1,17,19,21,23,25,27,-1,-1,-1,-1,-1,-1,-1,-1,-1,-1,-1,-1,-1,-1],"loss_changes":[9.529115E4,1.6964766E3,1.0411314E5,7.4828125E2,2.3365625E2,1.6144719E4,2.0272043E4,1.38359375E1,0E0,3.5686523E1,2.8916016E0,1.2304524E4,4.7135156E3,3.7742861E3,6.177426E3,0E0,0E0,0E0,0E0,0E0,0E0,0E0,0E0,0E0,0E0,0E0,0E0,0E0,0E0],"parents":[2147483647,0,0,1,1,2,2,3,3,4,4,5,5,6,6,7,7,9,9,10,10,11,11,12,12,13,13,14,14],"right_children":[2,4,6,8,10,12,14,16,-1,18,20,22,24,26,28,-1,-1,-1,-1,-1,-1,-1,-1,-1,-1,-1,-1,-1,-1],"split_conditions":[4E0,6E0,1.9E1,3E0,1E0,8E0,2.2E1,1E0,-2.4789034E-1,7E0,3E0,6E0,7E0,4E0,5E0,-8.0403054E-1,-8.700725E-1,-6.1129075E-1,-4.8081613E-1,-6.7702794E-1,-5.6643647E-1,1.6389443E-1,-3.5375378E-1,3.554364E-1,1.6228262E-1,-2.7342537E-1,-4.9347404E-2,-6.972706E-1,-3.4454796E-1],"split_indices":[1,0,1,1,1,1,1,1,0,0,1,0,0,0,0,0,0,0,0,0,0,0,0,0,0,0,0,0,0],"split_type":[0,0,0,0,0,0,0,0,0,0,0,0,0,0,0,0,0,0,0,0,0,0,0,0,0,0,0,0,0],"sum_hessian":[1.7204E4,1.509E3,1.5695E4,9.74E2,5.35E2,1.0502E4,5.193E3,9.52E2,2.2E1,1.91E2,3.44E2,2.258E3,8.244E3,3.174E3,2.019E3,2.79E2,6.73E2,4.8E1,1.43E2,3.01E2,4.3E1,1.618E3,6.4E2,6.683E3,1.561E3,1.222E3,1.952E3,1.123E3,8.96E2],"tree_param":{"num_deleted":"0","num_feature":"2","num_nodes":"29","size_leaf_vector":"1"}},{"base_weights":[-1.1393678E-3,-6.8323016E0,6.56038E-1,-7.5458994E0,-5.5214987E0,1.8507577E0,-3.9215324E0,-7.6659923E0,-2.2417906E-1,-4.655256E0,-5.9875774E0,2.4119918E0,-5.8370817E-2,-5.8678966E0,-2.6823883E0,-7.801907E-1,-7.0791245E-1,-5.514092E-1,-4.3306848E-1,-5.6198466E-1,-6.286041E-1,9.453819E-2,3.5287628E-1,-9.200843E-2,4.8389237E-2,-4.147792E-1,-6.8616146E-1,-1.7520027E-1,-5.591762E-1],"categories":[],"categories_nodes":[],"categories_segments":[],"categories_sizes":[],"default_left":[0,0,0,0,0,0,0,0,0,0,0,0,0,0,0,0,0,0,0,0,0,0,0,0,0,0,0,0,0],"id":4,"left_children":[1,3,5,7,9,11,13,15,-1,17,19,21,23,25,27,-1,-1,-1,-1,-1,-1,-1,-1,-1,-1,-1,-1,-1,-1],"loss_changes":[7.724263E4,1.3707656E3,8.584733E4,6.03875E2,1.8853125E2,1.3337781E4,7.8202773E3,2.0785156E1,0E0,2.9640625E1,2.538086E0,1.5752941E4,1.3223676E3,2.1303828E3,5.3686924E3,0E0,0E0,0E0,0E0,0E0,0E0,0E0,0E0,0E0,0E0,0E0,0E0,0E0,0E0],"parents":[2147483647,0,0,1,1,2,2,3,3,4,4,5,5,6,6,7,7,9,9,10,10,11,11,12,12,13,13,14,14],"right_children":[2,4,6,8,10,12,14,16,-1,18,20,22,24,26,28,-1,-1,-1,-1,-1,-1,-1,-1,-1,-1,-1,-1,-1,-1],"split_conditions":[4E0,6E0,2.1E1,3E0,1E0,1.8E1,4E0,5E0,-2.2417906E-1,7E0,7E0,1.1E1,4E0,2.2E1,7E0,-7.801907E-1,-7.0791245E-1,-5.514092E-1,-4.3306848E-1,-5.6198466E-1,-6.286041E-1,9.453819E-2,3.5287628E-1,-9.200843E-2,4.8389237E-2,-4.147792E-1,-6.8616146E-1,-1.7520027E-1,-5.591762E-1],"split_indices":[1,0,1,1,1,1,0,0,0,0,0,1,0,1,0,0,0,0,0,0,0,0,0,0,0,0,0,0,0],"split_type":[0,0,0,0,0,0,0,0,0,0,0,0,0,0,0,0,0,0,0,0,0,0,0,0,0,0,0,0,0],"sum_hessian":[1.7204E4,1.509E3,1.5695E4,9.74E2,5.35E2,1.2447E4,3.248E3,9.52E2,2.2E1,1.91E2,3.44E2,9.619E3,2.828E3,1.262E3,1.986E3,7.63E2,1.89E2,4.8E1,1.43E2,1.63E2,1.81E2,4.159E3,5.46E3,1.092E3,1.736E3,4.64E2,7.98E2,1.506E3,4.8E2],"tree_param":{"num_deleted":"0","num_feature":"2","num_nodes":"29","size_leaf_vector":"1"}},{"base_weights":[-1.3347297E-3,-6.1516457E0,5.903428E-1,-6.7930655E0,-4.973407E0,1.8754101E0,-2.8676634E0,-6.9009547E0,-2.0273583E-1,-4.1948576E0,-5.3922706E0,-1.619465E0,2.1677682E0,-1.4486531E0,-4.4355845E0,-6.473875E-1,-7.0681375E-1,-4.973936E-1,-3.900624E-1,-5.5000746E-1,-4.529794E-1,2.001E-2,-4.811413E-1,2.5540894E-1,3.1710807E-2,-3.0071297E-1,-5.2872013E-2,-5.738247E-1,-2.7983183E-1],"categories":[],"categories_nodes":[],"categories_segments":[],"categories_sizes":[],"default_left":[0,0,0,0,0,0,0,0,0,0,0,0,0,0,0,0,0,0,0,0,0,0,0,0,0,0,0,0,0],"id":5,"left_children":[1,3,5,7,9,11,13,15,-1,17,19,21,23,25,27,-1,-1,-1,-1,-1,-1,-1,-1,-1,-1,-1,-1,-1,-1],"loss_changes":[6.2612645E4,1.1073906E3,6.97548E4,4.8732422E2,1.5217285E2,1.1696477E4,9.456055E3,2.2285156E1,0E0,2.461084E1,7.163086E0,5.135196E3,7.5497656E3,3.2012827E3,4.292211E3,0E0,0E0,0E0,0E0,0E0,0E0,0E0,0E0,0E0,0E0,0E0,0E0,0E0,0E0],"parents":[2147483647,0,0,1,1,2,2,3,3,4,4,5,5,6,6,7,7,9,9,10,10,11,11,12,12,13,13,14,14],"right_children":[2,4,6,8,10,12,14,16,-1,18,20,22,24,26,28,-1,-1,-1,-1,-1,-1,-1,-1,-1,-1,-1,-1,-1,-1],"split_conditions":[4E0,6E0,2E1,3E0,1E0,5E0,2.2E1,1E0,-2.0273583E-1,7E0,3E0,5E0,1.8E1,4E0,5E0,-6.473875E-1,-7.0681375E-1,-4.973936E-1,-3.900624E-1,-5.5000746E-1,-4.529794E-1,2.001E-2,-4.811413E-1,2.5540894E-1,3.1710807E-2,-3.0071297E-1,-5.2872013E-2,-5.738247E-1,-2.7983183E-1],"split_indices":[1,0,1,1,1,1,1,1,0,0,1,0,1,0,0,0,0,0,0,0,0,0,0,0,0,0,0,0,0],"split_type":[0,0,0,0,0,0,0,0,0,0,0,0,0,0,0,0,0,0,0,0,0,0,0,0,0,0,0,0,0],"sum_hessian":[1.7204E4,1.509E3,1.5695E4,9.74E2,5.35E2,1.1443E4,4.252E3,9.52E2,2.2E1,1.91E2,3.44E2,8.83E2,1.056E4,2.233E3,2.019E3,2.79E2,6.73E2,4.8E1,1.43E2,3.01E2,4.3E1,5.63E2,3.2E2,8.736E3,1.824E3,8.28E2,1.405E3,1.123E3,8.96E2],"tree_param":{"num_deleted":"0","num_feature":"2","num_nodes":"29","size_leaf_vector":"1"}},{"base_weights":[-1.4820657E-3,-5.538764E0,5.312204E-1,-6.115356E0,-4.479593E0,1.5047969E0,-3.1990385E0,-6.2122803E0,-1.833437E-1,-3.7799942E0,-4.8559504E0,1.8640722E0,-4.3506667E-1,-4.384465E0,-1.7983915E0,-6.334895E-1,-5.686544E-1,-4.4866934E-1,-3.5132703E-1,-4.52765E-1,-5.125101E-1,-1.4580402E-1,2.1691537E-1,-1.2047901E-1,5.706728E-3,-2.998255E-1,-5.1649326E-1,-3.4956306E-2,-4.8399028E-1],"categories":[],"categories_nodes":[],"categories_segments":[],"categories_sizes":[],"default_left":[0,0,0,0,0,0,0,0,0,0,0,0,0,0,0,0,0,0,0,0,0,0,0,0,0,0,0,0,0],"id":6,"left_children":[1,3,5,7,9,11,13,15,-1,17,19,21,23,25,27,-1,-1,-1,-1,-1,-1,-1,-1,-1,-1,-1,-1,-1,-1],"loss_changes":[5.0752938E4,8.9477734E2,5.700785E4,3.932578E2,1.2277246E2,8.676385E3,5.3866406E3,2.5410156E1,0E0,2.0427979E1,7.2802734E0,1.0648105E4,7.372272E2,1.8875625E3,6.5685903E3,0E0,0E0,0E0,0E0,0E0,0E0,0E0,0E0,0E0,0E0,0E0,0E0,0E0,0E0],"parents":[2147483647,0,0,1,1,2,2,3,3,4,4,5,5,6,6,7,7,9,9,10,10,11,11,12,12,13,13,14,14],"right_children":[2,4,6,8,10,12,14,16,-1,18,20,22,24,26,28,-1,-1,-1,-1,-1,-1,-1,-1,-1,-1,-1,-1,-1,-1],"split_conditions":[4E0,6E0,2.1E1,3E0,1E0,1.9E1,5E0,5E0,-1.833437E-1,7E0,7E0,5E0,4E0,2.2E1,7E0,-6.334895E-1,-5.686544E-1,-4.4866934E-1,-3.5132703E-1,-4.52765E-1,-5.125101E-1,-1.4580402E-1,2.1691537E-1,-1.2047901E-1,5.706728E-3,-2.998255E-1,-5.1649326E-1,-3.4956306E-2,-4.8399028E-1],"split_indices":[1,0,1,1,1,1,0,0,0,0,0,1,0,1,0,0,0,0,0,0,0,0,0,0,0,0,0,0,0],"split_type":[0,0,0,0,0,0,0,0,0,0,0,0,0,0,0,0,0,0,0,0,0,0,0,0,0,0,0,0,0],"sum_hessian":[1.7204E4,1.509E3,1.5695E4,9.74E2,5.35E2,1.2447E4,3.248E3,9.52E2,2.2E1,1.91E2,3.44E2,1.0502E4,1.945E3,1.758E3,1.49E3,7.63E2,1.89E2,4.8E1,1.43E2,1.63E2,1.81E2,8.83E2,9.619E3,7.58E2,1.187E3,6.35E2,1.123E3,1.01E3,4.8E2],"tree_param":{"num_deleted":"0","num_feature":"2","num_nodes":"29","size_leaf_vector":"1"}},{"base_weights":[-1.5972321E-3,-4.9869742E0,4.7801036E-1,-5.5052414E0,-4.034927E0,1.3543135E0,-2.8795457E0,-5.5923133E0,-1.6580646E-1,-3.4061613E0,-4.373153E0,1.7280147E0,-3.4576452E-1,-4.372459E0,-1.9291537E0,-5.208456E-1,-5.743483E-1,-4.0471807E-1,-3.164383E-1,-4.4689688E-1,-3.61612E-1,2.2307038E-1,3.9340793E-3,-4.484213E-1,5.003163E-2,-3.1346574E-1,-5.0873595E-1,-1.0604026E-1,-4.3092686E-1],"categories":[],"categories_nodes":[],"categories_segments":[],"categories_sizes":[],"default_left":[0,0,0,0,0,0,0,0,0,0,0,0,0,0,0,0,0,0,0,0,0,0,0,0,0,0,0,0,0],"id":7,"left_children":[1,3,5,7,9,11,13,15,-1,17,19,21,23,25,27,-1,-1,-1,-1,-1,-1,-1,-1,-1,-1,-1,-1,-1,-1],"loss_changes":[4.1139965E4,7.2284375E2,4.6185254E4,3.1733398E2,9.90918E1,7.9090723E3,4.60142E3,2.5384766E1,0E0,1.695044E1,8.864746E0,8.662715E3,7.859523E3,1.1016875E3,4.1040054E3,0E0,0E0,0E0,0E0,0E0,0E0,0E0,0E0,0E0,0E0,0E0,0E0,0E0,0E0],"parents":[2147483647,0,0,1,1,2,2,3,3,4,4,5,5,6,6,7,7,9,9,10,10,11,11,12,12,13,13,14,14],"right_children":[2,4,6,8,10,12,14,16,-1,18,20,22,24,26,28,-1,-1,-1,-1,-1,-1,-1,-1,-1,-1,-1,-1,-1,-1],"split_conditions":[4E0,6E0,2.1E1,3E0,1E0,7E0,4E0,1E0,-1.6580646E-1,7E0,3E0,1.8E1,9E0,2.2E1,2.3E1,-5.208456E-1,-5.743483E-1,-4.0471807E-1,-3.164383E-1,-4.4689688E-1,-3.61612E-1,2.2307038E-1,3.9340793E-3,-4.484213E-1,5.003163E-2,-3.1346574E-1,-5.0873595E-1,-1.0604026E-1,-4.3092686E-1],"split_indices":[1,0,1,1,1,0,0,1,0,0,1,1,1,1,1,0,0,0,0,0,0,0,0,0,0,0,0,0,0],"split_type":[0,0,0,0,0,0,0,0,0,0,0,0,0,0,0,0,0,0,0,0,0,0,0,0,0,0,0,0,0],"sum_hessian":[1.7204E4,1.509E3,1.5695E4,9.74E2,5.35E2,1.2447E4,3.248E3,9.52E2,2.2E1,1.91E2,3.44E2,1.0204E4,2.243E3,1.262E3,1.986E3,2.79E2,6.73E2,4.8E1,1.43E2,3.01E2,4.3E1,7.863E3,2.341E3,3.8E2,1.863E3,4.64E2,7.98E2,1.456E3,5.3E2],"tree_param":{"num_deleted":"0","num_feature":"2","num_nodes":"29","size_leaf_vector":"1"}},{"base_weights":[-1.6886067E-3,-4.4901247E0,4.3011189E-1,-4.9560103E0,-3.634288E0,1.5194001E0,-1.7726653E0,-5.034231E0,-1.4994667E-1,-3.069301E0,-3.9381816E0,-6.543895E-1,1.9078332E0,-8.175486E-1,-3.2730231E0,-5.1448846E-1,-4.562792E-1,-3.6507216E-1,-2.8501418E-1,-3.6449143E-1,-4.1808063E-1,6.646381E-2,-4.4001228E-1,2.2524224E-1,4.4377808E-2,-2.0248555E-1,-3.4862116E-2,-5.074728E-1,-2.5903937E-1],"categories":[],"categories_nodes":[],"categories_segments":[],"categories_sizes":[],"default_left":[0,0,0,0,0,0,0,0,0,0,0,0,0,0,0,0,0,0,0,0,0,0,0,0,0,0,0,0,0],"id":8,"left_children":[1,3,5,7,9,11,13,15,-1,17,19,21,23,25,27,-1,-1,-1,-1,-1,-1,-1,-1,-1,-1,-1,-1,-1,-1],"loss_changes":[3.3347094E4,5.8406055E2,3.7664605E4,2.5606445E2,7.994141E1,8.869686E3,7.440414E3,2.6240234E1,0E0,1.4060181E1,9.309082E0,7.8735005E3,4.494578E3,1.7967861E3,2.471246E3,0E0,0E0,0E0,0E0,0E0,0E0,0E0,0E0,0E0,0E0,0E0,0E0,0E0,0E0],"parents":[2147483647,0,0,1,1,2,2,3,3,4,4,5,5,6,6,7,7,9,9,10,10,11,11,12,12,13,13,14,14],"right_children":[2,4,6,8,10,12,14,16,-1,18,20,22,24,26,28,-1,-1,-1,-1,-1,-1,-1,-1,-1,-1,-1,-1,-1,-1],"split_conditions":[4E0,6E0,1.9E1,3E0,1E0,7E0,2.2E1,5E0,-1.4994667E-1,7E0,7E0,6E0,7E0,3E0,3E0,-5.1448846E-1,-4.562792E-1,-3.6507216E-1,-2.8501418E-1,-3.6449143E-1,-4.1808063E-1,6.646381E-2,-4.4001228E-1,2.2524224E-1,4.4377808E-2,-2.0248555E-1,-3.4862116E-2,-5.074728E-1,-2.5903937E-1],"split_indices":[1,0,1,1,1,1,1,0,0,0,0,0,0,0,0,0,0,0,0,0,0,0,0,0,0,0,0,0,0],"split_type":[0,0,0,0,0,0,0,0,0,0,0,0,0,0,0,0,0,0,0,0,0,0,0,0,0,0,0,0,0],"sum_hessian":[1.7204E4,1.509E3,1.5695E4,9.74E2,5.35E2,1.0502E4,5.193E3,9.52E2,2.2E1,1.91E2,3.44E2,1.592E3,8.91E3,3.174E3,2.019E3,7.63E2,1.89E2,4.8E1,1.43E2,1.63E2,1.81E2,1.178E3,4.14E2,7.212E3,1.698E3,8.87E2,2.287E3,5.53E2,1.466E3],"tree_param":{"num_deleted":"0","num_feature":"2","num_nodes":"29","size_leaf_vector":"1"}},{"base_weights":[-1.7326849E-3,-4.0428033E0,3.8702998E-1,-4.461559E0,-3.2735322E0,1.1033524E0,-2.357559E0,-4.531827E0,-1.3560401E-1,-2.7657566E0,-3.5466318E0,-1.3524789E0,1.2909747E0,-3.2890224E0,-1.2570882E0,-4.1865903E-1,-4.6685252E-1,-3.2931E-1,-2.567107E-1,-3.631876E-1,-2.8809422E-1,3.665122E-3,-3.78898E-1,1.7339647E-1,-7.7598803E-3,-2.85459E-1,-4.7159892E-1,4.172888E-3,-3.9844206E-1],"categories":[],"categories_nodes":[],"categories_segments":[],"categories_sizes":[],"default_left":[0,0,0,0,0,0,0,0,0,0,0,0,0,0,0,0,0,0,0,0,0,0,0,0,0,0,0,0,0],"id":9,"left_children":[1,3,5,7,9,11,13,15,-1,17,19,21,23,25,27,-1,-1,-1,-1,-1,-1,-1,-1,-1,-1,-1,-1,-1,-1],"loss_changes":[2.7030922E4,4.718203E2,3.0861107E4,2.0661719E2,6.451953E1,5.7373926E3,3.326246E3,2.5429688E1,0E0,1.1659546E1,9.114258E0,2.9921406E3,7.011584E3,1.0769785E3,5.281744E3,0E0,0E0,0E0,0E0,0E0,0E0,0E0,0E0,0E0,0E0,0E0,0E0,0E0,0E0],"parents":[2147483647,0,0,1,1,2,2,3,3,4,4,5,5,6,6,7,7,9,9,10,10,11,11,12,12,13,13,14,14],"right_children":[2,4,6,8,10,12,14,16,-1,18,20,22,24,26,28,-1,-1,-1,-1,-1,-1,-1,-1,-1,-1,-1,-1,-1,-1],"split_conditions":[4E0,6E0,2.1E1,3E0,1E0,5E0,5E0,1E0,-1.3560401E-1,7E0,3E0,5E0,1.8E1,2.3E1,7E0,-4.1865903E-1,-4.6685252E-1,-3.2931E-1,-2.567107E-1,-3.631876E-1,-2.8809422E-1,3.665122E-3,-3.78898E-1,1.7339647E-1,-7.7598803E-3,-2.85459E-1,-4.7159892E-1,4.172888E-3,-3.9844206E-1],"split_indices":[1,0,1,1,1,1,0,1,0,0,1,0,1,1,0,0,0,0,0,0,0,0,0,0,0,0,0,0,0],"split_type":[0,0,0,0,0,0,0,0,0,0,0,0,0,0,0,0,0,0,0,0,0,0,0,0,0,0,0,0,0],"sum_hessian":[1.7204E4,1.509E3,1.5695E4,9.74E2,5.35E2,1.2447E4,3.248E3,9.52E2,2.2E1,1.91E2,3.44E2,8.83E2,1.1564E4,1.758E3,1.49E3,2.79E2,6.73E2,4.8E1,1.43E2,3.01E2,4.3E1,5.63E2,3.2E2,8.736E3,2.828E3,1.35E3,4.08E2,1.01E3,4.8E2],"tree_param":{"num_deleted":"0","num_feature":"2","num_nodes":"29","size_leaf_vector":"1"}},{"base_weights":[-1.7699851E-3,-3.6400187E0,3.4824002E-1,-4.0164504E0,-2.948487E0,1.1210542E0,-1.7313353E0,-4.079573E0,-1.2263318E-1,-2.4922328E0,-3.1938562E0,-2.9409918E-1,1.4689435E0,-1.2675999E0,-3.7160459E0,-4.179463E-1,-3.65644E-1,-2.97051E-1,-2.3121786E-1,-2.9317456E-1,-3.4124953E-1,7.637098E-2,-2.9653916E-1,1.7960905E-1,1.48436865E-2,-2.587876E-1,-4.1514337E-2,-3.2510027E-1,-5.9401965E-1],"categories":[],"categories_nodes":[],"categories_segments":[],"categories_sizes":[],"default_left":[0,0,0,0,0,0,0,0,0,0,0,0,0,0,0,0,0,0,0,0,0,0,0,0,0,0,0,0,0],"id":10,"left_children":[1,3,5,7,9,11,13,15,-1,17,19,21,23,25,27,-1,-1,-1,-1,-1,-1,-1,-1,-1,-1,-1,-1,-1,-1],"loss_changes":[2.1910518E4,3.8123047E2,2.522738E4,1.6671582E2,5.20459E1,5.634504E3,3.909668E3,2.4998047E1,0E0,9.6657715E0,9.766602E0,6.3855596E3,3.968082E3,3.8806997E3,8.133213E2,0E0,0E0,0E0,0E0,0E0,0E0,0E0,0E0,0E0,0E0,0E0,0E0,0E0,0E0],"parents":[2147483647,0,0,1,1,2,2,3,3,4,4,5,5,6,6,7,7,9,9,10,10,11,11,12,12,13,13,14,14],"right_children":[2,4,6,8,10,12,14,16,-1,18,20,22,24,26,28,-1,-1,-1,-1,-1,-1,-1,-1,-1,-1,-1,-1,-1,-1],"split_conditions":[4E0,6E0,2E1,3E0,1E0,8E0,2.3E1,5E0,-1.2263318E-1,7E0,7E0,6E0,1.8E1,4E0,7E0,-4.179463E-1,-3.65644E-1,-2.97051E-1,-2.3121786E-1,-2.9317456E-1,-3.4124953E-1,7.637098E-2,-2.9653916E-1,1.7960905E-1,1.48436865E-2,-2.587876E-1,-4.1514337E-2,-3.2510027E-1,-5.9401965E-1],"split_indices":[1,0,1,1,1,1,1,0,0,0,0,0,1,0,0,0,0,0,0,0,0,0,0,0,0,0,0,0,0],"split_type":[0,0,0,0,0,0,0,0,0,0,0,0,0,0,0,0,0,0,0,0,0,0,0,0,0,0,0,0,0],"sum_hessian":[1.7204E4,1.509E3,1.5695E4,9.74E2,5.35E2,1.1443E4,4.252E3,9.52E2,2.2E1,1.91E2,3.44E2,2.258E3,9.185E3,3.448E3,8.04E2,7.63E2,1.89E2,4.8E1,1.43E2,1.63E2,1.81E2,1.618E3,6.4E2,7.361E3,1.824E3,1.352E3,2.096E3,6.67E2,1.37E2],"tree_param":{"num_deleted":"0","num_feature":"2","num_nodes":"29","size_leaf_vector":"1"}},{"base_weights":[-1.7857597E-3,-3.277387E0,3.1333652E-1,-3.6157346E0,-2.6558075E0,8.9963615E-1,-1.9330689E0,-3.6724381E0,-1.10903084E-1,-2.2457607E0,-2.8763094E0,1.1997921E0,-4.6577895E-1,-3.3402236E0,-1.3908474E0,-3.3617517E-1,-3.796058E-1,-2.6795214E-1,-2.082566E-1,-2.952217E-1,-2.2899388E-1,1.5350662E-1,7.349208E-3,-3.0701485E-1,3.6740318E-2,-2.399839E-1,-3.9282998E-1,-8.755677E-2,-3.3880123E-1],"categories":[],"categories_nodes":[],"categories_segments":[],"categories_sizes":[],"default_left":[0,0,0,0,0,0,0,0,0,0,0,0,0,0,0,0,0,0,0,0,0,0,0,0,0,0,0,0,0],"id":11,"left_children":[1,3,5,7,9,11,13,15,-1,17,19,21,23,25,27,-1,-1,-1,-1,-1,-1,-1,-1,-1,-1,-1,-1,-1,-1],"loss_changes":[1.7760283E4,3.0796484E2,2.0674416E4,1.345127E2,4.2003662E1,5.102216E3,2.4743057E3,2.384082E1,0E0,8.010925E0,8.595459E0,3.8534893E3,4.8704155E3,4.8994922E2,2.4123276E3,0E0,0E0,0E0,0E0,0E0,0E0,0E0,0E0,0E0,0E0,0E0,0E0,0E0,0E0],"parents":[2147483647,0,0,1,1,2,2,3,3,4,4,5,5,6,6,7,7,9,9,10,10,11,11,12,12,13,13,14,14],"right_children":[2,4,6,8,10,12,14,16,-1,18,20,22,24,26,28,-1,-1,-1,-1,-1,-1,-1,-1,-1,-1,-1,-1,-1,-1],"split_conditions":[4E0,6E0,2.1E1,3E0,1E0,7E0,3E0,1E0,-1.10903084E-1,7E0,3E0,1.8E1,1E1,2.2E1,7E0,-3.3617517E-1,-3.796058E-1,-2.6795214E-1,-2.082566E-1,-2.952217E-1,-2.2899388E-1,1.5350662E-1,7.349208E-3,-3.0701485E-1,3.6740318E-2,-2.399839E-1,-3.9282998E-1,-8.755677E-2,-3.3880123E-1],"split_indices":[1,0,1,1,1,0,0,1,0,0,1,1,1,1,0,0,0,0,0,0,0,0,0,0,0,0,0,0,0],"split_type":[0,0,0,0,0,0,0,0,0,0,0,0,0,0,0,0,0,0,0,0,0,0,0,0,0,0,0,0,0],"sum_hessian":[1.7204E4,1.509E3,1.5695E4,9.74E2,5.35E2,1.2447E4,3.248E3,9.52E2,2.2E1,1.91E2,3.44E2,1.0204E4,2.243E3,9.02E2,2.346E3,2.79E2,6.73E2,4.8E1,1.43E2,3.01E2,4.3E1,7.863E3,2.341E3,5.43E2,1.7E3,3.49E2,5.53E2,1.866E3,4.8E2],"tree_param":{"num_deleted":"0","num_feature":"2","num_nodes":"29","size_leaf_vector":"1"}},{"base_weights":[-1.781564E-3,-2.331099E0,3.745135E-1,-3.0047178E0,-1.3029535E0,1.2195051E0,-1.190599E0,-3.3059456E0,-2.4163313E0,-2.2846588E-1,-3.0291808E0,3.9211607E-1,1.6467016E0,-5.1314497E-1,-2.2548196E0,-3.3961433E-1,-2.925856E-1,-2.0236647E-1,-2.6579726E-1,1.2490675E-2,-1.3446058E-1,-2.3700657E-1,-3.7046042E-1,7.129533E-2,-1.268396E-1,1.9023345E-1,5.60485E-2,-2.0132123E-1,-2.805843E-2,-3.0011353E-1,-1.317123E-1],"categories":[],"categories_nodes":[],"categories_segments":[],"categories_sizes":[],"default_left":[0,0,0,0,0,0,0,0,0,0,0,0,0,0,0,0,0,0,0,0,0,0,0,0,0,0,0,0,0,0,0],"id":12,"left_children":[1,3,5,7,9,11,13,15,17,19,21,23,25,27,29,-1,-1,-1,-1,-1,-1,-1,-1,-1,-1,-1,-1,-1,-1,-1,-1],"loss_changes":[1.5081239E4,1.6534248E3,1.9591746E4,2.4812207E2,1.7595223E3,3.3996182E3,3.7435112E3,2.2734375E1,4.139917E1,2.3129413E2,1.5326636E2,1.7467393E3,1.7604902E3,1.1070549E3,1.4096797E3,0E0,0E0,0E0,0E0,0E0,0E0,0E0,0E0,0E0,0E0,0E0,0E0,0E0,0E0,0E0,0E0],"parents":[2147483647,0,0,1,1,2,2,3,3,4,4,5,5,6,6,7,7,8,8,9,9,10,10,11,11,12,12,13,13,14,14],"right_children":[2,4,6,8,10,12,14,16,18,20,22,24,26,28,30,-1,-1,-1,-1,-1,-1,-1,-1,-1,-1,-1,-1,-1,-1,-1,-1],"split_conditions":[5E0,3E0,1.9E1,6E0,5E0,1.1E1,2.2E1,5E0,1E0,4E0,7E0,7E0,7E0,2E0,5E0,-3.3961433E-1,-2.925856E-1,-2.0236647E-1,-2.6579726E-1,1.2490675E-2,-1.3446058E-1,-2.3700657E-1,-3.7046042E-1,7.129533E-2,-1.268396E-1,1.9023345E-1,5.60485E-2,-2.0132123E-1,-2.805843E-2,-3.0011353E-1,-1.317123E-1],"split_indices":[1,1,1,0,0,1,1,0,1,0,0,0,0,0,0,0,0,0,0,0,0,0,0,0,0,0,0,0,0,0,0],"split_type":[0,0,0,0,0,0,0,0,0,0,0,0,0,0,0,0,0,0,0,0,0,0,0,0,0,0,0,0,0,0,0],"sum_hessian":[1.7204E4,2.392E3,1.4812E4,1.444E3,9.48E2,9.619E3,5.193E3,9.52E2,4.92E2,5.85E2,3.63E2,3.276E3,6.343E3,3.174E3,2.019E3,7.63E2,1.89E2,1.91E2,3.01E2,4.45E2,1.4E2,1.86E2,1.77E2,2.746E3,5.3E2,5.134E3,1.209E3,4.25E2,2.749E3,1.123E3,8.96E2],"tree_param":{"num_deleted":"0","num_feature":"2","num_nodes":"31","size_leaf_vector":"1"}},{"base_weights":[-1.7370961E-3,-2.0987537E0,3.3703038E-1,-2.7050076E0,-1.1734266E0,1.0975745E0,-1.0716665E0,-2.9760141E0,-2.1756477E0,-2.0582709E-1,-2.7279317E0,3.528877E-1,1.4820703E0,-7.328428E-1,-2.918082E0,-2.6962703E-1,-3.087813E-1,-1.8223521E-1,-2.3930554E-1,1.1244457E-2,-1.21109895E-1,-2.134327E-1,-3.336225E-1,6.4168416E-2,-1.14179544E-1,1.8714659E-1,8.615815E-2,-1.6093612E-1,-1.5341371E-2,-2.5077096E-1,-4.8833776E-1],"categories":[],"categories_nodes":[],"categories_segments":[],"categories_sizes":[],"default_left":[0,0,0,0,0,0,0,0,0,0,0,0,0,0,0,0,0,0,0,0,0,0,0,0,0,0,0,0,0,0,0],"id":13,"left_children":[1,3,5,7,9,11,13,15,17,19,21,23,25,27,29,-1,-1,-1,-1,-1,-1,-1,-1,-1,-1,-1,-1,-1,-1,-1,-1],"loss_changes":[1.2223157E4,1.3392588E3,1.5871472E4,2.0082422E2,1.4268657E3,2.753961E3,3.2472764E3,2.1479492E1,3.3506104E1,1.8762662E2,1.243147E2,1.4152798E3,1.5311973E3,2.2293477E3,6.369888E2,0E0,0E0,0E0,0E0,0E0,0E0,0E0,0E0,0E0,0E0,0E0,0E0,0E0,0E0,0E0,0E0],"parents":[2147483647,0,0,1,1,2,2,3,3,4,4,5,5,6,6,7,7,8,8,9,9,10,10,11,11,12,12,13,13,14,14],"right_children":[2,4,6,8,10,12,14,16,18,20,22,24,26,28,30,-1,-1,-1,-1,-1,-1,-1,-1,-1,-1,-1,-1,-1,-1,-1,-1],"split_conditions":[5E0,3E0,1.9E1,6E0,5E0,1.1E1,2.3E1,1E0,1E0,4E0,7E0,7E0,6E0,4E0,7E0,-2.6962703E-1,-3.087813E-1,-1.8223521E-1,-2.3930554E-1,1.1244457E-2,-1.21109895E-1,-2.134327E-1,-3.336225E-1,6.4168416E-2,-1.14179544E-1,1.8714659E-1,8.615815E-2,-1.6093612E-1,-1.5341371E-2,-2.5077096E-1,-4.8833776E-1],"split_indices":[1,1,1,0,0,1,1,1,1,0,0,0,0,0,0,0,0,0,0,0,0,0,0,0,0,0,0,0,0,0,0],"split_type":[0,0,0,0,0,0,0,0,0,0,0,0,0,0,0,0,0,0,0,0,0,0,0,0,0,0,0,0,0,0,0],"sum_hessian":[1.7204E4,2.392E3,1.4812E4,1.444E3,9.48E2,9.619E3,5.193E3,9.52E2,4.92E2,5.85E2,3.63E2,3.276E3,6.343E3,4.389E3,8.04E2,2.79E2,6.73E2,1.91E2,3.01E2,4.45E2,1.4E2,1.86E2,1.77E2,2.746E3,5.3E2,3.896E3,2.447E3,1.746E3,2.643E3,6.67E2,1.37E2],"tree_param":{"num_deleted":"0","num_feature":"2","num_nodes":"31","size_leaf_vector":"1"}},{"base_weights":[-1.7000929E-3,-1.889571E0,3.0328044E-1,-2.435199E0,-1.0567763E0,9.878399E-1,-9.6467584E-1,-2.7604861E0,-2.0672302E0,-1.8543214E-1,-2.4566414E0,3.1758332E-1,1.3339059E0,-3.9052933E-1,-1.8666316E0,-2.4245389E-1,-2.947665E-1,-1.4729081E-1,-2.3824911E-1,1.0122492E-2,-1.09084785E-1,-1.922036E-1,-3.0044764E-1,5.775387E-2,-1.02783084E-1,1.5303902E-1,1.1859558E-2,-1.6518047E-1,-1.950043E-2,-2.5326273E-1,-1.03001416E-1],"categories":[],"categories_nodes":[],"categories_segments":[],"categories_sizes":[],"default_left":[0,0,0,0,0,0,0,0,0,0,0,0,0,0,0,0,0,0,0,0,0,0,0,0,0,0,0,0,0,0,0],"id":14,"left_children":[1,3,5,7,9,11,13,15,17,19,21,23,25,27,29,-1,-1,-1,-1,-1,-1,-1,-1,-1,-1,-1,-1,-1,-1,-1,-1],"loss_changes":[9.90659E3,1.0847959E3,1.2858511E4,1.672539E2,1.1571008E3,2.2309639E3,2.6890088E3,4.0895508E1,1.2427466E2,1.522031E2,1.0083203E2,1.1467166E3,1.5146982E3,7.826676E2,1.1229023E3,0E0,0E0,0E0,0E0,0E0,0E0,0E0,0E0,0E0,0E0,0E0,0E0,0E0,0E0,0E0,0E0],"parents":[2147483647,0,0,1,1,2,2,3,3,4,4,5,5,6,6,7,7,8,8,9,9,10,10,11,11,12,12,13,13,14,14],"right_children":[2,4,6,8,10,12,14,16,18,20,22,24,26,28,30,-1,-1,-1,-1,-1,-1,-1,-1,-1,-1,-1,-1,-1,-1,-1,-1],"split_conditions":[5E0,3E0,1.9E1,5E0,5E0,1.1E1,2.2E1,2E0,1E0,4E0,7E0,7E0,1.8E1,2E0,5E0,-2.4245389E-1,-2.947665E-1,-1.4729081E-1,-2.3824911E-1,1.0122492E-2,-1.09084785E-1,-1.922036E-1,-3.0044764E-1,5.775387E-2,-1.02783084E-1,1.5303902E-1,1.1859558E-2,-1.6518047E-1,-1.950043E-2,-2.5326273E-1,-1.03001416E-1],"split_indices":[1,1,1,0,0,1,1,0,1,0,0,0,1,0,0,0,0,0,0,0,0,0,0,0,0,0,0,0,0,0,0],"split_type":[0,0,0,0,0,0,0,0,0,0,0,0,0,0,0,0,0,0,0,0,0,0,0,0,0,0,0,0,0,0,0],"sum_hessian":[1.7204E4,2.392E3,1.4812E4,1.444E3,9.48E2,9.619E3,5.193E3,7.63E2,6.81E2,5.85E2,3.63E2,3.276E3,6.343E3,3.174E3,2.019E3,2.78E2,4.85E2,2.38E2,4.43E2,4.45E2,1.4E2,1.86E2,1.77E2,2.746E3,5.3E2,5.46E3,8.83E2,4.25E2,2.749E3,1.123E3,8.96E2],"tree_param":{"num_deleted":"0","num_feature":"2","num_nodes":"31","size_leaf_vector":"1"}},{"base_weights":[-1.6429242E-3,-1.7012465E0,2.7292353E-1,-2.1923175E0,-9.517219E-1,7.204473E-1,-1.3201467E0,-2.415517E0,-1.7564116E0,-1.6705744E-1,-2.2123308E0,9.281973E-1,-2.2293147E-1,-1.9619783E0,-5.620636E-1,-2.1806931E-1,-2.5094864E-1,-1.4945424E-1,-1.9170819E-1,2.2552902E-2,-7.2213024E-2,-1.7308603E-1,-2.7057168E-1,1.2092643E-1,7.127872E-3,-1.9631352E-1,1.74142E-2,-1.6845794E-1,-2.8734794E-1,4.7281943E-2,-2.7360857E-1],"categories":[],"categories_nodes":[],"categories_segments":[],"categories_sizes":[],"default_left":[0,0,0,0,0,0,0,0,0,0,0,0,0,0,0,0,0,0,0,0,0,0,0,0,0,0,0,0,0,0,0],"id":15,"left_children":[1,3,5,7,9,11,13,15,17,19,21,23,25,27,29,-1,-1,-1,-1,-1,-1,-1,-1,-1,-1,-1,-1,-1,-1,-1,-1],"loss_changes":[8.029249E3,8.787046E2,1.0561685E4,1.3634717E2,9.383385E2,2.2667964E3,1.5797354E3,1.5556641E1,1.7877686E1,1.2786049E2,8.17854E1,2.282704E3,1.4431263E3,4.3992188E2,3.3558328E3,0E0,0E0,0E0,0E0,0E0,0E0,0E0,0E0,0E0,0E0,0E0,0E0,0E0,0E0,0E0,0E0],"parents":[2147483647,0,0,1,1,2,2,3,3,4,4,5,5,6,6,7,7,8,8,9,9,10,10,11,11,12,12,13,13,14,14],"right_children":[2,4,6,8,10,12,14,16,18,20,22,24,26,28,30,-1,-1,-1,-1,-1,-1,-1,-1,-1,-1,-1,-1,-1,-1,-1,-1],"split_conditions":[5E0,3E0,2.1E1,6E0,5E0,7E0,5E0,1E0,1E0,3E0,7E0,1.8E1,1E1,2.3E1,7E0,-2.1806931E-1,-2.5094864E-1,-1.4945424E-1,-1.9170819E-1,2.2552902E-2,-7.2213024E-2,-1.7308603E-1,-2.7057168E-1,1.2092643E-1,7.127872E-3,-1.9631352E-1,1.74142E-2,-1.6845794E-1,-2.8734794E-1,4.7281943E-2,-2.7360857E-1],"split_indices":[1,1,1,0,0,0,0,1,1,0,0,1,1,1,0,0,0,0,0,0,0,0,0,0,0,0,0,0,0,0,0],"split_type":[0,0,0,0,0,0,0,0,0,0,0,0,0,0,0,0,0,0,0,0,0,0,0,0,0,0,0,0,0,0,0],"sum_hessian":[1.7204E4,2.392E3,1.4812E4,1.444E3,9.48E2,1.1564E4,3.248E3,9.52E2,4.92E2,5.85E2,3.63E2,9.477E3,2.087E3,1.758E3,1.49E3,2.79E2,6.73E2,1.91E2,3.01E2,3.43E2,2.42E2,1.86E2,1.77E2,7.136E3,2.341E3,3.87E2,1.7E3,1.35E3,4.08E2,1.01E3,4.8E2],"tree_param":{"num_deleted":"0","num_feature":"2","num_nodes":"31","size_leaf_vector":"1"}},{"base_weights":[-1.5967656E-3,-1.5316665E0,2.4558197E-1,-1.9736465E0,-8.570693E-1,7.293267E-1,-9.5570505E-1,-2.2445047E0,-1.6673279E0,-1.5043613E-1,-1.9923165E0,9.1009885E-1,-7.294029E-2,-6.483966E-1,-2.2711723E0,-1.9468108E-1,-2.410785E-1,-1.1639112E-1,-1.9345559E-1,9.029643E-3,-9.1083534E-2,-1.5586996E-1,-2.4366651E-1,1.0883553E-1,5.1618647E-3,-1.7673273E-1,3.4961443E-2,-1.5467615E-1,-6.8455734E-3,-1.9055171E-1,-4.0246972E-1],"categories":[],"categories_nodes":[],"categories_segments":[],"categories_sizes":[],"default_left":[0,0,0,0,0,0,0,0,0,0,0,0,0,0,0,0,0,0,0,0,0,0,0,0,0,0,0,0,0,0,0],"id":16,"left_children":[1,3,5,7,9,11,13,15,17,19,21,23,25,27,29,-1,-1,-1,-1,-1,-1,-1,-1,-1,-1,-1,-1,-1,-1,-1,-1],"loss_changes":[6.5073193E3,7.1180176E2,8.608772E3,1.1614746E2,7.6099133E2,1.5317026E3,1.7178208E3,3.3124756E1,8.949585E1,1.0735121E2,6.6336426E1,1.3189053E3,1.3917498E3,1.7968177E3,5.0848486E2,0E0,0E0,0E0,0E0,0E0,0E0,0E0,0E0,0E0,0E0,0E0,0E0,0E0,0E0,0E0,0E0],"parents":[2147483647,0,0,1,1,2,2,3,3,4,4,5,5,6,6,7,7,8,8,9,9,10,10,11,11,12,12,13,13,14,14],"right_children":[2,4,6,8,10,12,14,16,18,20,22,24,26,28,30,-1,-1,-1,-1,-1,-1,-1,-1,-1,-1,-1,-1,-1,-1,-1,-1],"split_conditions":[5E0,3E0,2E1,5E0,5E0,7E0,2.3E1,2E0,1E0,4E0,7E0,1.8E1,1E1,4E0,7E0,-1.9468108E-1,-2.410785E-1,-1.1639112E-1,-1.9345559E-1,9.029643E-3,-9.1083534E-2,-1.5586996E-1,-2.4366651E-1,1.0883553E-1,5.1618647E-3,-1.7673273E-1,3.4961443E-2,-1.5467615E-1,-6.8455734E-3,-1.9055171E-1,-4.0246972E-1],"split_indices":[1,1,1,0,0,0,1,0,1,0,0,1,1,0,0,0,0,0,0,0,0,0,0,0,0,0,0,0,0,0,0],"split_type":[0,0,0,0,0,0,0,0,0,0,0,0,0,0,0,0,0,0,0,0,0,0,0,0,0,0,0,0,0,0,0],"sum_hessian":[1.7204E4,2.392E3,1.4812E4,1.444E3,9.48E2,1.056E4,4.252E3,7.63E2,6.81E2,5.85E2,3.63E2,8.618E3,1.942E3,3.448E3,8.04E2,2.78E2,4.85E2,2.38E2,4.43E2,4.45E2,1.4E2,1.86E2,1.77E2,7.136E3,1.482E3,3.87E2,1.555E3,1.352E3,2.096E3,6.67E2,1.37E2],"tree_param":{"num_deleted":"0","num_feature":"2","num_nodes":"31","size_leaf_vector":"1"}},{"base_weights":[-1.553793E-3,-1.3790126E0,2.2097105E-1,-1.7767978E0,-7.718697E-1,5.870423E-1,-1.0821483E0,-2.0206246E0,-1.5010493E0,-1.3553235E-1,-1.7941824E0,7.589399E-1,-1.9352901E-1,-1.6335534E0,-4.3090516E-1,-1.7528275E-1,-2.1702023E-1,-1.048007E-1,-1.741536E-1,1.9403895E-2,-6.0152825E-2,-1.4036632E-1,-2.1943675E-1,9.7953536E-2,8.637446E-3,-5.1197666E-1,-9.235876E-3,-2.4614139E-1,-1.3555245E-1,4.79485E-2,-2.3435321E-1],"categories":[],"categories_nodes":[],"categories_segments":[],"categories_sizes":[],"default_left":[0,0,0,0,0,0,0,0,0,0,0,0,0,0,0,0,0,0,0,0,0,0,0,0,0,0,0,0,0,0,0],"id":17,"left_children":[1,3,5,7,9,11,13,15,17,19,21,23,25,27,29,-1,-1,-1,-1,-1,-1,-1,-1,-1,-1,-1,-1,-1,-1,-1,-1],"loss_changes":[5.2739604E3,5.765679E2,7.066948E3,9.412158E1,6.1711536E2,1.5519192E3,1.166008E3,2.6799072E1,7.247925E1,9.011394E1,5.3805664E1,1.4061177E3,1.0401628E3,4.0153076E2,2.5973076E3,0E0,0E0,0E0,0E0,0E0,0E0,0E0,0E0,0E0,0E0,0E0,0E0,0E0,0E0,0E0,0E0],"parents":[2147483647,0,0,1,1,2,2,3,3,4,4,5,5,6,6,7,7,8,8,9,9,10,10,11,11,12,12,13,13,14,14],"right_children":[2,4,6,8,10,12,14,16,18,20,22,24,26,28,30,-1,-1,-1,-1,-1,-1,-1,-1,-1,-1,-1,-1,-1,-1,-1,-1],"split_conditions":[5E0,3E0,2.1E1,5E0,5E0,7E0,5E0,2E0,1E0,3E0,7E0,1.8E1,7E0,2E0,7E0,-1.7528275E-1,-2.1702023E-1,-1.048007E-1,-1.741536E-1,1.9403895E-2,-6.0152825E-2,-1.4036632E-1,-2.1943675E-1,9.7953536E-2,8.637446E-3,-5.1197666E-1,-9.235876E-3,-2.4614139E-1,-1.3555245E-1,4.79485E-2,-2.3435321E-1],"split_indices":[1,1,1,0,0,0,0,0,1,0,0,1,1,0,0,0,0,0,0,0,0,0,0,0,0,0,0,0,0,0,0],"split_type":[0,0,0,0,0,0,0,0,0,0,0,0,0,0,0,0,0,0,0,0,0,0,0,0,0,0,0,0,0,0,0],"sum_hessian":[1.7204E4,2.392E3,1.4812E4,1.444E3,9.48E2,1.1564E4,3.248E3,7.63E2,6.81E2,5.85E2,3.63E2,9.477E3,2.087E3,1.758E3,1.49E3,2.78E2,4.85E2,2.38E2,4.43E2,3.43E2,2.42E2,1.86E2,1.77E2,7.136E3,2.341E3,4.1E1,2.046E3,4.4E2,1.318E3,1.01E3,4.8E2],"tree_param":{"num_deleted":"0","num_feature":"2","num_nodes":"31","size_leaf_vector":"1"}},{"base_weights":[-1.5179471E-3,-1.241559E0,1.9880743E-1,-1.5995824E0,-6.9510466E-1,6.5581256E-1,-6.47667E-1,-1.7677164E0,-1.2713243E0,8.0121726E-2,-1.3797393E0,6.0751762E-2,9.630885E-1,-4.1080278E-1,-1.9385817E0,-1.5781729E-1,-1.8434422E-1,-1.1958188E-1,-1.5874319E-1,-1.0841037E-1,1.4308649E-2,-1.0508609E-1,-1.9761635E-1,2.8934294E-2,-3.5006206E-2,1.2733963E-1,4.6871256E-2,-1.2140353E-1,-9.8474E-3,-1.6353215E-1,-3.3924896E-1],"categories":[],"categories_nodes":[],"categories_segments":[],"categories_sizes":[],"default_left":[0,0,0,0,0,0,0,0,0,0,0,0,0,0,0,0,0,0,0,0,0,0,0,0,0,0,0,0,0,0,0],"id":18,"left_children":[1,3,5,7,9,11,13,15,17,19,21,23,25,27,29,-1,-1,-1,-1,-1,-1,-1,-1,-1,-1,-1,-1,-1,-1,-1,-1],"loss_changes":[4.2741704E3,4.6706274E2,5.730733E3,7.750415E1,5.0378928E2,1.7589385E3,1.5873809E3,1.0769531E1,9.868591E0,3.284923E1,9.678345E1,3.0783917E2,9.7262744E2,1.1012114E3,3.4938696E2,0E0,0E0,0E0,0E0,0E0,0E0,0E0,0E0,0E0,0E0,0E0,0E0,0E0,0E0,0E0,0E0],"parents":[2147483647,0,0,1,1,2,2,3,3,4,4,5,5,6,6,7,7,8,8,9,9,10,10,11,11,12,12,13,13,14,14],"right_children":[2,4,6,8,10,12,14,16,18,20,22,24,26,28,30,-1,-1,-1,-1,-1,-1,-1,-1,-1,-1,-1,-1,-1,-1,-1,-1],"split_conditions":[5E0,3E0,1.9E1,6E0,4E0,1.1E1,2.3E1,2E0,2E0,4E0,7E0,6E0,6E0,3E0,7E0,-1.5781729E-1,-1.8434422E-1,-1.1958188E-1,-1.5874319E-1,-1.0841037E-1,1.4308649E-2,-1.0508609E-1,-1.9761635E-1,2.8934294E-2,-3.5006206E-2,1.2733963E-1,4.6871256E-2,-1.2140353E-1,-9.8474E-3,-1.6353215E-1,-3.3924896E-1],"split_indices":[1,1,1,0,0,1,1,0,1,1,0,0,0,0,0,0,0,0,0,0,0,0,0,0,0,0,0,0,0,0,0],"split_type":[0,0,0,0,0,0,0,0,0,0,0,0,0,0,0,0,0,0,0,0,0,0,0,0,0,0,0,0,0,0,0],"sum_hessian":[1.7204E4,2.392E3,1.4812E4,1.444E3,9.48E2,9.619E3,5.193E3,9.52E2,4.92E2,4.45E2,5.03E2,3.276E3,6.343E3,4.389E3,8.04E2,2.78E2,6.74E2,4.01E2,9.1E1,2.2E1,4.23E2,3.26E2,1.77E2,2.105E3,1.171E3,3.896E3,2.447E3,1.228E3,3.161E3,6.67E2,1.37E2],"tree_param":{"num_deleted":"0","num_feature":"2","num_nodes":"31","size_leaf_vector":"1"}},{"base_weights":[-1.4524445E-3,-1.1178282E0,1.7889515E-1,-1.4400536E0,-6.260123E-1,4.8061028E-1,-8.951321E-1,-1.644625E0,-1.208774E0,-1.03201285E-1,-1.4659609E0,6.285235E-1,-1.9103825E-1,-1.3811661E0,-3.2113558E-1,-1.4209211E-1,-1.7696635E-1,-8.118274E-2,-1.4197233E-1,1.6827272E-2,-4.8708547E-2,-5.3370815E-2,-1.5891795E-1,8.102801E-2,7.4370964E-3,-4.5858073E-1,-1.007738E-2,-2.0856272E-1,-1.1445866E-1,4.807927E-2,-2.0060177E-1],"categories":[],"categories_nodes":[],"categories_segments":[],"categories_sizes":[],"default_left":[0,0,0,0,0,0,0,0,0,0,0,0,0,0,0,0,0,0,0,0,0,0,0,0,0,0,0,0,0,0,0],"id":19,"left_children":[1,3,5,7,9,11,13,15,17,19,21,23,25,27,29,-1,-1,-1,-1,-1,-1,-1,-1,-1,-1,-1,-1,-1,-1,-1,-1],"loss_changes":[3.4641804E3,3.7833032E2,4.8005874E3,6.6379395E1,4.1658716E2,1.1490532E3,9.0596826E2,1.8855957E1,5.595508E1,6.1151703E1,4.0964844E1,9.54572E2,8.278297E2,2.9076953E2,2.0155361E3,0E0,0E0,0E0,0E0,0E0,0E0,0E0,0E0,0E0,0E0,0E0,0E0,0E0,0E0,0E0,0E0],"parents":[2147483647,0,0,1,1,2,2,3,3,4,4,5,5,6,6,7,7,8,8,9,9,10,10,11,11,12,12,13,13,14,14],"right_children":[2,4,6,8,10,12,14,16,18,20,22,24,26,28,30,-1,-1,-1,-1,-1,-1,-1,-1,-1,-1,-1,-1,-1,-1,-1,-1],"split_conditions":[5E0,3E0,2.1E1,5E0,5E0,7E0,5E0,2E0,1E0,3E0,4E0,1.8E1,7E0,2E0,7E0,-1.4209211E-1,-1.7696635E-1,-8.118274E-2,-1.4197233E-1,1.6827272E-2,-4.8708547E-2,-5.3370815E-2,-1.5891795E-1,8.102801E-2,7.4370964E-3,-4.5858073E-1,-1.007738E-2,-2.0856272E-1,-1.1445866E-1,4.807927E-2,-2.0060177E-1],"split_indices":[1,1,1,0,0,0,0,0,1,0,1,1,1,0,0,0,0,0,0,0,0,0,0,0,0,0,0,0,0,0,0],"split_type":[0,0,0,0,0,0,0,0,0,0,0,0,0,0,0,0,0,0,0,0,0,0,0,0,0,0,0,0,0,0,0],"sum_hessian":[1.7204E4,2.392E3,1.4812E4,1.444E3,9.48E2,1.1564E4,3.248E3,7.63E2,6.81E2,5.85E2,3.63E2,9.477E3,2.087E3,1.758E3,1.49E3,2.78E2,4.85E2,2.38E2,4.43E2,3.43E2,2.42E2,4.3E1,3.2E2,7.136E3,2.341E3,4.1E1,2.046E3,4.4E2,1.318E3,1.01E3,4.8E2],"tree_param":{"num_deleted":"0","num_feature":"2","num_nodes":"31","size_leaf_vector":"1"}},{"base_weights":[-1.402623E-3,-8.673307E-1,1.8904762E-1,-5.283769E-1,-1.6345941E0,6.7688656E-1,-4.5544145E-1,-1.4257703E0,2.1419047E-1,-1.1382372E0,-3.6537492E0,2.3714979E-1,1.1673131E0,-2.718341E-1,-1.6575607E0,-1.2619765E-1,-1.496698E-1,-8.782313E-2,5.2268554E-2,-9.837938E-2,-1.4947587E-1,-5.4667586E-1,-2.9703853E-1,-3.0388674E-2,3.98244E-2,1.7200737E-1,3.4788627E-2,-1.0069721E-1,6.194764E-4,-1.4073838E-1,-2.8565508E-1],"categories":[],"categories_nodes":[],"categories_segments":[],"categories_sizes":[],"default_left":[0,0,0,0,0,0,0,0,0,0,0,0,0,0,0,0,0,0,0,0,0,0,0,0,0,0,0,0,0,0,0],"id":20,"left_children":[1,3,5,7,9,11,13,15,17,19,21,23,25,27,29,-1,-1,-1,-1,-1,-1,-1,-1,-1,-1,-1,-1,-1,-1,-1,-1],"loss_changes":[2.8375474E3,8.058638E2,4.4347026E3,1.4350107E3,9.479512E2,1.73103E3,1.3408519E3,9.438232E0,3.9779E2,4.0597168E1,2.1544458E2,3.6914734E2,1.718335E3,1.0777524E3,2.3744702E2,0E0,0E0,0E0,0E0,0E0,0E0,0E0,0E0,0E0,0E0,0E0,0E0,0E0,0E0,0E0,0E0],"parents":[2147483647,0,0,1,1,2,2,3,3,4,4,5,5,6,6,7,7,8,8,9,9,10,10,11,11,12,12,13,13,14,14],"right_children":[2,4,6,8,10,12,14,16,18,20,22,24,26,28,30,-1,-1,-1,-1,-1,-1,-1,-1,-1,-1,-1,-1,-1,-1,-1,-1],"split_conditions":[7E0,6E0,1.8E1,4E0,5E0,1.3E1,2.3E1,2E0,2E0,4E0,6E0,3E0,6E0,3E0,7E0,-1.2619765E-1,-1.496698E-1,-8.782313E-2,5.2268554E-2,-9.837938E-2,-1.4947587E-1,-5.4667586E-1,-2.9703853E-1,-3.0388674E-2,3.98244E-2,1.7200737E-1,3.4788627E-2,-1.0069721E-1,6.194764E-4,-1.4073838E-1,-2.8565508E-1],"split_indices":[1,0,1,1,1,1,1,0,0,1,1,0,0,0,0,0,0,0,0,0,0,0,0,0,0,0,0,0,0,0,0],"split_type":[0,0,0,0,0,0,0,0,0,0,0,0,0,0,0,0,0,0,0,0,0,0,0,0,0,0,0,0,0,0,0],"sum_hessian":[1.7204E4,3.101E3,1.4103E4,2.152E3,9.49E2,8.027E3,6.076E3,9.74E2,1.178E3,7.63E2,1.86E2,4.233E3,3.794E3,5.272E3,8.04E2,3E2,6.74E2,2.59E2,9.19E2,5.35E2,2.28E2,4.9E1,1.37E2,9.71E2,3.262E3,2.265E3,1.529E3,1.446E3,3.826E3,6.67E2,1.37E2],"tree_param":{"num_deleted":"0","num_feature":"2","num_nodes":"31","size_leaf_vector":"1"}},{"base_weights":[-1.3617766E-3,1.3386878E-1,-1.0180004E0,-7.8104997E-1,3.6870074E-1,-1.8097126E0,-7.183231E-1,-4.75684E-1,-1.4722836E0,6.0922533E-1,-1.07223354E-1,-1.8906324E-1,-1.7338533E0,-3.907348E-1,-1.9913392E0,-1.2834762E-1,1.9274097E-2,-1.0247377E-1,-3.2928866E-1,2.5626013E-2,1.11641444E-1,-9.720852E-2,3.699253E-3,-1.6295242E-1,-1.87919E-1,-1.0952655E-1,2.826394E-2,-1.4867026E-1,-2.5729656E-1],"categories":[],"categories_nodes":[],"categories_segments":[],"categories_sizes":[],"default_left":[0,0,0,0,0,0,0,0,0,0,0,0,0,0,0,0,0,0,0,0,0,0,0,0,0,0,0,0,0],"id":21,"left_children":[1,3,5,7,9,11,13,15,17,19,21,-1,23,25,27,-1,-1,-1,-1,-1,-1,-1,-1,-1,-1,-1,-1,-1,-1],"loss_changes":[2.3654902E3,3.2630327E3,4.7796143E2,6.540674E2,1.3834528E3,1.22680664E-1,6.10998E2,1.1627562E3,7.7068896E2,1.4368872E3,5.0617734E2,0E0,1.4562988E0,5.5442365E2,8.422766E1,0E0,0E0,0E0,0E0,0E0,0E0,0E0,0E0,0E0,0E0,0E0,0E0,0E0,0E0],"parents":[2147483647,0,0,1,1,2,2,3,3,4,4,5,5,6,6,7,7,8,8,9,9,10,10,12,12,13,13,14,14],"right_children":[2,4,6,8,10,12,14,16,18,20,22,-1,24,26,28,-1,-1,-1,-1,-1,-1,-1,-1,-1,-1,-1,-1,-1,-1],"split_conditions":[2.2E1,7E0,3E0,6E0,1.8E1,2E0,7E0,4E0,5E0,1.4E1,2E0,-1.8906324E-1,2.3E1,5E0,2.3E1,-1.2834762E-1,1.9274097E-2,-1.0247377E-1,-3.2928866E-1,2.5626013E-2,1.11641444E-1,-9.720852E-2,3.699253E-3,-1.6295242E-1,-1.87919E-1,-1.0952655E-1,2.826394E-2,-1.4867026E-1,-2.5729656E-1],"split_indices":[1,1,0,0,1,0,0,1,1,1,0,0,1,0,1,0,0,0,0,0,0,0,0,0,0,0,0,0,0],"split_type":[0,0,0,0,0,0,0,0,0,0,0,0,0,0,0,0,0,0,0,0,0,0,0,0,0,0,0,0,0],"sum_hessian":[1.7204E4,1.5185E4,2.019E3,3.101E3,1.2084E4,5.53E2,1.466E3,2.152E3,9.49E2,8.027E3,4.057E3,2.56E2,2.97E2,1.167E3,2.99E2,9.74E2,1.178E3,7.63E2,1.86E2,4.734E3,3.293E3,5.79E2,3.478E3,1.8E2,1.17E2,5.7E2,5.97E2,1.62E2,1.37E2],"tree_param":{"num_deleted":"0","num_feature":"2","num_nodes":"29","size_leaf_vector":"1"}},{"base_weights":[-1.3138879E-3,-7.8075397E-1,1.4408207E-1,-3.0087808E-1,-1.1217278E0,3.8098595E-1,-6.764853E-1,-6.7170227E-1,2.644559E0,-9.581852E-1,-2.3284125E0,5.215094E-1,-2.3607303E-1,-1.0699188E0,-2.1188037E-1,-1.2386047E-1,1.013505E-2,3.8745388E-1,1.72789E-1,-7.13099E-2,-1.0332277E-1,-1.4915529E-1,-4.6083137E-1,6.61838E-2,1.1234451E-2,-1.4285333E-1,3.606727E-3,-8.946888E-2,-1.6461186E-1,4.5015372E-2,-1.6029502E-1],"categories":[],"categories_nodes":[],"categories_segments":[],"categories_sizes":[],"default_left":[0,0,0,0,0,0,0,0,0,0,0,0,0,0,0,0,0,0,0,0,0,0,0,0,0,0,0,0,0,0,0],"id":22,"left_children":[1,3,5,7,9,11,13,15,17,19,21,23,25,27,29,-1,-1,-1,-1,-1,-1,-1,-1,-1,-1,-1,-1,-1,-1,-1,-1],"loss_changes":[1.949911E3,4.4226868E2,2.819188E3,1.2305454E3,3.097704E2,9.75885E2,5.936615E2,4.3837097E2,1.3536816E2,2.490149E1,3.5182233E2,5.2621484E2,6.7764197E2,1.761289E2,1.3738367E3,0E0,0E0,0E0,0E0,0E0,0E0,0E0,0E0,0E0,0E0,0E0,0E0,0E0,0E0,0E0,0E0],"parents":[2147483647,0,0,1,1,2,2,3,3,4,4,5,5,6,6,7,7,8,8,9,9,10,10,11,11,12,12,13,13,14,14],"right_children":[2,4,6,8,10,12,14,16,18,20,22,24,26,28,30,-1,-1,-1,-1,-1,-1,-1,-1,-1,-1,-1,-1,-1,-1,-1,-1],"split_conditions":[6E0,4E0,2.1E1,5E0,5E0,7E0,5E0,4E0,3E0,1E0,6E0,1.8E1,1E1,2.3E1,7E0,-1.2386047E-1,1.013505E-2,3.8745388E-1,1.72789E-1,-7.13099E-2,-1.0332277E-1,-1.4915529E-1,-4.6083137E-1,6.61838E-2,1.1234451E-2,-1.4285333E-1,3.606727E-3,-8.946888E-2,-1.6461186E-1,4.5015372E-2,-1.6029502E-1],"split_indices":[1,0,1,1,1,0,0,1,0,1,0,1,1,1,0,0,0,0,0,0,0,0,0,0,0,0,0,0,0,0,0],"split_type":[0,0,0,0,0,0,0,0,0,0,0,0,0,0,0,0,0,0,0,0,0,0,0,0,0,0,0,0,0,0,0],"sum_hessian":[1.7204E4,2.704E3,1.45E4,1.124E3,1.58E3,1.1252E4,3.248E3,9.99E2,1.25E2,1.393E3,1.87E2,9.165E3,2.087E3,1.758E3,1.49E3,5.76E2,4.23E2,5.2E1,7.3E1,3.29E2,1.064E3,1.38E2,4.9E1,6.824E3,2.341E3,3.87E2,1.7E3,1.35E3,4.08E2,1.01E3,4.8E2],"tree_param":{"num_deleted":"0","num_feature":"2","num_nodes":"31","size_leaf_vector":"1"}},{"base_weights":[-1.2268787E-3,1.10526636E-1,-8.413693E-1,-6.4085233E-1,3.033828E-1,-1.5116535E0,-5.876686E-1,-3.824871E-1,-1.2257149E0,5.0061E-1,-8.6869314E-2,-1.5854075E0,-1.4429742E-1,-3.1846794E-1,-1.6337976E0,-1.04444146E-1,1.6525505E-2,-8.272136E-2,-2.8472623E-1,2.389597E-2,1.0461425E-1,-8.543115E-2,4.1099447E-3,-1.6746946E-1,-1.4182208E-1,-8.7082505E-2,2.094825E-2,-1.1796325E-1,-2.1584001E-1],"categories":[],"categories_nodes":[],"categories_segments":[],"categories_sizes":[],"default_left":[0,0,0,0,0,0,0,0,0,0,0,0,0,0,0,0,0,0,0,0,0,0,0,0,0,0,0,0,0],"id":23,"left_children":[1,3,5,7,9,11,13,15,17,19,21,23,-1,25,27,-1,-1,-1,-1,-1,-1,-1,-1,-1,-1,-1,-1,-1,-1],"loss_changes":[1.6154509E3,2.2007686E3,3.4261572E2,4.6826868E2,9.302057E2,5.185547E-1,4.126142E2,7.80808E2,6.1152405E2,1.1456566E3,3.985657E2,1.4613037E0,0E0,3.4079126E2,6.8930725E1,0E0,0E0,0E0,0E0,0E0,0E0,0E0,0E0,0E0,0E0,0E0,0E0,0E0,0E0],"parents":[2147483647,0,0,1,1,2,2,3,3,4,4,5,5,6,6,7,7,8,8,9,9,10,10,11,11,13,13,14,14],"right_children":[2,4,6,8,10,12,14,16,18,20,22,24,-1,26,28,-1,-1,-1,-1,-1,-1,-1,-1,-1,-1,-1,-1,-1,-1],"split_conditions":[2.2E1,7E0,3E0,6E0,1.8E1,2E0,7E0,4E0,5E0,1.5E1,2E0,2.3E1,-1.4429742E-1,5E0,2.3E1,-1.04444146E-1,1.6525505E-2,-8.272136E-2,-2.8472623E-1,2.389597E-2,1.0461425E-1,-8.543115E-2,4.1099447E-3,-1.6746946E-1,-1.4182208E-1,-8.7082505E-2,2.094825E-2,-1.1796325E-1,-2.1584001E-1],"split_indices":[1,1,0,0,1,0,0,1,1,1,0,1,0,0,1,0,0,0,0,0,0,0,0,0,0,0,0,0,0],"split_type":[0,0,0,0,0,0,0,0,0,0,0,0,0,0,0,0,0,0,0,0,0,0,0,0,0,0,0,0,0],"sum_hessian":[1.7204E4,1.5185E4,2.019E3,3.101E3,1.2084E4,5.53E2,1.466E3,2.152E3,9.49E2,8.027E3,4.057E3,2.56E2,2.97E2,1.167E3,2.99E2,9.74E2,1.178E3,7.63E2,1.86E2,5.426E3,2.601E3,5.79E2,3.478E3,1.61E2,9.5E1,5.7E2,5.97E2,1.62E2,1.37E2],"tree_param":{"num_deleted":"0","num_feature":"2","num_nodes":"29","size_leaf_vector":"1"}},{"base_weights":[-1.177419E-3,-6.90739E-1,1.1021946E-1,-8.485752E-1,-4.49681E-1,2.9663932E-1,-5.533865E-1,-9.9289316E-1,-6.8566096E-1,4.3494593E-2,-8.8521004E-1,4.159466E-1,-2.45071E-1,-3.41513E-1,-1.1962155E0,-7.982194E-2,-1.1026074E-1,-3.5813812E-2,-8.6041845E-2,1.461225E-2,-2.9968495E-2,-1.0344575E-2,-9.579051E-2,3.1153932E-3,5.7289988E-2,-1.2772702E-1,-9.481135E-4,-8.7441586E-2,2.0451557E-3,-1.03991665E-1,-1.9441243E-1],"categories":[],"categories_nodes":[],"categories_segments":[],"categories_sizes":[],"default_left":[0,0,0,0,0,0,0,0,0,0,0,0,0,0,0,0,0,0,0,0,0,0,0,0,0,0,0,0,0,0,0],"id":24,"left_children":[1,3,5,7,9,11,13,15,17,19,21,23,25,27,29,-1,-1,-1,-1,-1,-1,-1,-1,-1,-1,-1,-1,-1,-1,-1,-1],"loss_changes":[1.3216785E3,9.0666504E1,1.8326705E3,3.3293213E1,2.038764E2,7.475477E2,4.4210016E2,1.5437744E1,3.872751E1,1.5751819E1,2.8543427E1,5.724011E2,5.0773865E2,4.7163867E2,9.208057E1,0E0,0E0,0E0,0E0,0E0,0E0,0E0,0E0,0E0,0E0,0E0,0E0,0E0,0E0,0E0,0E0],"parents":[2147483647,0,0,1,1,2,2,3,3,4,4,5,5,6,6,7,7,8,8,9,9,10,10,11,11,12,12,13,13,14,14],"right_children":[2,4,6,8,10,12,14,16,18,20,22,24,26,28,30,-1,-1,-1,-1,-1,-1,-1,-1,-1,-1,-1,-1,-1,-1,-1,-1],"split_conditions":[5E0,3E0,2.1E1,5E0,4E0,7E0,2.3E1,2E0,1E0,3E0,4E0,1.1E1,1E1,4E0,7E0,-7.982194E-2,-1.1026074E-1,-3.5813812E-2,-8.6041845E-2,1.461225E-2,-2.9968495E-2,-1.0344575E-2,-9.579051E-2,3.1153932E-3,5.7289988E-2,-1.2772702E-1,-9.481135E-4,-8.7441586E-2,2.0451557E-3,-1.03991665E-1,-1.9441243E-1],"split_indices":[1,1,1,0,0,0,1,0,1,0,1,1,1,0,0,0,0,0,0,0,0,0,0,0,0,0,0,0,0,0,0],"split_type":[0,0,0,0,0,0,0,0,0,0,0,0,0,0,0,0,0,0,0,0,0,0,0,0,0,0,0,0,0,0,0],"sum_hessian":[1.7204E4,2.392E3,1.4812E4,1.444E3,9.48E2,1.1564E4,3.248E3,7.63E2,6.81E2,4.45E2,5.03E2,9.477E3,2.087E3,2.444E3,8.04E2,2.78E2,4.85E2,2.38E2,4.43E2,3.43E2,1.02E2,4.3E1,4.6E2,2.746E3,6.731E3,3.87E2,1.7E3,9.88E2,1.456E3,6.67E2,1.37E2],"tree_param":{"num_deleted":"0","num_feature":"2","num_nodes":"31","size_leaf_vector":"1"}},{"base_weights":[-1.1109123E-3,-5.817259E-1,1.0719642E-1,-1.8027613E-1,-8.6701953E-1,3.983987E-1,-2.965367E-1,-5.008089E-1,2.3650658E0,-7.0822746E-1,-2.0398343E0,9.258244E-2,7.714782E-1,-1.7733681E-1,-1.0769647E0,-9.2005305E-2,7.090013E-3,3.4751266E-1,1.538062E-1,-4.9421586E-2,-7.738759E-2,-1.36297E-1,-3.8807207E-1,-5.873986E-2,3.0711422E-2,1.24739386E-1,6.6120983E-3,-5.922966E-2,9.316386E-3,-9.3608074E-2,-1.7511207E-1],"categories":[],"categories_nodes":[],"categories_segments":[],"categories_sizes":[],"default_left":[0,0,0,0,0,0,0,0,0,0,0,0,0,0,0,0,0,0,0,0,0,0,0,0,0,0,0,0,0,0,0],"id":25,"left_children":[1,3,5,7,9,11,13,15,17,19,21,23,25,27,29,-1,-1,-1,-1,-1,-1,-1,-1,-1,-1,-1,-1,-1,-1,-1,-1],"loss_changes":[1.0819963E3,3.096502E2,1.7049717E3,9.190332E2,2.9299097E2,9.611682E2,5.651337E2,2.3975084E2,1.1032617E2,1.9202576E1,2.2896442E2,6.757392E2,1.2738635E3,5.919331E2,7.481793E1,0E0,0E0,0E0,0E0,0E0,0E0,0E0,0E0,0E0,0E0,0E0,0E0,0E0,0E0,0E0,0E0],"parents":[2147483647,0,0,1,1,2,2,3,3,4,4,5,5,6,6,7,7,8,8,9,9,10,10,11,11,12,12,13,13,14,14],"right_children":[2,4,6,8,10,12,14,16,18,20,22,24,26,28,30,-1,-1,-1,-1,-1,-1,-1,-1,-1,-1,-1,-1,-1,-1,-1,-1],"split_conditions":[6E0,4E0,1.8E1,5E0,5E0,1.3E1,2.3E1,4E0,3E0,1E0,6E0,3E0,6E0,4E0,7E0,-9.2005305E-2,7.090013E-3,3.4751266E-1,1.538062E-1,-4.9421586E-2,-7.738759E-2,-1.36297E-1,-3.8807207E-1,-5.873986E-2,3.0711422E-2,1.24739386E-1,6.6120983E-3,-5.922966E-2,9.316386E-3,-9.3608074E-2,-1.7511207E-1],"split_indices":[1,0,1,1,1,1,1,1,0,1,0,0,0,0,0,0,0,0,0,0,0,0,0,0,0,0,0,0,0,0,0],"split_type":[0,0,0,0,0,0,0,0,0,0,0,0,0,0,0,0,0,0,0,0,0,0,0,0,0,0,0,0,0,0,0],"sum_hessian":[1.7204E4,2.704E3,1.45E4,1.124E3,1.58E3,8.424E3,6.076E3,9.99E2,1.25E2,1.393E3,1.87E2,4.63E3,3.794E3,5.272E3,8.04E2,5.76E2,4.23E2,5.2E1,7.3E1,3.29E2,1.064E3,1.38E2,4.9E1,1.11E3,3.52E3,2.265E3,1.529E3,2.08E3,3.192E3,6.67E2,1.37E2],"tree_param":{"num_deleted":"0","num_feature":"2","num_nodes":"31","size_leaf_vector":"1"}},{"base_weights":[-1.025978E-3,8.306221E-2,-6.3318545E-1,-5.2364E-1,2.1453524E-1,-1.1954113E0,-4.2043406E-1,-1.6187824E-1,-7.807293E-1,3.3100957E-1,-3.0987352E-1,-1.2631439E0,-1.1329863E-1,-1.9186789E-1,-1.3089168E0,-4.5081273E-2,2.1325374E-1,-6.374955E-2,-1.83864E-1,-2.9064287E-3,4.8850164E-2,9.077567E-3,-9.915622E-2,-1.3624929E-1,-1.0823345E-1,-4.9464777E-2,5.5310827E-2,-1.07368566E-1,-1.5772775E-1],"categories":[],"categories_nodes":[],"categories_segments":[],"categories_sizes":[],"default_left":[0,0,0,0,0,0,0,0,0,0,0,0,0,0,0,0,0,0,0,0,0,0,0,0,0,0,0,0,0],"id":26,"left_children":[1,3,5,7,9,11,13,15,17,19,21,23,-1,25,27,-1,-1,-1,-1,-1,-1,-1,-1,-1,-1,-1,-1,-1,-1],"loss_changes":[9.146213E2,1.2114232E3,2.4111847E2,2.5145233E2,7.6250525E2,9.112549E-1,2.9766293E2,7.467641E2,2.3839453E2,5.7923755E2,6.1979474E2,3.1418762E0,0E0,2.6373212E2,1.7244568E1,0E0,0E0,0E0,0E0,0E0,0E0,0E0,0E0,0E0,0E0,0E0,0E0,0E0,0E0],"parents":[2147483647,0,0,1,1,2,2,3,3,4,4,5,5,6,6,7,7,8,8,9,9,10,10,11,11,13,13,14,14],"right_children":[2,4,6,8,10,12,14,16,18,20,22,24,-1,26,28,-1,-1,-1,-1,-1,-1,-1,-1,-1,-1,-1,-1,-1,-1],"split_conditions":[2.2E1,6E0,3E0,4E0,7E0,2E0,7E0,5E0,5E0,3E0,1.7E1,2.3E1,-1.1329863E-1,6E0,2.3E1,-4.5081273E-2,2.1325374E-1,-6.374955E-2,-1.83864E-1,-2.9064287E-3,4.8850164E-2,9.077567E-3,-9.915622E-2,-1.3624929E-1,-1.0823345E-1,-4.9464777E-2,5.5310827E-2,-1.07368566E-1,-1.5772775E-1],"split_indices":[1,1,0,0,0,0,0,1,1,0,1,1,0,0,1,0,0,0,0,0,0,0,0,0,0,0,0,0,0],"split_type":[0,0,0,0,0,0,0,0,0,0,0,0,0,0,0,0,0,0,0,0,0,0,0,0,0,0,0,0,0],"sum_hessian":[1.7204E4,1.5185E4,2.019E3,2.704E3,1.2481E4,5.53E2,1.466E3,1.124E3,1.58E3,1.0213E4,2.268E3,2.56E2,2.97E2,1.167E3,2.99E2,9.99E2,1.25E2,1.393E3,1.87E2,3.108E3,7.105E3,1.429E3,8.39E2,1.61E2,9.5E1,8.3E2,3.37E2,1.62E2,1.37E2],"tree_param":{"num_deleted":"0","num_feature":"2","num_nodes":"29","size_leaf_vector":"1"}},{"base_weights":[-9.6657925E-4,7.474769E-2,-5.701724E-1,-4.2979047E-1,2.0424728E-1,-1.0765162E0,-3.785674E-1,-2.1633403E-1,-9.1309774E-1,3.5545412E-1,-9.493771E-2,-1.1377809E0,-1.0200681E-1,-1.7267615E-1,-1.1789088E0,-4.8720114E-2,6.266616E-2,-5.3861853E-2,-2.4381728E-1,1.4393288E-2,7.964881E-2,2.1160846E-3,-6.830979E-2,-1.2270849E-1,-9.7522855E-2,-6.2348336E-2,2.5806567E-2,-9.669759E-2,-1.4206927E-1],"categories":[],"categories_nodes":[],"categories_segments":[],"categories_sizes":[],"default_left":[0,0,0,0,0,0,0,0,0,0,0,0,0,0,0,0,0,0,0,0,0,0,0,0,0,0,0,0,0],"id":27,"left_children":[1,3,5,7,9,11,13,15,17,19,21,23,-1,25,27,-1,-1,-1,-1,-1,-1,-1,-1,-1,-1,-1,-1,-1,-1],"loss_changes":[7.415266E2,9.923028E2,1.9556885E2,3.1982043E2,5.467448E2,7.5531006E-1,2.4153355E2,4.9192084E2,5.4124023E2,7.488019E2,2.7711316E2,2.5340576E0,0E0,2.269649E2,1.399884E1,0E0,0E0,0E0,0E0,0E0,0E0,0E0,0E0,0E0,0E0,0E0,0E0,0E0,0E0],"parents":[2147483647,0,0,1,1,2,2,3,3,4,4,5,5,6,6,7,7,8,8,9,9,10,10,11,11,13,13,14,14],"right_children":[2,4,6,8,10,12,14,16,18,20,22,24,-1,26,28,-1,-1,-1,-1,-1,-1,-1,-1,-1,-1,-1,-1,-1,-1],"split_conditions":[2.2E1,7E0,3E0,6E0,1.8E1,2E0,7E0,5E0,5E0,1.5E1,7E0,2.3E1,-1.0200681E-1,5E0,2.3E1,-4.8720114E-2,6.266616E-2,-5.3861853E-2,-2.4381728E-1,1.4393288E-2,7.964881E-2,2.1160846E-3,-6.830979E-2,-1.2270849E-1,-9.7522855E-2,-6.2348336E-2,2.5806567E-2,-9.669759E-2,-1.4206927E-1],"split_indices":[1,1,0,0,1,0,0,1,1,1,0,1,0,0,1,0,0,0,0,0,0,0,0,0,0,0,0,0,0],"split_type":[0,0,0,0,0,0,0,0,0,0,0,0,0,0,0,0,0,0,0,0,0,0,0,0,0,0,0,0,0],"sum_hessian":[1.7204E4,1.5185E4,2.019E3,3.101E3,1.2084E4,5.53E2,1.466E3,2.152E3,9.49E2,8.027E3,4.057E3,2.56E2,2.97E2,1.167E3,2.99E2,1.629E3,5.23E2,7.63E2,1.86E2,5.426E3,2.601E3,3.389E3,6.68E2,1.61E2,9.5E1,5.7E2,5.97E2,1.62E2,1.37E2],"tree_param":{"num_deleted":"0","num_feature":"2","num_nodes":"29","size_leaf_vector":"1"}},{"base_weights":[-9.1942307E-4,8.6749956E-2,-4.0814453E-1,-6.219143E-1,1.4891542E-1,-2.056169E-1,-1.1913974E0,-7.105121E-1,-4.416753E-1,3.2783198E-1,-1.2799674E-1,-8.636996E-1,1.6162051E-1,-1.7181066E-1,-1.0290463E0,-5.3354282E-2,-8.1064366E-2,-5.1858416E-3,-5.7188924E-2,1.2602093E-2,8.852007E-2,-4.804505E-2,4.6721876E-2,-3.843833E-2,-1.14846826E-1,5.1957823E-2,-5.6505557E-2,-9.255209E-2,-1.2796529E-1],"categories":[],"categories_nodes":[],"categories_segments":[],"categories_sizes":[],"default_left":[0,0,0,0,0,0,0,0,0,0,0,0,0,0,0,0,0,0,0,0,0,0,0,0,0,0,0,0,0],"id":28,"left_children":[1,3,5,7,9,11,13,15,17,19,21,23,25,-1,27,-1,-1,-1,-1,-1,-1,-1,-1,-1,-1,-1,-1,-1,-1],"loss_changes":[6.142742E2,6.238154E2,4.8326035E2,1.7922516E1,6.449585E2,5.857123E2,5.176239E1,1.3105743E1,1.9208214E1,8.894053E2,1.0722306E3,1.1803558E2,4.050392E2,0E0,1.1294739E1,0E0,0E0,0E0,0E0,0E0,0E0,0E0,0E0,0E0,0E0,0E0,0E0,0E0,0E0],"parents":[2147483647,0,0,1,1,2,2,3,3,4,4,5,5,6,6,7,7,8,8,9,9,10,10,11,11,12,12,14,14],"right_children":[2,4,6,8,10,12,14,16,18,20,22,24,26,-1,28,-1,-1,-1,-1,-1,-1,-1,-1,-1,-1,-1,-1,-1,-1],"split_conditions":[7E0,3E0,2E1,5E0,1.8E1,1E1,2.1E1,2E0,1E0,1.5E1,5E0,4E0,1.7E1,-1.7181066E-1,2.3E1,-5.3354282E-2,-8.1064366E-2,-5.1858416E-3,-5.7188924E-2,1.2602093E-2,8.852007E-2,-4.804505E-2,4.6721876E-2,-3.843833E-2,-1.14846826E-1,5.1957823E-2,-5.6505557E-2,-9.255209E-2,-1.2796529E-1],"split_indices":[0,1,1,0,1,1,1,0,1,1,0,1,1,0,1,0,0,0,0,0,0,0,0,0,0,0,0,0,0],"split_type":[0,0,0,0,0,0,0,0,0,0,0,0,0,0,0,0,0,0,0,0,0,0,0,0,0,0,0,0,0],"sum_hessian":[1.7204E4,1.4157E4,3.047E3,1.141E3,1.3016E4,2.422E3,6.25E2,7.63E2,3.78E2,7.907E3,5.109E3,8.67E2,1.555E3,1.45E2,4.8E2,2.78E2,4.85E2,9.5E1,2.83E2,5.806E3,2.101E3,3.209E3,1.9E3,3.24E2,5.43E2,1.042E3,5.13E2,3.43E2,1.37E2],"tree_param":{"num_deleted":"0","num_feature":"2","num_nodes":"29","size_leaf_vector":"1"}},{"base_weights":[-8.6494285E-4,3.9428707E-2,-8.218032E-1,-3.9608327E-1,1.2543443E-1,-1.0166831E0,-5.35296E-1,-8.2552865E-2,-6.189331E-1,2.1446688E-1,-2.872575E-1,-8.677011E-2,-1.2125329E0,-8.647267E-3,-1.1526146E-1,-3.255066E-2,1.8463065E-1,-4.7933586E-2,-1.6507398E-1,-1.4572001E-2,3.733861E-2,5.293224E-3,-7.7247106E-2,-1.1346888E-1,-1.3453388E-1],"categories":[],"categories_nodes":[],"categories_segments":[],"categories_sizes":[],"default_left":[0,0,0,0,0,0,0,0,0,0,0,0,0,0,0,0,0,0,0,0,0,0,0,0,0],"id":29,"left_children":[1,3,5,7,9,11,13,15,17,19,21,-1,23,-1,-1,-1,-1,-1,-1,-1,-1,-1,-1,-1,-1],"loss_changes":[5.691498E2,6.143741E2,4.4402527E1,1.8894781E2,5.033301E2,1.2894989E1,9.077831E1,5.278024E2,2.2693188E2,6.449844E2,4.0131314E2,0E0,5.82428E-1,0E0,0E0,0E0,0E0,0E0,0E0,0E0,0E0,0E0,0E0,0E0,0E0],"parents":[2147483647,0,0,1,1,2,2,3,3,4,4,5,5,6,6,7,7,8,8,9,9,10,10,12,12],"right_children":[2,4,6,8,10,12,14,16,18,20,22,-1,24,-1,-1,-1,-1,-1,-1,-1,-1,-1,-1,-1,-1],"split_conditions":[2.3E1,6E0,6E0,4E0,7E0,4E0,7E0,5E0,5E0,3E0,1.7E1,-8.677011E-2,5E0,-8.647267E-3,-1.1526146E-1,-3.255066E-2,1.8463065E-1,-4.7933586E-2,-1.6507398E-1,-1.4572001E-2,3.733861E-2,5.293224E-3,-7.7247106E-2,-1.1346888E-1,-1.3453388E-1],"split_indices":[1,1,0,0,0,0,0,1,1,0,1,0,0,0,0,0,0,0,0,0,0,0,0,0,0],"split_type":[0,0,0,0,0,0,0,0,0,0,0,0,0,0,0,0,0,0,0,0,0,0,0,0,0],"sum_hessian":[1.7204E4,1.64E4,8.04E2,2.704E3,1.3696E4,4.77E2,3.27E2,1.124E3,1.58E3,1.1266E4,2.43E3,2.74E2,2.03E2,1.9E2,1.37E2,9.99E2,1.25E2,1.393E3,1.87E2,3.449E3,7.817E3,1.429E3,1.001E3,1.34E2,6.9E1],"tree_param":{"num_deleted":"0","num_feature":"2","num_nodes":"25","size_leaf_vector":"1"}},{"base_weights":[-8.1132964E-4,5.9793938E-2,-4.5643052E-1,-2.0765297E-1,2.1908125E-1,-8.793138E-1,-2.9642114E-1,-4.813001E-1,-1.1401327E-1,4.3018818E-1,-6.506708E-2,-9.241459E-1,-8.032017E-2,-1.1516054E-2,-7.163124E-1,-6.487856E-2,-3.764339E-2,-4.8782993E-3,-4.3797668E-2,7.717054E-2,1.3295251E-2,-6.57878E-2,3.3781833E-3,-1.0429033E-1,-8.127489E-2,1.4637865E-2,-7.0211366E-2,-1.0023681E-1,-4.821444E-2],"categories":[],"categories_nodes":[],"categories_segments":[],"categories_sizes":[],"default_left":[0,0,0,0,0,0,0,0,0,0,0,0,0,0,0,0,0,0,0,0,0,0,0,0,0,0,0,0,0],"id":30,"left_children":[1,3,5,7,9,11,13,15,17,19,21,23,-1,25,27,-1,-1,-1,-1,-1,-1,-1,-1,-1,-1,-1,-1,-1,-1],"loss_changes":[4.7510764E2,6.469828E2,1.3642322E2,1.452089E2,5.709717E2,1.1481323E0,1.754877E2,2.5135132E1,8.926228E1,5.5424945E2,2.378158E2,3.6767883E0,0E0,9.551426E1,3.923889E1,0E0,0E0,0E0,0E0,0E0,0E0,0E0,0E0,0E0,0E0,0E0,0E0,0E0,0E0],"parents":[2147483647,0,0,1,1,2,2,3,3,4,4,5,5,6,6,7,7,8,8,9,9,10,10,11,11,13,13,14,14],"right_children":[2,4,6,8,10,12,14,16,18,20,22,24,-1,26,28,-1,-1,-1,-1,-1,-1,-1,-1,-1,-1,-1,-1,-1,-1],"split_conditions":[2.2E1,1.1E1,3E0,3E0,1.8E1,2.3E1,2.3E1,4E0,7E0,5E0,2E0,2E0,-8.032017E-2,7E0,6E0,-6.487856E-2,-3.764339E-2,-4.8782993E-3,-4.3797668E-2,7.717054E-2,1.3295251E-2,-6.57878E-2,3.3781833E-3,-1.0429033E-1,-8.127489E-2,1.4637865E-2,-7.0211366E-2,-1.0023681E-1,-4.821444E-2],"split_indices":[1,1,0,1,1,1,1,0,0,0,0,0,0,0,0,0,0,0,0,0,0,0,0,0,0,0,0,0,0],"split_type":[0,0,0,0,0,0,0,0,0,0,0,0,0,0,0,0,0,0,0,0,0,0,0,0,0,0,0,0,0],"sum_hessian":[1.7204E4,1.5185E4,2.019E3,5.668E3,9.517E3,5.53E2,1.466E3,1.444E3,4.224E3,5.46E3,4.057E3,3.41E2,2.12E2,8.74E2,5.92E2,5.54E2,8.9E2,3.517E3,7.07E2,2.54E3,2.92E3,5.79E2,3.478E3,1.61E2,1.8E2,7.12E2,1.62E2,2.65E2,3.27E2],"tree_param":{"num_deleted":"0","num_feature":"2","num_nodes":"29","size_leaf_vector":"1"}},{"base_weights":[-7.647825E-4,7.170304E-2,-3.120706E-1,-1.869141E-1,2.4856743E-1,-5.509694E-1,-3.0021599E-2,-4.3324104E-1,-1.0262314E-1,4.32056E-1,3.295609E-2,-9.279867E-1,-4.2449817E-1,3.375644E-1,-8.025776E-1,-5.84024E-2,-3.388327E-2,-4.0111523E-3,-4.099595E-2,2.0500425E-2,8.3288126E-2,1.7948672E-2,-6.683953E-2,-9.980425E-2,-6.658271E-2,-3.058507E-2,-8.032717E-2,5.651126E-2,-3.2187328E-2,-7.24928E-2,-9.903233E-2],"categories":[],"categories_nodes":[],"categories_segments":[],"categories_sizes":[],"default_left":[0,0,0,0,0,0,0,0,0,0,0,0,0,0,0,0,0,0,0,0,0,0,0,0,0,0,0,0,0,0,0],"id":31,"left_children":[1,3,5,7,9,11,13,15,17,19,21,23,25,27,29,-1,-1,-1,-1,-1,-1,-1,-1,-1,-1,-1,-1,-1,-1,-1,-1],"loss_changes":[3.8816125E2,6.384419E2,2.1890488E2,1.1766179E2,3.27917E2,8.347839E1,4.2368628E2,2.0371918E1,8.115465E1,4.0736334E2,3.9187714E2,7.4348145E0,5.9030884E1,1.5188632E2,6.294281E0,0E0,0E0,0E0,0E0,0E0,0E0,0E0,0E0,0E0,0E0,0E0,0E0,0E0,0E0,0E0,0E0],"parents":[2147483647,0,0,1,1,2,2,3,3,4,4,5,5,6,6,7,7,8,8,9,9,10,10,11,11,12,12,13,13,14,14],"right_children":[2,4,6,8,10,12,14,16,18,20,22,24,26,28,30,-1,-1,-1,-1,-1,-1,-1,-1,-1,-1,-1,-1,-1,-1,-1,-1],"split_conditions":[2.1E1,1.1E1,5E0,3E0,1.7E1,2E0,7E0,4E0,1E1,1.5E1,7E0,2.3E1,2.3E1,2.3E1,2.3E1,-5.84024E-2,-3.388327E-2,-4.0111523E-3,-4.099595E-2,2.0500425E-2,8.3288126E-2,1.7948672E-2,-6.683953E-2,-9.980425E-2,-6.658271E-2,-3.058507E-2,-8.032717E-2,5.651126E-2,-3.2187328E-2,-7.24928E-2,-9.903233E-2],"split_indices":[1,1,0,1,1,0,0,0,1,1,0,1,1,1,1,0,0,0,0,0,0,0,0,0,0,0,0,0,0,0,0],"split_type":[0,0,0,0,0,0,0,0,0,0,0,0,0,0,0,0,0,0,0,0,0,0,0,0,0,0,0,0,0,0,0],"sum_hessian":[1.7204E4,1.3956E4,3.248E3,5.668E3,8.288E3,1.758E3,1.49E3,1.444E3,4.224E3,4.477E3,3.811E3,4.4E2,1.318E3,1.01E3,4.8E2,5.54E2,8.9E2,3.511E3,7.13E2,2.859E3,1.618E3,3.153E3,6.58E2,3.45E2,9.5E1,1.005E3,3.13E2,7.51E2,2.59E2,3.43E2,1.37E2],"tree_param":{"num_deleted":"0","num_feature":"2","num_nodes":"31","size_leaf_vector":"1"}},{"base_weights":[-7.177512E-4,6.312191E-2,-2.9725358E-1,-2.7174574E-1,1.2555005E-1,-1.4564307E-1,-8.836034E-1,-8.94961E-3,-5.4002357E-1,-1.7211023E-1,2.5729263E-1,-6.9732594E-1,1.6220164E-1,-1.407728E-1,-7.226766E-1,-2.2073528E-2,1.67196E-1,-3.4656245E-2,-1.4777015E-1,-1.7698316E-1,-1.0856974E-2,1.4502244E-1,2.2497928E-2,-2.2850323E-2,-9.761312E-2,1.761841E-1,-9.3371804E-5,-6.526461E-2,-8.920085E-2],"categories":[],"categories_nodes":[],"categories_segments":[],"categories_sizes":[],"default_left":[0,0,0,0,0,0,0,0,0,0,0,0,0,0,0,0,0,0,0,0,0,0,0,0,0,0,0,0,0],"id":32,"left_children":[1,3,5,7,9,11,13,15,17,19,21,23,25,-1,27,-1,-1,-1,-1,-1,-1,-1,-1,-1,-1,-1,-1,-1,-1],"loss_changes":[3.2572223E2,2.9600946E2,2.7082874E2,1.5686298E2,4.6803058E2,4.1161765E2,5.178305E1,4.0086066E2,1.9921393E2,3.715741E2,3.185782E2,1.1323346E2,4.0605188E2,0E0,5.1217194E0,0E0,0E0,0E0,0E0,0E0,0E0,0E0,0E0,0E0,0E0,0E0,0E0,0E0,0E0],"parents":[2147483647,0,0,1,1,2,2,3,3,4,4,5,5,6,6,7,7,8,8,9,9,10,10,11,11,12,12,14,14],"right_children":[2,4,6,8,10,12,14,16,18,20,22,24,26,-1,28,-1,-1,-1,-1,-1,-1,-1,-1,-1,-1,-1,-1,-1,-1],"split_conditions":[7E0,6E0,2E1,4E0,3E0,1E1,2.1E1,5E0,5E0,7E0,7E0,4E0,1.1E1,-1.407728E-1,2.3E1,-2.2073528E-2,1.67196E-1,-3.4656245E-2,-1.4777015E-1,-1.7698316E-1,-1.0856974E-2,1.4502244E-1,2.2497928E-2,-2.2850323E-2,-9.761312E-2,1.761841E-1,-9.3371804E-5,-6.526461E-2,-8.920085E-2],"split_indices":[0,1,1,0,0,1,1,1,1,1,1,1,1,0,1,0,0,0,0,0,0,0,0,0,0,0,0,0,0],"split_type":[0,0,0,0,0,0,0,0,0,0,0,0,0,0,0,0,0,0,0,0,0,0,0,0,0,0,0,0,0],"sum_hessian":[1.7204E4,1.4157E4,3.047E3,2.224E3,1.1933E4,2.422E3,6.25E2,1.124E3,1.1E3,3.661E3,8.272E3,8.67E2,1.555E3,1.45E2,4.8E2,9.99E2,1.25E2,9.13E2,1.87E2,1.39E2,3.522E3,2.17E2,8.055E3,3.24E2,5.43E2,1.43E2,1.412E3,3.43E2,1.37E2],"tree_param":{"num_deleted":"0","num_feature":"2","num_nodes":"29","size_leaf_vector":"1"}},{"base_weights":[-6.6313724E-4,4.8550095E-2,-3.7063912E-1,-1.5753381E-1,1.7129028E-1,-5.812494E-1,-1.06317356E-1,-3.6264828E-1,-8.734495E-2,3.4109145E-1,-5.72596E-2,-7.1370107E-1,-4.517232E-1,1.6097589E-1,-6.387675E-1,-4.684723E-2,-2.435688E-2,-2.003677E-3,-4.1829597E-2,6.526193E-2,6.9974246E-3,-2.7597813E-2,1.7424284E-2,-7.5836726E-2,-6.3863285E-2,-2.8580217E-2,-7.652698E-2,5.2342504E-2,-3.1222124E-2,-4.954209E-2,-8.0345385E-2],"categories":[],"categories_nodes":[],"categories_segments":[],"categories_sizes":[],"default_left":[0,0,0,0,0,0,0,0,0,0,0,0,0,0,0,0,0,0,0,0,0,0,0,0,0,0,0,0,0,0,0],"id":33,"left_children":[1,3,5,7,9,11,13,15,17,19,21,23,25,27,29,-1,-1,-1,-1,-1,-1,-1,-1,-1,-1,-1,-1,-1,-1,-1,-1],"loss_changes":[3.132817E2,3.8415347E2,1.1238937E2,8.158351E1,3.6939444E2,1.8960907E1,1.2776416E2,1.8095016E1,9.410649E1,4.6119336E2,2.0552036E2,1.37323E0,2.9486961E1,1.0272634E2,6.68412E0,0E0,0E0,0E0,0E0,0E0,0E0,0E0,0E0,0E0,0E0,0E0,0E0,0E0,0E0,0E0,0E0],"parents":[2147483647,0,0,1,1,2,2,3,3,4,4,5,5,6,6,7,7,8,8,9,9,10,10,11,11,12,12,13,13,14,14],"right_children":[2,4,6,8,10,12,14,16,18,20,22,24,26,28,30,-1,-1,-1,-1,-1,-1,-1,-1,-1,-1,-1,-1,-1,-1,-1,-1],"split_conditions":[2.2E1,1.1E1,5E0,3E0,1.8E1,3E0,7E0,5E0,1E1,5E0,5E0,2.3E1,2.3E1,2.3E1,2.3E1,-4.684723E-2,-2.435688E-2,-2.003677E-3,-4.1829597E-2,6.526193E-2,6.9974246E-3,-2.7597813E-2,1.7424284E-2,-7.5836726E-2,-6.3863285E-2,-2.8580217E-2,-7.652698E-2,5.2342504E-2,-3.1222124E-2,-4.954209E-2,-8.0345385E-2],"split_indices":[1,1,0,1,1,0,0,0,1,0,0,1,1,1,1,0,0,0,0,0,0,0,0,0,0,0,0,0,0,0,0],"split_type":[0,0,0,0,0,0,0,0,0,0,0,0,0,0,0,0,0,0,0,0,0,0,0,0,0,0,0,0,0,0,0],"sum_hessian":[1.7204E4,1.5185E4,2.019E3,5.668E3,9.517E3,1.123E3,8.96E2,1.444E3,4.224E3,5.46E3,4.057E3,5.53E2,5.7E2,5.97E2,2.99E2,7.63E2,6.81E2,3.511E3,7.13E2,2.54E3,2.92E3,2.086E3,1.971E3,3.41E2,2.12E2,3.74E2,1.96E2,3.38E2,2.59E2,1.62E2,1.37E2],"tree_param":{"num_deleted":"0","num_feature":"2","num_nodes":"31","size_leaf_vector":"1"}},{"base_weights":[-6.2050123E-4,5.8620516E-2,-2.5510687E-1,-1.4180036E-1,1.9568497E-1,-4.5444578E-1,-1.9766668E-2,-3.2643268E-1,-7.862035E-2,3.2489845E-1,-1.783202E-2,-7.7177435E-1,-3.4800428E-1,2.6473767E-1,-6.17717E-1,-4.5693032E-2,-2.447799E-2,-1.8033177E-3,-3.7652448E-2,5.0555725E-2,7.463594E-4,6.3919716E-2,-9.771546E-3,-8.3773665E-2,-5.2599616E-2,-9.603991E-3,-4.7881063E-2,4.531127E-2,-2.81119E-2,-5.7340857E-2,-7.236909E-2],"categories":[],"categories_nodes":[],"categories_segments":[],"categories_sizes":[],"default_left":[0,0,0,0,0,0,0,0,0,0,0,0,0,0,0,0,0,0,0,0,0,0,0,0,0,0,0,0,0,0,0],"id":34,"left_children":[1,3,5,7,9,11,13,15,17,19,21,23,25,27,29,-1,-1,-1,-1,-1,-1,-1,-1,-1,-1,-1,-1,-1,-1,-1,-1],"loss_changes":[2.593981E2,3.834346E2,1.5240956E2,6.610362E1,2.2869327E2,5.914508E1,2.5381166E2,1.5285339E1,7.625095E1,2.9613812E2,1.6413292E2,6.708893E0,4.342633E1,1.0408421E2,1.8435822E0,0E0,0E0,0E0,0E0,0E0,0E0,0E0,0E0,0E0,0E0,0E0,0E0,0E0,0E0,0E0,0E0],"parents":[2147483647,0,0,1,1,2,2,3,3,4,4,5,5,6,6,7,7,8,8,9,9,10,10,11,11,12,12,13,13,14,14],"right_children":[2,4,6,8,10,12,14,16,18,20,22,24,26,28,30,-1,-1,-1,-1,-1,-1,-1,-1,-1,-1,-1,-1,-1,-1,-1,-1],"split_conditions":[2.1E1,1.1E1,5E0,3E0,6E0,2E0,7E0,4E0,1E1,1.8E1,1.2E1,2.3E1,2.2E1,2.3E1,2.3E1,-4.5693032E-2,-2.447799E-2,-1.8033177E-3,-3.7652448E-2,5.0555725E-2,7.463594E-4,6.3919716E-2,-9.771546E-3,-8.3773665E-2,-5.2599616E-2,-9.603991E-3,-4.7881063E-2,4.531127E-2,-2.81119E-2,-5.7340857E-2,-7.236909E-2],"split_indices":[1,1,0,1,0,0,0,0,1,1,1,1,1,1,1,0,0,0,0,0,0,0,0,0,0,0,0,0,0,0,0],"split_type":[0,0,0,0,0,0,0,0,0,0,0,0,0,0,0,0,0,0,0,0,0,0,0,0,0,0,0,0,0,0,0],"sum_hessian":[1.7204E4,1.3956E4,3.248E3,5.668E3,8.288E3,1.758E3,1.49E3,1.444E3,4.224E3,5.163E3,3.125E3,4.4E2,1.318E3,1.01E3,4.8E2,5.54E2,8.9E2,3.511E3,7.13E2,3.29E3,1.873E3,3.38E2,2.787E3,3.45E2,9.5E1,4.51E2,8.67E2,7.51E2,2.59E2,3.43E2,1.37E2],"tree_param":{"num_deleted":"0","num_feature":"2","num_nodes":"31","size_leaf_vector":"1"}},{"base_weights":[-5.7669356E-4,5.2581422E-2,-2.4749665E-1,9.600119E-2,-2.6125222E-1,-5.630636E-2,-5.678882E-1,-9.3483604E-2,2.0946053E-1,-4.2181516E-1,3.9697367E-1,-4.041591E-1,8.9175296E-1,-1.5920341E-1,-3.853252E-1,1.1330083E-3,-8.4390335E-2,3.643344E-2,8.793682E-4,-3.0023748E-2,-6.51625E-2,8.5658945E-2,3.8753257E-3,-3.0263856E-2,-2.5154993E-1,1.3003598E-1,2.0184057E-2,2.3548286E-2,-7.248649E-2],"categories":[],"categories_nodes":[],"categories_segments":[],"categories_sizes":[],"default_left":[0,0,0,0,0,0,0,0,0,0,0,0,0,0,0,0,0,0,0,0,0,0,0,0,0,0,0,0,0],"id":35,"left_children":[1,3,5,7,9,11,13,15,17,19,21,23,25,-1,27,-1,-1,-1,-1,-1,-1,-1,-1,-1,-1,-1,-1,-1,-1],"loss_changes":[2.258424E2,1.9295027E2,1.8667554E2,2.6742188E2,1.8205424E2,6.302498E2,2.1234671E2,3.6645975E2,2.4178409E2,3.8472946E1,5.561639E1,2.988922E2,1.4435382E2,0E0,2.0421442E2,0E0,0E0,0E0,0E0,0E0,0E0,0E0,0E0,0E0,0E0,0E0,0E0,0E0,0E0],"parents":[2147483647,0,0,1,1,2,2,3,3,4,4,5,5,6,6,7,7,8,8,9,9,10,10,11,11,12,12,14,14],"right_children":[2,4,6,8,10,12,14,16,18,20,22,24,26,-1,28,-1,-1,-1,-1,-1,-1,-1,-1,-1,-1,-1,-1,-1,-1],"split_conditions":[7E0,2.2E1,1.7E1,1.1E1,6E0,1.4E1,1.8E1,1E1,1.8E1,2.3E1,2.3E1,1.3E1,1.6E1,-1.5920341E-1,2E1,1.1330083E-3,-8.4390335E-2,3.643344E-2,8.793682E-4,-3.0023748E-2,-6.51625E-2,8.5658945E-2,3.8753257E-3,-3.0263856E-2,-2.5154993E-1,1.3003598E-1,2.0184057E-2,2.3548286E-2,-7.248649E-2],"split_indices":[0,1,1,1,0,1,1,1,1,1,1,1,1,0,1,0,0,0,0,0,0,0,0,0,0,0,0,0,0],"split_type":[0,0,0,0,0,0,0,0,0,0,0,0,0,0,0,0,0,0,0,0,0,0,0,0,0,0,0,0,0],"sum_hessian":[1.7204E4,1.4157E4,3.047E3,1.2437E4,1.72E3,1.909E3,1.138E3,4.658E3,7.779E3,1.383E3,3.37E2,1.397E3,5.12E2,1.71E2,9.67E2,4.088E3,5.7E2,4.39E3,3.389E3,9.06E2,4.77E2,1.47E2,1.9E2,1.334E3,6.3E1,3.21E2,1.91E2,3.42E2,6.25E2],"tree_param":{"num_deleted":"0","num_feature":"2","num_nodes":"29","size_leaf_vector":"1"}},{"base_weights":[-5.419065E-4,4.7319442E-2,-2.2285831E-1,-1.1621083E-1,1.2278358E-1,-5.77982E-1,-8.14231E-2,1.1309448E-2,-4.797797E-1,-3.8595867E-1,2.0984465E-1,-1.297772E-1,-8.4468895E-1,1.6958657E-1,-2.0696193E-1,-2.9089022E-2,4.2812847E-2,-4.2399812E-2,-5.401324E-2,-3.0582184E-2,-7.394154E-2,1.3085285E-1,1.800876E-2,3.1788272E-3,-2.5689615E-2,-1.0539317E-1,-5.0687462E-2,1.7840212E-2,-5.112821E-2],"categories":[],"categories_nodes":[],"categories_segments":[],"categories_sizes":[],"default_left":[0,0,0,0,0,0,0,0,0,0,0,0,0,0,0,0,0,0,0,0,0,0,0,0,0,0,0,0,0],"id":36,"left_children":[1,3,5,7,9,11,13,15,17,19,21,23,25,-1,27,-1,-1,-1,-1,-1,-1,-1,-1,-1,-1,-1,-1,-1,-1],"loss_changes":[1.83078E2,1.7473349E2,1.5304482E2,2.0729172E2,4.2917844E2,1.0365054E2,4.8697302E2,4.1718658E2,3.6795654E0,3.9881912E1,2.7023853E2,6.683027E0,3.791855E1,0E0,2.3909575E2,0E0,0E0,0E0,0E0,0E0,0E0,0E0,0E0,0E0,0E0,0E0,0E0,0E0,0E0],"parents":[2147483647,0,0,1,1,2,2,3,3,4,4,5,5,6,6,7,7,8,8,9,9,10,10,11,11,12,12,14,14],"right_children":[2,4,6,8,10,12,14,16,18,20,22,24,26,-1,28,-1,-1,-1,-1,-1,-1,-1,-1,-1,-1,-1,-1,-1,-1],"split_conditions":[7E0,3E0,1E1,2E1,6E0,4E0,1.1E1,1.3E1,2.2E1,5E0,7E0,1E0,8E0,1.6958657E-1,1.7E1,-2.9089022E-2,4.2812847E-2,-4.2399812E-2,-5.401324E-2,-3.0582184E-2,-7.394154E-2,1.3085285E-1,1.800876E-2,3.1788272E-3,-2.5689615E-2,-1.0539317E-1,-5.0687462E-2,1.7840212E-2,-5.112821E-2],"split_indices":[0,0,1,1,1,1,1,1,1,1,1,1,1,0,1,0,0,0,0,0,0,0,0,0,0,0,0,0,0],"split_type":[0,0,0,0,0,0,0,0,0,0,0,0,0,0,0,0,0,0,0,0,0,0,0,0,0,0,0,0,0],"sum_hessian":[1.7204E4,1.4157E4,3.047E3,4.47E3,9.687E3,8.67E2,2.18E3,3.31E3,1.16E3,1.415E3,8.272E3,3.24E2,5.43E2,1.43E2,2.037E3,1.919E3,1.391E3,6.07E2,5.53E2,1.155E3,2.6E2,2.17E2,8.055E3,1.43E2,1.81E2,3.34E2,2.09E2,8.99E2,1.138E3],"tree_param":{"num_deleted":"0","num_feature":"2","num_nodes":"29","size_leaf_vector":"1"}},{"base_weights":[-4.9252954E-4,2.0426659E-2,-4.2669764E-1,-1.8664922E-1,6.872207E-2,-5.726272E-1,-2.1273117E-1,-1.0427246E-2,-5.858274E-1,1.572631E-1,-6.609228E-2,-3.99816E-1,-8.027764E-1,1.6982917E-3,-5.2912723E-2,-2.0035723E-2,5.804054E-2,-1.9745184E-2,-2.169427E-1,3.245835E-3,4.1750833E-2,-2.7539099E-2,1.7117351E-2,-3.5601016E-2,-4.209579E-2,-6.9487445E-2,-9.994049E-2],"categories":[],"categories_nodes":[],"categories_segments":[],"categories_sizes":[],"default_left":[0,0,0,0,0,0,0,0,0,0,0,0,0,0,0,0,0,0,0,0,0,0,0,0,0,0,0],"id":37,"left_children":[1,3,5,7,9,11,13,15,17,19,21,23,25,-1,-1,-1,-1,-1,-1,-1,-1,-1,-1,-1,-1,-1,-1],"loss_changes":[1.5340617E2,1.640362E2,2.501352E1,2.182009E2,1.5876718E2,1.8690231E1,2.3848236E1,2.4171913E2,5.838514E2,2.6073465E2,2.6190125E2,1.04824066E-1,3.633728E0,0E0,0E0,0E0,0E0,0E0,0E0,0E0,0E0,0E0,0E0,0E0,0E0,0E0,0E0],"parents":[2147483647,0,0,1,1,2,2,3,3,4,4,5,5,6,6,7,7,8,8,9,9,10,10,11,11,12,12],"right_children":[2,4,6,8,10,12,14,16,18,20,22,24,26,-1,-1,-1,-1,-1,-1,-1,-1,-1,-1,-1,-1,-1,-1],"split_conditions":[2.3E1,7E0,6E0,6E0,1.8E1,4E0,7E0,5E0,5E0,1.5E1,5E0,2E0,5E0,1.6982917E-3,-5.2912723E-2,-2.0035723E-2,5.804054E-2,-1.9745184E-2,-2.169427E-1,3.245835E-3,4.1750833E-2,-2.7539099E-2,1.7117351E-2,-3.5601016E-2,-4.209579E-2,-6.9487445E-2,-9.994049E-2],"split_indices":[1,1,0,0,1,0,0,1,1,1,0,0,0,0,0,0,0,0,0,0,0,0,0,0,0,0,0],"split_type":[0,0,0,0,0,0,0,0,0,0,0,0,0,0,0,0,0,0,0,0,0,0,0,0,0,0,0],"sum_hessian":[1.7204E4,1.64E4,8.04E2,3.101E3,1.3299E4,4.77E2,3.27E2,2.152E3,9.49E2,8.027E3,5.272E3,2.74E2,2.03E2,1.9E2,1.37E2,1.629E3,5.23E2,7.63E2,1.86E2,5.426E3,2.601E3,2.801E3,2.471E3,9.5E1,1.79E2,1.34E2,6.9E1],"tree_param":{"num_deleted":"0","num_feature":"2","num_nodes":"27","size_leaf_vector":"1"}},{"base_weights":[-4.701755E-4,4.3522794E-2,-2.0481794E-1,-9.979573E-2,1.0965962E-1,-4.5037232E-2,-4.725759E-1,1.8570894E-1,-2.3328584E-1,-3.3229342E-1,1.852907E-1,-3.3936363E-1,7.5713307E-1,-1.4244331E-1,-3.0295604E-1,-2.9313087E-2,8.0612816E-2,-6.8346685E-1,-4.153966E-3,-2.5531877E-2,-6.719502E-2,1.24159455E-1,1.5668351E-2,-2.456612E-2,-2.2886352E-1,1.1332065E-1,1.224831E-2,2.4591504E-2,-6.0321134E-2],"categories":[],"categories_nodes":[],"categories_segments":[],"categories_sizes":[],"default_left":[0,0,0,0,0,0,0,0,0,0,0,0,0,0,0,0,0,0,0,0,0,0,0,0,0,0,0,0,0],"id":38,"left_children":[1,3,5,7,9,11,13,15,17,19,21,23,25,-1,27,-1,-1,-1,-1,-1,-1,-1,-1,-1,-1,-1,-1,-1,-1],"loss_changes":[1.5467953E2,1.3420943E2,1.3037997E2,1.7044229E2,3.238867E2,4.5120776E2,1.8346443E2,4.2357733E2,3.856578E3,3.6849716E1,2.497981E2,2.5478459E2,1.2230145E2,0E0,1.5967615E2,0E0,0E0,0E0,0E0,0E0,0E0,0E0,0E0,0E0,0E0,0E0,0E0,0E0,0E0],"parents":[2147483647,0,0,1,1,2,2,3,3,4,4,5,5,6,6,7,7,8,8,9,9,10,10,11,11,12,12,14,14],"right_children":[2,4,6,8,10,12,14,16,18,20,22,24,26,-1,28,-1,-1,-1,-1,-1,-1,-1,-1,-1,-1,-1,-1,-1,-1],"split_conditions":[7E0,3E0,1.7E1,1E1,6E0,1.4E1,1.8E1,2E0,1.1E1,5E0,7E0,1.3E1,1.6E1,-1.4244331E-1,2E1,-2.9313087E-2,8.0612816E-2,-6.8346685E-1,-4.153966E-3,-2.5531877E-2,-6.719502E-2,1.24159455E-1,1.5668351E-2,-2.456612E-2,-2.2886352E-1,1.1332065E-1,1.224831E-2,2.4591504E-2,-6.0321134E-2],"split_indices":[0,0,1,1,1,1,1,0,1,1,1,1,1,0,1,0,0,0,0,0,0,0,0,0,0,0,0,0,0],"split_type":[0,0,0,0,0,0,0,0,0,0,0,0,0,0,0,0,0,0,0,0,0,0,0,0,0,0,0,0,0],"sum_hessian":[1.7204E4,1.4157E4,3.047E3,4.47E3,9.687E3,1.909E3,1.138E3,1.424E3,3.046E3,1.415E3,8.272E3,1.397E3,5.12E2,1.71E2,9.67E2,8.04E2,6.2E2,8.5E1,2.961E3,1.155E3,2.6E2,2.17E2,8.055E3,1.334E3,6.3E1,3.21E2,1.91E2,3.42E2,6.25E2],"tree_param":{"num_deleted":"0","num_feature":"2","num_nodes":"29","size_leaf_vector":"1"}},{"base_weights":[-4.752507E-4,3.912885E-2,-1.8443668E-1,7.437481E-2,-2.1562324E-1,-4.060059E-2,-4.2547485E-1,-2.7043515E-1,1.07052684E-1,-3.4519383E-1,3.1556407E-1,-3.056085E-1,6.816639E-1,-1.2828188E-1,-2.7269736E-1,-4.0363304E-2,-1.5897699E-2,-9.212672E-4,1.6027875E-2,-2.5125194E-2,-5.2272547E-2,7.210578E-2,-2.926382E-5,-2.211134E-2,-2.0633486E-1,1.0202371E-1,1.102979E-2,2.2139534E-2,-5.429867E-2],"categories":[],"categories_nodes":[],"categories_segments":[],"categories_sizes":[],"default_left":[0,0,0,0,0,0,0,0,0,0,0,0,0,0,0,0,0,0,0,0,0,0,0,0,0,0,0,0,0],"id":39,"left_children":[1,3,5,7,9,11,13,15,17,19,21,23,25,-1,27,-1,-1,-1,-1,-1,-1,-1,-1,-1,-1,-1,-1,-1,-1],"loss_changes":[1.2535644E2,1.2714047E2,1.0565683E2,1.4017604E2,1.1855891E2,3.6579337E2,1.4883965E2,1.5924957E1,7.031351E1,2.2950546E1,4.3290546E1,2.0717532E2,9.912694E1,0E0,1.2939465E2,0E0,0E0,0E0,0E0,0E0,0E0,0E0,0E0,0E0,0E0,0E0,0E0,0E0,0E0],"parents":[2147483647,0,0,1,1,2,2,3,3,4,4,5,5,6,6,7,7,8,8,9,9,10,10,11,11,12,12,14,14],"right_children":[2,4,6,8,10,12,14,16,18,20,22,24,26,-1,28,-1,-1,-1,-1,-1,-1,-1,-1,-1,-1,-1,-1,-1,-1],"split_conditions":[7E0,2.2E1,1.7E1,2E0,6E0,1.4E1,1.8E1,4E0,3E0,2.3E1,2.3E1,1.3E1,1.6E1,-1.2828188E-1,2E1,-4.0363304E-2,-1.5897699E-2,-9.212672E-4,1.6027875E-2,-2.5125194E-2,-5.2272547E-2,7.210578E-2,-2.926382E-5,-2.211134E-2,-2.0633486E-1,1.0202371E-1,1.102979E-2,2.2139534E-2,-5.429867E-2],"split_indices":[0,1,1,1,0,1,1,0,0,1,1,1,1,0,1,0,0,0,0,0,0,0,0,0,0,0,0,0,0],"split_type":[0,0,0,0,0,0,0,0,0,0,0,0,0,0,0,0,0,0,0,0,0,0,0,0,0,0,0,0,0],"sum_hessian":[1.7204E4,1.4157E4,3.047E3,1.2437E4,1.72E3,1.909E3,1.138E3,1.076E3,1.1361E4,1.383E3,3.37E2,1.397E3,5.12E2,1.71E2,9.67E2,4.89E2,5.87E2,3.568E3,7.793E3,9.06E2,4.77E2,1.47E2,1.9E2,1.334E3,6.3E1,3.21E2,1.91E2,3.42E2,6.25E2],"tree_param":{"num_deleted":"0","num_feature":"2","num_nodes":"29","size_leaf_vector":"1"}},{"base_weights":[-4.4626105E-4,4.4235993E-2,-1.365311E-1,-6.5436356E-2,1.8739358E-1,-3.1601176E-1,6.353458E-2,-2.7406327E-2,-3.9979997E-1,3.9081576E-1,-1.4001994E-1,-3.806861E-1,-2.4632326E-1,3.1276464E-1,-4.8877475E-1,-8.208237E-3,3.0990148E-2,-1.2718719E-1,2.3608604E-2,6.2156826E-2,-4.4884426E-3,-1.0110797E-1,-8.127593E-3,-5.0514806E-2,-3.4456614E-2,-1.901642E-2,-4.9764615E-2,4.382904E-2,-2.3302691E-2,-1.0559177E-1,-3.156113E-2],"categories":[],"categories_nodes":[],"categories_segments":[],"categories_sizes":[],"default_left":[0,0,0,0,0,0,0,0,0,0,0,0,0,0,0,0,0,0,0,0,0,0,0,0,0,0,0,0,0,0,0],"id":40,"left_children":[1,3,5,7,9,11,13,15,17,19,21,23,25,27,29,-1,-1,-1,-1,-1,-1,-1,-1,-1,-1,-1,-1,-1,-1,-1,-1],"loss_changes":[1.04622375E2,2.0337991E2,1.5273643E2,9.325986E1,3.7429797E2,1.0011078E1,2.771089E2,1.21507195E2,4.156495E2,3.4849567E2,1.1013699E2,5.045273E0,1.5176773E1,9.512674E1,6.1145218E1,0E0,0E0,0E0,0E0,0E0,0E0,0E0,0E0,0E0,0E0,0E0,0E0,0E0,0E0,0E0,0E0],"parents":[2147483647,0,0,1,1,2,2,3,3,4,4,5,5,6,6,7,7,8,8,9,9,10,10,11,11,12,12,13,13,14,14],"right_children":[2,4,6,8,10,12,14,16,18,20,22,24,26,28,30,-1,-1,-1,-1,-1,-1,-1,-1,-1,-1,-1,-1,-1,-1,-1,-1],"split_conditions":[2E1,1.3E1,5E0,1.2E1,6E0,3E0,7E0,1.1E1,5E0,1.8E1,1.4E1,2.1E1,2.3E1,2.3E1,2.1E1,-8.208237E-3,3.0990148E-2,-1.2718719E-1,2.3608604E-2,6.2156826E-2,-4.4884426E-3,-1.0110797E-1,-8.127593E-3,-5.0514806E-2,-3.4456614E-2,-1.901642E-2,-4.9764615E-2,4.382904E-2,-2.3302691E-2,-1.0559177E-1,-3.156113E-2],"split_indices":[1,1,0,1,0,0,0,1,0,1,1,1,1,1,1,0,0,0,0,0,0,0,0,0,0,0,0,0,0,0,0],"split_type":[0,0,0,0,0,0,0,0,0,0,0,0,0,0,0,0,0,0,0,0,0,0,0,0,0,0,0,0,0,0,0],"sum_hessian":[1.7204E4,1.2952E4,4.252E3,7.334E3,5.618E3,2.241E3,2.011E3,6.586E3,7.48E2,3.465E3,2.153E3,1.16E3,1.081E3,1.386E3,6.25E2,5.668E3,9.18E2,3.15E2,4.33E2,2.265E3,1.2E3,1.35E2,2.018E3,2.58E2,9.02E2,8.85E2,1.96E2,1.127E3,2.59E2,1.45E2,4.8E2],"tree_param":{"num_deleted":"0","num_feature":"2","num_nodes":"31","size_leaf_vector":"1"}},{"base_weights":[-4.2524497E-4,3.4005225E-2,-1.4833096E-1,-5.8904104E-2,1.3689756E-1,-5.326754E-1,-8.7937854E-2,-2.4662636E-2,-3.5995838E-1,3.053082E-1,-1.436612E-1,-6.1488116E-1,-2.3084348E-2,-1.0261845E-2,-3.1755993E-1,-7.387597E-3,2.7894458E-2,-1.14508666E-1,2.125313E-2,5.5943903E-2,-2.1441338E-4,-9.107145E-2,-9.92089E-3,-7.1528755E-2,-4.96424E-2,-1.4576869E-2,1.1424056E-2,-4.8068196E-2,-1.26116965E-2],"categories":[],"categories_nodes":[],"categories_segments":[],"categories_sizes":[],"default_left":[0,0,0,0,0,0,0,0,0,0,0,0,0,0,0,0,0,0,0,0,0,0,0,0,0,0,0,0,0],"id":41,"left_children":[1,3,5,7,9,11,13,15,17,19,21,23,-1,25,27,-1,-1,-1,-1,-1,-1,-1,-1,-1,-1,-1,-1,-1,-1],"loss_changes":[8.762087E1,1.3343222E2,7.536816E1,7.560426E1,3.1297455E2,1.0800293E1,5.009842E1,9.8440414E1,3.3690228E2,3.233941E2,8.46414E1,3.7601929E0,0E0,3.5445602E1,2.2111656E1,0E0,0E0,0E0,0E0,0E0,0E0,0E0,0E0,0E0,0E0,0E0,0E0,0E0,0E0],"parents":[2147483647,0,0,1,1,2,2,3,3,4,4,5,5,6,6,7,7,8,8,9,9,10,10,11,11,13,13,14,14],"right_children":[2,4,6,8,10,12,14,16,18,20,22,24,-1,26,28,-1,-1,-1,-1,-1,-1,-1,-1,-1,-1,-1,-1,-1,-1],"split_conditions":[2.1E1,1.3E1,2E0,1.2E1,6E0,2.3E1,2.3E1,1.1E1,5E0,1.8E1,1.4E1,2.2E1,-2.3084348E-2,5E0,6E0,-7.387597E-3,2.7894458E-2,-1.14508666E-1,2.125313E-2,5.5943903E-2,-2.1441338E-4,-9.107145E-2,-9.92089E-3,-7.1528755E-2,-4.96424E-2,-1.4576869E-2,1.1424056E-2,-4.8068196E-2,-1.26116965E-2],"split_indices":[1,1,0,1,0,1,1,1,0,1,1,1,0,0,0,0,0,0,0,0,0,0,0,0,0,0,0,0,0],"split_type":[0,0,0,0,0,0,0,0,0,0,0,0,0,0,0,0,0,0,0,0,0,0,0,0,0,0,0,0,0],"sum_hessian":[1.7204E4,1.3956E4,3.248E3,7.334E3,6.622E3,4.4E2,2.808E3,6.586E3,7.48E2,4.138E3,2.484E3,3.45E2,9.5E1,2.099E3,7.09E2,5.668E3,9.18E2,3.15E2,4.33E2,2.265E3,1.873E3,1.35E2,2.349E3,1.84E2,1.61E2,1.005E3,1.094E3,3.82E2,3.27E2],"tree_param":{"num_deleted":"0","num_feature":"2","num_nodes":"29","size_leaf_vector":"1"}},{"base_weights":[-4.0189794E-4,3.1078355E-2,-1.4662795E-1,-2.278624E-1,5.2393757E-2,-4.38316E-1,-3.047397E-2,-3.47788E-1,-1.2753688E-1,1.2174753E-1,-5.5827383E-2,-3.5102174E-2,-6.784009E-1,1.586074E-1,-1.4468026E-1,-1.0507722E-2,-5.340419E-2,-1.7946715E-2,-1.7812072E-3,5.037343E-3,4.4524875E-2,-2.3129921E-2,2.4050107E-2,1.1008099E-2,-1.497795E-2,-8.523478E-2,-3.976835E-2,1.1387743E-2,-3.4885697E-2],"categories":[],"categories_nodes":[],"categories_segments":[],"categories_sizes":[],"default_left":[0,0,0,0,0,0,0,0,0,0,0,0,0,0,0,0,0,0,0,0,0,0,0,0,0,0,0,0,0],"id":42,"left_children":[1,3,5,7,9,11,13,15,17,19,21,23,25,-1,27,-1,-1,-1,-1,-1,-1,-1,-1,-1,-1,-1,-1,-1,-1],"loss_changes":[7.9203186E1,7.815598E1,1.03255104E2,1.2913677E1,9.819433E1,8.40034E1,4.0288556E2,2.2094738E1,3.34725E0,1.8407103E2,2.6576178E2,5.427483E0,2.6224518E1,0E0,1.0762871E2,0E0,0E0,0E0,0E0,0E0,0E0,0E0,0E0,0E0,0E0,0E0,0E0,0E0,0E0],"parents":[2147483647,0,0,1,1,2,2,3,3,4,4,5,5,6,6,7,7,8,8,9,9,10,10,11,11,12,12,14,14],"right_children":[2,4,6,8,10,12,14,16,18,20,22,24,26,-1,28,-1,-1,-1,-1,-1,-1,-1,-1,-1,-1,-1,-1,-1,-1],"split_conditions":[7E0,2E0,1E1,4E0,1.8E1,4E0,1.1E1,2E0,6E0,1.6E1,5E0,1E0,8E0,1.586074E-1,1.7E1,-1.0507722E-2,-5.340419E-2,-1.7946715E-2,-1.7812072E-3,5.037343E-3,4.4524875E-2,-2.3129921E-2,2.4050107E-2,1.1008099E-2,-1.497795E-2,-8.523478E-2,-3.976835E-2,1.1387743E-2,-3.4885697E-2],"split_indices":[0,1,1,0,1,1,1,0,0,1,0,1,1,0,1,0,0,0,0,0,0,0,0,0,0,0,0,0,0],"split_type":[0,0,0,0,0,0,0,0,0,0,0,0,0,0,0,0,0,0,0,0,0,0,0,0,0,0,0,0,0],"sum_hessian":[1.7204E4,1.4157E4,3.047E3,1.076E3,1.3081E4,8.67E2,2.18E3,4.89E2,5.87E2,7.972E3,5.109E3,3.24E2,5.43E2,1.43E2,2.037E3,2.13E2,2.76E2,3.98E2,1.89E2,6.532E3,1.44E3,3.209E3,1.9E3,1.43E2,1.81E2,3.34E2,2.09E2,8.99E2,1.138E3],"tree_param":{"num_deleted":"0","num_feature":"2","num_nodes":"29","size_leaf_vector":"1"}},{"base_weights":[-3.6327593E-4,2.7968146E-2,-1.3196298E-1,-7.2899766E-2,7.451568E-2,-3.9463308E-1,-2.7364362E-2,1.9620605E-1,-1.987294E-1,-2.726366E-1,1.3392498E-1,-3.160424E-2,-6.1079067E-1,1.4285679E-1,-1.3022348E-1,-2.3784015E-2,7.585426E-2,-6.147805E-1,-2.5934253E-3,-1.961272E-2,-6.1046112E-2,1.1125602E-1,1.0742592E-2,-6.695855E-3,4.5836452E-2,-7.673676E-2,-3.5810467E-2,-5.8245957E-2,-2.3865008E-3],"categories":[],"categories_nodes":[],"categories_segments":[],"categories_sizes":[],"default_left":[0,0,0,0,0,0,0,0,0,0,0,0,0,0,0,0,0,0,0,0,0,0,0,0,0,0,0,0,0],"id":43,"left_children":[1,3,5,7,9,11,13,15,17,19,21,23,25,-1,27,-1,-1,-1,-1,-1,-1,-1,-1,-1,-1,-1,-1,-1,-1],"loss_changes":[6.4150925E1,6.647939E1,8.373279E1,1.5143369E2,1.998425E2,6.80939E1,3.2680368E2,3.4799445E2,3.1320688E3,3.6479256E1,2.1442343E2,5.660506E0,2.1248474E1,0E0,9.801216E1,0E0,0E0,0E0,0E0,0E0,0E0,0E0,0E0,0E0,0E0,0E0,0E0,0E0,0E0],"parents":[2147483647,0,0,1,1,2,2,3,3,4,4,5,5,6,6,7,7,8,8,9,9,10,10,11,11,12,12,14,14],"right_children":[2,4,6,8,10,12,14,16,18,20,22,24,26,-1,28,-1,-1,-1,-1,-1,-1,-1,-1,-1,-1,-1,-1,-1,-1],"split_conditions":[7E0,3E0,1E1,1E1,6E0,4E0,1.1E1,2E0,1.1E1,5E0,7E0,3E0,8E0,1.4285679E-1,1.4E1,-2.3784015E-2,7.585426E-2,-6.147805E-1,-2.5934253E-3,-1.961272E-2,-6.1046112E-2,1.1125602E-1,1.0742592E-2,-6.695855E-3,4.5836452E-2,-7.673676E-2,-3.5810467E-2,-5.8245957E-2,-2.3865008E-3],"split_indices":[0,0,1,1,1,1,1,0,1,1,1,1,1,0,1,0,0,0,0,0,0,0,0,0,0,0,0,0,0],"split_type":[0,0,0,0,0,0,0,0,0,0,0,0,0,0,0,0,0,0,0,0,0,0,0,0,0,0,0,0,0],"sum_hessian":[1.7204E4,1.4157E4,3.047E3,4.47E3,9.687E3,8.67E2,2.18E3,1.424E3,3.046E3,1.415E3,8.272E3,3.24E2,5.43E2,1.43E2,2.037E3,8.04E2,6.2E2,8.5E1,2.961E3,1.155E3,2.6E2,2.17E2,8.055E3,3.03E2,2.1E1,3.34E2,2.09E2,3.87E2,1.65E3],"tree_param":{"num_deleted":"0","num_feature":"2","num_nodes":"29","size_leaf_vector":"1"}},{"base_weights":[-3.5668802E-4,2.9465443E-2,-1.28466E-1,-1.22269765E-1,7.281964E-2,-4.540698E-1,-7.730197E-2,2.5007328E-2,-4.5591748E-1,1.2083445E-1,-1.5936166E-2,-5.2809405E-1,-1.8254405E-2,-7.4725696E-3,-2.8373075E-1,-1.3176562E-2,5.126312E-2,-7.837037E-3,-1.9959714E-1,2.3164412E-3,4.4815652E-2,5.49221E-3,-3.5504244E-2,-6.185608E-2,-4.215234E-2,-1.1425789E-2,9.064022E-3,-4.2481E-2,-1.1812988E-2],"categories":[],"categories_nodes":[],"categories_segments":[],"categories_sizes":[],"default_left":[0,0,0,0,0,0,0,0,0,0,0,0,0,0,0,0,0,0,0,0,0,0,0,0,0,0,0,0,0],"id":44,"left_children":[1,3,5,7,9,11,13,15,17,19,21,23,-1,25,27,-1,-1,-1,-1,-1,-1,-1,-1,-1,-1,-1,-1,-1,-1],"loss_changes":[6.573536E1,9.182305E1,5.409064E1,1.5243954E2,4.6265778E1,8.767471E0,4.048905E1,1.6465627E2,5.522143E2,2.252152E2,9.1616066E1,3.0750885E0,0E0,2.2012072E1,1.6537441E1,0E0,0E0,0E0,0E0,0E0,0E0,0E0,0E0,0E0,0E0,0E0,0E0,0E0,0E0],"parents":[2147483647,0,0,1,1,2,2,3,3,4,4,5,5,6,6,7,7,8,8,9,9,10,10,11,11,13,13,14,14],"right_children":[2,4,6,8,10,12,14,16,18,20,22,24,-1,26,28,-1,-1,-1,-1,-1,-1,-1,-1,-1,-1,-1,-1,-1,-1],"split_conditions":[2.1E1,7E0,2E0,6E0,1.7E1,2.3E1,2.3E1,5E0,5E0,1.5E1,7E0,2.2E1,-1.8254405E-2,5E0,6E0,-1.3176562E-2,5.126312E-2,-7.837037E-3,-1.9959714E-1,2.3164412E-3,4.4815652E-2,5.49221E-3,-3.5504244E-2,-6.185608E-2,-4.215234E-2,-1.1425789E-2,9.064022E-3,-4.2481E-2,-1.1812988E-2],"split_indices":[1,1,0,0,1,1,1,1,1,1,0,1,0,0,0,0,0,0,0,0,0,0,0,0,0,0,0,0,0],"split_type":[0,0,0,0,0,0,0,0,0,0,0,0,0,0,0,0,0,0,0,0,0,0,0,0,0,0,0,0,0],"sum_hessian":[1.7204E4,1.3956E4,3.248E3,3.101E3,1.0855E4,4.4E2,2.808E3,2.152E3,9.49E2,7.044E3,3.811E3,3.45E2,9.5E1,2.099E3,7.09E2,1.629E3,5.23E2,7.63E2,1.86E2,5.426E3,1.618E3,3.153E3,6.58E2,1.84E2,1.61E2,1.005E3,1.094E3,3.82E2,3.27E2],"tree_param":{"num_deleted":"0","num_feature":"2","num_nodes":"29","size_leaf_vector":"1"}},{"base_weights":[-3.3988454E-4,2.650843E-2,-1.1567432E-1,-1.1009738E-1,6.5539815E-2,-4.0893996E-1,-6.959179E-2,2.2524336E-2,-4.105442E-1,1.0875847E-1,-1.4350262E-2,-4.7558516E-1,-1.6447967E-2,-6.7262594E-3,-2.554341E-1,-3.981145E-2,1.7028797E-2,-7.0543783E-3,-1.7974414E-1,2.0849234E-3,4.0336914E-2,4.943187E-3,-3.195923E-2,-5.5703897E-2,-3.7963122E-2,4.0429174E-3,-2.4755584E-2,-3.824399E-2,-1.0635278E-2],"categories":[],"categories_nodes":[],"categories_segments":[],"categories_sizes":[],"default_left":[0,0,0,0,0,0,0,0,0,0,0,0,0,0,0,0,0,0,0,0,0,0,0,0,0,0,0,0,0],"id":45,"left_children":[1,3,5,7,9,11,13,15,17,19,21,23,-1,25,27,-1,-1,-1,-1,-1,-1,-1,-1,-1,-1,-1,-1,-1,-1],"loss_changes":[5.327895E1,7.4424736E1,4.3879894E1,1.2361083E2,3.7484528E1,7.106598E0,3.281604E1,1.3388777E2,4.478415E2,1.8245004E2,7.423157E1,2.4927979E0,0E0,2.3858498E1,1.3402603E1,0E0,0E0,0E0,0E0,0E0,0E0,0E0,0E0,0E0,0E0,0E0,0E0,0E0,0E0],"parents":[2147483647,0,0,1,1,2,2,3,3,4,4,5,5,6,6,7,7,8,8,9,9,10,10,11,11,13,13,14,14],"right_children":[2,4,6,8,10,12,14,16,18,20,22,24,-1,26,28,-1,-1,-1,-1,-1,-1,-1,-1,-1,-1,-1,-1,-1,-1],"split_conditions":[2.1E1,7E0,2E0,6E0,1.7E1,2.3E1,2.3E1,2E0,5E0,1.5E1,7E0,2.2E1,-1.6447967E-2,7E0,6E0,-3.981145E-2,1.7028797E-2,-7.0543783E-3,-1.7974414E-1,2.0849234E-3,4.0336914E-2,4.943187E-3,-3.195923E-2,-5.5703897E-2,-3.7963122E-2,4.0429174E-3,-2.4755584E-2,-3.824399E-2,-1.0635278E-2],"split_indices":[1,1,0,0,1,1,1,0,1,1,0,1,0,0,0,0,0,0,0,0,0,0,0,0,0,0,0,0,0],"split_type":[0,0,0,0,0,0,0,0,0,0,0,0,0,0,0,0,0,0,0,0,0,0,0,0,0,0,0,0,0],"sum_hessian":[1.7204E4,1.3956E4,3.248E3,3.101E3,1.0855E4,4.4E2,2.808E3,2.152E3,9.49E2,7.044E3,3.811E3,3.45E2,9.5E1,2.099E3,7.09E2,5.59E2,1.593E3,7.63E2,1.86E2,5.426E3,1.618E3,3.153E3,6.58E2,1.84E2,1.61E2,1.756E3,3.43E2,3.82E2,3.27E2],"tree_param":{"num_deleted":"0","num_feature":"2","num_nodes":"29","size_leaf_vector":"1"}},{"base_weights":[-3.2750206E-4,2.8390195E-2,-8.779047E-2,-3.7974678E-2,1.1501735E-1,-2.1228996E-1,5.09847E-2,-5.032838E-3,-3.2762745E-1,3.1829023E-1,-7.4864835E-2,-2.4706599E-1,-1.7477861E-1,2.4319498E-1,-3.749684E-1,-4.5632236E-3,2.454166E-2,-1.0443874E-1,1.9500786E-2,5.8025356E-2,-1.5405888E-2,-1.8165736E-2,1.8067723E-2,-4.3938577E-2,-1.916309E-2,-1.4503314E-2,-3.0767057E-2,3.41601E-2,-1.8467106E-2,-8.37178E-2,-2.338924E-2],"categories":[],"categories_nodes":[],"categories_segments":[],"categories_sizes":[],"default_left":[0,0,0,0,0,0,0,0,0,0,0,0,0,0,0,0,0,0,0,0,0,0,0,0,0,0,0,0,0,0,0],"id":46,"left_children":[1,3,5,7,9,11,13,15,17,19,21,23,25,27,29,-1,-1,-1,-1,-1,-1,-1,-1,-1,-1,-1,-1,-1,-1,-1,-1],"loss_changes":[4.3216892E1,7.447116E1,7.349177E1,6.9986694E1,2.1690541E2,2.8814926E0,1.6481879E2,6.698844E1,2.8078204E2,3.3591473E2,7.933751E1,1.2293526E1,4.2324524E0,5.846215E1,4.062358E1,0E0,0E0,0E0,0E0,0E0,0E0,0E0,0E0,0E0,0E0,0E0,0E0,0E0,0E0,0E0,0E0],"parents":[2147483647,0,0,1,1,2,2,3,3,4,4,5,5,6,6,7,7,8,8,9,9,10,10,11,11,12,12,13,13,14,14],"right_children":[2,4,6,8,10,12,14,16,18,20,22,24,26,28,30,-1,-1,-1,-1,-1,-1,-1,-1,-1,-1,-1,-1,-1,-1,-1,-1],"split_conditions":[2E1,1.3E1,5E0,1.2E1,5E0,3E0,7E0,1.1E1,5E0,1.8E1,1.8E1,2.1E1,2.3E1,2.3E1,2.1E1,-4.5632236E-3,2.454166E-2,-1.0443874E-1,1.9500786E-2,5.8025356E-2,-1.5405888E-2,-1.8165736E-2,1.8067723E-2,-4.3938577E-2,-1.916309E-2,-1.4503314E-2,-3.0767057E-2,3.41601E-2,-1.8467106E-2,-8.37178E-2,-2.338924E-2],"split_indices":[1,1,0,1,0,0,0,1,0,1,1,1,1,1,1,0,0,0,0,0,0,0,0,0,0,0,0,0,0,0,0],"split_type":[0,0,0,0,0,0,0,0,0,0,0,0,0,0,0,0,0,0,0,0,0,0,0,0,0,0,0,0,0,0,0],"sum_hessian":[1.7204E4,1.2952E4,4.252E3,7.334E3,5.618E3,2.241E3,2.011E3,6.586E3,7.48E2,2.713E3,2.905E3,1.16E3,1.081E3,1.386E3,6.25E2,5.668E3,9.18E2,3.15E2,4.33E2,1.745E3,9.68E2,2.049E3,8.56E2,2.58E2,9.02E2,8.85E2,1.96E2,1.127E3,2.59E2,1.45E2,4.8E2],"tree_param":{"num_deleted":"0","num_feature":"2","num_nodes":"31","size_leaf_vector":"1"}},{"base_weights":[-3.0775968E-4,2.2202773E-2,-9.7008035E-2,-9.45935E-2,5.5574168E-2,-3.4917587E-1,-5.7384316E-2,2.4822343E-2,-3.6512795E-1,9.371636E-2,-1.4931434E-2,-4.091895E-1,-1.2923948E-2,-6.7528477E-3,-2.0705853E-1,-1.1585093E-2,4.6236552E-2,-5.894132E-3,-1.6141197E-1,1.7352861E-3,3.496342E-2,-3.3767577E-2,3.4343295E-3,-4.8257645E-2,-3.228576E-2,3.0998664E-3,-1.9955127E-2,-3.1936992E-2,-7.52832E-3],"categories":[],"categories_nodes":[],"categories_segments":[],"categories_sizes":[],"default_left":[0,0,0,0,0,0,0,0,0,0,0,0,0,0,0,0,0,0,0,0,0,0,0,0,0,0,0,0,0],"id":47,"left_children":[1,3,5,7,9,11,13,15,17,19,21,23,-1,25,27,-1,-1,-1,-1,-1,-1,-1,-1,-1,-1,-1,-1,-1,-1],"loss_changes":[3.7453564E1,5.4404823E1,3.2443405E1,1.0022258E2,2.919577E1,5.7679596E0,2.128584E1,1.3257207E2,3.6320822E2,1.3767285E2,6.063436E1,2.0363197E0,0E0,1.5290891E1,1.0483862E1,0E0,0E0,0E0,0E0,0E0,0E0,0E0,0E0,0E0,0E0,0E0,0E0,0E0,0E0],"parents":[2147483647,0,0,1,1,2,2,3,3,4,4,5,5,6,6,7,7,8,8,9,9,10,10,11,11,13,13,14,14],"right_children":[2,4,6,8,10,12,14,16,18,20,22,24,-1,26,28,-1,-1,-1,-1,-1,-1,-1,-1,-1,-1,-1,-1,-1,-1],"split_conditions":[2.1E1,7E0,2E0,6E0,1.7E1,2.3E1,2.3E1,5E0,5E0,1.5E1,2E0,2.2E1,-1.2923948E-2,7E0,6E0,-1.1585093E-2,4.6236552E-2,-5.894132E-3,-1.6141197E-1,1.7352861E-3,3.496342E-2,-3.3767577E-2,3.4343295E-3,-4.8257645E-2,-3.228576E-2,3.0998664E-3,-1.9955127E-2,-3.1936992E-2,-7.52832E-3],"split_indices":[1,1,0,0,1,1,1,1,1,1,0,1,0,0,0,0,0,0,0,0,0,0,0,0,0,0,0,0,0],"split_type":[0,0,0,0,0,0,0,0,0,0,0,0,0,0,0,0,0,0,0,0,0,0,0,0,0,0,0,0,0],"sum_hessian":[1.7204E4,1.3956E4,3.248E3,3.101E3,1.0855E4,4.4E2,2.808E3,2.152E3,9.49E2,7.044E3,3.811E3,3.45E2,9.5E1,2.099E3,7.09E2,1.629E3,5.23E2,7.63E2,1.86E2,5.426E3,1.618E3,5.04E2,3.307E3,1.84E2,1.61E2,1.756E3,3.43E2,3.82E2,3.27E2],"tree_param":{"num_deleted":"0","num_feature":"2","num_nodes":"29","size_leaf_vector":"1"}},{"base_weights":[-2.9314923E-4,2.006816E-2,-9.4871596E-2,-1.7097293E-1,3.5794437E-2,-3.1610593E-1,-6.7806924E-3,-2.812715E-1,-7.876668E-2,8.3050385E-2,-3.7944797E-2,-3.0528053E-3,-5.025511E-1,1.2851407E-1,-9.806131E-2,-2.1324014E-4,-4.9590867E-2,-1.2973644E-2,2.868436E-3,1.789214E-2,-5.985389E-3,-1.654016E-2,1.7729683E-2,1.3097109E-2,-1.0907692E-2,-6.1295915E-2,-3.2403078E-2,-5.458836E-2,7.24039E-4],"categories":[],"categories_nodes":[],"categories_segments":[],"categories_sizes":[],"default_left":[0,0,0,0,0,0,0,0,0,0,0,0,0,0,0,0,0,0,0,0,0,0,0,0,0,0,0,0,0],"id":48,"left_children":[1,3,5,7,9,11,13,15,17,19,21,23,25,-1,27,-1,-1,-1,-1,-1,-1,-1,-1,-1,-1,-1,-1,-1,-1],"loss_changes":[3.3134274E1,4.2541924E1,5.9399513E1,1.09311695E1,4.558892E1,5.0661224E1,2.5732565E2,2.9356617E1,3.2240524E0,1.0924382E2,1.4021712E2,4.6324596E0,1.0523666E1,0E0,9.6108795E1,0E0,0E0,0E0,0E0,0E0,0E0,0E0,0E0,0E0,0E0,0E0,0E0,0E0,0E0],"parents":[2147483647,0,0,1,1,2,2,3,3,4,4,5,5,6,6,7,7,8,8,9,9,10,10,11,11,12,12,14,14],"right_children":[2,4,6,8,10,12,14,16,18,20,22,24,26,-1,28,-1,-1,-1,-1,-1,-1,-1,-1,-1,-1,-1,-1,-1,-1],"split_conditions":[7E0,2E0,1E1,4E0,1.8E1,4E0,1.1E1,2E0,6E0,5E0,5E0,1E0,8E0,1.2851407E-1,1.4E1,-2.1324014E-4,-4.9590867E-2,-1.2973644E-2,2.868436E-3,1.789214E-2,-5.985389E-3,-1.654016E-2,1.7729683E-2,1.3097109E-2,-1.0907692E-2,-6.1295915E-2,-3.2403078E-2,-5.458836E-2,7.24039E-4],"split_indices":[0,1,1,0,1,1,1,0,0,0,0,1,1,0,1,0,0,0,0,0,0,0,0,0,0,0,0,0,0],"split_type":[0,0,0,0,0,0,0,0,0,0,0,0,0,0,0,0,0,0,0,0,0,0,0,0,0,0,0,0,0],"sum_hessian":[1.7204E4,1.4157E4,3.047E3,1.076E3,1.3081E4,8.67E2,2.18E3,4.89E2,5.87E2,7.972E3,5.109E3,3.24E2,5.43E2,1.43E2,2.037E3,2.13E2,2.76E2,3.98E2,1.89E2,4.771E3,3.201E3,3.209E3,1.9E3,1.43E2,1.81E2,3.34E2,2.09E2,3.87E2,1.65E3],"tree_param":{"num_deleted":"0","num_feature":"2","num_nodes":"29","size_leaf_vector":"1"}},{"base_weights":[-2.677144E-4,1.9229162E-2,-8.402199E-2,-8.0353394E-2,4.768217E-2,-2.979676E-1,-5.0403606E-2,2.3237543E-2,-3.150386E-1,8.069105E-2,-1.3334412E-2,-3.52011E-1,-1.0008242E-2,-4.628417E-3,-1.8572402E-1,-3.659286E-2,1.5994383E-2,-4.0379493E-3,-1.4354905E-1,1.244286E-3,3.0941386E-2,7.985607E-3,-1.8994043E-2,-4.1812878E-2,-2.743332E-2,2.9783545E-3,-1.8037606E-2,-2.7719343E-2,-7.835055E-3],"categories":[],"categories_nodes":[],"categories_segments":[],"categories_sizes":[],"default_left":[0,0,0,0,0,0,0,0,0,0,0,0,0,0,0,0,0,0,0,0,0,0,0,0,0,0,0,0,0],"id":49,"left_children":[1,3,5,7,9,11,13,15,17,19,21,23,-1,25,27,-1,-1,-1,-1,-1,-1,-1,-1,-1,-1,-1,-1,-1,-1],"loss_changes":[2.8096466E1,3.954992E1,2.335343E1,7.542085E1,2.1866022E1,4.680992E0,1.739898E1,1.1460126E2,2.9229724E2,1.0996802E2,6.275306E1,1.6623077E0,0E0,1.2705796E1,6.9514656E0,0E0,0E0,0E0,0E0,0E0,0E0,0E0,0E0,0E0,0E0,0E0,0E0,0E0,0E0],"parents":[2147483647,0,0,1,1,2,2,3,3,4,4,5,5,6,6,7,7,8,8,9,9,10,10,11,11,13,13,14,14],"right_children":[2,4,6,8,10,12,14,16,18,20,22,24,-1,26,28,-1,-1,-1,-1,-1,-1,-1,-1,-1,-1,-1,-1,-1,-1],"split_conditions":[2.1E1,7E0,2E0,6E0,1.7E1,2.3E1,2.3E1,2E0,5E0,1.5E1,6E0,2.2E1,-1.0008242E-2,7E0,6E0,-3.659286E-2,1.5994383E-2,-4.0379493E-3,-1.4354905E-1,1.244286E-3,3.0941386E-2,7.985607E-3,-1.8994043E-2,-4.1812878E-2,-2.743332E-2,2.9783545E-3,-1.8037606E-2,-2.7719343E-2,-7.835055E-3],"split_indices":[1,1,0,0,1,1,1,0,1,1,0,1,0,0,0,0,0,0,0,0,0,0,0,0,0,0,0,0,0],"split_type":[0,0,0,0,0,0,0,0,0,0,0,0,0,0,0,0,0,0,0,0,0,0,0,0,0,0,0,0,0],"sum_hessian":[1.7204E4,1.3956E4,3.248E3,3.101E3,1.0855E4,4.4E2,2.808E3,2.152E3,9.49E2,7.044E3,3.811E3,3.45E2,9.5E1,2.099E3,7.09E2,5.59E2,1.593E3,7.63E2,1.86E2,5.426E3,1.618E3,2.495E3,1.316E3,1.84E2,1.61E2,1.756E3,3.43E2,3.82E2,3.27E2],"tree_param":{"num_deleted":"0","num_feature":"2","num_nodes":"29","size_leaf_vector":"1"}}]},"name":"gbtree"},"learner_model_param":{"base_score":"[1.3731225E1]","boost_from_average":"1","num_class":"0","num_feature":"2","num_target":"1"},"objective":{"name":"reg:squarederror","reg_loss_param":{"scale_pos_weight":"1"}}},"version":[3,2,1]}