{"learner":{"attributes":{},"feature_names":["day_of_week","hour_of_day"],"feature_types":[],"gradient_booster":{"model":{"cats":{"enc":[],"feature_segments":[],"sorted_idx":[]},"gbtree_model_param":{"num_parallel_tree":"1","num_trees":"50"},"iteration_indptr":[0,1,2,3,4,5,6,7,8,9,10,11,12,13,14,15,16,17,18,19,20,21,22,23,24,25,26,27,28,29,30,31,32,33,34,35,36,37,38,39,40,41,42,43,44,45,46,47,48,49,50],"tree_info":[0,0,0,0,0,0,0,0,0,0,0,0,0,0,0,0,0,0,0,0,0,0,0,0,0,0,0,0,0,0,0,0,0,0,0,0,0,0,0,0,0,0,0,0,0,0,0,0,0,0],"trees":[{"base_weights":[-1.684976E-7,-1.0512595E1,1.0215642E0,-1.1546083E1,-8.671841E0,3.5326176E0,-4.1521397E0,-1.1736508E1,-2.7810574E-1,-7.617149E-1,-9.2356646E-1,4.936158E-1,4.359679E0,-1.837785E0,-7.7852426E0,-1.1927413E0,-1.0913442E0,2.4891822E-1,-4.2358094E-1,4.698041E-1,1.519397E-1,-3.6359844E-1,-6.946503E-2,-9.561979E-1,-5.469382E-1],"categories":[],"categories_nodes":[],"categories_segments":[],"categories_sizes":[],"default_left":[0,0,0,0,0,0,0,0,0,0,0,0,0,0,0,0,0,0,0,0,0,0,0,0,0],"id":0,"left_children":[1,3,5,7,9,11,13,15,-1,-1,-1,17,19,21,23,-1,-1,-1,-1,-1,-1,-1,-1,-1,-1],"loss_changes":[1.8479103E5,2.799125E3,2.0375953E5,1.591375E3,2.5790234E2,2.6537281E4,4.307817E4,1.9421875E1,0E0,0E0,0E0,2.1340156E4,7.9695156E3,6.4355645E3,8.1523594E3,0E0,0E0,0E0,0E0,0E0,0E0,0E0,0E0,0E0,0E0],"parents":[2147483647,0,0,1,1,2,2,3,3,4,4,5,5,6,6,7,7,11,11,12,12,13,13,14,14],"right_children":[2,4,6,8,10,12,14,16,-1,-1,-1,18,20,22,24,-1,-1,-1,-1,-1,-1,-1,-1,-1,-1],"split_conditions":[4E0,6E0,1.9E1,3E0,1E0,8E0,2.2E1,5E0,-2.7810574E-1,-7.617149E-1,-9.2356646E-1,6E0,1.8E1,4E0,5E0,-1.1927413E0,-1.0913442E0,2.4891822E-1,-4.2358094E-1,4.698041E-1,1.519397E-1,-3.6359844E-1,-6.946503E-2,-9.561979E-1,-5.469382E-1],"split_indices":[1,0,1,1,1,1,1,0,0,0,0,0,1,0,0,0,0,0,0,0,0,0,0,0,0],"split_type":[0,0,0,0,0,0,0,0,0,0,0,0,0,0,0,0,0,0,0,0,0,0,0,0,0],"sum_hessian":[1.7205E4,1.523E3,1.5682E4,9.72E2,5.51E2,1.0558E4,5.124E3,9.51E2,2.1E1,1.97E2,3.54E2,2.259E3,8.299E3,3.131E3,1.993E3,7.61E2,1.9E2,1.589E3,6.7E2,7.415E3,8.84E2,1.216E3,1.915E3,1.126E3,8.67E2],"tree_param":{"num_deleted":"0","num_feature":"2","num_nodes":"25","size_leaf_vector":"1"}},{"base_weights":[-3.3352815E-4,-9.464123E0,9.1931295E-1,-1.0394109E1,-7.807709E0,2.8774908E0,-4.4736295E0,-1.0565257E1,-2.515593E-1,-6.8592805E-1,-8.3146995E-1,-1.533294E0,3.2537293E0,-2.1592326E0,-7.007472E0,-1.0736237E0,-9.8278135E-1,9.294399E-2,-5.7065827E-1,3.847742E-1,4.080205E-2,-4.274953E-1,-8.99954E-2,-9.301925E-1,-5.478372E-1],"categories":[],"categories_nodes":[],"categories_segments":[],"categories_sizes":[],"default_left":[0,0,0,0,0,0,0,0,0,0,0,0,0,0,0,0,0,0,0,0,0,0,0,0,0],"id":1,"left_children":[1,3,5,7,9,11,13,15,-1,-1,-1,17,19,21,23,-1,-1,-1,-1,-1,-1,-1,-1,-1,-1],"loss_changes":[1.4975838E5,2.2664844E3,1.6563067E5,1.2854062E3,2.0839453E2,1.909929E4,2.4485984E4,1.45234375E1,0E0,0E0,0E0,9.306621E3,1.7919922E4,5.8176074E3,6.9448906E3,0E0,0E0,0E0,0E0,0E0,0E0,0E0,0E0,0E0,0E0],"parents":[2147483647,0,0,1,1,2,2,3,3,4,4,5,5,6,6,7,7,11,11,12,12,13,13,14,14],"right_children":[2,4,6,8,10,12,14,16,-1,-1,-1,18,20,22,24,-1,-1,-1,-1,-1,-1,-1,-1,-1,-1],"split_conditions":[4E0,6E0,2E1,3E0,1E0,5E0,2.2E1,5E0,-2.515593E-1,-6.8592805E-1,-8.3146995E-1,5E0,1.8E1,4E0,4E0,-1.0736237E0,-9.8278135E-1,9.294399E-2,-5.7065827E-1,3.847742E-1,4.080205E-2,-4.274953E-1,-8.99954E-2,-9.301925E-1,-5.478372E-1],"split_indices":[1,0,1,1,1,1,1,0,0,0,0,0,1,0,0,0,0,0,0,0,0,0,0,0,0],"split_type":[0,0,0,0,0,0,0,0,0,0,0,0,0,0,0,0,0,0,0,0,0,0,0,0,0],"sum_hessian":[1.7205E4,1.523E3,1.5682E4,9.72E2,5.51E2,1.1505E4,4.177E3,9.51E2,2.1E1,1.97E2,3.54E2,9.04E2,1.0601E4,2.184E3,1.993E3,7.61E2,1.9E2,5.69E2,3.35E2,8.77E3,1.831E3,8.14E2,1.37E3,7.95E2,1.198E3],"tree_param":{"num_deleted":"0","num_feature":"2","num_nodes":"25","size_leaf_vector":"1"}},{"base_weights":[-6.414104E-4,-8.520221E0,8.272512E-1,-9.35707E0,-7.0296874E0,2.8694966E0,-3.3805335E0,-9.510892E0,-2.2754681E-1,-6.1768165E0,-7.4855715E-1,-3.4348637E-1,3.4437687E0,-1.5160111E0,-6.307466E0,-9.6640223E-1,-8.850177E-1,-6.954881E-1,-5.8814704E-1,1.613285E-1,-5.663655E-1,3.8922608E-1,1.5294611E-1,-3.4316167E-1,-7.55242E-2,-7.78956E-1,-4.3758678E-1],"categories":[],"categories_nodes":[],"categories_segments":[],"categories_sizes":[],"default_left":[0,0,0,0,0,0,0,0,0,0,0,0,0,0,0,0,0,0,0,0,0,0,0,0,0,0,0],"id":2,"left_children":[1,3,5,7,9,11,13,15,-1,17,-1,19,21,23,25,-1,-1,-1,-1,-1,-1,-1,-1,-1,-1,-1,-1],"loss_changes":[1.2136607E5,1.8351953E3,1.3477888E5,1.03825E3,1.6838672E2,1.9483875E4,2.7959254E4,1.0796875E1,0E0,4.595215E0,0E0,1.6686523E4,7.6849453E3,4.561777E3,5.674367E3,0E0,0E0,0E0,0E0,0E0,0E0,0E0,0E0,0E0,0E0,0E0,0E0],"parents":[2147483647,0,0,1,1,2,2,3,3,4,4,5,5,6,6,7,7,9,9,11,11,12,12,13,13,14,14],"right_children":[2,4,6,8,10,12,14,16,-1,18,-1,20,22,24,26,-1,-1,-1,-1,-1,-1,-1,-1,-1,-1,-1,-1],"split_conditions":[4E0,6E0,1.9E1,3E0,1E0,7E0,2.2E1,5E0,-2.2754681E-1,7E0,-7.4855715E-1,6E0,7E0,3E0,5E0,-9.6640223E-1,-8.850177E-1,-6.954881E-1,-5.8814704E-1,1.613285E-1,-5.663655E-1,3.8922608E-1,1.5294611E-1,-3.4316167E-1,-7.55242E-2,-7.78956E-1,-4.3758678E-1],"split_indices":[1,0,1,1,1,1,1,0,0,0,0,0,0,0,0,0,0,0,0,0,0,0,0,0,0,0,0],"split_type":[0,0,0,0,0,0,0,0,0,0,0,0,0,0,0,0,0,0,0,0,0,0,0,0,0,0,0],"sum_hessian":[1.7205E4,1.523E3,1.5682E4,9.72E2,5.51E2,1.0558E4,5.124E3,9.51E2,2.1E1,1.97E2,3.54E2,1.601E3,8.957E3,3.131E3,1.993E3,7.61E2,1.9E2,4.8E1,1.49E2,1.171E3,4.3E2,7.256E3,1.701E3,8.89E2,2.242E3,1.126E3,8.67E2],"tree_param":{"num_deleted":"0","num_feature":"2","num_nodes":"27","size_leaf_vector":"1"}},{"base_weights":[-9.031799E-4,-7.6708965E0,7.4443066E-1,-8.4235E0,-6.3304005E0,2.3392391E0,-3.6477687E0,-8.561748E0,-2.0582645E-1,-5.5656176E0,-6.739123E-1,-1.3454466E0,2.6535478E0,-1.7939512E0,-5.677329E0,-8.698889E-1,-7.9697937E-1,-6.273586E-1,-5.2972436E-1,6.756135E-2,-4.7700262E-1,3.1494236E-1,2.7801255E-2,-3.573875E-1,-7.34555E-2,-7.594923E-1,-4.39953E-1],"categories":[],"categories_nodes":[],"categories_segments":[],"categories_sizes":[],"default_left":[0,0,0,0,0,0,0,0,0,0,0,0,0,0,0,0,0,0,0,0,0,0,0,0,0,0,0],"id":3,"left_children":[1,3,5,7,9,11,13,15,-1,17,-1,19,21,23,25,-1,-1,-1,-1,-1,-1,-1,-1,-1,-1,-1,-1],"loss_changes":[9.836734E4,1.4841797E3,1.098635E5,8.3860156E2,1.3503906E2,1.3329008E4,1.5709273E4,7.953125E0,0E0,4.3876953E0,0E0,6.2669824E3,1.2487961E4,4.117509E3,4.8524805E3,0E0,0E0,0E0,0E0,0E0,0E0,0E0,0E0,0E0,0E0,0E0,0E0],"parents":[2147483647,0,0,1,1,2,2,3,3,4,4,5,5,6,6,7,7,9,9,11,11,12,12,13,13,14,14],"right_children":[2,4,6,8,10,12,14,16,-1,18,-1,20,22,24,26,-1,-1,-1,-1,-1,-1,-1,-1,-1,-1,-1,-1],"split_conditions":[4E0,6E0,2E1,3E0,1E0,5E0,2.2E1,5E0,-2.0582645E-1,7E0,-6.739123E-1,5E0,1.8E1,4E0,4E0,-8.698889E-1,-7.9697937E-1,-6.273586E-1,-5.2972436E-1,6.756135E-2,-4.7700262E-1,3.1494236E-1,2.7801255E-2,-3.573875E-1,-7.34555E-2,-7.594923E-1,-4.39953E-1],"split_indices":[1,0,1,1,1,1,1,0,0,0,0,0,1,0,0,0,0,0,0,0,0,0,0,0,0,0,0],"split_type":[0,0,0,0,0,0,0,0,0,0,0,0,0,0,0,0,0,0,0,0,0,0,0,0,0,0,0],"sum_hessian":[1.7205E4,1.523E3,1.5682E4,9.72E2,5.51E2,1.1505E4,4.177E3,9.51E2,2.1E1,1.97E2,3.54E2,9.04E2,1.0601E4,2.184E3,1.993E3,7.61E2,1.9E2,4.8E1,1.49E2,5.69E2,3.35E2,8.77E3,1.831E3,8.14E2,1.37E3,7.95E2,1.198E3],"tree_param":{"num_deleted":"0","num_feature":"2","num_nodes":"27","size_leaf_vector":"1"}},{"base_weights":[-1.1268297E-3,-6.906237E0,6.698793E-1,-7.583074E0,-5.7006774E0,1.8710474E0,-4.066485E0,-7.707323E0,-1.8617935E-1,-5.0149E0,-6.067109E0,2.456359E0,-1.2569608E-1,-5.865885E0,-2.9167817E0,-7.8301406E-1,-7.1769875E-1,-5.659031E-1,-4.7710514E-1,-5.7027763E-1,-6.356932E-1,3.1558808E-2,3.2892627E-1,-1.3086978E-1,3.2035824E-2,-4.1008416E-1,-6.836385E-1,-1.9939812E-1,-5.7234037E-1],"categories":[],"categories_nodes":[],"categories_segments":[],"categories_sizes":[],"default_left":[0,0,0,0,0,0,0,0,0,0,0,0,0,0,0,0,0,0,0,0,0,0,0,0,0,0,0,0,0],"id":4,"left_children":[1,3,5,7,9,11,13,15,-1,17,19,21,23,25,27,-1,-1,-1,-1,-1,-1,-1,-1,-1,-1,-1,-1,-1,-1],"loss_changes":[7.9726414E4,1.2003047E3,8.923084E4,6.773203E2,1.0828711E2,1.4622133E4,6.547117E3,5.8085938E0,0E0,4.100586E0,1.2333984E0,1.7250027E4,1.4974558E3,2.0892031E3,5.007914E3,0E0,0E0,0E0,0E0,0E0,0E0,0E0,0E0,0E0,0E0,0E0,0E0,0E0,0E0],"parents":[2147483647,0,0,1,1,2,2,3,3,4,4,5,5,6,6,7,7,9,9,10,10,11,11,12,12,13,13,14,14],"right_children":[2,4,6,8,10,12,14,16,-1,18,20,22,24,26,28,-1,-1,-1,-1,-1,-1,-1,-1,-1,-1,-1,-1,-1,-1],"split_conditions":[4E0,6E0,2.1E1,3E0,1E0,1.8E1,4E0,5E0,-1.8617935E-1,7E0,7E0,9E0,3E0,2.2E1,7E0,-7.8301406E-1,-7.1769875E-1,-5.659031E-1,-4.7710514E-1,-5.7027763E-1,-6.356932E-1,3.1558808E-2,3.2892627E-1,-1.3086978E-1,3.2035824E-2,-4.1008416E-1,-6.836385E-1,-1.9939812E-1,-5.7234037E-1],"split_indices":[1,0,1,1,1,1,0,0,0,0,0,1,0,1,0,0,0,0,0,0,0,0,0,0,0,0,0,0,0],"split_type":[0,0,0,0,0,0,0,0,0,0,0,0,0,0,0,0,0,0,0,0,0,0,0,0,0,0,0,0,0],"sum_hessian":[1.7205E4,1.523E3,1.5682E4,9.72E2,5.51E2,1.251E4,3.172E3,9.51E2,2.1E1,1.97E2,3.54E2,9.674E3,2.836E3,1.235E3,1.937E3,7.61E2,1.9E2,4.8E1,1.49E2,1.66E2,1.88E2,2.71E3,6.964E3,7.76E2,2.06E3,4.4E2,7.95E2,1.459E3,4.78E2],"tree_param":{"num_deleted":"0","num_feature":"2","num_nodes":"29","size_leaf_vector":"1"}},{"base_weights":[-1.3360735E-3,-6.218196E0,6.027891E-1,-6.8265004E0,-5.134684E0,2.1059263E0,-2.4942312E0,-6.938167E0,-1.6840771E-1,-4.5186777E0,-5.4637957E0,3.358271E-2,2.6699493E0,-1.1127765E0,-4.662848E0,-7.048154E-1,-6.4630455E-1,-5.1046777E-1,-4.2971268E-1,-5.1359147E-1,-5.724602E-1,1.581435E-1,-3.6342546E-1,3.0355665E-1,1.0895976E-1,-2.6173803E-1,-5.1526874E-2,-5.805515E-1,-3.1738517E-1],"categories":[],"categories_nodes":[],"categories_segments":[],"categories_sizes":[],"default_left":[0,0,0,0,0,0,0,0,0,0,0,0,0,0,0,0,0,0,0,0,0,0,0,0,0,0,0,0,0],"id":5,"left_children":[1,3,5,7,9,11,13,15,-1,17,19,21,23,25,27,-1,-1,-1,-1,-1,-1,-1,-1,-1,-1,-1,-1,-1,-1],"loss_changes":[6.462538E4,9.694297E2,7.3013484E4,5.470469E2,8.72207E1,1.2341789E4,1.5348514E4,4.1992188E0,0E0,3.770752E0,9.560547E-1,1.283638E4,4.792465E3,2.814358E3,3.3742227E3,0E0,0E0,0E0,0E0,0E0,0E0,0E0,0E0,0E0,0E0,0E0,0E0,0E0,0E0],"parents":[2147483647,0,0,1,1,2,2,3,3,4,4,5,5,6,6,7,7,9,9,10,10,11,11,12,12,13,13,14,14],"right_children":[2,4,6,8,10,12,14,16,-1,18,20,22,24,26,28,-1,-1,-1,-1,-1,-1,-1,-1,-1,-1,-1,-1,-1,-1],"split_conditions":[4E0,6E0,1.9E1,3E0,1E0,8E0,2.2E1,5E0,-1.6840771E-1,7E0,7E0,6E0,7E0,3E0,5E0,-7.048154E-1,-6.4630455E-1,-5.1046777E-1,-4.2971268E-1,-5.1359147E-1,-5.724602E-1,1.581435E-1,-3.6342546E-1,3.0355665E-1,1.0895976E-1,-2.6173803E-1,-5.1526874E-2,-5.805515E-1,-3.1738517E-1],"split_indices":[1,0,1,1,1,1,1,0,0,0,0,0,0,0,0,0,0,0,0,0,0,0,0,0,0,0,0,0,0],"split_type":[0,0,0,0,0,0,0,0,0,0,0,0,0,0,0,0,0,0,0,0,0,0,0,0,0,0,0,0,0],"sum_hessian":[1.7205E4,1.523E3,1.5682E4,9.72E2,5.51E2,1.0558E4,5.124E3,9.51E2,2.1E1,1.97E2,3.54E2,2.259E3,8.299E3,3.131E3,1.993E3,7.61E2,1.9E2,4.8E1,1.49E2,1.66E2,1.88E2,1.589E3,6.7E2,6.739E3,1.56E3,8.89E2,2.242E3,1.126E3,8.67E2],"tree_param":{"num_deleted":"0","num_feature":"2","num_nodes":"29","size_leaf_vector":"1"}},{"base_weights":[-1.46681E-3,-5.5987024E0,5.4244626E-1,-6.1454115E0,-4.6248865E0,1.7171185E0,-2.6926713E0,-6.2457695E0,-1.5233245E-1,-4.071559E0,-4.920475E0,-1.2602249E0,1.9711063E0,-1.3185973E0,-4.197014E0,-6.344263E-1,-5.8201253E-1,-4.6046278E-1,-3.8702795E-1,-4.6253976E-1,-5.1551706E-1,-1.5418738E-2,-5.9059685E-1,2.3426373E-1,1.9126488E-2,-2.7497533E-1,-4.6687555E-2,-5.225479E-1,-2.8568327E-1],"categories":[],"categories_nodes":[],"categories_segments":[],"categories_sizes":[],"default_left":[0,0,0,0,0,0,0,0,0,0,0,0,0,0,0,0,0,0,0,0,0,0,0,0,0,0,0,0,0],"id":6,"left_children":[1,3,5,7,9,11,13,15,-1,17,19,21,23,25,27,-1,-1,-1,-1,-1,-1,-1,-1,-1,-1,-1,-1,-1,-1],"loss_changes":[5.2385156E4,7.829453E2,5.9603203E4,4.418203E2,7.025098E1,8.703426E3,8.630719E3,2.984375E0,0E0,3.4233398E0,7.402344E-1,4.649311E3,7.010297E3,2.6621147E3,2.733461E3,0E0,0E0,0E0,0E0,0E0,0E0,0E0,0E0,0E0,0E0,0E0,0E0,0E0,0E0],"parents":[2147483647,0,0,1,1,2,2,3,3,4,4,5,5,6,6,7,7,9,9,10,10,11,11,12,12,13,13,14,14],"right_children":[2,4,6,8,10,12,14,16,-1,18,20,22,24,26,28,-1,-1,-1,-1,-1,-1,-1,-1,-1,-1,-1,-1,-1,-1],"split_conditions":[4E0,6E0,2E1,3E0,1E0,5E0,2.2E1,5E0,-1.5233245E-1,7E0,7E0,7E0,1.8E1,4E0,5E0,-6.344263E-1,-5.8201253E-1,-4.6046278E-1,-3.8702795E-1,-4.6253976E-1,-5.1551706E-1,-1.5418738E-2,-5.9059685E-1,2.3426373E-1,1.9126488E-2,-2.7497533E-1,-4.6687555E-2,-5.225479E-1,-2.8568327E-1],"split_indices":[1,0,1,1,1,1,1,0,0,0,0,0,1,0,0,0,0,0,0,0,0,0,0,0,0,0,0,0,0],"split_type":[0,0,0,0,0,0,0,0,0,0,0,0,0,0,0,0,0,0,0,0,0,0,0,0,0,0,0,0,0],"sum_hessian":[1.7205E4,1.523E3,1.5682E4,9.72E2,5.51E2,1.1505E4,4.177E3,9.51E2,2.1E1,1.97E2,3.54E2,9.04E2,1.0601E4,2.184E3,1.993E3,7.61E2,1.9E2,4.8E1,1.49E2,1.66E2,1.88E2,7.31E2,1.73E2,8.77E3,1.831E3,8.14E2,1.37E3,1.126E3,8.67E2],"tree_param":{"num_deleted":"0","num_feature":"2","num_nodes":"29","size_leaf_vector":"1"}},{"base_weights":[-1.5921426E-3,-5.0409284E0,4.881069E-1,-5.5322776E0,-4.1657047E0,1.3761365E0,-3.0135088E0,-5.6224704E0,-1.3779163E-1,-3.6686833E0,-4.4311824E0,1.8052421E0,-8.772407E-2,-2.3553143E0,-4.9403157E0,-5.71067E-1,-5.2411604E-1,-4.1535622E-1,-3.485832E-1,-4.165628E-1,-4.6423808E-1,5.0903942E-2,2.776716E-1,-1.00054264E-1,2.5645241E-2,-3.978801E-1,-1.240885E-1,-4.4400245E-1,-7.5115234E-1],"categories":[],"categories_nodes":[],"categories_segments":[],"categories_sizes":[],"default_left":[0,0,0,0,0,0,0,0,0,0,0,0,0,0,0,0,0,0,0,0,0,0,0,0,0,0,0,0,0],"id":7,"left_children":[1,3,5,7,9,11,13,15,-1,17,19,21,23,25,27,-1,-1,-1,-1,-1,-1,-1,-1,-1,-1,-1,-1,-1,-1],"loss_changes":[4.246271E4,6.3233203E2,4.8771035E4,3.5683008E2,5.658008E1,7.858955E3,4.0124082E3,2.0878906E0,0E0,3.0761719E0,5.7128906E-1,1.2181607E4,8.915587E2,4.277583E3,1.0047344E3,0E0,0E0,0E0,0E0,0E0,0E0,0E0,0E0,0E0,0E0,0E0,0E0,0E0,0E0],"parents":[2147483647,0,0,1,1,2,2,3,3,4,4,5,5,6,6,7,7,9,9,10,10,11,11,12,12,13,13,14,14],"right_children":[2,4,6,8,10,12,14,16,-1,18,20,22,24,26,28,-1,-1,-1,-1,-1,-1,-1,-1,-1,-1,-1,-1,-1,-1],"split_conditions":[4E0,6E0,2.1E1,3E0,1E0,1.8E1,2.3E1,5E0,-1.3779163E-1,7E0,7E0,1.1E1,3E0,4E0,7E0,-5.71067E-1,-5.2411604E-1,-4.1535622E-1,-3.485832E-1,-4.165628E-1,-4.6423808E-1,5.0903942E-2,2.776716E-1,-1.00054264E-1,2.5645241E-2,-3.978801E-1,-1.240885E-1,-4.4400245E-1,-7.5115234E-1],"split_indices":[1,0,1,1,1,1,1,0,0,0,0,1,0,0,0,0,0,0,0,0,0,0,0,0,0,0,0,0,0],"split_type":[0,0,0,0,0,0,0,0,0,0,0,0,0,0,0,0,0,0,0,0,0,0,0,0,0,0,0,0,0],"sum_hessian":[1.7205E4,1.523E3,1.5682E4,9.72E2,5.51E2,1.251E4,3.172E3,9.51E2,2.1E1,1.97E2,3.54E2,9.674E3,2.836E3,2.366E3,8.06E2,7.61E2,1.9E2,4.8E1,1.49E2,1.66E2,1.88E2,4.145E3,5.529E3,7.76E2,2.06E3,9.62E2,1.404E3,6.77E2,1.29E2],"tree_param":{"num_deleted":"0","num_feature":"2","num_nodes":"29","size_leaf_vector":"1"}},{"base_weights":[-1.6852266E-3,-4.538724E0,4.392029E-1,-4.980317E0,-3.7521138E0,1.5450988E0,-1.839352E0,-5.0613737E0,-1.24638796E-1,-3.3056731E0,-3.9905453E0,1.9644296E0,-3.390955E-1,-8.24269E-1,-3.4328327E0,-4.782048E-1,-5.1694906E-1,-3.7466824E-1,-3.1395724E-1,-3.7515593E-1,-4.180599E-1,1.02289096E-1,2.585953E-1,-5.5106986E-1,3.3566065E-2,-1.7312324E-1,-2.4775608E-2,-4.33338E-1,-2.2596192E-1],"categories":[],"categories_nodes":[],"categories_segments":[],"categories_sizes":[],"default_left":[0,0,0,0,0,0,0,0,0,0,0,0,0,0,0,0,0,0,0,0,0,0,0,0,0,0,0,0,0],"id":8,"left_children":[1,3,5,7,9,11,13,15,-1,17,19,21,23,25,27,-1,-1,-1,-1,-1,-1,-1,-1,-1,-1,-1,-1,-1,-1],"loss_changes":[3.441961E4,5.106914E2,3.9521566E4,2.8818164E2,4.5566895E1,8.34334E3,8.286936E3,4.029297E0,0E0,2.7409668E0,4.404297E-1,5.051625E3,6.7122944E3,1.6372192E3,2.0969355E3,0E0,0E0,0E0,0E0,0E0,0E0,0E0,0E0,0E0,0E0,0E0,0E0,0E0,0E0],"parents":[2147483647,0,0,1,1,2,2,3,3,4,4,5,5,6,6,7,7,9,9,10,10,11,11,12,12,13,13,14,14],"right_children":[2,4,6,8,10,12,14,16,-1,18,20,22,24,26,28,-1,-1,-1,-1,-1,-1,-1,-1,-1,-1,-1,-1,-1,-1],"split_conditions":[4E0,6E0,1.9E1,3E0,1E0,7E0,2.2E1,2E0,-1.24638796E-1,7E0,7E0,1.1E1,7E0,4E0,5E0,-4.782048E-1,-5.1694906E-1,-3.7466824E-1,-3.1395724E-1,-3.7515593E-1,-4.180599E-1,1.02289096E-1,2.585953E-1,-5.5106986E-1,3.3566065E-2,-1.7312324E-1,-2.4775608E-2,-4.33338E-1,-2.2596192E-1],"split_indices":[1,0,1,1,1,0,1,0,0,0,0,1,1,0,0,0,0,0,0,0,0,0,0,0,0,0,0,0,0],"split_type":[0,0,0,0,0,0,0,0,0,0,0,0,0,0,0,0,0,0,0,0,0,0,0,0,0,0,0,0,0],"sum_hessian":[1.7205E4,1.523E3,1.5682E4,9.72E2,5.51E2,1.0558E4,5.124E3,9.51E2,2.1E1,1.97E2,3.54E2,8.636E3,1.922E3,3.131E3,1.993E3,2.78E2,6.73E2,4.8E1,1.49E2,1.66E2,1.88E2,3.435E3,5.201E3,2.21E2,1.701E3,1.216E3,1.915E3,1.126E3,8.67E2],"tree_param":{"num_deleted":"0","num_feature":"2","num_nodes":"29","size_leaf_vector":"1"}},{"base_weights":[-1.7266504E-3,-4.086559E0,3.9521816E-1,-4.483436E0,-3.379587E0,1.121195E0,-2.467401E0,-4.5562816E0,-1.12741485E-1,-2.9785838E0,-3.5937252E0,1.4632525E0,-4.284599E-1,-3.3593361E0,-1.401168E0,-4.6382165E-1,-4.2055455E-1,-3.3796605E-1,-2.8277084E-1,-3.3786502E-1,-3.7647507E-1,1.8921557E-1,2.6343134E-3,-3.8887352E-1,2.3251237E-2,-2.892036E-1,-4.8020956E-1,3.4954962E-3,-4.3034682E-1],"categories":[],"categories_nodes":[],"categories_segments":[],"categories_sizes":[],"default_left":[0,0,0,0,0,0,0,0,0,0,0,0,0,0,0,0,0,0,0,0,0,0,0,0,0,0,0,0,0],"id":9,"left_children":[1,3,5,7,9,11,13,15,-1,17,19,21,23,25,27,-1,-1,-1,-1,-1,-1,-1,-1,-1,-1,-1,-1,-1,-1],"loss_changes":[2.7900334E4,4.1245508E2,3.2595098E4,2.3273438E2,3.66958E1,6.6323477E3,3.0128496E3,7.8496094E0,0E0,2.4249268E0,3.383789E-1,6.3163555E3,5.176716E3,1.150457E3,6.0313325E3,0E0,0E0,0E0,0E0,0E0,0E0,0E0,0E0,0E0,0E0,0E0,0E0,0E0,0E0],"parents":[2147483647,0,0,1,1,2,2,3,3,4,4,5,5,6,6,7,7,9,9,10,10,11,11,12,12,13,13,14,14],"right_children":[2,4,6,8,10,12,14,16,-1,18,20,22,24,26,28,-1,-1,-1,-1,-1,-1,-1,-1,-1,-1,-1,-1,-1,-1],"split_conditions":[4E0,6E0,2.1E1,3E0,1E0,7E0,5E0,5E0,-1.12741485E-1,7E0,7E0,1.8E1,8E0,2.3E1,7E0,-4.6382165E-1,-4.2055455E-1,-3.3796605E-1,-2.8277084E-1,-3.3786502E-1,-3.7647507E-1,1.8921557E-1,2.6343134E-3,-3.8887352E-1,2.3251237E-2,-2.892036E-1,-4.8020956E-1,3.4954962E-3,-4.3034682E-1],"split_indices":[1,0,1,1,1,0,0,0,0,0,0,1,1,1,0,0,0,0,0,0,0,0,0,0,0,0,0,0,0],"split_type":[0,0,0,0,0,0,0,0,0,0,0,0,0,0,0,0,0,0,0,0,0,0,0,0,0,0,0,0,0],"sum_hessian":[1.7205E4,1.523E3,1.5682E4,9.72E2,5.51E2,1.251E4,3.172E3,9.51E2,2.1E1,1.97E2,3.54E2,1.0248E4,2.262E3,1.726E3,1.446E3,7.61E2,1.9E2,4.8E1,1.49E2,1.66E2,1.88E2,7.892E3,2.356E3,3.62E2,1.9E3,1.306E3,4.2E2,9.68E2,4.78E2],"tree_param":{"num_deleted":"0","num_feature":"2","num_nodes":"29","size_leaf_vector":"1"}},{"base_weights":[-1.7687957E-3,-3.679433E0,3.556094E-1,-4.036117E0,-3.0440469E0,1.1390877E0,-1.8021351E0,-4.1015825E0,-1.0197979E-1,-2.6838603E0,-3.236365E0,-6.2367505E-1,1.4240757E0,-8.688716E-1,-2.8238897E0,-3.8433984E-1,-4.2023715E-1,-3.048592E-1,-2.546822E-1,-3.2954854E-1,-2.7558586E-1,6.938992E-2,-4.2050514E-1,1.7213951E-1,1.1295086E-2,-1.9033682E-1,-2.5327459E-2,-4.3144283E-1,-2.2743678E-1],"categories":[],"categories_nodes":[],"categories_segments":[],"categories_sizes":[],"default_left":[0,0,0,0,0,0,0,0,0,0,0,0,0,0,0,0,0,0,0,0,0,0,0,0,0,0,0,0,0],"id":10,"left_children":[1,3,5,7,9,11,13,15,-1,17,19,21,23,25,27,-1,-1,-1,-1,-1,-1,-1,-1,-1,-1,-1,-1,-1,-1],"loss_changes":[2.2615445E4,3.3310156E2,2.6514885E4,1.8794922E2,2.9551758E1,5.781115E3,3.9815469E3,8.62207E0,0E0,2.1322021E0,1.0031738E0,7.5623223E3,3.861002E3,1.3909983E3,1.6234404E3,0E0,0E0,0E0,0E0,0E0,0E0,0E0,0E0,0E0,0E0,0E0,0E0,0E0,0E0],"parents":[2147483647,0,0,1,1,2,2,3,3,4,4,5,5,6,6,7,7,9,9,10,10,11,11,12,12,13,13,14,14],"right_children":[2,4,6,8,10,12,14,16,-1,18,20,22,24,26,28,-1,-1,-1,-1,-1,-1,-1,-1,-1,-1,-1,-1,-1,-1],"split_conditions":[4E0,6E0,2E1,3E0,1E0,7E0,2.2E1,2E0,-1.0197979E-1,7E0,3E0,6E0,1.8E1,4E0,3E0,-3.8433984E-1,-4.2023715E-1,-3.048592E-1,-2.546822E-1,-3.2954854E-1,-2.7558586E-1,6.938992E-2,-4.2050514E-1,1.7213951E-1,1.1295086E-2,-1.9033682E-1,-2.5327459E-2,-4.3144283E-1,-2.2743678E-1],"split_indices":[1,0,1,1,1,1,1,0,0,0,1,0,1,0,0,0,0,0,0,0,0,0,0,0,0,0,0,0,0],"split_type":[0,0,0,0,0,0,0,0,0,0,0,0,0,0,0,0,0,0,0,0,0,0,0,0,0,0,0,0,0],"sum_hessian":[1.7205E4,1.523E3,1.5682E4,9.72E2,5.51E2,1.1505E4,4.177E3,9.51E2,2.1E1,1.97E2,3.54E2,1.601E3,9.904E3,2.184E3,1.993E3,2.78E2,6.73E2,4.8E1,1.49E2,3.1E2,4.4E1,1.171E3,4.3E2,8.073E3,1.831E3,8.14E2,1.37E3,5.35E2,1.458E3],"tree_param":{"num_deleted":"0","num_feature":"2","num_nodes":"29","size_leaf_vector":"1"}},{"base_weights":[-1.7731275E-3,-3.3128488E0,3.1998172E-1,-3.6334372E0,-2.7417521E0,9.1125697E-1,-2.0114915E0,-3.6922693E0,-9.224532E-2,-2.4183E0,-2.9144332E0,1.2147171E0,-4.634997E-1,-1.4971606E0,-3.5175757E0,-3.7684143E-1,-3.3691558E-1,-2.7499542E-1,-2.2938375E-1,-2.7226657E-1,-3.0684587E-1,1.5617831E-1,5.196538E-3,-2.728415E-1,2.9352475E-2,-2.6982775E-1,-6.728385E-2,-3.0576512E-1,-5.8892024E-1],"categories":[],"categories_nodes":[],"categories_segments":[],"categories_sizes":[],"default_left":[0,0,0,0,0,0,0,0,0,0,0,0,0,0,0,0,0,0,0,0,0,0,0,0,0,0,0,0,0],"id":11,"left_children":[1,3,5,7,9,11,13,15,-1,17,19,21,23,25,27,-1,-1,-1,-1,-1,-1,-1,-1,-1,-1,-1,-1,-1,-1],"loss_changes":[1.833155E4,2.6906445E2,2.1621514E4,1.5178125E2,2.3783691E1,5.219951E3,2.452621E3,1.07265625E1,0E0,1.8652344E0,2.1311035E0,4.135919E3,3.880932E3,2.341768E3,8.6224414E2,0E0,0E0,0E0,0E0,0E0,0E0,0E0,0E0,0E0,0E0,0E0,0E0,0E0,0E0],"parents":[2147483647,0,0,1,1,2,2,3,3,4,4,5,5,6,6,7,7,9,9,10,10,11,11,12,12,13,13,14,14],"right_children":[2,4,6,8,10,12,14,16,-1,18,20,22,24,26,28,-1,-1,-1,-1,-1,-1,-1,-1,-1,-1,-1,-1,-1,-1],"split_conditions":[4E0,6E0,2.1E1,3E0,1E0,7E0,2.3E1,5E0,-9.224532E-2,7E0,7E0,1.8E1,1E1,4E0,7E0,-3.7684143E-1,-3.3691558E-1,-2.7499542E-1,-2.2938375E-1,-2.7226657E-1,-3.0684587E-1,1.5617831E-1,5.196538E-3,-2.728415E-1,2.9352475E-2,-2.6982775E-1,-6.728385E-2,-3.0576512E-1,-5.8892024E-1],"split_indices":[1,0,1,1,1,0,1,0,0,0,0,1,1,0,0,0,0,0,0,0,0,0,0,0,0,0,0,0,0],"split_type":[0,0,0,0,0,0,0,0,0,0,0,0,0,0,0,0,0,0,0,0,0,0,0,0,0,0,0,0,0],"sum_hessian":[1.7205E4,1.523E3,1.5682E4,9.72E2,5.51E2,1.251E4,3.172E3,9.51E2,2.1E1,1.97E2,3.54E2,1.0248E4,2.262E3,2.366E3,8.06E2,7.61E2,1.9E2,4.8E1,1.49E2,1.66E2,1.88E2,7.892E3,2.356E3,5.66E2,1.696E3,9.62E2,1.404E3,6.77E2,1.29E2],"tree_param":{"num_deleted":"0","num_feature":"2","num_nodes":"29","size_leaf_vector":"1"}},{"base_weights":[-1.781706E-3,-2.3391716E0,3.8222155E-1,-3.0351298E0,-1.2899529E0,1.2433084E0,-1.2400566E0,-3.3237922E0,-2.488197E0,-1.591301E-1,-3.0452852E0,6.7654043E-1,1.8311023E0,-5.604875E-1,-2.3068423E0,-3.0849454E-1,-3.4177306E-1,-2.1790175E-1,-2.6770374E-1,1.5529613E-2,-1.2430588E-1,-2.3811977E-1,-3.6631057E-1,9.481117E-2,-6.1112303E-2,2.1537326E-1,4.2367753E-2,-1.4539562E-1,-2.0571811E-2,-3.6007217E-1,-1.8299226E-1],"categories":[],"categories_nodes":[],"categories_segments":[],"categories_sizes":[],"default_left":[0,0,0,0,0,0,0,0,0,0,0,0,0,0,0,0,0,0,0,0,0,0,0,0,0,0,0,0,0,0,0],"id":12,"left_children":[1,3,5,7,9,11,13,15,17,19,21,23,25,27,29,-1,-1,-1,-1,-1,-1,-1,-1,-1,-1,-1,-1,-1,-1,-1,-1],"loss_changes":[1.5444403E4,1.76904E3,2.0646658E4,2.2207422E2,1.9249362E3,3.2152559E3,3.7141E3,1.0816406E1,2.3826416E1,2.0161507E2,1.4718677E2,1.7200168E3,2.150962E3,9.924676E2,1.2238623E3,0E0,0E0,0E0,0E0,0E0,0E0,0E0,0E0,0E0,0E0,0E0,0E0,0E0,0E0,0E0,0E0],"parents":[2147483647,0,0,1,1,2,2,3,3,4,4,5,5,6,6,7,7,8,8,9,9,10,10,11,11,12,12,13,13,14,14],"right_children":[2,4,6,8,10,12,14,16,18,20,22,24,26,28,30,-1,-1,-1,-1,-1,-1,-1,-1,-1,-1,-1,-1,-1,-1,-1,-1],"split_conditions":[5E0,3E0,1.9E1,6E0,5E0,1.3E1,2.2E1,2E0,1E0,4E0,7E0,7E0,1.8E1,3E0,3E0,-3.0849454E-1,-3.4177306E-1,-2.1790175E-1,-2.6770374E-1,1.5529613E-2,-1.2430588E-1,-2.3811977E-1,-3.6631057E-1,9.481117E-2,-6.1112303E-2,2.1537326E-1,4.2367753E-2,-1.4539562E-1,-2.0571811E-2,-3.6007217E-1,-1.8299226E-1],"split_indices":[1,1,1,0,0,1,1,0,1,0,0,0,1,0,0,0,0,0,0,0,0,0,0,0,0,0,0,0,0,0,0],"split_type":[0,0,0,0,0,0,0,0,0,0,0,0,0,0,0,0,0,0,0,0,0,0,0,0,0,0,0,0,0,0,0],"sum_hessian":[1.7205E4,2.427E3,1.4778E4,1.458E3,9.69E2,9.654E3,5.124E3,9.51E2,5.07E2,5.9E2,3.79E2,4.916E3,4.738E3,3.131E3,1.993E3,2.78E2,6.73E2,1.97E2,3.1E2,4.58E2,1.32E2,1.85E2,1.94E2,4.06E3,8.56E2,3.854E3,8.84E2,8.89E2,2.242E3,5.35E2,1.458E3],"tree_param":{"num_deleted":"0","num_feature":"2","num_nodes":"31","size_leaf_vector":"1"}},{"base_weights":[-1.7353866E-3,-2.106016E0,3.43971E-1,-2.7323952E0,-1.161693E0,1.1190077E0,-1.1161895E0,-2.992096E0,-2.2403333E0,-1.4340119E-1,-2.7423475E0,1.3677871E0,-5.5465573E-3,-7.753078E-1,-2.9391782E0,-3.062884E-1,-2.694021E-1,-1.962216E-1,-2.4101947E-1,1.3980034E-2,-1.1196877E-1,-2.144358E-1,-3.2986742E-1,8.5332446E-2,1.910654E-1,-1.8194251E-1,5.2111056E-2,-1.5658933E-1,-2.423347E-2,-2.5160727E-1,-5.123228E-1],"categories":[],"categories_nodes":[],"categories_segments":[],"categories_sizes":[],"default_left":[0,0,0,0,0,0,0,0,0,0,0,0,0,0,0,0,0,0,0,0,0,0,0,0,0,0,0,0,0,0,0],"id":13,"left_children":[1,3,5,7,9,11,13,15,17,19,21,23,25,27,29,-1,-1,-1,-1,-1,-1,-1,-1,-1,-1,-1,-1,-1,-1,-1,-1],"loss_changes":[1.2517458E4,1.432998E3,1.6726316E4,1.7974121E2,1.5608871E3,2.7011484E3,3.1825166E3,1.1834961E1,1.9269531E1,1.6355966E2,1.19343994E2,2.2063945E3,1.6727091E3,1.819478E3,7.328447E2,0E0,0E0,0E0,0E0,0E0,0E0,0E0,0E0,0E0,0E0,0E0,0E0,0E0,0E0,0E0,0E0],"parents":[2147483647,0,0,1,1,2,2,3,3,4,4,5,5,6,6,7,7,8,8,9,9,10,10,11,11,12,12,13,13,14,14],"right_children":[2,4,6,8,10,12,14,16,18,20,22,24,26,28,30,-1,-1,-1,-1,-1,-1,-1,-1,-1,-1,-1,-1,-1,-1,-1,-1],"split_conditions":[5E0,3E0,1.9E1,6E0,5E0,7E0,2.3E1,5E0,1E0,4E0,7E0,1.3E1,1E1,4E0,7E0,-3.062884E-1,-2.694021E-1,-1.962216E-1,-2.4101947E-1,1.3980034E-2,-1.1196877E-1,-2.144358E-1,-3.2986742E-1,8.5332446E-2,1.910654E-1,-1.8194251E-1,5.2111056E-2,-1.5658933E-1,-2.423347E-2,-2.5160727E-1,-5.123228E-1],"split_indices":[1,1,1,0,0,0,1,0,1,0,0,1,1,0,0,0,0,0,0,0,0,0,0,0,0,0,0,0,0,0,0],"split_type":[0,0,0,0,0,0,0,0,0,0,0,0,0,0,0,0,0,0,0,0,0,0,0,0,0,0,0,0,0,0,0],"sum_hessian":[1.7205E4,2.427E3,1.4778E4,1.458E3,9.69E2,9.654E3,5.124E3,9.51E2,5.07E2,5.9E2,3.79E2,7.905E3,1.749E3,4.318E3,8.06E2,7.61E2,1.9E2,1.97E2,3.1E2,4.58E2,1.32E2,1.85E2,1.94E2,4.06E3,3.845E3,3.93E2,1.356E3,1.738E3,2.58E3,6.77E2,1.29E2],"tree_param":{"num_deleted":"0","num_feature":"2","num_nodes":"31","size_leaf_vector":"1"}},{"base_weights":[-1.7043451E-3,-1.8960962E0,3.0952004E-1,-2.45985E0,-1.0461859E0,1.0071222E0,-1.0047547E0,-2.6934912E0,-2.017161E0,-1.292268E-1,-2.4695451E0,1.388517E0,3.8504213E-1,-4.2887864E-1,-1.9087862E0,-2.472366E-1,-2.781029E-1,-1.7669855E-1,-2.1699505E-1,1.2585078E-2,-1.0085606E-1,-1.9310753E-1,-2.9704985E-1,8.552908E-2,1.9535708E-1,-4.3051967E-1,6.36603E-2,-1.6575446E-2,-1.7351624E-1,-2.5291616E-1,-1.10109985E-1],"categories":[],"categories_nodes":[],"categories_segments":[],"categories_sizes":[],"default_left":[0,0,0,0,0,0,0,0,0,0,0,0,0,0,0,0,0,0,0,0,0,0,0,0,0,0,0,0,0,0,0],"id":14,"left_children":[1,3,5,7,9,11,13,15,17,19,21,23,25,27,29,-1,-1,-1,-1,-1,-1,-1,-1,-1,-1,-1,-1,-1,-1,-1,-1],"loss_changes":[1.0144916E4,1.1607793E3,1.3551002E4,1.4547266E2,1.2656881E3,2.2901934E3,2.6673076E3,1.1552246E1,1.5583496E1,1.3268724E2,9.676807E1,1.8016182E3,4.3340825E3,1.0762272E3,9.963457E2,0E0,0E0,0E0,0E0,0E0,0E0,0E0,0E0,0E0,0E0,0E0,0E0,0E0,0E0,0E0,0E0],"parents":[2147483647,0,0,1,1,2,2,3,3,4,4,5,5,6,6,7,7,8,8,9,9,10,10,11,11,12,12,13,13,14,14],"right_children":[2,4,6,8,10,12,14,16,18,20,22,24,26,28,30,-1,-1,-1,-1,-1,-1,-1,-1,-1,-1,-1,-1,-1,-1,-1,-1],"split_conditions":[5E0,3E0,1.9E1,6E0,5E0,6E0,2.2E1,2E0,1E0,4E0,7E0,1.3E1,7E0,7E0,5E0,-2.472366E-1,-2.781029E-1,-1.7669855E-1,-2.1699505E-1,1.2585078E-2,-1.0085606E-1,-1.9310753E-1,-2.9704985E-1,8.552908E-2,1.9535708E-1,-4.3051967E-1,6.36603E-2,-1.6575446E-2,-1.7351624E-1,-2.5291616E-1,-1.10109985E-1],"split_indices":[1,1,1,0,0,0,1,0,1,0,0,1,1,0,0,0,0,0,0,0,0,0,0,0,0,0,0,0,0,0,0],"split_type":[0,0,0,0,0,0,0,0,0,0,0,0,0,0,0,0,0,0,0,0,0,0,0,0,0,0,0,0,0,0,0],"sum_hessian":[1.7205E4,2.427E3,1.4778E4,1.458E3,9.69E2,9.654E3,5.124E3,9.51E2,5.07E2,5.9E2,3.79E2,5.984E3,3.67E3,3.131E3,1.993E3,2.78E2,6.73E2,1.97E2,3.1E2,4.58E2,1.32E2,1.85E2,1.94E2,3.08E3,2.904E3,1.86E2,3.484E3,2.607E3,5.24E2,1.126E3,8.67E2],"tree_param":{"num_deleted":"0","num_feature":"2","num_nodes":"31","size_leaf_vector":"1"}},{"base_weights":[-1.6578711E-3,-1.7071033E0,2.7852502E-1,-2.214495E0,-9.421634E-1,8.2271034E-1,-1.1024542E0,-2.4905205E0,-1.9099879E0,-1.1645321E-1,-2.2238808E0,1.0311285E0,-1.0546809E-1,-8.1633127E-1,-2.7307627E0,-2.2260153E-1,-2.6378477E-1,-1.5449232E-1,-2.1003404E-1,1.1329352E-2,-9.084629E-2,-1.7390059E-1,-2.674972E-1,1.2325028E-1,6.701761E-3,-1.6412382E-1,2.8447965E-2,-1.6962299E-1,6.516589E-2,-2.2591317E-1,-4.5055827E-1],"categories":[],"categories_nodes":[],"categories_segments":[],"categories_sizes":[],"default_left":[0,0,0,0,0,0,0,0,0,0,0,0,0,0,0,0,0,0,0,0,0,0,0,0,0,0,0,0,0,0,0],"id":15,"left_children":[1,3,5,7,9,11,13,15,17,19,21,23,25,27,29,-1,-1,-1,-1,-1,-1,-1,-1,-1,-1,-1,-1,-1,-1,-1,-1],"loss_changes":[8.222133E3,9.402788E2,1.1107453E4,1.1787451E2,1.0263184E3,2.0510571E3,1.9442856E3,2.3822754E1,4.525952E1,1.0764225E2,7.846289E1,1.6808428E3,1.1652693E3,4.5930366E3,5.12147E2,0E0,0E0,0E0,0E0,0E0,0E0,0E0,0E0,0E0,0E0,0E0,0E0,0E0,0E0,0E0,0E0],"parents":[2147483647,0,0,1,1,2,2,3,3,4,4,5,5,6,6,7,7,8,8,9,9,10,10,11,11,12,12,13,13,14,14],"right_children":[2,4,6,8,10,12,14,16,18,20,22,24,26,28,30,-1,-1,-1,-1,-1,-1,-1,-1,-1,-1,-1,-1,-1,-1,-1,-1],"split_conditions":[5E0,3E0,2E1,5E0,5E0,7E0,7E0,2E0,1E0,4E0,7E0,1.8E1,1E1,5E0,2.3E1,-2.2260153E-1,-2.6378477E-1,-1.5449232E-1,-2.1003404E-1,1.1329352E-2,-9.084629E-2,-1.7390059E-1,-2.674972E-1,1.2325028E-1,6.701761E-3,-1.6412382E-1,2.8447965E-2,-1.6962299E-1,6.516589E-2,-2.2591317E-1,-4.5055827E-1],"split_indices":[1,1,1,0,0,0,0,0,1,0,0,1,1,0,1,0,0,0,0,0,0,0,0,0,0,0,0,0,0,0,0],"split_type":[0,0,0,0,0,0,0,0,0,0,0,0,0,0,0,0,0,0,0,0,0,0,0,0,0,0,0,0,0,0,0],"sum_hessian":[1.7205E4,2.427E3,1.4778E4,1.458E3,9.69E2,1.0601E4,4.177E3,7.61E2,6.97E2,5.9E2,3.79E2,8.657E3,1.944E3,3.554E3,6.23E2,2.78E2,4.83E2,2.42E2,4.55E2,4.58E2,1.32E2,1.85E2,1.94E2,7.161E3,1.496E3,3.93E2,1.551E3,2.222E3,1.332E3,4.94E2,1.29E2],"tree_param":{"num_deleted":"0","num_feature":"2","num_nodes":"31","size_leaf_vector":"1"}},{"base_weights":[-1.6177662E-3,-1.536958E0,2.5061902E-1,-1.9936287E0,-8.484843E-1,6.6397834E-1,-1.26155E0,-2.1865654E0,-1.6281378E0,-1.0494273E-1,-2.0026543E0,8.9461213E-1,-4.9293697E-2,-9.839031E-1,-2.821042E0,-2.0042117E-1,-2.2588058E-1,-1.4374672E-1,-1.7442945E-1,1.0198856E-2,-8.183E-2,-1.5660402E-1,-2.4088469E-1,3.9808676E-2,1.5276913E-1,-5.0886817E-2,2.498995E-2,-1.8241383E-1,5.1462132E-2,-2.3533583E-1,-4.0584904E-1],"categories":[],"categories_nodes":[],"categories_segments":[],"categories_sizes":[],"default_left":[0,0,0,0,0,0,0,0,0,0,0,0,0,0,0,0,0,0,0,0,0,0,0,0,0,0,0,0,0,0,0],"id":16,"left_children":[1,3,5,7,9,11,13,15,17,19,21,23,25,27,29,-1,-1,-1,-1,-1,-1,-1,-1,-1,-1,-1,-1,-1,-1,-1,-1],"loss_changes":[6.663741E3,7.6168506E2,9.238734E3,9.932373E1,8.322181E2,1.9094492E3,1.3710957E3,8.01416E0,8.743652E0,8.732448E1,6.362036E1,2.7564673E3,3.9021906E2,3.3942476E3,2.676626E2,0E0,0E0,0E0,0E0,0E0,0E0,0E0,0E0,0E0,0E0,0E0,0E0,0E0,0E0,0E0,0E0],"parents":[2147483647,0,0,1,1,2,2,3,3,4,4,5,5,6,6,7,7,8,8,9,9,10,10,11,11,12,12,13,13,14,14],"right_children":[2,4,6,8,10,12,14,16,18,20,22,24,26,28,30,-1,-1,-1,-1,-1,-1,-1,-1,-1,-1,-1,-1,-1,-1,-1,-1],"split_conditions":[5E0,3E0,2.1E1,6E0,5E0,1.8E1,7E0,2E0,1E0,4E0,7E0,1.3E1,4E0,5E0,2.3E1,-2.0042117E-1,-2.2588058E-1,-1.4374672E-1,-1.7442945E-1,1.0198856E-2,-8.183E-2,-1.5660402E-1,-2.4088469E-1,3.9808676E-2,1.5276913E-1,-5.0886817E-2,2.498995E-2,-1.8241383E-1,5.1462132E-2,-2.3533583E-1,-4.0584904E-1],"split_indices":[1,1,1,0,0,1,0,0,1,0,0,1,0,0,1,0,0,0,0,0,0,0,0,0,0,0,0,0,0,0,0],"split_type":[0,0,0,0,0,0,0,0,0,0,0,0,0,0,0,0,0,0,0,0,0,0,0,0,0,0,0,0,0,0,0],"sum_hessian":[1.7205E4,2.427E3,1.4778E4,1.458E3,9.69E2,1.1606E4,3.172E3,9.51E2,5.07E2,5.9E2,3.79E2,8.77E3,2.836E3,2.694E3,4.78E2,2.78E2,6.73E2,1.97E2,3.1E2,4.58E2,1.32E2,1.85E2,1.94E2,4.916E3,3.854E3,1.118E3,1.718E3,1.726E3,9.68E2,3.49E2,1.29E2],"tree_param":{"num_deleted":"0","num_feature":"2","num_nodes":"31","size_leaf_vector":"1"}},{"base_weights":[-1.561539E-3,-1.3837619E0,2.2551635E-1,-1.7947761E0,-7.641193E-1,5.975951E-1,-1.1356381E0,-2.0258107E0,-1.5399863E0,-9.4569296E-2,-1.803435E0,7.843185E-1,-2.53042E-1,-7.794579E-1,-2.178938E0,-1.8045089E-1,-2.149194E-1,-1.2327013E-1,-1.7003597E-1,9.181237E-3,-7.370852E-2,-1.4102784E-1,-2.1691974E-1,1.0205566E-1,6.6150757E-3,-1.5172385E-1,4.0621185E-3,-2.407773E-1,-5.0608188E-2,-1.8925571E-1,-3.6557636E-1],"categories":[],"categories_nodes":[],"categories_segments":[],"categories_sizes":[],"default_left":[0,0,0,0,0,0,0,0,0,0,0,0,0,0,0,0,0,0,0,0,0,0,0,0,0,0,0,0,0,0,0],"id":17,"left_children":[1,3,5,7,9,11,13,15,17,19,21,23,25,27,29,-1,-1,-1,-1,-1,-1,-1,-1,-1,-1,-1,-1,-1,-1,-1,-1],"loss_changes":[5.4007104E3,6.169961E2,7.4856016E3,8.276416E1,6.7482697E2,1.8437837E3,1.1773975E3,1.6928223E1,3.2301636E1,7.08418E1,5.158557E1,1.6147427E3,7.7596985E2,1.0524332E3,3.3438916E2,0E0,0E0,0E0,0E0,0E0,0E0,0E0,0E0,0E0,0E0,0E0,0E0,0E0,0E0,0E0,0E0],"parents":[2147483647,0,0,1,1,2,2,3,3,4,4,5,5,6,6,7,7,8,8,9,9,10,10,11,11,12,12,13,13,14,14],"right_children":[2,4,6,8,10,12,14,16,18,20,22,24,26,28,30,-1,-1,-1,-1,-1,-1,-1,-1,-1,-1,-1,-1,-1,-1,-1,-1],"split_conditions":[5E0,3E0,2.1E1,5E0,5E0,7E0,2.3E1,2E0,1E0,4E0,7E0,1.8E1,1E1,2E0,7E0,-1.8045089E-1,-2.149194E-1,-1.2327013E-1,-1.7003597E-1,9.181237E-3,-7.370852E-2,-1.4102784E-1,-2.1691974E-1,1.0205566E-1,6.6150757E-3,-1.5172385E-1,4.0621185E-3,-2.407773E-1,-5.0608188E-2,-1.8925571E-1,-3.6557636E-1],"split_indices":[1,1,1,0,0,0,1,0,1,0,0,1,1,0,0,0,0,0,0,0,0,0,0,0,0,0,0,0,0,0,0],"split_type":[0,0,0,0,0,0,0,0,0,0,0,0,0,0,0,0,0,0,0,0,0,0,0,0,0,0,0,0,0,0,0],"sum_hessian":[1.7205E4,2.427E3,1.4778E4,1.458E3,9.69E2,1.1606E4,3.172E3,7.61E2,6.97E2,5.9E2,3.79E2,9.517E3,2.089E3,2.366E3,8.06E2,2.78E2,4.83E2,2.42E2,4.55E2,4.58E2,1.32E2,1.85E2,1.94E2,7.161E3,2.356E3,3.93E2,1.696E3,3.39E2,2.027E3,6.77E2,1.29E2],"tree_param":{"num_deleted":"0","num_feature":"2","num_nodes":"31","size_leaf_vector":"1"}},{"base_weights":[-1.521686E-3,-1.2458434E0,2.0290451E-1,-1.6157705E0,-6.881429E-1,5.378317E-1,-1.0223409E0,-1.7748967E0,-1.3143848E0,-8.522147E-2,-1.6240335E0,7.0589757E-1,-2.278087E-1,-7.7622145E-1,-2.4049492E0,-1.8647157E-1,-1.6457373E-1,-1.17179886E-1,-1.4009367E-1,-6.360943E-2,1.12075275E-2,-1.2700091E-1,-1.95339E-1,9.185144E-2,5.953888E-3,-1.3658997E-1,3.6561177E-3,-1.5202032E-1,5.5054095E-2,-2.0682307E-1,-3.2929993E-1],"categories":[],"categories_nodes":[],"categories_segments":[],"categories_sizes":[],"default_left":[0,0,0,0,0,0,0,0,0,0,0,0,0,0,0,0,0,0,0,0,0,0,0,0,0,0,0,0,0,0,0],"id":18,"left_children":[1,3,5,7,9,11,13,15,17,19,21,23,25,27,29,-1,-1,-1,-1,-1,-1,-1,-1,-1,-1,-1,-1,-1,-1,-1,-1],"loss_changes":[4.376976E3,4.9980542E2,6.065379E3,6.763818E1,5.4720197E2,1.4937266E3,1.077863E3,7.975342E0,4.6276245E0,6.430437E1,4.1827393E1,1.3079727E3,6.288828E2,2.6610364E3,1.3642114E2,0E0,0E0,0E0,0E0,0E0,0E0,0E0,0E0,0E0,0E0,0E0,0E0,0E0,0E0,0E0,0E0],"parents":[2147483647,0,0,1,1,2,2,3,3,4,4,5,5,6,6,7,7,8,8,9,9,10,10,11,11,12,12,13,13,14,14],"right_children":[2,4,6,8,10,12,14,16,18,20,22,24,26,28,30,-1,-1,-1,-1,-1,-1,-1,-1,-1,-1,-1,-1,-1,-1,-1,-1],"split_conditions":[5E0,3E0,2.1E1,6E0,5E0,7E0,7E0,4E0,1E0,2E0,7E0,1.8E1,1E1,5E0,2.3E1,-1.8647157E-1,-1.6457373E-1,-1.17179886E-1,-1.4009367E-1,-6.360943E-2,1.12075275E-2,-1.2700091E-1,-1.95339E-1,9.185144E-2,5.953888E-3,-1.3658997E-1,3.6561177E-3,-1.5202032E-1,5.5054095E-2,-2.0682307E-1,-3.2929993E-1],"split_indices":[1,1,1,0,0,0,0,0,1,0,0,1,1,0,1,0,0,0,0,0,0,0,0,0,0,0,0,0,0,0,0],"split_type":[0,0,0,0,0,0,0,0,0,0,0,0,0,0,0,0,0,0,0,0,0,0,0,0,0,0,0,0,0,0,0],"sum_hessian":[1.7205E4,2.427E3,1.4778E4,1.458E3,9.69E2,1.1606E4,3.172E3,9.51E2,5.07E2,5.9E2,3.79E2,9.517E3,2.089E3,2.694E3,4.78E2,5.53E2,3.98E2,1.97E2,3.1E2,1.55E2,4.35E2,1.85E2,1.94E2,7.161E3,2.356E3,3.93E2,1.696E3,1.726E3,9.68E2,3.49E2,1.29E2],"tree_param":{"num_deleted":"0","num_feature":"2","num_nodes":"31","size_leaf_vector":"1"}},{"base_weights":[-1.465764E-3,-1.1216639E0,1.8256852E-1,-1.4546105E0,-6.19715E-1,4.840451E-1,-9.203061E-1,-1.6434991E0,-1.2463185E0,9.673302E-2,-1.260789E0,6.353176E-1,-2.0509164E-1,-6.0379934E-1,-1.8475069E0,-1.4389016E-1,-1.758043E-1,-9.8446436E-2,-1.383126E-1,-5.728928E-2,4.400386E-2,-9.5128536E-2,-1.7590524E-1,8.266751E-2,5.3587635E-3,-1.22965634E-1,3.2906935E-3,-1.524423E-1,-2.3942562E-2,-1.630277E-1,-2.9662323E-1],"categories":[],"categories_nodes":[],"categories_segments":[],"categories_sizes":[],"default_left":[0,0,0,0,0,0,0,0,0,0,0,0,0,0,0,0,0,0,0,0,0,0,0,0,0,0,0,0,0,0,0],"id":19,"left_children":[1,3,5,7,9,11,13,15,17,19,21,23,25,27,29,-1,-1,-1,-1,-1,-1,-1,-1,-1,-1,-1,-1,-1,-1,-1,-1],"loss_changes":[3.547306E3,4.0487085E2,4.914328E3,5.5354736E1,4.4563922E2,1.2101306E3,9.3004956E2,1.5328125E1,2.3643188E1,1.057699E2,7.7284424E1,1.0594841E3,5.0967642E2,7.9364777E2,1.9128174E2,0E0,0E0,0E0,0E0,0E0,0E0,0E0,0E0,0E0,0E0,0E0,0E0,0E0,0E0,0E0,0E0],"parents":[2147483647,0,0,1,1,2,2,3,3,4,4,5,5,6,6,7,7,8,8,9,9,10,10,11,11,12,12,13,13,14,14],"right_children":[2,4,6,8,10,12,14,16,18,20,22,24,26,28,30,-1,-1,-1,-1,-1,-1,-1,-1,-1,-1,-1,-1,-1,-1,-1,-1],"split_conditions":[5E0,3E0,2.1E1,5E0,4E0,7E0,2.3E1,2E0,1E0,2E0,7E0,1.8E1,1E1,3E0,7E0,-1.4389016E-1,-1.758043E-1,-9.8446436E-2,-1.383126E-1,-5.728928E-2,4.400386E-2,-9.5128536E-2,-1.7590524E-1,8.266751E-2,5.3587635E-3,-1.22965634E-1,3.2906935E-3,-1.524423E-1,-2.3942562E-2,-1.630277E-1,-2.9662323E-1],"split_indices":[1,1,1,0,0,0,1,0,1,0,0,1,1,0,0,0,0,0,0,0,0,0,0,0,0,0,0,0,0,0,0],"split_type":[0,0,0,0,0,0,0,0,0,0,0,0,0,0,0,0,0,0,0,0,0,0,0,0,0,0,0,0,0,0,0],"sum_hessian":[1.7205E4,2.427E3,1.4778E4,1.458E3,9.69E2,1.1606E4,3.172E3,7.61E2,6.97E2,4.58E2,5.11E2,9.517E3,2.089E3,2.366E3,8.06E2,2.78E2,4.83E2,2.42E2,4.55E2,1.55E2,3.03E2,3.17E2,1.94E2,7.161E3,2.356E3,3.93E2,1.696E3,6.7E2,1.696E3,6.77E2,1.29E2],"tree_param":{"num_deleted":"0","num_feature":"2","num_nodes":"31","size_leaf_vector":"1"}},{"base_weights":[-1.4070912E-3,-9.463817E-1,1.7741258E-1,-3.5815164E-1,-1.3595296E0,6.345756E-1,-4.6632746E-1,-7.921333E-1,3.304745E0,-1.1646166E0,-2.7909472E0,2.4860711E-1,1.22133E0,-2.8058E-1,-1.6633257E0,-1.4937966E-1,1.3080838E-2,4.3260726E-1,2.5637755E-1,-1.05037354E-1,-1.1984693E-1,-1.9246021E-1,-5.349887E-1,4.0768206E-2,-4.7737814E-2,2.0637003E-1,5.9132755E-2,-9.681683E-2,-1.5682277E-3,-2.0641032E-1,-1.0563897E-1],"categories":[],"categories_nodes":[],"categories_segments":[],"categories_sizes":[],"default_left":[0,0,0,0,0,0,0,0,0,0,0,0,0,0,0,0,0,0,0,0,0,0,0,0,0,0,0,0,0,0,0],"id":20,"left_children":[1,3,5,7,9,11,13,15,17,19,21,23,25,27,29,-1,-1,-1,-1,-1,-1,-1,-1,-1,-1,-1,-1,-1,-1,-1,-1],"loss_changes":[2.9076384E3,6.649182E2,4.258438E3,1.8004893E3,4.4538477E2,1.9158484E3,1.3355704E3,6.5556055E2,7.97218E1,4.2213135E0,4.1535327E2,5.89751E2,1.7803237E3,9.4766235E2,1.9411914E2,0E0,0E0,0E0,0E0,0E0,0E0,0E0,0E0,0E0,0E0,0E0,0E0,0E0,0E0,0E0,0E0],"parents":[2147483647,0,0,1,1,2,2,3,3,4,4,5,5,6,6,7,7,8,8,9,9,10,10,11,11,12,12,13,13,14,14],"right_children":[2,4,6,8,10,12,14,16,18,20,22,24,26,28,30,-1,-1,-1,-1,-1,-1,-1,-1,-1,-1,-1,-1,-1,-1,-1,-1],"split_conditions":[6E0,4E0,1.8E1,5E0,5E0,1.4E1,2.3E1,4E0,3E0,1E0,6E0,7E0,5E0,3E0,6E0,-1.4937966E-1,1.3080838E-2,4.3260726E-1,2.5637755E-1,-1.05037354E-1,-1.1984693E-1,-1.9246021E-1,-5.349887E-1,4.0768206E-2,-4.7737814E-2,2.0637003E-1,5.9132755E-2,-9.681683E-2,-1.5682277E-3,-2.0641032E-1,-1.0563897E-1],"split_indices":[1,0,1,1,1,1,1,1,0,1,0,0,0,0,0,0,0,0,0,0,0,0,0,0,0,0,0,0,0,0,0],"split_type":[0,0,0,0,0,0,0,0,0,0,0,0,0,0,0,0,0,0,0,0,0,0,0,0,0,0,0,0,0,0,0],"sum_hessian":[1.7205E4,2.737E3,1.4468E4,1.13E3,1.607E3,8.46E3,6.008E3,1.011E3,1.19E2,1.416E3,1.91E2,5.104E3,3.356E3,5.202E3,8.06E2,5.74E2,4.37E2,4.8E1,7.1E1,3.31E2,1.085E3,1.44E2,4.7E1,4.187E3,9.17E2,1.435E3,1.921E3,1.446E3,3.756E3,4.84E2,3.22E2],"tree_param":{"num_deleted":"0","num_feature":"2","num_nodes":"31","size_leaf_vector":"1"}},{"base_weights":[-1.2984145E-3,1.3274512E-1,-1.023968E0,-7.8536934E-1,3.7006623E-1,-1.8394742E0,-7.236696E-1,-4.1585496E-1,-1.5913302E0,6.1361104E-1,-1.196626E-1,-1.677104E0,-2.0914404E-1,-3.7598696E-1,-2.094268E0,-1.2924671E-1,3.1226749E-2,-1.0382618E-1,-3.9370582E-1,2.679157E-2,1.09927595E-1,4.9068322E-3,-9.69988E-2,-1.9383706E-1,-1.433127E-1,-1.0475665E-1,3.173076E-2,-1.7113899E-1,-2.5670645E-1],"categories":[],"categories_nodes":[],"categories_segments":[],"categories_sizes":[],"default_left":[0,0,0,0,0,0,0,0,0,0,0,0,0,0,0,0,0,0,0,0,0,0,0,0,0,0,0,0,0],"id":21,"left_children":[1,3,5,7,9,11,13,15,17,19,21,23,-1,25,27,-1,-1,-1,-1,-1,-1,-1,-1,-1,-1,-1,-1,-1,-1],"loss_changes":[2.3587727E3,3.31502E3,4.8699E2,9.3000757E2,1.4419397E3,1.8421143E1,6.9447455E2,1.3688779E3,1.269908E3,1.3552666E3,5.762479E2,1.8320984E1,0E0,5.4275916E2,4.900879E1,0E0,0E0,0E0,0E0,0E0,0E0,0E0,0E0,0E0,0E0,0E0,0E0,0E0,0E0],"parents":[2147483647,0,0,1,1,2,2,3,3,4,4,5,5,6,6,7,7,8,8,9,9,10,10,11,11,13,13,14,14],"right_children":[2,4,6,8,10,12,14,16,18,20,22,24,-1,26,28,-1,-1,-1,-1,-1,-1,-1,-1,-1,-1,-1,-1,-1,-1],"split_conditions":[2.2E1,7E0,3E0,6E0,1.8E1,2.3E1,7E0,4E0,5E0,1.4E1,7E0,2E0,-2.0914404E-1,5E0,2.3E1,-1.2924671E-1,3.1226749E-2,-1.0382618E-1,-3.9370582E-1,2.679157E-2,1.09927595E-1,4.9068322E-3,-9.69988E-2,-1.9383706E-1,-1.433127E-1,-1.0475665E-1,3.173076E-2,-1.7113899E-1,-2.5670645E-1],"split_indices":[1,1,0,0,1,1,0,1,1,1,0,0,0,0,1,0,0,0,0,0,0,0,0,0,0,0,0,0,0],"split_type":[0,0,0,0,0,0,0,0,0,0,0,0,0,0,0,0,0,0,0,0,0,0,0,0,0,0,0,0,0],"sum_hessian":[1.7205E4,1.5212E4,1.993E3,3.124E3,1.2088E4,5.35E2,1.458E3,2.143E3,9.81E2,8.073E3,4.015E3,3.3E2,2.05E2,1.164E3,2.94E2,9.72E2,1.171E3,7.95E2,1.86E2,4.717E3,3.356E3,3.351E3,6.64E2,1.56E2,1.74E2,5.91E2,5.73E2,1.65E2,1.29E2],"tree_param":{"num_deleted":"0","num_feature":"2","num_nodes":"29","size_leaf_vector":"1"}},{"base_weights":[-1.2613124E-3,-7.796283E-1,1.4603083E-1,-2.716043E-1,-1.1364663E0,4.3184513E-1,-5.580732E-1,-6.53231E-1,2.9490445E0,-9.586747E-1,-2.4426854E0,5.614293E-1,-1.2455623E-1,-3.5454148E-1,-1.7167228E0,-1.240985E-1,5.7594613E-3,3.871704E-1,2.2801645E-1,-8.318792E-2,-9.965546E-2,-1.7644802E-1,-4.440541E-1,1.261198E-2,7.3643856E-2,-1.03488125E-1,1.0662459E-2,-9.358739E-2,6.1519336E-2,-1.556832E-1,-2.3123328E-1],"categories":[],"categories_nodes":[],"categories_segments":[],"categories_sizes":[],"default_left":[0,0,0,0,0,0,0,0,0,0,0,0,0,0,0,0,0,0,0,0,0,0,0,0,0,0,0,0,0,0,0],"id":22,"left_children":[1,3,5,7,9,11,13,15,17,19,21,23,25,27,29,-1,-1,-1,-1,-1,-1,-1,-1,-1,-1,-1,-1,-1,-1,-1,-1],"loss_changes":[1.9727358E3,4.9604224E2,2.9120261E3,1.3920223E3,3.710913E2,7.4213184E2,9.8465564E2,4.228756E2,6.522974E1,5.9766846E0,2.5231628E2,6.358843E2,4.0943497E2,2.0046653E3,5.5825195E1,0E0,0E0,0E0,0E0,0E0,0E0,0E0,0E0,0E0,0E0,0E0,0E0,0E0,0E0,0E0,0E0],"parents":[2147483647,0,0,1,1,2,2,3,3,4,4,5,5,6,6,7,7,8,8,9,9,10,10,11,11,12,12,13,13,14,14],"right_children":[2,4,6,8,10,12,14,16,18,20,22,24,26,28,30,-1,-1,-1,-1,-1,-1,-1,-1,-1,-1,-1,-1,-1,-1,-1,-1],"split_conditions":[6E0,4E0,2E1,5E0,5E0,7E0,7E0,3E0,3E0,1E0,6E0,1.1E1,1E1,5E0,2.3E1,-1.240985E-1,5.7594613E-3,3.871704E-1,2.2801645E-1,-8.318792E-2,-9.965546E-2,-1.7644802E-1,-4.440541E-1,1.261198E-2,7.3643856E-2,-1.03488125E-1,1.0662459E-2,-9.358739E-2,6.1519336E-2,-1.556832E-1,-2.3123328E-1],"split_indices":[1,0,1,1,1,0,0,1,0,1,0,1,1,0,1,0,0,0,0,0,0,0,0,0,0,0,0,0,0,0,0],"split_type":[0,0,0,0,0,0,0,0,0,0,0,0,0,0,0,0,0,0,0,0,0,0,0,0,0,0,0,0,0,0,0],"sum_hessian":[1.7205E4,2.737E3,1.4468E4,1.13E3,1.607E3,1.0291E4,4.177E3,1.011E3,1.19E2,1.416E3,1.91E2,8.347E3,1.944E3,3.554E3,6.23E2,5.53E2,4.58E2,4.8E1,7.1E1,3.31E2,1.085E3,1.44E2,4.7E1,2.394E3,5.953E3,3.93E2,1.551E3,2.222E3,1.332E3,4.94E2,1.29E2],"tree_param":{"num_deleted":"0","num_feature":"2","num_nodes":"31","size_leaf_vector":"1"}},{"base_weights":[-1.1778469E-3,1.1126986E-1,-8.590844E-1,-6.385918E-1,3.050995E-1,-1.5631331E0,-5.9984577E-1,-3.215282E-1,-1.3301864E0,5.112203E-1,-1.09373726E-1,-1.4171076E0,-1.7901786E-1,-3.212324E-1,-1.6980991E0,-7.04182E-2,8.995563E-2,-8.391112E-2,-3.4134248E-1,2.1403339E-2,9.2874095E-2,-6.197927E-2,8.72633E-3,-1.6527769E-1,-1.19758084E-1,-6.54158E-2,5.4866698E-2,-1.3865364E-1,-2.0828786E-1],"categories":[],"categories_nodes":[],"categories_segments":[],"categories_sizes":[],"default_left":[0,0,0,0,0,0,0,0,0,0,0,0,0,0,0,0,0,0,0,0,0,0,0,0,0,0,0,0,0],"id":23,"left_children":[1,3,5,7,9,11,13,15,17,19,21,23,-1,25,27,-1,-1,-1,-1,-1,-1,-1,-1,-1,-1,-1,-1,-1,-1],"loss_changes":[1.6599519E3,2.2113347E3,3.630005E2,6.8482056E2,1.0328379E3,1.5233887E1,4.458911E2,1.0024232E3,1.0017479E3,1.0016367E3,4.0312903E2,1.5145142E1,0E0,3.377566E2,3.2477478E1,0E0,0E0,0E0,0E0,0E0,0E0,0E0,0E0,0E0,0E0,0E0,0E0,0E0,0E0],"parents":[2147483647,0,0,1,1,2,2,3,3,4,4,5,5,6,6,7,7,8,8,9,9,10,10,11,11,13,13,14,14],"right_children":[2,4,6,8,10,12,14,16,18,20,22,24,-1,26,28,-1,-1,-1,-1,-1,-1,-1,-1,-1,-1,-1,-1,-1,-1],"split_conditions":[2.2E1,7E0,3E0,6E0,1.8E1,2.3E1,7E0,5E0,5E0,1.4E1,3E0,2E0,-1.7901786E-1,6E0,2.3E1,-7.04182E-2,8.995563E-2,-8.391112E-2,-3.4134248E-1,2.1403339E-2,9.2874095E-2,-6.197927E-2,8.72633E-3,-1.6527769E-1,-1.19758084E-1,-6.54158E-2,5.4866698E-2,-1.3865364E-1,-2.0828786E-1],"split_indices":[1,1,0,0,1,1,0,1,1,1,0,0,0,0,1,0,0,0,0,0,0,0,0,0,0,0,0,0,0],"split_type":[0,0,0,0,0,0,0,0,0,0,0,0,0,0,0,0,0,0,0,0,0,0,0,0,0,0,0,0,0],"sum_hessian":[1.7205E4,1.5212E4,1.993E3,3.124E3,1.2088E4,5.35E2,1.458E3,2.143E3,9.81E2,8.073E3,4.015E3,3.3E2,2.05E2,1.164E3,2.94E2,1.632E3,5.11E2,7.95E2,1.86E2,4.717E3,3.356E3,1.116E3,2.899E3,1.56E2,1.74E2,8.42E2,3.22E2,1.65E2,1.29E2],"tree_param":{"num_deleted":"0","num_feature":"2","num_nodes":"29","size_leaf_vector":"1"}},{"base_weights":[-1.1281372E-3,1.0011989E-1,-7.7358806E-1,-6.3822126E-1,2.621492E-1,-1.4076856E0,-5.401063E-1,-1.9052254E-1,-9.5271695E-1,3.944467E-1,-3.3155933E-1,-1.276258E0,-1.6120295E-1,-2.8911832E-1,-1.5294653E0,-5.1767614E-2,2.5700602E-1,-7.849979E-2,-2.1855573E-1,5.6642324E-2,4.2782743E-3,-1.4783337E-2,-1.4134243E-1,-1.4885521E-1,-1.0785069E-1,-7.842519E-2,2.2204582E-2,-1.2487179E-1,-1.876193E-1],"categories":[],"categories_nodes":[],"categories_segments":[],"categories_sizes":[],"default_left":[0,0,0,0,0,0,0,0,0,0,0,0,0,0,0,0,0,0,0,0,0,0,0,0,0,0,0,0,0],"id":24,"left_children":[1,3,5,7,9,11,13,15,17,19,21,23,-1,25,27,-1,-1,-1,-1,-1,-1,-1,-1,-1,-1,-1,-1,-1,-1],"loss_changes":[1.3457595E3,1.8201431E3,2.9445178E2,3.8532715E2,9.8007227E2,1.23376465E1,3.618526E2,1.0227755E3,3.3077197E2,6.170325E2,4.517865E2,1.2290405E1,0E0,2.950293E2,2.6373291E1,0E0,0E0,0E0,0E0,0E0,0E0,0E0,0E0,0E0,0E0,0E0,0E0,0E0,0E0],"parents":[2147483647,0,0,1,1,2,2,3,3,4,4,5,5,6,6,7,7,8,8,9,9,10,10,11,11,13,13,14,14],"right_children":[2,4,6,8,10,12,14,16,18,20,22,24,-1,26,28,-1,-1,-1,-1,-1,-1,-1,-1,-1,-1,-1,-1,-1,-1],"split_conditions":[2.2E1,6E0,3E0,4E0,7E0,2.3E1,7E0,5E0,5E0,1.8E1,2E1,2E0,-1.6120295E-1,5E0,2.3E1,-5.1767614E-2,2.5700602E-1,-7.849979E-2,-2.1855573E-1,5.6642324E-2,4.2782743E-3,-1.4783337E-2,-1.4134243E-1,-1.4885521E-1,-1.0785069E-1,-7.842519E-2,2.2204582E-2,-1.2487179E-1,-1.876193E-1],"split_indices":[1,1,0,0,0,1,0,1,1,1,1,0,0,0,1,0,0,0,0,0,0,0,0,0,0,0,0,0,0],"split_type":[0,0,0,0,0,0,0,0,0,0,0,0,0,0,0,0,0,0,0,0,0,0,0,0,0,0,0,0,0],"sum_hessian":[1.7205E4,1.5212E4,1.993E3,2.737E3,1.2475E4,5.35E2,1.458E3,1.13E3,1.607E3,1.0202E4,2.273E3,3.3E2,2.05E2,1.164E3,2.94E2,1.011E3,1.19E2,1.416E3,1.91E2,6.851E3,3.351E3,1.944E3,3.29E2,1.56E2,1.74E2,5.91E2,5.73E2,1.65E2,1.29E2],"tree_param":{"num_deleted":"0","num_feature":"2","num_nodes":"29","size_leaf_vector":"1"}},{"base_weights":[-1.0719702E-3,5.528198E-2,-1.1463058E0,-4.2395592E-1,2.2204766E-1,-1.4412675E0,-6.9985783E-1,3.1938934E-4,-9.275639E-1,5.0594515E-1,-1.5803462E-1,-1.3715898E0,-1.8703914E-1,-3.2741607E-3,-1.690017E-1,-9.5207594E-2,4.9189832E-2,-1.0304717E-1,-1.5977615E-2,2.3787117E-2,7.939919E-2,-5.839036E-2,1.2579228E-2,-1.4516091E-1,-1.2889251E-1],"categories":[],"categories_nodes":[],"categories_segments":[],"categories_sizes":[],"default_left":[0,0,0,0,0,0,0,0,0,0,0,0,0,0,0,0,0,0,0,0,0,0,0,0,0],"id":25,"left_children":[1,3,5,7,9,11,13,15,17,19,21,23,-1,-1,-1,-1,-1,-1,-1,-1,-1,-1,-1,-1,-1],"loss_changes":[1.110512E3,1.3107893E3,1.0526123E2,9.046724E2,1.3129529E3,1.1936279E1,2.1330273E2,1.0768082E3,1.5280139E2,5.3763367E2,6.28976E2,9.1381836E-1,0E0,0E0,0E0,0E0,0E0,0E0,0E0,0E0,0E0,0E0,0E0,0E0,0E0],"parents":[2147483647,0,0,1,1,2,2,3,3,4,4,5,5,6,6,7,7,8,8,9,9,10,10,11,11],"right_children":[2,4,6,8,10,12,14,16,18,20,22,24,-1,-1,-1,-1,-1,-1,-1,-1,-1,-1,-1,-1,-1],"split_conditions":[2.3E1,9E0,6E0,5E0,1.8E1,5E0,7E0,4E0,8E0,1.4E1,4E0,3E0,-1.8703914E-1,-3.2741607E-3,-1.690017E-1,-9.5207594E-2,4.9189832E-2,-1.0304717E-1,-1.5977615E-2,2.3787117E-2,7.939919E-2,-5.839036E-2,1.2579228E-2,-1.4516091E-1,-1.2889251E-1],"split_indices":[1,1,0,0,1,0,0,1,1,1,0,0,0,0,0,0,0,0,0,0,0,0,0,0,0],"split_type":[0,0,0,0,0,0,0,0,0,0,0,0,0,0,0,0,0,0,0,0,0,0,0,0,0],"sum_hessian":[1.7205E4,1.6399E4,8.06E2,4.233E3,1.2166E4,4.84E2,3.22E2,2.298E3,1.935E3,6.964E3,5.202E3,4.2E2,6.4E1,1.93E2,1.29E2,7.82E2,1.516E3,1.706E3,2.29E2,3.608E3,3.356E3,2.08E3,3.122E3,2.05E2,2.15E2],"tree_param":{"num_deleted":"0","num_feature":"2","num_nodes":"25","size_leaf_vector":"1"}},{"base_weights":[-1.0076714E-3,8.267545E-2,-6.394582E-1,-3.8159937E-1,2.6169702E-1,-1.176229E0,-4.4182378E-1,2.6725768E-4,-8.348689E-1,4.5536578E-1,-7.425029E-2,-1.091194E0,-1.307153E-1,-2.2142573E-1,-1.3107116E0,-8.5698985E-2,4.427406E-2,-5.0765254E-2,-1.0373457E-1,1.7536847E-2,6.812065E-2,5.891708E-3,-7.453822E-2,-1.2826268E-1,-9.1321625E-2,1.5593055E-2,-7.738285E-2,-1.137102E-1,-1.5223154E-1],"categories":[],"categories_nodes":[],"categories_segments":[],"categories_sizes":[],"default_left":[0,0,0,0,0,0,0,0,0,0,0,0,0,0,0,0,0,0,0,0,0,0,0,0,0,0,0,0,0],"id":26,"left_children":[1,3,5,7,9,11,13,15,17,19,21,23,-1,25,27,-1,-1,-1,-1,-1,-1,-1,-1,-1,-1,-1,-1,-1,-1],"loss_changes":[9.193271E2,1.2645316E3,2.1101251E2,7.3285693E2,7.1442004E2,4.5410156E0,2.7911002E2,8.724209E2,1.277406E2,4.403109E2,3.589654E2,1.010611E1,0E0,2.4296796E2,9.106262E0,0E0,0E0,0E0,0E0,0E0,0E0,0E0,0E0,0E0,0E0,0E0,0E0,0E0,0E0],"parents":[2147483647,0,0,1,1,2,2,3,3,4,4,5,5,6,6,7,7,8,8,9,9,10,10,11,11,13,13,14,14],"right_children":[2,4,6,8,10,12,14,16,18,20,22,24,-1,26,28,-1,-1,-1,-1,-1,-1,-1,-1,-1,-1,-1,-1,-1,-1],"split_conditions":[2.2E1,9E0,3E0,5E0,1.8E1,2.3E1,7E0,4E0,4E0,1.3E1,7E0,2E0,-1.307153E-1,2.3E1,2.3E1,-8.5698985E-2,4.427406E-2,-5.0765254E-2,-1.0373457E-1,1.7536847E-2,6.812065E-2,5.891708E-3,-7.453822E-2,-1.2826268E-1,-9.1321625E-2,1.5593055E-2,-7.738285E-2,-1.137102E-1,-1.5223154E-1],"split_indices":[1,1,0,0,1,1,0,1,1,1,0,0,0,1,1,0,0,0,0,0,0,0,0,0,0,0,0,0,0],"split_type":[0,0,0,0,0,0,0,0,0,0,0,0,0,0,0,0,0,0,0,0,0,0,0,0,0,0,0,0,0],"sum_hessian":[1.7205E4,1.5212E4,1.993E3,4.233E3,1.0979E4,5.35E2,1.458E3,2.298E3,1.935E3,6.964E3,4.015E3,3.3E2,2.05E2,1.164E3,2.94E2,7.82E2,1.516E3,7.41E2,1.194E3,3.11E3,3.854E3,3.351E3,6.64E2,1.56E2,1.74E2,6.92E2,4.72E2,1.65E2,1.29E2],"tree_param":{"num_deleted":"0","num_feature":"2","num_nodes":"29","size_leaf_vector":"1"}},{"base_weights":[-9.566396E-4,9.862423E-2,-4.4139692E-1,-3.434855E-1,2.8960413E-1,-2.8789708E-1,-1.3041123E0,2.2275357E-4,-7.514617E-1,3.8812965E-1,-1.3208398E-1,-5.9831107E-1,8.8602245E-1,-1.4941078E-1,-1.1805419E0,-7.7140026E-2,3.9849605E-2,-8.468046E-2,-4.058381E-3,5.2425314E-2,6.518423E-3,7.6108254E-3,-5.097843E-2,-1.254759E-1,-4.3220956E-2,1.3221072E-1,4.7499673E-3,-1.0240766E-1,-1.3712548E-1],"categories":[],"categories_nodes":[],"categories_segments":[],"categories_sizes":[],"default_left":[0,0,0,0,0,0,0,0,0,0,0,0,0,0,0,0,0,0,0,0,0,0,0,0,0,0,0,0,0],"id":27,"left_children":[1,3,5,7,9,11,13,15,17,19,21,23,25,-1,27,-1,-1,-1,-1,-1,-1,-1,-1,-1,-1,-1,-1,-1,-1],"loss_changes":[7.5468884E2,1.1850474E3,4.198144E2,5.937118E2,4.0725372E2,9.82591E2,9.482056E0,7.0682874E2,1.3118225E2,3.492318E2,1.4606265E2,2.3192456E2,2.0617331E2,0E0,7.3984985E0,0E0,0E0,0E0,0E0,0E0,0E0,0E0,0E0,0E0,0E0,0E0,0E0,0E0,0E0],"parents":[2147483647,0,0,1,1,2,2,3,3,4,4,5,5,6,6,7,7,8,8,9,9,10,10,11,11,12,12,14,14],"right_children":[2,4,6,8,10,12,14,16,18,20,22,24,26,-1,28,-1,-1,-1,-1,-1,-1,-1,-1,-1,-1,-1,-1,-1,-1],"split_conditions":[2.1E1,9E0,7E0,5E0,7E0,6E0,2.2E1,4E0,8E0,1.8E1,1.7E1,2E0,2.3E1,-1.4941078E-1,2.3E1,-7.7140026E-2,3.9849605E-2,-8.468046E-2,-4.058381E-3,5.2425314E-2,6.518423E-3,7.6108254E-3,-5.097843E-2,-1.254759E-1,-4.3220956E-2,1.3221072E-1,4.7499673E-3,-1.0240766E-1,-1.3712548E-1],"split_indices":[1,1,0,0,0,0,1,1,1,1,1,0,1,0,1,0,0,0,0,0,0,0,0,0,0,0,0,0,0],"split_type":[0,0,0,0,0,0,0,0,0,0,0,0,0,0,0,0,0,0,0,0,0,0,0,0,0,0,0,0,0],"sum_hessian":[1.7205E4,1.4033E4,3.172E3,4.233E3,9.8E3,2.694E3,4.78E2,2.298E3,1.935E3,7.944E3,1.856E3,2.131E3,5.63E2,1.84E2,2.94E2,7.82E2,1.516E3,1.706E3,2.29E2,5.588E3,2.356E3,1.197E3,6.59E2,4.29E2,1.702E3,3.7E2,1.93E2,1.65E2,1.29E2],"tree_param":{"num_deleted":"0","num_feature":"2","num_nodes":"29","size_leaf_vector":"1"}},{"base_weights":[-8.918536E-4,4.2060763E-2,-8.737816E-1,-4.2160514E-1,1.3497412E-1,-1.1399298E0,-4.714421E-1,-1.0586307E-1,-6.434227E-1,2.3659337E-1,-3.327631E-1,-1.0712106E0,-1.5674815E-1,4.2773876E-3,-1.2351841E-1,-3.7716433E-2,2.182993E-1,-4.8747104E-2,-1.7910272E-1,3.8984783E-2,-3.538317E-4,-1.510794E-2,-1.0459794E-1,-9.519103E-2,-1.10077284E-1],"categories":[],"categories_nodes":[],"categories_segments":[],"categories_sizes":[],"default_left":[0,0,0,0,0,0,0,0,0,0,0,0,0,0,0,0,0,0,0,0,0,0,0,0,0],"id":28,"left_children":[1,3,5,7,9,11,13,15,17,19,21,23,-1,-1,-1,-1,-1,-1,-1,-1,-1,-1,-1,-1,-1],"loss_changes":[6.451396E2,7.0658124E2,8.5877686E1,1.9169357E2,6.494962E2,1.257074E1,1.2690409E2,7.031399E2,2.86912E2,4.1309546E2,3.1588702E2,4.3695068E-1,0E0,0E0,0E0,0E0,0E0,0E0,0E0,0E0,0E0,0E0,0E0,0E0,0E0],"parents":[2147483647,0,0,1,1,2,2,3,3,4,4,5,5,6,6,7,7,8,8,9,9,10,10,11,11],"right_children":[2,4,6,8,10,12,14,16,18,20,22,24,-1,-1,-1,-1,-1,-1,-1,-1,-1,-1,-1,-1,-1],"split_conditions":[2.3E1,6E0,6E0,4E0,7E0,5E0,7E0,5E0,5E0,1.8E1,2E1,2E0,-1.5674815E-1,4.2773876E-3,-1.2351841E-1,-3.7716433E-2,2.182993E-1,-4.8747104E-2,-1.7910272E-1,3.8984783E-2,-3.538317E-4,-1.510794E-2,-1.0459794E-1,-9.519103E-2,-1.10077284E-1],"split_indices":[1,1,0,0,0,0,0,1,1,1,1,0,0,0,0,0,0,0,0,0,0,0,0,0,0],"split_type":[0,0,0,0,0,0,0,0,0,0,0,0,0,0,0,0,0,0,0,0,0,0,0,0,0],"sum_hessian":[1.7205E4,1.6399E4,8.06E2,2.737E3,1.3662E4,4.84E2,3.22E2,1.13E3,1.607E3,1.1224E4,2.438E3,4.2E2,6.4E1,1.93E2,1.29E2,1.011E3,1.19E2,1.416E3,1.91E2,6.851E3,4.373E3,1.944E3,4.94E2,9E1,3.3E2],"tree_param":{"num_deleted":"0","num_feature":"2","num_nodes":"25","size_leaf_vector":"1"}},{"base_weights":[-8.3790335E-4,6.2434442E-2,-4.835668E-1,-2.2456898E-1,2.3288599E-1,-7.3137915E-1,-1.6125326E-1,-5.2005804E-1,-1.221365E-1,5.012091E-1,-1.0812722E-2,-9.385493E-1,-5.4257077E-1,2.4479622E-1,-9.5078254E-1,-6.36114E-2,-3.0154366E-2,2.4445404E-3,-3.8955923E-2,2.46549E-2,9.475636E-2,1.0949682E-2,-6.0379483E-2,-9.005284E-2,-9.950851E-2,-3.1857423E-2,-9.310158E-2,7.094475E-2,-3.270613E-2,-8.183181E-2,-1.1126157E-1],"categories":[],"categories_nodes":[],"categories_segments":[],"categories_sizes":[],"default_left":[0,0,0,0,0,0,0,0,0,0,0,0,0,0,0,0,0,0,0,0,0,0,0,0,0,0,0,0,0,0,0],"id":29,"left_children":[1,3,5,7,9,11,13,15,17,19,21,23,25,27,29,-1,-1,-1,-1,-1,-1,-1,-1,-1,-1,-1,-1,-1,-1,-1,-1],"loss_changes":[5.2555975E2,7.4427496E2,1.5914938E2,1.7152393E2,6.2415283E2,4.3573853E1,2.7850308E2,3.680829E1,1.650779E2,5.161632E2,3.5698718E2,2.56073E-1,5.1213547E1,1.5275204E2,5.4134827E0,0E0,0E0,0E0,0E0,0E0,0E0,0E0,0E0,0E0,0E0,0E0,0E0,0E0,0E0,0E0,0E0],"parents":[2147483647,0,0,1,1,2,2,3,3,4,4,5,5,6,6,7,7,8,8,9,9,10,10,11,11,12,12,13,13,14,14],"right_children":[2,4,6,8,10,12,14,16,18,20,22,24,26,28,30,-1,-1,-1,-1,-1,-1,-1,-1,-1,-1,-1,-1,-1,-1,-1,-1],"split_conditions":[2.2E1,1.1E1,5E0,3E0,1.7E1,3E0,7E0,6E0,6E0,1.5E1,7E0,2.3E1,2.3E1,2.3E1,2.3E1,-6.36114E-2,-3.0154366E-2,2.4445404E-3,-3.8955923E-2,2.46549E-2,9.475636E-2,1.0949682E-2,-6.0379483E-2,-9.005284E-2,-9.950851E-2,-3.1857423E-2,-9.310158E-2,7.094475E-2,-3.270613E-2,-8.183181E-2,-1.1126157E-1],"split_indices":[1,1,0,1,1,0,0,0,0,1,0,1,1,1,1,0,0,0,0,0,0,0,0,0,0,0,0,0,0,0,0],"split_type":[0,0,0,0,0,0,0,0,0,0,0,0,0,0,0,0,0,0,0,0,0,0,0,0,0,0,0,0,0,0,0],"sum_hessian":[1.7205E4,1.5212E4,1.993E3,5.668E3,9.544E3,1.126E3,8.67E2,1.458E3,4.21E3,4.542E3,5.002E3,5.35E2,5.91E2,5.73E2,2.94E2,9.51E2,5.07E2,2.72E3,1.49E3,2.893E3,1.649E3,4.159E3,8.43E2,3.3E2,2.05E2,3.76E2,2.15E2,3.16E2,2.57E2,1.65E2,1.29E2],"tree_param":{"num_deleted":"0","num_feature":"2","num_nodes":"31","size_leaf_vector":"1"}},{"base_weights":[-7.850769E-4,7.43901E-2,-3.3328038E-1,-2.021353E-1,2.6176137E-1,-6.0013276E-1,-1.4560752E-2,-4.681165E-1,-1.0993186E-1,4.511145E-1,3.6737043E-2,-1.0605348E0,-4.4714892E-1,4.6451908E-1,-9.836918E-1,-5.7256933E-2,-2.714488E-2,2.200138E-3,-3.5062965E-2,8.124309E-2,1.5235337E-2,1.2026011E-2,-3.638497E-2,-1.3002352E-1,-8.776789E-2,-2.9321212E-2,-8.959819E-2,7.3889785E-2,-2.9448176E-2,-1.18141904E-1,-8.563589E-2],"categories":[],"categories_nodes":[],"categories_segments":[],"categories_sizes":[],"default_left":[0,0,0,0,0,0,0,0,0,0,0,0,0,0,0,0,0,0,0,0,0,0,0,0,0,0,0,0,0,0,0],"id":30,"left_children":[1,3,5,7,9,11,13,15,17,19,21,23,25,27,29,-1,-1,-1,-1,-1,-1,-1,-1,-1,-1,-1,-1,-1,-1,-1,-1],"loss_changes":[4.3009555E2,7.271953E2,2.6985837E2,1.3897726E2,3.564508E2,1.21165405E2,6.7228625E2,2.981607E1,1.3373239E2,4.9028088E2,1.2798803E2,1.7706024E1,8.941858E1,2.0201546E2,1.1048157E1,0E0,0E0,0E0,0E0,0E0,0E0,0E0,0E0,0E0,0E0,0E0,0E0,0E0,0E0,0E0,0E0],"parents":[2147483647,0,0,1,1,2,2,3,3,4,4,5,5,6,6,7,7,8,8,9,9,10,10,11,11,12,12,13,13,14,14],"right_children":[2,4,6,8,10,12,14,16,18,20,22,24,26,28,30,-1,-1,-1,-1,-1,-1,-1,-1,-1,-1,-1,-1,-1,-1,-1,-1],"split_conditions":[2.1E1,1.1E1,5E0,3E0,1.7E1,2E0,7E0,6E0,6E0,5E0,7E0,2.2E1,2.3E1,2.3E1,2.2E1,-5.7256933E-2,-2.714488E-2,2.200138E-3,-3.5062965E-2,8.124309E-2,1.5235337E-2,1.2026011E-2,-3.638497E-2,-1.3002352E-1,-8.776789E-2,-2.9321212E-2,-8.959819E-2,7.3889785E-2,-2.9448176E-2,-1.18141904E-1,-8.563589E-2],"split_indices":[1,1,0,1,1,0,0,0,0,0,0,1,1,1,1,0,0,0,0,0,0,0,0,0,0,0,0,0,0,0,0],"split_type":[0,0,0,0,0,0,0,0,0,0,0,0,0,0,0,0,0,0,0,0,0,0,0,0,0,0,0,0,0,0,0],"sum_hessian":[1.7205E4,1.4033E4,3.172E3,5.668E3,8.365E3,1.726E3,1.446E3,1.458E3,4.21E3,4.542E3,3.823E3,4.29E2,1.297E3,9.68E2,4.78E2,9.51E2,5.07E2,2.72E3,1.49E3,2.055E3,2.487E3,3.164E3,6.59E2,1.83E2,2.46E2,9.67E2,3.3E2,7.11E2,2.57E2,1.84E2,2.94E2],"tree_param":{"num_deleted":"0","num_feature":"2","num_nodes":"31","size_leaf_vector":"1"}},{"base_weights":[-7.382405E-4,6.6227406E-2,-3.0813164E-1,-4.7784406E-1,1.14106625E-1,-1.7825305E-1,-8.186185E-1,-5.473407E-1,-3.3796373E-1,1.8125896E-1,-3.3185202E-1,-5.182895E-1,1.992427E-2,-5.9277095E-2,-8.8574815E-1,-3.5735946E-2,-6.557239E-2,-1.1451645E-2,-4.0947266E-2,-5.1199687E-3,2.8482854E-2,-5.9881773E-2,1.9289045E-2,-2.0566106E-2,-7.0373945E-2,1.1134523E-1,-9.270463E-3,-1.0639155E-1,-7.710136E-2],"categories":[],"categories_nodes":[],"categories_segments":[],"categories_sizes":[],"default_left":[0,0,0,0,0,0,0,0,0,0,0,0,0,0,0,0,0,0,0,0,0,0,0,0,0,0,0,0,0],"id":31,"left_children":[1,3,5,7,9,11,13,15,17,19,21,23,25,-1,27,-1,-1,-1,-1,-1,-1,-1,-1,-1,-1,-1,-1,-1,-1],"loss_changes":[3.5420242E2,3.6811102E2,2.039295E2,1.0926361E1,3.88984E2,1.6544666E2,8.935425E0,1.5455841E1,6.0568886E0,2.7178046E2,2.382655E2,5.226642E1,1.9125198E2,0E0,8.971436E0,0E0,0E0,0E0,0E0,0E0,0E0,0E0,0E0,0E0,0E0,0E0,0E0,0E0,0E0],"parents":[2147483647,0,0,1,1,2,2,3,3,4,4,5,5,6,6,7,7,8,8,9,9,10,10,11,11,12,12,14,14],"right_children":[2,4,6,8,10,12,14,16,18,20,22,24,26,-1,28,-1,-1,-1,-1,-1,-1,-1,-1,-1,-1,-1,-1,-1,-1],"split_conditions":[7E0,3E0,2E1,5E0,2.2E1,1E1,2.1E1,2E0,1E0,1.1E1,5E0,4E0,1.1E1,-5.9277095E-2,2.2E1,-3.5735946E-2,-6.557239E-2,-1.1451645E-2,-4.0947266E-2,-5.1199687E-3,2.8482854E-2,-5.9881773E-2,1.9289045E-2,-2.0566106E-2,-7.0373945E-2,1.1134523E-1,-9.270463E-3,-1.0639155E-1,-7.710136E-2],"split_indices":[0,1,1,0,1,1,1,0,1,1,0,1,1,0,1,0,0,0,0,0,0,0,0,0,0,0,0,0,0],"split_type":[0,0,0,0,0,0,0,0,0,0,0,0,0,0,0,0,0,0,0,0,0,0,0,0,0,0,0,0,0],"sum_hessian":[1.7205E4,1.4128E4,3.077E3,1.142E3,1.2986E4,2.454E3,6.23E2,7.61E2,3.81E2,1.1287E4,1.699E3,9.03E2,1.551E3,1.45E2,4.78E2,2.78E2,4.83E2,9.3E1,2.88E2,3.479E3,7.808E3,1.126E3,5.73E2,3.37E2,5.66E2,1.44E2,1.407E3,1.84E2,2.94E2],"tree_param":{"num_deleted":"0","num_feature":"2","num_nodes":"29","size_leaf_vector":"1"}},{"base_weights":[-6.877381E-4,2.8895145E-2,-6.018756E-1,-2.2143939E-1,1.1600681E-1,-8.085878E-1,-2.8962392E-1,6.19009E-2,-5.5779165E-1,2.9408762E-1,-5.5993687E-2,-7.198434E-1,-1.3709389E-1,8.116346E-3,-8.407249E-2,-2.7727107E-2,5.455492E-2,-2.2238892E-2,-7.655833E-2,1.0512686E-2,7.896737E-2,-6.22542E-2,3.4673028E-3,-6.1332334E-2,-7.469536E-2],"categories":[],"categories_nodes":[],"categories_segments":[],"categories_sizes":[],"default_left":[0,0,0,0,0,0,0,0,0,0,0,0,0,0,0,0,0,0,0,0,0,0,0,0,0],"id":32,"left_children":[1,3,5,7,9,11,13,15,17,19,21,23,-1,-1,-1,-1,-1,-1,-1,-1,-1,-1,-1,-1,-1],"loss_changes":[3.0602386E2,3.576614E2,5.1854645E1,4.0354382E2,3.7269153E2,2.3217316E1,6.607047E1,3.7727914E2,1.3475708E2,5.597347E2,3.1798376E2,7.576294E-1,0E0,0E0,0E0,0E0,0E0,0E0,0E0,0E0,0E0,0E0,0E0,0E0,0E0],"parents":[2147483647,0,0,1,1,2,2,3,3,4,4,5,5,6,6,7,7,8,8,9,9,10,10,11,11],"right_children":[2,4,6,8,10,12,14,16,18,20,22,24,-1,-1,-1,-1,-1,-1,-1,-1,-1,-1,-1,-1,-1],"split_conditions":[2.3E1,9E0,6E0,5E0,1.7E1,5E0,7E0,5E0,4E0,1.5E1,2E0,2E0,-1.3709389E-1,8.116346E-3,-8.407249E-2,-2.7727107E-2,5.455492E-2,-2.2238892E-2,-7.655833E-2,1.0512686E-2,7.896737E-2,-6.22542E-2,3.4673028E-3,-6.1332334E-2,-7.469536E-2],"split_indices":[1,1,0,0,1,0,0,1,1,1,0,0,0,0,0,0,0,0,0,0,0,0,0,0,0],"split_type":[0,0,0,0,0,0,0,0,0,0,0,0,0,0,0,0,0,0,0,0,0,0,0,0,0],"sum_hessian":[1.7205E4,1.6399E4,8.06E2,4.233E3,1.2166E4,4.84E2,3.22E2,2.298E3,1.935E3,5.977E3,6.189E3,4.2E2,6.4E1,1.93E2,1.29E2,1.351E3,9.47E2,7.41E2,1.194E3,4.328E3,1.649E3,8.53E2,5.336E3,9E1,3.3E2],"tree_param":{"num_deleted":"0","num_feature":"2","num_nodes":"25","size_leaf_vector":"1"}},{"base_weights":[-6.4188446E-4,5.8877815E-2,-2.7385604E-1,-4.0432066E-1,9.9639885E-2,-1.5970778E-1,-7.2251004E-1,-5.011067E-1,-3.1275493E-1,1.5571506E-1,-2.727579E-1,-4.2574823E-1,-4.643188E-3,-5.373432E-2,-7.7744085E-1,-2.9412393E-2,-7.085236E-2,-3.499675E-2,-2.3379361E-2,1.04272236E-4,2.7160529E-2,-4.3131996E-2,4.0455263E-2,-1.6298298E-2,-5.81637E-2,9.924342E-2,-1.0732186E-2,-9.615474E-2,-6.593488E-2],"categories":[],"categories_nodes":[],"categories_segments":[],"categories_sizes":[],"default_left":[0,0,0,0,0,0,0,0,0,0,0,0,0,0,0,0,0,0,0,0,0,0,0,0,0,0,0,0,0],"id":33,"left_children":[1,3,5,7,9,11,13,15,17,19,21,23,25,-1,27,-1,-1,-1,-1,-1,-1,-1,-1,-1,-1,-1,-1,-1,-1],"loss_changes":[2.7981363E2,2.668089E2,1.5751845E2,9.97287E0,2.712405E2,1.0127525E2,5.929199E0,2.357579E1,1.6518059E0,2.0233728E2,1.8274731E2,3.6934967E1,1.5899806E2,0E0,9.780182E0,0E0,0E0,0E0,0E0,0E0,0E0,0E0,0E0,0E0,0E0,0E0,0E0,0E0,0E0],"parents":[2147483647,0,0,1,1,2,2,3,3,4,4,5,5,6,6,7,7,8,8,9,9,10,10,11,11,12,12,14,14],"right_children":[2,4,6,8,10,12,14,16,18,20,22,24,26,-1,28,-1,-1,-1,-1,-1,-1,-1,-1,-1,-1,-1,-1,-1,-1],"split_conditions":[7E0,3E0,2E1,4E0,2.2E1,1E1,2.1E1,2E0,6E0,1.3E1,6E0,4E0,1.1E1,-5.373432E-2,2.2E1,-2.9412393E-2,-7.085236E-2,-3.499675E-2,-2.3379361E-2,1.04272236E-4,2.7160529E-2,-4.3131996E-2,4.0455263E-2,-1.6298298E-2,-5.81637E-2,9.924342E-2,-1.0732186E-2,-9.615474E-2,-6.593488E-2],"split_indices":[0,1,1,0,1,1,1,0,0,1,0,1,1,0,1,0,0,0,0,0,0,0,0,0,0,0,0,0,0],"split_type":[0,0,0,0,0,0,0,0,0,0,0,0,0,0,0,0,0,0,0,0,0,0,0,0,0,0,0,0,0],"sum_hessian":[1.7205E4,1.4128E4,3.077E3,1.142E3,1.2986E4,2.454E3,6.23E2,5.53E2,5.89E2,1.1287E4,1.699E3,9.03E2,1.551E3,1.45E2,4.78E2,2.78E2,2.75E2,3.98E2,1.91E2,4.835E3,6.452E3,1.377E3,3.22E2,3.37E2,5.66E2,1.44E2,1.407E3,1.84E2,2.94E2],"tree_param":{"num_deleted":"0","num_feature":"2","num_nodes":"29","size_leaf_vector":"1"}},{"base_weights":[-5.973319E-4,5.298035E-2,-2.4653575E-1,-1.4014357E-1,1.4175601E-1,-1.4373103E-1,-6.506047E-1,9.973508E-2,-5.4648757E-1,-2.1625568E-1,2.514595E-1,-3.832558E-1,-4.121405E-3,-4.839764E-2,-7.000351E-1,-3.4752436E-2,1.3678546E-1,-6.2143154E-2,-4.706086E-2,2.8264155E-3,-8.421635E-2,6.365987E-2,1.6430914E-2,-6.0578673E-3,-4.90092E-2,8.938754E-2,-9.659684E-3,-8.659121E-2,-5.936376E-2],"categories":[],"categories_nodes":[],"categories_segments":[],"categories_sizes":[],"default_left":[0,0,0,0,0,0,0,0,0,0,0,0,0,0,0,0,0,0,0,0,0,0,0,0,0,0,0,0,0],"id":34,"left_children":[1,3,5,7,9,11,13,15,17,19,21,23,25,-1,27,-1,-1,-1,-1,-1,-1,-1,-1,-1,-1,-1,-1,-1,-1],"loss_changes":[2.2673325E2,2.4225742E2,1.2776724E2,4.338105E2,3.8023764E2,8.209354E1,4.8007507E0,1.5880078E3,9.101929E0,3.4759323E2,2.4861215E2,3.113446E1,1.2896854E2,0E0,7.939789E0,0E0,0E0,0E0,0E0,0E0,0E0,0E0,0E0,0E0,0E0,0E0,0E0,0E0,0E0],"parents":[2147483647,0,0,1,1,2,2,3,3,4,4,5,5,6,6,7,7,8,8,9,9,10,10,11,11,12,12,14,14],"right_children":[2,4,6,8,10,12,14,16,18,20,22,24,26,-1,28,-1,-1,-1,-1,-1,-1,-1,-1,-1,-1,-1,-1,-1,-1],"split_conditions":[7E0,3E0,2E1,1.8E1,9E0,1E1,2.1E1,1.4E1,2E0,6E0,1.2E1,2E0,1.1E1,-4.839764E-2,2.2E1,-3.4752436E-2,1.3678546E-1,-6.2143154E-2,-4.706086E-2,2.8264155E-3,-8.421635E-2,6.365987E-2,1.6430914E-2,-6.0578673E-3,-4.90092E-2,8.938754E-2,-9.659684E-3,-8.659121E-2,-5.936376E-2],"split_indices":[0,0,1,1,1,1,1,1,0,0,1,1,1,0,1,0,0,0,0,0,0,0,0,0,0,0,0,0,0],"split_type":[0,0,0,0,0,0,0,0,0,0,0,0,0,0,0,0,0,0,0,0,0,0,0,0,0,0,0,0,0],"sum_hessian":[1.7205E4,1.4128E4,3.077E3,4.449E3,9.679E3,2.454E3,6.23E2,2.798E3,1.651E3,2.27E3,7.409E3,9.03E2,1.551E3,1.45E2,4.78E2,2.069E3,7.29E2,8.27E2,8.24E2,1.633E3,6.37E2,1.366E3,6.043E3,2.25E2,6.78E2,1.44E2,1.407E3,1.84E2,2.94E2],"tree_param":{"num_deleted":"0","num_feature":"2","num_nodes":"29","size_leaf_vector":"1"}},{"base_weights":[-5.4816145E-4,2.4120644E-2,-5.018714E-1,-1.2568258E-1,1.03249446E-1,-6.720106E-1,-2.448455E-1,-3.5063305E-1,-4.55398E-2,3.1652555E-1,-5.3296037E-2,-5.874037E-1,-1.2096643E-1,1.6496083E-3,-6.3296415E-2,3.0372532E-3,-6.07014E-1,-2.2700105E-2,4.227562E-2,6.2060546E-2,6.511684E-3,-5.3959966E-2,2.4529817E-3,-4.485468E-2,-6.238043E-2],"categories":[],"categories_nodes":[],"categories_segments":[],"categories_sizes":[],"default_left":[0,0,0,0,0,0,0,0,0,0,0,0,0,0,0,0,0,0,0,0,0,0,0,0,0],"id":35,"left_children":[1,3,5,7,9,11,13,15,17,19,21,23,-1,-1,-1,-1,-1,-1,-1,-1,-1,-1,-1,-1,-1],"loss_changes":[2.1279951E2,1.9441446E2,3.51257E1,1.0218565E2,3.5833054E2,2.1351685E1,3.2772827E1,3.2449597E3,3.5538718E2,3.4726443E2,2.3428613E2,1.8481293E0,0E0,0E0,0E0,0E0,0E0,0E0,0E0,0E0,0E0,0E0,0E0,0E0,0E0],"parents":[2147483647,0,0,1,1,2,2,3,3,4,4,5,5,6,6,7,7,8,8,9,9,10,10,11,11],"right_children":[2,4,6,8,10,12,14,16,18,20,22,24,-1,-1,-1,-1,-1,-1,-1,-1,-1,-1,-1,-1,-1],"split_conditions":[2.3E1,1.1E1,6E0,3E0,1.7E1,5E0,7E0,1E1,9E0,5E0,2E0,2E0,-1.2096643E-1,1.6496083E-3,-6.3296415E-2,3.0372532E-3,-6.07014E-1,-2.2700105E-2,4.227562E-2,6.2060546E-2,6.511684E-3,-5.3959966E-2,2.4529817E-3,-4.485468E-2,-6.238043E-2],"split_indices":[1,1,0,0,1,0,0,1,1,0,0,0,0,0,0,0,0,0,0,0,0,0,0,0,0],"split_type":[0,0,0,0,0,0,0,0,0,0,0,0,0,0,0,0,0,0,0,0,0,0,0,0,0],"sum_hessian":[1.7205E4,1.6399E4,8.06E2,5.668E3,1.0731E4,4.84E2,3.22E2,1.488E3,4.18E3,4.542E3,6.189E3,4.2E2,6.4E1,1.93E2,1.29E2,1.396E3,9.2E1,3.013E3,1.167E3,2.055E3,2.487E3,8.53E2,5.336E3,9E1,3.3E2],"tree_param":{"num_deleted":"0","num_feature":"2","num_nodes":"25","size_leaf_vector":"1"}},{"base_weights":[-5.4326246E-4,4.741201E-2,-2.2067307E-1,-1.163032E-1,1.2266876E-1,-1.3059519E-1,-5.7471234E-1,8.783048E-2,-4.620985E-1,-1.7197615E-1,2.129543E-1,-2.4564907E-1,8.970432E-2,-4.3834597E-2,-6.150772E-1,-3.0527784E-2,1.20241456E-1,-4.2422336E-2,-5.4016657E-2,4.8125237E-3,-7.3541455E-2,2.5363624E-2,-3.8422182E-2,-1.5320904E-2,-7.562559E-2,1.4292096E-1,-1.882899E-2,-7.822289E-2,-5.0816815E-2],"categories":[],"categories_nodes":[],"categories_segments":[],"categories_sizes":[],"default_left":[0,0,0,0,0,0,0,0,0,0,0,0,0,0,0,0,0,0,0,0,0,0,0,0,0,0,0,0,0],"id":36,"left_children":[1,3,5,7,9,11,13,15,17,19,21,23,25,-1,27,-1,-1,-1,-1,-1,-1,-1,-1,-1,-1,-1,-1,-1,-1],"loss_changes":[1.8164362E2,1.7409308E2,9.8085754E1,3.141593E2,2.5754565E2,6.224724E1,3.1651306E0,1.2267551E3,4.655548E0,2.8167023E2,1.8011816E2,7.6018585E1,3.14181E2,0E0,8.162247E0,0E0,0E0,0E0,0E0,0E0,0E0,0E0,0E0,0E0,0E0,0E0,0E0,0E0,0E0],"parents":[2147483647,0,0,1,1,2,2,3,3,4,4,5,5,6,6,7,7,8,8,9,9,10,10,11,11,12,12,14,14],"right_children":[2,4,6,8,10,12,14,16,18,20,22,24,26,-1,28,-1,-1,-1,-1,-1,-1,-1,-1,-1,-1,-1,-1,-1,-1],"split_conditions":[7E0,3E0,2E1,1.8E1,9E0,1.5E1,2.1E1,1.4E1,2.2E1,6E0,2.3E1,1.3E1,1.6E1,-4.3834597E-2,2.2E1,-3.0527784E-2,1.20241456E-1,-4.2422336E-2,-5.4016657E-2,4.8125237E-3,-7.3541455E-2,2.5363624E-2,-3.8422182E-2,-1.5320904E-2,-7.562559E-2,1.4292096E-1,-1.882899E-2,-7.822289E-2,-5.0816815E-2],"split_indices":[0,0,1,1,1,1,1,1,1,0,1,1,1,0,1,0,0,0,0,0,0,0,0,0,0,0,0,0,0],"split_type":[0,0,0,0,0,0,0,0,0,0,0,0,0,0,0,0,0,0,0,0,0,0,0,0,0,0,0,0,0],"sum_hessian":[1.7205E4,1.4128E4,3.077E3,4.449E3,9.679E3,2.454E3,6.23E2,2.798E3,1.651E3,2.27E3,7.409E3,1.612E3,8.42E2,1.45E2,4.78E2,2.069E3,7.29E2,1.116E3,5.35E2,1.633E3,6.37E2,6.937E3,4.72E2,1.366E3,2.46E2,1.44E2,6.98E2,1.84E2,2.94E2],"tree_param":{"num_deleted":"0","num_feature":"2","num_nodes":"29","size_leaf_vector":"1"}},{"base_weights":[-5.022629E-4,4.2664412E-2,-1.986509E-1,-3.0396247E-1,7.3168136E-2,-1.175219E-1,-5.175179E-1,-3.5869083E-1,-3.1017825E-2,1.6239578E-1,-6.705617E-2,-3.1851217E-1,-3.7451627E-4,-3.948115E-2,-5.538386E-1,-2.0279694E-2,-4.226904E-2,-2.6229829E-2,4.789718E-3,4.652311E-4,4.082646E-2,-3.535247E-2,4.347683E-2,-8.855199E-3,-4.5503426E-2,7.7833526E-2,-8.056808E-3,-7.044285E-2,-4.575235E-2],"categories":[],"categories_nodes":[],"categories_segments":[],"categories_sizes":[],"default_left":[0,0,0,0,0,0,0,0,0,0,0,0,0,0,0,0,0,0,0,0,0,0,0,0,0,0,0,0,0],"id":37,"left_children":[1,3,5,7,9,11,13,15,17,19,21,23,25,-1,27,-1,-1,-1,-1,-1,-1,-1,-1,-1,-1,-1,-1,-1,-1],"loss_changes":[1.4717859E2,1.4941396E2,7.956509E1,1.7062798E1,1.6250275E2,5.7804047E1,2.5623627E0,9.412521E0,3.516851E0,3.0782828E2,7.2626984E2,2.8340462E1,9.698125E1,0E0,6.625183E0,0E0,0E0,0E0,0E0,0E0,0E0,0E0,0E0,0E0,0E0,0E0,0E0,0E0,0E0],"parents":[2147483647,0,0,1,1,2,2,3,3,4,4,5,5,6,6,7,7,8,8,9,9,10,10,11,11,12,12,14,14],"right_children":[2,4,6,8,10,12,14,16,18,20,22,24,26,-1,28,-1,-1,-1,-1,-1,-1,-1,-1,-1,-1,-1,-1,-1,-1],"split_conditions":[7E0,3E0,2E1,6E0,1.8E1,1E1,2.1E1,2E0,1E0,1.3E1,5E0,4E0,1.1E1,-3.948115E-2,2.2E1,-2.0279694E-2,-4.226904E-2,-2.6229829E-2,4.789718E-3,4.652311E-4,4.082646E-2,-3.535247E-2,4.347683E-2,-8.855199E-3,-4.5503426E-2,7.7833526E-2,-8.056808E-3,-7.044285E-2,-4.575235E-2],"split_indices":[0,1,1,0,1,1,1,0,1,1,0,1,1,0,1,0,0,0,0,0,0,0,0,0,0,0,0,0,0],"split_type":[0,0,0,0,0,0,0,0,0,0,0,0,0,0,0,0,0,0,0,0,0,0,0,0,0,0,0,0,0],"sum_hessian":[1.7205E4,1.4128E4,3.077E3,1.142E3,1.2986E4,2.454E3,6.23E2,9.51E2,1.91E2,7.936E3,5.05E3,9.03E2,1.551E3,1.45E2,4.78E2,2.78E2,6.73E2,4.8E1,1.43E2,4.835E3,3.101E3,3.215E3,1.835E3,3.37E2,5.66E2,1.44E2,1.407E3,1.84E2,2.94E2],"tree_param":{"num_deleted":"0","num_feature":"2","num_nodes":"29","size_leaf_vector":"1"}},{"base_weights":[-4.6231455E-4,1.8994149E-2,-3.958595E-1,5.9491843E-2,-1.657444E-1,-5.354685E-1,-1.8500431E-1,-2.7363974E-1,9.0418726E-2,-1.0576345E-1,-4.6289083E-1,-4.477254E-1,-1.095536E-1,9.82637E-4,-4.743285E-2,-3.2288752E-2,-2.8027808E-3,-1.4938848E-2,1.3447461E-2,-2.2905832E-2,6.5608965E-3,-5.129559E-2,-3.6057543E-2,-3.1579807E-2,-4.826428E-2],"categories":[],"categories_nodes":[],"categories_segments":[],"categories_sizes":[],"default_left":[0,0,0,0,0,0,0,0,0,0,0,0,0,0,0,0,0,0,0,0,0,0,0,0,0],"id":38,"left_children":[1,3,5,7,9,11,13,15,17,19,21,23,-1,-1,-1,-1,-1,-1,-1,-1,-1,-1,-1,-1,-1],"loss_changes":[1.3237381E2,1.22706215E2,2.3656837E1,1.3861694E2,5.251145E1,2.3343384E1,1.8211922E1,1.3816498E1,1.3007422E2,5.1887558E1,2.3506393E0,1.7869492E0,0E0,0E0,0E0,0E0,0E0,0E0,0E0,0E0,0E0,0E0,0E0,0E0,0E0],"parents":[2147483647,0,0,1,1,2,2,3,3,4,4,5,5,6,6,7,7,8,8,9,9,10,10,11,11],"right_children":[2,4,6,8,10,12,14,16,18,20,22,24,-1,-1,-1,-1,-1,-1,-1,-1,-1,-1,-1,-1,-1],"split_conditions":[2.3E1,7E0,6E0,3E0,2E1,5E0,7E0,6E0,2E0,1.4E1,2.2E1,2E0,-1.095536E-1,9.82637E-4,-4.743285E-2,-3.2288752E-2,-2.8027808E-3,-1.4938848E-2,1.3447461E-2,-2.2905832E-2,6.5608965E-3,-5.129559E-2,-3.6057543E-2,-3.1579807E-2,-4.826428E-2],"split_indices":[1,0,0,1,1,0,0,0,0,1,1,0,0,0,0,0,0,0,0,0,0,0,0,0,0],"split_type":[0,0,0,0,0,0,0,0,0,0,0,0,0,0,0,0,0,0,0,0,0,0,0,0,0],"sum_hessian":[1.7205E4,1.6399E4,8.06E2,1.3451E4,2.948E3,4.84E2,3.22E2,1.142E3,1.2309E4,2.454E3,4.94E2,4.2E2,6.4E1,1.93E2,1.29E2,9.51E2,1.91E2,1.91E3,1.0399E4,1.427E3,1.027E3,3.29E2,1.65E2,9E1,3.3E2],"tree_param":{"num_deleted":"0","num_feature":"2","num_nodes":"25","size_leaf_vector":"1"}},{"base_weights":[-4.378229E-4,1.7086303E-2,-3.565657E-1,5.354013E-2,-1.4920531E-1,-4.8231217E-1,-1.6664748E-1,-7.700152E-2,1.2185742E-1,-8.107859E-2,-3.7212878E-1,-4.0314248E-1,-9.876681E-2,8.84909E-4,-4.2726044E-2,-7.420645E-4,-5.571563E-2,2.9508531E-2,-1.8110348E-5,-1.8793749E-2,1.8503943E-2,-2.7842645E-2,-4.623584E-2,-2.8456543E-2,-4.3452423E-2],"categories":[],"categories_nodes":[],"categories_segments":[],"categories_sizes":[],"default_left":[0,0,0,0,0,0,0,0,0,0,0,0,0,0,0,0,0,0,0,0,0,0,0,0,0],"id":39,"left_children":[1,3,5,7,9,11,13,15,17,19,21,23,-1,-1,-1,-1,-1,-1,-1,-1,-1,-1,-1,-1,-1],"loss_changes":[1.0738581E2,9.9424225E1,1.9192032E1,1.199777E2,4.475643E1,1.9006142E1,1.477673E1,1.54415E2,1.8669159E2,6.430257E1,5.7050247E0,1.442955E0,0E0,0E0,0E0,0E0,0E0,0E0,0E0,0E0,0E0,0E0,0E0,0E0,0E0],"parents":[2147483647,0,0,1,1,2,2,3,3,4,4,5,5,6,6,7,7,8,8,9,9,10,10,11,11],"right_children":[2,4,6,8,10,12,14,16,18,20,22,24,-1,-1,-1,-1,-1,-1,-1,-1,-1,-1,-1,-1,-1],"split_conditions":[2.3E1,7E0,6E0,1.1E1,1.9E1,5E0,7E0,1E1,1.7E1,1.5E1,2.1E1,2E0,-9.876681E-2,8.84909E-4,-4.2726044E-2,-7.420645E-4,-5.571563E-2,2.9508531E-2,-1.8110348E-5,-1.8793749E-2,1.8503943E-2,-2.7842645E-2,-4.623584E-2,-2.8456543E-2,-4.3452423E-2],"split_indices":[1,0,0,1,1,0,0,1,1,1,1,0,0,0,0,0,0,0,0,0,0,0,0,0,0],"split_type":[0,0,0,0,0,0,0,0,0,0,0,0,0,0,0,0,0,0,0,0,0,0,0,0,0],"sum_hessian":[1.7205E4,1.6399E4,8.06E2,1.3451E4,2.948E3,4.84E2,3.22E2,4.621E3,8.83E3,2.259E3,6.89E2,4.2E2,6.4E1,1.93E2,1.29E2,4.037E3,5.84E2,3.649E3,5.181E3,1.612E3,6.47E2,3.4E2,3.49E2,9E1,3.3E2],"tree_param":{"num_deleted":"0","num_feature":"2","num_nodes":"25","size_leaf_vector":"1"}},{"base_weights":[-4.1236234E-4,3.3858683E-2,-1.5199113E-1,-5.74016E-2,1.3402034E-1,-3.4983286E-1,8.423877E-2,-1.5101465E-3,-5.394726E-1,2.7875045E-1,-1.0840698E-1,-6.3530666E-1,-2.549919E-1,3.277758E-1,-4.0860388E-1,-7.6601407E-3,4.6423808E-2,-1.8467289E-1,-1.6159683E-2,6.260612E-2,-1.4341979E-2,-1.707658E-1,-1.9326619E-3,-9.566424E-2,-3.93359E-2,-1.3434011E-2,-3.11947E-2,-6.573584E-3,6.104672E-2,-5.37362E-2,-3.264722E-2],"categories":[],"categories_nodes":[],"categories_segments":[],"categories_sizes":[],"default_left":[0,0,0,0,0,0,0,0,0,0,0,0,0,0,0,0,0,0,0,0,0,0,0,0,0,0,0,0,0,0,0],"id":40,"left_children":[1,3,5,7,9,11,13,15,17,19,21,23,25,27,29,-1,-1,-1,-1,-1,-1,-1,-1,-1,-1,-1,-1,-1,-1,-1,-1],"loss_changes":[8.938623E1,1.2828943E2,1.4832323E2,1.9787334E2,2.3479419E2,4.6595856E1,1.7381073E2,2.3023193E2,3.766087E2,6.144453E2,3.564066E2,3.3054657E1,8.877602E0,1.07833984E2,4.890053E0,0E0,0E0,0E0,0E0,0E0,0E0,0E0,0E0,0E0,0E0,0E0,0E0,0E0,0E0,0E0,0E0],"parents":[2147483647,0,0,1,1,2,2,3,3,4,4,5,5,6,6,7,7,8,8,9,9,10,10,11,11,12,12,13,13,14,14],"right_children":[2,4,6,8,10,12,14,16,18,20,22,24,26,28,30,-1,-1,-1,-1,-1,-1,-1,-1,-1,-1,-1,-1,-1,-1,-1,-1],"split_conditions":[2.1E1,1.3E1,5E0,1.2E1,6E0,2E0,7E0,1.1E1,3E0,1.8E1,1.4E1,2.2E1,2.2E1,6E0,2.2E1,-7.6601407E-3,4.6423808E-2,-1.8467289E-1,-1.6159683E-2,6.260612E-2,-1.4341979E-2,-1.707658E-1,-1.9326619E-3,-9.566424E-2,-3.93359E-2,-1.3434011E-2,-3.11947E-2,-6.573584E-3,6.104672E-2,-5.37362E-2,-3.264722E-2],"split_indices":[1,1,0,1,0,0,0,1,0,1,1,1,1,0,1,0,0,0,0,0,0,0,0,0,0,0,0,0,0,0,0],"split_type":[0,0,0,0,0,0,0,0,0,0,0,0,0,0,0,0,0,0,0,0,0,0,0,0,0,0,0,0,0,0,0],"sum_hessian":[1.7205E4,1.4033E4,3.172E3,7.343E3,6.69E3,1.726E3,1.446E3,6.581E3,7.62E2,4.189E3,2.501E3,4.29E2,1.297E3,9.68E2,4.78E2,5.668E3,9.13E2,1.7E2,5.92E2,2.298E3,1.891E3,1.31E2,2.37E3,1.83E2,2.46E2,4.17E2,8.8E2,4.05E2,5.63E2,1.84E2,2.94E2],"tree_param":{"num_deleted":"0","num_feature":"2","num_nodes":"31","size_leaf_vector":"1"}},{"base_weights":[-4.0018378E-4,1.4976584E-2,-3.1288916E-1,-1.3909467E-1,4.585063E-2,-4.0504074E-1,-1.7355046E-1,1.18120365E-1,-3.1992245E-1,-9.9164814E-2,9.4524845E-2,-3.3013803E-1,-8.839483E-2,-5.2763284E-3,-3.524671E-2,-9.883565E-3,1.9467984E-1,-1.5954008E-2,-1.5019117E-1,-5.181057E-2,9.903028E-3,1.6090719E-2,-1.1758903E-2,-2.175179E-2,-3.601027E-2],"categories":[],"categories_nodes":[],"categories_segments":[],"categories_sizes":[],"default_left":[0,0,0,0,0,0,0,0,0,0,0,0,0,0,0,0,0,0,0,0,0,0,0,0,0],"id":41,"left_children":[1,3,5,7,9,11,13,15,17,19,21,23,-1,-1,-1,-1,-1,-1,-1,-1,-1,-1,-1,-1,-1],"loss_changes":[8.268073E1,7.801795E1,1.0291809E1,1.2738661E2,9.644984E1,1.7105835E1,6.9617014E0,4.489084E2,3.0458932E2,2.8518326E2,1.4406363E2,1.342392E0,0E0,0E0,0E0,0E0,0E0,0E0,0E0,0E0,0E0,0E0,0E0,0E0,0E0],"parents":[2147483647,0,0,1,1,2,2,3,3,4,4,5,5,6,6,7,7,8,8,9,9,10,10,11,11],"right_children":[2,4,6,8,10,12,14,16,18,20,22,24,-1,-1,-1,-1,-1,-1,-1,-1,-1,-1,-1,-1,-1],"split_conditions":[2.3E1,6E0,6E0,4E0,3E0,5E0,7E0,5E0,5E0,1.3E1,7E0,2E0,-8.839483E-2,-5.2763284E-3,-3.524671E-2,-9.883565E-3,1.9467984E-1,-1.5954008E-2,-1.5019117E-1,-5.181057E-2,9.903028E-3,1.6090719E-2,-1.1758903E-2,-2.175179E-2,-3.601027E-2],"split_indices":[1,1,0,0,0,0,0,1,1,1,0,0,0,0,0,0,0,0,0,0,0,0,0,0,0],"split_type":[0,0,0,0,0,0,0,0,0,0,0,0,0,0,0,0,0,0,0,0,0,0,0,0,0],"sum_hessian":[1.7205E4,1.6399E4,8.06E2,2.737E3,1.3662E4,4.84E2,3.22E2,1.13E3,1.607E3,3.433E3,1.0229E4,4.2E2,6.4E1,1.93E2,1.29E2,1.011E3,1.19E2,1.416E3,1.91E2,1.102E3,2.331E3,7.791E3,2.438E3,9E1,3.3E2],"tree_param":{"num_deleted":"0","num_feature":"2","num_nodes":"25","size_leaf_vector":"1"}},{"base_weights":[-3.719261E-4,5.3290397E-2,-7.869463E-2,-2.5812836E-2,4.6373197E-1,-1.9946104E-1,5.842157E-2,8.439955E-2,-9.016998E-2,8.102371E-1,-1.3566743E-2,4.0162128E-1,-2.937854E-1,-6.1795056E-1,1.7556748E-1,-1.6783709E-4,1.6757889E-1,-2.6908705E-2,6.4072297E-3,1.1579659E-1,6.146651E-2,-5.0207358E-2,5.314046E-2,-4.9216878E-2,6.6941515E-2,-3.451018E-2,-2.3942852E-2,-8.739876E-3,-7.88764E-2,3.630049E-2,-1.8346345E-2],"categories":[],"categories_nodes":[],"categories_segments":[],"categories_sizes":[],"default_left":[0,0,0,0,0,0,0,0,0,0,0,0,0,0,0,0,0,0,0,0,0,0,0,0,0,0,0,0,0,0,0],"id":42,"left_children":[1,3,5,7,9,11,13,15,17,19,21,23,25,27,29,-1,-1,-1,-1,-1,-1,-1,-1,-1,-1,-1,-1,-1,-1,-1,-1],"loss_changes":[7.232063E1,3.315352E2,1.1585865E2,6.0737484E1,2.7289865E2,2.1102971E2,2.5975906E2,4.3245972E2,1.4920433E2,6.430194E1,1.8529128E2,1.2120199E2,8.888062E0,4.379373E1,1.8809117E2,0E0,0E0,0E0,0E0,0E0,0E0,0E0,0E0,0E0,0E0,0E0,0E0,0E0,0E0,0E0,0E0],"parents":[2147483647,0,0,1,1,2,2,3,3,4,4,5,5,6,6,7,7,8,8,9,9,10,10,11,11,12,12,13,13,14,14],"right_children":[2,4,6,8,10,12,14,16,18,20,22,24,26,28,30,-1,-1,-1,-1,-1,-1,-1,-1,-1,-1,-1,-1,-1,-1,-1,-1],"split_conditions":[1.7E1,1.5E1,5E0,4E0,6E0,1.8E1,1.8E1,1.4E1,9E0,3E0,7E0,2E0,3E0,6E0,7E0,-1.6783709E-4,1.6757889E-1,-2.6908705E-2,6.4072297E-3,1.1579659E-1,6.146651E-2,-5.0207358E-2,5.314046E-2,-4.9216878E-2,6.6941515E-2,-3.451018E-2,-2.3942852E-2,-8.739876E-3,-7.88764E-2,3.630049E-2,-1.8346345E-2],"split_indices":[1,1,0,0,0,1,1,1,1,0,0,0,0,0,0,0,0,0,0,0,0,0,0,0,0,0,0,0,0,0,0],"split_type":[0,0,0,0,0,0,0,0,0,0,0,0,0,0,0,0,0,0,0,0,0,0,0,0,0,0,0,0,0,0,0],"sum_hessian":[1.7205E4,1.021E4,6.995E3,8.561E3,1.649E3,3.719E3,3.276E3,3.156E3,5.405E3,9.55E2,6.94E2,5.04E2,3.215E3,4.83E2,2.793E3,2.995E3,1.61E2,2.502E3,2.903E3,3.42E2,6.13E2,3.66E2,3.28E2,1.16E2,3.88E2,1.651E3,1.564E3,1.18E2,3.65E2,1.835E3,9.58E2],"tree_param":{"num_deleted":"0","num_feature":"2","num_nodes":"31","size_leaf_vector":"1"}},{"base_weights":[-3.2203572E-4,2.8762339E-2,-1.2896048E-1,-1.0931558E-1,6.2225077E-2,-2.509091E-1,1.206781E-1,1.0663963E-1,-2.6114148E-1,1.056152E-1,-2.2597093E-2,-5.409146E-1,-1.7753664E-1,5.0454247E-1,-3.315561E-1,-8.8794E-3,1.753908E-1,-1.1670751E-2,-1.3257341E-1,1.7261103E-3,4.174679E-2,-1.7396424E-2,3.6428904E-3,-8.370248E-2,-3.1814057E-2,-1.1461276E-2,-3.856122E-2,8.1074305E-2,-8.362732E-3,-4.539739E-2,-2.5366176E-2],"categories":[],"categories_nodes":[],"categories_segments":[],"categories_sizes":[],"default_left":[0,0,0,0,0,0,0,0,0,0,0,0,0,0,0,0,0,0,0,0,0,0,0,0,0,0,0,0,0,0,0],"id":43,"left_children":[1,3,5,7,9,11,13,15,17,19,21,23,25,27,29,-1,-1,-1,-1,-1,-1,-1,-1,-1,-1,-1,-1,-1,-1,-1,-1],"loss_changes":[6.43777E1,6.485041E1,9.6626175E1,8.980028E1,4.1580364E1,4.5269547E1,1.8105493E2,3.6426038E2,2.4709668E2,2.059274E2,3.4172234E1,2.8098938E1,2.2253048E1,1.01643036E2,4.452423E0,0E0,0E0,0E0,0E0,0E0,0E0,0E0,0E0,0E0,0E0,0E0,0E0,0E0,0E0,0E0,0E0],"parents":[2147483647,0,0,1,1,2,2,3,3,4,4,5,5,6,6,7,7,8,8,9,9,10,10,11,11,12,12,13,13,14,14],"right_children":[2,4,6,8,10,12,14,16,18,20,22,24,26,28,30,-1,-1,-1,-1,-1,-1,-1,-1,-1,-1,-1,-1,-1,-1,-1,-1],"split_conditions":[2.1E1,6E0,6E0,4E0,1.7E1,2E0,7E0,5E0,5E0,1.5E1,3E0,2.2E1,2.3E1,2.3E1,2.2E1,-8.8794E-3,1.753908E-1,-1.1670751E-2,-1.3257341E-1,1.7261103E-3,4.174679E-2,-1.7396424E-2,3.6428904E-3,-8.370248E-2,-3.1814057E-2,-1.1461276E-2,-3.856122E-2,8.1074305E-2,-8.362732E-3,-4.539739E-2,-2.5366176E-2],"split_indices":[1,1,0,0,1,0,0,1,1,1,0,1,1,1,1,0,0,0,0,0,0,0,0,0,0,0,0,0,0,0,0],"split_type":[0,0,0,0,0,0,0,0,0,0,0,0,0,0,0,0,0,0,0,0,0,0,0,0,0,0,0,0,0,0,0],"sum_hessian":[1.7205E4,1.4033E4,3.172E3,2.737E3,1.1296E4,2.131E3,1.041E3,1.13E3,1.607E3,7.473E3,3.823E3,4.29E2,1.702E3,5.63E2,4.78E2,1.011E3,1.19E2,1.416E3,1.91E2,5.824E3,1.649E3,1.072E3,2.751E3,1.83E2,2.46E2,1.308E3,3.94E2,3.7E2,1.93E2,1.84E2,2.94E2],"tree_param":{"num_deleted":"0","num_feature":"2","num_nodes":"31","size_leaf_vector":"1"}},{"base_weights":[-2.9629839E-4,2.5889838E-2,-1.1611601E-1,-1.5475944E-1,4.6845738E-2,-2.6023644E-1,5.597254E-2,-2.4844407E-1,2.1111684E-2,1.2231103E-1,-2.5812227E-2,-4.8709175E-1,-1.848836E-1,2.3116283E-1,-2.9854804E-1,-1.2318186E-2,-2.9992733E-2,6.899265E-3,-1.9614346E-2,5.1483024E-2,1.5867362E-3,-5.9656497E-2,8.096423E-3,-7.5377725E-2,-2.8645528E-2,-9.537707E-3,-2.2714108E-2,4.0767014E-2,-2.5683865E-2,-4.0882148E-2,-2.2838151E-2],"categories":[],"categories_nodes":[],"categories_segments":[],"categories_sizes":[],"default_left":[0,0,0,0,0,0,0,0,0,0,0,0,0,0,0,0,0,0,0,0,0,0,0,0,0,0,0,0,0,0,0],"id":44,"left_children":[1,3,5,7,9,11,13,15,17,19,21,23,25,27,29,-1,-1,-1,-1,-1,-1,-1,-1,-1,-1,-1,-1,-1,-1,-1,-1],"loss_changes":[5.218658E1,5.313532E1,7.8709656E1,2.4044342E1,6.895932E1,2.9431625E1,8.994011E1,6.1024094E0,5.297945E0,2.5773996E2,3.9057074E2,2.2792023E1,4.887783E0,8.3570335E1,3.6128998E0,0E0,0E0,0E0,0E0,0E0,0E0,0E0,0E0,0E0,0E0,0E0,0E0,0E0,0E0,0E0,0E0],"parents":[2147483647,0,0,1,1,2,2,3,3,4,4,5,5,6,6,7,7,8,8,9,9,10,10,11,11,12,12,13,13,14,14],"right_children":[2,4,6,8,10,12,14,16,18,20,22,24,26,28,30,-1,-1,-1,-1,-1,-1,-1,-1,-1,-1,-1,-1,-1,-1,-1,-1],"split_conditions":[2.1E1,3E0,5E0,6E0,5E0,2E0,7E0,2E0,2E0,8E0,8E0,2.2E1,2.2E1,2.3E1,2.2E1,-1.2318186E-2,-2.9992733E-2,6.899265E-3,-1.9614346E-2,5.1483024E-2,1.5867362E-3,-5.9656497E-2,8.096423E-3,-7.5377725E-2,-2.8645528E-2,-9.537707E-3,-2.2714108E-2,4.0767014E-2,-2.5683865E-2,-4.0882148E-2,-2.2838151E-2],"split_indices":[1,1,0,0,0,0,0,0,1,1,1,1,1,1,1,0,0,0,0,0,0,0,0,0,0,0,0,0,0,0,0],"split_type":[0,0,0,0,0,0,0,0,0,0,0,0,0,0,0,0,0,0,0,0,0,0,0,0,0,0,0,0,0,0,0],"sum_hessian":[1.7205E4,1.4033E4,3.172E3,1.458E3,1.2575E4,1.726E3,1.446E3,9.51E2,5.07E2,6.168E3,6.407E3,4.29E2,1.297E3,9.68E2,4.78E2,2.78E2,6.73E2,4.16E2,9.1E1,1.315E3,4.853E3,1.009E3,5.398E3,1.83E2,2.46E2,4.17E2,8.8E2,7.11E2,2.57E2,1.84E2,2.94E2],"tree_param":{"num_deleted":"0","num_feature":"2","num_nodes":"31","size_leaf_vector":"1"}},{"base_weights":[-2.8068593E-4,4.139771E-2,-6.111228E-2,-2.199408E-2,3.7031838E-1,-1.5159851E-1,4.1624952E-2,2.0022761E-2,-1.6158664E-1,6.8420446E-1,-6.197718E-2,3.6860654E-1,-2.332378E-1,-5.68052E-1,1.4722338E-1,-4.375205E-3,4.155582E-2,-4.9216207E-2,4.5460653E-3,9.992997E-2,5.0706785E-2,4.128786E-2,-5.449117E-2,-4.2769734E-2,6.0716428E-2,-2.5460253E-2,-1.7469114E-2,-9.03738E-3,-7.218107E-2,2.9700164E-2,-1.3967975E-2],"categories":[],"categories_nodes":[],"categories_segments":[],"categories_sizes":[],"default_left":[0,0,0,0,0,0,0,0,0,0,0,0,0,0,0,0,0,0,0,0,0,0,0,0,0,0,0,0,0,0,0],"id":45,"left_children":[1,3,5,7,9,11,13,15,17,19,21,23,25,27,29,-1,-1,-1,-1,-1,-1,-1,-1,-1,-1,-1,-1,-1,-1,-1,-1],"loss_changes":[4.3625988E1,2.129164E2,6.504326E1,5.0221405E1,2.2393347E2,1.5807129E2,2.1105994E2,1.6605042E2,1.3561142E2,5.2852356E1,1.5960532E2,9.619171E1,3.9782104E0,3.5483185E1,1.2010484E2,0E0,0E0,0E0,0E0,0E0,0E0,0E0,0E0,0E0,0E0,0E0,0E0,0E0,0E0,0E0,0E0],"parents":[2147483647,0,0,1,1,2,2,3,3,4,4,5,5,6,6,7,7,8,8,9,9,10,10,11,11,12,12,13,13,14,14],"right_children":[2,4,6,8,10,12,14,16,18,20,22,24,26,28,30,-1,-1,-1,-1,-1,-1,-1,-1,-1,-1,-1,-1,-1,-1,-1,-1],"split_conditions":[1.7E1,1.5E1,5E0,1.2E1,6E0,1.8E1,1.8E1,1.1E1,1.3E1,3E0,1.6E1,2E0,4E0,6E0,7E0,-4.375205E-3,4.155582E-2,-4.9216207E-2,4.5460653E-3,9.992997E-2,5.0706785E-2,4.128786E-2,-5.449117E-2,-4.2769734E-2,6.0716428E-2,-2.5460253E-2,-1.7469114E-2,-9.03738E-3,-7.218107E-2,2.9700164E-2,-1.3967975E-2],"split_indices":[1,1,0,1,0,1,1,1,1,0,1,0,0,0,0,0,0,0,0,0,0,0,0,0,0,0,0,0,0,0,0],"split_type":[0,0,0,0,0,0,0,0,0,0,0,0,0,0,0,0,0,0,0,0,0,0,0,0,0,0,0,0,0,0,0],"sum_hessian":[1.7205E4,1.021E4,6.995E3,8.561E3,1.649E3,3.719E3,3.276E3,6.581E3,1.98E3,9.55E2,6.94E2,5.04E2,3.215E3,4.83E2,2.793E3,5.668E3,9.13E2,7.62E2,1.218E3,3.42E2,6.13E2,3.5E2,3.44E2,1.16E2,3.88E2,2.353E3,8.62E2,1.18E2,3.65E2,1.835E3,9.58E2],"tree_param":{"num_deleted":"0","num_feature":"2","num_nodes":"31","size_leaf_vector":"1"}},{"base_weights":[-2.5025787E-4,1.0464738E-2,-2.1800205E-1,-1.1676799E-1,3.0060994E-2,-2.673313E-1,-1.4325684E-1,-5.0034446E-1,1.1006269E-2,5.9978E-2,-8.42202E-2,-1.8466495E-1,-7.986423E-2,-7.930379E-3,-2.3759251E-2,-2.6512777E-3,-2.906062E-1,2.6562682E-1,-1.1368188E-2,-2.4222645E-3,1.2649407E-2,-3.6873817E-3,-2.391747E-2,-1.3731911E-2,-2.7107103E-2],"categories":[],"categories_nodes":[],"categories_segments":[],"categories_sizes":[],"default_left":[0,0,0,0,0,0,0,0,0,0,0,0,0,0,0,0,0,0,0,0,0,0,0,0,0],"id":46,"left_children":[1,3,5,7,9,11,13,15,17,19,21,23,-1,-1,-1,-1,-1,-1,-1,-1,-1,-1,-1,-1,-1],"loss_changes":[4.0147484E1,4.0893387E1,2.9372177E0,1.0729103E2,4.8595184E1,2.1154465E1,1.9298344E0,6.234511E2,5.422172E2,6.3089294E1,2.162662E1,1.6850758E0,0E0,0E0,0E0,0E0,0E0,0E0,0E0,0E0,0E0,0E0,0E0,0E0,0E0],"parents":[2147483647,0,0,1,1,2,2,3,3,4,4,5,5,6,6,7,7,8,8,9,9,10,10,11,11],"right_children":[2,4,6,8,10,12,14,16,18,20,22,24,-1,-1,-1,-1,-1,-1,-1,-1,-1,-1,-1,-1,-1],"split_conditions":[2.3E1,2E0,6E0,7E0,7E0,5E0,7E0,6E0,8E0,1.3E1,1.9E1,4E0,-7.986423E-2,-7.930379E-3,-2.3759251E-2,-2.6512777E-3,-2.906062E-1,2.6562682E-1,-1.1368188E-2,-2.4222645E-3,1.2649407E-2,-3.6873817E-3,-2.391747E-2,-1.3731911E-2,-2.7107103E-2],"split_indices":[1,0,0,1,0,0,0,1,1,1,1,0,0,0,0,0,0,0,0,0,0,0,0,0,0],"split_type":[0,0,0,0,0,0,0,0,0,0,0,0,0,0,0,0,0,0,0,0,0,0,0,0,0],"sum_hessian":[1.7205E4,1.6399E4,8.06E2,2.188E3,1.4211E4,4.84E2,3.22E2,5.46E2,1.642E3,1.1263E4,2.948E3,4.2E2,6.4E1,1.93E2,1.29E2,4.57E2,8.9E1,7.3E1,1.569E3,4.971E3,6.292E3,2.259E3,6.89E2,2.73E2,1.47E2],"tree_param":{"num_deleted":"0","num_feature":"2","num_nodes":"25","size_leaf_vector":"1"}},{"base_weights":[-2.3745513E-4,3.8267262E-2,-5.6436915E-2,-1.7366016E-2,3.269302E-1,-1.4007717E-1,3.852744E-2,2.2048485E-2,-1.4831446E-1,6.0840523E-1,-6.072023E-2,3.2467377E-1,-2.1301223E-1,-5.1799583E-1,1.3491926E-1,-3.534682E-3,3.780134E-2,-4.394879E-2,3.405931E-3,9.01263E-2,4.4381466E-2,-5.1374454E-2,4.4481363E-2,-3.7402187E-2,5.339867E-2,-2.312182E-2,-1.6310507E-2,-9.395597E-3,-6.544515E-2,2.6006315E-2,-1.04808705E-2],"categories":[],"categories_nodes":[],"categories_segments":[],"categories_sizes":[],"default_left":[0,0,0,0,0,0,0,0,0,0,0,0,0,0,0,0,0,0,0,0,0,0,0,0,0,0,0,0,0,0,0],"id":47,"left_children":[1,3,5,7,9,11,13,15,17,19,21,23,25,27,29,-1,-1,-1,-1,-1,-1,-1,-1,-1,-1,-1,-1,-1,-1,-1,-1],"loss_changes":[3.7234985E1,1.6398685E2,5.5573532E1,4.4194046E1,1.8007492E2,1.26164635E2,1.7586223E2,1.3448834E2,1.05210815E2,4.5680756E1,1.593968E2,7.4053955E1,2.884369E0,2.7944016E1,8.384862E1,0E0,0E0,0E0,0E0,0E0,0E0,0E0,0E0,0E0,0E0,0E0,0E0,0E0,0E0,0E0,0E0],"parents":[2147483647,0,0,1,1,2,2,3,3,4,4,5,5,6,6,7,7,8,8,9,9,10,10,11,11,12,12,13,13,14,14],"right_children":[2,4,6,8,10,12,14,16,18,20,22,24,26,28,30,-1,-1,-1,-1,-1,-1,-1,-1,-1,-1,-1,-1,-1,-1,-1,-1],"split_conditions":[1.7E1,1.5E1,5E0,1.2E1,6E0,1.8E1,1.8E1,1.1E1,1.3E1,3E0,7E0,2E0,4E0,6E0,7E0,-3.534682E-3,3.780134E-2,-4.394879E-2,3.405931E-3,9.01263E-2,4.4381466E-2,-5.1374454E-2,4.4481363E-2,-3.7402187E-2,5.339867E-2,-2.312182E-2,-1.6310507E-2,-9.395597E-3,-6.544515E-2,2.6006315E-2,-1.04808705E-2],"split_indices":[1,1,0,1,0,1,1,1,1,0,0,0,0,0,0,0,0,0,0,0,0,0,0,0,0,0,0,0,0,0,0],"split_type":[0,0,0,0,0,0,0,0,0,0,0,0,0,0,0,0,0,0,0,0,0,0,0,0,0,0,0,0,0,0,0],"sum_hessian":[1.7205E4,1.021E4,6.995E3,8.561E3,1.649E3,3.719E3,3.276E3,6.581E3,1.98E3,9.55E2,6.94E2,5.04E2,3.215E3,4.83E2,2.793E3,5.668E3,9.13E2,7.62E2,1.218E3,3.42E2,6.13E2,3.66E2,3.28E2,1.16E2,3.88E2,2.353E3,8.62E2,1.18E2,3.65E2,1.835E3,9.58E2],"tree_param":{"num_deleted":"0","num_feature":"2","num_nodes":"31","size_leaf_vector":"1"}},{"base_weights":[-2.1162018E-4,2.0334449E-2,-9.108566E-2,-1.2867849E-1,3.762051E-2,-1.8521781E-1,1.01602286E-1,-2.4072589E-1,-6.1730477E-3,9.9452704E-2,-2.1911386E-2,-3.7831876E-1,-1.3635191E-1,3.7506878E-1,-2.2060376E-1,-1.0038449E-2,-3.211278E-2,1.7275503E-2,-1.0150935E-2,4.783622E-2,-3.29644E-4,-5.2616615E-2,7.242445E-3,-6.1918437E-2,-1.9735685E-2,-9.635063E-3,-2.6856795E-2,6.210577E-2,-9.728662E-3,-3.2005627E-2,-1.5748745E-2],"categories":[],"categories_nodes":[],"categories_segments":[],"categories_sizes":[],"default_left":[0,0,0,0,0,0,0,0,0,0,0,0,0,0,0,0,0,0,0,0,0,0,0,0,0,0,0,0,0,0,0],"id":48,"left_children":[1,3,5,7,9,11,13,15,17,19,21,23,25,27,29,-1,-1,-1,-1,-1,-1,-1,-1,-1,-1,-1,-1,-1,-1,-1,-1],"loss_changes":[3.2127247E1,3.615428E1,5.7571106E1,2.0025358E1,4.629428E1,2.0066078E1,9.189603E1,8.565956E0,1.1924259E1,2.4017691E2,3.0486212E2,1.862043E1,8.98097E0,6.559393E1,2.956314E0,0E0,0E0,0E0,0E0,0E0,0E0,0E0,0E0,0E0,0E0,0E0,0E0,0E0,0E0,0E0,0E0],"parents":[2147483647,0,0,1,1,2,2,3,3,4,4,5,5,6,6,7,7,8,8,9,9,10,10,11,11,12,12,13,13,14,14],"right_children":[2,4,6,8,10,12,14,16,18,20,22,24,26,28,30,-1,-1,-1,-1,-1,-1,-1,-1,-1,-1,-1,-1,-1,-1,-1,-1],"split_conditions":[2.1E1,3E0,6E0,5E0,5E0,2E0,7E0,2E0,1E0,8E0,8E0,2.2E1,2.3E1,2.3E1,2.2E1,-1.0038449E-2,-3.211278E-2,1.7275503E-2,-1.0150935E-2,4.783622E-2,-3.29644E-4,-5.2616615E-2,7.242445E-3,-6.1918437E-2,-1.9735685E-2,-9.635063E-3,-2.6856795E-2,6.210577E-2,-9.728662E-3,-3.2005627E-2,-1.5748745E-2],"split_indices":[1,1,0,0,0,0,0,0,1,1,1,1,1,1,1,0,0,0,0,0,0,0,0,0,0,0,0,0,0,0,0],"split_type":[0,0,0,0,0,0,0,0,0,0,0,0,0,0,0,0,0,0,0,0,0,0,0,0,0,0,0,0,0,0,0],"sum_hessian":[1.7205E4,1.4033E4,3.172E3,1.458E3,1.2575E4,2.131E3,1.041E3,7.61E2,6.97E2,6.168E3,6.407E3,4.29E2,1.702E3,5.63E2,4.78E2,2.78E2,4.83E2,2.42E2,4.55E2,1.315E3,4.853E3,1.009E3,5.398E3,1.83E2,2.46E2,1.308E3,3.94E2,3.7E2,1.93E2,1.84E2,2.94E2],"tree_param":{"num_deleted":"0","num_feature":"2","num_nodes":"31","size_leaf_vector":"1"}},{"base_weights":[-1.9880752E-4,-7.016916E-2,2.4208833E-2,-2.835905E-1,9.08709E-2,2.2216633E-1,-1.1899098E-2,8.0904245E-2,-1.266053E0,1.2472428E0,-1.4175992E-1,4.4565374E-1,-1.8061781E-1,-1.7690939E-1,3.7935924E-2,-1.6375916E-2,5.9278626E-2,-5.323002E-1,-3.774091E-2,2.6236182E-2,2.190067E-1,7.769839E-3,-2.0304805E-2,-3.5513747E-2,5.391807E-2,-2.5531817E-3,-2.5744652E-2,3.1486002E-4,-2.8686961E-2,3.2372165E-2,-2.7853865E-3],"categories":[],"categories_nodes":[],"categories_segments":[],"categories_sizes":[],"default_left":[0,0,0,0,0,0,0,0,0,0,0,0,0,0,0,0,0,0,0,0,0,0,0,0,0,0,0,0,0,0,0],"id":49,"left_children":[1,3,5,7,9,11,13,15,17,19,21,23,25,27,29,-1,-1,-1,-1,-1,-1,-1,-1,-1,-1,-1,-1,-1,-1,-1,-1],"loss_changes":[2.9386295E1,1.5296954E2,9.118758E1,6.8551044E2,6.826494E2,1.7723431E2,8.873602E1,1.7505566E2,1.8654758E3,3.9406757E2,2.8436024E1,9.500929E1,8.369713E0,4.9558342E1,1.558382E2,0E0,0E0,0E0,0E0,0E0,0E0,0E0,0E0,0E0,0E0,0E0,0E0,0E0,0E0,0E0,0E0],"parents":[2147483647,0,0,1,1,2,2,3,3,4,4,5,5,6,6,7,7,8,8,9,9,10,10,11,11,12,12,13,13,14,14],"right_children":[2,4,6,8,10,12,14,16,18,20,22,24,26,28,30,-1,-1,-1,-1,-1,-1,-1,-1,-1,-1,-1,-1,-1,-1,-1,-1],"split_conditions":[3E0,1.3E1,4E0,1E1,1.6E1,1.8E1,9E0,7E0,1.1E1,2E0,1.8E1,2E0,2E1,4E0,1.2E1,-1.6375916E-2,5.9278626E-2,-5.323002E-1,-3.774091E-2,2.6236182E-2,2.190067E-1,7.769839E-3,-2.0304805E-2,-3.5513747E-2,5.391807E-2,-2.5531817E-3,-2.5744652E-2,3.1486002E-4,-2.8686961E-2,3.2372165E-2,-2.7853865E-3],"split_indices":[0,1,0,1,1,1,1,1,1,0,1,1,1,1,1,0,0,0,0,0,0,0,0,0,0,0,0,0,0,0,0],"split_type":[0,0,0,0,0,0,0,0,0,0,0,0,0,0,0,0,0,0,0,0,0,0,0,0,0,0,0,0,0,0,0],"sum_hessian":[1.7205E4,4.449E3,1.2756E4,1.913E3,2.536E3,1.967E3,1.0789E4,1.396E3,5.17E2,4.24E2,2.112E3,1.265E3,7.02E2,2.502E3,8.287E3,9.45E2,4.51E2,9.2E1,4.25E2,2.08E2,2.16E2,4.61E2,1.651E3,1.32E2,1.133E3,2.33E2,4.69E2,9.49E2,1.553E3,1.55E3,6.737E3],"tree_param":{"num_deleted":"0","num_feature":"2","num_nodes":"31","size_leaf_vector":"1"}}]},"name":"gbtree"},"learner_model_param":{"base_score":"[1.3818251E1]","boost_from_average":"1","num_class":"0","num_feature":"2","num_target":"1"},"objective":{"name":"reg:squarederror","reg_loss_param":{"scale_pos_weight":"1"}}},"version":[3,2,0]}