{"learner":{"attributes":{},"feature_names":["day_of_week","hour_of_day"],"feature_types":[],"gradient_booster":{"model":{"cats":{"enc":[],"feature_segments":[],"sorted_idx":[]},"gbtree_model_param":{"num_parallel_tree":"1","num_trees":"50"},"iteration_indptr":[0,1,2,3,4,5,6,7,8,9,10,11,12,13,14,15,16,17,18,19,20,21,22,23,24,25,26,27,28,29,30,31,32,33,34,35,36,37,38,39,40,41,42,43,44,45,46,47,48,49,50],"tree_info":[0,0,0,0,0,0,0,0,0,0,0,0,0,0,0,0,0,0,0,0,0,0,0,0,0,0,0,0,0,0,0,0,0,0,0,0,0,0,0,0,0,0,0,0,0,0,0,0,0,0],"trees":[{"base_weights":[-3.5705975E-7,-1.0516196E1,9.918286E-1,-1.1671929E1,-8.428274E0,3.1459396E0,-4.9213114E0,-1.1822852E1,-5.061944E-1,-7.16699E0,-9.0855914E-1,-5.57508E-1,3.7321608E0,-2.4488785E0,-7.6803794E0,-1.2071348E0,-1.0735233E0,-8.124617E-1,-6.806301E-1,1.4704579E-1,-6.142744E-1,4.5005584E-1,3.605018E-2,-4.7198573E-1,-9.802814E-2,-9.6314687E-1,-5.201568E-1],"categories":[],"categories_nodes":[],"categories_segments":[],"categories_sizes":[],"default_left":[0,0,0,0,0,0,0,0,0,0,0,0,0,0,0,0,0,0,0,0,0,0,0,0,0,0,0],"id":0,"left_children":[1,3,5,7,9,11,13,15,-1,17,-1,19,21,23,25,-1,-1,-1,-1,-1,-1,-1,-1,-1,-1,-1,-1],"loss_changes":[1.7947361E5,3.4802344E3,2.0030089E5,8.898672E2,3.759453E2,2.5025492E4,2.8625133E4,1.21765625E2,0E0,9.291992E0,0E0,1.7859863E4,2.5779172E4,7.386073E3,9.545281E3,0E0,0E0,0E0,0E0,0E0,0E0,0E0,0E0,0E0,0E0,0E0,0E0],"parents":[2147483647,0,0,1,1,2,2,3,3,4,4,5,5,6,6,7,7,9,9,11,11,12,12,13,13,14,14],"right_children":[2,4,6,8,10,12,14,16,-1,18,-1,20,22,24,26,-1,-1,-1,-1,-1,-1,-1,-1,-1,-1,-1,-1],"split_conditions":[4E0,6E0,2E1,3E0,1E0,7E0,2.2E1,5E0,-5.061944E-1,7E0,-9.0855914E-1,6E0,1.8E1,4E0,5E0,-1.2071348E0,-1.0735233E0,-8.124617E-1,-6.806301E-1,1.4704579E-1,-6.142744E-1,4.5005584E-1,3.605018E-2,-4.7198573E-1,-9.802814E-2,-9.6314687E-1,-5.201568E-1],"split_indices":[1,0,1,1,1,1,1,0,0,0,0,0,1,0,0,0,0,0,0,0,0,0,0,0,0,0,0],"split_type":[0,0,0,0,0,0,0,0,0,0,0,0,0,0,0,0,0,0,0,0,0,0,0,0,0,0,0],"sum_hessian":[1.7205E4,1.482E3,1.5723E4,9.51E2,5.31E2,1.1525E4,4.198E3,9.29E2,2.2E1,1.86E2,3.45E2,1.575E3,9.95E3,2.215E3,1.983E3,7.48E2,1.81E2,4.5E1,1.41E2,1.156E3,4.19E2,8.103E3,1.847E3,8.69E2,1.346E3,1.108E3,8.75E2],"tree_param":{"num_deleted":"0","num_feature":"2","num_nodes":"27","size_leaf_vector":"1"}},{"base_weights":[-4.1997537E-4,-9.468075E0,8.925165E-1,-1.0507664E1,-7.5899615E0,3.1326244E0,-3.7221313E0,-1.0643019E1,-4.5777583E-1,-6.4582753E0,-8.179659E-1,1.7986985E-1,3.9331937E0,-1.7149762E0,-6.913089E0,-1.0865825E0,-9.6676075E-1,-7.329817E-1,-6.130464E-1,1.9514911E-1,-4.096914E-1,4.261981E-1,1.2417127E-1,-3.4724852E-1,-5.2653458E-2,-9.4198954E-1,-5.2500844E-1],"categories":[],"categories_nodes":[],"categories_segments":[],"categories_sizes":[],"default_left":[0,0,0,0,0,0,0,0,0,0,0,0,0,0,0,0,0,0,0,0,0,0,0,0,0,0,0],"id":1,"left_children":[1,3,5,7,9,11,13,15,-1,17,-1,19,21,23,25,-1,-1,-1,-1,-1,-1,-1,-1,-1,-1,-1,-1],"loss_changes":[1.4546823E5,2.81575E3,1.625555E5,7.1539844E2,3.0220312E2,2.5023375E4,3.290215E4,9.707031E1,0E0,8.490723E0,0E0,1.7124078E4,7.364367E3,6.5900996E3,8.221508E3,0E0,0E0,0E0,0E0,0E0,0E0,0E0,0E0,0E0,0E0,0E0,0E0],"parents":[2147483647,0,0,1,1,2,2,3,3,4,4,5,5,6,6,7,7,9,9,11,11,12,12,13,13,14,14],"right_children":[2,4,6,8,10,12,14,16,-1,18,-1,20,22,24,26,-1,-1,-1,-1,-1,-1,-1,-1,-1,-1,-1,-1],"split_conditions":[4E0,6E0,1.9E1,3E0,1E0,8E0,2.2E1,5E0,-4.5777583E-1,7E0,-8.179659E-1,6E0,1.8E1,4E0,4E0,-1.0865825E0,-9.6676075E-1,-7.329817E-1,-6.130464E-1,1.9514911E-1,-4.096914E-1,4.261981E-1,1.2417127E-1,-3.4724852E-1,-5.2653458E-2,-9.4198954E-1,-5.2500844E-1],"split_indices":[1,0,1,1,1,1,1,0,0,0,0,0,1,0,0,0,0,0,0,0,0,0,0,0,0,0,0],"split_type":[0,0,0,0,0,0,0,0,0,0,0,0,0,0,0,0,0,0,0,0,0,0,0,0,0,0,0],"sum_hessian":[1.7205E4,1.482E3,1.5723E4,9.51E2,5.31E2,1.0585E4,5.138E3,9.29E2,2.2E1,1.86E2,3.45E2,2.258E3,8.327E3,3.155E3,1.983E3,7.48E2,1.81E2,4.5E1,1.41E2,1.597E3,6.61E2,7.42E3,9.07E2,1.272E3,1.883E3,7.89E2,1.194E3],"tree_param":{"num_deleted":"0","num_feature":"2","num_nodes":"27","size_leaf_vector":"1"}},{"base_weights":[-7.3878246E-4,-8.524421E0,8.031674E-1,-9.459536E0,-6.835033E0,2.5582566E0,-4.014637E0,-9.580925E0,-4.1398856E-1,-5.819646E0,-7.364058E-1,-1.8808687E0,2.9326062E0,-2.0360935E0,-6.2225194E0,-9.780693E-1,-8.706159E-1,-6.61277E-1,-5.521735E-1,2.4157343E-2,-5.727305E-1,3.4747112E-1,3.5455406E-2,-3.901565E-1,-8.297117E-2,-8.4790987E-1,-4.7255155E-1],"categories":[],"categories_nodes":[],"categories_segments":[],"categories_sizes":[],"default_left":[0,0,0,0,0,0,0,0,0,0,0,0,0,0,0,0,0,0,0,0,0,0,0,0,0,0,0],"id":2,"left_children":[1,3,5,7,9,11,13,15,-1,17,-1,19,21,23,25,-1,-1,-1,-1,-1,-1,-1,-1,-1,-1,-1,-1],"loss_changes":[1.17906484E5,2.2781562E3,1.3296733E5,5.7508594E2,2.4291406E2,1.915925E4,1.8330203E4,7.736719E1,0E0,7.669922E0,0E0,7.3243457E3,1.4854992E4,4.9838066E3,6.6621016E3,0E0,0E0,0E0,0E0,0E0,0E0,0E0,0E0,0E0,0E0,0E0,0E0],"parents":[2147483647,0,0,1,1,2,2,3,3,4,4,5,5,6,6,7,7,9,9,11,11,12,12,13,13,14,14],"right_children":[2,4,6,8,10,12,14,16,-1,18,-1,20,22,24,26,-1,-1,-1,-1,-1,-1,-1,-1,-1,-1,-1,-1],"split_conditions":[4E0,6E0,2E1,3E0,1E0,5E0,2.2E1,5E0,-4.1398856E-1,7E0,-7.364058E-1,5E0,1.8E1,4E0,4E0,-9.780693E-1,-8.706159E-1,-6.61277E-1,-5.521735E-1,2.4157343E-2,-5.727305E-1,3.4747112E-1,3.5455406E-2,-3.901565E-1,-8.297117E-2,-8.4790987E-1,-4.7255155E-1],"split_indices":[1,0,1,1,1,1,1,0,0,0,0,0,1,0,0,0,0,0,0,0,0,0,0,0,0,0,0],"split_type":[0,0,0,0,0,0,0,0,0,0,0,0,0,0,0,0,0,0,0,0,0,0,0,0,0,0,0],"sum_hessian":[1.7205E4,1.482E3,1.5723E4,9.51E2,5.31E2,1.1525E4,4.198E3,9.29E2,2.2E1,1.86E2,3.45E2,8.96E2,1.0629E4,2.215E3,1.983E3,7.48E2,1.81E2,4.5E1,1.41E2,5.78E2,3.18E2,8.782E3,1.847E3,8.69E2,1.346E3,7.89E2,1.194E3],"tree_param":{"num_deleted":"0","num_feature":"2","num_nodes":"27","size_leaf_vector":"1"}},{"base_weights":[-1.023699E-3,-7.674819E0,7.227259E-1,-8.515959E0,-6.155195E0,2.3024163E0,-3.6136005E0,-8.624821E0,-3.7438968E-1,-5.24417E0,-6.6297805E-1,-1.6933937E0,2.6393814E0,-1.8326974E0,-5.600933E0,-8.80393E-1,-7.840327E-1,-5.965869E-1,-4.9734497E-1,2.1745753E-2,-5.1563704E-1,3.1272796E-1,3.1911757E-2,-3.5118568E-1,-7.468017E-2,-7.108818E-1,-3.685584E-1],"categories":[],"categories_nodes":[],"categories_segments":[],"categories_sizes":[],"default_left":[0,0,0,0,0,0,0,0,0,0,0,0,0,0,0,0,0,0,0,0,0,0,0,0,0,0,0],"id":3,"left_children":[1,3,5,7,9,11,13,15,-1,17,-1,19,21,23,25,-1,-1,-1,-1,-1,-1,-1,-1,-1,-1,-1,-1],"loss_changes":[9.556606E4,1.8431719E3,1.0771856E5,4.6226562E2,1.9524805E2,1.5523629E4,1.4851035E4,6.1648438E1,0E0,6.864746E0,0E0,5.93678E3,1.2032727E4,4.0380146E3,5.7038438E3,0E0,0E0,0E0,0E0,0E0,0E0,0E0,0E0,0E0,0E0,0E0,0E0],"parents":[2147483647,0,0,1,1,2,2,3,3,4,4,5,5,6,6,7,7,9,9,11,11,12,12,13,13,14,14],"right_children":[2,4,6,8,10,12,14,16,-1,18,-1,20,22,24,26,-1,-1,-1,-1,-1,-1,-1,-1,-1,-1,-1,-1],"split_conditions":[4E0,6E0,2E1,3E0,1E0,5E0,2.2E1,5E0,-3.7438968E-1,7E0,-6.6297805E-1,5E0,1.8E1,4E0,5E0,-8.80393E-1,-7.840327E-1,-5.965869E-1,-4.9734497E-1,2.1745753E-2,-5.1563704E-1,3.1272796E-1,3.1911757E-2,-3.5118568E-1,-7.468017E-2,-7.108818E-1,-3.685584E-1],"split_indices":[1,0,1,1,1,1,1,0,0,0,0,0,1,0,0,0,0,0,0,0,0,0,0,0,0,0,0],"split_type":[0,0,0,0,0,0,0,0,0,0,0,0,0,0,0,0,0,0,0,0,0,0,0,0,0,0,0],"sum_hessian":[1.7205E4,1.482E3,1.5723E4,9.51E2,5.31E2,1.1525E4,4.198E3,9.29E2,2.2E1,1.86E2,3.45E2,8.96E2,1.0629E4,2.215E3,1.983E3,7.48E2,1.81E2,4.5E1,1.41E2,5.78E2,3.18E2,8.782E3,1.847E3,8.69E2,1.346E3,1.108E3,8.75E2],"tree_param":{"num_deleted":"0","num_feature":"2","num_nodes":"27","size_leaf_vector":"1"}},{"base_weights":[-1.2380882E-3,-6.9098964E0,6.503481E-1,-7.6665044E0,-5.542978E0,1.8451681E0,-4.046708E0,-7.764128E0,-3.385785E-1,-4.725603E0,-5.968718E-1,2.2961173E0,-6.025988E-1,-5.9119935E0,-2.8268607E0,-7.924713E-1,-7.060602E-1,-5.3822505E-1,-4.479607E-1,-9.479593E-3,2.9443854E-1,-2.0987292E-1,2.74495E-4,-4.2049074E-1,-6.9222796E-1,-1.9150874E-1,-5.524548E-1],"categories":[],"categories_nodes":[],"categories_segments":[],"categories_sizes":[],"default_left":[0,0,0,0,0,0,0,0,0,0,0,0,0,0,0,0,0,0,0,0,0,0,0,0,0,0,0],"id":4,"left_children":[1,3,5,7,9,11,13,15,-1,17,-1,19,21,23,25,-1,-1,-1,-1,-1,-1,-1,-1,-1,-1,-1,-1],"loss_changes":[7.745879E4,1.4912578E3,8.82527E4,3.7155078E2,1.5692578E2,1.3838852E4,7.239422E3,4.911328E1,0E0,6.0966797E0,0E0,1.6408078E4,1.7669739E3,2.1439453E3,4.7366006E3,0E0,0E0,0E0,0E0,0E0,0E0,0E0,0E0,0E0,0E0,0E0,0E0],"parents":[2147483647,0,0,1,1,2,2,3,3,4,4,5,5,6,6,7,7,9,9,11,11,12,12,13,13,14,14],"right_children":[2,4,6,8,10,12,14,16,-1,18,-1,20,22,24,26,-1,-1,-1,-1,-1,-1,-1,-1,-1,-1,-1,-1],"split_conditions":[4E0,6E0,2.1E1,3E0,1E0,1.9E1,4E0,5E0,-3.385785E-1,7E0,-5.968718E-1,8E0,3E0,2.2E1,7E0,-7.924713E-1,-7.060602E-1,-5.3822505E-1,-4.479607E-1,-9.479593E-3,2.9443854E-1,-2.0987292E-1,2.74495E-4,-4.2049074E-1,-6.9222796E-1,-1.9150874E-1,-5.524548E-1],"split_indices":[1,0,1,1,1,1,0,0,0,0,0,1,0,1,0,0,0,0,0,0,0,0,0,0,0,0,0],"split_type":[0,0,0,0,0,0,0,0,0,0,0,0,0,0,0,0,0,0,0,0,0,0,0,0,0,0,0],"sum_hessian":[1.7205E4,1.482E3,1.5723E4,9.51E2,5.31E2,1.2535E4,3.188E3,9.29E2,2.2E1,1.86E2,3.45E2,1.0585E4,1.95E3,1.259E3,1.929E3,7.48E2,1.81E2,4.5E1,1.41E2,2.258E3,8.327E3,5.61E2,1.389E3,4.7E2,7.89E2,1.443E3,4.86E2],"tree_param":{"num_deleted":"0","num_feature":"2","num_nodes":"27","size_leaf_vector":"1"}},{"base_weights":[-1.4164792E-3,-6.2212133E0,5.852002E-1,-6.901784E0,-4.991656E0,1.6606575E0,-3.6426198E0,-6.989327E0,-3.0619276E-1,-4.258316E0,-5.373572E-1,2.1892366E0,-1.3002767E-1,-4.9429207E0,-2.0915458E0,-7.1333E-1,-6.358421E-1,-4.8557258E-1,-4.034801E-1,4.6119176E-2,3.1359535E-1,-1.4242737E-1,3.599015E-2,-3.3262965E-1,-5.8510035E-1,-6.4260714E-2,-4.9732277E-1],"categories":[],"categories_nodes":[],"categories_segments":[],"categories_sizes":[],"default_left":[0,0,0,0,0,0,0,0,0,0,0,0,0,0,0,0,0,0,0,0,0,0,0,0,0,0,0],"id":5,"left_children":[1,3,5,7,9,11,13,15,-1,17,-1,19,21,23,25,-1,-1,-1,-1,-1,-1,-1,-1,-1,-1,-1,-1],"loss_changes":[6.2782074E4,1.2065273E3,7.150056E4,2.9861328E2,1.2611719E2,1.1865844E4,6.4214336E3,3.9121094E1,0E0,5.378174E0,0E0,1.5833098E4,1.8127384E3,2.5260977E3,6.0761567E3,0E0,0E0,0E0,0E0,0E0,0E0,0E0,0E0,0E0,0E0,0E0,0E0],"parents":[2147483647,0,0,1,1,2,2,3,3,4,4,5,5,6,6,7,7,9,9,11,11,12,12,13,13,14,14],"right_children":[2,4,6,8,10,12,14,16,-1,18,-1,20,22,24,26,-1,-1,-1,-1,-1,-1,-1,-1,-1,-1,-1,-1],"split_conditions":[4E0,6E0,2.1E1,3E0,1E0,1.8E1,5E0,5E0,-3.0619276E-1,7E0,-5.373572E-1,1E1,3E0,2.2E1,7E0,-7.1333E-1,-6.358421E-1,-4.8557258E-1,-4.034801E-1,4.6119176E-2,3.1359535E-1,-1.4242737E-1,3.599015E-2,-3.3262965E-1,-5.8510035E-1,-6.4260714E-2,-4.9732277E-1],"split_indices":[1,0,1,1,1,1,0,0,0,0,0,1,0,1,0,0,0,0,0,0,0,0,0,0,0,0,0],"split_type":[0,0,0,0,0,0,0,0,0,0,0,0,0,0,0,0,0,0,0,0,0,0,0,0,0,0,0],"sum_hessian":[1.7205E4,1.482E3,1.5723E4,9.51E2,5.31E2,1.2535E4,3.188E3,9.29E2,2.2E1,1.86E2,3.45E2,9.678E3,2.857E3,1.733E3,1.455E3,7.48E2,1.81E2,4.5E1,1.41E2,3.426E3,6.252E3,7.84E2,2.073E3,6.25E2,1.108E3,9.69E2,4.86E2],"tree_param":{"num_deleted":"0","num_feature":"2","num_nodes":"27","size_leaf_vector":"1"}},{"base_weights":[-1.5248872E-3,-5.6011696E0,5.266025E-1,-6.213344E0,-4.4951715E0,1.8670756E0,-2.2347858E0,-6.2918444E0,-2.769048E-1,-3.8372386E0,-4.8377678E-1,-6.54557E-1,2.3078952E0,-1.0136933E0,-4.1760826E0,-6.4209217E-1,-5.726072E-1,-4.3807086E-1,-3.634162E-1,8.706873E-2,-4.8546836E-1,2.7481386E-1,4.441452E-2,-2.2143202E-1,-2.0190373E-2,-5.266431E-1,-2.7909547E-1],"categories":[],"categories_nodes":[],"categories_segments":[],"categories_sizes":[],"default_left":[0,0,0,0,0,0,0,0,0,0,0,0,0,0,0,0,0,0,0,0,0,0,0,0,0,0,0],"id":6,"left_children":[1,3,5,7,9,11,13,15,-1,17,-1,19,21,23,25,-1,-1,-1,-1,-1,-1,-1,-1,-1,-1,-1,-1],"loss_changes":[5.08867E4,9.7614844E2,5.82076E4,2.3998438E2,1.0135254E2,1.1768754E4,1.2177781E4,3.1148438E1,0E0,4.7182617E0,0E0,1.0100428E4,7.392336E3,3.0755676E3,2.9816797E3,0E0,0E0,0E0,0E0,0E0,0E0,0E0,0E0,0E0,0E0,0E0,0E0],"parents":[2147483647,0,0,1,1,2,2,3,3,4,4,5,5,6,6,7,7,9,9,11,11,12,12,13,13,14,14],"right_children":[2,4,6,8,10,12,14,16,-1,18,-1,20,22,24,26,-1,-1,-1,-1,-1,-1,-1,-1,-1,-1,-1,-1],"split_conditions":[4E0,6E0,1.9E1,3E0,1E0,7E0,2.2E1,5E0,-2.769048E-1,7E0,-4.8377678E-1,6E0,7E0,4E0,5E0,-6.4209217E-1,-5.726072E-1,-4.3807086E-1,-3.634162E-1,8.706873E-2,-4.8546836E-1,2.7481386E-1,4.441452E-2,-2.2143202E-1,-2.0190373E-2,-5.266431E-1,-2.7909547E-1],"split_indices":[1,0,1,1,1,1,1,0,0,0,0,0,0,0,0,0,0,0,0,0,0,0,0,0,0,0,0],"split_type":[0,0,0,0,0,0,0,0,0,0,0,0,0,0,0,0,0,0,0,0,0,0,0,0,0,0,0],"sum_hessian":[1.7205E4,1.482E3,1.5723E4,9.51E2,5.31E2,1.0585E4,5.138E3,9.29E2,2.2E1,1.86E2,3.45E2,1.575E3,9.01E3,3.155E3,1.983E3,7.48E2,1.81E2,4.5E1,1.41E2,1.156E3,4.19E2,7.288E3,1.722E3,1.272E3,1.883E3,1.108E3,8.75E2],"tree_param":{"num_deleted":"0","num_feature":"2","num_nodes":"27","size_leaf_vector":"1"}},{"base_weights":[-1.5994849E-3,-5.042925E0,4.7387034E-1,-5.5935764E0,-4.04807E0,1.3529562E0,-2.981976E0,-5.663966E0,-2.5041822E-1,-3.4578001E0,-4.3553886E-1,1.7435873E0,-4.1633132E-1,-4.0508175E0,-1.7070084E0,-5.779687E-1,-5.156611E-1,-3.9521608E-1,-3.2733044E-1,2.2663975E-1,5.874191E-4,-3.9087316E-1,7.1206875E-2,-3.5343114E-1,-5.7154536E-1,-4.0450174E-2,-4.2978182E-1],"categories":[],"categories_nodes":[],"categories_segments":[],"categories_sizes":[],"default_left":[0,0,0,0,0,0,0,0,0,0,0,0,0,0,0,0,0,0,0,0,0,0,0,0,0,0,0],"id":7,"left_children":[1,3,5,7,9,11,13,15,-1,17,-1,19,21,23,25,-1,-1,-1,-1,-1,-1,-1,-1,-1,-1,-1,-1],"loss_changes":[4.124514E4,7.8977344E2,4.7773324E4,1.9283789E2,8.144531E1,8.664844E3,4.3388555E3,2.4798828E1,0E0,4.1191406E0,0E0,9.329309E3,8.940574E3,1.4706836E3,4.911602E3,0E0,0E0,0E0,0E0,0E0,0E0,0E0,0E0,0E0,0E0,0E0,0E0],"parents":[2147483647,0,0,1,1,2,2,3,3,4,4,5,5,6,6,7,7,9,9,11,11,12,12,13,13,14,14],"right_children":[2,4,6,8,10,12,14,16,-1,18,-1,20,22,24,26,-1,-1,-1,-1,-1,-1,-1,-1,-1,-1,-1,-1],"split_conditions":[4E0,6E0,2.1E1,3E0,1E0,7E0,5E0,5E0,-2.5041822E-1,7E0,-4.3553886E-1,1.8E1,1E1,2.3E1,7E0,-5.779687E-1,-5.156611E-1,-3.9521608E-1,-3.2733044E-1,2.2663975E-1,5.874191E-4,-3.9087316E-1,7.1206875E-2,-3.5343114E-1,-5.7154536E-1,-4.0450174E-2,-4.2978182E-1],"split_indices":[1,0,1,1,1,0,0,0,0,0,0,1,1,1,0,0,0,0,0,0,0,0,0,0,0,0,0],"split_type":[0,0,0,0,0,0,0,0,0,0,0,0,0,0,0,0,0,0,0,0,0,0,0,0,0,0,0],"sum_hessian":[1.7205E4,1.482E3,1.5723E4,9.51E2,5.31E2,1.2535E4,3.188E3,9.29E2,2.2E1,1.86E2,3.45E2,1.0268E4,2.267E3,1.733E3,1.455E3,7.48E2,1.81E2,4.5E1,1.41E2,7.893E3,2.375E3,5.53E2,1.714E3,1.325E3,4.08E2,9.69E2,4.86E2],"tree_param":{"num_deleted":"0","num_feature":"2","num_nodes":"27","size_leaf_vector":"1"}},{"base_weights":[-1.6712437E-3,-4.54032E0,4.263889E-1,-5.0356307E0,-3.6454394E0,1.5225103E0,-1.8316317E0,-5.0987453E0,-2.264651E-1,-3.115884E0,-3.9211082E-1,-1.616972E0,1.812974E0,-8.198772E-1,-3.4401324E0,-5.20249E-1,-4.6437833E-1,-3.5655364E-1,-2.948279E-1,-1.5399302E-2,-4.2672786E-1,2.1573053E-1,2.688854E-2,-2.1811822E-1,-2.6308328E-2,-5.1218057E-1,-2.801277E-1],"categories":[],"categories_nodes":[],"categories_segments":[],"categories_sizes":[],"default_left":[0,0,0,0,0,0,0,0,0,0,0,0,0,0,0,0,0,0,0,0,0,0,0,0,0,0,0],"id":8,"left_children":[1,3,5,7,9,11,13,15,-1,17,-1,19,21,23,25,-1,-1,-1,-1,-1,-1,-1,-1,-1,-1,-1,-1],"loss_changes":[3.3430004E4,6.3897266E2,3.8920703E4,1.5494922E2,6.5444824E1,9.656363E3,8.36043E3,1.9736328E1,0E0,3.5809326E0,0E0,3.4773193E3,5.151381E3,2.3915684E3,2.1171543E3,0E0,0E0,0E0,0E0,0E0,0E0,0E0,0E0,0E0,0E0,0E0,0E0],"parents":[2147483647,0,0,1,1,2,2,3,3,4,4,5,5,6,6,7,7,9,9,11,11,12,12,13,13,14,14],"right_children":[2,4,6,8,10,12,14,16,-1,18,-1,20,22,24,26,-1,-1,-1,-1,-1,-1,-1,-1,-1,-1,-1,-1],"split_conditions":[4E0,6E0,1.9E1,3E0,1E0,5E0,2.2E1,5E0,-2.264651E-1,7E0,-3.9211082E-1,5E0,7E0,3E0,3E0,-5.20249E-1,-4.6437833E-1,-3.5655364E-1,-2.948279E-1,-1.5399302E-2,-4.2672786E-1,2.1573053E-1,2.688854E-2,-2.1811822E-1,-2.6308328E-2,-5.1218057E-1,-2.801277E-1],"split_indices":[1,0,1,1,1,1,1,0,0,0,0,0,0,0,0,0,0,0,0,0,0,0,0,0,0,0,0],"split_type":[0,0,0,0,0,0,0,0,0,0,0,0,0,0,0,0,0,0,0,0,0,0,0,0,0,0,0],"sum_hessian":[1.7205E4,1.482E3,1.5723E4,9.51E2,5.31E2,1.0585E4,5.138E3,9.29E2,2.2E1,1.86E2,3.45E2,8.96E2,9.689E3,3.155E3,1.983E3,7.48E2,1.81E2,4.5E1,1.41E2,5.78E2,3.18E2,7.922E3,1.767E3,9.15E2,2.24E3,5.44E2,1.439E3],"tree_param":{"num_deleted":"0","num_feature":"2","num_nodes":"27","size_leaf_vector":"1"}},{"base_weights":[-1.7070915E-3,-4.087808E0,3.8367128E-1,-4.53334E0,-3.282857E0,1.1017454E0,-2.4392076E0,-4.5899296E0,-2.0480323E-1,-2.807779E0,-3.530131E-1,-1.4557678E0,1.2987374E0,-1.843313E0,-4.210476E0,-4.2384678E-1,-4.7236124E-1,-3.2167336E-1,-2.655528E-1,-6.162214E-2,-5.2898663E-1,1.7662875E-1,-1.3855782E-2,-3.3121553E-1,-8.132887E-2,-3.786034E-1,-6.1399955E-1],"categories":[],"categories_nodes":[],"categories_segments":[],"categories_sizes":[],"default_left":[0,0,0,0,0,0,0,0,0,0,0,0,0,0,0,0,0,0,0,0,0,0,0,0,0,0,0],"id":9,"left_children":[1,3,5,7,9,11,13,15,-1,17,-1,19,21,23,25,-1,-1,-1,-1,-1,-1,-1,-1,-1,-1,-1,-1],"loss_changes":[2.709577E4,5.1696875E2,3.1875807E4,1.24490234E2,5.258496E1,6.3176494E3,3.3581934E3,2.3675781E1,0E0,3.1011963E0,0E0,2.8840962E3,7.82241E3,3.6102158E3,6.3356836E2,0E0,0E0,0E0,0E0,0E0,0E0,0E0,0E0,0E0,0E0,0E0,0E0],"parents":[2147483647,0,0,1,1,2,2,3,3,4,4,5,5,6,6,7,7,9,9,11,11,12,12,13,13,14,14],"right_children":[2,4,6,8,10,12,14,16,-1,18,-1,20,22,24,26,-1,-1,-1,-1,-1,-1,-1,-1,-1,-1,-1,-1],"split_conditions":[4E0,6E0,2.1E1,3E0,1E0,5E0,2.3E1,2E0,-2.0480323E-1,7E0,-3.530131E-1,7E0,1.8E1,4E0,7E0,-4.2384678E-1,-4.7236124E-1,-3.2167336E-1,-2.655528E-1,-6.162214E-2,-5.2898663E-1,1.7662875E-1,-1.3855782E-2,-3.3121553E-1,-8.132887E-2,-3.786034E-1,-6.1399955E-1],"split_indices":[1,0,1,1,1,1,1,0,0,0,0,0,1,0,0,0,0,0,0,0,0,0,0,0,0,0,0],"split_type":[0,0,0,0,0,0,0,0,0,0,0,0,0,0,0,0,0,0,0,0,0,0,0,0,0,0,0],"sum_hessian":[1.7205E4,1.482E3,1.5723E4,9.51E2,5.31E2,1.2535E4,3.188E3,9.29E2,2.2E1,1.86E2,3.45E2,8.96E2,1.1639E4,2.387E3,8.01E2,2.65E2,6.64E2,4.5E1,1.41E2,7.36E2,1.6E2,8.782E3,2.857E3,9.83E2,1.404E3,6.59E2,1.42E2],"tree_param":{"num_deleted":"0","num_feature":"2","num_nodes":"27","size_leaf_vector":"1"}},{"base_weights":[-1.7613049E-3,-3.680404E0,3.4518787E-1,-4.0811625E0,-2.956339E0,1.1215501E0,-1.7859615E0,-4.131901E0,-1.8521333E-1,-2.5301416E0,-3.178138E-1,-2.2321667E-1,1.5369474E0,-1.3122832E0,-3.790666E0,-4.22837E-1,-3.7121907E-1,-2.9020533E-1,-2.3918454E-1,8.543513E-2,-2.713674E-1,1.9246577E-1,7.61177E-3,-2.496155E-1,-4.994821E-2,-3.4080043E-1,-5.53029E-1],"categories":[],"categories_nodes":[],"categories_segments":[],"categories_sizes":[],"default_left":[0,0,0,0,0,0,0,0,0,0,0,0,0,0,0,0,0,0,0,0,0,0,0,0,0,0,0],"id":10,"left_children":[1,3,5,7,9,11,13,15,-1,17,-1,19,21,23,25,-1,-1,-1,-1,-1,-1,-1,-1,-1,-1,-1,-1],"loss_changes":[2.1961322E4,4.1826367E2,2.6018053E4,1.00015625E2,4.2249023E1,6.438911E3,3.982334E3,2.1958984E1,0E0,2.67688E0,0E0,7.304495E3,4.987385E3,3.2684863E3,5.150332E2,0E0,0E0,0E0,0E0,0E0,0E0,0E0,0E0,0E0,0E0,0E0,0E0],"parents":[2147483647,0,0,1,1,2,2,3,3,4,4,5,5,6,6,7,7,9,9,11,11,12,12,13,13,14,14],"right_children":[2,4,6,8,10,12,14,16,-1,18,-1,20,22,24,26,-1,-1,-1,-1,-1,-1,-1,-1,-1,-1,-1,-1],"split_conditions":[4E0,6E0,2E1,3E0,1E0,9E0,2.3E1,5E0,-1.8521333E-1,7E0,-3.178138E-1,6E0,1.8E1,4E0,7E0,-4.22837E-1,-3.7121907E-1,-2.9020533E-1,-2.3918454E-1,8.543513E-2,-2.713674E-1,1.9246577E-1,7.61177E-3,-2.496155E-1,-4.994821E-2,-3.4080043E-1,-5.53029E-1],"split_indices":[1,0,1,1,1,1,1,0,0,0,0,0,1,0,0,0,0,0,0,0,0,0,0,0,0,0,0],"split_type":[0,0,0,0,0,0,0,0,0,0,0,0,0,0,0,0,0,0,0,0,0,0,0,0,0,0,0],"sum_hessian":[1.7205E4,1.482E3,1.5723E4,9.51E2,5.31E2,1.1525E4,4.198E3,9.29E2,2.2E1,1.86E2,3.45E2,2.72E3,8.805E3,3.397E3,8.01E2,7.48E2,1.81E2,4.5E1,1.41E2,1.899E3,8.21E2,6.958E3,1.847E3,1.382E3,2.015E3,6.59E2,1.42E2],"tree_param":{"num_deleted":"0","num_feature":"2","num_nodes":"27","size_leaf_vector":"1"}},{"base_weights":[-1.7596098E-3,-2.5573864E0,4.0826452E-1,-3.313595E0,-1.304304E0,1.3396503E0,-1.348018E0,-3.674075E0,-2.6622975E0,-1.6239287E-1,-3.3728378E0,1.6463065E0,-3.5336696E-2,-5.7337344E-1,-2.5795856E0,-3.7195644E-1,-1.6749729E-1,-2.2799587E-1,-2.861243E-1,1.789821E-2,-1.1948726E-1,-2.2158705E-1,-4.4944835E-1,9.434005E-2,2.0088771E-1,-2.7320415E-1,7.374175E-2,-1.656941E-1,-1.3021357E-2,-3.3577183E-1,-1.5915392E-1],"categories":[],"categories_nodes":[],"categories_segments":[],"categories_sizes":[],"default_left":[0,0,0,0,0,0,0,0,0,0,0,0,0,0,0,0,0,0,0,0,0,0,0,0,0,0,0,0,0,0,0],"id":11,"left_children":[1,3,5,7,9,11,13,15,17,19,21,23,25,27,29,-1,-1,-1,-1,-1,-1,-1,-1,-1,-1,-1,-1,-1,-1,-1,-1],"loss_changes":[1.8030674E4,2.249999E3,2.42571E4,3.3839648E2,2.1182393E3,4.0858281E3,4.9012676E3,8.034277E1,3.394287E1,2.042898E2,4.0400952E2,2.0173066E3,3.6863318E3,1.5152754E3,1.5200166E3,0E0,0E0,0E0,0E0,0E0,0E0,0E0,0E0,0E0,0E0,0E0,0E0,0E0,0E0,0E0,0E0],"parents":[2147483647,0,0,1,1,2,2,3,3,4,4,5,5,6,6,7,7,8,8,9,9,10,10,11,11,12,12,13,13,14,14],"right_children":[2,4,6,8,10,12,14,16,18,20,22,24,26,28,30,-1,-1,-1,-1,-1,-1,-1,-1,-1,-1,-1,-1,-1,-1,-1,-1],"split_conditions":[5E0,4E0,1.9E1,6E0,5E0,7E0,2.2E1,3E0,1E0,4E0,7E0,1.1E1,1E1,3E0,5E0,-3.7195644E-1,-1.6749729E-1,-2.2799587E-1,-2.861243E-1,1.789821E-2,-1.1948726E-1,-2.2158705E-1,-4.4944835E-1,9.434005E-2,2.0088771E-1,-2.7320415E-1,7.374175E-2,-1.656941E-1,-1.3021357E-2,-3.3577183E-1,-1.5915392E-1],"split_indices":[1,1,1,0,0,0,1,1,1,0,0,1,1,0,0,0,0,0,0,0,0,0,0,0,0,0,0,0,0,0,0],"split_type":[0,0,0,0,0,0,0,0,0,0,0,0,0,0,0,0,0,0,0,0,0,0,0,0,0,0,0,0,0,0,0],"sum_hessian":[1.7205E4,2.378E3,1.4827E4,1.482E3,8.96E2,9.689E3,5.138E3,9.51E2,5.31E2,5.78E2,3.18E2,7.922E3,1.767E3,3.155E3,1.983E3,9.29E2,2.2E1,1.86E2,3.45E2,4.35E2,1.43E2,1.58E2,1.6E2,2.697E3,5.225E3,3.93E2,1.374E3,9.15E2,2.24E3,1.108E3,8.75E2],"tree_param":{"num_deleted":"0","num_feature":"2","num_nodes":"31","size_leaf_vector":"1"}},{"base_weights":[-1.7232982E-3,-2.3024156E0,3.6739922E-1,-2.9829462E0,-1.1747352E0,1.2056953E0,-1.2133472E0,-3.3072343E0,-2.3970342E0,-1.4632939E-1,-3.0376573E0,1.4817133E0,-3.191603E-2,-5.160926E-1,-2.3218765E0,-3.348008E-1,-1.5147579E-1,-2.0531821E-1,-2.5759456E-1,1.611246E-2,-1.0762155E-1,-1.9956769E-1,-4.0478268E-1,8.490958E-2,1.8080279E-1,-2.4595311E-1,6.637292E-2,-1.2770349E-1,-1.6575452E-4,-3.6432663E-1,-1.8201548E-1],"categories":[],"categories_nodes":[],"categories_segments":[],"categories_sizes":[],"default_left":[0,0,0,0,0,0,0,0,0,0,0,0,0,0,0,0,0,0,0,0,0,0,0,0,0,0,0,0,0,0,0],"id":12,"left_children":[1,3,5,7,9,11,13,15,17,19,21,23,25,27,29,-1,-1,-1,-1,-1,-1,-1,-1,-1,-1,-1,-1,-1,-1,-1,-1],"loss_changes":[1.4612822E4,1.8221904E3,1.9650541E4,2.7384863E2,1.718064E3,3.3101807E3,3.970874E3,6.450781E1,2.7439209E1,1.6570787E2,3.2769385E2,1.6340293E3,2.987358E3,1.2354312E3,1.3087012E3,0E0,0E0,0E0,0E0,0E0,0E0,0E0,0E0,0E0,0E0,0E0,0E0,0E0,0E0,0E0,0E0],"parents":[2147483647,0,0,1,1,2,2,3,3,4,4,5,5,6,6,7,7,8,8,9,9,10,10,11,11,12,12,13,13,14,14],"right_children":[2,4,6,8,10,12,14,16,18,20,22,24,26,28,30,-1,-1,-1,-1,-1,-1,-1,-1,-1,-1,-1,-1,-1,-1,-1,-1],"split_conditions":[5E0,4E0,1.9E1,6E0,5E0,7E0,2.2E1,3E0,1E0,4E0,7E0,1.1E1,1E1,4E0,3E0,-3.348008E-1,-1.5147579E-1,-2.0531821E-1,-2.5759456E-1,1.611246E-2,-1.0762155E-1,-1.9956769E-1,-4.0478268E-1,8.490958E-2,1.8080279E-1,-2.4595311E-1,6.637292E-2,-1.2770349E-1,-1.6575452E-4,-3.6432663E-1,-1.8201548E-1],"split_indices":[1,1,1,0,0,0,1,1,1,0,0,1,1,0,0,0,0,0,0,0,0,0,0,0,0,0,0,0,0,0,0],"split_type":[0,0,0,0,0,0,0,0,0,0,0,0,0,0,0,0,0,0,0,0,0,0,0,0,0,0,0,0,0,0,0],"sum_hessian":[1.7205E4,2.378E3,1.4827E4,1.482E3,8.96E2,9.689E3,5.138E3,9.51E2,5.31E2,5.78E2,3.18E2,7.922E3,1.767E3,3.155E3,1.983E3,9.29E2,2.2E1,1.86E2,3.45E2,4.35E2,1.43E2,1.58E2,1.6E2,2.697E3,5.225E3,3.93E2,1.374E3,1.272E3,1.883E3,5.44E2,1.439E3],"tree_param":{"num_deleted":"0","num_feature":"2","num_nodes":"31","size_leaf_vector":"1"}},{"base_weights":[-1.6808823E-3,-2.0728655E0,3.3061948E-1,-2.6852915E0,-1.0580374E0,1.1981432E0,-9.2968345E-1,-2.9770217E0,-2.1582007E0,-1.3185441E-1,-2.7357862E0,6.4310443E-1,1.9022784E0,-3.6287892E-1,-2.0899644E0,-3.0135676E-1,-1.3698678E-1,-1.8489616E-1,-2.3190954E-1,1.4504934E-2,-9.693418E-2,-1.7973642E-1,-3.6455584E-1,9.536617E-2,-8.032103E-2,2.7530646E-1,1.1706612E-1,-1.8056451E-1,-1.1238362E-2,-2.7509686E-1,-1.2507592E-1],"categories":[],"categories_nodes":[],"categories_segments":[],"categories_sizes":[],"default_left":[0,0,0,0,0,0,0,0,0,0,0,0,0,0,0,0,0,0,0,0,0,0,0,0,0,0,0,0,0,0,0],"id":13,"left_children":[1,3,5,7,9,11,13,15,17,19,21,23,25,27,29,-1,-1,-1,-1,-1,-1,-1,-1,-1,-1,-1,-1,-1,-1,-1,-1],"loss_changes":[1.1842808E4,1.4757246E3,1.6213199E4,2.2161426E2,1.3934897E3,3.4313691E3,3.9754077E3,5.1786133E1,2.2181885E1,1.3441267E2,2.6579395E2,2.2075068E3,2.4062793E3,1.4681901E3,1.0971211E3,0E0,0E0,0E0,0E0,0E0,0E0,0E0,0E0,0E0,0E0,0E0,0E0,0E0,0E0,0E0,0E0],"parents":[2147483647,0,0,1,1,2,2,3,3,4,4,5,5,6,6,7,7,8,8,9,9,10,10,11,11,12,12,13,13,14,14],"right_children":[2,4,6,8,10,12,14,16,18,20,22,24,26,28,30,-1,-1,-1,-1,-1,-1,-1,-1,-1,-1,-1,-1,-1,-1,-1,-1],"split_conditions":[5E0,4E0,1.8E1,6E0,5E0,1.3E1,2.2E1,3E0,1E0,4E0,7E0,7E0,5E0,2E0,5E0,-3.0135676E-1,-1.3698678E-1,-1.8489616E-1,-2.3190954E-1,1.4504934E-2,-9.693418E-2,-1.7973642E-1,-3.6455584E-1,9.536617E-2,-8.032103E-2,2.7530646E-1,1.1706612E-1,-1.8056451E-1,-1.1238362E-2,-2.7509686E-1,-1.2507592E-1],"split_indices":[1,1,1,0,0,1,1,1,1,0,0,0,0,0,0,0,0,0,0,0,0,0,0,0,0,0,0,0,0,0,0],"split_type":[0,0,0,0,0,0,0,0,0,0,0,0,0,0,0,0,0,0,0,0,0,0,0,0,0,0,0,0,0,0,0],"sum_hessian":[1.7205E4,2.378E3,1.4827E4,1.482E3,8.96E2,8.782E3,6.045E3,9.51E2,5.31E2,5.78E2,3.18E2,4.912E3,3.87E3,4.062E3,1.983E3,9.29E2,2.2E1,1.86E2,3.45E2,4.35E2,1.43E2,1.58E2,1.6E2,4.044E3,8.68E2,1.788E3,2.082E3,6E2,3.462E3,1.108E3,8.75E2],"tree_param":{"num_deleted":"0","num_feature":"2","num_nodes":"31","size_leaf_vector":"1"}},{"base_weights":[-1.6095043E-3,-1.8662018E0,2.9754525E-1,-2.4173388E0,-9.529325E-1,7.934273E-1,-1.5125407E0,-2.7564087E0,-2.0472968E0,-1.1881164E-1,-2.4639137E0,1.0783756E0,-8.253305E-2,-2.1651468E0,-7.3429126E-1,-2.3069596E-1,-3.0181545E-1,-1.5988378E-1,-2.2616553E-1,1.3057721E-2,-8.730806E-2,-1.6187586E-1,-3.2832667E-1,1.6789429E-1,5.4956343E-2,-8.08092E-2,1.9212764E-2,-1.8601802E-1,-3.148571E-1,3.829954E-2,-2.9581797E-1],"categories":[],"categories_nodes":[],"categories_segments":[],"categories_sizes":[],"default_left":[0,0,0,0,0,0,0,0,0,0,0,0,0,0,0,0,0,0,0,0,0,0,0,0,0,0,0,0,0,0,0],"id":14,"left_children":[1,3,5,7,9,11,13,15,17,19,21,23,25,27,29,-1,-1,-1,-1,-1,-1,-1,-1,-1,-1,-1,-1,-1,-1,-1,-1],"loss_changes":[9.59809E3,1.1951338E3,1.3310651E4,1.8042969E2,1.1302332E3,2.9054731E3,1.6180718E3,8.373877E1,6.492529E1,1.0902751E2,2.1558643E2,2.7884473E3,5.6970465E2,5.1418994E2,3.6188862E3,0E0,0E0,0E0,0E0,0E0,0E0,0E0,0E0,0E0,0E0,0E0,0E0,0E0,0E0,0E0,0E0],"parents":[2147483647,0,0,1,1,2,2,3,3,4,4,5,5,6,6,7,7,8,8,9,9,10,10,11,11,12,12,13,13,14,14],"right_children":[2,4,6,8,10,12,14,16,18,20,22,24,26,28,30,-1,-1,-1,-1,-1,-1,-1,-1,-1,-1,-1,-1,-1,-1,-1,-1],"split_conditions":[5E0,4E0,2.1E1,5E0,5E0,1.8E1,5E0,2E0,1E0,4E0,7E0,5E0,3E0,2.3E1,7E0,-2.3069596E-1,-3.0181545E-1,-1.5988378E-1,-2.2616553E-1,1.3057721E-2,-8.730806E-2,-1.6187586E-1,-3.2832667E-1,1.6789429E-1,5.4956343E-2,-8.08092E-2,1.9212764E-2,-1.8601802E-1,-3.148571E-1,3.829954E-2,-2.9581797E-1],"split_indices":[1,1,1,0,0,1,0,0,1,0,0,0,0,1,0,0,0,0,0,0,0,0,0,0,0,0,0,0,0,0,0],"split_type":[0,0,0,0,0,0,0,0,0,0,0,0,0,0,0,0,0,0,0,0,0,0,0,0,0,0,0,0,0,0,0],"sum_hessian":[1.7205E4,2.378E3,1.4827E4,1.482E3,8.96E2,1.1639E4,3.188E3,7.7E2,7.12E2,5.78E2,3.18E2,8.782E3,2.857E3,1.733E3,1.455E3,2.87E2,4.83E2,2.33E2,4.79E2,4.35E2,1.43E2,1.58E2,1.6E2,4.111E3,4.671E3,7.84E2,2.073E3,1.325E3,4.08E2,9.69E2,4.86E2],"tree_param":{"num_deleted":"0","num_feature":"2","num_nodes":"31","size_leaf_vector":"1"}},{"base_weights":[-1.5694808E-3,-1.6802051E0,2.6775044E-1,-2.1762245E0,-8.582686E-1,7.140984E-1,-1.3615245E0,-2.4173772E0,-1.7405974E0,-1.07058756E-1,-2.2190595E0,9.291098E-1,-2.5858575E-1,-9.673563E-1,-2.5334847E0,-2.077065E-1,-2.5611255E-1,-1.5060253E-1,-1.8623441E-1,1.1754944E-2,-7.86379E-2,-1.4579009E-1,-2.9569796E-1,1.21092E-1,7.973015E-3,-2.188901E-1,1.8503107E-2,-2.2207808E-1,-4.5462605E-2,-2.1632825E-1,-4.2243934E-1],"categories":[],"categories_nodes":[],"categories_segments":[],"categories_sizes":[],"default_left":[0,0,0,0,0,0,0,0,0,0,0,0,0,0,0,0,0,0,0,0,0,0,0,0,0,0,0,0,0,0,0],"id":15,"left_children":[1,3,5,7,9,11,13,15,17,19,21,23,25,27,29,-1,-1,-1,-1,-1,-1,-1,-1,-1,-1,-1,-1,-1,-1,-1,-1],"loss_changes":[7.77911E3,9.680425E2,1.0784242E4,1.5158496E2,9.1671124E2,2.434609E3,1.4707065E3,4.1251465E1,1.2388428E1,8.843677E1,1.7486316E2,2.2817578E3,1.8055283E3,1.5336829E3,4.928955E2,0E0,0E0,0E0,0E0,0E0,0E0,0E0,0E0,0E0,0E0,0E0,0E0,0E0,0E0,0E0,0E0],"parents":[2147483647,0,0,1,1,2,2,3,3,4,4,5,5,6,6,7,7,8,8,9,9,10,10,11,11,12,12,13,13,14,14],"right_children":[2,4,6,8,10,12,14,16,18,20,22,24,26,28,30,-1,-1,-1,-1,-1,-1,-1,-1,-1,-1,-1,-1,-1,-1,-1,-1],"split_conditions":[5E0,4E0,2.1E1,6E0,5E0,7E0,2.3E1,2E0,1E0,4E0,7E0,1.8E1,1E1,3E0,7E0,-2.077065E-1,-2.5611255E-1,-1.5060253E-1,-1.8623441E-1,1.1754944E-2,-7.86379E-2,-1.4579009E-1,-2.9569796E-1,1.21092E-1,7.973015E-3,-2.188901E-1,1.8503107E-2,-2.2207808E-1,-4.5462605E-2,-2.1632825E-1,-4.2243934E-1],"split_indices":[1,1,1,0,0,0,1,0,1,0,0,1,1,0,0,0,0,0,0,0,0,0,0,0,0,0,0,0,0,0,0],"split_type":[0,0,0,0,0,0,0,0,0,0,0,0,0,0,0,0,0,0,0,0,0,0,0,0,0,0,0,0,0,0,0],"sum_hessian":[1.7205E4,2.378E3,1.4827E4,1.482E3,8.96E2,1.1639E4,3.188E3,9.51E2,5.31E2,5.78E2,3.18E2,9.532E3,2.107E3,2.387E3,8.01E2,2.87E2,6.64E2,1.86E2,3.45E2,4.35E2,1.43E2,1.58E2,1.6E2,7.157E3,2.375E3,3.93E2,1.714E3,6.92E2,1.695E3,6.59E2,1.42E2],"tree_param":{"num_deleted":"0","num_feature":"2","num_nodes":"31","size_leaf_vector":"1"}},{"base_weights":[-1.5453084E-3,-1.5127348E0,2.409096E-1,-1.9881325E0,-8.128636E-1,7.2459495E-1,-9.83624E-1,-2.2844353E0,-1.6529247E0,-1.2429881E-1,-1.947519E0,9.0930545E-1,-8.784263E-2,-6.771422E-1,-2.2809324E0,-1.9538893E-1,-2.461379E-1,-1.2684864E-1,-1.8559262E-1,5.958455E-3,-7.082869E-2,-1.3695735E-1,-2.5179395E-1,1.0898451E-1,4.9457382E-3,-1.9705665E-1,3.825956E-2,-1.4346646E-1,-1.5713703E-2,-1.947282E-1,-3.8049078E-1],"categories":[],"categories_nodes":[],"categories_segments":[],"categories_sizes":[],"default_left":[0,0,0,0,0,0,0,0,0,0,0,0,0,0,0,0,0,0,0,0,0,0,0,0,0,0,0,0,0,0,0],"id":16,"left_children":[1,3,5,7,9,11,13,15,17,19,21,23,25,27,29,-1,-1,-1,-1,-1,-1,-1,-1,-1,-1,-1,-1,-1,-1,-1,-1],"loss_changes":[6.3045625E3,7.8991797E2,8.783173E3,1.3686523E2,7.529153E2,1.5952793E3,1.6679839E3,3.899829E1,4.9777588E1,6.4581E1,1.16552246E2,1.3444502E3,1.7455931E3,1.3382993E3,4.0038818E2,0E0,0E0,0E0,0E0,0E0,0E0,0E0,0E0,0E0,0E0,0E0,0E0,0E0,0E0,0E0,0E0],"parents":[2147483647,0,0,1,1,2,2,3,3,4,4,5,5,6,6,7,7,8,8,9,9,10,10,11,11,12,12,13,13,14,14],"right_children":[2,4,6,8,10,12,14,16,18,20,22,24,26,28,30,-1,-1,-1,-1,-1,-1,-1,-1,-1,-1,-1,-1,-1,-1,-1,-1],"split_conditions":[5E0,3E0,2E1,5E0,5E0,7E0,2.3E1,2E0,1E0,4E0,7E0,1.8E1,1E1,4E0,7E0,-1.9538893E-1,-2.461379E-1,-1.2684864E-1,-1.8559262E-1,5.958455E-3,-7.082869E-2,-1.3695735E-1,-2.5179395E-1,1.0898451E-1,4.9457382E-3,-1.9705665E-1,3.825956E-2,-1.4346646E-1,-1.5713703E-2,-1.947282E-1,-3.8049078E-1],"split_indices":[1,1,1,0,0,0,1,0,1,0,0,1,1,0,0,0,0,0,0,0,0,0,0,0,0,0,0,0,0,0,0],"split_type":[0,0,0,0,0,0,0,0,0,0,0,0,0,0,0,0,0,0,0,0,0,0,0,0,0,0,0,0,0,0,0],"sum_hessian":[1.7205E4,2.378E3,1.4827E4,1.415E3,9.63E2,1.0629E4,4.198E3,7.48E2,6.67E2,6E2,3.63E2,8.66E3,1.969E3,3.397E3,8.01E2,2.65E2,4.83E2,2.33E2,4.34E2,4.57E2,1.43E2,1.82E2,1.81E2,7.157E3,1.503E3,3.93E2,1.576E3,1.382E3,2.015E3,6.59E2,1.42E2],"tree_param":{"num_deleted":"0","num_feature":"2","num_nodes":"31","size_leaf_vector":"1"}},{"base_weights":[-1.5060887E-3,-1.361969E0,2.1676628E-1,-1.7898518E0,-7.320479E-1,5.822494E-1,-1.1173322E0,-2.0565813E0,-1.4880999E0,-1.1197702E-1,-1.7538352E0,7.6039624E-1,-2.2365965E-1,-1.6625493E0,-4.672473E-1,-1.7592348E-1,-2.2157498E-1,-1.1421801E-1,-1.6707602E-1,5.3639E-3,-6.379504E-2,-1.2333647E-1,-2.267529E-1,9.808762E-2,9.585246E-3,-2.598078E-1,1.1547821E-3,-2.431767E-1,-1.4132798E-1,4.9638454E-2,-2.3856369E-1],"categories":[],"categories_nodes":[],"categories_segments":[],"categories_sizes":[],"default_left":[0,0,0,0,0,0,0,0,0,0,0,0,0,0,0,0,0,0,0,0,0,0,0,0,0,0,0,0,0,0,0],"id":17,"left_children":[1,3,5,7,9,11,13,15,17,19,21,23,25,27,29,-1,-1,-1,-1,-1,-1,-1,-1,-1,-1,-1,-1,-1,-1,-1,-1],"loss_changes":[5.109642E3,6.399077E2,7.230642E3,1.1090723E2,6.105753E2,1.6713269E3,1.1295242E3,3.1551025E1,4.0299805E1,5.2387096E1,9.4523315E1,1.396668E3,1.1773077E3,3.2904492E2,2.6927764E3,0E0,0E0,0E0,0E0,0E0,0E0,0E0,0E0,0E0,0E0,0E0,0E0,0E0,0E0,0E0,0E0],"parents":[2147483647,0,0,1,1,2,2,3,3,4,4,5,5,6,6,7,7,8,8,9,9,10,10,11,11,12,12,13,13,14,14],"right_children":[2,4,6,8,10,12,14,16,18,20,22,24,26,28,30,-1,-1,-1,-1,-1,-1,-1,-1,-1,-1,-1,-1,-1,-1,-1,-1],"split_conditions":[5E0,3E0,2.1E1,5E0,5E0,7E0,5E0,2E0,1E0,4E0,7E0,1.8E1,8E0,2E0,7E0,-1.7592348E-1,-2.2157498E-1,-1.1421801E-1,-1.6707602E-1,5.3639E-3,-6.379504E-2,-1.2333647E-1,-2.267529E-1,9.808762E-2,9.585246E-3,-2.598078E-1,1.1547821E-3,-2.431767E-1,-1.4132798E-1,4.9638454E-2,-2.3856369E-1],"split_indices":[1,1,1,0,0,0,0,0,1,0,0,1,1,0,0,0,0,0,0,0,0,0,0,0,0,0,0,0,0,0,0],"split_type":[0,0,0,0,0,0,0,0,0,0,0,0,0,0,0,0,0,0,0,0,0,0,0,0,0,0,0,0,0,0,0],"sum_hessian":[1.7205E4,2.378E3,1.4827E4,1.415E3,9.63E2,1.1639E4,3.188E3,7.48E2,6.67E2,6E2,3.63E2,9.532E3,2.107E3,1.733E3,1.455E3,2.65E2,4.83E2,2.33E2,4.34E2,4.57E2,1.43E2,1.82E2,1.81E2,7.157E3,2.375E3,1.89E2,1.918E3,4.22E2,1.311E3,9.69E2,4.86E2],"tree_param":{"num_deleted":"0","num_feature":"2","num_nodes":"31","size_leaf_vector":"1"}},{"base_weights":[-1.4606232E-3,-1.0719464E0,2.299018E-1,-6.919217E-1,-1.9131874E0,8.2398677E-1,-5.6644195E-1,-1.7741921E0,1.9918747E-1,-1.3761512E0,-4.0710998E0,3.613313E-1,1.3298146E0,-3.5580638E-1,-1.9432715E0,-1.8249936E-1,-1.248119E-1,-1.06162585E-1,5.603993E-2,-1.02938555E-1,-1.5727936E-1,-5.760505E-1,-3.4219578E-1,5.357417E-2,-3.6108986E-2,1.9821315E-1,7.689288E-2,-1.1523475E-1,-4.356255E-3,-1.6701631E-1,-3.1901827E-1],"categories":[],"categories_nodes":[],"categories_segments":[],"categories_sizes":[],"default_left":[0,0,0,0,0,0,0,0,0,0,0,0,0,0,0,0,0,0,0,0,0,0,0,0,0,0,0,0,0,0,0],"id":18,"left_children":[1,3,5,7,9,11,13,15,17,19,21,23,25,27,29,-1,-1,-1,-1,-1,-1,-1,-1,-1,-1,-1,-1,-1,-1,-1,-1],"loss_changes":[4.26166E3,9.762954E2,6.6943E3,2.0333528E3,1.0964897E3,1.8960503E3,1.7527048E3,2.3164795E1,5.2751666E2,5.0408936E1,1.8755737E2,5.336678E2,1.4147788E3,1.3044602E3,2.6778638E2,0E0,0E0,0E0,0E0,0E0,0E0,0E0,0E0,0E0,0E0,0E0,0E0,0E0,0E0,0E0,0E0],"parents":[2147483647,0,0,1,1,2,2,3,3,4,4,5,5,6,6,7,7,8,8,9,9,10,10,11,11,12,12,13,13,14,14],"right_children":[2,4,6,8,10,12,14,16,18,20,22,24,26,28,30,-1,-1,-1,-1,-1,-1,-1,-1,-1,-1,-1,-1,-1,-1,-1,-1],"split_conditions":[7E0,6E0,1.8E1,4E0,5E0,1.3E1,2.3E1,2E0,2E0,7E0,6E0,7E0,5E0,3E0,7E0,-1.8249936E-1,-1.248119E-1,-1.06162585E-1,5.603993E-2,-1.02938555E-1,-1.5727936E-1,-5.760505E-1,-3.4219578E-1,5.357417E-2,-3.6108986E-2,1.9821315E-1,7.689288E-2,-1.1523475E-1,-4.356255E-3,-1.6701631E-1,-3.1901827E-1],"split_indices":[1,0,1,1,1,1,1,1,0,0,1,0,0,0,0,0,0,0,0,0,0,0,0,0,0,0,0,0,0,0,0],"split_type":[0,0,0,0,0,0,0,0,0,0,0,0,0,0,0,0,0,0,0,0,0,0,0,0,0,0,0,0,0,0,0],"sum_hessian":[1.7205E4,3.057E3,1.4148E4,2.107E3,9.5E2,8.103E3,6.045E3,9.51E2,1.156E3,7.62E2,1.88E2,4.233E3,3.87E3,5.244E3,8.01E2,8.65E2,8.6E1,2.57E2,8.99E2,2.78E2,4.84E2,5E1,1.38E2,3.41E3,8.23E2,1.788E3,2.082E3,1.476E3,3.768E3,6.59E2,1.42E2],"tree_param":{"num_deleted":"0","num_feature":"2","num_nodes":"31","size_leaf_vector":"1"}},{"base_weights":[-1.4218941E-3,-9.652539E-1,2.0688963E-1,-6.2289894E-1,-1.7231078E0,7.416244E-1,-5.0989795E-1,-1.5970956E0,1.7922562E-1,-1.238877E0,-3.6688485E0,3.2520285E-1,1.196904E0,-1.6730852E-1,-1.211224E0,-1.3646458E-1,-1.695364E-1,-9.5587425E-2,5.0442178E-2,-9.268159E-2,-1.4158383E-1,-5.1957494E-1,-3.0822238E-1,4.8218373E-2,-3.2502413E-2,1.7840289E-1,6.9207296E-2,-1.1864046E-1,9.602844E-4,-9.862212E-2,-2.4709521E-1],"categories":[],"categories_nodes":[],"categories_segments":[],"categories_sizes":[],"default_left":[0,0,0,0,0,0,0,0,0,0,0,0,0,0,0,0,0,0,0,0,0,0,0,0,0,0,0,0,0,0,0],"id":19,"left_children":[1,3,5,7,9,11,13,15,17,19,21,23,25,27,29,-1,-1,-1,-1,-1,-1,-1,-1,-1,-1,-1,-1,-1,-1,-1,-1],"loss_changes":[3.4547744E3,7.923401E2,5.423566E3,1.6475345E3,8.9147534E2,1.5360332E3,1.452451E3,1.9432373E1,4.275657E2,4.082263E1,1.5327588E2,4.3233466E2,1.1461255E3,7.325284E2,5.5991235E2,0E0,0E0,0E0,0E0,0E0,0E0,0E0,0E0,0E0,0E0,0E0,0E0,0E0,0E0,0E0,0E0],"parents":[2147483647,0,0,1,1,2,2,3,3,4,4,5,5,6,6,7,7,8,8,9,9,10,10,11,11,12,12,13,13,14,14],"right_children":[2,4,6,8,10,12,14,16,18,20,22,24,26,28,30,-1,-1,-1,-1,-1,-1,-1,-1,-1,-1,-1,-1,-1,-1,-1,-1],"split_conditions":[7E0,6E0,1.8E1,4E0,5E0,1.3E1,2.2E1,2E0,2E0,7E0,6E0,7E0,5E0,2E0,7E0,-1.3646458E-1,-1.695364E-1,-9.5587425E-2,5.0442178E-2,-9.268159E-2,-1.4158383E-1,-5.1957494E-1,-3.0822238E-1,4.8218373E-2,-3.2502413E-2,1.7840289E-1,6.9207296E-2,-1.1864046E-1,9.602844E-4,-9.862212E-2,-2.4709521E-1],"split_indices":[1,0,1,1,1,1,1,0,0,0,1,0,0,0,0,0,0,0,0,0,0,0,0,0,0,0,0,0,0,0,0],"split_type":[0,0,0,0,0,0,0,0,0,0,0,0,0,0,0,0,0,0,0,0,0,0,0,0,0,0,0,0,0,0,0],"sum_hessian":[1.7205E4,3.057E3,1.4148E4,2.107E3,9.5E2,8.103E3,6.045E3,9.51E2,1.156E3,7.62E2,1.88E2,4.233E3,3.87E3,4.062E3,1.983E3,2.87E2,6.64E2,2.57E2,8.99E2,2.78E2,4.84E2,5E1,1.38E2,3.41E3,8.23E2,1.788E3,2.082E3,6E2,3.462E3,1.684E3,2.99E2],"tree_param":{"num_deleted":"0","num_feature":"2","num_nodes":"31","size_leaf_vector":"1"}},{"base_weights":[-1.3732893E-3,-1.0194126E0,1.6196074E-1,-1.2999481E0,-6.062824E-1,4.386427E-1,-8.4799224E-1,-1.5969266E0,-1.1128457E0,5.4595873E-2,-1.202093E0,5.825669E-1,-2.1243341E-1,-1.334346E0,-2.6819447E-1,-1.2800874E-1,-1.8922205E-1,-8.6573645E-2,-1.2566537E-1,-5.8040917E-2,8.796862E-3,-8.954215E-2,-1.7448008E-1,1.8054496E-2,7.4114986E-2,-1.5150923E-1,8.696018E-3,-1.1293935E-1,-1.995551E-1,5.514134E-2,-1.9001275E-1],"categories":[],"categories_nodes":[],"categories_segments":[],"categories_sizes":[],"default_left":[0,0,0,0,0,0,0,0,0,0,0,0,0,0,0,0,0,0,0,0,0,0,0,0,0,0,0,0,0,0,0],"id":20,"left_children":[1,3,5,7,9,11,13,15,17,19,21,23,25,27,29,-1,-1,-1,-1,-1,-1,-1,-1,-1,-1,-1,-1,-1,-1,-1,-1],"loss_changes":[2.861187E3,2.7493213E2,4.143845E3,7.6903564E1,3.7964865E2,1.0908574E3,8.9889844E2,4.8568237E1,2.9899658E1,9.756932E0,8.2819214E1,6.076311E2,8.2226794E2,2.3273022E2,1.9485134E3,0E0,0E0,0E0,0E0,0E0,0E0,0E0,0E0,0E0,0E0,0E0,0E0,0E0,0E0,0E0,0E0],"parents":[2147483647,0,0,1,1,2,2,3,3,4,4,5,5,6,6,7,7,8,8,9,9,10,10,11,11,12,12,13,13,14,14],"right_children":[2,4,6,8,10,12,14,16,18,20,22,24,26,28,30,-1,-1,-1,-1,-1,-1,-1,-1,-1,-1,-1,-1,-1,-1,-1,-1],"split_conditions":[5E0,3E0,2.1E1,4E0,4E0,7E0,5E0,2E0,1E0,4E0,7E0,1.1E1,1E1,2.3E1,7E0,-1.2800874E-1,-1.8922205E-1,-8.6573645E-2,-1.2566537E-1,-5.8040917E-2,8.796862E-3,-8.954215E-2,-1.7448008E-1,1.8054496E-2,7.4114986E-2,-1.5150923E-1,8.696018E-3,-1.1293935E-1,-1.995551E-1,5.514134E-2,-1.9001275E-1],"split_indices":[1,1,1,0,0,0,0,0,1,1,0,1,1,1,0,0,0,0,0,0,0,0,0,0,0,0,0,0,0,0,0],"split_type":[0,0,0,0,0,0,0,0,0,0,0,0,0,0,0,0,0,0,0,0,0,0,0,0,0,0,0,0,0,0,0],"sum_hessian":[1.7205E4,2.378E3,1.4827E4,1.415E3,9.63E2,1.1639E4,3.188E3,5.44E2,8.71E2,4.57E2,5.06E2,9.532E3,2.107E3,1.733E3,1.455E3,2.65E2,2.79E2,3.23E2,5.48E2,2.2E1,4.35E2,3.25E2,1.81E2,2.697E3,6.835E3,3.93E2,1.714E3,1.325E3,4.08E2,9.69E2,4.86E2],"tree_param":{"num_deleted":"0","num_feature":"2","num_nodes":"31","size_leaf_vector":"1"}},{"base_weights":[-1.3141187E-3,-8.590701E-1,1.5678842E-1,-3.629082E-1,-1.2160609E0,5.8501154E-1,-4.4413805E-1,-7.5963515E-1,2.9253836E0,-1.0321863E0,-2.6169674E0,2.2332063E-1,1.0159743E0,-2.815555E-1,-1.5068579E0,-1.4378159E-1,4.9028913E-3,3.7101424E-1,2.3585539E-1,-7.7943005E-2,-1.10883154E-1,-1.7780535E-1,-4.704063E-1,3.684999E-2,-4.027609E-2,1.6848634E-1,6.680052E-2,-8.001923E-2,7.221875E-3,-1.3025361E-1,-2.439344E-1],"categories":[],"categories_nodes":[],"categories_segments":[],"categories_sizes":[],"default_left":[0,0,0,0,0,0,0,0,0,0,0,0,0,0,0,0,0,0,0,0,0,0,0,0,0,0,0,0,0,0,0],"id":21,"left_children":[1,3,5,7,9,11,13,15,17,19,21,23,25,27,29,-1,-1,-1,-1,-1,-1,-1,-1,-1,-1,-1,-1,-1,-1,-1,-1],"loss_changes":[2.333499E3,4.7389978E2,3.739016E3,1.4659316E3,3.983684E2,1.3222192E3,1.0442019E3,5.495878E2,4.5073364E1,2.5831055E1,3.0679688E2,4.1953363E2,8.9986035E2,9.624121E2,1.4962537E2,0E0,0E0,0E0,0E0,0E0,0E0,0E0,0E0,0E0,0E0,0E0,0E0,0E0,0E0,0E0,0E0],"parents":[2147483647,0,0,1,1,2,2,3,3,4,4,5,5,6,6,7,7,8,8,9,9,10,10,11,11,12,12,13,13,14,14],"right_children":[2,4,6,8,10,12,14,16,18,20,22,24,26,28,30,-1,-1,-1,-1,-1,-1,-1,-1,-1,-1,-1,-1,-1,-1,-1,-1],"split_conditions":[6E0,4E0,1.8E1,5E0,5E0,1.3E1,2.3E1,3E0,3E0,1E0,6E0,7E0,4E0,4E0,7E0,-1.4378159E-1,4.9028913E-3,3.7101424E-1,2.3585539E-1,-7.7943005E-2,-1.10883154E-1,-1.7780535E-1,-4.704063E-1,3.684999E-2,-4.027609E-2,1.6848634E-1,6.680052E-2,-8.001923E-2,7.221875E-3,-1.3025361E-1,-2.439344E-1],"split_indices":[1,0,1,1,1,1,1,1,0,1,0,0,0,0,0,0,0,0,0,0,0,0,0,0,0,0,0,0,0,0,0],"split_type":[0,0,0,0,0,0,0,0,0,0,0,0,0,0,0,0,0,0,0,0,0,0,0,0,0,0,0,0,0,0,0],"sum_hessian":[1.7205E4,2.677E3,1.4528E4,1.121E3,1.556E3,8.483E3,6.045E3,1.001E3,1.2E2,1.377E3,1.79E2,4.613E3,3.87E3,5.244E3,8.01E2,5.44E2,4.57E2,4.8E1,7.2E1,3.23E2,1.054E3,1.29E2,5E1,3.745E3,8.68E2,1.323E3,2.547E3,2.126E3,3.118E3,6.59E2,1.42E2],"tree_param":{"num_deleted":"0","num_feature":"2","num_nodes":"31","size_leaf_vector":"1"}},{"base_weights":[-1.2167509E-3,1.5867741E-1,-7.0406884E-1,-7.200066E-1,4.0380624E-1,-1.1265057E0,-2.0049074E-1,-4.384762E-1,-1.3432938E0,5.673773E-1,-6.0148846E-2,-1.733625E-1,-9.299067E-1,5.2468777E-1,-1.6444798E0,-1.17793396E-1,1.7034166E-2,-8.895352E-2,-3.168027E-1,2.827741E-2,9.68106E-2,1.0790801E-2,-8.867388E-2,-3.2618407E-2,-1.2362506E-1,8.361132E-2,-3.6594536E-2,-1.4106497E-1,-2.1971154E-1],"categories":[],"categories_nodes":[],"categories_segments":[],"categories_sizes":[],"default_left":[0,0,0,0,0,0,0,0,0,0,0,0,0,0,0,0,0,0,0,0,0,0,0,0,0,0,0,0,0],"id":22,"left_children":[1,3,5,7,9,11,13,15,17,19,21,-1,23,25,27,-1,-1,-1,-1,-1,-1,-1,-1,-1,-1,-1,-1,-1,-1],"loss_changes":[1.9337555E3,3.0196387E3,6.7817004E2,5.3601135E2,8.3186035E2,2.053562E2,1.525513E3,9.492118E2,7.845989E2,9.2397656E2,3.9711218E2,0E0,2.4224695E2,2.6935077E2,5.9832275E1,0E0,0E0,0E0,0E0,0E0,0E0,0E0,0E0,0E0,0E0,0E0,0E0,0E0,0E0],"parents":[2147483647,0,0,1,1,2,2,3,3,4,4,5,5,6,6,7,7,8,8,9,9,10,10,12,12,13,13,14,14],"right_children":[2,4,6,8,10,12,14,16,18,20,22,-1,24,26,28,-1,-1,-1,-1,-1,-1,-1,-1,-1,-1,-1,-1,-1,-1],"split_conditions":[2.1E1,7E0,5E0,6E0,1.8E1,2E0,7E0,4E0,5E0,1.4E1,7E0,-1.733625E-1,2.2E1,2.3E1,2.3E1,-1.17793396E-1,1.7034166E-2,-8.895352E-2,-3.168027E-1,2.827741E-2,9.68106E-2,1.0790801E-2,-8.867388E-2,-3.2618407E-2,-1.2362506E-1,8.361132E-2,-3.6594536E-2,-1.4106497E-1,-2.1971154E-1],"split_indices":[1,1,0,0,1,0,0,1,1,1,0,0,1,1,1,0,0,0,0,0,0,0,0,0,0,0,0,0,0],"split_type":[0,0,0,0,0,0,0,0,0,0,0,0,0,0,0,0,0,0,0,0,0,0,0,0,0,0,0,0,0],"sum_hessian":[1.7205E4,1.4017E4,3.188E3,3.057E3,1.096E4,1.733E3,1.455E3,2.107E3,9.5E2,8.103E3,2.857E3,4.22E2,1.311E3,9.69E2,4.86E2,9.51E2,1.156E3,7.62E2,1.88E2,4.739E3,3.364E3,2.375E3,4.82E2,4.42E2,8.69E2,7.18E2,2.51E2,3.44E2,1.42E2],"tree_param":{"num_deleted":"0","num_feature":"2","num_nodes":"29","size_leaf_vector":"1"}},{"base_weights":[-1.1595786E-3,-7.0605874E-1,1.2876822E-1,-2.7520478E-1,-1.0160857E0,4.7702238E-1,-3.5993785E-1,-6.2466747E-1,2.6209674E0,-8.4984845E-1,-2.2830794E0,1.5709922E-2,7.203839E-1,-9.266012E-1,-1.4131863E-1,-1.17672086E-1,3.3615846E-3,3.3300135E-1,2.1091285E-1,-6.0085412E-2,-9.2551135E-2,-1.6185199E-1,-3.932289E-1,1.8096484E-2,-7.281217E-2,1.0431822E-1,4.402024E-2,-6.1302196E-2,-1.580253E-1,1.4428036E-2,-1.14209555E-1],"categories":[],"categories_nodes":[],"categories_segments":[],"categories_sizes":[],"default_left":[0,0,0,0,0,0,0,0,0,0,0,0,0,0,0,0,0,0,0,0,0,0,0,0,0,0,0,0,0,0,0],"id":23,"left_children":[1,3,5,7,9,11,13,15,17,19,21,23,25,27,29,-1,-1,-1,-1,-1,-1,-1,-1,-1,-1,-1,-1,-1,-1,-1,-1],"loss_changes":[1.5759196E3,3.5743787E2,2.472919E3,1.137218E3,3.2599756E2,9.524509E2,7.488687E2,3.6417395E2,3.6889526E1,2.5404907E1,1.9091516E2,3.6041565E2,5.0185645E2,3.4399854E2,1.247487E3,0E0,0E0,0E0,0E0,0E0,0E0,0E0,0E0,0E0,0E0,0E0,0E0,0E0,0E0,0E0,0E0],"parents":[2147483647,0,0,1,1,2,2,3,3,4,4,5,5,6,6,7,7,8,8,9,9,10,10,11,11,12,12,13,13,14,14],"right_children":[2,4,6,8,10,12,14,16,18,20,22,24,26,28,30,-1,-1,-1,-1,-1,-1,-1,-1,-1,-1,-1,-1,-1,-1,-1,-1],"split_conditions":[6E0,4E0,1.8E1,5E0,5E0,1.1E1,3E0,3E0,3E0,1E0,6E0,7E0,5E0,2.2E1,7E0,-1.17672086E-1,3.3615846E-3,3.3300135E-1,2.1091285E-1,-6.0085412E-2,-9.2551135E-2,-1.6185199E-1,-3.932289E-1,1.8096484E-2,-7.281217E-2,1.0431822E-1,4.402024E-2,-6.1302196E-2,-1.580253E-1,1.4428036E-2,-1.14209555E-1],"split_indices":[1,0,1,1,1,1,0,1,0,1,0,0,0,1,0,0,0,0,0,0,0,0,0,0,0,0,0,0,0,0,0],"split_type":[0,0,0,0,0,0,0,0,0,0,0,0,0,0,0,0,0,0,0,0,0,0,0,0,0,0,0,0,0,0,0],"sum_hessian":[1.7205E4,2.677E3,1.4528E4,1.121E3,1.556E3,8.483E3,6.045E3,1.001E3,1.2E2,1.377E3,1.79E2,2.93E3,5.553E3,1.682E3,4.363E3,5.44E2,4.57E2,4.8E1,7.2E1,3.23E2,1.054E3,1.29E2,5E1,2.398E3,5.32E2,2.579E3,2.974E3,1.138E3,5.44E2,3.395E3,9.68E2],"tree_param":{"num_deleted":"0","num_feature":"2","num_nodes":"31","size_leaf_vector":"1"}},{"base_weights":[-1.0729411E-3,1.330993E-1,-5.908583E-1,-5.873416E-1,3.3408237E-1,-9.589013E-1,-1.5213753E-1,-3.4710634E-1,-1.1192329E0,4.422443E-1,-1.3264908E-1,-8.037482E-1,-1.4595715E0,4.5785403E-1,-1.366798E0,-6.624161E-2,6.898914E-2,-7.161827E-2,-2.74044E-1,5.6401975E-2,1.0768811E-2,8.2105753E-4,-2.082449E-1,-1.4157863E-1,-5.9954304E-2,-1.5798812E-1,-1.1980273E-1,7.3820986E-2,-3.4386706E-2,-9.3638234E-2,-1.6319692E-1],"categories":[],"categories_nodes":[],"categories_segments":[],"categories_sizes":[],"default_left":[0,0,0,0,0,0,0,0,0,0,0,0,0,0,0,0,0,0,0,0,0,0,0,0,0,0,0,0,0,0,0],"id":24,"left_children":[1,3,5,7,9,11,13,15,17,19,21,23,25,27,29,-1,-1,-1,-1,-1,-1,-1,-1,-1,-1,-1,-1,-1,-1,-1,-1],"loss_changes":[1.3616382E3,2.0299523E3,5.147759E2,3.9036E2,5.533981E2,1.335249E2,1.0794237E3,6.8972125E2,6.1944727E2,3.624911E2,5.666162E2,1.6487646E2,1.0976929E1,2.1827805E2,5.4055054E1,0E0,0E0,0E0,0E0,0E0,0E0,0E0,0E0,0E0,0E0,0E0,0E0,0E0,0E0,0E0,0E0],"parents":[2147483647,0,0,1,1,2,2,3,3,4,4,5,5,6,6,7,7,8,8,9,9,10,10,11,11,12,12,13,13,14,14],"right_children":[2,4,6,8,10,12,14,16,18,20,22,24,26,28,30,-1,-1,-1,-1,-1,-1,-1,-1,-1,-1,-1,-1,-1,-1,-1,-1],"split_conditions":[2.1E1,7E0,5E0,6E0,7E0,2.3E1,7E0,5E0,5E0,1.8E1,2E1,2E0,4E0,2.3E1,2.2E1,-6.624161E-2,6.898914E-2,-7.161827E-2,-2.74044E-1,5.6401975E-2,1.0768811E-2,8.2105753E-4,-2.082449E-1,-1.4157863E-1,-5.9954304E-2,-1.5798812E-1,-1.1980273E-1,7.3820986E-2,-3.4386706E-2,-9.3638234E-2,-1.6319692E-1],"split_indices":[1,1,0,0,0,1,0,1,1,1,1,0,0,1,1,0,0,0,0,0,0,0,0,0,0,0,0,0,0,0,0],"split_type":[0,0,0,0,0,0,0,0,0,0,0,0,0,0,0,0,0,0,0,0,0,0,0,0,0,0,0,0,0,0,0],"sum_hessian":[1.7205E4,1.4017E4,3.188E3,3.057E3,1.096E4,1.733E3,1.455E3,2.107E3,9.5E2,8.898E3,2.062E3,1.325E3,4.08E2,9.69E2,4.86E2,1.616E3,4.91E2,7.62E2,1.88E2,6.523E3,2.375E3,1.924E3,1.38E2,3.3E2,9.95E2,2.76E2,1.32E2,7.18E2,2.51E2,1.87E2,2.99E2],"tree_param":{"num_deleted":"0","num_feature":"2","num_nodes":"31","size_leaf_vector":"1"}},{"base_weights":[-1.0342676E-3,1.1975485E-1,-5.3199095E-1,-4.0544754E-1,3.44623E-1,-8.6328757E-1,-1.3707311E-1,9.096682E-3,-9.1131455E-1,5.400754E-1,4.264131E-2,-7.2352535E-1,-1.3142934E0,4.121092E-1,-1.2306455E0,-9.335173E-2,4.807036E-2,-1.0534032E-1,1.0551176E-2,2.9333824E-2,1.1875071E-1,2.0262206E-2,-7.2861224E-2,-1.2746353E-1,-5.396489E-2,-1.4224635E-1,-1.079125E-1,6.644915E-2,-3.0961687E-2,-1.0310946E-1,-1.7034738E-1],"categories":[],"categories_nodes":[],"categories_segments":[],"categories_sizes":[],"default_left":[0,0,0,0,0,0,0,0,0,0,0,0,0,0,0,0,0,0,0,0,0,0,0,0,0,0,0,0,0,0,0],"id":25,"left_children":[1,3,5,7,9,11,13,15,17,19,21,23,25,27,29,-1,-1,-1,-1,-1,-1,-1,-1,-1,-1,-1,-1,-1,-1,-1,-1],"loss_changes":[1.1035497E3,1.6556836E3,4.1711432E2,8.8139526E2,5.793473E2,1.0834924E2,8.7493805E2,1.0277882E3,2.736106E2,9.5157434E2,4.7616977E2,1.3368384E2,8.869202E0,1.768921E2,4.4193604E1,0E0,0E0,0E0,0E0,0E0,0E0,0E0,0E0,0E0,0E0,0E0,0E0,0E0,0E0,0E0,0E0],"parents":[2147483647,0,0,1,1,2,2,3,3,4,4,5,5,6,6,7,7,8,8,9,9,10,10,11,11,12,12,13,13,14,14],"right_children":[2,4,6,8,10,12,14,16,18,20,22,24,26,28,30,-1,-1,-1,-1,-1,-1,-1,-1,-1,-1,-1,-1,-1,-1,-1,-1],"split_conditions":[2.1E1,9E0,5E0,5E0,1.7E1,2.3E1,7E0,4E0,8E0,1.5E1,7E0,2E0,4E0,2.3E1,2.3E1,-9.335173E-2,4.807036E-2,-1.0534032E-1,1.0551176E-2,2.9333824E-2,1.1875071E-1,2.0262206E-2,-7.2861224E-2,-1.2746353E-1,-5.396489E-2,-1.4224635E-1,-1.079125E-1,6.644915E-2,-3.0961687E-2,-1.0310946E-1,-1.7034738E-1],"split_indices":[1,1,0,0,1,1,0,1,1,1,0,0,0,1,1,0,0,0,0,0,0,0,0,0,0,0,0,0,0,0,0],"split_type":[0,0,0,0,0,0,0,0,0,0,0,0,0,0,0,0,0,0,0,0,0,0,0,0,0,0,0,0,0,0,0],"sum_hessian":[1.7205E4,1.4017E4,3.188E3,4.202E3,9.815E3,1.733E3,1.455E3,2.31E3,1.892E3,5.958E3,3.857E3,1.325E3,4.08E2,9.69E2,4.86E2,7.7E2,1.54E3,1.66E3,2.32E2,4.315E3,1.643E3,3.195E3,6.62E2,3.3E2,9.95E2,2.76E2,1.32E2,7.18E2,2.51E2,3.44E2,1.42E2],"tree_param":{"num_deleted":"0","num_feature":"2","num_nodes":"31","size_leaf_vector":"1"}},{"base_weights":[-9.7219704E-4,8.150898E-2,-6.3384014E-1,-4.7368976E-1,2.2105496E-1,-9.5330757E-1,-2.2867663E-1,-2.8003764E-1,-9.0244365E-1,3.7563106E-1,-8.7314725E-2,-1.1965432E-1,-7.169948E-1,3.46788E-1,-1.3347247E0,-5.51486E-2,6.1266985E-2,-5.394561E-2,-2.3630634E-1,1.516813E-2,6.9097914E-2,-8.3821885E-2,4.30291E-3,-4.801536E-2,-1.136977E-1,8.292904E-2,-2.7877776E-2,-1.1456325E-1,-1.5343179E-1],"categories":[],"categories_nodes":[],"categories_segments":[],"categories_sizes":[],"default_left":[0,0,0,0,0,0,0,0,0,0,0,0,0,0,0,0,0,0,0,0,0,0,0,0,0,0,0,0,0],"id":26,"left_children":[1,3,5,7,9,11,13,15,17,19,21,-1,23,25,27,-1,-1,-1,-1,-1,-1,-1,-1,-1,-1,-1,-1,-1,-1],"loss_changes":[8.981996E2,1.1795181E3,2.5658417E2,2.5365027E2,5.799445E2,6.2887024E1,5.580294E2,5.1115692E2,5.0293286E2,5.722168E2,3.9770505E2,0E0,5.5654083E1,1.7439111E2,9.564697E0,0E0,0E0,0E0,0E0,0E0,0E0,0E0,0E0,0E0,0E0,0E0,0E0,0E0,0E0],"parents":[2147483647,0,0,1,1,2,2,3,3,4,4,5,5,6,6,7,7,8,8,9,9,10,10,12,12,13,13,14,14],"right_children":[2,4,6,8,10,12,14,16,18,20,22,-1,24,26,28,-1,-1,-1,-1,-1,-1,-1,-1,-1,-1,-1,-1,-1,-1],"split_conditions":[2.2E1,7E0,5E0,6E0,1.8E1,3E0,7E0,5E0,5E0,1.4E1,2E0,-1.1965432E-1,2.3E1,2.3E1,2.3E1,-5.51486E-2,6.1266985E-2,-5.394561E-2,-2.3630634E-1,1.516813E-2,6.9097914E-2,-8.3821885E-2,4.30291E-3,-4.801536E-2,-1.136977E-1,8.292904E-2,-2.7877776E-2,-1.1456325E-1,-1.5343179E-1],"split_indices":[1,1,0,0,1,0,0,1,1,1,0,0,1,1,1,0,0,0,0,0,0,0,0,0,0,0,0,0,0],"split_type":[0,0,0,0,0,0,0,0,0,0,0,0,0,0,0,0,0,0,0,0,0,0,0,0,0,0,0,0,0],"sum_hessian":[1.7205E4,1.5222E4,1.983E3,3.057E3,1.2165E4,1.108E3,8.75E2,2.107E3,9.5E2,8.103E3,4.062E3,5.44E2,5.64E2,5.76E2,2.99E2,1.616E3,4.91E2,7.62E2,1.88E2,4.739E3,3.364E3,6E2,3.462E3,3.62E2,2.02E2,3.25E2,2.51E2,1.57E2,1.42E2],"tree_param":{"num_deleted":"0","num_feature":"2","num_nodes":"29","size_leaf_vector":"1"}},{"base_weights":[-9.196524E-4,9.8124675E-2,-4.3629202E-1,-3.346713E-1,2.834286E-1,-7.086507E-1,-1.1163116E-1,2.6760554E-2,-7.757354E-1,4.4953352E-1,2.6792377E-2,-1.06580555E-1,-5.929608E-1,3.4861994E-1,-1.0281239E0,-7.8520946E-2,4.3299165E-2,-8.952948E-2,7.990324E-3,2.3983892E-2,9.997722E-2,1.7293876E-2,-6.7774855E-2,-1.6943363E-2,-8.079373E-2,5.5829763E-2,-2.5101056E-2,-8.784817E-2,-1.381959E-1],"categories":[],"categories_nodes":[],"categories_segments":[],"categories_sizes":[],"default_left":[0,0,0,0,0,0,0,0,0,0,0,0,0,0,0,0,0,0,0,0,0,0,0,0,0,0,0,0,0],"id":27,"left_children":[1,3,5,7,9,11,13,15,17,19,21,-1,23,25,27,-1,-1,-1,-1,-1,-1,-1,-1,-1,-1,-1,-1,-1,-1],"loss_changes":[7.419856E2,1.1243215E3,2.8190564E2,6.700404E2,4.1842975E2,7.10155E1,6.145236E2,7.626175E2,1.9372473E2,6.87322E2,3.973604E2,0E0,1.193186E2,1.22097404E2,2.457196E1,0E0,0E0,0E0,0E0,0E0,0E0,0E0,0E0,0E0,0E0,0E0,0E0,0E0,0E0],"parents":[2147483647,0,0,1,1,2,2,3,3,4,4,5,5,6,6,7,7,8,8,9,9,10,10,12,12,13,13,14,14],"right_children":[2,4,6,8,10,12,14,16,18,20,22,-1,24,26,28,-1,-1,-1,-1,-1,-1,-1,-1,-1,-1,-1,-1,-1,-1],"split_conditions":[2.1E1,9E0,5E0,5E0,1.7E1,2E0,7E0,4E0,8E0,1.5E1,7E0,-1.06580555E-1,2.2E1,2.3E1,2.3E1,-7.8520946E-2,4.3299165E-2,-8.952948E-2,7.990324E-3,2.3983892E-2,9.997722E-2,1.7293876E-2,-6.7774855E-2,-1.6943363E-2,-8.079373E-2,5.5829763E-2,-2.5101056E-2,-8.784817E-2,-1.381959E-1],"split_indices":[1,1,0,0,1,0,0,1,1,1,0,0,1,1,1,0,0,0,0,0,0,0,0,0,0,0,0,0,0],"split_type":[0,0,0,0,0,0,0,0,0,0,0,0,0,0,0,0,0,0,0,0,0,0,0,0,0,0,0,0,0],"sum_hessian":[1.7205E4,1.4017E4,3.188E3,4.202E3,9.815E3,1.733E3,1.455E3,2.31E3,1.892E3,5.958E3,3.857E3,4.22E2,1.311E3,9.69E2,4.86E2,7.7E2,1.54E3,1.66E3,2.32E2,4.315E3,1.643E3,3.195E3,6.62E2,4.42E2,8.69E2,7.18E2,2.51E2,3.44E2,1.42E2],"tree_param":{"num_deleted":"0","num_feature":"2","num_nodes":"29","size_leaf_vector":"1"}},{"base_weights":[-8.532275E-4,8.83094E-2,-3.9278826E-1,-2.2402424E-1,2.9654607E-1,-6.3790345E-1,-1.0060245E-1,-4.204982E-1,-4.4433195E-2,5.272883E-1,2.410008E-2,-5.3170055E-1,-9.806593E-1,3.137893E-1,-9.2577577E-1,-1.1142711E-2,-6.429499E-2,-7.288125E-2,1.5947638E-2,3.166982E-2,8.998555E-2,1.5565029E-2,-6.100757E-2,-9.4181634E-2,-3.948733E-2,-1.0739471E-1,-7.789949E-2,5.0254524E-2,-2.2600947E-2,-6.575807E-2,-1.0907587E-1],"categories":[],"categories_nodes":[],"categories_segments":[],"categories_sizes":[],"default_left":[0,0,0,0,0,0,0,0,0,0,0,0,0,0,0,0,0,0,0,0,0,0,0,0,0,0,0,0,0,0,0],"id":28,"left_children":[1,3,5,7,9,11,13,15,17,19,21,23,25,27,29,-1,-1,-1,-1,-1,-1,-1,-1,-1,-1,-1,-1,-1,-1,-1,-1],"loss_changes":[6.013149E2,9.1178754E2,2.2832938E2,1.9785944E2,5.287431E2,6.259906E1,4.981624E2,1.8404984E2,4.0914166E2,3.570171E2,3.219523E2,7.403668E1,6.857849E0,9.894709E1,2.083133E1,0E0,0E0,0E0,0E0,0E0,0E0,0E0,0E0,0E0,0E0,0E0,0E0,0E0,0E0,0E0,0E0],"parents":[2147483647,0,0,1,1,2,2,3,3,4,4,5,5,6,6,7,7,8,8,9,9,10,10,11,11,12,12,13,13,14,14],"right_children":[2,4,6,8,10,12,14,16,18,20,22,24,26,28,30,-1,-1,-1,-1,-1,-1,-1,-1,-1,-1,-1,-1,-1,-1,-1,-1],"split_conditions":[2.1E1,1.1E1,5E0,6E0,1.7E1,2.3E1,7E0,4E0,3E0,1.5E1,7E0,2E0,4E0,2.3E1,2.2E1,-1.1142711E-2,-6.429499E-2,-7.288125E-2,1.5947638E-2,3.166982E-2,8.998555E-2,1.5565029E-2,-6.100757E-2,-9.4181634E-2,-3.948733E-2,-1.0739471E-1,-7.789949E-2,5.0254524E-2,-2.2600947E-2,-6.575807E-2,-1.0907587E-1],"split_indices":[1,1,0,1,1,1,0,0,0,1,0,0,0,1,1,0,0,0,0,0,0,0,0,0,0,0,0,0,0,0,0],"split_type":[0,0,0,0,0,0,0,0,0,0,0,0,0,0,0,0,0,0,0,0,0,0,0,0,0,0,0,0,0,0,0],"sum_hessian":[1.7205E4,1.4017E4,3.188E3,5.607E3,8.41E3,1.733E3,1.455E3,2.677E3,2.93E3,4.553E3,3.857E3,1.325E3,4.08E2,9.69E2,4.86E2,1.121E3,1.556E3,6.72E2,2.258E3,2.91E3,1.643E3,3.195E3,6.62E2,3.3E2,9.95E2,2.76E2,1.32E2,7.18E2,2.51E2,1.87E2,2.99E2],"tree_param":{"num_deleted":"0","num_feature":"2","num_nodes":"31","size_leaf_vector":"1"}},{"base_weights":[-7.981646E-4,7.94746E-2,-3.5365576E-1,-2.7170506E-1,2.2983408E-1,-5.742972E-1,-9.064341E-2,5.0444193E-2,-6.6484565E-1,3.6456063E-1,2.1678196E-2,-3.439955E-1,-7.037783E-1,2.824387E-1,-8.335572E-1,-3.9222043E-2,6.7049004E-2,-2.764307E-2,-8.987788E-2,1.9483307E-2,8.099254E-2,1.4008996E-2,-5.4915994E-2,-8.97957E-2,-1.1313117E-2,-9.053195E-2,-5.0812572E-2,4.5236032E-2,-2.0349806E-2,-7.056083E-2,-1.1364161E-1],"categories":[],"categories_nodes":[],"categories_segments":[],"categories_sizes":[],"default_left":[0,0,0,0,0,0,0,0,0,0,0,0,0,0,0,0,0,0,0,0,0,0,0,0,0,0,0,0,0,0,0],"id":29,"left_children":[1,3,5,7,9,11,13,15,17,19,21,23,25,27,29,-1,-1,-1,-1,-1,-1,-1,-1,-1,-1,-1,-1,-1,-1,-1,-1],"loss_changes":[4.8738553E2,7.4025757E2,1.8501013E2,5.3234326E2,2.752732E2,5.1465332E1,4.0379184E2,6.3456854E2,1.717555E2,4.5028705E2,2.6085437E2,7.995751E1,4.327014E1,8.018606E1,1.806961E1,0E0,0E0,0E0,0E0,0E0,0E0,0E0,0E0,0E0,0E0,0E0,0E0,0E0,0E0,0E0,0E0],"parents":[2147483647,0,0,1,1,2,2,3,3,4,4,5,5,6,6,7,7,8,8,9,9,10,10,11,11,12,12,13,13,14,14],"right_children":[2,4,6,8,10,12,14,16,18,20,22,24,26,28,30,-1,-1,-1,-1,-1,-1,-1,-1,-1,-1,-1,-1,-1,-1,-1,-1],"split_conditions":[2.1E1,9E0,5E0,5E0,1.7E1,2.2E1,7E0,5E0,4E0,1.5E1,7E0,2E0,3E0,2.3E1,2.3E1,-3.9222043E-2,6.7049004E-2,-2.764307E-2,-8.987788E-2,1.9483307E-2,8.099254E-2,1.4008996E-2,-5.4915994E-2,-8.97957E-2,-1.1313117E-2,-9.053195E-2,-5.0812572E-2,4.5236032E-2,-2.0349806E-2,-7.056083E-2,-1.1364161E-1],"split_indices":[1,1,0,0,1,1,0,1,1,1,0,0,0,1,1,0,0,0,0,0,0,0,0,0,0,0,0,0,0,0,0],"split_type":[0,0,0,0,0,0,0,0,0,0,0,0,0,0,0,0,0,0,0,0,0,0,0,0,0,0,0,0,0,0,0],"sum_hessian":[1.7205E4,1.4017E4,3.188E3,4.202E3,9.815E3,1.733E3,1.455E3,2.31E3,1.892E3,5.958E3,3.857E3,6.25E2,1.108E3,9.69E2,4.86E2,1.348E3,9.62E2,7.12E2,1.18E3,4.315E3,1.643E3,3.195E3,6.62E2,1.83E2,4.42E2,5.44E2,5.64E2,7.18E2,2.51E2,3.44E2,1.42E2],"tree_param":{"num_deleted":"0","num_feature":"2","num_nodes":"31","size_leaf_vector":"1"}},{"base_weights":[-7.4334815E-4,8.58059E-2,-2.688624E-1,-1.861792E-1,2.9188707E-1,-1.503524E-1,-9.4630945E-1,-4.6896383E-1,-9.063683E-2,8.079842E-1,2.1804553E-1,-4.823538E-1,4.077417E-1,-1.6252594E-1,-7.505798E-1,-6.584891E-2,-2.5575522E-2,2.1763884E-3,-6.383453E-2,4.1086238E-2,1.4369069E-1,-4.563452E-2,3.0752515E-2,-4.0849786E-2,-8.123526E-2,5.4487646E-2,-1.8322926E-2,-5.2198764E-2,-8.91329E-2],"categories":[],"categories_nodes":[],"categories_segments":[],"categories_sizes":[],"default_left":[0,0,0,0,0,0,0,0,0,0,0,0,0,0,0,0,0,0,0,0,0,0,0,0,0,0,0,0,0],"id":30,"left_children":[1,3,5,7,9,11,13,15,17,19,21,23,25,-1,27,-1,-1,-1,-1,-1,-1,-1,-1,-1,-1,-1,-1,-1,-1],"loss_changes":[3.9929694E2,7.291659E2,3.369713E2,1.5147398E2,2.8187146E2,6.626013E2,8.183679E1,5.7049866E1,2.5814676E2,2.3068646E2,3.9092963E2,5.4311035E1,1.0821074E2,0E0,1.5203552E1,0E0,0E0,0E0,0E0,0E0,0E0,0E0,0E0,0E0,0E0,0E0,0E0,0E0,0E0],"parents":[2147483647,0,0,1,1,2,2,3,3,4,4,5,5,6,6,7,7,8,8,9,9,10,10,11,11,12,12,14,14],"right_children":[2,4,6,8,10,12,14,16,18,20,22,24,26,-1,28,-1,-1,-1,-1,-1,-1,-1,-1,-1,-1,-1,-1,-1,-1],"split_conditions":[2E1,1.1E1,7E0,3E0,1.2E1,5E0,2.1E1,5E0,7E0,6E0,1.3E1,2.3E1,2.3E1,-1.6252594E-1,2.2E1,-6.584891E-2,-2.5575522E-2,2.1763884E-3,-6.383453E-2,4.1086238E-2,1.4369069E-1,-4.563452E-2,3.0752515E-2,-4.0849786E-2,-8.123526E-2,5.4487646E-2,-1.8322926E-2,-5.2198764E-2,-8.91329E-2],"split_indices":[1,1,0,1,1,0,1,0,0,0,1,1,1,0,1,0,0,0,0,0,0,0,0,0,0,0,0,0,0],"split_type":[0,0,0,0,0,0,0,0,0,0,0,0,0,0,0,0,0,0,0,0,0,0,0,0,0,0,0,0,0],"sum_hessian":[1.7205E4,1.3007E4,4.198E3,5.607E3,7.4E3,3.574E3,6.24E2,1.415E3,4.192E3,9.25E2,6.475E3,2.241E3,1.333E3,1.38E2,4.86E2,7.48E2,6.67E2,3.479E3,7.13E2,5.68E2,3.57E2,7.58E2,5.717E3,1.833E3,4.08E2,1.082E3,2.51E2,1.87E2,2.99E2],"tree_param":{"num_deleted":"0","num_feature":"2","num_nodes":"29","size_leaf_vector":"1"}},{"base_weights":[-6.905053E-4,6.515122E-2,-3.0292478E-1,-4.795774E-1,1.13819435E-1,-1.6291746E-1,-8.521648E-1,-6.290916E-1,-3.3580986E-1,2.5606987E-1,-1.0733827E-1,-6.8307275E-1,1.2678403E-1,-1.4639024E-1,-6.7581224E-1,-3.4625035E-2,-9.1776736E-2,-3.9999004E-2,-2.1509182E-2,2.3944513E-3,4.3469854E-2,-4.8010457E-2,2.274393E-2,-1.5181559E-2,-9.934979E-2,8.566873E-2,-4.8905574E-3,-5.6639727E-2,-9.3505956E-2],"categories":[],"categories_nodes":[],"categories_segments":[],"categories_sizes":[],"default_left":[0,0,0,0,0,0,0,0,0,0,0,0,0,0,0,0,0,0,0,0,0,0,0,0,0,0,0,0,0],"id":31,"left_children":[1,3,5,7,9,11,13,15,17,19,21,23,25,-1,27,-1,-1,-1,-1,-1,-1,-1,-1,-1,-1,-1,-1,-1,-1],"loss_changes":[3.4241272E2,3.7462802E2,2.3655206E2,2.4701782E1,4.0809235E2,3.6987927E2,6.6436584E1,4.5977463E1,4.508354E0,3.2730835E2,6.33812E2,1.4464505E2,2.0227069E2,0E0,1.3284409E1,0E0,0E0,0E0,0E0,0E0,0E0,0E0,0E0,0E0,0E0,0E0,0E0,0E0,0E0],"parents":[2147483647,0,0,1,1,2,2,3,3,4,4,5,5,6,6,7,7,8,8,9,9,10,10,11,11,12,12,14,14],"right_children":[2,4,6,8,10,12,14,16,18,20,22,24,26,-1,28,-1,-1,-1,-1,-1,-1,-1,-1,-1,-1,-1,-1,-1,-1],"split_conditions":[7E0,4E0,2E1,4E0,1.8E1,1E1,2.1E1,2E0,6E0,1.1E1,4E0,4E0,1.2E1,-1.4639024E-1,2.3E1,-3.4625035E-2,-9.1776736E-2,-3.9999004E-2,-2.1509182E-2,2.3944513E-3,4.3469854E-2,-4.8010457E-2,2.274393E-2,-1.5181559E-2,-9.934979E-2,8.566873E-2,-4.8905574E-3,-5.6639727E-2,-9.3505956E-2],"split_indices":[0,1,1,0,1,1,1,0,0,1,0,1,1,0,1,0,0,0,0,0,0,0,0,0,0,0,0,0,0],"split_type":[0,0,0,0,0,0,0,0,0,0,0,0,0,0,0,0,0,0,0,0,0,0,0,0,0,0,0,0,0],"sum_hessian":[1.7205E4,1.4128E4,3.077E3,1.158E3,1.297E4,2.453E3,6.24E2,5.66E2,5.92E2,7.893E3,5.077E3,8.77E2,1.576E3,1.38E2,4.86E2,2.87E2,2.79E2,3.85E2,2.07E2,3.433E3,4.46E3,2.402E3,2.675E3,3.24E2,5.53E2,3.05E2,1.271E3,3.44E2,1.42E2],"tree_param":{"num_deleted":"0","num_feature":"2","num_nodes":"29","size_leaf_vector":"1"}},{"base_weights":[-6.504318E-4,6.0970977E-2,-2.7152163E-1,-1.5062563E-1,2.020449E-1,-4.3803692E-1,-7.302641E-2,-3.8066503E-1,-7.290409E-2,3.6767653E-1,6.480248E-3,-2.3855805E-1,-5.502423E-1,1.959095E-1,-6.085394E-1,-5.3539682E-2,-2.0660106E-2,1.7593758E-3,-5.1388394E-2,1.9997703E-2,6.643953E-2,1.0127044E-2,-4.5046683E-2,-7.202723E-2,-3.793961E-3,-7.109918E-2,-3.942092E-2,3.300636E-2,-1.8763294E-2,-4.1372854E-2,-7.285924E-2],"categories":[],"categories_nodes":[],"categories_segments":[],"categories_sizes":[],"default_left":[0,0,0,0,0,0,0,0,0,0,0,0,0,0,0,0,0,0,0,0,0,0,0,0,0,0,0,0,0,0,0],"id":32,"left_children":[1,3,5,7,9,11,13,15,17,19,21,23,25,27,29,-1,-1,-1,-1,-1,-1,-1,-1,-1,-1,-1,-1,-1,-1,-1,-1],"loss_changes":[2.872099E2,4.1847845E2,1.05372406E2,1.0023777E2,2.7244415E2,3.8680145E1,2.0981041E2,3.8026825E1,1.6734213E2,2.2647229E2,1.6715141E2,6.0469788E1,2.753592E1,4.99721E1,1.1088318E1,0E0,0E0,0E0,0E0,0E0,0E0,0E0,0E0,0E0,0E0,0E0,0E0,0E0,0E0,0E0,0E0],"parents":[2147483647,0,0,1,1,2,2,3,3,4,4,5,5,6,6,7,7,8,8,9,9,10,10,11,11,12,12,13,13,14,14],"right_children":[2,4,6,8,10,12,14,16,18,20,22,24,26,28,30,-1,-1,-1,-1,-1,-1,-1,-1,-1,-1,-1,-1,-1,-1,-1,-1],"split_conditions":[2.1E1,1.1E1,5E0,3E0,1.7E1,2.2E1,7E0,5E0,7E0,1.5E1,7E0,2E0,3E0,2.3E1,2.2E1,-5.3539682E-2,-2.0660106E-2,1.7593758E-3,-5.1388394E-2,1.9997703E-2,6.643953E-2,1.0127044E-2,-4.5046683E-2,-7.202723E-2,-3.793961E-3,-7.109918E-2,-3.942092E-2,3.300636E-2,-1.8763294E-2,-4.1372854E-2,-7.285924E-2],"split_indices":[1,1,0,1,1,1,0,0,0,1,0,0,0,1,1,0,0,0,0,0,0,0,0,0,0,0,0,0,0,0,0],"split_type":[0,0,0,0,0,0,0,0,0,0,0,0,0,0,0,0,0,0,0,0,0,0,0,0,0,0,0,0,0,0,0],"sum_hessian":[1.7205E4,1.4017E4,3.188E3,5.607E3,8.41E3,1.733E3,1.455E3,1.415E3,4.192E3,4.553E3,3.857E3,6.25E2,1.108E3,9.69E2,4.86E2,7.48E2,6.67E2,3.479E3,7.13E2,2.91E3,1.643E3,3.195E3,6.62E2,1.83E2,4.42E2,5.44E2,5.64E2,7.18E2,2.51E2,1.87E2,2.99E2],"tree_param":{"num_deleted":"0","num_feature":"2","num_nodes":"31","size_leaf_vector":"1"}},{"base_weights":[-6.0616026E-4,5.3805556E-2,-2.5037307E-1,-3.9080933E-1,9.352916E-2,-1.3314882E-1,-7.1024173E-1,-5.1510566E-1,-2.713037E-1,2.1168242E-1,-9.016431E-2,-5.741703E-1,1.1247578E-1,-1.2738429E-1,-5.4791975E-1,-2.6261589E-2,-7.729697E-2,-1.4066129E-2,-3.2881286E-2,7.353827E-3,4.2371053E-2,-3.2042302E-2,3.1659994E-2,-1.1409887E-2,-8.430313E-2,7.837926E-2,-4.9108663E-3,-4.5433994E-2,-7.698578E-2],"categories":[],"categories_nodes":[],"categories_segments":[],"categories_sizes":[],"default_left":[0,0,0,0,0,0,0,0,0,0,0,0,0,0,0,0,0,0,0,0,0,0,0,0,0,0,0,0,0],"id":33,"left_children":[1,3,5,7,9,11,13,15,17,19,21,23,25,-1,27,-1,-1,-1,-1,-1,-1,-1,-1,-1,-1,-1,-1,-1,-1],"loss_changes":[2.3384723E2,2.4957877E2,1.6583356E2,1.7076157E1,2.8154147E2,2.6589587E2,5.6480072E1,3.6713257E1,4.4090385E0,2.3118759E2,4.75712E2,1.0850827E2,1.7110252E2,0E0,9.764709E0,0E0,0E0,0E0,0E0,0E0,0E0,0E0,0E0,0E0,0E0,0E0,0E0,0E0,0E0],"parents":[2147483647,0,0,1,1,2,2,3,3,4,4,5,5,6,6,7,7,8,8,9,9,10,10,11,11,12,12,14,14],"right_children":[2,4,6,8,10,12,14,16,18,20,22,24,26,-1,28,-1,-1,-1,-1,-1,-1,-1,-1,-1,-1,-1,-1,-1,-1],"split_conditions":[7E0,4E0,2E1,4E0,1.8E1,1E1,2.1E1,2E0,1E0,1.3E1,5E0,4E0,1.2E1,-1.2738429E-1,2.3E1,-2.6261589E-2,-7.729697E-2,-1.4066129E-2,-3.2881286E-2,7.353827E-3,4.2371053E-2,-3.2042302E-2,3.1659994E-2,-1.1409887E-2,-8.430313E-2,7.837926E-2,-4.9108663E-3,-4.5433994E-2,-7.698578E-2],"split_indices":[0,1,1,0,1,1,1,0,1,1,0,1,1,0,1,0,0,0,0,0,0,0,0,0,0,0,0,0,0],"split_type":[0,0,0,0,0,0,0,0,0,0,0,0,0,0,0,0,0,0,0,0,0,0,0,0,0,0,0,0,0],"sum_hessian":[1.7205E4,1.4128E4,3.077E3,1.158E3,1.297E4,2.453E3,6.24E2,5.66E2,5.92E2,7.893E3,5.077E3,8.77E2,1.576E3,1.38E2,4.86E2,2.87E2,2.79E2,1.82E2,4.1E2,4.78E3,3.113E3,3.242E3,1.835E3,3.24E2,5.53E2,3.05E2,1.271E3,3.44E2,1.42E2],"tree_param":{"num_deleted":"0","num_feature":"2","num_nodes":"29","size_leaf_vector":"1"}},{"base_weights":[-5.675171E-4,2.3961615E-2,-5.0231296E-1,-2.4137786E-1,7.572117E-2,-7.2102696E-1,-1.757339E-1,3.618288E-2,-4.412377E-1,1.3256113E-1,-1.8572256E-1,-6.190141E-1,-1.2905024E-1,2.3423E-2,-6.934103E-2,-2.1000413E-2,2.0745564E-1,-2.6484111E-2,-1.7892003E-1,-8.236879E-3,2.2758609E-2,-1.143343E-1,-1.052393E-2,-6.6322945E-2,-5.2227225E-2],"categories":[],"categories_nodes":[],"categories_segments":[],"categories_sizes":[],"default_left":[0,0,0,0,0,0,0,0,0,0,0,0,0,0,0,0,0,0,0,0,0,0,0,0,0],"id":34,"left_children":[1,3,5,7,9,11,13,15,17,19,21,23,-1,-1,-1,-1,-1,-1,-1,-1,-1,-1,-1,-1,-1],"loss_changes":[2.1177283E2,2.2532213E2,5.715805E1,1.4857332E2,2.0402893E2,2.7086182E1,6.871227E1,5.634789E2,3.6974335E2,2.3033687E2,1.888612E2,1.403122E0,0E0,0E0,0E0,0E0,0E0,0E0,0E0,0E0,0E0,0E0,0E0,0E0,0E0],"parents":[2147483647,0,0,1,1,2,2,3,3,4,4,5,5,6,6,7,7,8,8,9,9,10,10,11,11],"right_children":[2,4,6,8,10,12,14,16,18,20,22,24,-1,-1,-1,-1,-1,-1,-1,-1,-1,-1,-1,-1,-1],"split_conditions":[2.3E1,6E0,6E0,4E0,7E0,5E0,7E0,5E0,5E0,3E0,8E0,4E0,-1.2905024E-1,2.3423E-2,-6.934103E-2,-2.1000413E-2,2.0745564E-1,-2.6484111E-2,-1.7892003E-1,-8.236879E-3,2.2758609E-2,-1.143343E-1,-1.052393E-2,-6.6322945E-2,-5.2227225E-2],"split_indices":[1,1,0,0,0,0,0,1,1,0,1,0,0,0,0,0,0,0,0,0,0,0,0,0,0],"split_type":[0,0,0,0,0,0,0,0,0,0,0,0,0,0,0,0,0,0,0,0,0,0,0,0,0],"sum_hessian":[1.7205E4,1.6404E4,8.01E2,2.677E3,1.3727E4,4.79E2,3.22E2,1.121E3,1.556E3,1.1276E4,2.451E3,4.08E2,7.1E1,1.8E2,1.42E2,1.001E3,1.2E2,1.377E3,1.79E2,3.457E3,7.819E3,1.89E2,2.262E3,2.76E2,1.32E2],"tree_param":{"num_deleted":"0","num_feature":"2","num_nodes":"25","size_leaf_vector":"1"}},{"base_weights":[-5.3533586E-4,4.996376E-2,-2.2251584E-1,-1.15004845E-1,1.5994997E-1,-3.5280523E-1,-6.719695E-2,-3.2620743E-1,-3.9759092E-2,6.2794197E-1,1.0203913E-1,-1.8802664E-1,-4.4550008E-1,1.3295904E-1,-4.6572694E-1,3.4633253E-3,-6.2933785E-1,-2.4595762E-2,5.03676E-2,2.9004866E-2,1.1632307E-1,-4.7629382E-2,1.6726693E-2,-6.0857605E-2,-1.2927045E-3,-5.7786208E-2,-3.17035E-2,-1.09403115E-2,3.1514686E-2,-3.1691518E-2,-5.574299E-2],"categories":[],"categories_nodes":[],"categories_segments":[],"categories_sizes":[],"default_left":[0,0,0,0,0,0,0,0,0,0,0,0,0,0,0,0,0,0,0,0,0,0,0,0,0,0,0,0,0,0,0],"id":35,"left_children":[1,3,5,7,9,11,13,15,17,19,21,23,25,27,29,-1,-1,-1,-1,-1,-1,-1,-1,-1,-1,-1,-1,-1,-1,-1,-1],"loss_changes":[1.9288719E2,2.5436479E2,6.451018E1,8.910992E1,2.2788925E2,2.640158E1,1.1620438E2,3.1718787E3,4.635855E2,1.6714868E2,2.824769E2,4.608953E1,1.8674118E1,4.286525E1,6.4691772E0,0E0,0E0,0E0,0E0,0E0,0E0,0E0,0E0,0E0,0E0,0E0,0E0,0E0,0E0,0E0,0E0],"parents":[2147483647,0,0,1,1,2,2,3,3,4,4,5,5,6,6,7,7,8,8,9,9,10,10,11,11,12,12,13,13,14,14],"right_children":[2,4,6,8,10,12,14,16,18,20,22,24,26,28,30,-1,-1,-1,-1,-1,-1,-1,-1,-1,-1,-1,-1,-1,-1,-1,-1],"split_conditions":[2.1E1,1.1E1,5E0,3E0,1.2E1,2.2E1,7E0,1E1,9E0,6E0,1.3E1,2E0,3E0,6E0,2.2E1,3.4633253E-3,-6.2933785E-1,-2.4595762E-2,5.03676E-2,2.9004866E-2,1.1632307E-1,-4.7629382E-2,1.6726693E-2,-6.0857605E-2,-1.2927045E-3,-5.7786208E-2,-3.17035E-2,-1.09403115E-2,3.1514686E-2,-3.1691518E-2,-5.574299E-2],"split_indices":[1,1,0,0,1,1,0,1,1,0,1,0,0,0,1,0,0,0,0,0,0,0,0,0,0,0,0,0,0,0,0],"split_type":[0,0,0,0,0,0,0,0,0,0,0,0,0,0,0,0,0,0,0,0,0,0,0,0,0,0,0,0,0,0,0],"sum_hessian":[1.7205E4,1.4017E4,3.188E3,5.607E3,8.41E3,1.733E3,1.455E3,1.472E3,4.135E3,9.25E2,7.485E3,6.25E2,1.108E3,9.69E2,4.86E2,1.389E3,8.3E1,2.998E3,1.137E3,5.68E2,3.57E2,7.58E2,6.727E3,1.83E2,4.42E2,5.44E2,5.64E2,4.16E2,5.53E2,1.87E2,2.99E2],"tree_param":{"num_deleted":"0","num_feature":"2","num_nodes":"31","size_leaf_vector":"1"}},{"base_weights":[-5.2286E-4,4.412714E-2,-2.0548041E-1,-3.1381384E-1,7.6106906E-2,-1.0917364E-1,-5.832906E-1,-4.3934342E-1,-1.932589E-1,1.7931105E-1,-8.434399E-2,-4.6421358E-1,8.856526E-2,-1.1535332E-1,-4.1933367E-1,-2.1896932E-2,-6.644449E-2,-7.587129E-3,-2.4505615E-2,3.28174E-2,-3.8581775E-3,-3.5918053E-2,1.6248582E-2,-5.1801614E-3,-7.0531406E-2,6.3017756E-2,-4.1797888E-3,-2.8539224E-2,-5.0187256E-2],"categories":[],"categories_nodes":[],"categories_segments":[],"categories_sizes":[],"default_left":[0,0,0,0,0,0,0,0,0,0,0,0,0,0,0,0,0,0,0,0,0,0,0,0,0,0,0,0,0],"id":36,"left_children":[1,3,5,7,9,11,13,15,17,19,21,23,25,-1,27,-1,-1,-1,-1,-1,-1,-1,-1,-1,-1,-1,-1,-1,-1],"loss_changes":[1.5746729E2,1.6175667E2,1.1193146E2,1.745449E1,2.1480447E2,1.7232468E2,5.7950806E1,2.7981407E1,3.587057E0,2.5606372E2,3.4453897E2,8.726541E1,1.1137245E2,0E0,5.240738E0,0E0,0E0,0E0,0E0,0E0,0E0,0E0,0E0,0E0,0E0,0E0,0E0,0E0,0E0],"parents":[2147483647,0,0,1,1,2,2,3,3,4,4,5,5,6,6,7,7,8,8,9,9,10,10,11,11,12,12,14,14],"right_children":[2,4,6,8,10,12,14,16,18,20,22,24,26,-1,28,-1,-1,-1,-1,-1,-1,-1,-1,-1,-1,-1,-1,-1,-1],"split_conditions":[7E0,4E0,2E1,4E0,1.8E1,1E1,2.1E1,2E0,1E0,5E0,4E0,4E0,1.2E1,-1.1535332E-1,2.2E1,-2.1896932E-2,-6.644449E-2,-7.587129E-3,-2.4505615E-2,3.28174E-2,-3.8581775E-3,-3.5918053E-2,1.6248582E-2,-5.1801614E-3,-7.0531406E-2,6.3017756E-2,-4.1797888E-3,-2.8539224E-2,-5.0187256E-2],"split_indices":[0,1,1,0,1,1,1,0,1,0,0,1,1,0,1,0,0,0,0,0,0,0,0,0,0,0,0,0,0],"split_type":[0,0,0,0,0,0,0,0,0,0,0,0,0,0,0,0,0,0,0,0,0,0,0,0,0,0,0,0,0],"sum_hessian":[1.7205E4,1.4128E4,3.077E3,1.158E3,1.297E4,2.453E3,6.24E2,5.66E2,5.92E2,7.893E3,5.077E3,8.77E2,1.576E3,1.38E2,4.86E2,2.87E2,2.79E2,1.82E2,4.1E2,4.689E3,3.204E3,2.402E3,2.675E3,3.24E2,5.53E2,3.05E2,1.271E3,1.87E2,2.99E2],"tree_param":{"num_deleted":"0","num_feature":"2","num_nodes":"29","size_leaf_vector":"1"}},{"base_weights":[-4.8934936E-4,1.9646384E-2,-4.1236743E-1,-1.913636E-1,6.0807887E-2,-5.95899E-1,-1.3835032E-1,4.318807E-2,-3.602625E-1,1.08922124E-1,-1.6049923E-1,-4.9364558E-1,-1.1684789E-1,1.634363E-2,-5.1936455E-2,-1.7498601E-2,1.849529E-1,-1.990607E-2,-1.5923506E-1,-6.202237E-3,1.8449977E-2,-9.349833E-2,-9.540315E-3,-4.2492907E-2,-5.612844E-2],"categories":[],"categories_nodes":[],"categories_segments":[],"categories_sizes":[],"default_left":[0,0,0,0,0,0,0,0,0,0,0,0,0,0,0,0,0,0,0,0,0,0,0,0,0],"id":37,"left_children":[1,3,5,7,9,11,13,15,17,19,21,23,-1,-1,-1,-1,-1,-1,-1,-1,-1,-1,-1,-1,-1],"loss_changes":[1.427055E2,1.4249707E2,4.0250763E1,1.0610592E2,1.4619356E2,2.7526337E1,3.7225033E1,4.4250018E2,3.0892636E2,1.4570555E2,1.2353055E2,1.6624832E0,0E0,0E0,0E0,0E0,0E0,0E0,0E0,0E0,0E0,0E0,0E0,0E0,0E0],"parents":[2147483647,0,0,1,1,2,2,3,3,4,4,5,5,6,6,7,7,8,8,9,9,10,10,11,11],"right_children":[2,4,6,8,10,12,14,16,18,20,22,24,-1,-1,-1,-1,-1,-1,-1,-1,-1,-1,-1,-1,-1],"split_conditions":[2.3E1,6E0,6E0,4E0,7E0,5E0,7E0,5E0,5E0,3E0,8E0,3E0,-1.1684789E-1,1.634363E-2,-5.1936455E-2,-1.7498601E-2,1.849529E-1,-1.990607E-2,-1.5923506E-1,-6.202237E-3,1.8449977E-2,-9.349833E-2,-9.540315E-3,-4.2492907E-2,-5.612844E-2],"split_indices":[1,1,0,0,0,0,0,1,1,0,1,0,0,0,0,0,0,0,0,0,0,0,0,0,0],"split_type":[0,0,0,0,0,0,0,0,0,0,0,0,0,0,0,0,0,0,0,0,0,0,0,0,0],"sum_hessian":[1.7205E4,1.6404E4,8.01E2,2.677E3,1.3727E4,4.79E2,3.22E2,1.121E3,1.556E3,1.1276E4,2.451E3,4.08E2,7.1E1,1.8E2,1.42E2,1.001E3,1.2E2,1.377E3,1.79E2,3.457E3,7.819E3,1.89E2,2.262E3,2.06E2,2.02E2],"tree_param":{"num_deleted":"0","num_feature":"2","num_nodes":"25","size_leaf_vector":"1"}},{"base_weights":[-4.6077053E-4,4.0900808E-2,-1.8227518E-1,-9.4956644E-2,1.3147835E-1,-2.886481E-1,-5.5466853E-2,-3.010437E-1,-2.1537598E-2,5.3140235E-1,8.199116E-2,-1.5085901E-1,-3.66166E-1,9.531548E-2,-3.5567915E-1,2.5309713E-3,-5.6978315E-1,-1.9572362E-2,4.3751813E-2,1.4826241E-1,3.6859132E-2,-4.4649623E-2,1.4159876E-2,-5.0615754E-2,-2.94528E-4,-4.6442173E-2,-2.7074024E-2,-1.1006777E-2,2.4973696E-2,-2.4751456E-2,-4.222767E-2],"categories":[],"categories_nodes":[],"categories_segments":[],"categories_sizes":[],"default_left":[0,0,0,0,0,0,0,0,0,0,0,0,0,0,0,0,0,0,0,0,0,0,0,0,0,0,0,0,0,0,0],"id":38,"left_children":[1,3,5,7,9,11,13,15,17,19,21,23,25,27,29,-1,-1,-1,-1,-1,-1,-1,-1,-1,-1,-1,-1,-1,-1,-1,-1],"loss_changes":[1.2939885E2,1.7251285E2,4.3000328E1,8.484656E1,1.664195E2,1.846582E1,6.594223E1,2.5944805E3,3.308047E2,1.4286258E2,2.3588617E2,3.2897015E1,1.0272385E1,3.0791607E1,3.4035873E0,0E0,0E0,0E0,0E0,0E0,0E0,0E0,0E0,0E0,0E0,0E0,0E0,0E0,0E0,0E0,0E0],"parents":[2147483647,0,0,1,1,2,2,3,3,4,4,5,5,6,6,7,7,8,8,9,9,10,10,11,11,12,12,13,13,14,14],"right_children":[2,4,6,8,10,12,14,16,18,20,22,24,26,28,30,-1,-1,-1,-1,-1,-1,-1,-1,-1,-1,-1,-1,-1,-1,-1,-1],"split_conditions":[2.1E1,1.1E1,5E0,3E0,1.2E1,2.2E1,7E0,1E1,9E0,2E0,1.3E1,2E0,3E0,6E0,2.2E1,2.5309713E-3,-5.6978315E-1,-1.9572362E-2,4.3751813E-2,1.4826241E-1,3.6859132E-2,-4.4649623E-2,1.4159876E-2,-5.0615754E-2,-2.94528E-4,-4.6442173E-2,-2.7074024E-2,-1.1006777E-2,2.4973696E-2,-2.4751456E-2,-4.222767E-2],"split_indices":[1,1,0,0,1,1,0,1,1,0,1,0,0,0,1,0,0,0,0,0,0,0,0,0,0,0,0,0,0,0,0],"split_type":[0,0,0,0,0,0,0,0,0,0,0,0,0,0,0,0,0,0,0,0,0,0,0,0,0,0,0,0,0,0,0],"sum_hessian":[1.7205E4,1.4017E4,3.188E3,5.607E3,8.41E3,1.733E3,1.455E3,1.472E3,4.135E3,9.25E2,7.485E3,6.25E2,1.108E3,9.69E2,4.86E2,1.389E3,8.3E1,2.998E3,1.137E3,1.34E2,7.91E2,7.58E2,6.727E3,1.83E2,4.42E2,5.44E2,5.64E2,4.16E2,5.53E2,1.87E2,2.99E2],"tree_param":{"num_deleted":"0","num_feature":"2","num_nodes":"31","size_leaf_vector":"1"}},{"base_weights":[-4.4777023E-4,4.4880573E-2,-1.4086945E-1,-8.55579E-2,1.4371237E-1,-8.125592E-2,-4.8163348E-1,-2.7132452E-1,-1.937807E-2,2.7901345E-1,1.6872028E-2,-2.6564115E-1,2.2869384E-1,-1.0435959E-1,-3.2024866E-1,2.2780497E-3,-5.134832E-1,-1.7615762E-2,3.93804E-2,4.6171207E-2,-1.9168658E-2,4.100394E-2,-3.5073918E-3,-2.338026E-2,-4.077592E-2,6.0781773E-2,8.579806E-3,-2.2289457E-2,-3.801897E-2],"categories":[],"categories_nodes":[],"categories_segments":[],"categories_sizes":[],"default_left":[0,0,0,0,0,0,0,0,0,0,0,0,0,0,0,0,0,0,0,0,0,0,0,0,0,0,0,0,0],"id":39,"left_children":[1,3,5,7,9,11,13,15,17,19,21,23,25,-1,27,-1,-1,-1,-1,-1,-1,-1,-1,-1,-1,-1,-1,-1,-1],"loss_changes":[1.09523926E2,1.6770451E2,8.525998E1,6.8939514E1,1.2700856E2,2.0437257E2,5.634842E1,2.10707E3,2.6799323E2,3.0804102E2,7.8052376E1,1.0049347E1,7.2217575E1,0E0,2.7571526E0,0E0,0E0,0E0,0E0,0E0,0E0,0E0,0E0,0E0,0E0,0E0,0E0,0E0,0E0],"parents":[2147483647,0,0,1,1,2,2,3,3,4,4,5,5,6,6,7,7,8,8,9,9,10,10,11,11,12,12,14,14],"right_children":[2,4,6,8,10,12,14,16,18,20,22,24,26,-1,28,-1,-1,-1,-1,-1,-1,-1,-1,-1,-1,-1,-1,-1,-1],"split_conditions":[2E1,1.1E1,7E0,3E0,5E0,5E0,2.1E1,1E1,9E0,1.8E1,1.2E1,2.3E1,2.1E1,-1.0435959E-1,2.2E1,2.2780497E-3,-5.134832E-1,-1.7615762E-2,3.93804E-2,4.6171207E-2,-1.9168658E-2,4.100394E-2,-3.5073918E-3,-2.338026E-2,-4.077592E-2,6.0781773E-2,8.579806E-3,-2.2289457E-2,-3.801897E-2],"split_indices":[1,1,0,0,0,0,1,1,1,1,1,1,1,0,1,0,0,0,0,0,0,0,0,0,0,0,0,0,0],"split_type":[0,0,0,0,0,0,0,0,0,0,0,0,0,0,0,0,0,0,0,0,0,0,0,0,0,0,0,0,0],"sum_hessian":[1.7205E4,1.3007E4,4.198E3,5.607E3,7.4E3,3.574E3,6.24E2,1.472E3,4.135E3,3.58E3,3.82E3,2.241E3,1.333E3,1.38E2,4.86E2,1.389E3,8.3E1,2.998E3,1.137E3,2.579E3,1.001E3,4.45E2,3.375E3,1.833E3,4.08E2,3.64E2,9.69E2,1.87E2,2.99E2],"tree_param":{"num_deleted":"0","num_feature":"2","num_nodes":"29","size_leaf_vector":"1"}},{"base_weights":[-4.3693217E-4,3.3615645E-2,-1.5674897E-1,-2.4210364E-1,5.8249447E-2,-8.614092E-2,-4.3373355E-1,-3.7252814E-1,-1.1698931E-1,1.398091E-1,-6.85505E-2,-2.7158704E-1,1.66677E-1,-9.399872E-2,-2.8834757E-1,-1.8450318E-2,-5.6459475E-2,-1.6966205E-2,-1.8678425E-3,2.7340671E-2,-5.573306E-3,-2.8468704E-2,1.2556187E-2,-1.4549369E-2,-9.078983E-2,9.326238E-2,-1.9432295E-2,-2.0072384E-2,-3.422973E-2],"categories":[],"categories_nodes":[],"categories_segments":[],"categories_sizes":[],"default_left":[0,0,0,0,0,0,0,0,0,0,0,0,0,0,0,0,0,0,0,0,0,0,0,0,0,0,0,0,0],"id":40,"left_children":[1,3,5,7,9,11,13,15,17,19,21,23,25,-1,27,-1,-1,-1,-1,-1,-1,-1,-1,-1,-1,-1,-1,-1,-1],"loss_changes":[9.1589836E1,9.597846E1,6.0160133E1,1.8868958E1,1.3415256E2,1.1509883E2,4.573033E1,2.0372086E1,3.067565E0,2.0623781E2,2.1308209E2,1.1348013E2,2.8747177E2,0E0,2.2334785E0,0E0,0E0,0E0,0E0,0E0,0E0,0E0,0E0,0E0,0E0,0E0,0E0,0E0,0E0],"parents":[2147483647,0,0,1,1,2,2,3,3,4,4,5,5,6,6,7,7,8,8,9,9,10,10,11,11,12,12,14,14],"right_children":[2,4,6,8,10,12,14,16,18,20,22,24,26,-1,28,-1,-1,-1,-1,-1,-1,-1,-1,-1,-1,-1,-1,-1,-1],"split_conditions":[7E0,4E0,2E1,4E0,1.8E1,1.4E1,2.1E1,2E0,6E0,5E0,4E0,1.2E1,1.6E1,-9.399872E-2,2.2E1,-1.8450318E-2,-5.6459475E-2,-1.6966205E-2,-1.8678425E-3,2.7340671E-2,-5.573306E-3,-2.8468704E-2,1.2556187E-2,-1.4549369E-2,-9.078983E-2,9.326238E-2,-1.9432295E-2,-2.0072384E-2,-3.422973E-2],"split_indices":[0,1,1,0,1,1,1,0,0,0,0,1,1,0,1,0,0,0,0,0,0,0,0,0,0,0,0,0,0],"split_type":[0,0,0,0,0,0,0,0,0,0,0,0,0,0,0,0,0,0,0,0,0,0,0,0,0,0,0,0,0],"sum_hessian":[1.7205E4,1.4128E4,3.077E3,1.158E3,1.297E4,2.453E3,6.24E2,5.66E2,5.92E2,7.893E3,5.077E3,1.415E3,1.038E3,1.38E2,4.86E2,2.87E2,2.79E2,3.85E2,2.07E2,4.689E3,3.204E3,2.402E3,2.675E3,1.182E3,2.33E2,3.32E2,7.06E2,1.87E2,2.99E2],"tree_param":{"num_deleted":"0","num_feature":"2","num_nodes":"29","size_leaf_vector":"1"}},{"base_weights":[-4.0860413E-4,1.4980692E-2,-3.1519789E-1,-1.415211E-1,4.550931E-2,-4.5935518E-1,-9.999449E-2,5.1463645E-2,-2.804982E-1,1.20552585E-1,-4.442975E-2,-3.5192418E-1,-1.0632431E-1,1.0132714E-2,-3.541149E-2,-1.4273691E-2,1.6592115E-1,-1.3407543E-2,-1.3998877E-1,2.1276858E-3,4.7319796E-2,-4.2758506E-2,1.7171027E-3,-2.6751349E-2,-4.3626454E-2],"categories":[],"categories_nodes":[],"categories_segments":[],"categories_sizes":[],"default_left":[0,0,0,0,0,0,0,0,0,0,0,0,0,0,0,0,0,0,0,0,0,0,0,0,0],"id":41,"left_children":[1,3,5,7,9,11,13,15,17,19,21,23,-1,-1,-1,-1,-1,-1,-1,-1,-1,-1,-1,-1,-1],"loss_changes":[8.3357216E1,7.838597E1,2.4834625E1,7.183963E1,9.2660034E1,3.0766418E1,1.656054E1,3.505539E2,2.55011E2,2.6199823E2,1.4740599E2,2.7950554E0,0E0,0E0,0E0,0E0,0E0,0E0,0E0,0E0,0E0,0E0,0E0,0E0,0E0],"parents":[2147483647,0,0,1,1,2,2,3,3,4,4,5,5,6,6,7,7,8,8,9,9,10,10,11,11],"right_children":[2,4,6,8,10,12,14,16,18,20,22,24,-1,-1,-1,-1,-1,-1,-1,-1,-1,-1,-1,-1,-1],"split_conditions":[2.3E1,6E0,6E0,4E0,1.7E1,5E0,7E0,5E0,5E0,1.5E1,2E0,3E0,-1.0632431E-1,1.0132714E-2,-3.541149E-2,-1.4273691E-2,1.6592115E-1,-1.3407543E-2,-1.3998877E-1,2.1276858E-3,4.7319796E-2,-4.2758506E-2,1.7171027E-3,-2.6751349E-2,-4.3626454E-2],"split_indices":[1,1,0,0,1,0,0,1,1,1,0,0,0,0,0,0,0,0,0,0,0,0,0,0,0],"split_type":[0,0,0,0,0,0,0,0,0,0,0,0,0,0,0,0,0,0,0,0,0,0,0,0,0],"sum_hessian":[1.7205E4,1.6404E4,8.01E2,2.677E3,1.3727E4,4.79E2,3.22E2,1.121E3,1.556E3,7.483E3,6.244E3,4.08E2,7.1E1,1.8E2,1.42E2,1.001E3,1.2E2,1.377E3,1.79E2,5.84E3,1.643E3,8.64E2,5.38E3,2.06E2,2.02E2],"tree_param":{"num_deleted":"0","num_feature":"2","num_nodes":"25","size_leaf_vector":"1"}},{"base_weights":[-3.793961E-4,3.0851128E-2,-1.4373732E-1,-2.184901E-1,5.08441E-2,-3.4823376E-1,-6.209642E-2,-3.7790194E-1,-8.334846E-2,1.1653075E-1,-5.2701946E-2,3.8152136E-2,-5.742756E-1,2.714442E-1,-2.8031716E-1,-6.0478337E-2,-2.8485699E-2,-1.3936715E-2,3.4621991E-3,2.333772E-2,-5.633239E-3,-1.8761698E-2,1.8563254E-2,2.3738282E-2,-1.1580933E-2,-4.467806E-2,-8.854398E-2,2.612211E-3,1.4995664E-1,-5.287403E-2,-1.8696532E-2],"categories":[],"categories_nodes":[],"categories_segments":[],"categories_sizes":[],"default_left":[0,0,0,0,0,0,0,0,0,0,0,0,0,0,0,0,0,0,0,0,0,0,0,0,0,0,0,0,0,0,0],"id":42,"left_children":[1,3,5,7,9,11,13,15,17,19,21,23,25,27,29,-1,-1,-1,-1,-1,-1,-1,-1,-1,-1,-1,-1,-1,-1,-1,-1],"loss_changes":[7.7038155E1,7.04452E1,5.136643E1,2.2567291E1,8.897778E1,7.670589E1,1.6027693E2,9.98172E0,3.7650907E0,1.6168147E2,1.6331741E2,9.996491E0,2.1582626E1,2.6238055E2,3.0768036E1,0E0,0E0,0E0,0E0,0E0,0E0,0E0,0E0,0E0,0E0,0E0,0E0,0E0,0E0,0E0,0E0],"parents":[2147483647,0,0,1,1,2,2,3,3,4,4,5,5,6,6,7,7,8,8,9,9,10,10,11,11,12,12,13,13,14,14],"right_children":[2,4,6,8,10,12,14,16,18,20,22,24,26,28,30,-1,-1,-1,-1,-1,-1,-1,-1,-1,-1,-1,-1,-1,-1,-1,-1],"split_conditions":[7E0,2E0,1E1,4E0,1.8E1,4E0,1.6E1,1E0,6E0,5E0,5E0,1E0,9E0,1.5E1,1.8E1,-6.0478337E-2,-2.8485699E-2,-1.3936715E-2,3.4621991E-3,2.333772E-2,-5.633239E-3,-1.8761698E-2,1.8563254E-2,2.3738282E-2,-1.1580933E-2,-4.467806E-2,-8.854398E-2,2.612211E-3,1.4995664E-1,-5.287403E-2,-1.8696532E-2],"split_indices":[0,1,1,0,1,1,1,1,0,0,0,1,1,1,1,0,0,0,0,0,0,0,0,0,0,0,0,0,0,0,0],"split_type":[0,0,0,0,0,0,0,0,0,0,0,0,0,0,0,0,0,0,0,0,0,0,0,0,0,0,0,0,0,0,0],"sum_hessian":[1.7205E4,1.4128E4,3.077E3,1.048E3,1.308E4,8.77E2,2.2E3,4.8E2,5.68E2,8.003E3,5.077E3,3.24E2,5.53E2,8.7E2,1.33E3,1.38E2,3.42E2,3.85E2,1.83E2,4.775E3,3.228E3,3.242E3,1.835E3,1.41E2,1.83E2,3.94E2,1.59E2,7.26E2,1.44E2,3.62E2,9.68E2],"tree_param":{"num_deleted":"0","num_feature":"2","num_nodes":"31","size_leaf_vector":"1"}},{"base_weights":[-3.488555E-4,1.3170329E-2,-2.7688485E-1,4.241469E-2,-1.2100362E-1,-4.005863E-1,-9.219886E-2,-1.255316E-1,7.508577E-2,-3.1354833E-1,-3.883982E-2,-2.9818815E-1,-9.76701E-2,7.278956E-3,-3.003856E-2,4.924103E-3,-3.0816844E-2,-1.3724911E-2,1.1426205E-2,3.4374315E-3,-5.170886E-2,2.444744E-2,-2.4634851E-2,-2.2222046E-2,-3.7418388E-2],"categories":[],"categories_nodes":[],"categories_segments":[],"categories_sizes":[],"default_left":[0,0,0,0,0,0,0,0,0,0,0,0,0,0,0,0,0,0,0,0,0,0,0,0,0],"id":43,"left_children":[1,3,5,7,9,11,13,15,17,19,21,23,-1,-1,-1,-1,-1,-1,-1,-1,-1,-1,-1,-1,-1],"loss_changes":[6.4328995E1,6.437559E1,1.8285496E1,7.391913E1,4.6435944E1,2.8025429E1,1.1116398E1,7.0047485E1,9.3823296E1,6.219445E1,1.2110916E2,2.2780952E0,0E0,0E0,0E0,0E0,0E0,0E0,0E0,0E0,0E0,0E0,0E0,0E0,0E0],"parents":[2147483647,0,0,1,1,2,2,3,3,4,4,5,5,6,6,7,7,8,8,9,9,10,10,11,11],"right_children":[2,4,6,8,10,12,14,16,18,20,22,24,-1,-1,-1,-1,-1,-1,-1,-1,-1,-1,-1,-1,-1],"split_conditions":[2.3E1,7E0,6E0,6E0,1E1,5E0,7E0,4E0,2E0,4E0,1.6E1,3E0,-9.76701E-2,7.278956E-3,-3.003856E-2,4.924103E-3,-3.0816844E-2,-1.3724911E-2,1.1426205E-2,3.4374315E-3,-5.170886E-2,2.444744E-2,-2.4634851E-2,-2.2222046E-2,-3.7418388E-2],"split_indices":[1,0,0,1,1,0,0,0,0,1,1,0,0,0,0,0,0,0,0,0,0,0,0,0,0],"split_type":[0,0,0,0,0,0,0,0,0,0,0,0,0,0,0,0,0,0,0,0,0,0,0,0,0],"sum_hessian":[1.7205E4,1.6404E4,8.01E2,1.3469E4,2.935E3,4.79E2,3.22E2,2.193E3,1.1276E4,8.77E2,2.058E3,4.08E2,7.1E1,1.8E2,1.42E2,1.121E3,1.072E3,1.756E3,9.52E3,3.24E2,5.53E2,8.7E2,1.188E3,2.06E2,2.02E2],"tree_param":{"num_deleted":"0","num_feature":"2","num_nodes":"25","size_leaf_vector":"1"}},{"base_weights":[-3.2896094E-4,1.1848555E-2,-2.49421E-1,3.8170945E-2,-1.089193E-1,-3.6085534E-1,-8.3049774E-2,-1.1299018E-1,6.757676E-2,-2.8224844E-1,-3.495529E-2,-2.6851517E-1,-8.80387E-2,6.555041E-3,-2.7055735E-2,4.432135E-3,-2.7738024E-2,-1.2353173E-2,1.0283671E-2,3.0947365E-3,-4.6547297E-2,2.2005597E-2,-2.2173397E-2,-2.0010574E-2,-3.3694983E-2],"categories":[],"categories_nodes":[],"categories_segments":[],"categories_sizes":[],"default_left":[0,0,0,0,0,0,0,0,0,0,0,0,0,0,0,0,0,0,0,0,0,0,0,0,0],"id":44,"left_children":[1,3,5,7,9,11,13,15,17,19,21,23,-1,-1,-1,-1,-1,-1,-1,-1,-1,-1,-1,-1,-1],"loss_changes":[5.2194298E1,5.2153988E1,1.4838684E1,5.9881992E1,3.7629997E1,2.2790947E1,9.017697E0,5.6750122E1,7.600251E1,5.0398575E1,9.812033E1,1.8473415E0,0E0,0E0,0E0,0E0,0E0,0E0,0E0,0E0,0E0,0E0,0E0,0E0,0E0],"parents":[2147483647,0,0,1,1,2,2,3,3,4,4,5,5,6,6,7,7,8,8,9,9,10,10,11,11],"right_children":[2,4,6,8,10,12,14,16,18,20,22,24,-1,-1,-1,-1,-1,-1,-1,-1,-1,-1,-1,-1,-1],"split_conditions":[2.3E1,7E0,6E0,6E0,1E1,5E0,7E0,4E0,2E0,4E0,1.6E1,3E0,-8.80387E-2,6.555041E-3,-2.7055735E-2,4.432135E-3,-2.7738024E-2,-1.2353173E-2,1.0283671E-2,3.0947365E-3,-4.6547297E-2,2.2005597E-2,-2.2173397E-2,-2.0010574E-2,-3.3694983E-2],"split_indices":[1,0,0,1,1,0,0,0,0,1,1,0,0,0,0,0,0,0,0,0,0,0,0,0,0],"split_type":[0,0,0,0,0,0,0,0,0,0,0,0,0,0,0,0,0,0,0,0,0,0,0,0,0],"sum_hessian":[1.7205E4,1.6404E4,8.01E2,1.3469E4,2.935E3,4.79E2,3.22E2,2.193E3,1.1276E4,8.77E2,2.058E3,4.08E2,7.1E1,1.8E2,1.42E2,1.121E3,1.072E3,1.756E3,9.52E3,3.24E2,5.53E2,8.7E2,1.188E3,2.06E2,2.02E2],"tree_param":{"num_deleted":"0","num_feature":"2","num_nodes":"25","size_leaf_vector":"1"}},{"base_weights":[-3.0968466E-4,2.935E-2,-9.219176E-2,-3.823325E-2,1.3044694E-1,-1.8454732E-1,1.3606671E-2,-2.3314346E-1,3.1379346E-2,3.2446527E-1,-4.2836126E-2,-1.366934E-1,-2.3331358E-1,1.680878E-1,-3.161396E-1,5.3940886E-3,-6.4081274E-2,-1.1501993E-2,1.9113919E-2,6.4093575E-2,-1.3635141E-2,-1.6217355E-2,1.5430137E-2,-9.350625E-3,-2.7796183E-2,-3.0457724E-2,-1.6415961E-2,4.9280584E-2,4.5726798E-3,-7.8333594E-2,-1.8214285E-2],"categories":[],"categories_nodes":[],"categories_segments":[],"categories_sizes":[],"default_left":[0,0,0,0,0,0,0,0,0,0,0,0,0,0,0,0,0,0,0,0,0,0,0,0,0,0,0,0,0,0,0],"id":45,"left_children":[1,3,5,7,9,11,13,15,17,19,21,23,25,27,29,-1,-1,-1,-1,-1,-1,-1,-1,-1,-1,-1,-1,-1,-1,-1,-1],"loss_changes":[4.689238E1,8.888162E1,4.1031254E1,1.05798615E2,1.7524184E2,5.200165E0,9.979283E1,2.4019133E2,1.344136E2,3.586953E2,6.481529E1,6.892521E0,5.415329E0,5.2981056E1,3.8984062E1,0E0,0E0,0E0,0E0,0E0,0E0,0E0,0E0,0E0,0E0,0E0,0E0,0E0,0E0,0E0,0E0],"parents":[2147483647,0,0,1,1,2,2,3,3,4,4,5,5,6,6,7,7,8,8,9,9,10,10,11,11,12,12,13,13,14,14],"right_children":[2,4,6,8,10,12,14,16,18,20,22,24,26,28,30,-1,-1,-1,-1,-1,-1,-1,-1,-1,-1,-1,-1,-1,-1,-1,-1],"split_conditions":[2E1,1.4E1,5E0,3E0,5E0,2.2E1,7E0,9E0,9E0,1.8E1,7E0,4E0,3E0,2.1E1,2.1E1,5.3940886E-3,-6.4081274E-2,-1.1501993E-2,1.9113919E-2,6.4093575E-2,-1.3635141E-2,-1.6217355E-2,1.5430137E-2,-9.350625E-3,-2.7796183E-2,-3.0457724E-2,-1.6415961E-2,4.9280584E-2,4.5726798E-3,-7.8333594E-2,-1.8214285E-2],"split_indices":[1,1,0,0,0,1,0,1,1,1,0,0,0,1,1,0,0,0,0,0,0,0,0,0,0,0,0,0,0,0,0],"split_type":[0,0,0,0,0,0,0,0,0,0,0,0,0,0,0,0,0,0,0,0,0,0,0,0,0,0,0,0,0,0,0],"sum_hessian":[1.7205E4,1.3007E4,4.198E3,7.796E3,5.211E3,2.241E3,1.957E3,2.051E3,5.745E3,2.458E3,2.753E3,1.133E3,1.108E3,1.333E3,6.24E2,1.204E3,8.47E2,2.998E3,2.747E3,1.457E3,1.001E3,1.715E3,1.038E3,8.69E2,2.64E2,5.44E2,5.64E2,3.64E2,9.69E2,1.38E2,4.86E2],"tree_param":{"num_deleted":"0","num_feature":"2","num_nodes":"31","size_leaf_vector":"1"}},{"base_weights":[-2.8602508E-4,2.2591617E-2,-1.05301596E-1,-1.5545909E-1,3.8499273E-2,-2.0515224E-1,-2.021813E-2,-3.0334958E-1,-1.3790678E-2,9.196556E-2,-4.4624276E-2,-7.0008375E-2,-8.875028E-1,6.899608E-1,-1.9788107E-1,-1.4079404E-2,-4.694662E-2,9.420767E-3,-6.1843987E-3,2.3966867E-2,-2.6649663E-3,-2.0409344E-2,9.859283E-3,-2.4812864E-2,4.412975E-2,-6.655687E-2,-1.4666158E-1,2.2658441E-2,1.2891896E-1,-4.4472102E-2,-1.052074E-2],"categories":[],"categories_nodes":[],"categories_segments":[],"categories_sizes":[],"default_left":[0,0,0,0,0,0,0,0,0,0,0,0,0,0,0,0,0,0,0,0,0,0,0,0,0,0,0,0,0,0,0],"id":46,"left_children":[1,3,5,7,9,11,13,15,17,19,21,23,25,27,29,-1,-1,-1,-1,-1,-1,-1,-1,-1,-1,-1,-1,-1,-1,-1,-1],"loss_changes":[4.1339947E1,4.002453E1,2.6145428E1,2.4278503E1,5.7651222E1,1.30515E2,2.0996135E2,1.5244701E1,3.083305E0,1.3830798E2,1.159951E2,1.0784997E2,2.909871E1,9.217151E1,3.0400585E1,0E0,0E0,0E0,0E0,0E0,0E0,0E0,0E0,0E0,0E0,0E0,0E0,0E0,0E0,0E0,0E0],"parents":[2147483647,0,0,1,1,2,2,3,3,4,4,5,5,6,6,7,7,8,8,9,9,10,10,11,11,12,12,13,13,14,14],"right_children":[2,4,6,8,10,12,14,16,18,20,22,24,26,28,30,-1,-1,-1,-1,-1,-1,-1,-1,-1,-1,-1,-1,-1,-1,-1,-1],"split_conditions":[7E0,4E0,1.4E1,4E0,1.8E1,1.2E1,1.6E1,2E0,1E0,4E0,4E0,1E1,1.3E1,1.5E1,1.8E1,-1.4079404E-2,-4.694662E-2,9.420767E-3,-6.1843987E-3,2.3966867E-2,-2.6649663E-3,-2.0409344E-2,9.859283E-3,-2.4812864E-2,4.412975E-2,-6.655687E-2,-1.4666158E-1,2.2658441E-2,1.2891896E-1,-4.4472102E-2,-1.052074E-2],"split_indices":[0,1,1,0,1,1,1,0,1,0,0,1,1,1,1,0,0,0,0,0,0,0,0,0,0,0,0,0,0,0,0],"split_type":[0,0,0,0,0,0,0,0,0,0,0,0,0,0,0,0,0,0,0,0,0,0,0,0,0,0,0,0,0,0,0],"sum_hessian":[1.7205E4,1.4128E4,3.077E3,1.158E3,1.297E4,1.415E3,1.662E3,5.66E2,5.92E2,7.893E3,5.077E3,1.182E3,2.33E2,3.32E2,1.33E3,2.87E2,2.79E2,1.82E2,4.1E2,3.515E3,4.378E3,2.402E3,2.675E3,8.77E2,3.05E2,1.7E2,6.3E1,1.88E2,1.44E2,3.62E2,9.68E2],"tree_param":{"num_deleted":"0","num_feature":"2","num_nodes":"31","size_leaf_vector":"1"}},{"base_weights":[-2.6605706E-4,9.828504E-3,-2.0675111E-1,-5.567353E-2,4.3846432E-2,-2.9819584E-1,-7.0217885E-2,-2.6897117E-1,2.0304011E-2,3.7916058E-1,1.2392491E-2,-2.0775601E-1,-8.078028E-2,4.46798E-3,-2.1515679E-2,-4.0888568E-4,-4.6489406E-1,-9.722179E-3,3.3000484E-2,6.641689E-3,8.751717E-2,-4.3233957E-2,4.942368E-3,-1.2957061E-2,-2.8645858E-2],"categories":[],"categories_nodes":[],"categories_segments":[],"categories_sizes":[],"default_left":[0,0,0,0,0,0,0,0,0,0,0,0,0,0,0,0,0,0,0,0,0,0,0,0,0],"id":47,"left_children":[1,3,5,7,9,11,13,15,17,19,21,23,-1,-1,-1,-1,-1,-1,-1,-1,-1,-1,-1,-1,-1],"loss_changes":[3.5865803E1,3.6556774E1,9.992226E0,9.088776E1,1.1388128E2,2.1954784E1,5.3885784E0,1.7089209E3,1.5057352E2,1.4358704E2,1.6261937E2,2.47962E0,0E0,0E0,0E0,0E0,0E0,0E0,0E0,0E0,0E0,0E0,0E0,0E0,0E0],"parents":[2147483647,0,0,1,1,2,2,3,3,4,4,5,5,6,6,7,7,8,8,9,9,10,10,11,11],"right_children":[2,4,6,8,10,12,14,16,18,20,22,24,-1,-1,-1,-1,-1,-1,-1,-1,-1,-1,-1,-1,-1],"split_conditions":[2.3E1,1.1E1,6E0,3E0,1.2E1,5E0,7E0,1E1,9E0,6E0,1.3E1,3E0,-8.078028E-2,4.46798E-3,-2.1515679E-2,-4.0888568E-4,-4.6489406E-1,-9.722179E-3,3.3000484E-2,6.641689E-3,8.751717E-2,-4.3233957E-2,4.942368E-3,-1.2957061E-2,-2.8645858E-2],"split_indices":[1,1,0,0,1,0,0,1,1,0,1,0,0,0,0,0,0,0,0,0,0,0,0,0,0],"split_type":[0,0,0,0,0,0,0,0,0,0,0,0,0,0,0,0,0,0,0,0,0,0,0,0,0],"sum_hessian":[1.7205E4,1.6404E4,8.01E2,5.607E3,1.0797E4,4.79E2,3.22E2,1.472E3,4.135E3,9.25E2,9.872E3,4.08E2,7.1E1,1.8E2,1.42E2,1.389E3,8.3E1,2.998E3,1.137E3,5.68E2,3.57E2,7.58E2,9.114E3,2.06E2,2.02E2],"tree_param":{"num_deleted":"0","num_feature":"2","num_nodes":"25","size_leaf_vector":"1"}},{"base_weights":[-2.6987912E-4,2.1371687E-2,-9.9611476E-2,4.520185E-2,-7.937882E-2,-5.5385973E-2,-2.730991E-1,-3.526222E-2,9.9245995E-2,-1.3649772E-1,1.4243527E-1,-1.9207868E-1,1.3095884E-1,-7.000268E-2,-1.5068421E-1,-2.4239026E-2,6.2537417E-3,3.7956905E-2,6.4171995E-3,-3.0741156E-3,-1.96566E-2,-1.2380395E-2,3.44832E-2,-7.768431E-3,-7.69585E-2,6.1649203E-2,-9.791461E-3,-9.3643805E-3,-1.8592725E-2],"categories":[],"categories_nodes":[],"categories_segments":[],"categories_sizes":[],"default_left":[0,0,0,0,0,0,0,0,0,0,0,0,0,0,0,0,0,0,0,0,0,0,0,0,0,0,0,0,0],"id":48,"left_children":[1,3,5,7,9,11,13,15,17,19,21,23,25,-1,27,-1,-1,-1,-1,-1,-1,-1,-1,-1,-1,-1,-1,-1,-1],"loss_changes":[3.699344E1,3.392592E1,2.3601065E1,4.9695087E1,3.4265846E1,6.2533382E1,3.2558456E1,9.303552E1,6.718755E1,1.3652081E1,2.9895508E1,9.3486084E1,1.1551993E2,0E0,9.615936E-1,0E0,0E0,0E0,0E0,0E0,0E0,0E0,0E0,0E0,0E0,0E0,0E0,0E0,0E0],"parents":[2147483647,0,0,1,1,2,2,3,3,4,4,5,5,6,6,7,7,8,8,9,9,10,10,11,11,12,12,14,14],"right_children":[2,4,6,8,10,12,14,16,18,20,22,24,26,-1,28,-1,-1,-1,-1,-1,-1,-1,-1,-1,-1,-1,-1,-1,-1],"split_conditions":[7E0,2.1E1,2E1,1.1E1,6E0,1.4E1,2.1E1,3E0,1.2E1,2.2E1,2.2E1,1.2E1,1.6E1,-7.000268E-2,2.2E1,-2.4239026E-2,6.2537417E-3,3.7956905E-2,6.4171995E-3,-3.0741156E-3,-1.96566E-2,-1.2380395E-2,3.44832E-2,-7.768431E-3,-7.69585E-2,6.1649203E-2,-9.791461E-3,-9.3643805E-3,-1.8592725E-2],"split_indices":[0,1,1,1,0,1,1,0,1,1,1,1,1,0,1,0,0,0,0,0,0,0,0,0,0,0,0,0,0],"split_type":[0,0,0,0,0,0,0,0,0,0,0,0,0,0,0,0,0,0,0,0,0,0,0,0,0,0,0,0,0],"sum_hessian":[1.7205E4,1.4128E4,3.077E3,1.1426E4,2.702E3,2.453E3,6.24E2,4.591E3,6.835E3,2.149E3,5.53E2,1.415E3,1.038E3,1.38E2,4.86E2,1.472E3,3.119E3,7.59E2,6.076E3,7.79E2,1.37E3,2.39E2,3.14E2,1.182E3,2.33E2,3.32E2,7.06E2,1.87E2,2.99E2],"tree_param":{"num_deleted":"0","num_feature":"2","num_nodes":"29","size_leaf_vector":"1"}},{"base_weights":[-2.4887527E-4,1.923647E-2,-8.9692734E-2,5.280342E-2,-4.0603478E-2,-4.9860645E-2,-2.4594595E-1,-1.3617505E-3,2.2796682E-1,-1.8211678E-1,8.64881E-2,-1.7293058E-1,1.1791308E-1,-6.305278E-2,-1.356732E-1,-5.0596828E-3,1.7371882E-2,4.9256936E-2,-5.3317852E-2,-3.0061975E-2,-1.1835423E-2,2.4251476E-2,-4.6799555E-3,-1.2179083E-2,-1.2513553E-1,5.5502784E-2,-8.813662E-3,-8.432942E-3,-1.6739639E-2],"categories":[],"categories_nodes":[],"categories_segments":[],"categories_sizes":[],"default_left":[0,0,0,0,0,0,0,0,0,0,0,0,0,0,0,0,0,0,0,0,0,0,0,0,0,0,0,0,0],"id":49,"left_children":[1,3,5,7,9,11,13,15,17,19,21,23,25,-1,27,-1,-1,-1,-1,-1,-1,-1,-1,-1,-1,-1,-1,-1,-1],"loss_changes":[2.9989107E1,2.8382282E1,1.9144873E1,8.588348E1,9.134433E1,5.0690346E1,2.6420013E1,5.961681E1,4.308579E2,1.8121613E1,5.5662582E1,7.794052E1,9.3628914E1,0E0,7.791033E-1,0E0,0E0,0E0,0E0,0E0,0E0,0E0,0E0,0E0,0E0,0E0,0E0,0E0,0E0],"parents":[2147483647,0,0,1,1,2,2,3,3,4,4,5,5,6,6,7,7,8,8,9,9,10,10,11,11,12,12,14,14],"right_children":[2,4,6,8,10,12,14,16,18,20,22,24,26,-1,28,-1,-1,-1,-1,-1,-1,-1,-1,-1,-1,-1,-1,-1,-1],"split_conditions":[7E0,1.8E1,2E1,1.5E1,4E0,1.4E1,2.1E1,6E0,6E0,2E0,2.1E1,1.3E1,1.6E1,-6.305278E-2,2.2E1,-5.0596828E-3,1.7371882E-2,4.9256936E-2,-5.3317852E-2,-3.0061975E-2,-1.1835423E-2,2.4251476E-2,-4.6799555E-3,-1.2179083E-2,-1.2513553E-1,5.5502784E-2,-8.813662E-3,-8.432942E-3,-1.6739639E-2],"split_indices":[0,1,1,1,0,1,1,0,0,0,1,1,1,0,1,0,0,0,0,0,0,0,0,0,0,0,0,0,0],"split_type":[0,0,0,0,0,0,0,0,0,0,0,0,0,0,0,0,0,0,0,0,0,0,0,0,0,0,0,0,0],"sum_hessian":[1.7205E4,1.4128E4,3.077E3,9.051E3,5.077E3,2.453E3,6.24E2,6.914E3,2.137E3,2.402E3,2.675E3,1.415E3,1.038E3,1.38E2,4.86E2,5.397E3,1.517E3,1.586E3,5.51E2,8.39E2,1.563E3,1.232E3,1.443E3,1.352E3,6.3E1,3.32E2,7.06E2,1.87E2,2.99E2],"tree_param":{"num_deleted":"0","num_feature":"2","num_nodes":"29","size_leaf_vector":"1"}}]},"name":"gbtree"},"learner_model_param":{"base_score":"[1.3882941E1]","boost_from_average":"1","num_class":"0","num_feature":"2","num_target":"1"},"objective":{"name":"reg:squarederror","reg_loss_param":{"scale_pos_weight":"1"}}},"version":[3,2,0]}