{"learner":{"attributes":{},"feature_names":["day_of_week","hour_of_day"],"feature_types":[],"gradient_booster":{"model":{"cats":{"enc":[],"feature_segments":[],"sorted_idx":[]},"gbtree_model_param":{"num_parallel_tree":"1","num_trees":"50"},"iteration_indptr":[0,1,2,3,4,5,6,7,8,9,10,11,12,13,14,15,16,17,18,19,20,21,22,23,24,25,26,27,28,29,30,31,32,33,34,35,36,37,38,39,40,41,42,43,44,45,46,47,48,49,50],"tree_info":[0,0,0,0,0,0,0,0,0,0,0,0,0,0,0,0,0,0,0,0,0,0,0,0,0,0,0,0,0,0,0,0,0,0,0,0,0,0,0,0,0,0,0,0,0,0,0,0,0,0],"trees":[{"base_weights":[-3.6845111E-9,-1.0591586E1,1.1308594E0,-1.1594323E1,-8.860626E0,3.3560336E0,-3.8904176E0,-1.1912901E1,-2.7591857E-1,-7.743843E0,-9.234708E-1,-1.7110382E0,3.9882822E0,-1.8322704E0,-7.553277E0,-1.2132357E0,-1.0561465E0,-9.7154564E-1,-7.0029837E-1,1.6439645E-1,-6.888136E-1,4.4201785E-1,2.003498E-1,-4.4155103E-1,-3.269187E-2,-1.0698258E0,-5.539154E-1],"categories":[],"categories_nodes":[],"categories_segments":[],"categories_sizes":[],"default_left":[0,0,0,0,0,0,0,0,0,0,0,0,0,0,0,0,0,0,0,0,0,0,0,0,0,0,0],"id":0,"left_children":[1,3,5,7,9,11,13,15,-1,17,-1,19,21,23,25,-1,-1,-1,-1,-1,-1,-1,-1,-1,-1,-1,-1],"loss_changes":[1.116192E5,1.4576562E3,9.409153E4,1.5602422E3,6.802344E1,1.8700117E4,1.948125E4,3.3796875E1,0E0,6.3424805E1,0E0,1.1266552E4,4.4383984E3,6.442107E3,5.831715E3,0E0,0E0,0E0,0E0,0E0,0E0,0E0,0E0,0E0,0E0,0E0,0E0],"parents":[2147483647,0,0,1,1,2,2,3,3,4,4,5,5,6,6,7,7,9,9,11,11,12,12,13,13,14,14],"right_children":[2,4,6,8,10,12,14,16,-1,18,-1,20,22,24,26,-1,-1,-1,-1,-1,-1,-1,-1,-1,-1,-1,-1],"split_conditions":[4E0,6E0,1.9E1,3E0,1E0,6E0,2.2E1,5E0,-2.7591857E-1,7E0,-9.234708E-1,5E0,7E0,4E0,4E0,-1.2132357E0,-1.0561465E0,-9.7154564E-1,-7.0029837E-1,1.6439645E-1,-6.888136E-1,4.4201785E-1,2.003498E-1,-4.4155103E-1,-3.269187E-2,-1.0698258E0,-5.539154E-1],"split_indices":[1,0,1,1,1,1,1,0,0,0,0,0,0,0,0,0,0,0,0,0,0,0,0,0,0,0,0],"split_type":[0,0,0,0,0,0,0,0,0,0,0,0,0,0,0,0,0,0,0,0,0,0,0,0,0,0,0],"sum_hessian":[9.317E3,8.98E2,8.419E3,5.65E2,3.33E2,5.834E3,2.585E3,5.45E2,2E1,8.9E1,2.44E2,6.47E2,5.187E3,1.656E3,9.29E2,4.62E2,8.3E1,2.1E1,6.8E1,3.93E2,2.54E2,4.259E3,9.28E2,6.09E2,1.047E3,3.61E2,5.68E2],"tree_param":{"num_deleted":"0","num_feature":"2","num_nodes":"27","size_leaf_vector":"1"}},{"base_weights":[-7.639222E-4,-9.538146E0,1.0175385E0,-1.0439387E1,-7.9823346E0,2.7722614E0,-4.1818743E0,-1.0725767E1,-2.4964057E-1,-6.988035E0,-8.3150065E-1,-8.1156653E-1,3.36861E0,-2.1427813E0,-6.7996955E0,-1.092174E0,-9.517891E-1,-8.7880725E-1,-6.3128346E-1,2.3321012E-1,-4.9204355E-1,3.9656407E-1,6.322345E-2,-4.5846245E-1,-5.6120068E-2,-9.631387E-1,-4.986212E-1],"categories":[],"categories_nodes":[],"categories_segments":[],"categories_sizes":[],"default_left":[0,0,0,0,0,0,0,0,0,0,0,0,0,0,0,0,0,0,0,0,0,0,0,0,0,0,0],"id":1,"left_children":[1,3,5,7,9,11,13,15,-1,17,-1,19,21,23,25,-1,-1,-1,-1,-1,-1,-1,-1,-1,-1,-1,-1],"loss_changes":[9.050556E4,1.1772031E3,7.68317E4,1.260707E3,5.2373047E1,1.3458609E4,1.1328645E4,2.5296875E1,0E0,5.3907227E1,0E0,1.1623784E4,8.816199E3,4.616344E3,4.7277344E3,0E0,0E0,0E0,0E0,0E0,0E0,0E0,0E0,0E0,0E0,0E0,0E0],"parents":[2147483647,0,0,1,1,2,2,3,3,4,4,5,5,6,6,7,7,9,9,11,11,12,12,13,13,14,14],"right_children":[2,4,6,8,10,12,14,16,-1,18,-1,20,22,24,26,-1,-1,-1,-1,-1,-1,-1,-1,-1,-1,-1,-1],"split_conditions":[4E0,6E0,2E1,3E0,1E0,7E0,2.2E1,5E0,-2.4964057E-1,7E0,-8.3150065E-1,5E0,1.8E1,4E0,4E0,-1.092174E0,-9.517891E-1,-8.7880725E-1,-6.3128346E-1,2.3321012E-1,-4.9204355E-1,3.9656407E-1,6.322345E-2,-4.5846245E-1,-5.6120068E-2,-9.631387E-1,-4.986212E-1],"split_indices":[1,0,1,1,1,1,1,0,0,0,0,0,1,0,0,0,0,0,0,0,0,0,0,0,0,0,0],"split_type":[0,0,0,0,0,0,0,0,0,0,0,0,0,0,0,0,0,0,0,0,0,0,0,0,0,0,0],"sum_hessian":[9.317E3,8.98E2,8.419E3,5.65E2,3.33E2,6.295E3,2.124E3,5.45E2,2E1,8.9E1,2.44E2,8.98E2,5.397E3,1.195E3,9.29E2,4.62E2,8.3E1,2.1E1,6.8E1,5.09E2,3.89E2,4.43E3,9.67E2,4.69E2,7.26E2,3.61E2,5.68E2],"tree_param":{"num_deleted":"0","num_feature":"2","num_nodes":"27","size_leaf_vector":"1"}},{"base_weights":[-1.3758113E-3,-8.589487E0,9.1557354E-1,-9.399502E0,-7.1911116E0,2.7263513E0,-3.1705837E0,-9.656935E0,-2.2586529E-1,-6.3060102E0,-7.4868995E-1,-1.4893126E0,3.2523773E0,-1.5125666E0,-6.121298E0,-9.831926E-1,-8.5774326E-1,-7.949211E-1,-5.6907E-1,1.2473669E-1,-5.711911E-1,3.6445808E-1,1.4503974E-1,-3.6367032E-1,-2.7474616E-2,-8.670909E-1,-4.4884673E-1],"categories":[],"categories_nodes":[],"categories_segments":[],"categories_sizes":[],"default_left":[0,0,0,0,0,0,0,0,0,0,0,0,0,0,0,0,0,0,0,0,0,0,0,0,0,0,0],"id":2,"left_children":[1,3,5,7,9,11,13,15,-1,17,-1,19,21,23,25,-1,-1,-1,-1,-1,-1,-1,-1,-1,-1,-1,-1],"loss_changes":[7.3385836E4,9.5071875E2,6.2309258E4,1.01866016E3,4.0228516E1,1.2944242E4,1.264232E4,1.8804688E1,0E0,4.5760498E1,0E0,7.4953457E3,3.6612969E3,4.35575E3,3.832746E3,0E0,0E0,0E0,0E0,0E0,0E0,0E0,0E0,0E0,0E0,0E0,0E0],"parents":[2147483647,0,0,1,1,2,2,3,3,4,4,5,5,6,6,7,7,9,9,11,11,12,12,13,13,14,14],"right_children":[2,4,6,8,10,12,14,16,-1,18,-1,20,22,24,26,-1,-1,-1,-1,-1,-1,-1,-1,-1,-1,-1,-1],"split_conditions":[4E0,6E0,1.9E1,3E0,1E0,6E0,2.2E1,5E0,-2.2586529E-1,7E0,-7.4868995E-1,5E0,7E0,4E0,4E0,-9.831926E-1,-8.5774326E-1,-7.949211E-1,-5.6907E-1,1.2473669E-1,-5.711911E-1,3.6445808E-1,1.4503974E-1,-3.6367032E-1,-2.7474616E-2,-8.670909E-1,-4.4884673E-1],"split_indices":[1,0,1,1,1,1,1,0,0,0,0,0,0,0,0,0,0,0,0,0,0,0,0,0,0,0,0],"split_type":[0,0,0,0,0,0,0,0,0,0,0,0,0,0,0,0,0,0,0,0,0,0,0,0,0,0,0],"sum_hessian":[9.317E3,8.98E2,8.419E3,5.65E2,3.33E2,5.834E3,2.585E3,5.45E2,2E1,8.9E1,2.44E2,6.47E2,5.187E3,1.656E3,9.29E2,4.62E2,8.3E1,2.1E1,6.8E1,3.93E2,2.54E2,4.259E3,9.28E2,6.09E2,1.047E3,3.61E2,5.68E2],"tree_param":{"num_deleted":"0","num_feature":"2","num_nodes":"27","size_leaf_vector":"1"}},{"base_weights":[-1.8632059E-3,-7.735188E0,8.2382095E-1,-8.463203E0,-6.478326E0,2.2518919E0,-3.4076886E0,-8.6946125E0,-2.0435429E-1,-5.6905646E0,-6.7412653E0,-1.3410705E0,2.6636438E0,-1.7696458E0,-5.510583E0,-8.850857E-1,-7.729901E-1,-7.190423E-1,-5.1298773E-1,-6.1381197E-1,-7.0578116E-1,1.12294674E-1,-5.14296E-1,3.1196156E-1,4.5545872E-2,-3.7642404E-1,-4.7772124E-2,-7.806213E-1,-4.040409E-1],"categories":[],"categories_nodes":[],"categories_segments":[],"categories_sizes":[],"default_left":[0,0,0,0,0,0,0,0,0,0,0,0,0,0,0,0,0,0,0,0,0,0,0,0,0,0,0,0,0],"id":3,"left_children":[1,3,5,7,9,11,13,15,-1,17,19,21,23,25,27,-1,-1,-1,-1,-1,-1,-1,-1,-1,-1,-1,-1,-1,-1],"loss_changes":[5.9504445E4,7.677656E2,5.0888855E4,8.230703E2,3.082129E1,9.3179375E3,7.31009E3,1.3878906E1,0E0,3.879956E1,3.4550781E0,6.076188E3,5.6863867E3,3.080133E3,3.1071875E3,0E0,0E0,0E0,0E0,0E0,0E0,0E0,0E0,0E0,0E0,0E0,0E0,0E0,0E0],"parents":[2147483647,0,0,1,1,2,2,3,3,4,4,5,5,6,6,7,7,9,9,10,10,11,11,12,12,13,13,14,14],"right_children":[2,4,6,8,10,12,14,16,-1,18,20,22,24,26,28,-1,-1,-1,-1,-1,-1,-1,-1,-1,-1,-1,-1,-1,-1],"split_conditions":[4E0,6E0,2E1,3E0,1E0,6E0,2.2E1,5E0,-2.0435429E-1,7E0,7E0,5E0,1.8E1,4E0,4E0,-8.850857E-1,-7.729901E-1,-7.190423E-1,-5.1298773E-1,-6.1381197E-1,-7.0578116E-1,1.12294674E-1,-5.14296E-1,3.1196156E-1,4.5545872E-2,-3.7642404E-1,-4.7772124E-2,-7.806213E-1,-4.040409E-1],"split_indices":[1,0,1,1,1,1,1,0,0,0,0,0,1,0,0,0,0,0,0,0,0,0,0,0,0,0,0,0,0],"split_type":[0,0,0,0,0,0,0,0,0,0,0,0,0,0,0,0,0,0,0,0,0,0,0,0,0,0,0,0,0],"sum_hessian":[9.317E3,8.98E2,8.419E3,5.65E2,3.33E2,6.295E3,2.124E3,5.45E2,2E1,8.9E1,2.44E2,6.47E2,5.648E3,1.195E3,9.29E2,4.62E2,8.3E1,2.1E1,6.8E1,9.1E1,1.53E2,3.93E2,2.54E2,4.681E3,9.67E2,4.69E2,7.26E2,3.61E2,5.68E2],"tree_param":{"num_deleted":"0","num_feature":"2","num_nodes":"29","size_leaf_vector":"1"}},{"base_weights":[-2.3277432E-3,-6.966579E0,7.412428E-1,-7.620173E0,-5.838133E0,2.2143376E0,-2.582906E0,-7.828188E0,-1.8489198E-1,-5.135197E0,-6.0725255E0,-3.0911304E-3,2.998231E0,-1.2467428E0,-4.960798E0,-7.967683E-1,-6.9661134E-1,-6.504064E-1,-4.6243238E-1,-5.53098E-1,-6.3566136E-1,2.3205547E-1,-2.7522358E-1,3.250447E-1,1.0994544E-1,-2.9946676E-1,-2.2815434E-2,-6.514205E-1,-3.1471926E-1],"categories":[],"categories_nodes":[],"categories_segments":[],"categories_sizes":[],"default_left":[0,0,0,0,0,0,0,0,0,0,0,0,0,0,0,0,0,0,0,0,0,0,0,0,0,0,0,0,0],"id":4,"left_children":[1,3,5,7,9,11,13,15,-1,17,19,21,23,25,27,-1,-1,-1,-1,-1,-1,-1,-1,-1,-1,-1,-1,-1,-1],"loss_changes":[4.8257605E4,6.185703E2,4.123666E4,6.650117E2,2.3847656E1,1.0142568E4,8.210189E3,1.015625E1,0E0,3.2861572E1,2.5332031E0,9.7481455E3,2.0609727E3,2.9494668E3,2.5995547E3,0E0,0E0,0E0,0E0,0E0,0E0,0E0,0E0,0E0,0E0,0E0,0E0,0E0,0E0],"parents":[2147483647,0,0,1,1,2,2,3,3,4,4,5,5,6,6,7,7,9,9,10,10,11,11,12,12,13,13,14,14],"right_children":[2,4,6,8,10,12,14,16,-1,18,20,22,24,26,28,-1,-1,-1,-1,-1,-1,-1,-1,-1,-1,-1,-1,-1,-1],"split_conditions":[4E0,6E0,1.9E1,3E0,1E0,9E0,2.2E1,5E0,-1.8489198E-1,7E0,7E0,5E0,1.8E1,4E0,5E0,-7.967683E-1,-6.9661134E-1,-6.504064E-1,-4.6243238E-1,-5.53098E-1,-6.3566136E-1,2.3205547E-1,-2.7522358E-1,3.250447E-1,1.0994544E-1,-2.9946676E-1,-2.2815434E-2,-6.514205E-1,-3.1471926E-1],"split_indices":[1,0,1,1,1,1,1,0,0,0,0,0,1,0,0,0,0,0,0,0,0,0,0,0,0,0,0,0,0],"split_type":[0,0,0,0,0,0,0,0,0,0,0,0,0,0,0,0,0,0,0,0,0,0,0,0,0,0,0,0,0],"sum_hessian":[9.317E3,8.98E2,8.419E3,5.65E2,3.33E2,5.834E3,2.585E3,5.45E2,2E1,8.9E1,2.44E2,1.524E3,4.31E3,1.656E3,9.29E2,4.62E2,8.3E1,2.1E1,6.8E1,9.1E1,1.53E2,8.26E2,6.98E2,3.804E3,5.06E2,6.09E2,1.047E3,4.99E2,4.3E2],"tree_param":{"num_deleted":"0","num_feature":"2","num_nodes":"29","size_leaf_vector":"1"}},{"base_weights":[-2.6183575E-3,-6.274348E0,6.67012E-1,-6.8611207E0,-5.261211E0,1.8293601E0,-2.7771344E0,-7.0481043E0,-1.6728325E-1,-4.634042E0,-5.470125E0,-7.2389853E-1,2.254249E0,-1.461753E0,-4.465757E0,-7.172636E-1,-6.277795E-1,-5.883221E-1,-4.168593E-1,-4.9838945E-1,-5.7250804E-1,1.1491211E-1,-4.7631374E-1,2.6580858E-1,4.0336605E-2,-3.5844594E-1,-6.1790027E-2,-6.378127E-1,-3.2412514E-1],"categories":[],"categories_nodes":[],"categories_segments":[],"categories_sizes":[],"default_left":[0,0,0,0,0,0,0,0,0,0,0,0,0,0,0,0,0,0,0,0,0,0,0,0,0,0,0,0,0],"id":5,"left_children":[1,3,5,7,9,11,13,15,-1,17,19,21,23,25,27,-1,-1,-1,-1,-1,-1,-1,-1,-1,-1,-1,-1,-1,-1],"loss_changes":[3.913737E4,4.9833984E2,3.3712844E4,5.373008E2,1.8413086E1,6.8318555E3,4.7134844E3,7.3476562E0,0E0,2.780371E1,1.8393555E0,6.8069243E3,4.0336875E3,2.140122E3,2.1571133E3,0E0,0E0,0E0,0E0,0E0,0E0,0E0,0E0,0E0,0E0,0E0,0E0,0E0,0E0],"parents":[2147483647,0,0,1,1,2,2,3,3,4,4,5,5,6,6,7,7,9,9,10,10,11,11,12,12,13,13,14,14],"right_children":[2,4,6,8,10,12,14,16,-1,18,20,22,24,26,28,-1,-1,-1,-1,-1,-1,-1,-1,-1,-1,-1,-1,-1,-1],"split_conditions":[4E0,6E0,2E1,3E0,1E0,7E0,2.2E1,5E0,-1.6728325E-1,7E0,7E0,6E0,1.8E1,3E0,4E0,-7.172636E-1,-6.277795E-1,-5.883221E-1,-4.168593E-1,-4.9838945E-1,-5.7250804E-1,1.1491211E-1,-4.7631374E-1,2.6580858E-1,4.0336605E-2,-3.5844594E-1,-6.1790027E-2,-6.378127E-1,-3.2412514E-1],"split_indices":[1,0,1,1,1,1,1,0,0,0,0,0,1,0,0,0,0,0,0,0,0,0,0,0,0,0,0,0,0],"split_type":[0,0,0,0,0,0,0,0,0,0,0,0,0,0,0,0,0,0,0,0,0,0,0,0,0,0,0,0,0],"sum_hessian":[9.317E3,8.98E2,8.419E3,5.65E2,3.33E2,6.295E3,2.124E3,5.45E2,2E1,8.9E1,2.44E2,8.98E2,5.397E3,1.195E3,9.29E2,4.62E2,8.3E1,2.1E1,6.8E1,9.1E1,1.53E2,6.14E2,2.84E2,4.43E3,9.67E2,3.39E2,8.56E2,3.61E2,5.68E2],"tree_param":{"num_deleted":"0","num_feature":"2","num_nodes":"29","size_leaf_vector":"1"}},{"base_weights":[-2.8959962E-3,-5.650905E0,6.0014E-1,-6.177681E0,-4.741306E0,1.4707166E0,-3.1725547E0,-6.3457575E0,-1.5135153E-1,-4.181806E0,-4.9274836E0,1.8767416E0,-3.8333988E-1,-5.2463794E0,-1.9665638E0,-6.4569217E-1,-5.6574893E-1,-5.3216416E-1,-3.7577745E-1,-4.4909224E-1,-5.15629E-1,2.3674515E-1,1.9166512E-2,-5.761436E-1,7.359336E-2,-4.4030523E-1,-5.7420766E-1,-8.2641445E-2,-5.8676666E-1],"categories":[],"categories_nodes":[],"categories_segments":[],"categories_sizes":[],"default_left":[0,0,0,0,0,0,0,0,0,0,0,0,0,0,0,0,0,0,0,0,0,0,0,0,0,0,0,0,0],"id":6,"left_children":[1,3,5,7,9,11,13,15,-1,17,19,21,23,25,27,-1,-1,-1,-1,-1,-1,-1,-1,-1,-1,-1,-1,-1,-1],"loss_changes":[3.1740059E4,4.0146875E2,2.7659479E4,4.3410547E2,1.4185547E1,5.151332E3,3.9387842E3,5.2460938E0,0E0,2.3501953E1,1.3164062E0,4.640842E3,7.408299E3,2.1717578E2,4.4429917E3,0E0,0E0,0E0,0E0,0E0,0E0,0E0,0E0,0E0,0E0,0E0,0E0,0E0,0E0],"parents":[2147483647,0,0,1,1,2,2,3,3,4,4,5,5,6,6,7,7,9,9,10,10,11,11,12,12,13,13,14,14],"right_children":[2,4,6,8,10,12,14,16,-1,18,20,22,24,26,28,-1,-1,-1,-1,-1,-1,-1,-1,-1,-1,-1,-1,-1,-1],"split_conditions":[4E0,6E0,2.1E1,3E0,1E0,7E0,4E0,5E0,-1.5135153E-1,7E0,7E0,1.8E1,8E0,2.2E1,7E0,-6.4569217E-1,-5.6574893E-1,-5.3216416E-1,-3.7577745E-1,-4.4909224E-1,-5.15629E-1,2.3674515E-1,1.9166512E-2,-5.761436E-1,7.359336E-2,-4.4030523E-1,-5.7420766E-1,-8.2641445E-2,-5.8676666E-1],"split_indices":[1,0,1,1,1,0,0,0,0,0,0,1,1,1,0,0,0,0,0,0,0,0,0,0,0,0,0,0,0],"split_type":[0,0,0,0,0,0,0,0,0,0,0,0,0,0,0,0,0,0,0,0,0,0,0,0,0,0,0,0,0],"sum_hessian":[9.317E3,8.98E2,8.419E3,5.65E2,3.33E2,6.841E3,1.578E3,5.45E2,2E1,8.9E1,2.44E2,5.612E3,1.229E3,5.79E2,9.99E2,4.62E2,8.3E1,2.1E1,6.8E1,9.1E1,1.53E2,4.346E3,1.266E3,2.11E2,1.018E3,2.18E2,3.61E2,7.74E2,2.25E2],"tree_param":{"num_deleted":"0","num_feature":"2","num_nodes":"29","size_leaf_vector":"1"}},{"base_weights":[-3.1610993E-3,-5.089413E0,5.3989637E-1,-5.5623207E0,-4.272782E0,1.6312498E0,-1.9228209E0,-5.7134004E0,-1.3693707E-1,-3.7737138E0,-4.4386735E0,-1.9124962E-1,2.2755737E0,-9.3837786E-1,-3.6747556E0,-5.8126235E-1,-5.098475E-1,-4.813666E-1,-3.3874434E-1,-4.046712E-1,-4.6440098E-1,1.6797069E-1,-2.4045396E-1,2.5244492E-1,1.20813765E-1,-2.3475094E-1,-1.1728184E-2,-4.8767406E-1,-2.2718151E-1],"categories":[],"categories_nodes":[],"categories_segments":[],"categories_sizes":[],"default_left":[0,0,0,0,0,0,0,0,0,0,0,0,0,0,0,0,0,0,0,0,0,0,0,0,0,0,0,0,0],"id":7,"left_children":[1,3,5,7,9,11,13,15,-1,17,19,21,23,25,27,-1,-1,-1,-1,-1,-1,-1,-1,-1,-1,-1,-1,-1,-1],"loss_changes":[2.574025E4,3.2341992E2,2.2633525E4,3.5071875E2,1.0901367E1,6.8523584E3,4.456574E3,3.6796875E0,0E0,1.984729E1,9.2578125E-1,6.319017E3,1.1422051E3,1.9169274E3,1.5571924E3,0E0,0E0,0E0,0E0,0E0,0E0,0E0,0E0,0E0,0E0,0E0,0E0,0E0,0E0],"parents":[2147483647,0,0,1,1,2,2,3,3,4,4,5,5,6,6,7,7,9,9,10,10,11,11,12,12,13,13,14,14],"right_children":[2,4,6,8,10,12,14,16,-1,18,20,22,24,26,28,-1,-1,-1,-1,-1,-1,-1,-1,-1,-1,-1,-1,-1,-1],"split_conditions":[4E0,6E0,1.9E1,3E0,1E0,9E0,2.2E1,5E0,-1.3693707E-1,7E0,7E0,5E0,7E0,4E0,5E0,-5.8126235E-1,-5.098475E-1,-4.813666E-1,-3.3874434E-1,-4.046712E-1,-4.6440098E-1,1.6797069E-1,-2.4045396E-1,2.5244492E-1,1.20813765E-1,-2.3475094E-1,-1.1728184E-2,-4.8767406E-1,-2.2718151E-1],"split_indices":[1,0,1,1,1,1,1,0,0,0,0,0,0,0,0,0,0,0,0,0,0,0,0,0,0,0,0,0,0],"split_type":[0,0,0,0,0,0,0,0,0,0,0,0,0,0,0,0,0,0,0,0,0,0,0,0,0,0,0,0,0],"sum_hessian":[9.317E3,8.98E2,8.419E3,5.65E2,3.33E2,5.834E3,2.585E3,5.45E2,2E1,8.9E1,2.44E2,1.524E3,4.31E3,1.656E3,9.29E2,4.62E2,8.3E1,2.1E1,6.8E1,9.1E1,1.53E2,8.26E2,6.98E2,3.494E3,8.16E2,6.09E2,1.047E3,4.99E2,4.3E2],"tree_param":{"num_deleted":"0","num_feature":"2","num_nodes":"29","size_leaf_vector":"1"}},{"base_weights":[-3.2290546E-3,-4.583717E0,4.858282E-1,-5.0082583E0,-3.8505611E0,1.1990072E0,-2.6047711E0,-5.144059E0,-1.2389543E-1,-3.405455E0,-3.9983528E0,-1.272207E0,1.4573038E0,-4.331722E0,-1.6005349E0,-5.232617E-1,-4.594697E-1,-4.3541804E-1,-3.0536085E-1,-4.116229E-1,-3.3989266E-1,2.6116109E-2,-3.6364222E-1,1.9312432E-1,-9.302012E-4,-3.7310794E-1,-4.683128E-1,-5.6484997E-2,-5.145027E-1],"categories":[],"categories_nodes":[],"categories_segments":[],"categories_sizes":[],"default_left":[0,0,0,0,0,0,0,0,0,0,0,0,0,0,0,0,0,0,0,0,0,0,0,0,0,0,0,0,0],"id":8,"left_children":[1,3,5,7,9,11,13,15,-1,17,19,21,23,25,27,-1,-1,-1,-1,-1,-1,-1,-1,-1,-1,-1,-1,-1,-1],"loss_changes":[2.0875672E4,2.6053516E2,1.8562068E4,2.8334668E2,8.355469E0,4.3691455E3,2.7314746E3,2.5214844E0,0E0,1.6746582E1,3.3205566E0,2.350087E3,4.306052E3,1.0494629E2,3.6680713E3,0E0,0E0,0E0,0E0,0E0,0E0,0E0,0E0,0E0,0E0,0E0,0E0,0E0,0E0],"parents":[2147483647,0,0,1,1,2,2,3,3,4,4,5,5,6,6,7,7,9,9,10,10,11,11,12,12,13,13,14,14],"right_children":[2,4,6,8,10,12,14,16,-1,18,20,22,24,26,28,-1,-1,-1,-1,-1,-1,-1,-1,-1,-1,-1,-1,-1,-1],"split_conditions":[4E0,6E0,2.1E1,3E0,1E0,6E0,4E0,5E0,-1.2389543E-1,7E0,3E0,5E0,1.8E1,2.2E1,7E0,-5.232617E-1,-4.594697E-1,-4.3541804E-1,-3.0536085E-1,-4.116229E-1,-3.3989266E-1,2.6116109E-2,-3.6364222E-1,1.9312432E-1,-9.302012E-4,-3.7310794E-1,-4.683128E-1,-5.6484997E-2,-5.145027E-1],"split_indices":[1,0,1,1,1,1,0,0,0,0,1,0,1,1,0,0,0,0,0,0,0,0,0,0,0,0,0,0,0],"split_type":[0,0,0,0,0,0,0,0,0,0,0,0,0,0,0,0,0,0,0,0,0,0,0,0,0,0,0,0,0],"sum_hessian":[9.317E3,8.98E2,8.419E3,5.65E2,3.33E2,6.841E3,1.578E3,5.45E2,2E1,8.9E1,2.44E2,6.47E2,6.194E3,5.79E2,9.99E2,4.62E2,8.3E1,2.1E1,6.8E1,1.99E2,4.5E1,3.93E2,2.54E2,4.681E3,1.513E3,2.18E2,3.61E2,7.74E2,2.25E2],"tree_param":{"num_deleted":"0","num_feature":"2","num_nodes":"29","size_leaf_vector":"1"}},{"base_weights":[-3.352526E-3,-4.1282363E0,4.3706006E-1,-4.509388E0,-3.4699728E0,1.3273972E0,-1.5720484E0,-4.631453E0,-1.1209585E-1,-3.0731404E0,-3.601585E0,4.575221E-2,2.0225835E0,-7.549142E-1,-3.026263E0,-4.7104856E-1,-4.140697E-1,-3.938554E-1,-2.7526733E-1,-3.258782E-1,-3.7829894E-1,7.555499E-2,-3.6759704E-1,2.2282104E-1,6.895234E-2,-2.2820745E-1,-1.714189E-2,-4.0363303E-1,-1.8474697E-1],"categories":[],"categories_nodes":[],"categories_segments":[],"categories_sizes":[],"default_left":[0,0,0,0,0,0,0,0,0,0,0,0,0,0,0,0,0,0,0,0,0,0,0,0,0,0,0,0,0],"id":9,"left_children":[1,3,5,7,9,11,13,15,-1,17,19,21,23,25,27,-1,-1,-1,-1,-1,-1,-1,-1,-1,-1,-1,-1,-1,-1],"loss_changes":[1.6929354E4,2.0991016E2,1.5063649E4,2.2891113E2,6.3759766E0,5.198788E3,3.070629E3,1.6738281E0,0E0,1.4118835E1,2.9077148E0,5.4261265E3,1.0354316E3,1.4761464E3,1.0998564E3,0E0,0E0,0E0,0E0,0E0,0E0,0E0,0E0,0E0,0E0,0E0,0E0,0E0,0E0],"parents":[2147483647,0,0,1,1,2,2,3,3,4,4,5,5,6,6,7,7,9,9,10,10,11,11,12,12,13,13,14,14],"right_children":[2,4,6,8,10,12,14,16,-1,18,20,22,24,26,28,-1,-1,-1,-1,-1,-1,-1,-1,-1,-1,-1,-1,-1,-1],"split_conditions":[4E0,6E0,1.9E1,3E0,1E0,1E1,2.2E1,5E0,-1.1209585E-1,7E0,7E0,7E0,1.8E1,3E0,5E0,-4.7104856E-1,-4.140697E-1,-3.938554E-1,-2.7526733E-1,-3.258782E-1,-3.7829894E-1,7.555499E-2,-3.6759704E-1,2.2282104E-1,6.895234E-2,-2.2820745E-1,-1.714189E-2,-4.0363303E-1,-1.8474697E-1],"split_indices":[1,0,1,1,1,1,1,0,0,0,0,0,1,0,0,0,0,0,0,0,0,0,0,0,0,0,0,0,0],"split_type":[0,0,0,0,0,0,0,0,0,0,0,0,0,0,0,0,0,0,0,0,0,0,0,0,0,0,0,0,0],"sum_hessian":[9.317E3,8.98E2,8.419E3,5.65E2,3.33E2,5.834E3,2.585E3,5.45E2,2E1,8.9E1,2.44E2,2.052E3,3.782E3,1.656E3,9.29E2,4.62E2,8.3E1,2.1E1,6.8E1,9.1E1,1.53E2,1.724E3,3.28E2,3.276E3,5.06E2,4.57E2,1.199E3,4.99E2,4.3E2],"tree_param":{"num_deleted":"0","num_feature":"2","num_nodes":"29","size_leaf_vector":"1"}},{"base_weights":[-3.3609525E-3,-3.7180495E0,3.9325526E-1,-4.060211E0,-3.1270874E0,9.770732E-1,-2.1367483E0,-4.169929E0,-1.01420045E-1,-2.7732608E0,-3.2443008E0,1.300406E0,-4.992225E-1,-3.578283E0,-1.2985215E0,-3.8831434E-1,-4.2958513E-1,-3.5626006E-1,-2.481395E-1,-3.347556E-1,-2.7248377E-1,1.621839E-1,1.9656276E-2,-4.4572648E-1,3.2472666E-2,-4.008844E-1,-3.2712448E-1,-3.5826687E-2,-4.5171005E-1],"categories":[],"categories_nodes":[],"categories_segments":[],"categories_sizes":[],"default_left":[0,0,0,0,0,0,0,0,0,0,0,0,0,0,0,0,0,0,0,0,0,0,0,0,0,0,0,0,0],"id":10,"left_children":[1,3,5,7,9,11,13,15,-1,17,19,21,23,25,27,-1,-1,-1,-1,-1,-1,-1,-1,-1,-1,-1,-1,-1,-1],"loss_changes":[1.3729725E4,1.6908496E2,1.2438946E4,1.8492969E2,4.8547363E0,3.2665732E3,1.9033115E3,3.0351562E0,0E0,1.1894165E1,4.0195312E0,1.9912383E3,4.0127544E3,6.3561523E1,3.0246655E3,0E0,0E0,0E0,0E0,0E0,0E0,0E0,0E0,0E0,0E0,0E0,0E0,0E0,0E0],"parents":[2147483647,0,0,1,1,2,2,3,3,4,4,5,5,6,6,7,7,9,9,10,10,11,11,12,12,13,13,14,14],"right_children":[2,4,6,8,10,12,14,16,-1,18,20,22,24,26,28,-1,-1,-1,-1,-1,-1,-1,-1,-1,-1,-1,-1,-1,-1],"split_conditions":[4E0,6E0,2.1E1,3E0,1E0,7E0,4E0,2E0,-1.01420045E-1,7E0,3E0,1.8E1,8E0,2E0,7E0,-3.8831434E-1,-4.2958513E-1,-3.5626006E-1,-2.481395E-1,-3.347556E-1,-2.7248377E-1,1.621839E-1,1.9656276E-2,-4.4572648E-1,3.2472666E-2,-4.008844E-1,-3.2712448E-1,-3.5826687E-2,-4.5171005E-1],"split_indices":[1,0,1,1,1,0,0,0,0,0,1,1,1,0,0,0,0,0,0,0,0,0,0,0,0,0,0,0,0],"split_type":[0,0,0,0,0,0,0,0,0,0,0,0,0,0,0,0,0,0,0,0,0,0,0,0,0,0,0,0,0],"sum_hessian":[9.317E3,8.98E2,8.419E3,5.65E2,3.33E2,6.841E3,1.578E3,5.45E2,2E1,8.9E1,2.44E2,5.612E3,1.229E3,5.79E2,9.99E2,1.76E2,3.69E2,2.1E1,6.8E1,1.99E2,4.5E1,4.346E3,1.266E3,2.11E2,1.018E3,2.36E2,3.43E2,7.74E2,2.25E2],"tree_param":{"num_deleted":"0","num_feature":"2","num_nodes":"29","size_leaf_vector":"1"}},{"base_weights":[-3.4087836E-3,-3.3486152E0,3.5375795E-1,-3.6558144E0,-2.8180063E0,9.909088E-1,-1.5341741E0,-3.754434E0,-9.176096E-2,-2.5026505E0,-2.9223492E0,-1.1866162E0,1.2405186E0,-1.1469543E0,-3.7472548E0,-3.8274857E-1,-3.307086E-1,-3.2225344E-1,-2.2368519E-1,-2.622251E-1,-3.0826527E-1,-2.0242222E-4,-3.0122736E-1,1.4981702E-1,9.723557E-3,-2.4118042E-1,-2.679408E-2,-2.9591912E-1,-6.5778524E-1],"categories":[],"categories_nodes":[],"categories_segments":[],"categories_sizes":[],"default_left":[0,0,0,0,0,0,0,0,0,0,0,0,0,0,0,0,0,0,0,0,0,0,0,0,0,0,0,0,0],"id":11,"left_children":[1,3,5,7,9,11,13,15,-1,17,19,21,23,25,27,-1,-1,-1,-1,-1,-1,-1,-1,-1,-1,-1,-1,-1,-1],"loss_changes":[1.1134298E4,1.362373E2,1.0129916E4,1.4939844E2,3.6767578E0,3.423546E3,1.8167183E3,5.1850586E0,0E0,1.0012634E1,3.7026367E0,1.4013969E3,1.663873E3,2.0117483E3,6.854331E2,0E0,0E0,0E0,0E0,0E0,0E0,0E0,0E0,0E0,0E0,0E0,0E0,0E0,0E0],"parents":[2147483647,0,0,1,1,2,2,3,3,4,4,5,5,6,6,7,7,9,9,10,10,11,11,12,12,13,13,14,14],"right_children":[2,4,6,8,10,12,14,16,-1,18,20,22,24,26,28,-1,-1,-1,-1,-1,-1,-1,-1,-1,-1,-1,-1,-1,-1],"split_conditions":[4E0,6E0,2E1,3E0,1E0,6E0,2.3E1,5E0,-9.176096E-2,7E0,7E0,5E0,7E0,4E0,7E0,-3.8274857E-1,-3.307086E-1,-3.2225344E-1,-2.2368519E-1,-2.622251E-1,-3.0826527E-1,-2.0242222E-4,-3.0122736E-1,1.4981702E-1,9.723557E-3,-2.4118042E-1,-2.679408E-2,-2.9591912E-1,-6.5778524E-1],"split_indices":[1,0,1,1,1,1,1,0,0,0,0,0,0,0,0,0,0,0,0,0,0,0,0,0,0,0,0,0,0],"split_type":[0,0,0,0,0,0,0,0,0,0,0,0,0,0,0,0,0,0,0,0,0,0,0,0,0,0,0,0,0],"sum_hessian":[9.317E3,8.98E2,8.419E3,5.65E2,3.33E2,6.295E3,2.124E3,5.45E2,2E1,8.9E1,2.44E2,6.47E2,5.648E3,1.809E3,3.15E2,4.62E2,8.3E1,2.1E1,6.8E1,9.1E1,1.53E2,3.93E2,2.54E2,4.609E3,1.039E3,7.41E2,1.068E3,2.48E2,6.7E1],"tree_param":{"num_deleted":"0","num_feature":"2","num_nodes":"29","size_leaf_vector":"1"}},{"base_weights":[-3.4203113E-3,-3.015891E0,3.1822038E-1,-3.2916555E0,-2.5395484E0,9.860639E-1,-1.1888118E0,-3.3802974E0,-8.302186E-2,-2.2584512E0,-2.632443E0,-1.0229632E-1,1.5764465E0,-5.651246E-1,-2.2987697E0,-3.116437E-1,-3.497387E-1,-2.914929E-1,-2.0164084E-1,-2.7229437E-1,-2.1817353E-1,7.330412E-2,-1.9688186E-1,1.8352507E-1,8.219331E-2,-1.7840524E-1,-9.94295E-3,-3.1513909E-1,-1.3043164E-1],"categories":[],"categories_nodes":[],"categories_segments":[],"categories_sizes":[],"default_left":[0,0,0,0,0,0,0,0,0,0,0,0,0,0,0,0,0,0,0,0,0,0,0,0,0,0,0,0,0],"id":12,"left_children":[1,3,5,7,9,11,13,15,-1,17,19,21,23,25,27,-1,-1,-1,-1,-1,-1,-1,-1,-1,-1,-1,-1,-1,-1],"loss_changes":[9.0294795E3,1.0973193E2,8.47558E3,1.2068701E2,2.776123E0,3.7494336E3,1.7889019E3,5.9697266E0,0E0,8.422974E0,4.0527344E0,3.2024316E3,7.372031E2,9.404165E2,7.844287E2,0E0,0E0,0E0,0E0,0E0,0E0,0E0,0E0,0E0,0E0,0E0,0E0,0E0,0E0],"parents":[2147483647,0,0,1,1,2,2,3,3,4,4,5,5,6,6,7,7,9,9,10,10,11,11,12,12,13,13,14,14],"right_children":[2,4,6,8,10,12,14,16,-1,18,20,22,24,26,28,-1,-1,-1,-1,-1,-1,-1,-1,-1,-1,-1,-1,-1,-1],"split_conditions":[4E0,6E0,1.9E1,3E0,1E0,1E1,2.2E1,2E0,-8.302186E-2,7E0,3E0,6E0,1.7E1,3E0,5E0,-3.116437E-1,-3.497387E-1,-2.914929E-1,-2.0164084E-1,-2.7229437E-1,-2.1817353E-1,7.330412E-2,-1.9688186E-1,1.8352507E-1,8.219331E-2,-1.7840524E-1,-9.94295E-3,-3.1513909E-1,-1.3043164E-1],"split_indices":[1,0,1,1,1,1,1,0,0,0,1,0,1,0,0,0,0,0,0,0,0,0,0,0,0,0,0,0,0],"split_type":[0,0,0,0,0,0,0,0,0,0,0,0,0,0,0,0,0,0,0,0,0,0,0,0,0,0,0,0,0],"sum_hessian":[9.317E3,8.98E2,8.419E3,5.65E2,3.33E2,5.834E3,2.585E3,5.45E2,2E1,8.9E1,2.44E2,2.052E3,3.782E3,1.656E3,9.29E2,1.76E2,3.69E2,2.1E1,6.8E1,1.99E2,4.5E1,1.418E3,6.34E2,2.815E3,9.67E2,4.57E2,1.199E3,4.99E2,4.3E2],"tree_param":{"num_deleted":"0","num_feature":"2","num_nodes":"29","size_leaf_vector":"1"}},{"base_weights":[-3.316438E-3,-2.0244331E0,3.9867115E-1,-2.800443E0,-1.1138908E0,1.1307528E0,-1.0701758E0,-3.1110616E0,-2.4063115E0,1.9651134E-1,-2.2245073E0,5.975832E-1,1.6782734E0,-7.7807474E-1,-3.1660342E0,-2.8065538E-1,-3.288019E-1,-1.7544316E-1,-2.6803735E-1,-5.3351074E-2,7.429826E-2,-1.6457687E-1,-3.20737E-1,8.5674666E-2,-6.140653E-2,2.247834E-1,7.398247E-2,-1.8208745E-1,-1.1582489E-2,-2.4336684E-1,-5.801227E-1],"categories":[],"categories_nodes":[],"categories_segments":[],"categories_sizes":[],"default_left":[0,0,0,0,0,0,0,0,0,0,0,0,0,0,0,0,0,0,0,0,0,0,0,0,0,0,0,0,0,0,0],"id":13,"left_children":[1,3,5,7,9,11,13,15,17,19,21,23,25,27,29,-1,-1,-1,-1,-1,-1,-1,-1,-1,-1,-1,-1,-1,-1,-1,-1],"loss_changes":[7.5713447E3,1.089269E3,8.359642E3,9.461621E1,1.0381047E3,1.5134849E3,1.5806919E3,1.5720703E1,6.1757324E1,1.3124744E2,2.1428613E2,8.263858E2,1.3661304E3,1.568128E3,5.9573804E2,0E0,0E0,0E0,0E0,0E0,0E0,0E0,0E0,0E0,0E0,0E0,0E0,0E0,0E0,0E0,0E0],"parents":[2147483647,0,0,1,1,2,2,3,3,4,4,5,5,6,6,7,7,8,8,9,9,10,10,11,11,12,12,13,13,14,14],"right_children":[2,4,6,8,10,12,14,16,18,20,22,24,26,28,30,-1,-1,-1,-1,-1,-1,-1,-1,-1,-1,-1,-1,-1,-1,-1,-1],"split_conditions":[6E0,3E0,1.9E1,5E0,4E0,1.3E1,2.3E1,2E0,1E0,2E0,7E0,7E0,1.7E1,4E0,7E0,-2.8065538E-1,-3.288019E-1,-1.7544316E-1,-2.6803735E-1,-5.3351074E-2,7.429826E-2,-1.6457687E-1,-3.20737E-1,8.5674666E-2,-6.140653E-2,2.247834E-1,7.398247E-2,-1.8208745E-1,-1.1582489E-2,-2.4336684E-1,-5.801227E-1],"split_indices":[1,1,1,0,0,1,1,0,1,0,0,0,1,0,0,0,0,0,0,0,0,0,0,0,0,0,0,0,0,0,0],"split_type":[0,0,0,0,0,0,0,0,0,0,0,0,0,0,0,0,0,0,0,0,0,0,0,0,0,0,0,0,0,0,0],"sum_hessian":[9.317E3,1.545E3,7.772E3,8.33E2,7.12E2,5.187E3,2.585E3,4.62E2,3.71E2,3.27E2,3.85E2,2.629E3,2.558E3,2.27E3,3.15E2,1.76E2,2.86E2,1.12E2,2.59E2,1.4E2,1.87E2,2.44E2,1.41E2,2.166E3,4.63E2,1.591E3,9.67E2,8.81E2,1.389E3,2.48E2,6.7E1],"tree_param":{"num_deleted":"0","num_feature":"2","num_nodes":"31","size_leaf_vector":"1"}},{"base_weights":[-3.2219007E-3,-1.8229712E0,3.58715E-1,-2.521661E0,-1.003153E0,1.0177401E0,-9.635515E-1,-2.8012717E0,-2.1668725E0,1.7692438E-1,-2.0033143E0,1.5735148E0,5.3539586E-1,-6.391692E-1,-2.7037344E0,-2.5274843E-1,-2.9603627E-1,-1.5805413E-1,-2.413367E-1,-4.8053764E-2,6.690798E-2,-1.4818637E-1,-2.888892E-1,1.8148886E-1,-2.254107E-2,-2.6628736E-1,9.2351355E-2,-1.54779E-1,7.476381E-2,-8.301634E-2,-3.4058914E-1],"categories":[],"categories_nodes":[],"categories_segments":[],"categories_sizes":[],"default_left":[0,0,0,0,0,0,0,0,0,0,0,0,0,0,0,0,0,0,0,0,0,0,0,0,0,0,0,0,0,0,0],"id":14,"left_children":[1,3,5,7,9,11,13,15,17,19,21,23,25,27,29,-1,-1,-1,-1,-1,-1,-1,-1,-1,-1,-1,-1,-1,-1,-1,-1],"loss_changes":[6.1378096E3,8.830176E2,6.7744263E3,7.666455E1,8.418851E2,1.3899292E3,1.4580288E3,1.2684814E1,4.994983E1,1.0645363E2,1.739679E2,1.0468633E3,3.4520452E3,2.7493962E3,5.312822E2,0E0,0E0,0E0,0E0,0E0,0E0,0E0,0E0,0E0,0E0,0E0,0E0,0E0,0E0,0E0,0E0],"parents":[2147483647,0,0,1,1,2,2,3,3,4,4,5,5,6,6,7,7,8,8,9,9,10,10,11,11,12,12,13,13,14,14],"right_children":[2,4,6,8,10,12,14,16,18,20,22,24,26,28,30,-1,-1,-1,-1,-1,-1,-1,-1,-1,-1,-1,-1,-1,-1,-1,-1],"split_conditions":[6E0,3E0,1.9E1,5E0,4E0,5E0,7E0,2E0,1E0,2E0,7E0,1.8E1,8E0,5E0,2E1,-2.5274843E-1,-2.9603627E-1,-1.5805413E-1,-2.413367E-1,-4.8053764E-2,6.690798E-2,-1.4818637E-1,-2.888892E-1,1.8148886E-1,-2.254107E-2,-2.6628736E-1,9.2351355E-2,-1.54779E-1,7.476381E-2,-8.301634E-2,-3.4058914E-1],"split_indices":[1,1,1,0,0,0,0,0,1,0,0,1,1,0,1,0,0,0,0,0,0,0,0,0,0,0,0,0,0,0,0],"split_type":[0,0,0,0,0,0,0,0,0,0,0,0,0,0,0,0,0,0,0,0,0,0,0,0,0,0,0,0,0,0,0],"sum_hessian":[9.317E3,1.545E3,7.772E3,8.33E2,7.12E2,5.187E3,2.585E3,4.62E2,3.71E2,3.27E2,3.85E2,2.409E3,2.778E3,2.18E3,4.05E2,1.76E2,2.86E2,1.12E2,2.59E2,1.4E2,1.87E2,2.44E2,1.41E2,2.124E3,2.85E2,3E2,2.478E3,1.317E3,8.63E2,1.11E2,2.94E2],"tree_param":{"num_deleted":"0","num_feature":"2","num_nodes":"31","size_leaf_vector":"1"}},{"base_weights":[-3.1018853E-3,-1.6415577E0,3.227769E-1,-2.2706318E0,-9.034241E-1,7.5626785E-1,-1.3781725E0,-2.5223296E0,-1.9512589E0,1.592896E-1,-1.8041148E0,9.69325E-1,-2.217106E-1,-2.1703258E0,-5.680492E-1,-2.2761635E-1,-2.665358E-1,-1.4238857E-1,-2.1729587E-1,-4.328247E-2,6.0252804E-2,-1.334282E-1,-2.602037E-1,1.2157629E-1,2.2535654E-2,-3.8075286E-1,9.873212E-3,-1.5866001E-1,-2.5150532E-1,5.2265253E-2,-3.253681E-1],"categories":[],"categories_nodes":[],"categories_segments":[],"categories_sizes":[],"default_left":[0,0,0,0,0,0,0,0,0,0,0,0,0,0,0,0,0,0,0,0,0,0,0,0,0,0,0,0,0,0,0],"id":15,"left_children":[1,3,5,7,9,11,13,15,17,19,21,23,25,27,29,-1,-1,-1,-1,-1,-1,-1,-1,-1,-1,-1,-1,-1,-1,-1,-1],"loss_changes":[4.975764E3,7.1581934E2,5.732434E3,6.211963E1,6.827541E2,1.2910381E3,1.01207764E3,1.0234619E1,4.039978E1,8.634367E1,1.4123572E2,9.323862E2,1.2746715E3,1.5658813E2,2.292353E3,0E0,0E0,0E0,0E0,0E0,0E0,0E0,0E0,0E0,0E0,0E0,0E0,0E0,0E0,0E0,0E0],"parents":[2147483647,0,0,1,1,2,2,3,3,4,4,5,5,6,6,7,7,8,8,9,9,10,10,11,11,12,12,13,13,14,14],"right_children":[2,4,6,8,10,12,14,16,18,20,22,24,26,28,30,-1,-1,-1,-1,-1,-1,-1,-1,-1,-1,-1,-1,-1,-1,-1,-1],"split_conditions":[6E0,3E0,2.1E1,5E0,4E0,7E0,5E0,2E0,1E0,2E0,7E0,1.8E1,8E0,2.2E1,7E0,-2.2761635E-1,-2.665358E-1,-1.4238857E-1,-2.1729587E-1,-4.328247E-2,6.0252804E-2,-1.334282E-1,-2.602037E-1,1.2157629E-1,2.2535654E-2,-3.8075286E-1,9.873212E-3,-1.5866001E-1,-2.5150532E-1,5.2265253E-2,-3.253681E-1],"split_indices":[1,1,1,0,0,0,0,0,1,0,0,1,1,1,0,0,0,0,0,0,0,0,0,0,0,0,0,0,0,0,0],"split_type":[0,0,0,0,0,0,0,0,0,0,0,0,0,0,0,0,0,0,0,0,0,0,0,0,0,0,0,0,0,0,0],"sum_hessian":[9.317E3,1.545E3,7.772E3,8.33E2,7.12E2,6.194E3,1.578E3,4.62E2,3.71E2,3.27E2,3.85E2,5.086E3,1.108E3,7.97E2,7.81E2,1.76E2,2.86E2,1.12E2,2.59E2,1.4E2,1.87E2,2.44E2,1.41E2,3.82E3,1.266E3,9E1,1.018E3,2.98E2,4.99E2,5.56E2,2.25E2],"tree_param":{"num_deleted":"0","num_feature":"2","num_nodes":"31","size_leaf_vector":"1"}},{"base_weights":[-3.021347E-3,-1.4781979E0,2.9038224E-1,-2.0445926E0,-8.136099E-1,6.806046E-1,-1.240788E0,-2.231358E0,-1.6846666E0,-5.880379E-2,-1.8525302E0,8.724209E-1,-1.9987358E-1,-1.9538072E0,-5.1159346E-1,-2.2774081E-1,-1.8619432E-1,-1.830885E-1,-1.6126277E-1,1.43412175E-2,-8.205053E-2,-1.6952889E-1,-3.672556E-1,1.0942183E-1,2.0283902E-2,-3.43096E-1,8.886905E-3,-1.4284708E-1,-2.264051E-1,4.7048118E-2,-2.9297528E-1],"categories":[],"categories_nodes":[],"categories_segments":[],"categories_sizes":[],"default_left":[0,0,0,0,0,0,0,0,0,0,0,0,0,0,0,0,0,0,0,0,0,0,0,0,0,0,0,0,0,0,0],"id":16,"left_children":[1,3,5,7,9,11,13,15,17,19,21,23,25,27,29,-1,-1,-1,-1,-1,-1,-1,-1,-1,-1,-1,-1,-1,-1,-1,-1],"loss_changes":[4.0334653E3,5.802805E2,4.6451875E3,5.2303955E1,5.5901385E2,1.0464487E3,8.1996924E2,5.0480957E0,9.1552734E-2,6.3885345E1,7.962891E1,7.5525586E2,1.0349491E3,1.2682568E2,1.858482E3,0E0,0E0,0E0,0E0,0E0,0E0,0E0,0E0,0E0,0E0,0E0,0E0,0E0,0E0,0E0,0E0],"parents":[2147483647,0,0,1,1,2,2,3,3,4,4,5,5,6,6,7,7,8,8,9,9,10,10,11,11,12,12,13,13,14,14],"right_children":[2,4,6,8,10,12,14,16,18,20,22,24,26,28,30,-1,-1,-1,-1,-1,-1,-1,-1,-1,-1,-1,-1,-1,-1,-1,-1],"split_conditions":[6E0,3E0,2.1E1,6E0,5E0,7E0,5E0,2E0,7E0,4E0,5E0,1.8E1,8E0,2.2E1,7E0,-2.2774081E-1,-1.8619432E-1,-1.830885E-1,-1.6126277E-1,1.43412175E-2,-8.205053E-2,-1.6952889E-1,-3.672556E-1,1.0942183E-1,2.0283902E-2,-3.43096E-1,8.886905E-3,-1.4284708E-1,-2.264051E-1,4.7048118E-2,-2.9297528E-1],"split_indices":[1,1,1,0,0,0,0,1,0,0,1,1,1,1,0,0,0,0,0,0,0,0,0,0,0,0,0,0,0,0,0],"split_type":[0,0,0,0,0,0,0,0,0,0,0,0,0,0,0,0,0,0,0,0,0,0,0,0,0,0,0,0,0,0,0],"sum_hessian":[9.317E3,1.545E3,7.772E3,8.33E2,7.12E2,6.194E3,1.578E3,5.45E2,2.88E2,4.13E2,2.99E2,5.086E3,1.108E3,7.97E2,7.81E2,4.8E2,6.5E1,8.7E1,2.01E2,3.27E2,8.6E1,2.77E2,2.2E1,3.82E3,1.266E3,9E1,1.018E3,2.98E2,4.99E2,5.56E2,2.25E2],"tree_param":{"num_deleted":"0","num_feature":"2","num_nodes":"31","size_leaf_vector":"1"}},{"base_weights":[-2.9537342E-3,-1.3312596E0,2.612382E-1,-1.8410424E0,-7.3309684E-1,6.125107E-1,-1.1170989E0,-2.0497477E0,-1.5763339E0,-5.308721E-2,-1.6690664E0,7.8520375E-1,-1.801874E-1,-7.859597E-1,-2.4381206E0,-1.8386362E-1,-2.1728034E-1,-1.1053347E-1,-1.7749746E-1,1.2911442E-2,-7.393981E-2,-1.20643415E-1,-2.1753304E-1,9.848243E-2,1.8257134E-2,-3.0916345E-1,7.999108E-3,-1.8794143E-1,-9.12928E-3,-1.9240133E-1,-4.2848048E-1],"categories":[],"categories_nodes":[],"categories_segments":[],"categories_sizes":[],"default_left":[0,0,0,0,0,0,0,0,0,0,0,0,0,0,0,0,0,0,0,0,0,0,0,0,0,0,0,0,0,0,0],"id":17,"left_children":[1,3,5,7,9,11,13,15,17,19,21,23,25,27,29,-1,-1,-1,-1,-1,-1,-1,-1,-1,-1,-1,-1,-1,-1,-1,-1],"loss_changes":[3.2702922E3,4.700769E2,3.7641526E3,4.284424E1,4.5371338E2,8.481963E2,6.8880457E2,8.032959E0,3.2842163E1,5.1864906E1,6.763977E1,6.117754E2,8.403103E2,9.5994604E2,2.917644E2,0E0,0E0,0E0,0E0,0E0,0E0,0E0,0E0,0E0,0E0,0E0,0E0,0E0,0E0,0E0,0E0],"parents":[2147483647,0,0,1,1,2,2,3,3,4,4,5,5,6,6,7,7,8,8,9,9,10,10,11,11,12,12,13,13,14,14],"right_children":[2,4,6,8,10,12,14,16,18,20,22,24,26,28,30,-1,-1,-1,-1,-1,-1,-1,-1,-1,-1,-1,-1,-1,-1,-1,-1],"split_conditions":[6E0,3E0,2.1E1,5E0,5E0,7E0,2.3E1,2E0,1E0,4E0,7E0,1.8E1,8E0,4E0,7E0,-1.8386362E-1,-2.1728034E-1,-1.1053347E-1,-1.7749746E-1,1.2911442E-2,-7.393981E-2,-1.20643415E-1,-2.1753304E-1,9.848243E-2,1.8257134E-2,-3.0916345E-1,7.999108E-3,-1.8794143E-1,-9.12928E-3,-1.9240133E-1,-4.2848048E-1],"split_indices":[1,1,1,0,0,0,1,0,1,0,0,1,1,0,0,0,0,0,0,0,0,0,0,0,0,0,0,0,0,0,0],"split_type":[0,0,0,0,0,0,0,0,0,0,0,0,0,0,0,0,0,0,0,0,0,0,0,0,0,0,0,0,0,0,0],"sum_hessian":[9.317E3,1.545E3,7.772E3,8.33E2,7.12E2,6.194E3,1.578E3,4.62E2,3.71E2,4.13E2,2.99E2,5.086E3,1.108E3,1.263E3,3.15E2,1.76E2,2.86E2,1.12E2,2.59E2,3.27E2,8.6E1,1.58E2,1.41E2,3.82E3,1.266E3,9E1,1.018E3,4.9E2,7.73E2,2.48E2,6.7E1],"tree_param":{"num_deleted":"0","num_feature":"2","num_nodes":"31","size_leaf_vector":"1"}},{"base_weights":[-2.8826462E-3,-1.1988378E0,2.3498555E-1,-1.6577646E0,-6.6034704E-1,6.817917E-1,-6.614821E-1,-1.8117381E0,-1.3611304E0,-4.7926024E-2,-1.5032868E0,2.0463797E-1,1.1719177E0,-4.065501E-1,-2.0293274E0,-1.626731E-1,-1.8990247E-1,-1.490377E-1,-1.2980866E-1,1.1624206E-2,-6.663077E-2,-1.3570182E-1,-3.20587E-1,3.332645E-2,-3.965221E-2,1.8013363E-1,6.404411E-2,-1.07720576E-1,6.1698075E-2,-1.6556E-1,-3.8626257E-1],"categories":[],"categories_nodes":[],"categories_segments":[],"categories_sizes":[],"default_left":[0,0,0,0,0,0,0,0,0,0,0,0,0,0,0,0,0,0,0,0,0,0,0,0,0,0,0,0,0,0,0],"id":18,"left_children":[1,3,5,7,9,11,13,15,17,19,21,23,25,27,29,-1,-1,-1,-1,-1,-1,-1,-1,-1,-1,-1,-1,-1,-1,-1,-1],"loss_changes":[2.6510635E3,3.8096484E2,3.113905E3,3.5625732E1,3.680029E2,1.2130542E3,9.0093274E2,5.7280273E0,4.2016602E-1,4.2106125E1,7.0359924E1,2.0349721E2,8.548865E2,1.4977831E3,2.7177734E2,0E0,0E0,0E0,0E0,0E0,0E0,0E0,0E0,0E0,0E0,0E0,0E0,0E0,0E0,0E0,0E0],"parents":[2147483647,0,0,1,1,2,2,3,3,4,4,5,5,6,6,7,7,8,8,9,9,10,10,11,11,12,12,13,13,14,14],"right_children":[2,4,6,8,10,12,14,16,18,20,22,24,26,28,30,-1,-1,-1,-1,-1,-1,-1,-1,-1,-1,-1,-1,-1,-1,-1,-1],"split_conditions":[6E0,3E0,1.9E1,6E0,5E0,1.3E1,7E0,1E0,7E0,4E0,5E0,7E0,5E0,5E0,2.3E1,-1.626731E-1,-1.8990247E-1,-1.490377E-1,-1.2980866E-1,1.1624206E-2,-6.663077E-2,-1.3570182E-1,-3.20587E-1,3.332645E-2,-3.965221E-2,1.8013363E-1,6.404411E-2,-1.07720576E-1,6.1698075E-2,-1.6556E-1,-3.8626257E-1],"split_indices":[1,1,1,0,0,1,0,1,0,0,1,0,0,0,1,0,0,0,0,0,0,0,0,0,0,0,0,0,0,0,0],"split_type":[0,0,0,0,0,0,0,0,0,0,0,0,0,0,0,0,0,0,0,0,0,0,0,0,0,0,0,0,0,0,0],"sum_hessian":[9.317E3,1.545E3,7.772E3,8.33E2,7.12E2,5.187E3,2.585E3,5.45E2,2.88E2,4.13E2,2.99E2,2.629E3,2.558E3,2.18E3,4.05E2,1.81E2,3.64E2,8.7E1,2.01E2,3.27E2,8.6E1,2.77E2,2.2E1,2.166E3,4.63E2,1.17E3,1.388E3,1.317E3,8.63E2,3.38E2,6.7E1],"tree_param":{"num_deleted":"0","num_feature":"2","num_nodes":"31","size_leaf_vector":"1"}},{"base_weights":[-2.7559695E-3,-1.0796932E0,2.1144031E-1,-1.4927453E0,-5.950296E-1,5.049662E-1,-9.40304E-1,-1.6654391E0,-1.2737937E0,-4.3266553E-2,-1.3544792E0,6.4675313E-1,-1.4586818E-1,-6.521653E-1,-2.089883E0,-1.7201194E-1,-1.3104668E-1,-8.56857E-2,-1.4501016E-1,1.0465309E-2,-6.004433E-2,-9.261192E-2,-1.8245831E-1,2.9995283E-2,9.038123E-2,-1.816547E-1,2.3954986E-2,-1.3636531E-1,1.3001886E-2,-1.7013015E-1,-3.4820434E-1],"categories":[],"categories_nodes":[],"categories_segments":[],"categories_sizes":[],"default_left":[0,0,0,0,0,0,0,0,0,0,0,0,0,0,0,0,0,0,0,0,0,0,0,0,0,0,0,0,0,0,0],"id":19,"left_children":[1,3,5,7,9,11,13,15,17,19,21,23,25,27,29,-1,-1,-1,-1,-1,-1,-1,-1,-1,-1,-1,-1,-1,-1,-1,-1],"loss_changes":[2.1496667E3,3.0860742E2,2.6282676E3,2.941333E1,2.9871417E2,5.717677E2,5.2166223E2,6.732666E0,2.6102905E1,3.4183636E1,5.8722412E1,4.5322583E2,7.14531E2,7.036115E2,1.6502185E2,0E0,0E0,0E0,0E0,0E0,0E0,0E0,0E0,0E0,0E0,0E0,0E0,0E0,0E0,0E0,0E0],"parents":[2147483647,0,0,1,1,2,2,3,3,4,4,5,5,6,6,7,7,8,8,9,9,10,10,11,11,12,12,13,13,14,14],"right_children":[2,4,6,8,10,12,14,16,18,20,22,24,26,28,30,-1,-1,-1,-1,-1,-1,-1,-1,-1,-1,-1,-1,-1,-1,-1,-1],"split_conditions":[6E0,3E0,2.1E1,5E0,5E0,7E0,2.3E1,2E0,1E0,4E0,7E0,1.3E1,1E1,5E0,7E0,-1.7201194E-1,-1.3104668E-1,-8.56857E-2,-1.4501016E-1,1.0465309E-2,-6.004433E-2,-9.261192E-2,-1.8245831E-1,2.9995283E-2,9.038123E-2,-1.816547E-1,2.3954986E-2,-1.3636531E-1,1.3001886E-2,-1.7013015E-1,-3.4820434E-1],"split_indices":[1,1,1,0,0,0,1,1,1,0,0,1,1,0,0,0,0,0,0,0,0,0,0,0,0,0,0,0,0,0,0],"split_type":[0,0,0,0,0,0,0,0,0,0,0,0,0,0,0,0,0,0,0,0,0,0,0,0,0,0,0,0,0,0,0],"sum_hessian":[9.317E3,1.545E3,7.772E3,8.33E2,7.12E2,6.194E3,1.578E3,4.62E2,3.71E2,4.13E2,2.99E2,5.086E3,1.108E3,1.263E3,3.15E2,3.97E2,6.5E1,1.12E2,2.59E2,3.27E2,8.6E1,1.58E2,1.41E2,2.166E3,2.92E3,2.07E2,9.01E2,6.61E2,6.02E2,2.48E2,6.7E1],"tree_param":{"num_deleted":"0","num_feature":"2","num_nodes":"31","size_leaf_vector":"1"}},{"base_weights":[-2.6453778E-3,-9.7227913E-1,1.9020893E-1,-1.3441108E0,-5.3598195E-1,6.281009E-1,-4.7292188E-1,-1.4709936E0,-1.0997435E0,-3.905979E-2,-1.2199479E0,2.725073E-1,1.4973907E0,-1.1702963E0,-3.5392515E-2,-1.3047944E-1,-1.5498357E-1,-1.2138275E-1,-1.04459934E-1,-4.388424E-2,1.668103E-2,-1.083956E-1,-2.810636E-1,6.160282E-2,-1.7275285E-3,2.5066093E-1,6.86696E-2,-1.7452465E-1,-8.506035E-2,4.3420564E-2,-1.4540403E-1],"categories":[],"categories_nodes":[],"categories_segments":[],"categories_sizes":[],"default_left":[0,0,0,0,0,0,0,0,0,0,0,0,0,0,0,0,0,0,0,0,0,0,0,0,0,0,0,0,0,0,0],"id":20,"left_children":[1,3,5,7,9,11,13,15,17,19,21,23,25,27,29,-1,-1,-1,-1,-1,-1,-1,-1,-1,-1,-1,-1,-1,-1,-1,-1],"loss_changes":[1.7426326E3,2.5008594E2,2.2574182E3,2.424121E1,2.4228523E2,1.4468633E3,9.433951E2,5.132324E0,5.501709E-1,3.4146763E1,6.184967E1,3.3090283E2,1.1101694E3,2.1761401E2,1.2670668E3,0E0,0E0,0E0,0E0,0E0,0E0,0E0,0E0,0E0,0E0,0E0,0E0,0E0,0E0,0E0,0E0],"parents":[2147483647,0,0,1,1,2,2,3,3,4,4,5,5,6,6,7,7,8,8,9,9,10,10,11,11,12,12,13,13,14,14],"right_children":[2,4,6,8,10,12,14,16,18,20,22,24,26,28,30,-1,-1,-1,-1,-1,-1,-1,-1,-1,-1,-1,-1,-1,-1,-1,-1],"split_conditions":[6E0,3E0,1.8E1,6E0,5E0,1.5E1,4E0,1E0,7E0,2E0,5E0,5E0,5E0,2E0,7E0,-1.3047944E-1,-1.5498357E-1,-1.2138275E-1,-1.04459934E-1,-4.388424E-2,1.668103E-2,-1.083956E-1,-2.810636E-1,6.160282E-2,-1.7275285E-3,2.5066093E-1,6.86696E-2,-1.7452465E-1,-8.506035E-2,4.3420564E-2,-1.4540403E-1],"split_indices":[1,1,1,0,0,1,0,1,0,0,1,0,0,0,0,0,0,0,0,0,0,0,0,0,0,0,0,0,0,0,0],"split_type":[0,0,0,0,0,0,0,0,0,0,0,0,0,0,0,0,0,0,0,0,0,0,0,0,0,0,0,0,0,0,0],"sum_hessian":[9.317E3,1.545E3,7.772E3,8.33E2,7.12E2,4.681E3,3.091E3,5.45E2,2.88E2,4.13E2,2.99E2,3.323E3,1.358E3,1.191E3,1.9E3,1.81E2,3.64E2,8.7E1,2.01E2,1.4E2,2.73E2,2.77E2,2.2E1,1.52E3,1.803E3,6.04E2,7.54E2,4.24E2,7.67E2,1.428E3,4.72E2],"tree_param":{"num_deleted":"0","num_feature":"2","num_nodes":"31","size_leaf_vector":"1"}},{"base_weights":[-2.4787788E-3,-8.756515E-1,1.7119001E-1,-1.2103128E0,-4.8296803E-1,4.1938594E-1,-8.026827E-1,-1.3532631E0,-1.0291401E0,1.03440486E-1,-9.800121E-1,5.6537145E-1,-3.2346968E-2,-5.432918E-1,-1.837706E0,-1.18259825E-1,-1.4538012E-1,-6.599532E-2,-1.18563615E-1,-3.9526936E-2,4.7692265E-2,-6.538951E-2,-1.5357774E-1,2.4527444E-2,1.3478859E-1,-1.00209594E-1,3.4086756E-2,-1.14953235E-1,1.2316665E-2,-1.5140878E-1,-2.9956946E-1],"categories":[],"categories_nodes":[],"categories_segments":[],"categories_sizes":[],"default_left":[0,0,0,0,0,0,0,0,0,0,0,0,0,0,0,0,0,0,0,0,0,0,0,0,0,0,0,0,0,0,0],"id":21,"left_children":[1,3,5,7,9,11,13,15,17,19,21,23,25,27,29,-1,-1,-1,-1,-1,-1,-1,-1,-1,-1,-1,-1,-1,-1,-1,-1],"loss_changes":[1.4131578E3,2.025846E2,1.879158E3,2.0206787E1,2.0792015E2,4.0855652E2,4.2292456E2,6.2250366E0,2.0710327E1,6.1281536E1,6.895615E1,1.1724196E3,5.482951E2,5.1084064E2,1.1388403E2,0E0,0E0,0E0,0E0,0E0,0E0,0E0,0E0,0E0,0E0,0E0,0E0,0E0,0E0,0E0,0E0],"parents":[2147483647,0,0,1,1,2,2,3,3,4,4,5,5,6,6,7,7,8,8,9,9,10,10,11,11,12,12,13,13,14,14],"right_children":[2,4,6,8,10,12,14,16,18,20,22,24,26,28,30,-1,-1,-1,-1,-1,-1,-1,-1,-1,-1,-1,-1,-1,-1,-1,-1],"split_conditions":[6E0,3E0,2.1E1,5E0,4E0,1.8E1,2.3E1,2E0,1E0,2E0,7E0,1.5E1,3E0,5E0,7E0,-1.18259825E-1,-1.4538012E-1,-6.599532E-2,-1.18563615E-1,-3.9526936E-2,4.7692265E-2,-6.538951E-2,-1.5357774E-1,2.4527444E-2,1.3478859E-1,-1.00209594E-1,3.4086756E-2,-1.14953235E-1,1.2316665E-2,-1.5140878E-1,-2.9956946E-1],"split_indices":[1,1,1,0,0,1,1,0,1,0,0,1,0,0,0,0,0,0,0,0,0,0,0,0,0,0,0,0,0,0,0],"split_type":[0,0,0,0,0,0,0,0,0,0,0,0,0,0,0,0,0,0,0,0,0,0,0,0,0,0,0,0,0,0,0],"sum_hessian":[9.317E3,1.545E3,7.772E3,8.33E2,7.12E2,6.194E3,1.578E3,4.62E2,3.71E2,3.27E2,3.85E2,4.681E3,1.513E3,1.263E3,3.15E2,1.76E2,2.86E2,1.12E2,2.59E2,1.4E2,1.87E2,2.44E2,1.41E2,3.323E3,1.358E3,4.2E2,1.093E3,6.61E2,6.02E2,2.48E2,6.7E1],"tree_param":{"num_deleted":"0","num_feature":"2","num_nodes":"31","size_leaf_vector":"1"}},{"base_weights":[-2.3508247E-3,-7.885125E-1,1.5401202E-1,-1.0898191E0,-4.349668E-1,3.7746271E-1,-7.227651E-1,-1.1943364E0,-8.885863E-1,9.312141E-2,-8.8257813E-1,6.483599E-1,1.3431937E-1,-5.165041E-1,-1.9553077E0,-1.2305524E-1,-9.123021E-2,-9.891526E-2,-8.4037624E-2,-3.5602268E-2,4.2948414E-2,-7.792652E-2,-2.4792452E-1,9.834107E-2,-2.3579804E-2,-2.3191969E-1,3.8326543E-2,-1.1618711E-1,4.0902432E-2,-1.6242985E-1,-2.7005303E-1],"categories":[],"categories_nodes":[],"categories_segments":[],"categories_sizes":[],"default_left":[0,0,0,0,0,0,0,0,0,0,0,0,0,0,0,0,0,0,0,0,0,0,0,0,0,0,0,0,0,0,0],"id":22,"left_children":[1,3,5,7,9,11,13,15,17,19,21,23,25,27,29,-1,-1,-1,-1,-1,-1,-1,-1,-1,-1,-1,-1,-1,-1,-1,-1],"loss_changes":[1.1455504E3,1.642146E2,1.5231313E3,1.6479736E1,1.6861989E2,4.0795807E2,4.004121E2,4.4542236E0,5.6987E-1,4.9705612E1,6.174118E1,8.6820886E2,1.9957396E3,8.092269E2,5.1362183E1,0E0,0E0,0E0,0E0,0E0,0E0,0E0,0E0,0E0,0E0,0E0,0E0,0E0,0E0,0E0,0E0],"parents":[2147483647,0,0,1,1,2,2,3,3,4,4,5,5,6,6,7,7,8,8,9,9,10,10,11,11,12,12,13,13,14,14],"right_children":[2,4,6,8,10,12,14,16,18,20,22,24,26,28,30,-1,-1,-1,-1,-1,-1,-1,-1,-1,-1,-1,-1,-1,-1,-1,-1],"split_conditions":[6E0,3E0,2.1E1,6E0,4E0,5E0,7E0,2E0,7E0,2E0,5E0,1.8E1,8E0,5E0,2.3E1,-1.2305524E-1,-9.123021E-2,-9.891526E-2,-8.4037624E-2,-3.5602268E-2,4.2948414E-2,-7.792652E-2,-2.4792452E-1,9.834107E-2,-2.3579804E-2,-2.3191969E-1,3.8326543E-2,-1.1618711E-1,4.0902432E-2,-1.6242985E-1,-2.7005303E-1],"split_indices":[1,1,1,0,0,0,0,1,0,0,1,1,1,0,1,0,0,0,0,0,0,0,0,0,0,0,0,0,0,0,0],"split_type":[0,0,0,0,0,0,0,0,0,0,0,0,0,0,0,0,0,0,0,0,0,0,0,0,0,0,0,0,0,0,0],"sum_hessian":[9.317E3,1.545E3,7.772E3,8.33E2,7.12E2,6.194E3,1.578E3,5.45E2,2.88E2,3.27E2,3.85E2,2.929E3,3.265E3,1.353E3,2.25E2,4.8E2,6.5E1,8.7E1,2.01E2,1.4E2,1.87E2,3.63E2,2.2E1,2.124E3,8.05E2,3E2,2.965E3,7.97E2,5.56E2,1.58E2,6.7E1],"tree_param":{"num_deleted":"0","num_feature":"2","num_nodes":"31","size_leaf_vector":"1"}},{"base_weights":[-2.2597103E-3,-7.1012425E-1,1.3853031E-1,-9.813134E-1,-3.919168E-1,4.2226684E-1,-4.3075186E-1,-1.1001847E0,-8.3072543E-1,-1.643329E-1,-1.3059033E0,8.304992E-2,7.7073044E-1,-2.276737E-1,-1.5206108E0,-9.543336E-2,-1.1863013E-1,-5.0054144E-2,-9.710334E-2,-7.714568E-3,-2.2420998E-1,-9.213693E-2,-1.3613895E-1,1.6453972E-2,-2.9770747E-2,1.18478775E-1,8.896391E-3,-6.759952E-2,4.5648765E-2,-5.6173064E-2,-1.8795057E-1],"categories":[],"categories_nodes":[],"categories_segments":[],"categories_sizes":[],"default_left":[0,0,0,0,0,0,0,0,0,0,0,0,0,0,0,0,0,0,0,0,0,0,0,0,0,0,0,0,0,0,0],"id":23,"left_children":[1,3,5,7,9,11,13,15,17,19,21,23,25,27,29,-1,-1,-1,-1,-1,-1,-1,-1,-1,-1,-1,-1,-1,-1,-1,-1],"loss_changes":[9.2873267E2,1.3302655E2,1.2557246E3,1.4015198E1,1.4809554E2,6.131821E2,5.720044E2,4.6832275E0,1.6747742E1,1.03447525E2,1.7754211E0,8.1652214E1,7.222759E2,6.692742E2,1.3866382E2,0E0,0E0,0E0,0E0,0E0,0E0,0E0,0E0,0E0,0E0,0E0,0E0,0E0,0E0,0E0,0E0],"parents":[2147483647,0,0,1,1,2,2,3,3,4,4,5,5,6,6,7,7,8,8,9,9,10,10,11,11,12,12,13,13,14,14],"right_children":[2,4,6,8,10,12,14,16,18,20,22,24,26,28,30,-1,-1,-1,-1,-1,-1,-1,-1,-1,-1,-1,-1,-1,-1,-1,-1],"split_conditions":[6E0,3E0,1.9E1,5E0,7E0,1.3E1,7E0,2E0,1E0,5E0,4E0,7E0,1.7E1,5E0,2E1,-9.543336E-2,-1.1863013E-1,-5.0054144E-2,-9.710334E-2,-7.714568E-3,-2.2420998E-1,-9.213693E-2,-1.3613895E-1,1.6453972E-2,-2.9770747E-2,1.18478775E-1,8.896391E-3,-6.759952E-2,4.5648765E-2,-5.6173064E-2,-1.8795057E-1],"split_indices":[1,1,1,0,0,1,0,0,1,1,1,0,1,0,1,0,0,0,0,0,0,0,0,0,0,0,0,0,0,0,0],"split_type":[0,0,0,0,0,0,0,0,0,0,0,0,0,0,0,0,0,0,0,0,0,0,0,0,0,0,0,0,0,0,0],"sum_hessian":[9.317E3,1.545E3,7.772E3,8.33E2,7.12E2,5.187E3,2.585E3,4.62E2,3.71E2,5.71E2,1.41E2,2.629E3,2.558E3,2.18E3,4.05E2,1.76E2,2.86E2,1.12E2,2.59E2,5.49E2,2.2E1,2E1,1.21E2,2.166E3,4.63E2,1.591E3,9.67E2,1.317E3,8.63E2,1.11E2,2.94E2],"tree_param":{"num_deleted":"0","num_feature":"2","num_nodes":"31","size_leaf_vector":"1"}},{"base_weights":[-2.1384154E-3,9.3769245E-2,-8.6726445E-1,-6.3964325E-1,2.5942704E-1,-5.3568935E-1,-1.5098323E0,-8.8361526E-1,-3.5337085E-1,3.759707E-1,-2.8847614E-1,-1.1176274E0,3.0701354E-1,-1.301836E0,-2.2492622E-1,-9.906285E-2,-7.4804865E-2,-1.4830539E-2,-1.1769205E-1,-1.664702E-2,4.7742106E-2,-2.3307295E-1,-1.2093923E-2,-1.417024E-1,-8.070936E-2,7.546359E-2,-9.402219E-2,-1.585195E-1,-9.4677396E-2],"categories":[],"categories_nodes":[],"categories_segments":[],"categories_sizes":[],"default_left":[0,0,0,0,0,0,0,0,0,0,0,0,0,0,0,0,0,0,0,0,0,0,0,0,0,0,0,0,0],"id":24,"left_children":[1,3,5,7,9,11,13,15,17,19,21,23,25,27,-1,-1,-1,-1,-1,-1,-1,-1,-1,-1,-1,-1,-1,-1,-1],"loss_changes":[7.7321643E2,1.0193917E3,1.9733655E2,1.07664185E2,4.371296E2,3.019397E2,4.567218E1,1.1358093E1,1.2023802E2,3.1067334E2,4.106437E2,3.2698395E1,1.4139874E2,2.3551086E1,0E0,0E0,0E0,0E0,0E0,0E0,0E0,0E0,0E0,0E0,0E0,0E0,0E0,0E0,0E0],"parents":[2147483647,0,0,1,1,2,2,3,3,4,4,5,5,6,6,7,7,8,8,9,9,10,10,11,11,12,12,13,13],"right_children":[2,4,6,8,10,12,14,16,18,20,22,24,26,28,-1,-1,-1,-1,-1,-1,-1,-1,-1,-1,-1,-1,-1,-1,-1],"split_conditions":[2.2E1,6E0,2.3E1,3E0,7E0,5E0,7E0,5E0,7E0,2E0,8E0,3E0,7E0,5E0,-2.2492622E-1,-9.906285E-2,-7.4804865E-2,-1.4830539E-2,-1.1769205E-1,-1.664702E-2,4.7742106E-2,-2.3307295E-1,-1.2093923E-2,-1.417024E-1,-8.070936E-2,7.546359E-2,-9.402219E-2,-1.585195E-1,-9.4677396E-2],"split_indices":[1,1,1,1,0,0,0,0,0,0,1,0,0,0,0,0,0,0,0,0,0,0,0,0,0,0,0,0,0],"split_type":[0,0,0,0,0,0,0,0,0,0,0,0,0,0,0,0,0,0,0,0,0,0,0,0,0,0,0,0,0],"sum_hessian":[9.317E3,8.388E3,9.29E2,1.545E3,6.843E3,6.14E2,3.15E2,8.33E2,7.12E2,5.643E3,1.2E3,3.63E2,2.51E2,2.48E2,6.7E1,4.62E2,3.71E2,5.71E2,1.41E2,8.89E2,4.754E3,9E1,1.11E3,1.83E2,1.8E2,1.85E2,6.6E1,1.36E2,1.12E2],"tree_param":{"num_deleted":"0","num_feature":"2","num_nodes":"29","size_leaf_vector":"1"}},{"base_weights":[-2.057748E-3,8.433012E-2,-7.813112E-1,-3.4982598E-1,3.1987163E-1,-4.8251218E-1,-1.3603623E0,-7.7023774E-2,-9.085964E-1,6.864106E-1,-7.3609166E-2,-1.0064758E0,2.7623883E-1,-1.1726694E0,-2.0276439E-1,-8.630202E-2,2.3654282E-2,-1.255536E-1,5.6109894E-3,2.9034926E-2,1.532018E-1,1.0383326E-2,-9.570158E-2,-1.2760921E-1,-7.268301E-2,6.795784E-2,-8.476029E-2,-1.4278325E-1,-8.529349E-2],"categories":[],"categories_nodes":[],"categories_segments":[],"categories_sizes":[],"default_left":[0,0,0,0,0,0,0,0,0,0,0,0,0,0,0,0,0,0,0,0,0,0,0,0,0,0,0,0,0],"id":25,"left_children":[1,3,5,7,9,11,13,15,17,19,21,23,25,27,-1,-1,-1,-1,-1,-1,-1,-1,-1,-1,-1,-1,-1,-1,-1],"loss_changes":[6.2733545E2,8.57986E2,1.6025214E2,4.4976215E2,7.844961E2,2.4477614E2,3.719928E1,4.891852E2,3.2405493E2,9.426686E2,4.114214E2,2.6517029E1,1.1480506E2,1.909668E1,0E0,0E0,0E0,0E0,0E0,0E0,0E0,0E0,0E0,0E0,0E0,0E0,0E0,0E0,0E0],"parents":[2147483647,0,0,1,1,2,2,3,3,4,4,5,5,6,6,7,7,8,8,9,9,10,10,11,11,12,12,13,13],"right_children":[2,4,6,8,10,12,14,16,18,20,22,24,26,28,-1,-1,-1,-1,-1,-1,-1,-1,-1,-1,-1,-1,-1,-1,-1],"split_conditions":[2.2E1,1E1,2.3E1,6E0,1.7E1,5E0,7E0,4E0,8E0,1.5E1,7E0,3E0,7E0,5E0,-2.0276439E-1,-8.630202E-2,2.3654282E-2,-1.255536E-1,5.6109894E-3,2.9034926E-2,1.532018E-1,1.0383326E-2,-9.570158E-2,-1.2760921E-1,-7.268301E-2,6.795784E-2,-8.476029E-2,-1.4278325E-1,-8.529349E-2],"split_indices":[1,1,1,0,1,0,0,1,1,1,0,0,0,0,0,0,0,0,0,0,0,0,0,0,0,0,0,0,0],"split_type":[0,0,0,0,0,0,0,0,0,0,0,0,0,0,0,0,0,0,0,0,0,0,0,0,0,0,0,0,0],"sum_hessian":[9.317E3,8.388E3,9.29E2,2.95E3,5.438E3,6.14E2,3.15E2,1.983E3,9.67E2,2.815E3,2.623E3,3.63E2,2.51E2,2.48E2,6.7E1,5.65E2,1.418E3,7.11E2,2.56E2,1.918E3,8.97E2,2.185E3,4.38E2,1.83E2,1.8E2,1.85E2,6.6E1,1.36E2,1.12E2],"tree_param":{"num_deleted":"0","num_feature":"2","num_nodes":"29","size_leaf_vector":"1"}},{"base_weights":[-1.9310123E-3,1.037032E-1,-5.1973146E-1,-3.149055E-1,3.6157596E-1,-3.4283078E-1,-1.2256894E0,-6.9353215E-2,-8.178609E-1,6.1783373E-1,-3.9852755E-3,-1.0912526E0,-4.473723E-2,-1.0563184E0,-1.8278612E-1,-5.113436E-2,3.988434E-2,-1.1301588E-1,5.052031E-3,2.613288E-2,1.3789865E-1,-8.3147176E-2,1.3206229E-2,-1.3838916E-1,-7.4091606E-2,1.8835269E-2,-1.13953866E-1,-1.2860917E-1,-7.683959E-2],"categories":[],"categories_nodes":[],"categories_segments":[],"categories_sizes":[],"default_left":[0,0,0,0,0,0,0,0,0,0,0,0,0,0,0,0,0,0,0,0,0,0,0,0,0,0,0,0,0],"id":26,"left_children":[1,3,5,7,9,11,13,15,17,19,21,23,25,27,-1,-1,-1,-1,-1,-1,-1,-1,-1,-1,-1,-1,-1,-1,-1],"loss_changes":[5.0972464E2,8.356297E2,1.9677228E2,3.6439725E2,4.4871973E2,2.819492E2,3.0298157E1,4.1076965E2,2.6257257E2,7.637744E2,2.224504E2,3.588266E1,2.3115903E2,1.5484863E1,0E0,0E0,0E0,0E0,0E0,0E0,0E0,0E0,0E0,0E0,0E0,0E0,0E0,0E0,0E0],"parents":[2147483647,0,0,1,1,2,2,3,3,4,4,5,5,6,6,7,7,8,8,9,9,10,10,11,11,12,12,13,13],"right_children":[2,4,6,8,10,12,14,16,18,20,22,24,26,28,-1,-1,-1,-1,-1,-1,-1,-1,-1,-1,-1,-1,-1,-1,-1],"split_conditions":[2.1E1,1E1,2.3E1,6E0,1.7E1,3E0,7E0,6E0,8E0,1.5E1,2E0,2E0,7E0,5E0,-1.8278612E-1,-5.113436E-2,3.988434E-2,-1.1301588E-1,5.052031E-3,2.613288E-2,1.3789865E-1,-8.3147176E-2,1.3206229E-2,-1.3838916E-1,-7.4091606E-2,1.8835269E-2,-1.13953866E-1,-1.2860917E-1,-7.683959E-2],"split_indices":[1,1,1,0,1,0,0,1,1,1,0,0,0,0,0,0,0,0,0,0,0,0,0,0,0,0,0,0,0],"split_type":[0,0,0,0,0,0,0,0,0,0,0,0,0,0,0,0,0,0,0,0,0,0,0,0,0,0,0,0,0],"sum_hessian":[9.317E3,7.739E3,1.578E3,2.95E3,4.789E3,1.263E3,3.15E2,1.983E3,9.67E2,2.815E3,1.974E3,3.59E2,9.04E2,2.48E2,6.7E1,1.02E3,9.63E2,7.11E2,2.56E2,1.918E3,8.97E2,2.78E2,1.696E3,1.94E2,1.65E2,7.46E2,1.58E2,1.36E2,1.12E2],"tree_param":{"num_deleted":"0","num_feature":"2","num_nodes":"29","size_leaf_vector":"1"}},{"base_weights":[-1.8153801E-3,6.9061205E-2,-6.411507E-1,-2.8345546E-1,2.60311E-1,-4.0210712E-1,-1.1043491E0,-6.242372E-2,-7.361864E-1,5.561086E-1,-5.7229493E-2,-8.625454E-1,2.6456603E-1,-9.515117E-1,-1.6477633E-1,-7.258266E-2,2.0223342E-2,-1.0173017E-1,4.5487876E-3,2.3520984E-2,1.24124065E-1,1.0161406E-2,-8.480605E-2,-1.0440376E-1,-6.7327954E-2,5.9325214E-2,-6.5185465E-2,-1.1584212E-1,-6.922364E-2],"categories":[],"categories_nodes":[],"categories_segments":[],"categories_sizes":[],"default_left":[0,0,0,0,0,0,0,0,0,0,0,0,0,0,0,0,0,0,0,0,0,0,0,0,0,0,0,0,0],"id":27,"left_children":[1,3,5,7,9,11,13,15,17,19,21,23,25,27,-1,-1,-1,-1,-1,-1,-1,-1,-1,-1,-1,-1,-1,-1,-1],"loss_changes":[4.222793E2,5.656496E2,1.02529816E2,2.9525446E2,5.1090463E2,1.8900974E2,2.4677185E1,3.4848624E2,2.1275519E2,6.188282E2,3.297088E2,1.1800568E1,7.629282E1,1.2556076E1,0E0,0E0,0E0,0E0,0E0,0E0,0E0,0E0,0E0,0E0,0E0,0E0,0E0,0E0,0E0],"parents":[2147483647,0,0,1,1,2,2,3,3,4,4,5,5,6,6,7,7,8,8,9,9,10,10,11,11,12,12,13,13],"right_children":[2,4,6,8,10,12,14,16,18,20,22,24,26,28,-1,-1,-1,-1,-1,-1,-1,-1,-1,-1,-1,-1,-1,-1,-1],"split_conditions":[2.2E1,1E1,2.3E1,6E0,1.7E1,5E0,7E0,4E0,8E0,1.5E1,7E0,3E0,7E0,5E0,-1.6477633E-1,-7.258266E-2,2.0223342E-2,-1.0173017E-1,4.5487876E-3,2.3520984E-2,1.24124065E-1,1.0161406E-2,-8.480605E-2,-1.0440376E-1,-6.7327954E-2,5.9325214E-2,-6.5185465E-2,-1.1584212E-1,-6.922364E-2],"split_indices":[1,1,1,0,1,0,0,1,1,1,0,0,0,0,0,0,0,0,0,0,0,0,0,0,0,0,0,0,0],"split_type":[0,0,0,0,0,0,0,0,0,0,0,0,0,0,0,0,0,0,0,0,0,0,0,0,0,0,0,0,0],"sum_hessian":[9.317E3,8.388E3,9.29E2,2.95E3,5.438E3,6.14E2,3.15E2,1.983E3,9.67E2,2.815E3,2.623E3,3.63E2,2.51E2,2.48E2,6.7E1,5.65E2,1.418E3,7.11E2,2.56E2,1.918E3,8.97E2,2.185E3,4.38E2,1.83E2,1.8E2,1.85E2,6.6E1,1.36E2,1.12E2],"tree_param":{"num_deleted":"0","num_feature":"2","num_nodes":"29","size_leaf_vector":"1"}},{"base_weights":[-1.698865E-3,8.55574E-2,-4.2941374E-1,-2.5516072E-1,2.954475E-1,-7.2508997E-1,-1.2713872E-1,-5.620794E-2,-6.626681E-1,5.0054973E-1,2.8585177E-3,-1.0962805E0,-5.6726575E-1,2.7408066E-1,-1.1154221E0,-4.2910617E-2,3.3879753E-2,-9.157143E-2,4.095647E-3,2.1170067E-2,1.1172544E-1,-3.945799E-2,2.7039511E-2,-1.20344535E-1,-5.848057E-2,-6.4727603E-3,-8.320149E-2,5.0142165E-2,-6.2362563E-2,-9.501731E-2,-1.4854102E-1],"categories":[],"categories_nodes":[],"categories_segments":[],"categories_sizes":[],"default_left":[0,0,0,0,0,0,0,0,0,0,0,0,0,0,0,0,0,0,0,0,0,0,0,0,0,0,0,0,0,0,0],"id":28,"left_children":[1,3,5,7,9,11,13,15,17,19,21,23,25,27,29,-1,-1,-1,-1,-1,-1,-1,-1,-1,-1,-1,-1,-1,-1,-1,-1],"loss_changes":[3.4779196E2,5.5358875E2,1.4103183E2,2.392143E2,2.8744955E2,4.6127197E1,3.1038312E2,2.923823E2,1.723894E2,5.0139026E2,2.1010709E2,1.2286682E1,7.471829E1,1.1398828E2,1.2406311E1,0E0,0E0,0E0,0E0,0E0,0E0,0E0,0E0,0E0,0E0,0E0,0E0,0E0,0E0,0E0,0E0],"parents":[2147483647,0,0,1,1,2,2,3,3,4,4,5,5,6,6,7,7,8,8,9,9,10,10,11,11,12,12,13,13,14,14],"right_children":[2,4,6,8,10,12,14,16,18,20,22,24,26,28,30,-1,-1,-1,-1,-1,-1,-1,-1,-1,-1,-1,-1,-1,-1,-1,-1],"split_conditions":[2.1E1,1E1,5E0,6E0,1.7E1,2E0,7E0,6E0,8E0,1.5E1,4E0,2.3E1,2.2E1,2.3E1,2.3E1,-4.2910617E-2,3.3879753E-2,-9.157143E-2,4.095647E-3,2.1170067E-2,1.1172544E-1,-3.945799E-2,2.7039511E-2,-1.20344535E-1,-5.848057E-2,-6.4727603E-3,-8.320149E-2,5.0142165E-2,-6.2362563E-2,-9.501731E-2,-1.4854102E-1],"split_indices":[1,1,0,0,1,0,0,1,1,1,0,1,1,1,1,0,0,0,0,0,0,0,0,0,0,0,0,0,0,0,0],"split_type":[0,0,0,0,0,0,0,0,0,0,0,0,0,0,0,0,0,0,0,0,0,0,0,0,0,0,0,0,0,0,0],"sum_hessian":[9.317E3,7.739E3,1.578E3,2.95E3,4.789E3,7.97E2,7.81E2,1.983E3,9.67E2,2.815E3,1.974E3,2.36E2,5.61E2,5.56E2,2.25E2,1.02E3,9.63E2,7.11E2,2.56E2,1.918E3,8.97E2,7.94E2,1.18E3,1.94E2,4.2E1,1.94E2,3.67E2,4.44E2,1.12E2,1.58E2,6.7E1],"tree_param":{"num_deleted":"0","num_feature":"2","num_nodes":"31","size_leaf_vector":"1"}},{"base_weights":[-1.5825221E-3,7.700495E-2,-3.8680443E-1,-2.2967747E-1,2.6592827E-1,-6.529175E-1,-1.1475195E-1,-5.0591916E-2,-5.964916E-1,4.505424E-1,2.5666263E-3,-9.8740685E-1,-5.1069885E-1,2.4665058E-1,-1.0049576E0,-6.105374E-2,1.7279057E-2,-1.9675644E-2,-1.0697742E-1,1.9054204E-2,1.0056539E-1,1.4602362E-2,-6.709032E-2,-1.0837177E-1,-5.2768517E-2,-5.8288244E-3,-7.490396E-2,4.5139205E-2,-5.6181487E-2,-8.557532E-2,-1.3390535E-1],"categories":[],"categories_nodes":[],"categories_segments":[],"categories_sizes":[],"default_left":[0,0,0,0,0,0,0,0,0,0,0,0,0,0,0,0,0,0,0,0,0,0,0,0,0,0,0,0,0,0,0],"id":29,"left_children":[1,3,5,7,9,11,13,15,17,19,21,23,25,27,29,-1,-1,-1,-1,-1,-1,-1,-1,-1,-1,-1,-1,-1,-1,-1,-1],"loss_changes":[2.821193E2,4.485125E2,1.1423955E2,1.9382425E2,2.3288998E2,3.745706E1,2.5183492E2,2.4826822E2,1.8292322E2,4.0623938E2,1.9091049E2,9.921585E0,6.0555603E1,9.245179E1,1.0119873E1,0E0,0E0,0E0,0E0,0E0,0E0,0E0,0E0,0E0,0E0,0E0,0E0,0E0,0E0,0E0,0E0],"parents":[2147483647,0,0,1,1,2,2,3,3,4,4,5,5,6,6,7,7,8,8,9,9,10,10,11,11,12,12,13,13,14,14],"right_children":[2,4,6,8,10,12,14,16,18,20,22,24,26,28,30,-1,-1,-1,-1,-1,-1,-1,-1,-1,-1,-1,-1,-1,-1,-1,-1],"split_conditions":[2.1E1,1E1,5E0,6E0,1.7E1,2E0,7E0,4E0,5E0,1.5E1,7E0,2.3E1,2.2E1,2.3E1,2.3E1,-6.105374E-2,1.7279057E-2,-1.9675644E-2,-1.0697742E-1,1.9054204E-2,1.0056539E-1,1.4602362E-2,-6.709032E-2,-1.0837177E-1,-5.2768517E-2,-5.8288244E-3,-7.490396E-2,4.5139205E-2,-5.6181487E-2,-8.557532E-2,-1.3390535E-1],"split_indices":[1,1,0,0,1,0,0,1,1,1,0,1,1,1,1,0,0,0,0,0,0,0,0,0,0,0,0,0,0,0,0],"split_type":[0,0,0,0,0,0,0,0,0,0,0,0,0,0,0,0,0,0,0,0,0,0,0,0,0,0,0,0,0,0,0],"sum_hessian":[9.317E3,7.739E3,1.578E3,2.95E3,4.789E3,7.97E2,7.81E2,1.983E3,9.67E2,2.815E3,1.974E3,2.36E2,5.61E2,5.56E2,2.25E2,5.65E2,1.418E3,5.25E2,4.42E2,1.918E3,8.97E2,1.628E3,3.46E2,1.94E2,4.2E1,1.94E2,3.67E2,4.44E2,1.12E2,1.58E2,6.7E1],"tree_param":{"num_deleted":"0","num_feature":"2","num_nodes":"31","size_leaf_vector":"1"}},{"base_weights":[-1.4860502E-3,6.9291115E-2,-3.4842318E-1,-2.0676728E-1,2.3934937E-1,-6.68868E-1,-1.6221675E-1,-4.5554526E-2,-5.369732E-1,4.0553063E-1,2.2831399E-3,-8.893461E-1,-5.150245E-1,5.472401E-2,-9.0543306E-1,-3.6015183E-2,2.8769175E-2,-7.81817E-2,1.4343815E-2,1.7149756E-2,9.052009E-2,-3.6975574E-2,2.527223E-2,-1.1097395E-1,-7.086646E-2,-4.1879725E-2,-1.0997011E-1,2.4311488E-2,-6.709229E-2,-7.707163E-2,-1.2071174E-1],"categories":[],"categories_nodes":[],"categories_segments":[],"categories_sizes":[],"default_left":[0,0,0,0,0,0,0,0,0,0,0,0,0,0,0,0,0,0,0,0,0,0,0,0,0,0,0,0,0,0,0],"id":30,"left_children":[1,3,5,7,9,11,13,15,17,19,21,23,25,27,29,-1,-1,-1,-1,-1,-1,-1,-1,-1,-1,-1,-1,-1,-1,-1,-1],"loss_changes":[2.2882973E2,3.6341156E2,9.410867E1,1.5706732E2,1.8870572E2,1.9215057E1,1.6128345E2,2.0810294E2,1.6137561E2,3.2914603E2,1.8411034E2,8.651154E0,1.8893517E1,1.0610968E2,8.25473E0,0E0,0E0,0E0,0E0,0E0,0E0,0E0,0E0,0E0,0E0,0E0,0E0,0E0,0E0,0E0,0E0],"parents":[2147483647,0,0,1,1,2,2,3,3,4,4,5,5,6,6,7,7,8,8,9,9,10,10,11,11,12,12,13,13,14,14],"right_children":[2,4,6,8,10,12,14,16,18,20,22,24,26,28,30,-1,-1,-1,-1,-1,-1,-1,-1,-1,-1,-1,-1,-1,-1,-1,-1],"split_conditions":[2.1E1,1E1,4E0,6E0,1.7E1,2E0,7E0,6E0,8E0,1.5E1,4E0,2.2E1,2.3E1,2.3E1,2.3E1,-3.6015183E-2,2.8769175E-2,-7.81817E-2,1.4343815E-2,1.7149756E-2,9.052009E-2,-3.6975574E-2,2.527223E-2,-1.1097395E-1,-7.086646E-2,-4.1879725E-2,-1.0997011E-1,2.4311488E-2,-6.709229E-2,-7.707163E-2,-1.2071174E-1],"split_indices":[1,1,0,0,1,0,0,1,1,1,0,1,1,1,1,0,0,0,0,0,0,0,0,0,0,0,0,0,0,0,0],"split_type":[0,0,0,0,0,0,0,0,0,0,0,0,0,0,0,0,0,0,0,0,0,0,0,0,0,0,0,0,0,0,0],"sum_hessian":[9.317E3,7.739E3,1.578E3,2.95E3,4.789E3,5.79E2,9.99E2,1.983E3,9.67E2,2.815E3,1.974E3,2.36E2,3.43E2,7.74E2,2.25E2,1.02E3,9.63E2,7.11E2,2.56E2,1.918E3,8.97E2,7.94E2,1.18E3,1.04E2,1.32E2,2.96E2,4.7E1,6.15E2,1.59E2,1.58E2,6.7E1],"tree_param":{"num_deleted":"0","num_feature":"2","num_nodes":"31","size_leaf_vector":"1"}},{"base_weights":[-1.396216E-3,6.2365428E-2,-3.139445E-1,-1.8611439E-1,2.1543464E-1,-5.4099065E-1,-8.185143E-2,-4.100232E-2,-4.8334187E-1,3.650161E-1,2.0489309E-3,-8.011789E-1,-4.303045E-1,2.1607733E-1,-8.15765E-1,-5.1363993E-2,1.4754869E-2,-9.908511E-3,-9.385015E-2,1.5435752E-2,8.147809E-2,1.3651381E-2,-6.292057E-2,-8.840082E-2,-4.0692557E-2,-3.7979565E-3,-6.370248E-2,3.8209774E-2,-4.396319E-2,-6.941297E-2,-1.0881807E-1],"categories":[],"categories_nodes":[],"categories_segments":[],"categories_sizes":[],"default_left":[0,0,0,0,0,0,0,0,0,0,0,0,0,0,0,0,0,0,0,0,0,0,0,0,0,0,0,0,0,0,0],"id":31,"left_children":[1,3,5,7,9,11,13,15,17,19,21,23,25,27,29,-1,-1,-1,-1,-1,-1,-1,-1,-1,-1,-1,-1,-1,-1,-1,-1],"loss_changes":[1.857142E2,2.9442798E2,8.316246E1,1.2726062E2,1.5288911E2,2.2637024E1,1.7116365E2,1.768825E2,1.6920842E2,2.6668115E2,1.6772702E2,7.3796844E0,4.5554863E1,6.080361E1,6.7332764E0,0E0,0E0,0E0,0E0,0E0,0E0,0E0,0E0,0E0,0E0,0E0,0E0,0E0,0E0,0E0,0E0],"parents":[2147483647,0,0,1,1,2,2,3,3,4,4,5,5,6,6,7,7,8,8,9,9,10,10,11,11,12,12,13,13,14,14],"right_children":[2,4,6,8,10,12,14,16,18,20,22,24,26,28,30,-1,-1,-1,-1,-1,-1,-1,-1,-1,-1,-1,-1,-1,-1,-1,-1],"split_conditions":[2.1E1,1E1,5E0,6E0,1.7E1,2E0,7E0,4E0,5E0,1.5E1,7E0,2.3E1,2.2E1,2.3E1,2.3E1,-5.1363993E-2,1.4754869E-2,-9.908511E-3,-9.385015E-2,1.5435752E-2,8.147809E-2,1.3651381E-2,-6.292057E-2,-8.840082E-2,-4.0692557E-2,-3.7979565E-3,-6.370248E-2,3.8209774E-2,-4.396319E-2,-6.941297E-2,-1.0881807E-1],"split_indices":[1,1,0,0,1,0,0,1,1,1,0,1,1,1,1,0,0,0,0,0,0,0,0,0,0,0,0,0,0,0,0],"split_type":[0,0,0,0,0,0,0,0,0,0,0,0,0,0,0,0,0,0,0,0,0,0,0,0,0,0,0,0,0,0,0],"sum_hessian":[9.317E3,7.739E3,1.578E3,2.95E3,4.789E3,7.97E2,7.81E2,1.983E3,9.67E2,2.815E3,1.974E3,2.36E2,5.61E2,5.56E2,2.25E2,5.65E2,1.418E3,5.25E2,4.42E2,1.918E3,8.97E2,1.628E3,3.46E2,1.94E2,4.2E1,1.94E2,3.67E2,4.44E2,1.12E2,1.58E2,6.7E1],"tree_param":{"num_deleted":"0","num_feature":"2","num_nodes":"31","size_leaf_vector":"1"}},{"base_weights":[-1.30755E-3,2.26253E-2,-6.831624E-1,-1.6755064E-1,1.1533743E-1,-5.990917E-1,-9.809629E-2,-3.6920827E-2,-4.3511468E-1,2.9841164E-1,-1.007409E-1,-7.62185E-1,-3.960575E-2,-3.0232353E-2,2.4421306E-2,-6.719219E-2,2.2263573E-2,7.096001E-2,-6.751697E-4,-7.233691E-2,1.4237759E-2,-3.6717933E-2,-9.3295395E-2],"categories":[],"categories_nodes":[],"categories_segments":[],"categories_sizes":[],"default_left":[0,0,0,0,0,0,0,0,0,0,0,0,0,0,0,0,0,0,0,0,0,0,0],"id":32,"left_children":[1,3,5,7,9,11,-1,13,15,17,19,21,-1,-1,-1,-1,-1,-1,-1,-1,-1,-1,-1],"loss_changes":[1.5207338E2,1.5875677E2,7.3237762E0,1.03126816E2,2.3947687E2,7.9433975E0,0E0,1.4810739E2,1.5092532E2,4.112016E2,4.204642E2,8.898727E0,0E0,0E0,0E0,0E0,0E0,0E0,0E0,0E0,0E0,0E0,0E0],"parents":[2147483647,0,0,1,1,2,2,3,3,4,4,5,5,7,7,8,8,9,9,10,10,11,11],"right_children":[2,4,6,8,10,12,-1,14,16,18,20,22,-1,-1,-1,-1,-1,-1,-1,-1,-1,-1,-1],"split_conditions":[2.3E1,1E1,7E0,6E0,1.8E1,5E0,-9.809629E-2,6E0,8E0,5E0,3E0,2E0,-3.960575E-2,-3.0232353E-2,2.4421306E-2,-6.719219E-2,2.2263573E-2,7.096001E-2,-6.751697E-4,-7.233691E-2,1.4237759E-2,-3.6717933E-2,-9.3295395E-2],"split_indices":[1,1,0,0,1,0,0,1,1,0,0,0,0,0,0,0,0,0,0,0,0,0,0],"split_type":[0,0,0,0,0,0,0,0,0,0,0,0,0,0,0,0,0,0,0,0,0,0,0],"sum_hessian":[9.317E3,9.002E3,3.15E2,2.95E3,6.052E3,2.48E2,6.7E1,1.983E3,9.67E2,3.276E3,2.776E3,1.36E2,1.12E2,1.02E3,9.63E2,7.11E2,2.56E2,1.395E3,1.881E3,7.79E2,1.997E3,4.2E1,9.4E1],"tree_param":{"num_deleted":"0","num_feature":"2","num_nodes":"23","size_leaf_vector":"1"}},{"base_weights":[-1.2095204E-3,5.1787898E-2,-2.6099342E-1,-1.374078E-1,1.8854637E-1,-4.4706136E-1,-7.078473E-2,-8.2334474E-2,-3.7071484E-1,4.1466334E-1,-1.6179465E-2,-6.558863E-1,-3.582027E-1,1.9107401E-1,-7.158491E-1,-4.0109284E-2,1.8745331E-3,-5.0461438E-2,6.71756E-2,7.671485E-2,-1.6749535E-2,3.5921104E-2,-6.670502E-3,-8.406158E-2,-5.051158E-2,-1.6399863E-3,-5.3834766E-2,3.297682E-2,-3.5680197E-2,-8.9165874E-2,-5.8848977E-2],"categories":[],"categories_nodes":[],"categories_segments":[],"categories_sizes":[],"default_left":[0,0,0,0,0,0,0,0,0,0,0,0,0,0,0,0,0,0,0,0,0,0,0,0,0,0,0,0,0,0,0],"id":33,"left_children":[1,3,5,7,9,11,13,15,17,19,21,23,25,27,29,-1,-1,-1,-1,-1,-1,-1,-1,-1,-1,-1,-1,-1,-1,-1,-1],"loss_changes":[1.283026E2,2.0029156E2,5.5851913E1,4.1703014E1,2.079966E2,1.4572678E1,1.3222888E2,8.471399E1,8.6882484E1,4.3823532E2,4.4766674E1,6.176262E0,3.4595787E1,4.2442535E1,4.535637E0,0E0,0E0,0E0,0E0,0E0,0E0,0E0,0E0,0E0,0E0,0E0,0E0,0E0,0E0,0E0,0E0],"parents":[2147483647,0,0,1,1,2,2,3,3,4,4,5,5,6,6,7,7,8,8,9,9,10,10,11,11,12,12,13,13,14,14],"right_children":[2,4,6,8,10,12,14,16,18,20,22,24,26,28,30,-1,-1,-1,-1,-1,-1,-1,-1,-1,-1,-1,-1,-1,-1,-1,-1],"split_conditions":[2.1E1,1.1E1,5E0,7E0,5E0,2E0,7E0,3E0,1E1,1.8E1,1.2E1,2.2E1,2.2E1,2.3E1,2.2E1,-4.0109284E-2,1.8745331E-3,-5.0461438E-2,6.71756E-2,7.671485E-2,-1.6749535E-2,3.5921104E-2,-6.670502E-3,-8.406158E-2,-5.051158E-2,-1.6399863E-3,-5.3834766E-2,3.297682E-2,-3.5680197E-2,-8.9165874E-2,-5.8848977E-2],"split_indices":[1,1,0,0,0,0,0,1,1,1,1,1,1,1,1,0,0,0,0,0,0,0,0,0,0,0,0,0,0,0,0],"split_type":[0,0,0,0,0,0,0,0,0,0,0,0,0,0,0,0,0,0,0,0,0,0,0,0,0,0,0,0,0,0,0],"sum_hessian":[9.317E3,7.739E3,1.578E3,3.247E3,4.492E3,7.97E2,7.81E2,2.628E3,6.19E2,2.134E3,2.358E3,2.36E2,5.61E2,5.56E2,2.25E2,6.32E2,1.996E3,5.49E2,7E1,1.329E3,8.05E2,2.79E2,2.079E3,1.04E2,1.32E2,1.94E2,3.67E2,4.44E2,1.12E2,9.2E1,1.33E2],"tree_param":{"num_deleted":"0","num_feature":"2","num_nodes":"31","size_leaf_vector":"1"}},{"base_weights":[-1.1181167E-3,-2.7141595E-1,4.4196956E-2,-4.556448E-2,-7.564908E-1,2.1588215E-1,-7.464899E-2,-4.2341557E-1,8.81412E-1,-2.583488E-1,-3.9512482E-1,3.7477848E-1,-2.8323328E-1,-6.0473895E-1,6.273879E-2,6.6287876E-3,-1.3424446E-1,1.4110853E-1,-1.4687604E-2,-5.244382E-4,-5.9086543E-2,3.1658087E-3,8.71458E-2,-1.0691107E-2,-4.846592E-2,-7.722966E-3,-1.6627848E-1,4.621538E-2,-6.111436E-3],"categories":[],"categories_nodes":[],"categories_segments":[],"categories_sizes":[],"default_left":[0,0,0,0,0,0,0,0,0,0,0,0,0,0,0,0,0,0,0,0,0,0,0,0,0,0,0,0,0],"id":34,"left_children":[1,3,5,7,9,11,13,15,17,-1,19,21,23,25,27,-1,-1,-1,-1,-1,-1,-1,-1,-1,-1,-1,-1,-1,-1],"loss_changes":[1.14144135E2,1.4654994E2,1.6286116E2,3.2051E2,2.795704E2,2.5904547E2,3.435671E2,2.9262262E2,1.4454124E2,0E0,2.7165195E1,4.2210495E2,2.7970196E1,5.4181494E2,1.8538788E2,0E0,0E0,0E0,0E0,0E0,0E0,0E0,0E0,0E0,0E0,0E0,0E0,0E0,0E0],"parents":[2147483647,0,0,1,1,2,2,3,3,4,4,5,5,6,6,7,7,8,8,10,10,11,11,12,12,13,13,14,14],"right_children":[2,4,6,8,10,12,14,16,18,-1,20,22,24,26,28,-1,-1,-1,-1,-1,-1,-1,-1,-1,-1,-1,-1,-1,-1],"split_conditions":[2E0,1.8E1,5E0,1.3E1,1.9E1,2E1,8E0,8E0,1.7E1,-2.583488E-1,2.1E1,1.3E1,2.2E1,5E0,1.2E1,6.6287876E-3,-1.3424446E-1,1.4110853E-1,-1.4687604E-2,-5.244382E-4,-5.9086543E-2,3.1658087E-3,8.71458E-2,-1.0691107E-2,-4.846592E-2,-7.722966E-3,-1.6627848E-1,4.621538E-2,-6.111436E-3],"split_indices":[0,1,0,1,1,1,1,1,1,0,1,1,1,1,1,0,0,0,0,0,0,0,0,0,0,0,0,0,0],"split_type":[0,0,0,0,0,0,0,0,0,0,0,0,0,0,0,0,0,0,0,0,0,0,0,0,0,0,0,0,0],"sum_hessian":[9.317E3,1.337E3,7.98E3,9.13E2,4.24E2,3.264E3,4.716E3,6.49E2,2.64E2,6.9E1,3.55E2,2.476E3,7.88E2,9.7E2,3.746E3,4.24E2,2.25E2,1.74E2,9E1,1.19E2,2.36E2,1.465E3,1.011E3,4.21E2,3.67E2,6.48E2,3.22E2,8.86E2,2.86E3],"tree_param":{"num_deleted":"0","num_feature":"2","num_nodes":"29","size_leaf_vector":"1"}},{"base_weights":[-1.0516264E-3,4.7035474E-2,-2.203408E-1,-2.4451284E-1,1.0888841E-1,-7.178726E-2,-9.155295E-1,-4.1009236E-2,-6.8158996E-1,-3.8614777E-1,1.4754185E-1,-4.3206435E-1,1.6617694E-1,-1.7957786E-1,-6.3883495E-1,-3.812701E-2,7.937476E-2,-2.3288302E-1,-3.5577986E-2,-5.024609E-2,-1.8867405E-2,1.716872E-2,-5.1151026E-2,4.6421215E-3,-7.536198E-2,4.9413525E-2,-2.5568223E-2,-7.974064E-2,-5.240142E-2],"categories":[],"categories_nodes":[],"categories_segments":[],"categories_sizes":[],"default_left":[0,0,0,0,0,0,0,0,0,0,0,0,0,0,0,0,0,0,0,0,0,0,0,0,0,0,0,0,0],"id":35,"left_children":[1,3,5,7,9,11,13,15,17,19,21,23,25,-1,27,-1,-1,-1,-1,-1,-1,-1,-1,-1,-1,-1,-1,-1,-1],"loss_changes":[9.826849E1,1.3785374E2,1.7301938E2,1.1898283E2,1.2072136E2,1.1855487E2,7.070305E1,2.5991068E2,2.2726363E2,1.0401932E1,9.317902E1,8.465778E1,1.1537373E2,0E0,3.696991E0,0E0,0E0,0E0,0E0,0E0,0E0,0E0,0E0,0E0,0E0,0E0,0E0,0E0,0E0],"parents":[2147483647,0,0,1,1,2,2,3,3,4,4,5,5,6,6,7,7,8,8,9,9,10,10,11,11,12,12,14,14],"right_children":[2,4,6,8,10,12,14,16,18,20,22,24,26,-1,28,-1,-1,-1,-1,-1,-1,-1,-1,-1,-1,-1,-1,-1,-1],"split_conditions":[7E0,2E0,2E1,1.8E1,2E0,1E1,2.1E1,1.3E1,1.9E1,5E0,2.3E1,4E0,1.6E1,-1.7957786E-1,2.2E1,-3.812701E-2,7.937476E-2,-2.3288302E-1,-3.5577986E-2,-5.024609E-2,-1.8867405E-2,1.716872E-2,-5.1151026E-2,4.6421215E-3,-7.536198E-2,4.9413525E-2,-2.5568223E-2,-7.974064E-2,-5.240142E-2],"split_indices":[0,0,1,1,1,1,1,1,1,0,1,1,1,0,1,0,0,0,0,0,0,0,0,0,0,0,0,0,0],"split_type":[0,0,0,0,0,0,0,0,0,0,0,0,0,0,0,0,0,0,0,0,0,0,0,0,0,0,0,0,0],"sum_hessian":[9.317E3,7.642E3,1.675E3,1.337E3,6.305E3,1.381E3,2.94E2,9.13E2,4.24E2,4.56E2,5.849E3,5.49E2,8.32E2,6.9E1,2.25E2,6.49E2,2.64E2,6.9E1,3.55E2,2.86E2,1.7E2,5.643E3,2.06E2,2.21E2,3.28E2,4.68E2,3.64E2,9.2E1,1.33E2],"tree_param":{"num_deleted":"0","num_feature":"2","num_nodes":"29","size_leaf_vector":"1"}},{"base_weights":[-1.0201721E-3,4.228899E-2,-1.985207E-1,-2.202311E-1,9.79835E-2,-6.4642474E-2,-8.2503325E-1,-3.6862772E-2,-6.1406267E-1,-3.4768417E-1,1.3278216E-1,-3.889863E-1,1.4958769E-1,-1.6187662E-1,-5.7553613E-1,-3.4320135E-2,7.146728E-2,-2.0992737E-1,-3.203019E-2,-4.1355897E-2,-6.6759735E-3,1.7503574E-2,-1.969319E-2,-1.0644579E-2,-8.530363E-2,4.448269E-2,-2.3018429E-2,-4.8931684E-2,-7.686734E-2],"categories":[],"categories_nodes":[],"categories_segments":[],"categories_sizes":[],"default_left":[0,0,0,0,0,0,0,0,0,0,0,0,0,0,0,0,0,0,0,0,0,0,0,0,0,0,0,0,0],"id":36,"left_children":[1,3,5,7,9,11,13,15,17,19,21,23,25,-1,27,-1,-1,-1,-1,-1,-1,-1,-1,-1,-1,-1,-1,-1,-1],"loss_changes":[7.971068E1,1.1176933E2,1.4052347E2,9.660269E1,9.784363E1,9.6085396E1,5.7488403E1,2.1067032E2,1.847537E2,8.429558E0,8.1534325E1,7.202131E1,9.350133E1,0E0,3.3872604E0,0E0,0E0,0E0,0E0,0E0,0E0,0E0,0E0,0E0,0E0,0E0,0E0,0E0,0E0],"parents":[2147483647,0,0,1,1,2,2,3,3,4,4,5,5,6,6,7,7,8,8,9,9,10,10,11,11,12,12,14,14],"right_children":[2,4,6,8,10,12,14,16,18,20,22,24,26,-1,28,-1,-1,-1,-1,-1,-1,-1,-1,-1,-1,-1,-1,-1,-1],"split_conditions":[7E0,2E0,2E1,1.8E1,2E0,1E1,2.1E1,1.3E1,1.9E1,6E0,2.2E1,5E0,1.6E1,-1.6187662E-1,2.3E1,-3.4320135E-2,7.146728E-2,-2.0992737E-1,-3.203019E-2,-4.1355897E-2,-6.6759735E-3,1.7503574E-2,-1.969319E-2,-1.0644579E-2,-8.530363E-2,4.448269E-2,-2.3018429E-2,-4.8931684E-2,-7.686734E-2],"split_indices":[0,0,1,1,1,1,1,1,1,0,1,1,1,0,1,0,0,0,0,0,0,0,0,0,0,0,0,0,0],"split_type":[0,0,0,0,0,0,0,0,0,0,0,0,0,0,0,0,0,0,0,0,0,0,0,0,0,0,0,0,0],"sum_hessian":[9.317E3,7.642E3,1.675E3,1.337E3,6.305E3,1.381E3,2.94E2,9.13E2,4.24E2,4.56E2,5.849E3,5.49E2,8.32E2,6.9E1,2.25E2,6.49E2,2.64E2,6.9E1,3.55E2,3.69E2,8.7E1,5.185E3,6.64E2,3.42E2,2.07E2,4.68E2,3.64E2,1.58E2,6.7E1],"tree_param":{"num_deleted":"0","num_feature":"2","num_nodes":"29","size_leaf_vector":"1"}},{"base_weights":[-9.844746E-4,1.5110399E-2,-4.5953244E-1,-1.9953918E-1,5.1198978E-2,-3.9394608E-1,-6.929365E-2,-3.313538E-2,-5.9612805E-1,2.0214564E-1,-5.42887E-2,-5.1378936E-1,-2.451631E-1,-3.0893369E-2,6.434761E-2,-1.8923451E-1,-3.0526403E-2,9.135538E-4,5.7687756E-2,-5.231728E-2,7.332922E-3,-1.5823012E-2,-6.693184E-2,-3.1565424E-2,-2.256417E-2],"categories":[],"categories_nodes":[],"categories_segments":[],"categories_sizes":[],"default_left":[0,0,0,0,0,0,0,0,0,0,0,0,0,0,0,0,0,0,0,0,0,0,0,0,0],"id":37,"left_children":[1,3,5,7,9,11,-1,13,15,17,19,21,23,-1,-1,-1,-1,-1,-1,-1,-1,-1,-1,-1,-1],"loss_changes":[6.8776306E1,6.9751045E1,4.564392E0,8.550833E1,1.2274555E2,4.3138695E0,0E0,1.7075877E2,1.4382214E2,2.293438E2,2.7158328E2,7.4701614E0,8.427286E-2,0E0,0E0,0E0,0E0,0E0,0E0,0E0,0E0,0E0,0E0,0E0,0E0],"parents":[2147483647,0,0,1,1,2,2,3,3,4,4,5,5,7,7,8,8,9,9,10,10,11,11,12,12],"right_children":[2,4,6,8,10,12,-1,14,16,18,20,22,24,-1,-1,-1,-1,-1,-1,-1,-1,-1,-1,-1,-1],"split_conditions":[2.3E1,2E0,7E0,1.8E1,5E0,5E0,-6.929365E-2,1.3E1,1.9E1,4E0,8E0,2E0,6E0,-3.0893369E-2,6.434761E-2,-1.8923451E-1,-3.0526403E-2,9.135538E-4,5.7687756E-2,-5.231728E-2,7.332922E-3,-1.5823012E-2,-6.693184E-2,-3.1565424E-2,-2.256417E-2],"split_indices":[1,0,0,1,0,0,0,1,1,0,1,0,0,0,0,0,0,0,0,0,0,0,0,0,0],"split_type":[0,0,0,0,0,0,0,0,0,0,0,0,0,0,0,0,0,0,0,0,0,0,0,0,0],"sum_hessian":[9.317E3,9.002E3,3.15E2,1.295E3,7.707E3,2.48E2,6.7E1,9.13E2,3.82E2,3.17E3,4.537E3,1.36E2,1.12E2,6.49E2,2.64E2,6.9E1,3.13E2,2.093E3,1.077E3,9.7E2,3.567E3,4.2E1,9.4E1,2.1E1,9.1E1],"tree_param":{"num_deleted":"0","num_feature":"2","num_nodes":"25","size_leaf_vector":"1"}},{"base_weights":[-9.2690124E-4,3.554909E-2,-1.7972566E-1,-6.2062874E-2,1.7576484E-1,-3.3601913E-1,-2.000457E-2,-2.2564347E-1,-3.341503E-2,4.6693426E-1,-1.6794963E-3,-4.369135E-1,-2.9287323E-1,1.7605415E-1,-5.031227E-1,-3.5151254E-2,7.819983E-3,8.214524E-3,-1.5282797E-2,1.9285063E-1,2.129121E-2,-3.20633E-2,2.1302814E-2,-6.016312E-2,-3.0358812E-2,-6.282776E-3,-4.1397646E-2,2.7651548E-2,-2.2112595E-2,-6.773714E-2,-3.7843432E-2],"categories":[],"categories_nodes":[],"categories_segments":[],"categories_sizes":[],"default_left":[0,0,0,0,0,0,0,0,0,0,0,0,0,0,0,0,0,0,0,0,0,0,0,0,0,0,0,0,0,0,0],"id":38,"left_children":[1,3,5,7,9,11,13,15,17,19,21,23,25,27,29,-1,-1,-1,-1,-1,-1,-1,-1,-1,-1,-1,-1,-1,-1,-1,-1],"loss_changes":[6.07771E1,1.05946236E2,3.9410423E1,2.138042E1,1.6414487E2,3.3458786E0,7.415924E1,2.603373E1,5.3623184E1,4.462293E2,1.3531975E2,5.0221214E0,1.563089E1,2.228614E1,4.653919E0,0E0,0E0,0E0,0E0,0E0,0E0,0E0,0E0,0E0,0E0,0E0,0E0,0E0,0E0,0E0,0E0],"parents":[2147483647,0,0,1,1,2,2,3,3,4,4,5,5,6,6,7,7,8,8,9,9,10,10,11,11,12,12,13,13,14,14],"right_children":[2,4,6,8,10,12,14,16,18,20,22,24,26,28,30,-1,-1,-1,-1,-1,-1,-1,-1,-1,-1,-1,-1,-1,-1,-1,-1],"split_conditions":[2.1E1,1.4E1,5E0,2E0,1.7E1,2E0,7E0,6E0,5E0,3E0,4E0,2.2E1,2.2E1,2.3E1,2.2E1,-3.5151254E-2,7.819983E-3,8.214524E-3,-1.5282797E-2,1.9285063E-1,2.129121E-2,-3.20633E-2,2.1302814E-2,-6.016312E-2,-3.0358812E-2,-6.282776E-3,-4.1397646E-2,2.7651548E-2,-2.2112595E-2,-6.773714E-2,-3.7843432E-2],"split_indices":[1,1,0,1,1,0,0,0,0,0,0,1,1,1,1,0,0,0,0,0,0,0,0,0,0,0,0,0,0,0,0],"split_type":[0,0,0,0,0,0,0,0,0,0,0,0,0,0,0,0,0,0,0,0,0,0,0,0,0,0,0,0,0,0,0],"sum_hessian":[9.317E3,7.739E3,1.578E3,4.563E3,3.176E3,7.97E2,7.81E2,6.79E2,3.884E3,1.202E3,1.974E3,2.36E2,5.61E2,5.56E2,2.25E2,4.8E2,1.99E2,1.974E3,1.91E3,1.77E2,1.025E3,7.94E2,1.18E3,1.04E2,1.32E2,1.94E2,3.67E2,4.44E2,1.12E2,9.2E1,1.33E2],"tree_param":{"num_deleted":"0","num_feature":"2","num_nodes":"31","size_leaf_vector":"1"}},{"base_weights":[-8.417645E-4,3.4611013E-2,-1.6251524E-1,-1.8083924E-1,8.031952E-2,-4.7622867E-2,-7.0020586E-1,1.659031E-1,-3.4187278E-1,-2.7916354E-1,1.0838848E-1,-3.0017912E-1,1.1918814E-1,-1.487429E-1,-4.532775E-1,-1.33913485E-2,1.0363247E-1,-1.6140725E-1,-1.5856674E-2,-3.9605033E-2,-8.135256E-3,2.1555172E-2,-2.8050036E-4,-3.5973457E-3,-7.3442124E-2,3.9519187E-2,-2.3578428E-2,-6.1036218E-2,-3.408734E-2],"categories":[],"categories_nodes":[],"categories_segments":[],"categories_sizes":[],"default_left":[0,0,0,0,0,0,0,0,0,0,0,0,0,0,0,0,0,0,0,0,0,0,0,0,0,0,0,0,0],"id":39,"left_children":[1,3,5,7,9,11,13,15,17,19,21,23,25,-1,27,-1,-1,-1,-1,-1,-1,-1,-1,-1,-1,-1,-1,-1,-1],"loss_changes":[5.3414288E1,7.528209E1,1.03504166E2,7.4766815E1,6.3659794E1,5.8258286E1,5.6670166E1,1.1104969E2,2.1289058E2,1.0534302E1,6.970836E1,6.307465E1,8.170528E1,0E0,3.7824135E0,0E0,0E0,0E0,0E0,0E0,0E0,0E0,0E0,0E0,0E0,0E0,0E0,0E0,0E0],"parents":[2147483647,0,0,1,1,2,2,3,3,4,4,5,5,6,6,7,7,8,8,9,9,10,10,11,11,12,12,14,14],"right_children":[2,4,6,8,10,12,14,16,18,20,22,24,26,-1,28,-1,-1,-1,-1,-1,-1,-1,-1,-1,-1,-1,-1,-1,-1],"split_conditions":[7E0,2E0,2E1,8E0,2E0,1E1,2.1E1,5E0,1E1,5E0,5E0,5E0,1.6E1,-1.487429E-1,2.2E1,-1.33913485E-2,1.0363247E-1,-1.6140725E-1,-1.5856674E-2,-3.9605033E-2,-8.135256E-3,2.1555172E-2,-2.8050036E-4,-3.5973457E-3,-7.3442124E-2,3.9519187E-2,-2.3578428E-2,-6.1036218E-2,-3.408734E-2],"split_indices":[0,0,1,1,1,1,1,1,1,0,0,1,1,0,1,0,0,0,0,0,0,0,0,0,0,0,0,0,0],"split_type":[0,0,0,0,0,0,0,0,0,0,0,0,0,0,0,0,0,0,0,0,0,0,0,0,0,0,0,0,0],"sum_hessian":[9.317E3,7.642E3,1.675E3,1.337E3,6.305E3,1.381E3,2.94E2,4.24E2,9.13E2,4.56E2,5.849E3,5.49E2,8.32E2,6.9E1,2.25E2,3.16E2,1.08E2,1.14E2,7.99E2,2.86E2,1.7E2,2.978E3,2.871E3,3.42E2,2.07E2,4.68E2,3.64E2,9.2E1,1.33E2],"tree_param":{"num_deleted":"0","num_feature":"2","num_nodes":"29","size_leaf_vector":"1"}},{"base_weights":[-8.0242596E-4,3.18107E-2,-1.6066612E-1,-5.535258E-2,1.570173E-1,-3.1305432E-1,-4.954547E-3,-2.649925E-2,-1.8157594E-1,4.1257703E-1,1.272822E-3,-2.3571713E-1,-3.5867587E-1,1.5873843E-1,-4.0837064E-1,-6.306828E-3,3.2872874E-2,-4.3547703E-3,-2.7058753E-1,1.1805277E-1,6.486664E-5,-2.9705567E-2,2.0209406E-2,-4.6834834E-2,3.9615877E-2,-2.3965117E-2,-6.660735E-2,2.4920564E-2,-1.9893091E-2,-5.499823E-2,-3.070404E-2],"categories":[],"categories_nodes":[],"categories_segments":[],"categories_sizes":[],"default_left":[0,0,0,0,0,0,0,0,0,0,0,0,0,0,0,0,0,0,0,0,0,0,0,0,0,0,0,0,0,0,0],"id":40,"left_children":[1,3,5,7,9,11,13,15,17,19,21,23,25,27,29,-1,-1,-1,-1,-1,-1,-1,-1,-1,-1,-1,-1,-1,-1,-1,-1],"loss_changes":[4.8585945E1,8.447855E1,3.7465927E1,1.6617111E1,1.2645049E2,2.73098E0,5.1705284E1,4.8292843E1,2.9569467E2,3.80557E2,1.18383644E2,4.4136765E1,1.8134338E1,1.8072615E1,3.0741272E0,0E0,0E0,0E0,0E0,0E0,0E0,0E0,0E0,0E0,0E0,0E0,0E0,0E0,0E0,0E0,0E0],"parents":[2147483647,0,0,1,1,2,2,3,3,4,4,5,5,6,6,7,7,8,8,9,9,10,10,11,11,12,12,13,13,14,14],"right_children":[2,4,6,8,10,12,14,16,18,20,22,24,26,28,30,-1,-1,-1,-1,-1,-1,-1,-1,-1,-1,-1,-1,-1,-1,-1,-1],"split_conditions":[2.1E1,1.4E1,5E0,7E0,1.7E1,2.2E1,7E0,1.3E1,1.3E1,5E0,4E0,4E0,4E0,2.3E1,2.2E1,-6.306828E-3,3.2872874E-2,-4.3547703E-3,-2.7058753E-1,1.1805277E-1,6.486664E-5,-2.9705567E-2,2.0209406E-2,-4.6834834E-2,3.9615877E-2,-2.3965117E-2,-6.660735E-2,2.4920564E-2,-1.9893091E-2,-5.499823E-2,-3.070404E-2],"split_indices":[1,1,0,0,1,1,0,1,1,0,0,0,0,1,1,0,0,0,0,0,0,0,0,0,0,0,0,0,0,0,0],"split_type":[0,0,0,0,0,0,0,0,0,0,0,0,0,0,0,0,0,0,0,0,0,0,0,0,0,0,0,0,0,0,0],"sum_hessian":[9.317E3,7.739E3,1.578E3,4.563E3,3.176E3,7.97E2,7.81E2,3.715E3,8.48E2,1.202E3,1.974E3,2.98E2,4.99E2,5.56E2,2.25E2,3.369E3,3.46E2,8.05E2,4.3E1,4.19E2,7.83E2,7.94E2,1.18E3,2.18E2,8E1,3.61E2,1.38E2,4.44E2,1.12E2,9.2E1,1.33E2],"tree_param":{"num_deleted":"0","num_feature":"2","num_nodes":"31","size_leaf_vector":"1"}},{"base_weights":[-7.562398E-4,1.1459326E-2,-3.4878153E-1,-1.6148217E-1,4.0535707E-2,-7.42265E-3,-3.905957E-1,1.5581743E-1,-3.1594416E-1,1.6424909E-1,-4.591993E-2,-5.386479E-2,-3.102871E-1,-1.1427746E-2,9.3989335E-2,-1.4478157E-1,-1.438054E-2,-3.731563E-5,4.8387315E-2,-4.436421E-2,6.232955E-3,-1.7921424E-2,-5.2353628E-2],"categories":[],"categories_nodes":[],"categories_segments":[],"categories_sizes":[],"default_left":[0,0,0,0,0,0,0,0,0,0,0,0,0,0,0,0,0,0,0,0,0,0,0],"id":41,"left_children":[1,3,5,7,9,-1,11,13,15,17,19,-1,21,-1,-1,-1,-1,-1,-1,-1,-1,-1,-1],"loss_changes":[3.961785E1,4.527824E1,3.5987816E0,6.3567127E1,8.245014E1,0E0,3.0906868E0,9.011174E1,1.6969139E2,1.6684943E2,1.9540317E2,0E0,4.9373875E0,0E0,0E0,0E0,0E0,0E0,0E0,0E0,0E0,0E0,0E0],"parents":[2147483647,0,0,1,1,2,2,3,3,4,4,6,6,7,7,8,8,9,9,10,10,12,12],"right_children":[2,4,6,8,10,-1,12,14,16,18,20,-1,22,-1,-1,-1,-1,-1,-1,-1,-1,-1,-1],"split_conditions":[2.3E1,2E0,2E0,8E0,5E0,-7.42265E-3,5E0,5E0,1E1,4E0,8E0,-5.386479E-2,7E0,-1.1427746E-2,9.3989335E-2,-1.4478157E-1,-1.438054E-2,-3.731563E-5,4.8387315E-2,-4.436421E-2,6.232955E-3,-1.7921424E-2,-5.2353628E-2],"split_indices":[1,0,0,1,0,0,0,1,1,0,1,0,0,0,0,0,0,0,0,0,0,0,0],"split_type":[0,0,0,0,0,0,0,0,0,0,0,0,0,0,0,0,0,0,0,0,0,0,0],"sum_hessian":[9.317E3,9.002E3,3.15E2,1.295E3,7.707E3,4.2E1,2.73E2,4.24E2,8.71E2,3.17E3,4.537E3,9.4E1,1.79E2,3.16E2,1.08E2,1.14E2,7.57E2,2.093E3,1.077E3,9.7E2,3.567E3,1.12E2,6.7E1],"tree_param":{"num_deleted":"0","num_feature":"2","num_nodes":"23","size_leaf_vector":"1"}},{"base_weights":[-7.0187676E-4,4.013406E-2,-1.0702348E-1,-4.519541E-2,2.195827E-1,-3.3952262E-2,-4.992927E-1,-1.6223094E-1,-2.4698794E-2,5.3476095E-1,-9.766922E-3,-1.900681E-1,2.0423594E-1,-6.181296E-1,-2.5345856E-1,-3.21027E-2,6.166685E-3,6.120967E-3,-1.1347144E-2,1.5252465E-2,1.6841538E-1,-1.3349838E-2,5.676905E-2,-4.890213E-3,-2.8199464E-2,2.5891472E-2,-1.6145138E-2,-2.3576884E-2,-8.786622E-2,-2.7920532E-3,-4.7195252E-2],"categories":[],"categories_nodes":[],"categories_segments":[],"categories_sizes":[],"default_left":[0,0,0,0,0,0,0,0,0,0,0,0,0,0,0,0,0,0,0,0,0,0,0,0,0,0,0,0,0,0,0],"id":42,"left_children":[1,3,5,7,9,11,13,15,17,19,21,23,25,27,29,-1,-1,-1,-1,-1,-1,-1,-1,-1,-1,-1,-1,-1,-1,-1,-1],"loss_changes":[4.046065E1,1.0310735E2,7.4107086E1,1.0944263E1,1.5686588E2,8.113919E1,1.1704292E1,2.4196579E1,2.9635204E1,4.012995E2,8.988799E1,1.7089767E1,1.7317764E1,2.6988396E1,6.590167E0,0E0,0E0,0E0,0E0,0E0,0E0,0E0,0E0,0E0,0E0,0E0,0E0,0E0,0E0,0E0,0E0],"parents":[2147483647,0,0,1,1,2,2,3,3,4,4,5,5,6,6,7,7,8,8,9,9,10,10,11,11,12,12,13,13,14,14],"right_children":[2,4,6,8,10,12,14,16,18,20,22,24,26,28,30,-1,-1,-1,-1,-1,-1,-1,-1,-1,-1,-1,-1,-1,-1,-1,-1],"split_conditions":[1.9E1,1.4E1,7E0,2E0,5E0,5E0,2.2E1,5E0,5E0,4E0,1.8E1,2.1E1,2.3E1,2E1,2.3E1,-3.21027E-2,6.166685E-3,6.120967E-3,-1.1347144E-2,1.5252465E-2,1.6841538E-1,-1.3349838E-2,5.676905E-2,-4.890213E-3,-2.8199464E-2,2.5891472E-2,-1.6145138E-2,-2.3576884E-2,-8.786622E-2,-2.7920532E-3,-4.7195252E-2],"split_indices":[1,1,0,1,0,0,1,0,0,0,1,1,1,1,1,0,0,0,0,0,0,0,0,0,0,0,0,0,0,0,0],"split_type":[0,0,0,0,0,0,0,0,0,0,0,0,0,0,0,0,0,0,0,0,0,0,0,0,0,0,0,0,0,0,0],"sum_hessian":[9.317E3,6.732E3,2.585E3,4.563E3,2.169E3,2.18E3,4.05E2,6.79E2,3.884E3,9.13E2,1.256E3,1.317E3,8.63E2,2.72E2,1.33E2,3.97E2,2.82E2,1.974E3,1.91E3,6.86E2,2.27E2,1.035E3,2.21E2,5.2E2,7.97E2,7.51E2,1.12E2,1.11E2,1.61E2,6.6E1,6.7E1],"tree_param":{"num_deleted":"0","num_feature":"2","num_nodes":"31","size_leaf_vector":"1"}},{"base_weights":[-6.3051714E-4,3.614969E-2,-9.639251E-2,-4.06827E-2,1.977289E-1,-3.056762E-2,-4.497612E-1,-1.9077396E-2,-1.3519932E-1,4.8148564E-1,-8.755902E-3,-1.7108627E-1,1.8382373E-1,-6.265616E-1,-3.0617437E-1,-5.0365054E-3,2.8483754E-2,-9.4055495E-4,-2.43644E-1,1.3729408E-2,1.5164773E-1,-1.2016174E-2,5.1117748E-2,-4.4021076E-3,-2.5383046E-2,2.3305787E-2,-1.4544954E-2,-2.1240247E-2,-1.2802653E-1,-4.1482043E-2,-2.284859E-2],"categories":[],"categories_nodes":[],"categories_segments":[],"categories_sizes":[],"default_left":[0,0,0,0,0,0,0,0,0,0,0,0,0,0,0,0,0,0,0,0,0,0,0,0,0,0,0,0,0,0,0],"id":43,"left_children":[1,3,5,7,9,11,13,15,17,19,21,23,25,27,29,-1,-1,-1,-1,-1,-1,-1,-1,-1,-1,-1,-1,-1,-1,-1,-1],"loss_changes":[3.282284E1,8.3594986E1,6.0137787E1,9.317384E0,1.27147675E2,6.573621E1,1.011496E1,3.534899E1,2.4574709E2,3.2539093E2,7.2871414E1,1.3846157E1,1.4040619E1,4.873153E1,1.8127861E0,0E0,0E0,0E0,0E0,0E0,0E0,0E0,0E0,0E0,0E0,0E0,0E0,0E0,0E0,0E0,0E0],"parents":[2147483647,0,0,1,1,2,2,3,3,4,4,5,5,6,6,7,7,8,8,9,9,10,10,11,11,12,12,13,13,14,14],"right_children":[2,4,6,8,10,12,14,16,18,20,22,24,26,28,30,-1,-1,-1,-1,-1,-1,-1,-1,-1,-1,-1,-1,-1,-1,-1,-1],"split_conditions":[1.9E1,1.4E1,7E0,7E0,5E0,5E0,2.1E1,1.3E1,1.3E1,4E0,1.8E1,2.1E1,2.3E1,2E1,2.2E1,-5.0365054E-3,2.8483754E-2,-9.4055495E-4,-2.43644E-1,1.3729408E-2,1.5164773E-1,-1.2016174E-2,5.1117748E-2,-4.4021076E-3,-2.5383046E-2,2.3305787E-2,-1.4544954E-2,-2.1240247E-2,-1.2802653E-1,-4.1482043E-2,-2.284859E-2],"split_indices":[1,1,0,0,0,0,1,1,1,0,1,1,1,1,1,0,0,0,0,0,0,0,0,0,0,0,0,0,0,0,0],"split_type":[0,0,0,0,0,0,0,0,0,0,0,0,0,0,0,0,0,0,0,0,0,0,0,0,0,0,0,0,0,0,0],"sum_hessian":[9.317E3,6.732E3,2.585E3,4.563E3,2.169E3,2.18E3,4.05E2,3.715E3,8.48E2,9.13E2,1.256E3,1.317E3,8.63E2,1.8E2,2.25E2,3.369E3,3.46E2,8.05E2,4.3E1,6.86E2,2.27E2,1.035E3,2.21E2,5.2E2,7.97E2,7.51E2,1.12E2,1.11E2,6.9E1,9.2E1,1.33E2],"tree_param":{"num_deleted":"0","num_feature":"2","num_nodes":"31","size_leaf_vector":"1"}},{"base_weights":[-5.9427647E-4,-1.3754474E-1,2.236529E-2,1.4933169E-1,-2.7078864E-1,1.1467342E-1,-4.1533034E-2,-9.058248E-2,8.456937E-1,-1.3053676E0,-1.2172944E-1,2.3221275E-1,-1.665392E-1,-3.8986596E-1,4.874527E-2,-2.9530277E-2,-1.062314E-3,1.240552E-1,5.696413E-2,-8.1954174E-2,-1.417916E-1,3.007288E-2,-3.5610095E-2,-1.3089589E-3,6.610684E-2,-3.8736366E-2,-5.2393056E-3,7.561292E-3,-1.32394E-1,4.182486E-2,-6.582942E-3],"categories":[],"categories_nodes":[],"categories_segments":[],"categories_sizes":[],"default_left":[0,0,0,0,0,0,0,0,0,0,0,0,0,0,0,0,0,0,0,0,0,0,0,0,0,0,0,0,0,0,0],"id":44,"left_children":[1,3,5,7,9,11,13,15,17,19,21,23,25,27,29,-1,-1,-1,-1,-1,-1,-1,-1,-1,-1,-1,-1,-1,-1,-1,-1],"loss_changes":[2.9301882E1,5.118486E1,4.707937E1,7.108013E1,1.4079227E2,1.07958496E2,1.4835405E2,5.185931E0,1.11744995E1,5.1260376E0,7.9316826E1,2.4228262E2,2.4253332E1,4.2228284E2,1.5865952E2,0E0,0E0,0E0,0E0,0E0,0E0,0E0,0E0,0E0,0E0,0E0,0E0,0E0,0E0,0E0,0E0],"parents":[2147483647,0,0,1,1,2,2,3,3,4,4,5,5,6,6,7,7,8,8,9,9,10,10,11,11,12,12,13,13,14,14],"right_children":[2,4,6,8,10,12,14,16,18,20,22,24,26,28,30,-1,-1,-1,-1,-1,-1,-1,-1,-1,-1,-1,-1,-1,-1,-1,-1],"split_conditions":[2E0,8E0,5E0,5E0,1E1,1.9E1,8E0,1E0,7E0,9E0,1.7E1,1.3E1,3E0,5E0,1.2E1,-2.9530277E-2,-1.062314E-3,1.240552E-1,5.696413E-2,-8.1954174E-2,-1.417916E-1,3.007288E-2,-3.5610095E-2,-1.3089589E-3,6.610684E-2,-3.8736366E-2,-5.2393056E-3,7.561292E-3,-1.32394E-1,4.182486E-2,-6.582942E-3],"split_indices":[0,1,0,1,1,1,1,1,1,1,1,1,0,1,1,0,0,0,0,0,0,0,0,0,0,0,0,0,0,0,0],"split_type":[0,0,0,0,0,0,0,0,0,0,0,0,0,0,0,0,0,0,0,0,0,0,0,0,0,0,0,0,0,0,0],"sum_hessian":[9.317E3,1.337E3,7.98E3,4.24E2,9.13E2,3.264E3,4.716E3,3.16E2,1.08E2,1.14E2,7.99E2,2.302E3,9.62E2,9.7E2,3.746E3,8.8E1,2.28E2,4.3E1,6.5E1,2.3E1,9.1E1,2.85E2,5.14E2,1.465E3,8.37E2,3.27E2,6.35E2,6.48E2,3.22E2,8.86E2,2.86E3],"tree_param":{"num_deleted":"0","num_feature":"2","num_nodes":"31","size_leaf_vector":"1"}},{"base_weights":[-5.507575E-4,-1.2384918E-1,2.0120066E-2,1.3475238E-1,-2.4396057E-1,2.0339745E-1,-9.548723E-3,-8.162061E-2,7.6278436E-1,-8.889228E-1,-3.20514E-2,5.366237E-1,-3.9574873E-1,-2.525306E-1,3.330026E-2,-2.6610428E-2,-9.5652946E-4,1.1193156E-1,5.135395E-2,-1.1767757E-1,-5.854227E-2,8.17171E-2,-3.205599E-2,1.3258822E-2,2.1804805E-1,-5.4045837E-2,-1.9024817E-2,-3.3238173E-2,-4.664115E-3,3.29704E-2,-3.739881E-3],"categories":[],"categories_nodes":[],"categories_segments":[],"categories_sizes":[],"default_left":[0,0,0,0,0,0,0,0,0,0,0,0,0,0,0,0,0,0,0,0,0,0,0,0,0,0,0,0,0,0,0],"id":45,"left_children":[1,3,5,7,9,11,13,15,17,19,21,23,25,27,29,-1,-1,-1,-1,-1,-1,-1,-1,-1,-1,-1,-1,-1,-1,-1,-1],"loss_changes":[2.3751091E1,4.1592484E1,4.339957E1,5.781515E1,1.24891014E2,2.2222455E2,7.153559E1,4.2113447E0,9.111313E0,1.9055206E1,1.6907239E2,4.7459702E2,1.1732864E1,1.6918213E1,1.2241321E2,0E0,0E0,0E0,0E0,0E0,0E0,0E0,0E0,0E0,0E0,0E0,0E0,0E0,0E0,0E0,0E0],"parents":[2147483647,0,0,1,1,2,2,3,3,4,4,5,5,6,6,7,7,8,8,9,9,10,10,11,11,12,12,13,13,14,14],"right_children":[2,4,6,8,10,12,14,16,18,20,22,24,26,28,30,-1,-1,-1,-1,-1,-1,-1,-1,-1,-1,-1,-1,-1,-1,-1,-1],"split_conditions":[2E0,8E0,3E0,5E0,1.3E1,1.8E1,4E0,1E0,7E0,1E1,1.7E1,1.4E1,2.1E1,1.9E1,5E0,-2.6610428E-2,-9.5652946E-4,1.1193156E-1,5.135395E-2,-1.1767757E-1,-5.854227E-2,8.17171E-2,-3.205599E-2,1.3258822E-2,2.1804805E-1,-5.4045837E-2,-1.9024817E-2,-3.3238173E-2,-4.664115E-3,3.29704E-2,-3.739881E-3],"split_indices":[0,1,0,1,1,1,0,1,1,1,1,1,1,1,0,0,0,0,0,0,0,0,0,0,0,0,0,0,0,0,0],"split_type":[0,0,0,0,0,0,0,0,0,0,0,0,0,0,0,0,0,0,0,0,0,0,0,0,0,0,0,0,0,0,0],"sum_hessian":[9.317E3,1.337E3,7.98E3,4.24E2,9.13E2,1.111E3,6.869E3,3.16E2,1.08E2,2.25E2,6.88E2,7.14E2,3.97E2,1.029E3,5.84E3,8.8E1,2.28E2,4.3E1,6.5E1,1.14E2,1.11E2,1.74E2,5.14E2,5.74E2,1.4E2,2.32E2,1.65E2,7.41E2,2.88E2,1.124E3,4.716E3],"tree_param":{"num_deleted":"0","num_feature":"2","num_nodes":"31","size_leaf_vector":"1"}},{"base_weights":[-4.7844942E-4,8.396926E-3,-2.533409E-1,-1.1677645E-1,2.9442115E-2,5.145259E-3,-3.0024886E-1,1.2159659E-1,-2.3282206E-1,1.0890957E-1,-2.6093526E-2,-4.4115152E-2,-2.2421551E-1,-7.354555E-3,6.880045E-2,-8.008102E-2,-3.4061407E-3,-4.3148277E-4,3.2874536E-2,-3.472718E-2,6.131964E-3,-1.2080159E-2,-3.9276782E-2],"categories":[],"categories_nodes":[],"categories_segments":[],"categories_sizes":[],"default_left":[0,0,0,0,0,0,0,0,0,0,0,0,0,0,0,0,0,0,0,0,0,0,0],"id":46,"left_children":[1,3,5,7,9,-1,11,13,15,17,19,-1,21,-1,-1,-1,-1,-1,-1,-1,-1,-1,-1],"loss_changes":[2.0914043E1,2.3720015E1,4.533375E0,3.5878452E1,3.4020374E1,0E0,2.8365326E0,4.7025875E1,9.841603E1,7.893007E1,1.2742659E2,0E0,3.0900707E0,0E0,0E0,0E0,0E0,0E0,0E0,0E0,0E0,0E0,0E0],"parents":[2147483647,0,0,1,1,2,2,3,3,4,4,6,6,7,7,8,8,9,9,10,10,12,12],"right_children":[2,4,6,8,10,-1,12,14,16,18,20,-1,22,-1,-1,-1,-1,-1,-1,-1,-1,-1,-1],"split_conditions":[2.3E1,2E0,2E0,8E0,5E0,5.145259E-3,5E0,5E0,1.3E1,4E0,8E0,-4.4115152E-2,7E0,-7.354555E-3,6.880045E-2,-8.008102E-2,-3.4061407E-3,-4.3148277E-4,3.2874536E-2,-3.472718E-2,6.131964E-3,-1.2080159E-2,-3.9276782E-2],"split_indices":[1,0,0,1,0,0,0,1,1,0,1,0,0,0,0,0,0,0,0,0,0,0,0],"split_type":[0,0,0,0,0,0,0,0,0,0,0,0,0,0,0,0,0,0,0,0,0,0,0],"sum_hessian":[9.317E3,9.002E3,3.15E2,1.295E3,7.707E3,4.2E1,2.73E2,4.24E2,8.71E2,3.17E3,4.537E3,9.4E1,1.79E2,3.16E2,1.08E2,2.25E2,6.46E2,2.093E3,1.077E3,9.7E2,3.567E3,1.12E2,6.7E1],"tree_param":{"num_deleted":"0","num_feature":"2","num_nodes":"23","size_leaf_vector":"1"}},{"base_weights":[-4.423677E-4,3.725861E-2,-6.1625425E-2,-2.1976108E-2,3.5839066E-1,-2.249205E-1,4.1323684E-2,-8.074718E-2,7.996988E-2,1.4260678E0,9.430616E-2,-4.4308323E-1,-1.3391878E-1,1.8189654E-1,-3.5417116E-1,1.4892648E-2,-3.0305495E-2,-2.9117158E-2,3.2686032E-2,6.067204E-2,2.7116063E-1,4.3152362E-2,-5.270166E-3,8.760075E-3,-8.78543E-2,-1.7580746E-2,-3.445897E-3,2.9391348E-2,-1.2014425E-2,-9.57323E-2,-2.2590613E-2],"categories":[],"categories_nodes":[],"categories_segments":[],"categories_sizes":[],"default_left":[0,0,0,0,0,0,0,0,0,0,0,0,0,0,0,0,0,0,0,0,0,0,0,0,0,0,0,0,0,0,0],"id":47,"left_children":[1,3,5,7,9,11,13,15,17,19,21,23,25,27,29,-1,-1,-1,-1,-1,-1,-1,-1,-1,-1,-1,-1,-1,-1,-1,-1],"loss_changes":[2.1495764E1,1.0968968E2,5.9739067E1,2.917895E1,2.530629E2,2.7218933E1,1.2126335E2,1.5776402E2,1.6329048E2,1.8584265E2,3.576531E1,9.343795E1,4.039362E0,5.447371E1,4.403553E1,0E0,0E0,0E0,0E0,0E0,0E0,0E0,0E0,0E0,0E0,0E0,0E0,0E0,0E0,0E0,0E0],"parents":[2147483647,0,0,1,1,2,2,3,3,4,4,5,5,6,6,7,7,8,8,9,9,10,10,11,11,12,12,13,13,14,14],"right_children":[2,4,6,8,10,12,14,16,18,20,22,24,26,28,30,-1,-1,-1,-1,-1,-1,-1,-1,-1,-1,-1,-1,-1,-1,-1,-1],"split_conditions":[1.7E1,1.5E1,4E0,6E0,3E0,1.9E1,7E0,8E0,8E0,2E0,5E0,1.8E1,3E0,2.2E1,1.8E1,1.4892648E-2,-3.0305495E-2,-2.9117158E-2,3.2686032E-2,6.067204E-2,2.7116063E-1,4.3152362E-2,-5.270166E-3,8.760075E-3,-8.78543E-2,-1.7580746E-2,-3.445897E-3,2.9391348E-2,-1.2014425E-2,-9.57323E-2,-2.2590613E-2],"split_indices":[1,1,0,0,0,1,0,1,1,0,0,1,0,1,1,0,0,0,0,0,0,0,0,0,0,0,0,0,0,0,0],"split_type":[0,0,0,0,0,0,0,0,0,0,0,0,0,0,0,0,0,0,0,0,0,0,0,0,0,0,0,0,0,0,0],"sum_hessian":[9.317E3,5.765E3,3.552E3,4.868E3,8.97E2,1.373E3,2.179E3,3.088E3,1.78E3,1.77E2,7.2E2,4.03E2,9.7E2,1.608E3,5.71E2,1.519E3,1.569E3,7.11E2,1.069E3,1.09E2,6.8E1,2.18E2,5.02E2,1.82E2,2.21E2,6.82E2,2.88E2,1.173E3,4.35E2,9.9E1,4.72E2],"tree_param":{"num_deleted":"0","num_feature":"2","num_nodes":"31","size_leaf_vector":"1"}},{"base_weights":[-3.812999E-4,3.3594903E-2,-5.5519607E-2,-1.9780822E-2,3.229633E-1,-2.0250136E-1,3.714482E-2,-7.267724E-2,7.197484E-2,1.285325E0,8.492811E-2,-3.9897078E-1,-1.20548576E-1,1.6371746E-1,-3.1896096E-1,1.3404368E-2,-2.7276842E-2,-2.6209522E-2,2.9420463E-2,5.465993E-2,2.444376E-1,3.8856883E-2,-4.744215E-3,7.888815E-3,-7.910844E-2,-3.2253861E-3,-1.7138034E-2,2.6454687E-2,-1.0815742E-2,-8.625486E-2,-2.0336326E-2],"categories":[],"categories_nodes":[],"categories_segments":[],"categories_sizes":[],"default_left":[0,0,0,0,0,0,0,0,0,0,0,0,0,0,0,0,0,0,0,0,0,0,0,0,0,0,0,0,0,0,0],"id":48,"left_children":[1,3,5,7,9,11,13,15,17,19,21,23,25,27,29,-1,-1,-1,-1,-1,-1,-1,-1,-1,-1,-1,-1,-1,-1,-1,-1],"loss_changes":[1.7458115E1,8.906368E1,4.839931E1,2.3637142E1,2.0560104E2,2.2074982E1,9.8311905E1,1.2780696E2,1.322991E2,1.510712E2,2.8997585E1,7.5761894E1,4.3524933E0,4.413611E1,3.5767628E1,0E0,0E0,0E0,0E0,0E0,0E0,0E0,0E0,0E0,0E0,0E0,0E0,0E0,0E0,0E0,0E0],"parents":[2147483647,0,0,1,1,2,2,3,3,4,4,5,5,6,6,7,7,8,8,9,9,10,10,11,11,12,12,13,13,14,14],"right_children":[2,4,6,8,10,12,14,16,18,20,22,24,26,28,30,-1,-1,-1,-1,-1,-1,-1,-1,-1,-1,-1,-1,-1,-1,-1,-1],"split_conditions":[1.7E1,1.5E1,4E0,6E0,3E0,1.9E1,7E0,8E0,8E0,2E0,5E0,1.8E1,2E0,2.2E1,1.8E1,1.3404368E-2,-2.7276842E-2,-2.6209522E-2,2.9420463E-2,5.465993E-2,2.444376E-1,3.8856883E-2,-4.744215E-3,7.888815E-3,-7.910844E-2,-3.2253861E-3,-1.7138034E-2,2.6454687E-2,-1.0815742E-2,-8.625486E-2,-2.0336326E-2],"split_indices":[1,1,0,0,0,1,0,1,1,0,0,1,0,1,1,0,0,0,0,0,0,0,0,0,0,0,0,0,0,0,0],"split_type":[0,0,0,0,0,0,0,0,0,0,0,0,0,0,0,0,0,0,0,0,0,0,0,0,0,0,0,0,0,0,0],"sum_hessian":[9.317E3,5.765E3,3.552E3,4.868E3,8.97E2,1.373E3,2.179E3,3.088E3,1.78E3,1.77E2,7.2E2,4.03E2,9.7E2,1.608E3,5.71E2,1.519E3,1.569E3,7.11E2,1.069E3,1.09E2,6.8E1,2.18E2,5.02E2,1.82E2,2.21E2,3.55E2,6.15E2,1.173E3,4.35E2,9.9E1,4.72E2],"tree_param":{"num_deleted":"0","num_feature":"2","num_nodes":"31","size_leaf_vector":"1"}},{"base_weights":[-3.282394E-4,2.4540093E-2,-6.507617E-2,-2.536538E-2,1.2949125E-1,-1.1855027E-2,-3.5081565E-1,-1.3002573E-1,-7.0399237E-3,3.0978718E-1,-1.7099782E-3,-1.1353128E-1,1.4326204E-1,-5.1787215E-1,-2.1547037E-1,-2.7017325E-2,2.0767922E-2,6.933422E-3,-8.596818E-3,2.1325834E-3,1.177608E-1,-1.610634E-2,3.1285696E-2,-1.16757925E-4,-1.8674927E-2,-1.4129463E-2,1.9248864E-2,-1.4465447E-2,-1.1076223E-1,-3.27173E-2,-1.3633745E-2],"categories":[],"categories_nodes":[],"categories_segments":[],"categories_sizes":[],"default_left":[0,0,0,0,0,0,0,0,0,0,0,0,0,0,0,0,0,0,0,0,0,0,0,0,0,0,0,0,0,0,0],"id":49,"left_children":[1,3,5,7,9,11,13,15,17,19,21,23,25,27,29,-1,-1,-1,-1,-1,-1,-1,-1,-1,-1,-1,-1,-1,-1,-1,-1],"loss_changes":[1.5005189E1,3.52683E1,3.932213E1,8.752604E0,5.133199E1,3.441439E1,9.068199E0,3.2239502E1,2.3425037E1,2.2877902E2,6.3060425E1,1.0843027E1,1.2129898E1,3.9678814E1,1.9530888E0,0E0,0E0,0E0,0E0,0E0,0E0,0E0,0E0,0E0,0E0,0E0,0E0,0E0,0E0,0E0,0E0],"parents":[2147483647,0,0,1,1,2,2,3,3,4,4,5,5,6,6,7,7,8,8,9,9,10,10,11,11,12,12,13,13,14,14],"right_children":[2,4,6,8,10,12,14,16,18,20,22,24,26,28,30,-1,-1,-1,-1,-1,-1,-1,-1,-1,-1,-1,-1,-1,-1,-1,-1],"split_conditions":[1.9E1,1.4E1,7E0,2E0,5E0,5E0,2.1E1,6E0,5E0,4E0,7E0,2.1E1,2E1,2E1,2.2E1,-2.7017325E-2,2.0767922E-2,6.933422E-3,-8.596818E-3,2.1325834E-3,1.177608E-1,-1.610634E-2,3.1285696E-2,-1.16757925E-4,-1.8674927E-2,-1.4129463E-2,1.9248864E-2,-1.4465447E-2,-1.1076223E-1,-3.27173E-2,-1.3633745E-2],"split_indices":[1,1,0,1,0,0,1,0,0,0,0,1,1,1,1,0,0,0,0,0,0,0,0,0,0,0,0,0,0,0,0],"split_type":[0,0,0,0,0,0,0,0,0,0,0,0,0,0,0,0,0,0,0,0,0,0,0,0,0,0,0,0,0,0,0],"sum_hessian":[9.317E3,6.732E3,2.585E3,4.563E3,2.169E3,2.18E3,4.05E2,6.79E2,3.884E3,9.13E2,1.256E3,1.317E3,8.63E2,1.8E2,2.25E2,4.8E2,1.99E2,1.974E3,1.91E3,6.86E2,2.27E2,8.34E2,4.22E2,5.2E2,7.97E2,1.27E2,7.36E2,1.11E2,6.9E1,9.2E1,1.33E2],"tree_param":{"num_deleted":"0","num_feature":"2","num_nodes":"31","size_leaf_vector":"1"}}]},"name":"gbtree"},"learner_model_param":{"base_score":"[1.3797145E1]","boost_from_average":"1","num_class":"0","num_feature":"2","num_target":"1"},"objective":{"name":"reg:squarederror","reg_loss_param":{"scale_pos_weight":"1"}}},"version":[3,2,0]}