{"learner":{"attributes":{},"feature_names":["day_of_week","hour_of_day"],"feature_types":[],"gradient_booster":{"model":{"cats":{"enc":[],"feature_segments":[],"sorted_idx":[]},"gbtree_model_param":{"num_parallel_tree":"1","num_trees":"50"},"iteration_indptr":[0,1,2,3,4,5,6,7,8,9,10,11,12,13,14,15,16,17,18,19,20,21,22,23,24,25,26,27,28,29,30,31,32,33,34,35,36,37,38,39,40,41,42,43,44,45,46,47,48,49,50],"tree_info":[0,0,0,0,0,0,0,0,0,0,0,0,0,0,0,0,0,0,0,0,0,0,0,0,0,0,0,0,0,0,0,0,0,0,0,0,0,0,0,0,0,0,0,0,0,0,0,0,0,0],"trees":[{"base_weights":[2.9174905E-7,-2.6826563E0,1.0954181E0,-3.5134315E0,-4.2308232E-1,-4.6161348E-1,-2.3716903E-1,3.3730876E-1,-2.2294445E-1],"categories":[],"categories_nodes":[],"categories_segments":[],"categories_sizes":[],"default_left":[0,0,0,0,0,0,0,0,0],"id":0,"left_children":[1,3,-1,5,7,-1,-1,-1,-1],"loss_changes":[8.962823E3,4.5842712E2,0E0,2.1441333E2,4.6695636E2,0E0,0E0,0E0,0E0],"parents":[2147483647,0,0,1,1,3,3,4,4],"right_children":[2,4,-1,6,8,-1,-1,-1,-1],"split_conditions":[6E0,3E0,1.0954181E0,4E0,4E0,-4.6161348E-1,-2.3716903E-1,3.3730876E-1,-2.2294445E-1],"split_indices":[1,1,0,0,0,0,0,0,0],"split_type":[0,0,0,0,0,0,0,0,0],"sum_hessian":[3.03E2,2.44E2,5.9E1,1.78E2,6.6E1,8.9E1,8.9E1,2.1E1,4.5E1],"tree_param":{"num_deleted":"0","num_feature":"2","num_nodes":"9","size_leaf_vector":"1"}},{"base_weights":[1.681047E-3,-2.416776E0,9.87702E-1,-3.1659923E0,-3.790673E-1,-4.1596503E0,-2.1371567E-1,3.051111E-1,-2.0113468E-1,-4.9590087E-1,-3.8444975E-1],"categories":[],"categories_nodes":[],"categories_segments":[],"categories_sizes":[],"default_left":[0,0,0,0,0,0,0,0,0,0,0],"id":1,"left_children":[1,3,-1,5,7,9,-1,-1,-1,-1,-1],"loss_changes":[7.284327E3,3.7283752E2,0E0,1.7410376E2,3.812705E2,3.607788E0,0E0,0E0,0E0,0E0,0E0],"parents":[2147483647,0,0,1,1,3,3,4,4,5,5],"right_children":[2,4,-1,6,8,10,-1,-1,-1,-1,-1],"split_conditions":[6E0,3E0,9.87702E-1,4E0,4E0,2E0,-2.1371567E-1,3.051111E-1,-2.0113468E-1,-4.9590087E-1,-3.8444975E-1],"split_indices":[1,1,0,0,0,1,0,0,0,0,0],"split_type":[0,0,0,0,0,0,0,0,0,0,0],"sum_hessian":[3.03E2,2.44E2,5.9E1,1.78E2,6.6E1,8.9E1,8.9E1,2.1E1,4.5E1,2.1E1,6.8E1],"tree_param":{"num_deleted":"0","num_feature":"2","num_nodes":"11","size_leaf_vector":"1"}},{"base_weights":[1.5051585E-3,-2.1791396E0,8.90578E-1,-2.8555052E0,-3.396087E-1,-3.7534666E0,-1.9258158E-1,2.7598688E-1,-1.8145847E0,-4.4856486E-1,-3.465619E-1,-2.023379E-1,-1.4948373E-1],"categories":[],"categories_nodes":[],"categories_segments":[],"categories_sizes":[],"default_left":[0,0,0,0,0,0,0,0,0,0,0,0,0],"id":2,"left_children":[1,3,-1,5,7,9,-1,-1,11,-1,-1,-1,-1],"loss_changes":[5.922193E3,3.0385803E2,0E0,1.422052E2,3.1130887E2,3.4226074E0,0E0,0E0,4.6417236E-2,0E0,0E0,0E0,0E0],"parents":[2147483647,0,0,1,1,3,3,4,4,5,5,8,8],"right_children":[2,4,-1,6,8,10,-1,-1,12,-1,-1,-1,-1],"split_conditions":[6E0,3E0,8.90578E-1,4E0,4E0,2E0,-1.9258158E-1,2.7598688E-1,4E0,-4.4856486E-1,-3.465619E-1,-2.023379E-1,-1.4948373E-1],"split_indices":[1,1,0,0,0,1,0,0,1,0,0,0,0],"split_type":[0,0,0,0,0,0,0,0,0,0,0,0,0],"sum_hessian":[3.03E2,2.44E2,5.9E1,1.78E2,6.6E1,8.9E1,8.9E1,2.1E1,4.5E1,2.1E1,6.8E1,2.4E1,2.1E1],"tree_param":{"num_deleted":"0","num_feature":"2","num_nodes":"13","size_leaf_vector":"1"}},{"base_weights":[7.8566297E-4,-1.9655666E0,8.0300444E-1,-2.5754726E0,-3.0677974E-1,-3.3869548E0,-1.735374E-1,2.4964266E-1,-1.6407746E0,-4.0574732E-1,-3.12408E-1,-1.8291348E-1,-1.3521482E-1],"categories":[],"categories_nodes":[],"categories_segments":[],"categories_sizes":[],"default_left":[0,0,0,0,0,0,0,0,0,0,0,0,0],"id":3,"left_children":[1,3,-1,5,7,9,-1,-1,11,-1,-1,-1,-1],"loss_changes":[4.815443E3,2.470774E2,0E0,1.16151245E2,2.5464008E2,3.1877441E0,0E0,0E0,2.7565002E-2,0E0,0E0,0E0,0E0],"parents":[2147483647,0,0,1,1,3,3,4,4,5,5,8,8],"right_children":[2,4,-1,6,8,10,-1,-1,12,-1,-1,-1,-1],"split_conditions":[6E0,3E0,8.0300444E-1,4E0,4E0,2E0,-1.735374E-1,2.4964266E-1,4E0,-4.0574732E-1,-3.12408E-1,-1.8291348E-1,-1.3521482E-1],"split_indices":[1,1,0,0,0,1,0,0,1,0,0,0,0],"split_type":[0,0,0,0,0,0,0,0,0,0,0,0,0],"sum_hessian":[3.03E2,2.44E2,5.9E1,1.78E2,6.6E1,8.9E1,8.9E1,2.1E1,4.5E1,2.1E1,6.8E1,2.4E1,2.1E1],"tree_param":{"num_deleted":"0","num_feature":"2","num_nodes":"13","size_leaf_vector":"1"}},{"base_weights":[1.9002431E-4,-1.7729291E0,7.2404236E-1,-2.3229067E0,-2.77124E-1,-3.0562387E0,-1.5637648E-1,2.2581315E-1,-1.483613E0,-3.6701688E-1,-2.8161997E-1,-1.653538E-1,-1.22307956E-1],"categories":[],"categories_nodes":[],"categories_segments":[],"categories_sizes":[],"default_left":[0,0,0,0,0,0,0,0,0,0,0,0,0],"id":4,"left_children":[1,3,-1,5,7,9,-1,-1,11,-1,-1,-1,-1],"loss_changes":[3.9155266E3,2.0090784E2,0E0,9.4870544E1,2.0828699E2,2.927124E0,0E0,0E0,1.4060974E-2,0E0,0E0,0E0,0E0],"parents":[2147483647,0,0,1,1,3,3,4,4,5,5,8,8],"right_children":[2,4,-1,6,8,10,-1,-1,12,-1,-1,-1,-1],"split_conditions":[6E0,3E0,7.2404236E-1,4E0,4E0,2E0,-1.5637648E-1,2.2581315E-1,4E0,-3.6701688E-1,-2.8161997E-1,-1.653538E-1,-1.22307956E-1],"split_indices":[1,1,0,0,0,1,0,0,1,0,0,0,0],"split_type":[0,0,0,0,0,0,0,0,0,0,0,0,0],"sum_hessian":[3.03E2,2.44E2,5.9E1,1.78E2,6.6E1,8.9E1,8.9E1,2.1E1,4.5E1,2.1E1,6.8E1,2.4E1,2.1E1],"tree_param":{"num_deleted":"0","num_feature":"2","num_nodes":"13","size_leaf_vector":"1"}},{"base_weights":[-2.9869456E-4,-1.5991745E0,6.528449E-1,-2.0951135E0,-2.5033474E-1,-2.7578218E0,-1.409126E-1,2.0425825E-1,-1.3415053E0,-3.3198348E-1,-2.538661E-1,-1.4947985E-1,-1.1063311E-1],"categories":[],"categories_nodes":[],"categories_segments":[],"categories_sizes":[],"default_left":[0,0,0,0,0,0,0,0,0,0,0,0,0],"id":5,"left_children":[1,3,-1,5,7,9,-1,-1,11,-1,-1,-1,-1],"loss_changes":[3.1837917E3,1.633664E2,0E0,7.748901E1,1.7037172E2,2.6575317E0,0E0,0E0,4.585266E-3,0E0,0E0,0E0,0E0],"parents":[2147483647,0,0,1,1,3,3,4,4,5,5,8,8],"right_children":[2,4,-1,6,8,10,-1,-1,12,-1,-1,-1,-1],"split_conditions":[6E0,3E0,6.528449E-1,4E0,4E0,2E0,-1.409126E-1,2.0425825E-1,4E0,-3.3198348E-1,-2.538661E-1,-1.4947985E-1,-1.1063311E-1],"split_indices":[1,1,0,0,0,1,0,0,1,0,0,0,0],"split_type":[0,0,0,0,0,0,0,0,0,0,0,0,0],"sum_hessian":[3.03E2,2.44E2,5.9E1,1.78E2,6.6E1,8.9E1,8.9E1,2.1E1,4.5E1,2.1E1,6.8E1,2.4E1,2.1E1],"tree_param":{"num_deleted":"0","num_feature":"2","num_nodes":"13","size_leaf_vector":"1"}},{"base_weights":[-6.956693E-4,-1.4424514E0,5.886485E-1,-1.8896623E0,-2.2613497E-1,-2.488549E0,-1.2697792E-1,1.8476091E-1,-1.2130096E-1,-3.0029413E-1,-2.2884741E-1],"categories":[],"categories_nodes":[],"categories_segments":[],"categories_sizes":[],"default_left":[0,0,0,0,0,0,0,0,0,0,0],"id":6,"left_children":[1,3,-1,5,7,9,-1,-1,-1,-1,-1],"loss_changes":[2.5888052E3,1.3284045E2,0E0,6.3292053E1,1.3935837E2,2.3903809E0,0E0,0E0,0E0,0E0,0E0],"parents":[2147483647,0,0,1,1,3,3,4,4,5,5],"right_children":[2,4,-1,6,8,10,-1,-1,-1,-1,-1],"split_conditions":[6E0,3E0,5.886485E-1,4E0,4E0,2E0,-1.2697792E-1,1.8476091E-1,-1.2130096E-1,-3.0029413E-1,-2.2884741E-1],"split_indices":[1,1,0,0,0,1,0,0,0,0,0],"split_type":[0,0,0,0,0,0,0,0,0,0,0],"sum_hessian":[3.03E2,2.44E2,5.9E1,1.78E2,6.6E1,8.9E1,8.9E1,2.1E1,4.5E1,2.1E1,6.8E1],"tree_param":{"num_deleted":"0","num_feature":"2","num_nodes":"11","size_leaf_vector":"1"}},{"base_weights":[-6.392449E-4,-1.3006252E0,5.3076476E-1,-1.7043614E0,-2.0257418E-1,-2.2455735E0,-1.1442121E-1,1.6712461E-1,-1.0943453E0,-2.7162966E-1,-2.0629433E-1,-1.23484865E-1,-8.849396E-2],"categories":[],"categories_nodes":[],"categories_segments":[],"categories_sizes":[],"default_left":[0,0,0,0,0,0,0,0,0,0,0,0,0],"id":7,"left_children":[1,3,-1,5,7,9,-1,-1,11,-1,-1,-1,-1],"loss_changes":[2.1047153E3,1.0826889E2,0E0,5.1696106E1,1.13787186E2,2.133606E0,0E0,0E0,2.6065826E-1,0E0,0E0,0E0,0E0],"parents":[2147483647,0,0,1,1,3,3,4,4,5,5,8,8],"right_children":[2,4,-1,6,8,10,-1,-1,12,-1,-1,-1,-1],"split_conditions":[6E0,3E0,5.3076476E-1,4E0,4E0,2E0,-1.1442121E-1,1.6712461E-1,4E0,-2.7162966E-1,-2.0629433E-1,-1.23484865E-1,-8.849396E-2],"split_indices":[1,1,0,0,0,1,0,0,1,0,0,0,0],"split_type":[0,0,0,0,0,0,0,0,0,0,0,0,0],"sum_hessian":[3.03E2,2.44E2,5.9E1,1.78E2,6.6E1,8.9E1,8.9E1,2.1E1,4.5E1,2.1E1,6.8E1,2.4E1,2.1E1],"tree_param":{"num_deleted":"0","num_feature":"2","num_nodes":"13","size_leaf_vector":"1"}},{"base_weights":[-9.253684E-4,-1.1731634E0,4.7857285E-1,-1.5372343E0,-1.8298617E-1,-2.0263262E0,-1.03106216E-1,1.5117182E-1,-9.89519E-1,-2.4570142E-1,-1.8596385E-1,-1.1163028E-1,-8.0046825E-2],"categories":[],"categories_nodes":[],"categories_segments":[],"categories_sizes":[],"default_left":[0,0,0,0,0,0,0,0,0,0,0,0,0],"id":8,"left_children":[1,3,-1,5,7,9,-1,-1,11,-1,-1,-1,-1],"loss_changes":[1.7113881E3,8.803995E1,0E0,4.2224792E1,9.307379E1,1.8919983E0,0E0,0E0,2.0898819E-1,0E0,0E0,0E0,0E0],"parents":[2147483647,0,0,1,1,3,3,4,4,5,5,8,8],"right_children":[2,4,-1,6,8,10,-1,-1,12,-1,-1,-1,-1],"split_conditions":[6E0,3E0,4.7857285E-1,4E0,4E0,2E0,-1.03106216E-1,1.5117182E-1,4E0,-2.4570142E-1,-1.8596385E-1,-1.1163028E-1,-8.0046825E-2],"split_indices":[1,1,0,0,0,1,0,0,1,0,0,0,0],"split_type":[0,0,0,0,0,0,0,0,0,0,0,0,0],"sum_hessian":[3.03E2,2.44E2,5.9E1,1.78E2,6.6E1,8.9E1,8.9E1,2.1E1,4.5E1,2.1E1,6.8E1,2.4E1,2.1E1],"tree_param":{"num_deleted":"0","num_feature":"2","num_nodes":"13","size_leaf_vector":"1"}},{"base_weights":[-1.150968E-3,-1.0581951E0,4.3151316E-1,-1.3864986E0,-1.6529204E-1,-1.8284899E0,-9.291016E-2,1.367418E-1,-8.9473397E-1,-2.222481E-1,-1.6763698E-1,-1.0091378E-1,-7.2405994E-2],"categories":[],"categories_nodes":[],"categories_segments":[],"categories_sizes":[],"default_left":[0,0,0,0,0,0,0,0,0,0,0,0,0],"id":9,"left_children":[1,3,-1,5,7,9,-1,-1,11,-1,-1,-1,-1],"loss_changes":[1.3915668E3,7.159091E1,0E0,3.448877E1,7.613103E1,1.6683655E0,0E0,0E0,1.6750717E-1,0E0,0E0,0E0,0E0],"parents":[2147483647,0,0,1,1,3,3,4,4,5,5,8,8],"right_children":[2,4,-1,6,8,10,-1,-1,12,-1,-1,-1,-1],"split_conditions":[6E0,3E0,4.3151316E-1,4E0,4E0,2E0,-9.291016E-2,1.367418E-1,4E0,-2.222481E-1,-1.6763698E-1,-1.0091378E-1,-7.2405994E-2],"split_indices":[1,1,0,0,0,1,0,0,1,0,0,0,0],"split_type":[0,0,0,0,0,0,0,0,0,0,0,0,0],"sum_hessian":[3.03E2,2.44E2,5.9E1,1.78E2,6.6E1,8.9E1,8.9E1,2.1E1,4.5E1,2.1E1,6.8E1,2.4E1,2.1E1],"tree_param":{"num_deleted":"0","num_feature":"2","num_nodes":"13","size_leaf_vector":"1"}},{"base_weights":[-1.3247892E-3,-9.544955E-1,3.890811E-1,-1.2505459E0,-1.4930873E-1,-1.649973E0,-8.3722375E-2,1.2368919E-1,-8.0902845E-1,-2.010335E-1,-1.5111624E-1,-9.1226034E-2,-6.549454E-2],"categories":[],"categories_nodes":[],"categories_segments":[],"categories_sizes":[],"default_left":[0,0,0,0,0,0,0,0,0,0,0,0,0],"id":10,"left_children":[1,3,-1,5,7,9,-1,-1,11,-1,-1,-1,-1],"loss_changes":[1.1315142E3,5.8215378E1,0E0,2.8170105E1,6.227244E1,1.4640503E0,0E0,0E0,1.3420868E-1,0E0,0E0,0E0,0E0],"parents":[2147483647,0,0,1,1,3,3,4,4,5,5,8,8],"right_children":[2,4,-1,6,8,10,-1,-1,12,-1,-1,-1,-1],"split_conditions":[6E0,3E0,3.890811E-1,4E0,4E0,2E0,-8.3722375E-2,1.2368919E-1,4E0,-2.010335E-1,-1.5111624E-1,-9.1226034E-2,-6.549454E-2],"split_indices":[1,1,0,0,0,1,0,0,1,0,0,0,0],"split_type":[0,0,0,0,0,0,0,0,0,0,0,0,0],"sum_hessian":[3.03E2,2.44E2,5.9E1,1.78E2,6.6E1,8.9E1,8.9E1,2.1E1,4.5E1,2.1E1,6.8E1,2.4E1,2.1E1],"tree_param":{"num_deleted":"0","num_feature":"2","num_nodes":"13","size_leaf_vector":"1"}},{"base_weights":[-1.454907E-3,-8.609598E-1,3.5082147E-1,-1.1279262E0,-1.3487102E-1,-1.4888886E0,-7.544314E-2,1.1188244E-1,-7.3153245E-1,-1.8184394E-1,-1.3622364E-1,-8.246832E-2,-5.9242792E-2],"categories":[],"categories_nodes":[],"categories_segments":[],"categories_sizes":[],"default_left":[0,0,0,0,0,0,0,0,0,0,0,0,0],"id":11,"left_children":[1,3,-1,5,7,9,-1,-1,11,-1,-1,-1,-1],"loss_changes":[9.200601E2,4.733902E1,0E0,2.3009064E1,5.0936577E1,1.2793274E0,0E0,0E0,1.0749054E-1,0E0,0E0,0E0,0E0],"parents":[2147483647,0,0,1,1,3,3,4,4,5,5,8,8],"right_children":[2,4,-1,6,8,10,-1,-1,12,-1,-1,-1,-1],"split_conditions":[6E0,3E0,3.5082147E-1,4E0,4E0,2E0,-7.544314E-2,1.1188244E-1,4E0,-1.8184394E-1,-1.3622364E-1,-8.246832E-2,-5.9242792E-2],"split_indices":[1,1,0,0,0,1,0,0,1,0,0,0,0],"split_type":[0,0,0,0,0,0,0,0,0,0,0,0,0],"sum_hessian":[3.03E2,2.44E2,5.9E1,1.78E2,6.6E1,8.9E1,8.9E1,2.1E1,4.5E1,2.1E1,6.8E1,2.4E1,2.1E1],"tree_param":{"num_deleted":"0","num_feature":"2","num_nodes":"13","size_leaf_vector":"1"}},{"base_weights":[-1.5478762E-3,-7.7659166E-1,3.1632403E-1,-1.017332E0,-1.2182898E-1,-1.3435339E0,-6.7982644E-2,1.0120278E-1,-6.614598E-1,-1.644861E-1,-1.22798696E-1,-7.455135E-2,-5.3587794E-2],"categories":[],"categories_nodes":[],"categories_segments":[],"categories_sizes":[],"default_left":[0,0,0,0,0,0,0,0,0,0,0,0,0],"id":12,"left_children":[1,3,-1,5,7,9,-1,-1,11,-1,-1,-1,-1],"loss_changes":[7.4812274E2,3.8494858E1,0E0,1.879361E1,4.1664307E1,1.1137085E0,0E0,0E0,8.605385E-2,0E0,0E0,0E0,0E0],"parents":[2147483647,0,0,1,1,3,3,4,4,5,5,8,8],"right_children":[2,4,-1,6,8,10,-1,-1,12,-1,-1,-1,-1],"split_conditions":[6E0,3E0,3.1632403E-1,4E0,4E0,2E0,-6.7982644E-2,1.0120278E-1,4E0,-1.644861E-1,-1.22798696E-1,-7.455135E-2,-5.3587794E-2],"split_indices":[1,1,0,0,0,1,0,0,1,0,0,0,0],"split_type":[0,0,0,0,0,0,0,0,0,0,0,0,0],"sum_hessian":[3.03E2,2.44E2,5.9E1,1.78E2,6.6E1,8.9E1,8.9E1,2.1E1,4.5E1,2.1E1,6.8E1,2.4E1,2.1E1],"tree_param":{"num_deleted":"0","num_feature":"2","num_nodes":"13","size_leaf_vector":"1"}},{"base_weights":[-1.609796E-3,-7.004925E-1,2.852188E-1,-9.1758347E-1,-1.1004805E-1,-1.2123724E0,-6.1259907E-2,9.154249E-2,-5.980993E-1,-1.4878516E-1,-1.1069681E-1,-6.739439E-2,-4.8472587E-2],"categories":[],"categories_nodes":[],"categories_segments":[],"categories_sizes":[],"default_left":[0,0,0,0,0,0,0,0,0,0,0,0,0],"id":13,"left_children":[1,3,-1,5,7,9,-1,-1,11,-1,-1,-1,-1],"loss_changes":[6.083168E2,3.1303146E1,0E0,1.5350479E1,3.4079895E1,9.663086E-1,0E0,0E0,6.8862915E-2,0E0,0E0,0E0,0E0],"parents":[2147483647,0,0,1,1,3,3,4,4,5,5,8,8],"right_children":[2,4,-1,6,8,10,-1,-1,12,-1,-1,-1,-1],"split_conditions":[6E0,3E0,2.852188E-1,4E0,4E0,2E0,-6.1259907E-2,9.154249E-2,4E0,-1.4878516E-1,-1.1069681E-1,-6.739439E-2,-4.8472587E-2],"split_indices":[1,1,0,0,0,1,0,0,1,0,0,0,0],"split_type":[0,0,0,0,0,0,0,0,0,0,0,0,0],"sum_hessian":[3.03E2,2.44E2,5.9E1,1.78E2,6.6E1,8.9E1,8.9E1,2.1E1,4.5E1,2.1E1,6.8E1,2.4E1,2.1E1],"tree_param":{"num_deleted":"0","num_feature":"2","num_nodes":"13","size_leaf_vector":"1"}},{"base_weights":[-1.6458333E-3,-6.3185173E-1,2.5717226E-1,-8.2761705E-1,-9.9406324E-2,-1.0940183E0,-5.5202004E-2,8.2804374E-2,-5.408084E-1,-1.3458292E-1,-9.9787556E-2,-6.092454E-2,-4.384568E-2],"categories":[],"categories_nodes":[],"categories_segments":[],"categories_sizes":[],"default_left":[0,0,0,0,0,0,0,0,0,0,0,0,0],"id":14,"left_children":[1,3,-1,5,7,9,-1,-1,11,-1,-1,-1,-1],"loss_changes":[4.9463754E2,2.5455147E1,0E0,1.2538155E1,2.7876162E1,8.359146E-1,0E0,0E0,5.5085182E-2,0E0,0E0,0E0,0E0],"parents":[2147483647,0,0,1,1,3,3,4,4,5,5,8,8],"right_children":[2,4,-1,6,8,10,-1,-1,12,-1,-1,-1,-1],"split_conditions":[6E0,3E0,2.5717226E-1,4E0,4E0,2E0,-5.5202004E-2,8.2804374E-2,4E0,-1.3458292E-1,-9.9787556E-2,-6.092454E-2,-4.384568E-2],"split_indices":[1,1,0,0,0,1,0,0,1,0,0,0,0],"split_type":[0,0,0,0,0,0,0,0,0,0,0,0,0],"sum_hessian":[3.03E2,2.44E2,5.9E1,1.78E2,6.6E1,8.9E1,8.9E1,2.1E1,4.5E1,2.1E1,6.8E1,2.4E1,2.1E1],"tree_param":{"num_deleted":"0","num_feature":"2","num_nodes":"13","size_leaf_vector":"1"}},{"base_weights":[-1.6602238E-3,-5.6993824E-1,2.318836E-1,-7.4647313E-1,-8.979366E-2,-9.872207E-1,-4.974314E-2,7.4900284E-2,-4.8900515E-1,-1.2173637E-1,-8.995342E-2,-5.5075783E-2,-3.9660413E-2],"categories":[],"categories_nodes":[],"categories_segments":[],"categories_sizes":[],"default_left":[0,0,0,0,0,0,0,0,0,0,0,0,0],"id":15,"left_children":[1,3,-1,5,7,9,-1,-1,11,-1,-1,-1,-1],"loss_changes":[4.0220242E2,2.0699722E1,0E0,1.0241089E1,2.2801697E1,7.211838E-1,0E0,0E0,4.404354E-2,0E0,0E0,0E0,0E0],"parents":[2147483647,0,0,1,1,3,3,4,4,5,5,8,8],"right_children":[2,4,-1,6,8,10,-1,-1,12,-1,-1,-1,-1],"split_conditions":[6E0,3E0,2.318836E-1,4E0,4E0,2E0,-4.974314E-2,7.4900284E-2,4E0,-1.2173637E-1,-8.995342E-2,-5.5075783E-2,-3.9660413E-2],"split_indices":[1,1,0,0,0,1,0,0,1,0,0,0,0],"split_type":[0,0,0,0,0,0,0,0,0,0,0,0,0],"sum_hessian":[3.03E2,2.44E2,5.9E1,1.78E2,6.6E1,8.9E1,8.9E1,2.1E1,4.5E1,2.1E1,6.8E1,2.4E1,2.1E1],"tree_param":{"num_deleted":"0","num_feature":"2","num_nodes":"13","size_leaf_vector":"1"}},{"base_weights":[-1.6567424E-3,-5.1409245E-1,2.0908168E-1,-6.7328626E-1,-8.11105E-2,-8.908507E-1,-4.482409E-2,6.7750685E-2,-4.4216418E-1,-1.1011609E-1,-8.1088446E-2,-4.9788535E-2,-3.587463E-2],"categories":[],"categories_nodes":[],"categories_segments":[],"categories_sizes":[],"default_left":[0,0,0,0,0,0,0,0,0,0,0,0,0],"id":16,"left_children":[1,3,-1,5,7,9,-1,-1,11,-1,-1,-1,-1],"loss_changes":[3.2704135E2,1.6832764E1,0E0,8.364868E0,1.8650976E1,6.2068176E-1,0E0,0E0,3.5199165E-2,0E0,0E0,0E0,0E0],"parents":[2147483647,0,0,1,1,3,3,4,4,5,5,8,8],"right_children":[2,4,-1,6,8,10,-1,-1,12,-1,-1,-1,-1],"split_conditions":[6E0,3E0,2.0908168E-1,4E0,4E0,2E0,-4.482409E-2,6.7750685E-2,4E0,-1.1011609E-1,-8.1088446E-2,-4.9788535E-2,-3.587463E-2],"split_indices":[1,1,0,0,0,1,0,0,1,0,0,0,0],"split_type":[0,0,0,0,0,0,0,0,0,0,0,0,0],"sum_hessian":[3.03E2,2.44E2,5.9E1,1.78E2,6.6E1,8.9E1,8.9E1,2.1E1,4.5E1,2.1E1,6.8E1,2.4E1,2.1E1],"tree_param":{"num_deleted":"0","num_feature":"2","num_nodes":"13","size_leaf_vector":"1"}},{"base_weights":[-1.6385568E-3,-4.6371967E-1,1.8852199E0,-6.072762E-1,-7.326682E-2,1.961336E-1,1.3085066E-1,-8.0389017E-1,-4.039148E-2,6.1283547E-2,-3.9980993E-1,-9.960502E-2,-7.309712E-2,-4.500883E-2,-3.2450225E-2],"categories":[],"categories_nodes":[],"categories_segments":[],"categories_sizes":[],"default_left":[0,0,0,0,0,0,0,0,0,0,0,0,0,0,0],"id":17,"left_children":[1,3,5,7,9,-1,-1,11,-1,-1,13,-1,-1,-1,-1],"loss_changes":[2.6592624E2,1.3688267E1,6.741333E-2,6.8323746E0,1.525583E1,0E0,0E0,5.3300476E-1,0E0,0E0,2.811718E-2,0E0,0E0,0E0,0E0],"parents":[2147483647,0,0,1,1,2,2,3,3,4,4,7,7,10,10],"right_children":[2,4,6,8,10,-1,-1,12,-1,-1,14,-1,-1,-1,-1],"split_conditions":[6E0,3E0,4E0,4E0,4E0,1.961336E-1,1.3085066E-1,2E0,-4.039148E-2,6.1283547E-2,4E0,-9.960502E-2,-7.309712E-2,-4.500883E-2,-3.2450225E-2],"split_indices":[1,1,0,0,0,0,0,1,0,0,1,0,0,0,0],"split_type":[0,0,0,0,0,0,0,0,0,0,0,0,0,0,0],"sum_hessian":[3.03E2,2.44E2,5.9E1,1.78E2,6.6E1,5E1,9E0,8.9E1,8.9E1,2.1E1,4.5E1,2.1E1,6.8E1,2.4E1,2.1E1],"tree_param":{"num_deleted":"0","num_feature":"2","num_nodes":"15","size_leaf_vector":"1"}},{"base_weights":[-1.1532805E-3,-4.1828346E-1,1.7021476E-1,-5.47739E-1,-6.618151E-2,-7.2542E-1,-3.6397215E-2,5.543379E-2,-3.6151296E-1,-9.009727E-2,-6.589334E-2,-4.0688008E-2,-2.9352698E-2],"categories":[],"categories_nodes":[],"categories_segments":[],"categories_sizes":[],"default_left":[0,0,0,0,0,0,0,0,0,0,0,0,0],"id":18,"left_children":[1,3,-1,5,7,9,-1,-1,11,-1,-1,-1,-1],"loss_changes":[2.1670345E2,1.1131233E1,0E0,5.5806503E0,1.2478745E1,4.5679092E-1,0E0,0E0,2.244854E-2,0E0,0E0,0E0,0E0],"parents":[2147483647,0,0,1,1,3,3,4,4,5,5,8,8],"right_children":[2,4,-1,6,8,10,-1,-1,12,-1,-1,-1,-1],"split_conditions":[6E0,3E0,1.7021476E-1,4E0,4E0,2E0,-3.6397215E-2,5.543379E-2,4E0,-9.009727E-2,-6.589334E-2,-4.0688008E-2,-2.9352698E-2],"split_indices":[1,1,0,0,0,1,0,0,1,0,0,0,0],"split_type":[0,0,0,0,0,0,0,0,0,0,0,0,0],"sum_hessian":[3.03E2,2.44E2,5.9E1,1.78E2,6.6E1,8.9E1,8.9E1,2.1E1,4.5E1,2.1E1,6.8E1,2.4E1,2.1E1],"tree_param":{"num_deleted":"0","num_feature":"2","num_nodes":"13","size_leaf_vector":"1"}},{"base_weights":[-1.1591754E-3,-3.7730008E-1,1.5347688E0,-4.9404E-1,-5.9781514E-2,1.60217E-1,1.03754655E-1,-6.546111E-1,-3.279796E-2,5.0142344E-2,-3.2688427E-1,-8.149707E-2,-5.9399482E-2,-3.678195E-2,-2.6550857E-2],"categories":[],"categories_nodes":[],"categories_segments":[],"categories_sizes":[],"default_left":[0,0,0,0,0,0,0,0,0,0,0,0,0,0,0],"id":19,"left_children":[1,3,5,7,9,-1,-1,11,-1,-1,13,-1,-1,-1,-1],"loss_changes":[1.7620757E2,9.051903E0,3.4848022E-1,4.5582466E0,1.0207167E1,0E0,0E0,3.9074707E-1,0E0,0E0,1.7912388E-2,0E0,0E0,0E0,0E0],"parents":[2147483647,0,0,1,1,2,2,3,3,4,4,7,7,10,10],"right_children":[2,4,6,8,10,-1,-1,12,-1,-1,14,-1,-1,-1,-1],"split_conditions":[6E0,3E0,4E0,4E0,4E0,1.60217E-1,1.03754655E-1,2E0,-3.279796E-2,5.0142344E-2,4E0,-8.149707E-2,-5.9399482E-2,-3.678195E-2,-2.6550857E-2],"split_indices":[1,1,0,0,0,0,0,1,0,0,1,0,0,0,0],"split_type":[0,0,0,0,0,0,0,0,0,0,0,0,0,0,0],"sum_hessian":[3.03E2,2.44E2,5.9E1,1.78E2,6.6E1,5E1,9E0,8.9E1,8.9E1,2.1E1,4.5E1,2.1E1,6.8E1,2.4E1,2.1E1],"tree_param":{"num_deleted":"0","num_feature":"2","num_nodes":"15","size_leaf_vector":"1"}},{"base_weights":[-7.8978547E-4,-3.4033296E-1,1.3856914E0,-4.4560647E-1,-5.400027E-2,1.4450942E-1,9.441679E-2,-5.907156E-1,-2.9554615E-2,4.535604E-2,-2.9557276E-1,-7.37178E-2,-5.3545635E-2,-3.3250894E-2,-2.401647E-2],"categories":[],"categories_nodes":[],"categories_segments":[],"categories_sizes":[],"default_left":[0,0,0,0,0,0,0,0,0,0,0,0,0,0,0],"id":20,"left_children":[1,3,5,7,9,-1,-1,11,-1,-1,13,-1,-1,-1,-1],"loss_changes":[1.4358574E2,7.3610306E0,2.092514E-1,3.7231636E0,8.349112E0,0E0,0E0,3.336811E-1,0E0,0E0,1.4284611E-2,0E0,0E0,0E0,0E0],"parents":[2147483647,0,0,1,1,2,2,3,3,4,4,7,7,10,10],"right_children":[2,4,6,8,10,-1,-1,12,-1,-1,14,-1,-1,-1,-1],"split_conditions":[6E0,3E0,4E0,4E0,4E0,1.4450942E-1,9.441679E-2,2E0,-2.9554615E-2,4.535604E-2,4E0,-7.37178E-2,-5.3545635E-2,-3.3250894E-2,-2.401647E-2],"split_indices":[1,1,0,0,0,0,0,1,0,0,1,0,0,0,0],"split_type":[0,0,0,0,0,0,0,0,0,0,0,0,0,0,0],"sum_hessian":[3.03E2,2.44E2,5.9E1,1.78E2,6.6E1,5E1,9E0,8.9E1,8.9E1,2.1E1,4.5E1,2.1E1,6.8E1,2.4E1,2.1E1],"tree_param":{"num_deleted":"0","num_feature":"2","num_nodes":"15","size_leaf_vector":"1"}},{"base_weights":[-4.799762E-4,-3.0698827E-1,1.2511035E0,-4.0192178E-1,-4.8777994E-2,1.3034175E-1,8.591921E-2,-5.3305805E-1,-2.663197E-2,4.102662E-2,-2.6726046E-1,-6.668111E-2,-4.8268672E-2,-3.0058816E-2,-2.1723988E-2],"categories":[],"categories_nodes":[],"categories_segments":[],"categories_sizes":[],"default_left":[0,0,0,0,0,0,0,0,0,0,0,0,0,0,0],"id":21,"left_children":[1,3,5,7,9,-1,-1,11,-1,-1,13,-1,-1,-1,-1],"loss_changes":[1.1700477E2,5.9860325E0,1.1025238E-1,3.0410767E0,6.8292866E0,0E0,0E0,2.844982E-1,0E0,0E0,1.1385679E-2,0E0,0E0,0E0,0E0],"parents":[2147483647,0,0,1,1,2,2,3,3,4,4,7,7,10,10],"right_children":[2,4,6,8,10,-1,-1,12,-1,-1,14,-1,-1,-1,-1],"split_conditions":[6E0,3E0,4E0,4E0,4E0,1.3034175E-1,8.591921E-2,2E0,-2.663197E-2,4.102662E-2,4E0,-6.668111E-2,-4.8268672E-2,-3.0058816E-2,-2.1723988E-2],"split_indices":[1,1,0,0,0,0,0,1,0,0,1,0,0,0,0],"split_type":[0,0,0,0,0,0,0,0,0,0,0,0,0,0,0],"sum_hessian":[3.03E2,2.44E2,5.9E1,1.78E2,6.6E1,5E1,9E0,8.9E1,8.9E1,2.1E1,4.5E1,2.1E1,6.8E1,2.4E1,2.1E1],"tree_param":{"num_deleted":"0","num_feature":"2","num_nodes":"15","size_leaf_vector":"1"}},{"base_weights":[-2.2188338E-4,-2.7691132E-1,1.129597E0,-3.6252064E-1,-4.4060856E-2,1.1756307E-1,7.818655E-2,-4.810295E-1,-2.3998378E-2,3.71104E-2,-2.416601E-1,-6.0316086E-2,-4.3511763E-2,-2.7173176E-2,-1.9650321E-2],"categories":[],"categories_nodes":[],"categories_segments":[],"categories_sizes":[],"default_left":[0,0,0,0,0,0,0,0,0,0,0,0,0,0,0],"id":22,"left_children":[1,3,5,7,9,-1,-1,11,-1,-1,13,-1,-1,-1,-1],"loss_changes":[9.534591E1,4.867899E0,4.1259766E-2,2.4839458E0,5.5861106E0,0E0,0E0,2.4220848E-1,0E0,0E0,9.069204E-3,0E0,0E0,0E0,0E0],"parents":[2147483647,0,0,1,1,2,2,3,3,4,4,7,7,10,10],"right_children":[2,4,6,8,10,-1,-1,12,-1,-1,14,-1,-1,-1,-1],"split_conditions":[6E0,3E0,4E0,4E0,4E0,1.1756307E-1,7.818655E-2,2E0,-2.3998378E-2,3.71104E-2,4E0,-6.0316086E-2,-4.3511763E-2,-2.7173176E-2,-1.9650321E-2],"split_indices":[1,1,0,0,0,0,0,1,0,0,1,0,0,0,0],"split_type":[0,0,0,0,0,0,0,0,0,0,0,0,0,0,0],"sum_hessian":[3.03E2,2.44E2,5.9E1,1.78E2,6.6E1,5E1,9E0,8.9E1,8.9E1,2.1E1,4.5E1,2.1E1,6.8E1,2.4E1,2.1E1],"tree_param":{"num_deleted":"0","num_feature":"2","num_nodes":"15","size_leaf_vector":"1"}},{"base_weights":[-8.214854E-6,-2.4978155E-1,1.0198998E-1,-3.269827E-1,-3.9799653E-2,-4.340801E-1,-2.1625217E-2,3.356805E-2,-2.1851192E-1,-5.4558642E-2,-3.9223637E-2,-2.4564555E-2,-1.7774591E-2],"categories":[],"categories_nodes":[],"categories_segments":[],"categories_sizes":[],"default_left":[0,0,0,0,0,0,0,0,0,0,0,0,0],"id":23,"left_children":[1,3,-1,5,7,9,-1,-1,11,-1,-1,-1,-1],"loss_changes":[7.769748E1,3.958642E0,0E0,2.028883E0,4.569246E0,2.059288E-1,0E0,0E0,7.2193146E-3,0E0,0E0,0E0,0E0],"parents":[2147483647,0,0,1,1,3,3,4,4,5,5,8,8],"right_children":[2,4,-1,6,8,10,-1,-1,12,-1,-1,-1,-1],"split_conditions":[6E0,3E0,1.0198998E-1,4E0,4E0,2E0,-2.1625217E-2,3.356805E-2,4E0,-5.4558642E-2,-3.9223637E-2,-2.4564555E-2,-1.7774591E-2],"split_indices":[1,1,0,0,0,1,0,0,1,0,0,0,0],"split_type":[0,0,0,0,0,0,0,0,0,0,0,0,0],"sum_hessian":[3.03E2,2.44E2,5.9E1,1.78E2,6.6E1,8.9E1,8.9E1,2.1E1,4.5E1,2.1E1,6.8E1,2.4E1,2.1E1],"tree_param":{"num_deleted":"0","num_feature":"2","num_nodes":"13","size_leaf_vector":"1"}},{"base_weights":[-8.042078E-5,-2.2531036E-1,9.196098E-1,-2.949293E-1,-3.5950653E-2,9.603827E-2,6.197073E-2,-3.9171413E-1,-1.9486746E-2,3.0363796E-2,-1.9758105E-1,-4.9350772E-2,-3.535812E-2,-2.220634E-2,-1.6077926E-2],"categories":[],"categories_nodes":[],"categories_segments":[],"categories_sizes":[],"default_left":[0,0,0,0,0,0,0,0,0,0,0,0,0,0,0],"id":24,"left_children":[1,3,5,7,9,-1,-1,11,-1,-1,13,-1,-1,-1,-1],"loss_changes":[6.3178288E1,3.2192383E0,1.3851929E-1,1.6571875E0,3.7374785E0,0E0,0E0,1.7485714E-1,0E0,0E0,5.7424307E-3,0E0,0E0,0E0,0E0],"parents":[2147483647,0,0,1,1,2,2,3,3,4,4,7,7,10,10],"right_children":[2,4,6,8,10,-1,-1,12,-1,-1,14,-1,-1,-1,-1],"split_conditions":[6E0,3E0,4E0,4E0,4E0,9.603827E-2,6.197073E-2,2E0,-1.9486746E-2,3.0363796E-2,4E0,-4.9350772E-2,-3.535812E-2,-2.220634E-2,-1.6077926E-2],"split_indices":[1,1,0,0,0,0,0,1,0,0,1,0,0,0,0],"split_type":[0,0,0,0,0,0,0,0,0,0,0,0,0,0,0],"sum_hessian":[3.03E2,2.44E2,5.9E1,1.78E2,6.6E1,5E1,9E0,8.9E1,8.9E1,2.1E1,4.5E1,2.1E1,6.8E1,2.4E1,2.1E1],"tree_param":{"num_deleted":"0","num_feature":"2","num_nodes":"15","size_leaf_vector":"1"}},{"base_weights":[7.851265E-5,-2.0323688E-1,8.302817E-1,-2.6601833E-1,-3.2473914E-2,8.66227E-2,5.6393277E-2,-3.5348386E-1,-1.7559705E-2,2.7465403E-2,-1.7865524E-1,-4.4640016E-2,-3.1873543E-2,-2.0074544E-2,-1.4543205E-2],"categories":[],"categories_nodes":[],"categories_segments":[],"categories_sizes":[],"default_left":[0,0,0,0,0,0,0,0,0,0,0,0,0,0,0],"id":25,"left_children":[1,3,5,7,9,-1,-1,11,-1,-1,13,-1,-1,-1,-1],"loss_changes":[5.1481842E1,2.6179447E0,8.5948944E-2,1.3535938E0,3.0571253E0,0E0,0E0,1.4829922E-1,0E0,0E0,4.5651197E-3,0E0,0E0,0E0,0E0],"parents":[2147483647,0,0,1,1,2,2,3,3,4,4,7,7,10,10],"right_children":[2,4,6,8,10,-1,-1,12,-1,-1,14,-1,-1,-1,-1],"split_conditions":[6E0,3E0,4E0,4E0,4E0,8.66227E-2,5.6393277E-2,2E0,-1.7559705E-2,2.7465403E-2,4E0,-4.4640016E-2,-3.1873543E-2,-2.0074544E-2,-1.4543205E-2],"split_indices":[1,1,0,0,0,0,0,1,0,0,1,0,0,0,0],"split_type":[0,0,0,0,0,0,0,0,0,0,0,0,0,0,0],"sum_hessian":[3.03E2,2.44E2,5.9E1,1.78E2,6.6E1,5E1,9E0,8.9E1,8.9E1,2.1E1,4.5E1,2.1E1,6.8E1,2.4E1,2.1E1],"tree_param":{"num_deleted":"0","num_feature":"2","num_nodes":"15","size_leaf_vector":"1"}},{"base_weights":[2.0809707E-4,-1.8332651E-1,7.496376E-1,-2.3994218E-1,-2.933352E-2,7.813032E-2,5.131794E-2,-3.1898567E-1,-1.5823266E-2,2.4843669E-2,-1.6154245E-1,-4.037892E-2,-2.873239E-2,-1.81474E-2,-1.3155012E-2],"categories":[],"categories_nodes":[],"categories_segments":[],"categories_sizes":[],"default_left":[0,0,0,0,0,0,0,0,0,0,0,0,0,0,0],"id":26,"left_children":[1,3,5,7,9,-1,-1,11,-1,-1,13,-1,-1,-1,-1],"loss_changes":[4.195149E1,2.128974E0,4.830551E-2,1.1056166E0,2.5006208E0,0E0,0E0,1.2563515E-1,0E0,0E0,3.6255121E-3,0E0,0E0,0E0,0E0],"parents":[2147483647,0,0,1,1,2,2,3,3,4,4,7,7,10,10],"right_children":[2,4,6,8,10,-1,-1,12,-1,-1,14,-1,-1,-1,-1],"split_conditions":[6E0,3E0,4E0,4E0,4E0,7.813032E-2,5.131794E-2,2E0,-1.5823266E-2,2.4843669E-2,4E0,-4.037892E-2,-2.873239E-2,-1.81474E-2,-1.3155012E-2],"split_indices":[1,1,0,0,0,0,0,1,0,0,1,0,0,0,0],"split_type":[0,0,0,0,0,0,0,0,0,0,0,0,0,0,0],"sum_hessian":[3.03E2,2.44E2,5.9E1,1.78E2,6.6E1,5E1,9E0,8.9E1,8.9E1,2.1E1,4.5E1,2.1E1,6.8E1,2.4E1,2.1E1],"tree_param":{"num_deleted":"0","num_feature":"2","num_nodes":"15","size_leaf_vector":"1"}},{"base_weights":[3.1247304E-4,-1.6536683E-1,6.7683107E-1,-2.1642244E-1,-2.6496382E-2,7.0470445E-2,4.669939E-2,-2.878551E-1,-1.425851E-2,2.2472277E-2,-1.4606866E-1,-3.652457E-2,-2.59008E-2,-1.6405243E-2,-1.1899309E-2],"categories":[],"categories_nodes":[],"categories_segments":[],"categories_sizes":[],"default_left":[0,0,0,0,0,0,0,0,0,0,0,0,0,0,0],"id":27,"left_children":[1,3,5,7,9,-1,-1,11,-1,-1,13,-1,-1,-1,-1],"loss_changes":[3.4185806E1,1.7313437E0,2.184105E-2,9.030733E-1,2.045428E0,0E0,0E0,1.0632324E-1,0E0,0E0,2.8771758E-3,0E0,0E0,0E0,0E0],"parents":[2147483647,0,0,1,1,2,2,3,3,4,4,7,7,10,10],"right_children":[2,4,6,8,10,-1,-1,12,-1,-1,14,-1,-1,-1,-1],"split_conditions":[6E0,3E0,4E0,4E0,4E0,7.0470445E-2,4.669939E-2,2E0,-1.425851E-2,2.2472277E-2,4E0,-3.652457E-2,-2.59008E-2,-1.6405243E-2,-1.1899309E-2],"split_indices":[1,1,0,0,0,0,0,1,0,0,1,0,0,0,0],"split_type":[0,0,0,0,0,0,0,0,0,0,0,0,0,0,0],"sum_hessian":[3.03E2,2.44E2,5.9E1,1.78E2,6.6E1,5E1,9E0,8.9E1,8.9E1,2.1E1,4.5E1,2.1E1,6.8E1,2.4E1,2.1E1],"tree_param":{"num_deleted":"0","num_feature":"2","num_nodes":"15","size_leaf_vector":"1"}},{"base_weights":[3.951282E-4,-1.4916699E-1,6.111005E-1,-1.9520862E-1,-2.393381E-2,6.3561544E-2,4.2496435E-2,-2.5976318E-1,-1.2848509E-2,2.0327186E-2,-1.320771E-1,-3.3038136E-2,-2.3348257E-2,-1.4830353E-2,-1.0763446E-2],"categories":[],"categories_nodes":[],"categories_segments":[],"categories_sizes":[],"default_left":[0,0,0,0,0,0,0,0,0,0,0,0,0,0,0],"id":28,"left_children":[1,3,5,7,9,-1,-1,11,-1,-1,13,-1,-1,-1,-1],"loss_changes":[2.7858023E1,1.4079833E0,3.6716461E-3,7.3763275E-1,1.673089E0,0E0,0E0,8.989191E-2,0E0,0E0,2.281785E-3,0E0,0E0,0E0,0E0],"parents":[2147483647,0,0,1,1,2,2,3,3,4,4,7,7,10,10],"right_children":[2,4,6,8,10,-1,-1,12,-1,-1,14,-1,-1,-1,-1],"split_conditions":[6E0,3E0,4E0,4E0,4E0,6.3561544E-2,4.2496435E-2,2E0,-1.2848509E-2,2.0327186E-2,4E0,-3.3038136E-2,-2.3348257E-2,-1.4830353E-2,-1.0763446E-2],"split_indices":[1,1,0,0,0,0,0,1,0,0,1,0,0,0,0],"split_type":[0,0,0,0,0,0,0,0,0,0,0,0,0,0,0],"sum_hessian":[3.03E2,2.44E2,5.9E1,1.78E2,6.6E1,5E1,9E0,8.9E1,8.9E1,2.1E1,4.5E1,2.1E1,6.8E1,2.4E1,2.1E1],"tree_param":{"num_deleted":"0","num_feature":"2","num_nodes":"15","size_leaf_vector":"1"}},{"base_weights":[4.5928475E-4,-1.3455439E-1,5.5175748E-2,-1.7607458E-1,-2.1619035E-2,-2.3441328E-1,-1.157795E-2,1.8386824E-2,-1.1942558E-1,-2.9884493E-2,-2.1047255E-2,-1.3406617E-2,-9.736012E-3],"categories":[],"categories_nodes":[],"categories_segments":[],"categories_sizes":[],"default_left":[0,0,0,0,0,0,0,0,0,0,0,0,0],"id":29,"left_children":[1,3,-1,5,7,9,-1,-1,11,-1,-1,-1,-1],"loss_changes":[2.2701809E1,1.1450229E0,0E0,6.02499E-1,1.3685246E0,7.593012E-2,0E0,0E0,1.8077493E-3,0E0,0E0,0E0,0E0],"parents":[2147483647,0,0,1,1,3,3,4,4,5,5,8,8],"right_children":[2,4,-1,6,8,10,-1,-1,12,-1,-1,-1,-1],"split_conditions":[6E0,3E0,5.5175748E-2,4E0,4E0,2E0,-1.157795E-2,1.8386824E-2,4E0,-2.9884493E-2,-2.1047255E-2,-1.3406617E-2,-9.736012E-3],"split_indices":[1,1,0,0,0,1,0,0,1,0,0,0,0],"split_type":[0,0,0,0,0,0,0,0,0,0,0,0,0],"sum_hessian":[3.03E2,2.44E2,5.9E1,1.78E2,6.6E1,8.9E1,8.9E1,2.1E1,4.5E1,2.1E1,6.8E1,2.4E1,2.1E1],"tree_param":{"num_deleted":"0","num_feature":"2","num_nodes":"13","size_leaf_vector":"1"}},{"base_weights":[3.7365212E-4,-1.21373415E-1,4.9750128E-1,-1.5881625E-1,-1.9528026E-2,5.1920545E-1,3.3706E-2,-2.115378E-1,-1.0433009E-2,1.6631717E-2,-1.0798598E-1,4.403455E-2,5.8360595E-2,-2.7031887E-2,-1.8973023E-2,-1.2119568E-2,-8.806651E-3],"categories":[],"categories_nodes":[],"categories_segments":[],"categories_sizes":[],"default_left":[0,0,0,0,0,0,0,0,0,0,0,0,0,0,0,0,0],"id":30,"left_children":[1,3,5,7,9,11,-1,13,-1,-1,15,-1,-1,-1,-1,-1,-1],"loss_changes":[1.845963E1,9.311764E-1,3.393078E-2,4.9212503E-1,1.1194055E0,2.0227432E-3,0E0,6.4080715E-2,0E0,0E0,1.4307499E-3,0E0,0E0,0E0,0E0,0E0,0E0],"parents":[2147483647,0,0,1,1,2,2,3,3,4,4,5,5,7,7,10,10],"right_children":[2,4,6,8,10,12,-1,14,-1,-1,16,-1,-1,-1,-1,-1,-1],"split_conditions":[6E0,3E0,4E0,4E0,4E0,9E0,3.3706E-2,2E0,-1.0433009E-2,1.6631717E-2,4E0,4.403455E-2,5.8360595E-2,-2.7031887E-2,-1.8973023E-2,-1.2119568E-2,-8.806651E-3],"split_indices":[1,1,0,0,0,1,0,1,0,0,1,0,0,0,0,0,0],"split_type":[0,0,0,0,0,0,0,0,0,0,0,0,0,0,0,0,0],"sum_hessian":[3.03E2,2.44E2,5.9E1,1.78E2,6.6E1,5E1,9E0,8.9E1,8.9E1,2.1E1,4.5E1,2.6E1,2.4E1,2.1E1,6.8E1,2.4E1,2.1E1],"tree_param":{"num_deleted":"0","num_feature":"2","num_nodes":"17","size_leaf_vector":"1"}},{"base_weights":[5.8417494E-4,-1.0948389E-1,4.5001903E-1,-1.4324981E-1,-1.763938E-2,4.6929222E-1,3.06724E-2,-1.9089513E-1,-9.401281E-3,1.5044108E-2,-9.764223E-2,3.9794143E-2,5.2757937E-2,-2.445157E-2,-1.7103212E-2,-1.0956076E-2,-7.9660155E-3],"categories":[],"categories_nodes":[],"categories_segments":[],"categories_sizes":[],"default_left":[0,0,0,0,0,0,0,0,0,0,0,0,0,0,0,0,0],"id":31,"left_children":[1,3,5,7,9,11,-1,13,-1,-1,15,-1,-1,-1,-1,-1,-1],"loss_changes":[1.5087671E1,7.572708E-1,2.1761894E-2,4.0197158E-1,9.156327E-1,2.1533966E-3,0E0,5.403614E-2,0E0,0E0,1.1310875E-3,0E0,0E0,0E0,0E0,0E0,0E0],"parents":[2147483647,0,0,1,1,2,2,3,3,4,4,5,5,7,7,10,10],"right_children":[2,4,6,8,10,12,-1,14,-1,-1,16,-1,-1,-1,-1,-1,-1],"split_conditions":[6E0,3E0,4E0,4E0,4E0,9E0,3.06724E-2,2E0,-9.401281E-3,1.5044108E-2,4E0,3.9794143E-2,5.2757937E-2,-2.445157E-2,-1.7103212E-2,-1.0956076E-2,-7.9660155E-3],"split_indices":[1,1,0,0,0,1,0,1,0,0,1,0,0,0,0,0,0],"split_type":[0,0,0,0,0,0,0,0,0,0,0,0,0,0,0,0,0],"sum_hessian":[3.03E2,2.44E2,5.9E1,1.78E2,6.6E1,5E1,9E0,8.9E1,8.9E1,2.1E1,4.5E1,2.6E1,2.4E1,2.1E1,6.8E1,2.4E1,2.1E1],"tree_param":{"num_deleted":"0","num_feature":"2","num_nodes":"17","size_leaf_vector":"1"}},{"base_weights":[7.5075304E-4,-9.875928E-2,4.0707085E-1,-1.2920947E-1,-1.5933236E-2,4.2417765E-1,2.791191E-2,-1.7226733E-1,-8.471595E-3,1.360807E-2,-8.828918E-2,3.596204E-2,4.7693238E-2,-2.2117551E-2,-1.541768E-2,-9.904266E-3,-7.2056167E-3],"categories":[],"categories_nodes":[],"categories_segments":[],"categories_sizes":[],"default_left":[0,0,0,0,0,0,0,0,0,0,0,0,0,0,0,0,0],"id":32,"left_children":[1,3,5,7,9,11,-1,13,-1,-1,15,-1,-1,-1,-1,-1,-1],"loss_changes":[1.2331811E1,6.158483E-1,1.2934685E-2,3.2833362E-1,7.4895495E-1,2.175331E-3,0E0,4.5529604E-2,0E0,0E0,8.931756E-4,0E0,0E0,0E0,0E0,0E0,0E0],"parents":[2147483647,0,0,1,1,2,2,3,3,4,4,5,5,7,7,10,10],"right_children":[2,4,6,8,10,12,-1,14,-1,-1,16,-1,-1,-1,-1,-1,-1],"split_conditions":[6E0,3E0,4E0,4E0,4E0,9E0,2.791191E-2,2E0,-8.471595E-3,1.360807E-2,4E0,3.596204E-2,4.7693238E-2,-2.2117551E-2,-1.541768E-2,-9.904266E-3,-7.2056167E-3],"split_indices":[1,1,0,0,0,1,0,1,0,0,1,0,0,0,0,0,0],"split_type":[0,0,0,0,0,0,0,0,0,0,0,0,0,0,0,0,0],"sum_hessian":[3.03E2,2.44E2,5.9E1,1.78E2,6.6E1,5E1,9E0,8.9E1,8.9E1,2.1E1,4.5E1,2.6E1,2.4E1,2.1E1,6.8E1,2.4E1,2.1E1],"tree_param":{"num_deleted":"0","num_feature":"2","num_nodes":"17","size_leaf_vector":"1"}},{"base_weights":[8.798336E-4,-8.908549E-2,3.6822358E-1,-1.1654563E-1,-1.4392198E-2,3.8340065E-1,2.5399819E-2,-1.5545776E-1,-7.6338537E-3,1.2309127E-2,-7.9832286E-2,3.2499116E-2,4.311469E-2,-2.0006336E-2,-1.3898268E-2,-8.953451E-3,-6.5178284E-3],"categories":[],"categories_nodes":[],"categories_segments":[],"categories_sizes":[],"default_left":[0,0,0,0,0,0,0,0,0,0,0,0,0,0,0,0,0],"id":33,"left_children":[1,3,5,7,9,11,-1,13,-1,-1,15,-1,-1,-1,-1,-1,-1],"loss_changes":[1.0079455E1,5.0083935E-1,6.6337585E-3,2.681861E-1,6.1262095E-1,2.111435E-3,0E0,3.8333893E-2,0E0,0E0,7.044077E-4,0E0,0E0,0E0,0E0,0E0,0E0],"parents":[2147483647,0,0,1,1,2,2,3,3,4,4,5,5,7,7,10,10],"right_children":[2,4,6,8,10,12,-1,14,-1,-1,16,-1,-1,-1,-1,-1,-1],"split_conditions":[6E0,3E0,4E0,4E0,4E0,9E0,2.5399819E-2,2E0,-7.6338537E-3,1.2309127E-2,4E0,3.2499116E-2,4.311469E-2,-2.0006336E-2,-1.3898268E-2,-8.953451E-3,-6.5178284E-3],"split_indices":[1,1,0,0,0,1,0,1,0,0,1,0,0,0,0,0,0],"split_type":[0,0,0,0,0,0,0,0,0,0,0,0,0,0,0,0,0],"sum_hessian":[3.03E2,2.44E2,5.9E1,1.78E2,6.6E1,5E1,9E0,8.9E1,8.9E1,2.1E1,4.5E1,2.6E1,2.4E1,2.1E1,6.8E1,2.4E1,2.1E1],"tree_param":{"num_deleted":"0","num_feature":"2","num_nodes":"17","size_leaf_vector":"1"}},{"base_weights":[9.769809E-4,-8.03594E-2,3.3308426E-1,-1.0512318E-1,-1.3000076E-2,3.4654266E-1,2.3113804E-2,-1.4028862E-1,-6.8789693E-3,1.1134169E-2,-7.218527E-2,2.9369552E-2,3.8975585E-2,-1.8096644E-2,-1.2528571E-2,-8.093903E-3,-5.895667E-3],"categories":[],"categories_nodes":[],"categories_segments":[],"categories_sizes":[],"default_left":[0,0,0,0,0,0,0,0,0,0,0,0,0,0,0,0,0],"id":34,"left_children":[1,3,5,7,9,11,-1,13,-1,-1,15,-1,-1,-1,-1,-1,-1],"loss_changes":[8.238538E0,4.0731084E-1,2.222538E-3,2.1905494E-1,5.0110304E-1,1.9989014E-3,0E0,3.2253146E-2,0E0,0E0,5.5490434E-4,0E0,0E0,0E0,0E0,0E0,0E0],"parents":[2147483647,0,0,1,1,2,2,3,3,4,4,5,5,7,7,10,10],"right_children":[2,4,6,8,10,12,-1,14,-1,-1,16,-1,-1,-1,-1,-1,-1],"split_conditions":[6E0,3E0,4E0,4E0,4E0,9E0,2.3113804E-2,2E0,-6.8789693E-3,1.1134169E-2,4E0,2.9369552E-2,3.8975585E-2,-1.8096644E-2,-1.2528571E-2,-8.093903E-3,-5.895667E-3],"split_indices":[1,1,0,0,0,1,0,1,0,0,1,0,0,0,0,0,0],"split_type":[0,0,0,0,0,0,0,0,0,0,0,0,0,0,0,0,0],"sum_hessian":[3.03E2,2.44E2,5.9E1,1.78E2,6.6E1,5E1,9E0,8.9E1,8.9E1,2.1E1,4.5E1,2.6E1,2.4E1,2.1E1,6.8E1,2.4E1,2.1E1],"tree_param":{"num_deleted":"0","num_feature":"2","num_nodes":"17","size_leaf_vector":"1"}},{"base_weights":[1.047454E-3,-7.248822E-2,3.0130064E-2,-9.482041E-2,-1.17426915E-2,-1.2660001E-1,-6.1987243E-3,1.0071364E-2,-6.527088E-2,-1.6369237E-2,-1.12938685E-2,-7.316895E-3,-5.3328946E-3],"categories":[],"categories_nodes":[],"categories_segments":[],"categories_sizes":[],"default_left":[0,0,0,0,0,0,0,0,0,0,0,0,0],"id":35,"left_children":[1,3,-1,5,7,9,-1,-1,11,-1,-1,-1,-1],"loss_changes":[6.733954E0,3.3124876E-1,0E0,1.7892563E-1,4.0988576E-1,2.7118564E-2,0E0,0E0,4.3661892E-4,0E0,0E0,0E0,0E0],"parents":[2147483647,0,0,1,1,3,3,4,4,5,5,8,8],"right_children":[2,4,-1,6,8,10,-1,-1,12,-1,-1,-1,-1],"split_conditions":[6E0,3E0,3.0130064E-2,4E0,4E0,2E0,-6.1987243E-3,1.0071364E-2,4E0,-1.6369237E-2,-1.12938685E-2,-7.316895E-3,-5.3328946E-3],"split_indices":[1,1,0,0,0,1,0,0,1,0,0,0,0],"split_type":[0,0,0,0,0,0,0,0,0,0,0,0,0],"sum_hessian":[3.03E2,2.44E2,5.9E1,1.78E2,6.6E1,8.9E1,8.9E1,2.1E1,4.5E1,2.1E1,6.8E1,2.4E1,2.1E1],"tree_param":{"num_deleted":"0","num_feature":"2","num_nodes":"13","size_leaf_vector":"1"}},{"base_weights":[9.2193956E-4,-6.538807E-2,2.7167243E-1,-8.552743E-2,-1.06069725E-2,2.8368938E-1,1.8321877E-2,-1.14247315E-1,-5.5857236E-3,9.109969E-3,-5.9018705E-2,2.3639947E-2,3.234149E-2,-1.4806718E-2,-1.0180841E-2,-6.6144615E-3,-4.8238407E-3],"categories":[],"categories_nodes":[],"categories_segments":[],"categories_sizes":[],"default_left":[0,0,0,0,0,0,0,0,0,0,0,0,0,0,0,0,0],"id":36,"left_children":[1,3,5,7,9,11,-1,13,-1,-1,15,-1,-1,-1,-1,-1,-1],"loss_changes":[5.4756184E0,2.693907E-1,1.17993355E-2,1.4614868E-1,3.3527094E-1,1.9354343E-2,0E0,2.2786975E-2,0E0,0E0,3.4298003E-4,0E0,0E0,0E0,0E0,0E0,0E0],"parents":[2147483647,0,0,1,1,2,2,3,3,4,4,5,5,7,7,10,10],"right_children":[2,4,6,8,10,12,-1,14,-1,-1,16,-1,-1,-1,-1,-1,-1],"split_conditions":[6E0,3E0,4E0,4E0,4E0,9E0,1.8321877E-2,2E0,-5.5857236E-3,9.109969E-3,4E0,2.3639947E-2,3.234149E-2,-1.4806718E-2,-1.0180841E-2,-6.6144615E-3,-4.8238407E-3],"split_indices":[1,1,0,0,0,1,0,1,0,0,1,0,0,0,0,0,0],"split_type":[0,0,0,0,0,0,0,0,0,0,0,0,0,0,0,0,0],"sum_hessian":[3.03E2,2.44E2,5.9E1,1.78E2,6.6E1,5E1,9E0,8.9E1,8.9E1,2.1E1,4.5E1,2.6E1,2.4E1,2.1E1,6.8E1,2.4E1,2.1E1],"tree_param":{"num_deleted":"0","num_feature":"2","num_nodes":"17","size_leaf_vector":"1"}},{"base_weights":[9.6603285E-4,-5.8983505E-2,2.4574389E-1,-7.714547E-2,-9.580876E-3,2.564185E-1,1.6672898E-2,-1.0310012E-1,-5.033366E-3,8.240427E-3,-5.336549E-2,2.1363534E-2,2.9236754E-2,-1.3393345E-2,-9.177499E-3,-5.9794523E-3,-4.363407E-3],"categories":[],"categories_nodes":[],"categories_segments":[],"categories_sizes":[],"default_left":[0,0,0,0,0,0,0,0,0,0,0,0,0,0,0,0,0],"id":37,"left_children":[1,3,5,7,9,11,-1,13,-1,-1,15,-1,-1,-1,-1,-1,-1],"loss_changes":[4.4754877E0,2.1908689E-1,7.855177E-3,1.1937511E-1,2.742423E-1,1.5978575E-2,0E0,1.9135356E-2,0E0,0E0,2.6884675E-4,0E0,0E0,0E0,0E0,0E0,0E0],"parents":[2147483647,0,0,1,1,2,2,3,3,4,4,5,5,7,7,10,10],"right_children":[2,4,6,8,10,12,-1,14,-1,-1,16,-1,-1,-1,-1,-1,-1],"split_conditions":[6E0,3E0,4E0,4E0,4E0,9E0,1.6672898E-2,2E0,-5.033366E-3,8.240427E-3,4E0,2.1363534E-2,2.9236754E-2,-1.3393345E-2,-9.177499E-3,-5.9794523E-3,-4.363407E-3],"split_indices":[1,1,0,0,0,1,0,1,0,0,1,0,0,0,0,0,0],"split_type":[0,0,0,0,0,0,0,0,0,0,0,0,0,0,0,0,0],"sum_hessian":[3.03E2,2.44E2,5.9E1,1.78E2,6.6E1,5E1,9E0,8.9E1,8.9E1,2.1E1,4.5E1,2.6E1,2.4E1,2.1E1,6.8E1,2.4E1,2.1E1],"tree_param":{"num_deleted":"0","num_feature":"2","num_nodes":"17","size_leaf_vector":"1"}},{"base_weights":[9.93055E-4,-5.3206388E-2,2.222909E-1,-6.9585115E-2,-8.654182E-3,2.3176889E-1,1.5172406E-2,-9.304096E-2,-4.5356094E-3,7.453814E-3,-4.825368E-2,1.930624E-2,2.6430115E-2,-1.2114885E-2,-8.27306E-3,-5.4054162E-3,-3.9468873E-3],"categories":[],"categories_nodes":[],"categories_segments":[],"categories_sizes":[],"default_left":[0,0,0,0,0,0,0,0,0,0,0,0,0,0,0,0,0],"id":38,"left_children":[1,3,5,7,9,11,-1,13,-1,-1,15,-1,-1,-1,-1,-1,-1],"loss_changes":[3.6580703E0,1.7817628E-1,4.9648285E-3,9.7507894E-2,2.2431983E-1,1.3193369E-2,0E0,1.6059458E-2,0E0,0E0,2.1053106E-4,0E0,0E0,0E0,0E0,0E0,0E0],"parents":[2147483647,0,0,1,1,2,2,3,3,4,4,5,5,7,7,10,10],"right_children":[2,4,6,8,10,12,-1,14,-1,-1,16,-1,-1,-1,-1,-1,-1],"split_conditions":[6E0,3E0,4E0,4E0,4E0,9E0,1.5172406E-2,2E0,-4.5356094E-3,7.453814E-3,4E0,1.930624E-2,2.6430115E-2,-1.2114885E-2,-8.27306E-3,-5.4054162E-3,-3.9468873E-3],"split_indices":[1,1,0,0,0,1,0,1,0,0,1,0,0,0,0,0,0],"split_type":[0,0,0,0,0,0,0,0,0,0,0,0,0,0,0,0,0],"sum_hessian":[3.03E2,2.44E2,5.9E1,1.78E2,6.6E1,5E1,9E0,8.9E1,8.9E1,2.1E1,4.5E1,2.6E1,2.4E1,2.1E1,6.8E1,2.4E1,2.1E1],"tree_param":{"num_deleted":"0","num_feature":"2","num_nodes":"17","size_leaf_vector":"1"}},{"base_weights":[1.0059001E-3,-4.7995184E-2,2.010769E-1,-6.276576E-2,-7.817133E-3,2.0948881E-1,1.38068395E-2,-8.396332E-2,-4.0870816E-3,6.7423037E-3,-4.3631624E-2,1.7447127E-2,2.3892824E-2,-1.0958463E-2,-7.457734E-3,-4.886496E-3,-3.5701406E-3],"categories":[],"categories_nodes":[],"categories_segments":[],"categories_sizes":[],"default_left":[0,0,0,0,0,0,0,0,0,0,0,0,0,0,0,0,0],"id":39,"left_children":[1,3,5,7,9,11,-1,13,-1,-1,15,-1,-1,-1,-1,-1,-1],"loss_changes":[2.989974E0,1.4490533E-1,2.8774738E-3,7.964575E-2,1.8348591E-1,1.0889769E-2,0E0,1.3470769E-2,0E0,0E0,1.6452372E-4,0E0,0E0,0E0,0E0,0E0,0E0],"parents":[2147483647,0,0,1,1,2,2,3,3,4,4,5,5,7,7,10,10],"right_children":[2,4,6,8,10,12,-1,14,-1,-1,16,-1,-1,-1,-1,-1,-1],"split_conditions":[6E0,3E0,4E0,4E0,4E0,9E0,1.38068395E-2,2E0,-4.0870816E-3,6.7423037E-3,4E0,1.7447127E-2,2.3892824E-2,-1.0958463E-2,-7.457734E-3,-4.886496E-3,-3.5701406E-3],"split_indices":[1,1,0,0,0,1,0,1,0,0,1,0,0,0,0,0,0],"split_type":[0,0,0,0,0,0,0,0,0,0,0,0,0,0,0,0,0],"sum_hessian":[3.03E2,2.44E2,5.9E1,1.78E2,6.6E1,5E1,9E0,8.9E1,8.9E1,2.1E1,4.5E1,2.6E1,2.4E1,2.1E1,6.8E1,2.4E1,2.1E1],"tree_param":{"num_deleted":"0","num_feature":"2","num_nodes":"17","size_leaf_vector":"1"}},{"base_weights":[1.0070067E-3,-4.329456E-2,1.818883E-1,-5.6614954E-2,-7.0610614E-3,1.8935058E-1,1.2564182E-2,-7.577162E-2,-3.682923E-3,6.098704E-3,-3.9452303E-2,1.576709E-2,2.159906E-2,-9.912433E-3,-6.7227692E-3,-4.4173794E-3,-3.229369E-3],"categories":[],"categories_nodes":[],"categories_segments":[],"categories_sizes":[],"default_left":[0,0,0,0,0,0,0,0,0,0,0,0,0,0,0,0,0],"id":40,"left_children":[1,3,5,7,9,11,-1,13,-1,-1,15,-1,-1,-1,-1,-1,-1],"loss_changes":[2.4439254E0,1.1784813E-1,1.3933182E-3,6.505549E-2,1.5008496E-1,8.985877E-3,0E0,1.1293232E-2,0E0,0E0,1.2823194E-4,0E0,0E0,0E0,0E0,0E0,0E0],"parents":[2147483647,0,0,1,1,2,2,3,3,4,4,5,5,7,7,10,10],"right_children":[2,4,6,8,10,12,-1,14,-1,-1,16,-1,-1,-1,-1,-1,-1],"split_conditions":[6E0,3E0,4E0,4E0,4E0,9E0,1.2564182E-2,2E0,-3.682923E-3,6.098704E-3,4E0,1.576709E-2,2.159906E-2,-9.912433E-3,-6.7227692E-3,-4.4173794E-3,-3.229369E-3],"split_indices":[1,1,0,0,0,1,0,1,0,0,1,0,0,0,0,0,0],"split_type":[0,0,0,0,0,0,0,0,0,0,0,0,0,0,0,0,0],"sum_hessian":[3.03E2,2.44E2,5.9E1,1.78E2,6.6E1,5E1,9E0,8.9E1,8.9E1,2.1E1,4.5E1,2.6E1,2.4E1,2.1E1,6.8E1,2.4E1,2.1E1],"tree_param":{"num_deleted":"0","num_feature":"2","num_nodes":"17","size_leaf_vector":"1"}},{"base_weights":[9.987444E-4,-3.9054345E-2,1.6453221E-1,-5.1066928E-2,-6.378131E-3,1.7114879E-1,1.1433449E-2,-6.837938E-2,-3.3187063E-3,5.516551E-3,-3.567339E-2,1.4248869E-2,1.9525575E-2,-8.96624E-3,-6.0602487E-3,-3.9933072E-3,-2.9211326E-3],"categories":[],"categories_nodes":[],"categories_segments":[],"categories_sizes":[],"default_left":[0,0,0,0,0,0,0,0,0,0,0,0,0,0,0,0,0],"id":41,"left_children":[1,3,5,7,9,11,-1,13,-1,-1,15,-1,-1,-1,-1,-1,-1],"loss_changes":[1.997632E0,9.584308E-2,3.5989285E-4,5.313918E-2,1.22764714E-1,7.4145794E-3,0E0,9.462655E-3,0E0,0E0,9.9707395E-5,0E0,0E0,0E0,0E0,0E0,0E0],"parents":[2147483647,0,0,1,1,2,2,3,3,4,4,5,5,7,7,10,10],"right_children":[2,4,6,8,10,12,-1,14,-1,-1,16,-1,-1,-1,-1,-1,-1],"split_conditions":[6E0,3E0,4E0,4E0,4E0,9E0,1.1433449E-2,2E0,-3.3187063E-3,5.516551E-3,4E0,1.4248869E-2,1.9525575E-2,-8.96624E-3,-6.0602487E-3,-3.9933072E-3,-2.9211326E-3],"split_indices":[1,1,0,0,0,1,0,1,0,0,1,0,0,0,0,0,0],"split_type":[0,0,0,0,0,0,0,0,0,0,0,0,0,0,0,0,0],"sum_hessian":[3.03E2,2.44E2,5.9E1,1.78E2,6.6E1,5E1,9E0,8.9E1,8.9E1,2.1E1,4.5E1,2.6E1,2.4E1,2.1E1,6.8E1,2.4E1,2.1E1],"tree_param":{"num_deleted":"0","num_feature":"2","num_nodes":"17","size_leaf_vector":"1"}},{"base_weights":[9.82637E-4,-3.522943E-2,1.4883219E-2,-4.606262E-2,-5.761211E-3,-6.1708283E-2,-2.990515E-3,4.9899276E-3,-3.2256197E-2,-8.110373E-3,-5.4629906E-3,-3.6099243E-3,-2.6422914E-3],"categories":[],"categories_nodes":[],"categories_segments":[],"categories_sizes":[],"default_left":[0,0,0,0,0,0,0,0,0,0,0,0,0],"id":42,"left_children":[1,3,-1,5,7,9,-1,-1,11,-1,-1,-1,-1],"loss_changes":[1.6328405E0,7.794714E-2,0E0,4.3404788E-2,1.00416064E-1,7.925302E-3,0E0,0E0,7.735938E-5,0E0,0E0,0E0,0E0],"parents":[2147483647,0,0,1,1,3,3,4,4,5,5,8,8],"right_children":[2,4,-1,6,8,10,-1,-1,12,-1,-1,-1,-1],"split_conditions":[6E0,3E0,1.4883219E-2,4E0,4E0,2E0,-2.990515E-3,4.9899276E-3,4E0,-8.110373E-3,-5.4629906E-3,-3.6099243E-3,-2.6422914E-3],"split_indices":[1,1,0,0,0,1,0,0,1,0,0,0,0],"split_type":[0,0,0,0,0,0,0,0,0,0,0,0,0],"sum_hessian":[3.03E2,2.44E2,5.9E1,1.78E2,6.6E1,8.9E1,8.9E1,2.1E1,4.5E1,2.1E1,6.8E1,2.4E1,2.1E1],"tree_param":{"num_deleted":"0","num_feature":"2","num_nodes":"13","size_leaf_vector":"1"}},{"base_weights":[8.7479304E-4,-3.1779163E-2,1.341972E-1,-4.1548833E-2,-5.203795E-3,1.4010449E-1,9.065037E-3,-5.568835E-2,-2.6947658E-3,4.513645E-3,-2.916644E-2,1.1443485E-2,1.6222352E-2,-7.3361993E-3,-4.92462E-3,-3.2633457E-3,-2.39009E-3],"categories":[],"categories_nodes":[],"categories_segments":[],"categories_sizes":[],"default_left":[0,0,0,0,0,0,0,0,0,0,0,0,0,0,0,0,0],"id":43,"left_children":[1,3,5,7,9,11,-1,13,-1,-1,15,-1,-1,-1,-1,-1,-1],"loss_changes":[1.32773E0,6.339376E-2,2.734065E-3,3.545454E-2,8.213759E-2,1.0393143E-2,0E0,6.634265E-3,0E0,0E0,5.979091E-5,0E0,0E0,0E0,0E0,0E0,0E0],"parents":[2147483647,0,0,1,1,2,2,3,3,4,4,5,5,7,7,10,10],"right_children":[2,4,6,8,10,12,-1,14,-1,-1,16,-1,-1,-1,-1,-1,-1],"split_conditions":[6E0,3E0,4E0,4E0,4E0,9E0,9.065037E-3,2E0,-2.6947658E-3,4.513645E-3,4E0,1.1443485E-2,1.6222352E-2,-7.3361993E-3,-4.92462E-3,-3.2633457E-3,-2.39009E-3],"split_indices":[1,1,0,0,0,1,0,1,0,0,1,0,0,0,0,0,0],"split_type":[0,0,0,0,0,0,0,0,0,0,0,0,0,0,0,0,0],"sum_hessian":[3.03E2,2.44E2,5.9E1,1.78E2,6.6E1,5E1,9E0,8.9E1,8.9E1,2.1E1,4.5E1,2.6E1,2.4E1,2.1E1,6.8E1,2.4E1,2.1E1],"tree_param":{"num_deleted":"0","num_feature":"2","num_nodes":"17","size_leaf_vector":"1"}},{"base_weights":[8.5507723E-4,-2.8667035E-2,1.21389456E-1,-3.747761E-2,-4.7004684E-3,1.2663636E-1,8.24913E-3,-5.0255816E-2,-2.4282986E-3,4.0827882E-3,-2.6372712E-2,1.0341461E-2,1.4665039E-2,-6.6359313E-3,-4.4393027E-3,-2.9500523E-3,-2.1619624E-3],"categories":[],"categories_nodes":[],"categories_segments":[],"categories_sizes":[],"default_left":[0,0,0,0,0,0,0,0,0,0,0,0,0,0,0,0,0],"id":44,"left_children":[1,3,5,7,9,11,-1,13,-1,-1,15,-1,-1,-1,-1,-1,-1],"loss_changes":[1.0852424E0,5.155784E-2,1.799345E-3,2.8959692E-2,6.7185745E-2,8.537054E-3,0E0,5.5511296E-3,0E0,0E0,4.608184E-5,0E0,0E0,0E0,0E0,0E0,0E0],"parents":[2147483647,0,0,1,1,2,2,3,3,4,4,5,5,7,7,10,10],"right_children":[2,4,6,8,10,12,-1,14,-1,-1,16,-1,-1,-1,-1,-1,-1],"split_conditions":[6E0,3E0,4E0,4E0,4E0,9E0,8.24913E-3,2E0,-2.4282986E-3,4.0827882E-3,4E0,1.0341461E-2,1.4665039E-2,-6.6359313E-3,-4.4393027E-3,-2.9500523E-3,-2.1619624E-3],"split_indices":[1,1,0,0,0,1,0,1,0,0,1,0,0,0,0,0,0],"split_type":[0,0,0,0,0,0,0,0,0,0,0,0,0,0,0,0,0],"sum_hessian":[3.03E2,2.44E2,5.9E1,1.78E2,6.6E1,5E1,9E0,8.9E1,8.9E1,2.1E1,4.5E1,2.6E1,2.4E1,2.1E1,6.8E1,2.4E1,2.1E1],"tree_param":{"num_deleted":"0","num_feature":"2","num_nodes":"17","size_leaf_vector":"1"}},{"base_weights":[8.3117816E-4,-2.5859544E-2,1.0980444E-1,-3.3805173E-2,-4.2457012E-3,1.1446268E-1,7.5066946E-3,-4.5353293E-2,-2.1881443E-3,3.6930777E-3,-2.3846501E-2,9.3455985E-3,1.3257141E-2,-6.002504E-3,-4.001805E-3,-2.6668396E-3,-1.9555872E-3],"categories":[],"categories_nodes":[],"categories_segments":[],"categories_sizes":[],"default_left":[0,0,0,0,0,0,0,0,0,0,0,0,0,0,0,0,0],"id":45,"left_children":[1,3,5,7,9,11,-1,13,-1,-1,15,-1,-1,-1,-1,-1,-1],"loss_changes":[8.870463E-1,4.193169E-2,1.1165738E-3,2.365531E-2,5.4955833E-2,7.0109963E-3,0E0,4.642874E-3,0E0,0E0,3.54331E-5,0E0,0E0,0E0,0E0,0E0,0E0],"parents":[2147483647,0,0,1,1,2,2,3,3,4,4,5,5,7,7,10,10],"right_children":[2,4,6,8,10,12,-1,14,-1,-1,16,-1,-1,-1,-1,-1,-1],"split_conditions":[6E0,3E0,4E0,4E0,4E0,9E0,7.5066946E-3,2E0,-2.1881443E-3,3.6930777E-3,4E0,9.3455985E-3,1.3257141E-2,-6.002504E-3,-4.001805E-3,-2.6668396E-3,-1.9555872E-3],"split_indices":[1,1,0,0,0,1,0,1,0,0,1,0,0,0,0,0,0],"split_type":[0,0,0,0,0,0,0,0,0,0,0,0,0,0,0,0,0],"sum_hessian":[3.03E2,2.44E2,5.9E1,1.78E2,6.6E1,5E1,9E0,8.9E1,8.9E1,2.1E1,4.5E1,2.6E1,2.4E1,2.1E1,6.8E1,2.4E1,2.1E1],"tree_param":{"num_deleted":"0","num_feature":"2","num_nodes":"17","size_leaf_vector":"1"}},{"base_weights":[8.0388115E-4,-2.3327073E-2,9.932521E-2,-3.0492736E-2,-3.834824E-3,1.03459E-1,6.831036E-3,-4.0929087E-2,-1.9717577E-3,3.3405998E-3,-2.1562286E-2,8.445612E-3,1.1984375E-2,-5.429535E-3,-3.6074203E-3,-2.4108067E-3,-1.7689251E-3],"categories":[],"categories_nodes":[],"categories_segments":[],"categories_sizes":[],"default_left":[0,0,0,0,0,0,0,0,0,0,0,0,0,0,0,0,0],"id":46,"left_children":[1,3,5,7,9,11,-1,13,-1,-1,15,-1,-1,-1,-1,-1,-1],"loss_changes":[7.250507E-1,3.410341E-2,6.252527E-4,1.9322112E-2,4.495272E-2,5.75763E-3,0E0,3.8815886E-3,0E0,0E0,2.7101487E-5,0E0,0E0,0E0,0E0,0E0,0E0],"parents":[2147483647,0,0,1,1,2,2,3,3,4,4,5,5,7,7,10,10],"right_children":[2,4,6,8,10,12,-1,14,-1,-1,16,-1,-1,-1,-1,-1,-1],"split_conditions":[6E0,3E0,4E0,4E0,4E0,9E0,6.831036E-3,2E0,-1.9717577E-3,3.3405998E-3,4E0,8.445612E-3,1.1984375E-2,-5.429535E-3,-3.6074203E-3,-2.4108067E-3,-1.7689251E-3],"split_indices":[1,1,0,0,0,1,0,1,0,0,1,0,0,0,0,0,0],"split_type":[0,0,0,0,0,0,0,0,0,0,0,0,0,0,0,0,0],"sum_hessian":[3.03E2,2.44E2,5.9E1,1.78E2,6.6E1,5E1,9E0,8.9E1,8.9E1,2.1E1,4.5E1,2.6E1,2.4E1,2.1E1,6.8E1,2.4E1,2.1E1],"tree_param":{"num_deleted":"0","num_feature":"2","num_nodes":"17","size_leaf_vector":"1"}},{"base_weights":[7.742781E-4,-2.1042686E-2,8.984731E-2,-2.7504914E-2,-3.463859E-3,9.351386E-2,6.2163165E-3,-3.693648E-2,-1.7767737E-3,3.0217129E-3,-1.9496856E-2,7.632319E-3,1.0833924E-2,-4.911262E-3,-3.2518923E-3,-2.1793614E-3,-1.6000683E-3],"categories":[],"categories_nodes":[],"categories_segments":[],"categories_sizes":[],"default_left":[0,0,0,0,0,0,0,0,0,0,0,0,0,0,0,0,0],"id":47,"left_children":[1,3,5,7,9,11,-1,13,-1,-1,15,-1,-1,-1,-1,-1,-1],"loss_changes":[5.926548E-1,2.7736336E-2,2.771616E-4,1.578252E-2,3.6769617E-2,4.7290027E-3,0E0,3.2438934E-3,0E0,0E0,2.066046E-5,0E0,0E0,0E0,0E0,0E0,0E0],"parents":[2147483647,0,0,1,1,2,2,3,3,4,4,5,5,7,7,10,10],"right_children":[2,4,6,8,10,12,-1,14,-1,-1,16,-1,-1,-1,-1,-1,-1],"split_conditions":[6E0,3E0,4E0,4E0,4E0,9E0,6.2163165E-3,2E0,-1.7767737E-3,3.0217129E-3,4E0,7.632319E-3,1.0833924E-2,-4.911262E-3,-3.2518923E-3,-2.1793614E-3,-1.6000683E-3],"split_indices":[1,1,0,0,0,1,0,1,0,0,1,0,0,0,0,0,0],"split_type":[0,0,0,0,0,0,0,0,0,0,0,0,0,0,0,0,0],"sum_hessian":[3.03E2,2.44E2,5.9E1,1.78E2,6.6E1,5E1,9E0,8.9E1,8.9E1,2.1E1,4.5E1,2.6E1,2.4E1,2.1E1,6.8E1,2.4E1,2.1E1],"tree_param":{"num_deleted":"0","num_feature":"2","num_nodes":"17","size_leaf_vector":"1"}},{"base_weights":[7.4274366E-4,-1.8982152E-2,8.127368E-2,-2.4810081E-2,-3.1286923E-3,8.452419E-2,5.656872E-3,-3.333366E-2,-1.6010836E-3,2.7333216E-3,-1.7629417E-2,6.8972693E-3,9.793884E-3,-4.4424566E-3,-2.9314333E-3,-1.9701747E-3,-1.4473157E-3],"categories":[],"categories_nodes":[],"categories_segments":[],"categories_sizes":[],"default_left":[0,0,0,0,0,0,0,0,0,0,0,0,0,0,0,0,0],"id":48,"left_children":[1,3,5,7,9,11,-1,13,-1,-1,15,-1,-1,-1,-1,-1,-1],"loss_changes":[4.844359E-1,2.255863E-2,3.6776066E-5,1.2891494E-2,3.0077089E-2,3.884375E-3,0E0,2.709739E-3,0E0,0E0,1.5730038E-5,0E0,0E0,0E0,0E0,0E0,0E0],"parents":[2147483647,0,0,1,1,2,2,3,3,4,4,5,5,7,7,10,10],"right_children":[2,4,6,8,10,12,-1,14,-1,-1,16,-1,-1,-1,-1,-1,-1],"split_conditions":[6E0,3E0,4E0,4E0,4E0,9E0,5.656872E-3,2E0,-1.6010836E-3,2.7333216E-3,4E0,6.8972693E-3,9.793884E-3,-4.4424566E-3,-2.9314333E-3,-1.9701747E-3,-1.4473157E-3],"split_indices":[1,1,0,0,0,1,0,1,0,0,1,0,0,0,0,0,0],"split_type":[0,0,0,0,0,0,0,0,0,0,0,0,0,0,0,0,0],"sum_hessian":[3.03E2,2.44E2,5.9E1,1.78E2,6.6E1,5E1,9E0,8.9E1,8.9E1,2.1E1,4.5E1,2.6E1,2.4E1,2.1E1,6.8E1,2.4E1,2.1E1],"tree_param":{"num_deleted":"0","num_feature":"2","num_nodes":"17","size_leaf_vector":"1"}},{"base_weights":[7.102482E-4,-1.7123297E-2,7.3518725E-3,-2.2379143E-2,-2.8259861E-3,-3.0082276E-2,-1.4427354E-3,2.4724223E-3,-1.5940739E-2,-4.0184045E-3,-2.6425447E-3,-1.7810268E-3,-1.3091695E-3],"categories":[],"categories_nodes":[],"categories_segments":[],"categories_sizes":[],"default_left":[0,0,0,0,0,0,0,0,0,0,0,0,0],"id":49,"left_children":[1,3,-1,5,7,9,-1,-1,11,-1,-1,-1,-1],"loss_changes":[3.9598256E-1,1.8347152E-2,0E0,1.0530405E-2,2.4602175E-2,2.2627637E-3,0E0,0E0,1.1846423E-5,0E0,0E0,0E0,0E0],"parents":[2147483647,0,0,1,1,3,3,4,4,5,5,8,8],"right_children":[2,4,-1,6,8,10,-1,-1,12,-1,-1,-1,-1],"split_conditions":[6E0,3E0,7.3518725E-3,4E0,4E0,2E0,-1.4427354E-3,2.4724223E-3,4E0,-4.0184045E-3,-2.6425447E-3,-1.7810268E-3,-1.3091695E-3],"split_indices":[1,1,0,0,0,1,0,0,1,0,0,0,0],"split_type":[0,0,0,0,0,0,0,0,0,0,0,0,0],"sum_hessian":[3.03E2,2.44E2,5.9E1,1.78E2,6.6E1,8.9E1,8.9E1,2.1E1,4.5E1,2.1E1,6.8E1,2.4E1,2.1E1],"tree_param":{"num_deleted":"0","num_feature":"2","num_nodes":"13","size_leaf_vector":"1"}}]},"name":"gbtree"},"learner_model_param":{"base_score":"[6.6567655E0]","boost_from_average":"1","num_class":"0","num_feature":"2","num_target":"1"},"objective":{"name":"reg:squarederror","reg_loss_param":{"scale_pos_weight":"1"}}},"version":[3,2,0]}